"","c1","c2","c3","c4","c5","c6","c7","c8","c9","c10","c11","c12","c13","c14","c15","c16","c17","c18","c19","c20","c21","c22","c23","c24","c25","c26","c27","c28","c29","c30","c31","c32","c33","c34","c35","c36","c37","c38","c39","c40","c41","c42","c43","c44","c45","c46","c47","c48","c49","c50","c51","c52","c53","c54","c55","c56","c57","c58","c59","c60","c61","c62","c63","c64","c65","c66","c67","c68","c69","c70","c71","c72","c73","c74","c75","c76","c77","c78","c79","c80","c81","c82","c83","c84","c85","c86","c87","c88","c89","c90","c91","c92","c93","c94","c95","c96","c97","c98","c99"
"Galium_labradoricum",-0.106641652866813,-0.0875754779995319,-0.00703079980963298,-0.093813075429946,-0.015093039201749,0.0181518403298317,-0.0143191387051361,-0.000527890121410924,0.000134780917452648,-0.000239781117109679,0.00024667276824178,0.00057100346841387,0.000308824162063117,1.26119167698374e-05,-1.04270434240595e-05,3.57780925216696e-06,1.9941220900225e-05,-0.00180121561460087,-0.155500292415883,0.00172177583895572,3.86172940526319e-16,-1.91277217708873e-15,-0.00108662102055383,-0.0058794426429913,-0.0527185738315367,-3.69518696515615e-05,0.000303974842199122,0.00884292137427686,1.09622997984318e-05,1.3311800907648e-06,2.79680959267048e-06,-1.26630476992239e-06,1.07799304060855e-05,-0.0753143063453618,0.000422262938840421,-0.0144697997652562,1.68853447976808e-05,-5.07539348603714e-16,-1.13893503284142e-15,-5.7504528017718e-15,1.06103568738588e-14,1.29169130730181e-05,1.69983205806252e-07,-0.242525565995796,0.161618775475261,0.000159811671424753,-1.27358656759944e-15,-3.93579419170325e-15,-3.20553543585444e-15,-8.06798640988376e-15,-4.99425327755563e-07,-0.103143415870852,-2.30693035555482e-14,-3.69465965005317e-07,0.177256408723227,0.13210758497771,-0.335277331492175,0.218676049462119,0.788871017575391,-3.43055831674396e-07,0.0365298047169683,5.86380208804011e-15,6.61370511805519e-16,-1.21444443946863e-15,8.88985924849787e-15,1.11484789073637e-15,8.63284395889991e-16,3.01990604986243e-15,1.79035003338564e-15,-1.21702579314511e-06,0.00704183565359502,0.000345812425652556,-7.32951616631369e-16,0.000903570233514234,-1.05952704613866e-15,-3.73136408073721e-16,-1.69905705261577e-15,-5.99346218644413e-05,-9.09211149831285e-16,1.37726417279505e-15,1.45042733632752e-07,1.79559469455005e-06,-4.70848578240949e-16,2.05993567503572e-15,1.61572415017119e-08,-9.6340486870997e-16,-1.80433735433625e-15,8.91224271818429e-16,0.000549091267570022,1.78369294835494e-16,9.81059723263185e-05,-1.52405668019128e-15,-4.703962827009e-15,3.60680608272829e-16,6.83698454367774e-16,1.78733365446378e-17,8.17462138582002e-07,9.62500079968245e-16,8.61059345557091e-16
"Galium_ciliare",-0.106641652866812,-0.0875754779995319,-0.00703079980963319,-0.0938130754299458,-0.0150930392017491,0.0181518403298315,-0.0143191387051356,-0.000527890121410707,0.000134780917451451,-0.0002397811171108,0.000246672768240869,0.000571003468414837,0.000308824162063209,1.26119167696605e-05,-1.04270434264642e-05,3.57780925356045e-06,1.99412208988259e-05,-0.00180121561460451,-0.155500292415882,0.0017217758389553,1.52807725649645e-15,-2.24031863558447e-15,-0.00108662102055526,-0.00587944264299208,-0.0527185738315396,-3.69518696525635e-05,0.000303974842200227,0.00884292137427686,1.09622997999486e-05,1.33118009041043e-06,2.7968095950821e-06,-1.26630477250204e-06,1.0779930385665e-05,-0.075314306345371,0.000422262938845637,-0.0144697997652753,1.688534480522e-05,1.18274808219934e-15,-8.8246316384411e-15,-1.16086273955947e-14,1.65300601286399e-14,1.29169130709745e-05,1.69983196864817e-07,-0.242525565995815,0.161618775475275,0.000159811671431541,-7.95667319585117e-15,1.00488787759585e-14,1.12864696104332e-15,4.23863603334144e-15,-4.99425334691605e-07,-0.103143415870464,2.60597879022952e-15,-3.69466000819144e-07,0.177256408723253,0.182226568322184,0.82533096949664,-0.25790855980423,0.138222441618436,-3.43055883100039e-07,0.0365298047170403,-3.85351407515748e-15,6.77233935274369e-15,1.67944170039775e-15,-2.36477944748448e-14,-7.43890699540509e-15,-6.68190976761256e-15,-1.11440827992521e-14,-3.40292885369334e-15,-1.21702579721892e-06,0.00704183565359999,0.000345812425653967,6.63954656862962e-15,0.000903570233540533,6.28828016100984e-17,1.99537011829195e-15,-1.08541331780554e-15,-5.99346218834926e-05,2.59380833288329e-15,-9.24341564018517e-15,1.4504272905143e-07,1.79559469055349e-06,-1.35796513108277e-14,-1.52398014666055e-15,1.61572409807238e-08,8.84129204658485e-16,2.14287383463665e-15,-9.52535089209741e-16,0.000549091267619569,-4.67045666050073e-15,9.8105972305457e-05,7.1237461221783e-15,1.40203465284953e-14,-4.6544340947018e-15,5.04326291344416e-15,7.9343203049438e-16,8.17462131667233e-07,6.10262783506078e-15,-2.73815824598779e-15
"Galium_concinnum",-0.106641652866813,-0.0875754779995324,-0.00703079980963299,-0.0938130754299461,-0.0150930392017491,0.0181518403298317,-0.0143191387051364,-0.000527890121411132,0.000134780917452026,-0.00023978111710809,0.000246672768242586,0.000571003468413911,0.000308824162063244,1.26119167705158e-05,-1.04270434253656e-05,3.57780925285387e-06,1.99412209006397e-05,-0.00180121561459999,-0.155500292415882,0.00172177583895747,1.86766855133289e-16,-2.00594193741682e-15,-0.001086621020555,-0.00587944264299377,-0.0527185738315346,-3.6951869651995e-05,0.000303974842199681,0.00884292137427674,1.09622998001263e-05,1.33118009276506e-06,2.79680959278649e-06,-1.26630476910947e-06,1.0779930402397e-05,-0.0753143063453645,0.000422262938833965,-0.0144697997652502,1.68853448045604e-05,1.03542581497793e-15,1.6010027881518e-16,-6.82789138914145e-15,1.60544742691515e-14,1.2916913069021e-05,1.69983196849082e-07,-0.242525565995789,0.161618775475282,0.000159811671422357,-7.32737182283347e-16,-3.85807834871662e-15,1.45619969612445e-15,1.98314042129829e-15,-4.99425311930359e-07,-0.103143415870939,1.82501903333983e-14,-3.69466129519782e-07,0.177256408723659,-0.851451666526741,-0.111146837853721,-0.232100536990345,-0.0938391215459698,-3.43055841382778e-07,0.0365298047170207,-8.43766677514203e-15,-3.71118600621436e-15,3.98621742381441e-15,-5.07183938864468e-15,1.74517201591154e-16,1.03402303527332e-14,-6.76935111280775e-15,-1.4700474252284e-18,-1.21702578415772e-06,0.00704183565358322,0.000345812425640848,-2.59394277779731e-16,0.000903570233498389,5.6280946238744e-15,-6.49197390738988e-16,3.15211535807815e-15,-5.99346218484997e-05,4.702870163692e-16,6.34019041542723e-15,1.45042738786603e-07,1.79559469729434e-06,3.70100533657994e-15,1.5879095143005e-15,1.61572287408521e-08,1.18803043934974e-15,-1.62290827167563e-15,-3.91030074653789e-15,0.00054909126755638,-2.21662166984479e-15,9.81059723283737e-05,-7.54711836905316e-15,-1.47617676704777e-14,-8.29094777539271e-17,-2.40921839045519e-16,-3.72215021543765e-16,8.1746215059679e-07,-8.79228680653894e-15,8.13856640280389e-16
"Galium_eriocarpum",-0.106641652866813,-0.0875754779995318,-0.00703079980963307,-0.0938130754299457,-0.0150930392017486,0.0181518403298312,-0.0143191387051358,-0.000527890121410774,0.000134780917453132,-0.000239781117109625,0.000246672768241951,0.000571003468413581,0.000308824162062218,1.26119167698924e-05,-1.04270434250424e-05,3.57780925205246e-06,1.99412209001498e-05,-0.00180121561460072,-0.15550029241588,0.00172177583895582,4.94776177448518e-17,-2.43303876004896e-15,-0.0010866210205541,-0.00587944264299117,-0.052718573831533,-3.69518696513072e-05,0.000303974842198555,0.00884292137427631,1.0962299800396e-05,1.33118009115182e-06,2.79680959207325e-06,-1.26630476906744e-06,1.07799304062758e-05,-0.075314306345358,0.000422262938835327,-0.014469799765244,1.68853447971501e-05,1.74360891045534e-15,-2.42752448538195e-15,-6.62637976703417e-15,1.00506308574751e-14,1.29169130759622e-05,1.69983202475796e-07,-0.242525565995775,0.161618775475246,0.000159811671430812,8.61641569543282e-16,-4.43808210527871e-15,-1.12166991537986e-14,-5.65307478123584e-15,-4.99425358652875e-07,-0.103143415870804,5.45068713569791e-14,-3.6946600681536e-07,0.177256408722327,0.468713086881477,-0.4367175307253,-0.494802543621458,-0.380468505095051,-3.43055827793246e-07,0.0365298047170062,5.93387008891695e-15,-8.60511947682371e-15,-5.54921803179847e-15,3.99079534987617e-15,1.50273418273995e-16,8.14559927684004e-16,5.79456469582719e-15,6.27216304433953e-16,-1.21702579224687e-06,0.00704183565357706,0.000345812425673006,2.37248369150899e-15,0.000903570233506154,1.0467457705232e-15,2.53578367495541e-15,-2.40991935825384e-15,-5.99346218634318e-05,-6.15488497384373e-15,-7.98416699910256e-16,1.45042726954595e-07,1.79559468518991e-06,5.69123714660468e-15,-4.70837870635025e-15,1.6157242467782e-08,-1.36118792655491e-15,5.49227604367756e-16,7.21967790911853e-15,0.000549091267570182,4.72649402388717e-16,9.81059723242174e-05,-3.13596994650816e-15,2.90038835557909e-15,3.15287945400767e-16,-5.91775216005663e-16,2.54168163102458e-17,8.17462131338124e-07,2.90894995601219e-15,1.49681000902196e-15
"Galium_propinquum",-0.106641652866813,-0.0875754779995319,-0.00703079980963263,-0.0938130754299464,-0.0150930392017485,0.0181518403298314,-0.0143191387051359,-0.000527890121410775,0.000134780917452245,-0.000239781117109404,0.000246672768242161,0.000571003468413966,0.000308824162062926,1.2611916770238e-05,-1.04270434232773e-05,3.57780925257707e-06,1.99412209000966e-05,-0.0018012156146007,-0.15550029241588,0.00172177583895597,1.42597004699593e-16,-2.16470977354136e-15,-0.0010866210205549,-0.00587944264299129,-0.0527185738315342,-3.69518696513223e-05,0.000303974842200555,0.0088429213742753,1.09622997975863e-05,1.33118009080071e-06,2.79680959194255e-06,-1.2663047702034e-06,1.07799304027391e-05,-0.0753143063453591,0.000422262938839201,-0.0144697997652519,1.68853447977815e-05,-3.19065027019653e-15,-4.24537893115952e-15,-4.95804298795158e-15,1.2949523124476e-14,1.29169130713104e-05,1.69983203278931e-07,-0.24252556599579,0.16161877547525,0.000159811671430096,-7.61678795535793e-16,-1.08938895864218e-15,6.38056085231128e-15,-6.88502725132912e-15,-4.99425338923923e-07,-0.103143415870814,-6.403680705636e-15,-3.69465968021776e-07,0.177256408723168,0.068404426346179,0.057810730574336,0.766135590953636,-0.452785832553121,-3.43055847482276e-07,0.0365298047169622,4.97271513101218e-16,-2.12209633025575e-15,1.05443917941116e-15,5.20297978729902e-16,5.53961417152108e-15,2.22341524879039e-15,1.98891793098229e-15,-4.01471142897041e-15,-1.21702579338446e-06,0.00704183565359479,0.000345812425656619,-1.89972363367283e-15,0.000903570233519103,-2.88430399797541e-15,-2.68683620888337e-15,-2.20755655557047e-16,-5.99346218631142e-05,-2.75108953271078e-16,1.00948443824004e-15,1.45042734886442e-07,1.79559468969108e-06,-2.32765835077286e-15,3.77304491588436e-15,1.61572395814749e-08,2.01742168346201e-15,-1.9787482347086e-15,2.01252865041617e-15,0.000549091267568155,-1.33696977430742e-15,9.81059723178029e-05,2.63748243050197e-15,-1.11566041397835e-14,5.96446106235295e-16,-3.49628698071399e-15,3.85400476862677e-17,8.17462123235571e-07,6.72798833354284e-15,-6.15682311524007e-16
"Galium_circaezans",-0.107026813166016,-0.0881197695358013,-0.0071176088201421,-0.096686360997211,-0.01558665722988,0.0187800489687339,-0.0151649284791688,-0.000576528643329108,0.000147912470296542,-0.000266465534919053,0.000274159793712491,0.000656360122763455,0.000355006066201944,1.4555610218957e-05,-1.22942030483836e-05,4.22025135012793e-06,2.42903524884456e-05,-0.00226660557404978,-0.203564169617177,0.00230628695976413,4.71780611012438e-16,-2.48151296078987e-16,-0.00148541736162459,-0.00827085727119079,-0.074473976570623,-5.33354499744603e-05,0.000441470045958524,0.0130739063028843,2.1524743366933e-05,2.71640003249352e-06,6.46732877555629e-06,-4.7591933904319e-06,4.77027728231561e-05,-0.464083793229013,0.00530410541494106,-0.201577242353662,-0.000106483865932899,-6.8890257596671e-16,3.90458289802578e-15,8.50894075536539e-15,-1.94315751499074e-14,-2.8907718813251e-05,-3.72256103989943e-07,0.375798383891755,-0.126314776692279,-0.000115370536073243,6.47282016505208e-16,2.40128316622322e-15,7.9538250038662e-16,1.9090393361765e-15,7.34635748219998e-08,0.00847358295993262,1.57287620895695e-16,6.65601845844571e-09,-0.00234564546305913,4.82253126321552e-15,9.33975119465913e-15,-4.46170878021235e-15,4.66640615037761e-15,-3.40371131997757e-08,0.00425186316897732,1.23236485324181e-15,2.63213992699777e-16,1.4553197994991e-15,6.68572193641331e-15,-5.21970447401895e-16,-3.75438101700608e-15,-3.06923544613322e-16,-1.49653853983661e-15,-4.1548624315718e-07,0.00262357947842125,0.00013307044336543,-9.75489003677619e-16,0.000365352574892827,1.07534432200784e-15,1.10518576471798e-15,-9.21859890700006e-17,-2.52689896927592e-05,-6.53307807520496e-15,1.87720545278807e-14,6.30087446222866e-08,7.87778690646171e-07,2.98812198994212e-16,-1.02331455910809e-14,7.1519900872096e-09,-4.34788691951557e-15,9.36983880282309e-15,-3.34454201278621e-15,0.000259150305486128,-9.65222904099451e-15,4.78117950723316e-05,1.05763598158673e-13,-0.707106781186552,-5.1802903765452e-13,1.64917039615511e-14,1.98132953506157e-14,4.13359762394805e-07,-7.81977441807606e-14,-2.67305923440629e-14
"Galium_porrigens",-0.107026813166016,-0.0881197695358013,-0.00711760882014282,-0.0966863609972111,-0.01558665722988,0.0187800489687336,-0.0151649284791689,-0.000576528643328389,0.000147912470296546,-0.000266465534919794,0.000274159793712513,0.00065636012276383,0.000355006066202591,1.45556102183577e-05,-1.22942030482321e-05,4.22025134944668e-06,2.42903524879666e-05,-0.00226660557405018,-0.203564169617178,0.00230628695976479,4.66610580532435e-16,-1.80813304203251e-15,-0.00148541736162387,-0.00827085727119195,-0.0744739765706242,-5.33354499774426e-05,0.000441470045959003,0.0130739063028836,2.15247433677545e-05,2.71640003149065e-06,6.46732877415702e-06,-4.75919339000661e-06,4.77027728235634e-05,-0.464083793229014,0.00530410541494076,-0.201577242353659,-0.000106483865929617,-1.263061923591e-15,3.05902088685389e-15,8.39828760565151e-15,-1.72152169164264e-14,-2.89077188104537e-05,-3.72256103182022e-07,0.375798383891755,-0.12631477669228,-0.000115370536071963,-2.9745940960097e-16,-2.83763902383657e-16,2.03077812441138e-15,1.4102519521213e-15,7.34635768062723e-08,0.00847358295993793,-5.90725950533323e-16,6.65601755679259e-09,-0.00234564546306777,-1.62959923333261e-14,-8.79851747015437e-15,1.19487753025282e-14,-3.25260651745651e-16,-3.40371143632028e-08,0.00425186316897514,-1.15788230876066e-16,-1.32148699515402e-16,2.85808201565588e-16,4.18936504953622e-15,1.50296156618427e-15,4.99010810939809e-15,-2.05877890431669e-15,1.42960770891491e-15,-4.15486247480785e-07,0.00262357947842403,0.000133070443371364,2.93940717346734e-15,0.000365352574896889,-1.82011636899926e-15,-2.2659363033787e-15,-3.1044307389955e-16,-2.52689896894396e-05,4.85293351214472e-15,-1.53800728244929e-14,6.30087462121699e-08,7.87778667146678e-07,-7.39306700952211e-16,1.051400372768e-14,7.15198081839287e-09,2.67320240252042e-15,-1.05566848783373e-14,4.34345113183811e-15,0.000259150305583703,1.0170653095842e-14,4.78117950933618e-05,-1.07486898590381e-13,0.707106781186543,5.18307552847635e-13,-1.73025437640078e-14,-1.74873379680551e-14,4.13359292365832e-07,7.83505772679032e-14,2.86366254736194e-14
"Galium_album",-0.10983936650351,-0.0921735121583396,-0.00779570608446682,-0.122859269361306,-0.0201679988580646,0.0247129047358814,-0.0254122941640172,-0.00150345969849375,0.000422546398571692,-0.00101169819385724,0.00104447136623744,0.0216098809412587,0.0118181922553754,0.00545382758608866,8.49005864859832e-05,-2.85737088294238e-05,-6.56792789220111e-05,0.00380450812066288,0.233305362470418,-0.0022287691253759,-7.5595036325084e-16,3.40692079856819e-15,0.00125915036588665,0.00596815716723033,0.0525835197505089,3.39071485464229e-05,-0.000272796554271242,-0.00747124311781443,-5.31740550857323e-06,-6.17759987933234e-07,-1.15296914611116e-06,4.02502095193882e-07,-3.25911025630772e-06,0.0211802910521191,-0.000109281707967374,0.00371745871090325,-3.61063110923802e-06,1.64648978711023e-18,-1.62696546549716e-15,1.98492691091395e-15,-4.48990501638375e-15,-2.32994565756526e-06,-3.05091683092316e-08,0.0398537279268536,-0.0212504910180879,-2.03955192993331e-05,-1.56692112017551e-15,1.18026237490781e-15,-1.46419767208549e-15,-3.41454346917905e-15,2.98208129279333e-08,0.00426044355768147,1.2475378461598e-17,4.55284569618794e-09,-0.00165228207248469,1.19279586208165e-14,-1.47659662275146e-14,2.91849877598338e-14,-3.52582546492286e-15,-1.42843658666712e-07,0.330107716914567,-2.00677793754306e-15,-3.57365585513217e-16,-5.48746274717997e-15,-6.97046179012608e-15,1.08927651579673e-15,7.14755026212845e-16,-1.97024941071859e-15,1.47978027799014e-15,5.37559217673078e-08,-0.0118909174916331,-0.0248771907451801,1.22684122589641e-15,0.00450558213482663,5.76444430334088e-16,9.34537478377216e-16,-5.08917410850382e-15,-4.10230866222065e-07,1.22774249324254e-15,6.97175610335109e-15,2.16197186617634e-09,3.26272930118724e-08,9.58842786411847e-15,-8.69136161168844e-15,3.4786535262482e-10,-1.45238519000033e-14,-1.51065230759798e-15,-8.63689638461591e-15,0.284251946481472,-1.65222736348238e-14,0.188009364315019,-5.12749964383117e-14,1.87942321174623e-13,1.49778935034776e-13,6.04133443647547e-14,-4.95243729916262e-13,0.407736940210688,-0.707106781189511,3.33942799799396e-14
"Galium_lucidum",-0.10983936650351,-0.0921735121583395,-0.00779570608446678,-0.122859269361306,-0.0201679988580648,0.0247129047358819,-0.0254122941640168,-0.00150345969849386,0.000422546398571766,-0.00101169819385844,0.00104447136623714,0.0216098809412582,0.0118181922553758,0.00545382758608956,8.49005864849947e-05,-2.85737088297139e-05,-6.56792789224707e-05,0.00380450812066227,0.233305362470417,-0.00222876912537594,-1.30031379033497e-15,3.05399476855948e-15,0.00125915036588842,0.0059681571672312,0.0525835197505085,3.39071485454273e-05,-0.000272796554270338,-0.00747124311781499,-5.31740550808888e-06,-6.17759988408563e-07,-1.15296914809895e-06,4.02502095342258e-07,-3.25911025960255e-06,0.0211802910521189,-0.000109281707968232,0.00371745871090162,-3.61063110835292e-06,-9.03908035187133e-16,-3.31778755859165e-16,1.1340394812869e-15,-2.45726917367793e-15,-2.32994565504522e-06,-3.05091688902784e-08,0.0398537279268596,-0.021250491018088,-2.0395519300393e-05,-1.5041417998454e-15,9.48891536523491e-16,5.93624591887884e-17,-3.14963921562269e-15,2.98208151694941e-08,0.00426044355767587,9.30156112722934e-16,4.55284378191171e-09,-0.00165228207247769,-3.60822483003176e-15,-2.17048601314218e-14,2.26416108084493e-14,-1.03649727689614e-15,-1.42843676264914e-07,0.330107716914569,-2.28427037757187e-15,-1.84481642600126e-15,-7.84406377517227e-16,-6.6469059257851e-15,1.52969364617937e-15,-5.22418778003879e-16,-1.59026877341825e-15,-2.97340628387453e-15,5.37559154965438e-08,-0.0118909174916305,-0.0248771907452079,-2.24316270480256e-15,0.00450558213481352,5.55403783590064e-15,7.86745060021765e-15,-3.85498206174551e-15,-4.10230856141305e-07,-1.78328575213658e-15,6.62164223891425e-15,2.16195895747101e-09,3.26272661382199e-08,1.14739222646457e-14,-2.31073537701116e-15,3.47858587068345e-10,-1.99873011162894e-15,-7.36624583166565e-15,-1.05316711604999e-14,0.284251946481455,6.04735066483444e-15,0.188009364315049,-8.26150757378952e-14,3.1636797095209e-14,-1.19397363320269e-14,-7.18523884034303e-14,2.87388297848451e-13,0.407736940220968,0.707106781183585,5.60993694215933e-14
"Galium_mexicanum",-0.109839169100271,-0.0921732285807206,-0.0077956590144877,-0.122857493301317,-0.0201676887620378,0.0247125040903734,-0.0254116221012996,-0.0015034011736284,0.000422529161127002,-0.00101165213098403,0.00104442376078315,0.0216086377345786,0.0118175121654632,0.00545350642123938,8.4894992631083e-05,-2.85718223796411e-05,-6.56742970797165e-05,0.00380418454548897,0.233283123333921,-0.00222854429138781,-1.07264155120766e-15,3.07500603177709e-15,0.00125901743491665,0.00596748967386075,0.0525775919604161,3.39031762306645e-05,-0.000272764258626173,-0.00747033264784818,-5.3165347663488e-06,-6.17656222755082e-07,-1.15276164228218e-06,4.02417526004798e-07,-3.2584046172865e-06,0.0211755020066163,-0.00010925574246424,0.00371657158394749,-3.60967162438841e-06,-3.85035920646089e-16,-1.86110911705267e-15,5.11588644369732e-17,-1.90471336185002e-15,-2.3292643878455e-06,-3.05002271030799e-08,0.0398414789448166,-0.0212432042698195,-2.03884314459602e-05,-5.63010120330247e-16,-1.93153534074437e-16,-6.03780637015289e-16,-2.37170276719705e-15,2.98078353455121e-08,0.00425850041753497,7.307557805594e-16,4.55065538398237e-09,-0.00165148276947934,-1.53488333154428e-14,-2.39808173319034e-14,1.50227053019591e-14,6.96404739430889e-15,-1.42765240507981e-07,0.329922085303612,-3.4280489330877e-15,-2.17286031472268e-15,-1.66068236863742e-15,1.03573836090526e-14,1.39784139979029e-15,4.32378473463624e-15,-2.60084159332594e-15,2.10923095919661e-15,5.37025359283179e-08,-0.0118770330545864,-0.0248458269789189,-1.00689322971112e-15,0.00449902197790856,-8.24219920258644e-15,-3.13017178333004e-15,3.0601751641286e-15,-4.09531798932659e-07,3.84998118921622e-16,1.29336037131988e-15,2.1577071319351e-09,3.25595374228762e-08,-6.07902235515064e-15,2.23666306913571e-17,3.47096342950693e-10,-4.67297575109158e-15,-5.26009551099925e-15,5.4347212110894e-16,0.283149779597088,1.84911404961955e-14,0.186708309433092,2.51211085687164e-14,-2.9728075671295e-13,-1.30497253777503e-13,2.99403433524898e-16,2.32750538214651e-13,-0.817006729307398,5.93982338007095e-12,-1.04318969846988e-13
"Galium_mollugo",-0.109796847023997,-0.092112422892445,-0.00778556290221717,-0.122476199226269,-0.0201011091132234,0.0246264751505098,-0.0252671541354266,-0.00149080365135409,0.000418818041917019,-0.00100173001043328,0.00103416930905665,0.0213404996934098,0.0116708283487002,0.00538422660434048,8.3687407082733e-05,-2.81645751816848e-05,-6.45976731634542e-05,0.00373418726822164,0.228466899750025,-0.00217982375671746,-8.99988665542056e-16,2.03584185589816e-15,0.00123019722231604,0.00582267476647872,0.0512914142143266,3.30408727255205e-05,-0.00026575263299263,-0.00727258820644332,-5.12655451905869e-06,-5.9500592431826e-07,-1.10740742721842e-06,3.83872296854418e-07,-3.10355468635423e-06,0.0201234624018417,-0.000103544528425943,0.00352142228554487,-3.39797444078198e-06,4.64843333574518e-16,3.18340647828669e-16,4.77447631381419e-16,1.74725896675387e-17,-2.17850841996546e-06,-2.85206325611065e-08,0.037126441457299,-0.0196216778562359,-1.88103533729604e-05,-3.72645694593118e-16,2.04092303689442e-15,-1.85282541022015e-16,-1.44666157086789e-15,2.68887056560566e-08,0.00382057644441474,4.59300144144593e-16,4.05507146192175e-09,-0.00147078108647151,-2.07472927726826e-15,-1.98591143529825e-14,1.50157664080552e-14,5.74974096112513e-15,-1.2490302796111e-07,0.28757948789861,-8.12324727557393e-16,-4.00815177773701e-15,1.03232102011873e-15,-8.75265422478041e-16,-4.57990105595157e-15,3.4408068888785e-15,-6.67387785266946e-15,-3.58474253403812e-15,4.08960799645505e-08,-0.00847513726504989,-0.0170725818042212,-2.88142572728601e-15,0.00283282524085419,-4.93143487167792e-15,-6.50759241244924e-16,4.4804768384388e-15,-2.26202080134091e-07,2.93764027851548e-15,-7.92624981533052e-15,1.00363742467477e-09,1.38817517055726e-08,-3.79603448634445e-16,2.12500873035002e-14,1.3373024973491e-10,2.77279966211481e-15,5.33227105215135e-15,2.05635610997269e-14,-0.12109368340052,6.1810637250308e-14,-0.892891020181073,1.3721147412924e-13,1.84858416093643e-14,-3.46338032401069e-14,-1.78611307506494e-14,-3.70731922958216e-14,0.00100810628024843,1.16797182634462e-14,1.13095277871788e-14
"Galium_sylvaticum",-0.109755345297108,-0.0920527905075882,-0.00777565955672718,-0.122101965029408,-0.0200357580167982,0.0245420287020498,-0.0251252417901107,-0.00147841810337467,0.000415168887910721,-0.000991970298866503,0.00102408267164599,0.0210765265924435,0.0115264227768102,0.00531601632940317,8.24978733968861e-05,-2.7763412009372e-05,-6.35363912004636e-05,0.00366514214819733,0.223712697126466,-0.0021317114527872,-8.0659806531589e-16,2.26915273136969e-15,0.00120172720633969,0.00567955496748178,0.0500202102846373,3.21883366008343e-05,-0.000258819811224358,-0.0070770171580266,-4.9380895598849e-06,-5.72529350459187e-07,-1.06236144404108e-06,3.65412104247422e-07,-2.94934154104085e-06,0.019075001392674,-9.78478602425072e-05,0.00332675493495018,-3.18637019356391e-06,9.0165047006268e-17,9.1054940325347e-16,9.91222614162651e-16,-2.41139365566859e-15,-2.02751447212265e-06,-2.65377875031781e-08,0.0344040215216024,-0.0179913034269412,-1.72230983834359e-05,1.8657756399554e-17,8.23728604064044e-16,3.94651452680103e-16,-3.64632373039633e-15,2.39323532047551e-08,0.00337633605789448,1.56208207522162e-16,3.55131172478306e-09,-0.00128706612811764,2.12052597703405e-14,3.33066907387547e-14,5.01682029252493e-15,1.00770086719493e-14,-1.06646304562397e-07,0.244254332652797,-1.92528918233484e-15,-4.02898845066634e-15,-5.0354359585612e-15,6.153013257176e-15,-2.9878158726476e-15,1.97523517090518e-16,4.16565216784584e-15,-5.92926277487186e-15,2.72837078542948e-08,-0.00479697650169819,-0.0085876599097303,4.05900070894058e-16,0.000975429619218091,8.46872194958848e-16,-3.02877715593953e-15,3.44920318466127e-15,-1.58228190889145e-08,-1.21624150051248e-14,-1.17060301910856e-14,-3.66184110795943e-10,-8.63112496146434e-09,-2.39827579695902e-14,-1.30419197385583e-14,-1.27807343421173e-10,1.97432529343589e-14,1.18898771676333e-14,3.89392193835019e-15,-0.86071146535952,-7.52771298582243e-14,0.311668289588173,-2.74896637269142e-14,5.13958315330087e-14,2.61376178607734e-14,3.16482451829427e-14,1.34515089772948e-14,0.000401058965042545,-1.81659339553232e-14,6.01016844037364e-15
"Galium_odoratum",-0.109427080408907,-0.0915808084141368,-0.00769715651673372,-0.119122504045179,-0.0195152176010794,0.0238690959029324,-0.0239883158462732,-0.00137853561793954,0.000385711277424471,-0.00091298624826843,0.000942450747269417,0.0189263985767889,0.0103501922039118,0.00476001767251966,7.27647425467366e-05,-2.44807327228114e-05,-5.4805113413001e-05,0.0030942027437885,0.184173650750149,-0.0017303247326724,-6.85107577061139e-16,2.34674282100934e-15,0.000963578625469281,0.00447809479354113,0.0393433092630134,2.50096956846069e-05,-0.000200401725002676,-0.00542577535885627,-3.3070910627626e-06,-3.77518793750174e-07,-6.68670337444906e-07,2.01021417737384e-07,-1.57045943135781e-06,0.00964255664069162,-4.62153073873711e-05,0.00156116782910829,-1.2324306716357e-06,4.76320530989155e-16,-1.51371135054171e-16,3.89850229175603e-16,-1.07273665066534e-16,-6.07659738735522e-07,-7.88209132630588e-09,0.00853528344271449,-0.0020980391457012,-1.69740747954697e-06,3.17030093075716e-16,-7.53167829062976e-16,8.70026414787819e-16,2.73251102419624e-15,-7.03491029752955e-09,-0.00135817380030299,-6.8703869074803e-16,-1.93664277756984e-09,0.000718104402065278,-1.2791850911853e-14,1.06858966120171e-14,-1.50643386653826e-14,7.06899816460549e-16,1.04921674434664e-07,-0.264331665970092,2.68602344150656e-15,1.86130517306249e-15,7.22590187860382e-16,2.99536644595261e-15,3.70485133260485e-16,-9.21782282570573e-15,7.88683954371734e-15,6.15523714993789e-15,-2.73520365220746e-07,0.134263723849736,0.532002667639748,-5.08047841122383e-15,0.214583276470919,4.88788373611361e-15,-3.46264597683703e-15,-1.15368779353421e-14,-4.82064202387798e-06,-8.18826536472976e-15,0.707106781186545,1.54213137539632e-08,2.01520102089995e-07,-1.57910840993642e-13,1.51823395689659e-14,1.89003527744187e-09,3.14430603522612e-15,-1.35049725307359e-14,3.92423882705537e-15,0.0261171378210106,7.13752741646979e-15,0.00355931537765528,-3.62265046774379e-15,7.79979694360356e-15,-5.49955893231522e-15,4.22996775469075e-15,2.57275084092755e-15,2.28356783278475e-05,1.49366958927548e-14,-1.43260426778532e-16
"Galium_aparine",-0.109427080408907,-0.0915808084141368,-0.00769715651673374,-0.119122504045179,-0.0195152176010794,0.0238690959029325,-0.0239883158462734,-0.00137853561793987,0.000385711277424589,-0.000912986248268089,0.000942450747269321,0.018926398576788,0.0103501922039119,0.00476001767251982,7.2764742546259e-05,-2.4480732722702e-05,-5.48051134126211e-05,0.00309420274378859,0.18417365075015,-0.00173032473267281,-1.57197597541929e-16,2.69099709290529e-15,0.000963578625469915,0.0044780947935415,0.0393433092630141,2.50096956845611e-05,-0.00020040172500338,-0.00542577535885699,-3.30709106329655e-06,-3.77518793114225e-07,-6.68670338328313e-07,2.01021418243141e-07,-1.57045943088154e-06,0.00964255664069004,-4.62153073877952e-05,0.00156116782910751,-1.23243067228885e-06,9.37869813851999e-16,7.01142249120933e-16,6.24358941080688e-16,-1.86846266146409e-15,-6.07659735543928e-07,-7.88209132441565e-09,0.00853528344271727,-0.00209803914570336,-1.69740747937922e-06,1.52384102378548e-15,-2.44976153544106e-15,1.17326872888987e-15,2.79030602485336e-15,-7.03490960826046e-09,-0.00135817380030589,-1.26380089803578e-15,-1.93663854281746e-09,0.000718104402068164,-2.31481500634345e-14,-1.19348975147204e-15,-1.18099974244501e-14,-7.54604712049911e-16,1.04921672286326e-07,-0.264331665970094,-8.47074284646313e-17,2.87793009565969e-15,-5.40164762430206e-16,3.99895459127372e-15,-1.19465721186068e-14,-8.00752914282271e-15,9.82059596282957e-15,5.97980660079415e-15,-2.73520369551199e-07,0.134263723849732,0.532002667639755,-1.11313253418974e-14,0.214583276470884,6.86690194171102e-15,-1.42473253425777e-14,-7.35066849167286e-15,-4.82064205984436e-06,2.00658232690119e-14,-0.70710678118655,1.54208477846834e-08,2.0152002429711e-07,1.41779501275048e-13,2.56405523791475e-15,1.89000164906596e-09,5.30541054122702e-16,4.1861450383715e-15,-4.78696434950074e-15,0.0261171378210324,-9.34295193125996e-15,0.00355931537766423,-7.30292500238017e-15,-2.65477278807372e-14,-1.4605760066272e-15,-2.72137587299938e-15,-4.47523740460643e-15,2.28356783340656e-05,1.4745442629528e-14,-6.44525623033885e-16
"Galium_saxatile",-0.109405193316329,-0.0915493124766478,-0.0076919076809592,-0.118922178297537,-0.0194801973401088,0.0238237979457803,-0.0239112580446265,-0.00137170836674,0.000383695198884947,-0.000907563025209964,0.00093684552957604,0.0187775378100126,0.0102687567791621,0.00472148760725699,7.20869443634518e-05,-2.42521113323659e-05,-5.41928017081714e-05,0.00305390082232459,0.181361968993359,-0.00170166642349137,-3.26452111971084e-16,1.65055826010451e-15,0.000946517019608451,0.00439162275621172,0.0385743644119311,2.44910056561113e-05,-0.0001961768929122,-0.00530604843413714,-3.18500805020218e-06,-3.6287387928139e-07,-6.38824628697007e-07,1.88252999084794e-07,-1.46279476352621e-06,0.00890017639521764,-4.21121624513642e-05,0.00142073677355253,-1.07335323763234e-06,-1.14856514317432e-16,9.86380580152456e-16,1.12325390738947e-15,1.68314193413382e-15,-4.89293499959895e-07,-6.32573956521212e-09,0.00634914102180681,-0.00070921534221895,-3.34633996780548e-07,1.03102002052971e-15,-5.60216543614109e-16,1.23217297742993e-15,2.85442813408681e-15,-1.00100511506317e-08,-0.00182361163720908,1.14421786797493e-15,-2.49217834549318e-09,0.000921597315051623,3.9343528435154e-15,1.05193631583234e-14,-2.14619988447851e-14,-6.8959594978768e-15,1.2819601456647e-07,-0.321267951895109,2.48529486338817e-15,6.18237652956224e-15,1.4956334306608e-15,3.9808118036963e-15,-8.9002845462042e-15,9.88472273275095e-15,-5.08451171802429e-15,-1.91136345881923e-14,-3.62300401535866e-07,0.294343590255918,-0.451728783666726,5.39069847636052e-15,0.157019209667731,7.3880735761307e-15,-5.85984834618767e-15,-4.19922981497802e-15,-4.23044750949317e-06,1.7683511917029e-14,1.43881430957949e-13,1.42441100965837e-08,1.88271295059031e-07,0.707106781186551,1.7452753695818e-13,1.78109056882792e-09,-1.2897402063488e-14,-3.82113002766296e-15,2.08877085694446e-14,0.0174947382462428,-5.88851581456849e-15,0.00254924407035427,-3.17145513522579e-15,-4.13258543510216e-15,-4.50293568679604e-16,-1.41531094888448e-15,-1.68639624243126e-15,1.73186102988123e-05,-6.24907115370067e-15,7.22648890628976e-17
"Galium_murale",-0.109405193316329,-0.0915493124766478,-0.00769190768095923,-0.118922178297537,-0.0194801973401089,0.0238237979457803,-0.0239112580446265,-0.00137170836673988,0.000383695198884771,-0.000907563025209676,0.00093684552957614,0.0187775378100128,0.0102687567791628,0.00472148760725693,7.20869443635233e-05,-2.42521113321299e-05,-5.41928017083696e-05,0.00305390082232517,0.181361968993359,-0.0017016664234916,-2.27595637020074e-16,2.30942507627317e-15,0.000946517019609311,0.0043916227562121,0.0385743644119305,2.44910056570044e-05,-0.00019617689291353,-0.00530604843413666,-3.18500804965109e-06,-3.62873878389171e-07,-6.38824628877344e-07,1.8825299981815e-07,-1.46279476535473e-06,0.0089001763952187,-4.21121624519731e-05,0.00142073677354934,-1.0733532394808e-06,-3.31384951212896e-16,8.06528928126372e-16,7.06674296255624e-16,9.58147430080762e-16,-4.89293500451659e-07,-6.32573899723568e-09,0.00634914102180649,-0.000709215342219748,-3.34633995184389e-07,1.54755036097991e-15,-1.48974985061007e-15,4.5466384010806e-16,2.13255538943688e-15,-1.00100522325758e-08,-0.00182361163720926,5.63041806179503e-16,-2.49217557310628e-09,0.000921597315045392,-4.23272528138341e-16,-9.6034291630076e-15,-2.42098008307323e-14,-1.22805411673088e-14,1.28196029294458e-07,-0.321267951895117,5.25694197471942e-15,5.32212811136733e-15,6.12240434013937e-15,4.57712081269286e-15,-2.67506693709144e-15,-2.99781236824117e-15,-4.74006100618022e-16,-2.00710783574834e-15,-3.62300395027208e-07,0.294343590255892,-0.451728783666748,1.45159591632762e-14,0.157019209667738,5.6591162721083e-15,1.40758358548995e-14,-9.59814689766004e-15,-4.23044746164705e-06,-2.19718380646417e-14,-1.55730466833648e-13,1.4244009906254e-08,1.88270237173523e-07,-0.707106781186543,-2.03362163636979e-13,1.7812034321299e-09,1.66606774713686e-14,-6.00215057316452e-15,-2.72099930309323e-14,0.0174947382462781,-4.58693146857873e-15,0.00254924407034815,9.70919701929918e-15,-5.14566394507261e-15,-3.22966066667622e-15,5.42272661153177e-15,-4.245209100369e-16,1.73186103178816e-05,-4.41676948220018e-15,4.50706795161834e-15
"Galium_uliginosum",-0.109357252931376,-0.0914805452291807,-0.00768053234696403,-0.118497230146616,-0.0194060850316687,0.023728141916013,-0.0237528356903449,-0.00135813684010183,0.000379708065406315,-0.000896977673193354,0.000925906424435313,0.0184967146644584,0.0101151376283218,0.00464908641352574,7.08391392093565e-05,-2.38313925141471e-05,-5.30987651781523e-05,0.00298390923995964,0.176636013095579,-0.00165436209856897,-8.87243403416318e-17,2.5146233003973e-15,0.000918789693065437,0.00425403930300273,0.0373546254387156,2.36806841844182e-05,-0.00018960497496465,-0.00512206612157584,-3.02510407554084e-06,-3.44025878616731e-07,-6.02347727306402e-07,1.7472022708548e-07,-1.35239132828584e-06,0.00817714738161162,-3.83687304476622e-05,0.00129339638107825,-9.52136769827181e-07,1.82055415006922e-16,9.13845669140757e-16,-3.500559957016e-16,-2.68008205665138e-15,-4.15876041079847e-07,-5.36696750169157e-09,0.00516624806805304,-0.000217670811345348,1.14691185195951e-07,6.42593314383298e-16,-1.66551098798803e-16,1.55761274435958e-16,1.49076008622001e-15,-9.64077654855543e-09,-0.00171696446623926,-9.70904393887293e-16,-2.2937848953997e-09,0.000846741687915122,8.28156987431328e-15,3.45140582780346e-14,-9.83935155574045e-15,3.47161535629859e-15,1.12197492816097e-07,-0.278514180036825,4.05950423066947e-15,6.01803318142591e-16,3.57850332163508e-15,-1.68512727321592e-14,1.28820767129898e-14,7.58349576288961e-15,1.21392393521966e-15,-5.10676080856901e-15,-1.69557181019802e-07,0.0214564654855864,0.072348428084623,4.32062900582063e-14,-0.914888005649722,-2.0203984045594e-14,1.06292331673056e-14,1.43659060612836e-14,-1.64704628483881e-05,1.41481066802245e-14,2.43055691725663e-14,3.37596452094828e-08,4.06541761204178e-07,-4.46468807983743e-15,1.86852802630598e-14,3.59015891472533e-09,-1.39308210052327e-14,7.75761895047756e-15,9.56288474963413e-15,0.0234824965299626,4.83099120285605e-15,0.00322820868535996,-6.80826051872567e-16,-3.82552515776793e-15,-5.34108214157073e-15,3.45502657372845e-15,3.16795332584834e-15,2.09080457694622e-05,-4.48134294746252e-15,8.72546042151536e-16
"Galium_triflorum",-0.109169564853298,-0.091211015088134,-0.00763582956249565,-0.116814427877733,-0.019112348758125,0.023348724422005,-0.0231183132565483,-0.0013030997881893,0.000363507922833,-0.000853755965837023,0.000881238021580852,0.0173351451938298,0.00947971078139459,0.00434916163585154,6.56290213027958e-05,-2.20744434153156e-05,-4.84769676168012e-05,0.0026848728630246,0.156176531041825,-0.0014480504573768,-5.79003551681426e-16,2.16176694631134e-15,0.00079708180245215,0.00364477650539347,0.0319463650343279,2.00646379099319e-05,-0.000160224554660016,-0.0042952833669551,-2.2537973494775e-06,-2.52369621626346e-07,-4.20597785074765e-07,1.02390386453583e-07,-7.52239363024082e-07,0.00413959306502158,-1.67202546279674e-05,0.000554532681604168,-1.7625861980701e-07,-1.20201354726155e-16,1.0263537351402e-15,8.88539566824739e-16,-2.51568830355702e-15,1.16630571021716e-07,1.61716085750482e-09,-0.00420390654326044,0.0050317390674767,5.17579710209768e-06,2.07285614013434e-16,-1.39668344574797e-15,4.97243129258881e-16,2.52430597982298e-15,-1.69547182694869e-08,-0.00272307719793104,-1.89786280791166e-17,-3.29169611691996e-09,0.00120599764667246,-7.04297731246584e-16,1.80688797257744e-14,-8.94423424213642e-15,2.96073929262342e-15,1.31539541466143e-07,-0.315012901695487,-5.58773799360465e-16,-6.20247083453585e-16,1.26152384258816e-15,1.51549678073598e-14,1.7515603499542e-14,-7.32752032336244e-15,2.7170272537258e-15,2.29291799908925e-14,2.8116437034085e-07,-0.888456565944772,-0.135547549543504,-3.41295540111137e-14,0.146637112698136,6.47541075337522e-15,4.77033664796569e-16,6.49272529337414e-15,-2.82449133174055e-05,-1.80467114110375e-14,-1.23479472137388e-15,6.14312685793672e-08,7.38632651832816e-07,2.09058968408024e-14,3.22110944419587e-15,6.48922128638273e-09,-5.36974178703419e-16,2.76707320826611e-15,5.60690760501181e-15,0.0144914721014441,7.48802233563963e-15,0.00215447247964968,-8.44216603218322e-15,-3.55109245937464e-15,4.21502004584973e-15,-3.90335877205163e-15,2.15142967408624e-15,1.4893323957738e-05,2.86237014560859e-15,-2.84380533085439e-15
"Cruciata_glabra",-0.10658879505139,-0.0874999748084603,-0.00701843491701853,-0.093365308274257,-0.0150152317003124,0.0180517523845156,-0.0141606815548904,-0.000515190461105733,0.000131091863022606,-0.000230281310571066,0.000236858677836195,0.000340964210325916,0.000183003211075226,-4.59981412717462e-05,-1.13716821470073e-05,3.89586972219342e-06,2.06779573237289e-05,-0.00184219069994029,-0.157734203164059,0.00174090034531009,1.01373436347183e-16,-2.58910050560122e-15,-0.00109610043903791,-0.00591399674310165,-0.0530083309085042,-3.70871569258793e-05,0.000304936466394911,0.00885873129142617,1.0795237375122e-05,1.30812203573002e-06,2.72941900272707e-06,-1.19833451562706e-06,1.00702263250917e-05,-0.0680853411924645,0.000337154103089537,-0.0112314469885878,1.84538981536668e-05,-1.89112840326879e-15,-1.2549917469896e-15,-5.05876449871899e-15,1.59761325223445e-14,1.31479320553748e-05,1.72836434178081e-07,-0.242569410183253,0.156230497504073,0.000153765678838095,-2.25028894151364e-15,-1.16119515523458e-15,-7.11263432520377e-15,1.91371090856815e-16,-3.82252301527049e-07,-0.0578963788323342,-8.84067258105428e-14,8.214565496932e-07,-0.917197884230116,-7.09550473931841e-13,3.39075989508331e-13,2.68736422004423e-13,3.01726959389681e-13,-4.36726004682922e-07,0.0315094697725381,-1.50408188707956e-15,1.86878117880631e-15,-6.19248796853277e-15,1.21779220950144e-15,6.40086848834698e-16,-6.40665786913447e-15,3.45192938754803e-15,-1.70015193660243e-15,-1.31725432571341e-06,0.00670727578300543,0.000329955195233006,-1.88369625394786e-17,0.000864381099000154,5.17503732900554e-16,-1.10547967986366e-15,-2.91327470363173e-15,-6.3763198916419e-05,2.90160075555857e-16,-2.4808146488355e-15,1.5394078785689e-07,1.90428058073932e-06,3.32961654554195e-15,1.62636041582619e-15,1.71234220148759e-08,-2.52676707318681e-15,-3.0702973632684e-16,3.22246173930095e-15,0.000529334120484623,1.17926332952618e-16,9.47206357607788e-05,-1.91999707319756e-15,-9.57878091388445e-15,-2.40245659189198e-15,1.67627484646344e-15,5.78493133631098e-16,7.90623422389069e-07,7.05821179279319e-15,1.13409292539264e-15
"Sherardia_arvensis",-0.106176145493815,-0.0869088767115535,-0.00692097741781557,-0.0897606508938027,-0.0143872874008881,0.0172421226573737,-0.0128380319083317,-0.000404008794635391,9.85281155168797e-05,-0.000144522586220831,0.00014824144532541,-0.00188376537362092,-0.00103395436451858,-0.000618011244485189,-2.10861800064014e-05,7.17032502074644e-06,2.90020188268725e-05,-0.00236236447332214,-0.191851240010321,0.00207662107926119,7.71615050754901e-16,-2.24711631209008e-15,-0.00128992102622983,-0.00685540057211249,-0.0613281891852604,-4.25267320081988e-05,0.000348851292441717,0.0100720582874722,1.16694838727889e-05,1.40893449647304e-06,2.91078884808798e-06,-1.17774441814324e-06,8.60919337905641e-06,0.130688979041579,0.00126758502055978,-0.0449055979449062,8.43481791872611e-07,-1.01249295116569e-15,-8.4236436431892e-16,-1.31895121300927e-15,2.35538300518191e-15,4.94587054311543e-06,6.52926433713437e-08,-0.0915522889935144,0.033935791821432,2.78598942108667e-05,1.94827240594613e-15,-1.84985232212844e-15,-8.36204205127855e-15,9.6372449762162e-15,1.3192100399981e-06,0.94407085346434,6.33781409417037e-14,-1.98703063079344e-06,0.0398945813676541,-1.2790116188377e-13,-3.11722869739128e-13,6.02989880249538e-14,-4.08124055384373e-14,-1.01848792519889e-06,0.012496271554841,-2.58199457859374e-15,6.33883396695641e-15,5.86306142683404e-15,-4.12898953395957e-15,4.96282854654384e-15,3.14615704620721e-15,-2.09122570150519e-15,-3.35467946793658e-15,-1.9800607495875e-06,0.00411516116842475,0.000204867859384264,4.60234503326356e-16,0.000546689031946074,-6.80997510917953e-17,3.00183368317723e-15,4.9040952891865e-16,-8.88413762085293e-05,-9.16529460249785e-16,-2.13101336703669e-15,2.12132724113481e-07,2.61470447805433e-06,-2.24753728575747e-16,1.65086826809621e-15,2.34359516881782e-08,-1.77269151663061e-16,1.04989056242767e-15,1.76022678976746e-15,0.000355296105050196,2.37894428120946e-16,6.43949126176635e-05,-4.30491207171649e-15,-7.4558491891342e-15,1.56892064929126e-15,1.69263214329572e-15,-5.3855224298436e-17,5.45570158344118e-07,5.72050626621131e-15,2.12483184467985e-15
"Asperula_glomerata",-0.106530702502146,-0.0874081202870604,-0.00699989704319529,-0.0922936881967777,-0.0148207163928049,0.0177916545862027,-0.0135341873497075,-0.000438038812327446,0.000107297934994364,-0.000159190157048887,0.000163305710128423,-0.00213933464705358,-0.00117428163350181,-0.000704403099282597,-2.4500345808655e-05,8.33443800822286e-06,3.46934527603001e-05,-0.00290882646451381,-0.244608631910937,0.00270147214212805,5.84032273535926e-16,-3.21714034087592e-15,-0.00170810750634814,-0.00930656784736791,-0.0835597881746685,-5.90279999410673e-05,0.000486794711073192,0.0142715671092729,2.09243201903422e-05,2.60517029698364e-06,5.93451630736792e-06,-3.39638857256976e-06,2.75497251119147e-05,0.505864607013924,0.00672145078259669,-0.246715552846206,-9.23199097312023e-05,1.0038945016036e-15,-4.68254375743684e-16,5.9459292373968e-15,-1.72050162272103e-14,-2.04225244854759e-05,-2.61191105821498e-07,0.229550483379369,-0.0385919917669913,-2.9122677576334e-05,1.95967665206619e-17,1.31365208232265e-16,2.79767494858393e-15,-1.73694614279627e-15,-3.22557330279903e-07,-0.153572692858839,-9.55357743559641e-15,1.65698026910008e-07,-0.00309337467709794,2.51153264851922e-14,5.95079541199084e-14,-8.41687830543947e-15,7.17351525403309e-15,-5.87687066370897e-08,0.000974358315029259,1.59389494575333e-15,-7.11006868652148e-16,-2.48356274621534e-15,4.48839557817104e-15,-1.3103400711535e-15,1.03546711018661e-15,2.97219325667982e-15,2.88716790778367e-15,-6.62255185002179e-07,0.00151737686295298,7.8278944679745e-05,-2.67002407279111e-15,0.000220504507542051,3.45816693832731e-15,-9.78945640295377e-16,-3.44879091389527e-15,-3.7493618580976e-05,-3.27291478080086e-15,1.89636233506156e-15,9.24534227180195e-08,1.15168670688182e-06,-5.94056765690038e-15,2.00394131354423e-15,1.04213764524326e-08,3.81306720720462e-15,1.11403873625149e-15,5.47289438764045e-15,0.000169123660744902,1.55235015010513e-14,3.1705012206841e-05,-0.707106781186548,-1.10068208515055e-13,1.14893128607374e-14,4.70771739500375e-15,-1.35653859349321e-14,2.79177771528071e-07,-1.52313453163342e-14,-1.22941725611916e-14
"Asperula_molluginoides",-0.106530702502146,-0.0874081202870604,-0.00699989704319529,-0.0922936881967777,-0.0148207163928049,0.0177916545862027,-0.0135341873497075,-0.00043803881232733,0.000107297934994356,-0.00015919015704898,0.000163305710128714,-0.00213933464705345,-0.00117428163350185,-0.000704403099282754,-2.45003458082678e-05,8.33443800802733e-06,3.4693452760095e-05,-0.00290882646451386,-0.244608631910937,0.00270147214212784,7.53258320953395e-16,-3.17555744380293e-15,-0.00170810750634881,-0.00930656784736785,-0.0835597881746684,-5.90279999409623e-05,0.000486794711073463,0.014271567109273,2.09243201899427e-05,2.6051702963022e-06,5.93451630691036e-06,-3.39638857263309e-06,2.75497251122664e-05,0.505864607013924,0.00672145078259734,-0.246715552846205,-9.23199097320785e-05,1.44659293333848e-15,4.84567014336437e-16,6.04142211233844e-15,-1.61138370244604e-14,-2.04225244825209e-05,-2.61191104277794e-07,0.22955048337937,-0.0385919917669898,-2.91226775761432e-05,3.90205293380806e-16,3.20033605877969e-16,2.26944241198984e-15,4.05186865724353e-16,-3.22557330622198e-07,-0.153572692858834,-1.02895557355181e-14,1.65698027119848e-07,-0.00309337467709964,1.62057867125753e-14,4.73232564246473e-14,-1.301736496373e-14,6.49697309840214e-15,-5.87687074977707e-08,0.000974358315028557,2.47310943536205e-16,-1.47431492987962e-15,-1.06109532135725e-15,5.850647145867e-15,-3.08476389840332e-15,-2.18816157672286e-15,5.46449493644748e-16,-7.62704683093172e-16,-6.62255186242543e-07,0.0015173768629416,7.8278944689849e-05,2.34747467326633e-15,0.00022050450754488,-3.25197313617498e-15,1.58232499865655e-15,3.69154212035624e-16,-3.74936185853527e-05,1.43532497542904e-15,-1.82288479743269e-15,9.24534166355315e-08,1.15168671427133e-06,6.93801942874977e-15,-1.57729584979666e-15,1.04213907819404e-08,-3.1483994215084e-15,-3.58310540288758e-15,-3.42878701433824e-15,0.000169123660779136,-1.58766688646027e-14,3.17050124214884e-05,0.707106781186547,1.03193491451105e-13,-1.65874053902331e-14,-5.40890549883073e-15,1.51943799749219e-14,2.79177877443344e-07,1.5716121495092e-14,1.20576291885538e-14
"Rubia_tinctorum",-0.104183390025792,-0.0840691970495566,-0.00645863859813482,-0.0733346766863809,-0.0115396565012158,0.0135870315477742,-0.00722787986289053,2.26572541169905e-05,-2.42093389949654e-05,0.000162924168308855,-0.000169279553618633,-0.00864740949698124,-0.00473274402620838,-0.00231714171169395,-4.61545841568457e-05,1.55940492699109e-05,4.50134785404859e-05,-0.00297894613700496,-0.197641923663465,0.00191407239389182,3.71164999015334e-16,-1.61199362572572e-15,-0.0010757016321476,-0.00492628300279504,-0.0430682091291424,-2.63834230022831e-05,0.000208368515343485,0.00535286172368693,-5.80754989396438e-06,-9.08185181183746e-07,-3.3272504576718e-06,4.27095503773651e-06,-4.38411503977219e-05,0.0305860558045517,-0.00874535641834558,0.329922995778408,0.000179198813122862,7.48316219333431e-16,6.02013577566908e-16,4.28406698785253e-15,1.17486990881404e-14,4.0561849024446e-05,5.14225961669532e-07,-0.283334502377725,-0.854784727611905,-0.00112258204922711,9.88758715946745e-15,7.95332080133003e-15,1.62618245026678e-14,-2.6995349877516e-15,-3.29185880768182e-06,-0.0661492521813097,-1.18247003604913e-15,-2.3637246726312e-06,0.00301999141816126,-5.30131494258512e-15,3.22797344409764e-14,-1.38777878078145e-14,7.8608994313889e-15,-2.30616263490757e-06,0.00365528686236788,6.66964503825676e-16,5.84367241933919e-16,5.6143451630214e-16,1.37012215251559e-15,4.95210132963542e-16,-2.45774075616162e-16,7.48994502568289e-16,-1.32948905133264e-15,-5.10966242192121e-06,0.00239714907079186,0.000121534884368598,1.42461186610707e-15,0.000333423179379874,5.75068930738848e-16,4.49478497217666e-17,-1.66682816529325e-15,-0.000221196650225992,-2.7060978663186e-16,6.01334947799331e-16,5.24000275985257e-07,6.44096277529407e-06,-5.69288780084734e-16,7.91492743204244e-16,5.7584725890209e-08,-1.14580949432659e-15,-9.7953780829475e-16,2.00975843227886e-15,0.000235746264844821,-4.14798340898842e-16,4.34612446155231e-05,1.73815286966818e-16,-5.41583153100123e-15,-1.72708259016997e-15,1.33904006390266e-15,9.18332260353848e-16,3.75418766901923e-07,3.20823595269925e-15,4.73094563033658e-16
"Kelloggia_galioides",-0.102009626716935,-0.080969613045503,-0.00595322281321002,-0.0552955633108114,-0.00841070181796181,0.0095688746796382,-0.00102015161017391,0.000499337831111898,-0.000161561653283406,0.000508543215040865,-0.000526241118271436,-0.0163617950880206,-0.00895156058665707,-0.00425904564487965,-7.51633542976312e-05,2.53445597279079e-05,6.40693302060152e-05,-0.00375708899707758,-0.210939220925234,0.00180325008566331,1.54227048502561e-15,-1.98924335446821e-15,-0.000878266537682168,-0.00297453555543956,-0.0244596310580354,-9.47815960274677e-06,6.03990135510197e-05,0.000313395762432374,-2.61041205073355e-05,-3.61795056264309e-06,-1.07765490605228e-05,1.12700241794622e-05,-0.000113311776240398,0.0621699701552731,-0.0218865500124028,0.824868348875252,0.000449294020995674,7.58077079349246e-16,6.47942223558126e-15,3.32734798830261e-15,-1.14998777385606e-14,0.000100463869462677,1.26393321566553e-06,0.403694622184719,0.27599294973198,-9.1059695124217e-05,-2.58802927003521e-15,-4.55738256441654e-15,-5.57846074367586e-15,1.17672953341112e-15,-4.4385039150608e-06,-0.0198623287245031,-1.48242344840721e-15,-3.59480351259297e-06,0.0010563115172515,1.24483756636096e-14,2.95041768794135e-14,1.99146255042137e-15,1.03398192785598e-14,-3.54617043947526e-06,0.00160257247434738,9.06259187005034e-16,-1.24845367385559e-15,-3.86367503859013e-16,3.91643169608036e-15,-6.03705894349304e-16,-3.07485503988035e-16,5.35962528412056e-16,-7.47561386027409e-16,-8.0250498406262e-06,0.00143465023761001,7.36110449353557e-05,9.89055190742136e-16,0.000205753693769674,2.82054998515102e-16,4.42701475398925e-16,-4.36221166419105e-16,-0.000346909150373431,2.4312084418113e-16,-2.11714753108693e-16,8.21193239902703e-07,1.0091236083944e-05,-2.38957369580017e-15,3.13422524437131e-16,9.01958126668939e-08,-1.21625579840186e-15,-9.75665186203451e-16,6.06058998819902e-16,0.000154622246893718,-2.77500402769527e-16,2.88828222584649e-05,-2.03109039389437e-15,-5.74956920244728e-15,-1.10438577395952e-15,-2.0882271722724e-16,6.60384555154308e-16,2.53343508552549e-07,1.0598640955488e-15,2.51886720931397e-16
"Coprosma_repens",-0.0885403281695979,-0.0606391118440133,-0.00213770026462823,0.169273916191082,0.0332946008891916,-0.0476154732973048,0.371320926008068,-0.0120198388562483,0.00286862429586088,-0.00500906829095371,0.00515716852667051,0.0613338982409741,0.0335201326435922,0.0146432678259647,0.000171087485624688,-5.72583436901586e-05,-8.34194255521313e-05,0.00265189617695098,0.030334576492747,0.000346186782757884,-2.39952417941327e-16,1.61721338450149e-16,-0.000487932476861058,-0.00410039882801264,-0.0383127125129216,-3.16172883319078e-05,0.000269669702329783,0.00855095955524498,1.49674140532753e-05,1.82712950196695e-06,3.83367328241596e-06,-1.4852313105728e-06,1.12187706348405e-05,-0.000718622574994518,0.000287436619814148,-0.00783531406576278,3.14456698589174e-05,3.27408591459984e-16,4.67944861903517e-16,-5.74578254208234e-16,-3.70943535679829e-16,1.33654080090693e-05,1.70960987721408e-07,-0.000322736103933803,0.000666394441715219,-7.76600125385328e-05,2.29959871808218e-16,9.08564766979998e-17,1.13761706801955e-16,2.15668220414629e-16,-1.29020926892667e-06,-0.000184174698336596,-1.21528018237088e-15,-1.1446514986978e-06,1.10212329046955e-05,6.81919798406483e-15,1.26010313294955e-14,1.26634813746307e-15,3.45470180240781e-15,-1.21129089210996e-06,2.08866989999524e-05,5.91429252283213e-16,8.64116692341681e-16,-9.09841228531896e-17,4.41931317535473e-15,1.49680116067336e-15,3.88314308716264e-15,-2.32984073537368e-15,-1.80759712170883e-15,-2.99230770050923e-06,2.41335629759229e-05,1.12385024734582e-06,-1.87351676717732e-15,1.31490514521362e-06,1.4052470008901e-14,1.35130900085307e-14,-1.07592373086411e-14,0.548187306130155,-0.707106781186534,-2.84061364952947e-14,8.08205690154813e-07,0.0144440539777906,2.7464997940679e-14,6.38856936543865e-14,7.19589150043599e-08,1.27964110649705e-14,5.99214053262376e-15,-3.71795711528124e-15,5.54858596642943e-06,-4.52936268875619e-15,1.02602817923531e-06,2.8803609894617e-15,5.82917886494676e-16,-3.17162490023575e-16,3.36988014185337e-15,9.91748172993032e-16,9.09547831394525e-09,-2.90732351289284e-15,5.20434084812456e-15
"Coprosma_lucida",-0.0885605381130962,-0.0606628263235723,-0.00213934418791692,0.169587327636462,0.0333602076319063,-0.0477144579962718,0.372588793118898,-0.0120807590492837,0.00288388012440604,-0.00503889585124929,0.00518791154387946,0.0617991759378622,0.0337744913593701,0.0147570803833645,0.000172582469065282,-5.77597327986203e-05,-8.4264397265095e-05,0.00268220931672884,0.0307260108972252,0.000350932893144651,-1.02659110965106e-16,4.2850245728005e-16,-0.000494956442712022,-0.00416321087394139,-0.0389046437034775,-3.21265411351763e-05,0.000274062865954848,0.00869471018625326,1.53160043424903e-05,1.87091608333604e-06,3.93299632191859e-06,-1.53119068028612e-06,1.15782755804604e-05,-0.000742850247152401,0.000297711448966467,-0.0081168486665623,3.27311648306847e-05,-1.01568866100596e-16,-9.720258964434e-16,1.26725182874729e-15,-3.14691655227944e-16,1.39797022230963e-05,1.78845103996494e-07,-0.000338521104453007,0.000703860501445651,-8.21025942615471e-05,-5.78154480452323e-16,1.25455173238956e-15,-1.24175837351427e-16,-1.11997738673674e-16,-1.39019634841903e-06,-0.000199419797185391,-1.23954679420815e-16,-1.24717099612894e-06,1.20148271083344e-05,-9.33281230075522e-16,-7.48012762841199e-15,-2.94556046220862e-15,-5.35921133859585e-15,-1.34360852103639e-06,2.32561560031784e-05,-8.70502318030224e-16,-1.44901335072443e-15,9.04421207585183e-16,-2.30358865676181e-15,-4.50318914651847e-16,8.58590570711255e-16,1.98355868955874e-15,4.00741540082559e-15,-4.08746845866856e-06,3.97603688591785e-05,2.19945305881063e-06,-5.98511427917544e-15,7.78553892224656e-06,-2.93558771157095e-14,-1.08324654004366e-14,-2.96651707032982e-15,-0.375144333835478,1.23307247602286e-14,-1.90196295545369e-14,1.68467709552105e-07,0.39844411979607,-4.99709552021628e-13,0.70710678118653,2.49801984157535e-08,-6.68327662096879e-15,2.78972731361087e-14,1.14335508718958e-14,3.79297794587316e-06,6.68649267019847e-15,7.73134974833369e-07,-2.55582530033623e-15,-7.36385920042907e-15,-3.8984095209681e-15,-1.79385991409355e-15,-2.22666468911596e-15,7.34477266917522e-09,8.83754421518873e-15,-1.53453195382445e-15
"Coprosma_quadrifida",-0.0885605381130962,-0.0606628263235723,-0.0021393441879169,0.169587327636463,0.0333602076319063,-0.0477144579962718,0.372588793118898,-0.0120807590492837,0.00288388012440598,-0.00503889585124924,0.0051879115438796,0.0617991759378624,0.0337744913593703,0.0147570803833643,0.000172582469065135,-5.77597327989013e-05,-8.42643972651109e-05,0.00268220931672883,0.0307260108972255,0.000350932893143738,-7.1013222777192e-16,-4.96542384645527e-17,-0.000494956442711635,-0.00416321087394158,-0.0389046437034775,-3.21265411350338e-05,0.000274062865955755,0.00869471018625329,1.53160043417068e-05,1.87091608321373e-06,3.9329963218604e-06,-1.53119067910186e-06,1.15782755783249e-05,-0.000742850247152138,0.000297711448966756,-0.00811684866656267,3.27311648305969e-05,-1.77231774347167e-16,1.04496428807771e-16,-1.2038191481544e-15,7.70194481439657e-16,1.39797022240793e-05,1.78845103187769e-07,-0.000338521104454051,0.000703860501445473,-8.21025942600456e-05,2.76598829871552e-16,2.66594592080534e-16,-1.42760513320399e-15,-6.79864233725285e-16,-1.39019634758085e-06,-0.000199419797183601,1.6874924760967e-15,-1.24717099504355e-06,1.20148271066968e-05,-6.13571693452997e-15,-7.36910532594948e-15,5.15559817060307e-15,-3.49590148496226e-15,-1.343608516774e-06,2.32561560004965e-05,3.72396547539802e-17,-4.64965122600206e-16,-6.88265405559658e-16,-1.33896911487792e-16,-3.9972403330237e-15,-5.12473962504491e-15,-4.22506777896781e-15,5.02893020053945e-15,-4.08746845643868e-06,3.97603688469532e-05,2.19945309183307e-06,7.97543311987979e-15,7.78553889770218e-06,-2.08890047876065e-14,6.0489966529275e-15,-8.37850628188852e-15,-0.375144333835433,-7.91872142996233e-14,-6.03002016642257e-15,1.68467769232085e-07,0.398444119796052,-1.22310051482022e-13,-0.707106781186564,2.49800438805375e-08,2.15105341962958e-14,-1.92615602850463e-14,-2.23669091652648e-14,3.79297795471219e-06,-1.25356173275931e-15,7.73134939502426e-07,-6.02917537996425e-15,1.36852754570735e-14,2.37270295424877e-15,1.36633525343995e-15,2.42117598059594e-15,7.34476643803426e-09,1.56376602410174e-14,9.22542556280556e-16
"Coprosma_rhamnoides",-0.0885590515727856,-0.0606610821292597,-0.00213922329733343,0.169564290703832,0.0333553855320489,-0.0477071829511055,0.372495662167491,-0.0120762873107064,0.00288276041601766,-0.00503670723412695,0.00518565576070815,0.0617650593907601,0.0337558404914975,0.0147487357184028,0.000172472902368949,-5.77229864912909e-05,-8.42025057984768e-05,0.00267999018538949,0.030697372794696,0.000350585774841938,7.16746882800183e-17,3.23395357393501e-16,-0.000494442874172799,-0.00415862002728758,-0.0388613826157685,-3.20893326771021e-05,0.000273741904725661,0.00868421012834949,1.52906095362509e-05,1.86772710456727e-06,3.9257683111526e-06,-1.52785284999097e-06,1.15521777548358e-05,-0.000741092635737745,0.000296966654828477,-0.0080964424887782,3.26381705427178e-05,-6.4494902641098e-16,-7.22014693118259e-18,3.06051509298396e-16,-7.15498699139447e-16,1.39353510288625e-05,1.78275913488394e-07,-0.000337382741590966,0.000701166077585868,-8.17832182401009e-05,4.2740980094001e-16,-1.43084149149236e-15,1.1959104293073e-15,4.64972380210872e-16,-1.38306182178967e-06,-0.00019833404583808,-4.09578378018566e-16,-1.23988709177338e-06,1.19442478526775e-05,-1.25038868148408e-14,-6.68909372336657e-15,2.51881848711832e-15,1.60331817267156e-15,-1.33427085278076e-06,2.30891789265238e-05,1.47917307731358e-15,4.60863747877169e-17,-1.42692011981327e-16,-7.60134993538913e-16,2.40685118179977e-15,2.41958812073981e-15,4.04212565106203e-15,1.00074142083419e-15,-4.01527541916816e-06,3.87783724223278e-05,2.13421206800316e-06,-7.51866927470579e-15,7.43662804110538e-06,-6.74540644920717e-15,-1.60059064696163e-14,-1.73616773565101e-15,-0.342803084937448,3.58585729663217e-14,5.41367461646113e-14,1.16318198072501e-07,-0.825873661444643,6.05883366857864e-13,8.5126978947953e-16,3.55926162510357e-08,-2.78683213368107e-14,-7.15822189515958e-15,1.12241589462873e-14,3.9533714083529e-06,-2.9604762471511e-15,7.9473111252554e-07,2.28742156980145e-15,-1.71339492944325e-14,-5.80290638878164e-15,-9.42999375930903e-16,-1.26981282476009e-15,7.48808117431231e-09,-1.10307093707834e-14,-1.94386668590732e-15
"Coprosma_foetidissima",-0.0885403281695979,-0.0606391118440133,-0.00213770026462824,0.169273916191081,0.0332946008891916,-0.0476154732973048,0.371320926008068,-0.0120198388562483,0.00286862429586095,-0.0050090682909535,0.00515716852667056,0.0613338982409739,0.0335201326435925,0.0146432678259648,0.000171087485625569,-5.72583436904959e-05,-8.34194255531495e-05,0.00265189617695091,0.0303345764927463,0.000346186782757867,-2.60386186818936e-16,9.3755759046035e-16,-0.000487932476860429,-0.00410039882801267,-0.0383127125129216,-3.16172883321076e-05,0.000269669702330159,0.00855095955524435,1.49674140528569e-05,1.82712950098766e-06,3.83367328236877e-06,-1.48523131192977e-06,1.12187706335048e-05,-0.000718622574994587,0.000287436619813972,-0.00783531406576395,3.1445669859795e-05,4.48092837075751e-16,-5.58945697950292e-16,8.91840448429333e-16,1.4726772236887e-16,1.33654080089118e-05,1.70960986422331e-07,-0.000322736103933956,0.000666394441715351,-7.76600125389566e-05,-8.28705926291047e-16,-6.91742010306029e-16,1.40756515429694e-16,-8.34581591577914e-16,-1.29020926997327e-06,-0.000184174698336285,-3.53303549457298e-16,-1.14465149820023e-06,1.10212329061023e-05,1.06789577181132e-14,5.63438184997267e-15,-1.15879528195251e-15,7.07116656895046e-16,-1.21129089435157e-06,2.08866990033122e-05,-3.73278438215461e-16,1.80107019881236e-15,-3.36721689692876e-16,3.79742427093048e-15,1.92372891491402e-15,-1.57714769323124e-15,1.34468196227428e-15,-1.00484523178063e-14,-2.99230769885506e-06,2.41335629522151e-05,1.12385023078605e-06,1.12808778083489e-14,1.31490516468946e-06,4.4899071910917e-14,8.84961614701297e-15,1.94525481174939e-14,0.548187306130114,0.707106781186562,-1.19179460417055e-15,8.08205676910287e-07,0.0144440539778696,-1.23902739198897e-14,-2.73285535534822e-14,7.19589071506367e-08,-1.80367160365929e-15,-1.05669978370301e-14,9.70814284659368e-15,5.54858595195448e-06,-7.47439037718486e-16,1.02602818841886e-06,-1.92222095371721e-15,-1.10223821677902e-14,2.53280048376824e-15,6.99918768664569e-16,2.09575478279407e-15,9.09547915355058e-09,-3.6768834406282e-16,-6.61593307586329e-16
"Spermacoce_leptoloba",-0.0819510076279922,-0.0523251702465306,-0.00127126067130474,0.110204787248848,0.0201812393847048,-0.0269810657109704,0.0340650349666986,0.00705098143454977,-0.00201611956482631,0.00510404983067034,-0.00527245377230436,-0.122173179770292,-0.0668216380005555,-0.0310634814314369,-0.000490700372921622,0.000165121925943015,0.000352724108667386,-0.0156879029517715,-0.226182720172833,-0.00470950427487943,4.01901507508798e-15,1.54119747100009e-16,0.00759516689323152,0.0872092910458337,0.858111399973367,0.000947841309920659,-0.00888175799580546,-0.383505970431803,0.000341592059219902,3.77974848245851e-05,6.40005080278801e-05,-1.78653848259998e-05,0.000127992022586548,-0.00529021902457347,0.00229039785993414,-0.0546371953100087,0.000308605969297001,1.0464558716691e-16,-5.74303387272078e-16,-1.55747360836973e-17,4.64757183013849e-16,0.000119401075589066,1.52396124736152e-06,-0.00187755552555623,0.0036761573198983,-0.000622958071396494,1.26942708471641e-16,2.87999811070812e-16,-3.86549547669713e-17,-1.45516966612099e-16,-9.39912040491181e-06,-0.000924802348462994,2.4773566848234e-16,-8.10001940322411e-06,5.46222106443481e-05,7.80625564189563e-17,2.12330153459561e-15,6.90419943438769e-16,1.20042864537595e-15,-8.33092624581226e-06,0.000100952717063119,1.58390770484316e-16,1.56714134553995e-16,4.93445639007692e-17,1.41909774466095e-15,1.27056261500359e-16,-3.99259738869211e-16,1.89787020508878e-16,-9.50201448110022e-16,-2.10030100094075e-05,0.000135562635245775,7.09911282411412e-06,6.22034425135265e-16,2.05080607022401e-05,4.44185785913506e-16,6.53879989872348e-17,-7.97440627655202e-16,-0.000679944514377272,-8.8036381532567e-16,1.02793221147699e-15,2.24760221329079e-06,1.99731504879586e-05,-4.64483222961038e-16,5.12335532608869e-16,2.47834150020956e-07,-2.14657767740617e-16,-4.6868403332849e-16,1.24033973944376e-15,1.73157646284146e-05,-6.70213236480716e-16,3.3242302006684e-06,-1.14961617250213e-15,-3.78139530117228e-15,-1.4012292387919e-15,8.90982980285625e-16,3.03124010623842e-16,3.01359041719727e-08,2.01359846582631e-15,6.65346858204866e-16
"Psychotria_marginata",-0.0812093992703749,-0.0498014759041502,-0.000209425477475914,0.258177288462098,0.0490604715926869,-0.0681923618211688,-0.219914959647153,-0.021379913711622,0.00503173322054094,-0.00865897837377604,0.00891469898771787,0.112774395476463,0.0616477087916302,0.0275266002293211,0.000531607245867331,-0.000185065855368244,-0.000104914676520218,0.00379023755808034,0.02531724031264,0.000955284894810627,-3.7341829502991e-16,5.63152560644528e-17,-0.00117860875854479,-0.0104728489027623,-0.0994495717886952,-9.11141234878504e-05,0.000803542144459609,-0.176658661478807,5.06612136233129e-06,8.0446204375442e-07,2.40709074461464e-06,-1.21863791916486e-06,9.33252020878422e-06,-0.00018829334723938,0.000134896968835514,-0.00219897371803836,3.57040286869779e-05,-6.33563103197319e-16,1.34393146918761e-16,2.87583257531221e-16,1.60069439603518e-16,1.54987134390891e-05,1.9853957590772e-07,-0.000118291983459381,0.000479109114137387,-0.22150519012017,-0.122323571938296,0.38990853029519,-0.763549789962186,1.23898357999899e-15,-1.37093527235388e-06,-6.66396103913263e-05,2.26945161966915e-16,-1.26017229562099e-06,4.09568713179674e-06,-4.4356879280727e-15,-5.55111512312578e-17,8.28850876821718e-15,-2.92843006788335e-15,-1.37682854273236e-06,8.1947983597455e-06,7.19420901800601e-16,1.27739166957161e-15,-3.68862354689739e-16,5.72863112242432e-16,7.3379397092483e-17,-2.98355037290696e-17,7.70224594289701e-16,-4.1224574350659e-16,-4.03973257422701e-06,1.34262677585711e-05,7.11441284143199e-07,9.93692886955501e-16,2.09553765058413e-06,2.8486181662533e-16,3.41959361136302e-16,-9.07070474661051e-16,-7.07265380772488e-05,-5.17735052029531e-16,-1.01271246341043e-15,4.66517198441677e-07,2.115965952232e-06,-4.2795823572892e-16,5.59375675884536e-16,5.18228476692088e-08,-3.88575125707638e-16,-2.2420574346176e-16,1.41357541462062e-15,1.90464796367976e-06,-7.73711930505001e-16,3.72426459301878e-07,-1.46724520920707e-15,-2.59888290973757e-15,-1.01485147634065e-15,5.19444359900346e-16,3.99209918542633e-16,3.45391146028431e-09,2.74474096201998e-15,5.4096556167097e-16
"Psychotria_penangensis",-0.0812093992703749,-0.0498014759041503,-0.000209425477475871,0.258177288462098,0.049060471592687,-0.0681923618211687,-0.219914959647153,-0.021379913711622,0.00503173322054077,-0.00865897837377607,0.00891469898771789,0.112774395476463,0.0616477087916302,0.0275266002293215,0.000531607245867454,-0.000185065855368272,-0.00010491467652062,0.00379023755807993,0.0253172403126399,0.00095528489481084,-2.95048860503113e-16,-1.8840723631138e-16,-0.00117860875854466,-0.0104728489027621,-0.0994495717886952,-9.11141234879246e-05,0.000803542144459714,-0.176658661478807,5.06612136258207e-06,8.04462043650482e-07,2.40709074441977e-06,-1.21863791946464e-06,9.33252020860012e-06,-0.000188293347240546,0.000134896968835142,-0.00219897371803733,3.57040286863771e-05,2.04369384217116e-15,-5.83675711965233e-16,-1.04913065308669e-15,-1.12689790773993e-16,1.54987134423965e-05,1.98539576556615e-07,-0.000118291983458703,0.000479109114157113,-0.221505190120154,-0.532574828604336,0.345402299397864,0.589119091107846,-1.76569682334243e-15,-1.37093527391691e-06,-6.66396103787366e-05,-5.78404600867799e-16,-1.26017229469203e-06,4.09568712505734e-06,3.72618602639818e-15,-1.1740608485411e-14,-3.71924713249427e-15,-2.19247363320019e-15,-1.37682854321619e-06,8.19479836172265e-06,3.77789895891324e-16,-9.4307546577208e-16,8.33515306856881e-16,1.30590733146391e-15,7.00272859311243e-17,-1.10278673233183e-16,-2.70610771835879e-16,-1.37934544776571e-16,-4.03973257352763e-06,1.34262677585708e-05,7.11441283631642e-07,8.12985161577077e-16,2.09553764980739e-06,1.9435600666028e-16,1.92595530975156e-16,-8.46419210093445e-16,-7.07265380779074e-05,-8.85496428935911e-16,-6.32374341302514e-16,4.66517198369873e-07,2.11596595432445e-06,-1.38552559446779e-15,-8.14525317083784e-16,5.18228477131411e-08,-8.8703346898998e-16,-4.59223785932912e-16,1.34018097024316e-15,1.90464796441063e-06,-1.0327031209626e-16,3.72426458880616e-07,-4.958000626589e-16,-4.31278970400265e-15,-8.58283717370167e-16,5.04291422366899e-16,3.73493947676356e-16,3.45391133993844e-09,1.34720436168618e-15,3.78606751833981e-16
"Psychotria_limonensis",-0.0812093992703749,-0.0498014759041503,-0.000209425477475862,0.258177288462098,0.049060471592687,-0.0681923618211687,-0.219914959647153,-0.0213799137116218,0.00503173322054094,-0.00865897837377609,0.00891469898771808,0.112774395476463,0.0616477087916304,0.0275266002293214,0.000531607245867482,-0.000185065855368379,-0.000104914676520396,0.00379023755808019,0.0253172403126399,0.000955284894810755,-4.13442038349516e-16,2.25735697200078e-17,-0.00117860875854456,-0.0104728489027623,-0.0994495717886955,-9.11141234878181e-05,0.000803542144459833,-0.176658661478807,5.06612136240653e-06,8.04462043556925e-07,2.40709074475442e-06,-1.21863791922735e-06,9.33252020849687e-06,-0.00018829334724202,0.000134896968835592,-0.00219897371803926,3.57040286880358e-05,3.54994001238937e-16,1.70785501875947e-17,1.27135954143591e-15,-2.84554584202297e-16,1.5498713441797e-05,1.98539577242803e-07,-0.000118291983458054,0.000479109114163774,-0.221505190120174,0.820883612411706,0.111055135194805,0.252619975102456,-1.45100498369649e-16,-1.3709352740351e-06,-6.66396103852452e-05,-3.03153765965843e-17,-1.26017229731978e-06,4.09568712617797e-06,2.6853519408121e-15,2.4008572907519e-15,-2.45983788893511e-15,4.58183838092374e-16,-1.37682854211836e-06,8.19479836605512e-06,-8.01218353986728e-16,8.95328597704731e-16,-6.80403307414207e-16,1.08168062023798e-15,4.98997353914749e-16,-3.8258619851863e-16,4.2379354556165e-16,-5.67254548421744e-16,-4.03973257295027e-06,1.34262677575293e-05,7.11441283801937e-07,9.37748498551403e-16,2.09553764945102e-06,2.61906408175425e-16,1.2819320397801e-16,-1.1307439133463e-15,-7.07265380775092e-05,-2.50735848504878e-17,6.03616135330984e-16,4.66517198318635e-07,2.11596595483857e-06,-7.05513991884948e-16,7.81420280812302e-16,5.18228471327336e-08,-1.8582633299162e-16,-2.42316815371318e-16,1.15905726032991e-15,1.90464796527249e-06,-8.49498510521422e-16,3.72426459372704e-07,-1.52275636043759e-15,-3.50093911724551e-15,-1.03730615748055e-15,5.03850359921715e-16,1.49049331654058e-16,3.4539126235211e-09,1.61803806437293e-15,4.22516859715273e-16
"Psychotria_suterella",-0.0812093992703749,-0.0498014759041502,-0.000209425477475857,0.258177288462098,0.0490604715926869,-0.0681923618211686,-0.219914959647153,-0.021379913711622,0.00503173322054085,-0.00865897837377605,0.00891469898771801,0.112774395476463,0.0616477087916305,0.0275266002293213,0.000531607245867416,-0.000185065855368603,-0.000104914676520346,0.00379023755808009,0.0253172403126395,0.000955284894811177,-4.26613411011015e-16,-8.70783928336397e-17,-0.00117860875854449,-0.0104728489027628,-0.099449571788695,-9.11141234878601e-05,0.000803542144459382,-0.176658661478807,5.06612136366235e-06,8.0446204347332e-07,2.40709074469029e-06,-1.21863791853904e-06,9.33252020909001e-06,-0.000188293347241003,0.000134896968835784,-0.00219897371803981,3.57040286870946e-05,-2.24703934007945e-15,-6.94471759990737e-16,-2.39149371851311e-16,-9.80462815687147e-16,1.54987134398378e-05,1.98539576479924e-07,-0.00011829198346106,0.000479109114137998,-0.221505190120148,-0.165985211869088,-0.846365964887871,-0.0781892762481103,-5.77659603397676e-16,-1.37093527394861e-06,-6.66396103876374e-05,-3.51285768001333e-16,-1.26017229578049e-06,4.09568712842964e-06,2.79984369022657e-15,9.63812363252714e-15,7.59808882477842e-16,-1.16508365455292e-15,-1.37682854239781e-06,8.19479836524956e-06,3.43840108578739e-16,-5.35033924938521e-16,-5.82989178521381e-16,8.71609678814108e-16,4.85569281348574e-16,-3.00596102335323e-16,-6.08614470773641e-17,-4.62857386083024e-16,-4.03973257313335e-06,1.34262677585307e-05,7.11441283023723e-07,7.51400070894763e-16,2.09553764904694e-06,8.13493791357051e-17,-1.06042638150097e-16,-4.69357122666575e-16,-7.07265380779775e-05,-1.39897457782299e-15,9.59017607471756e-16,4.66517198715942e-07,2.11596595540082e-06,5.77643375444932e-17,1.01040377962871e-15,5.1822847470757e-08,-1.75498466762236e-16,-9.50311041489018e-16,1.09413744020751e-15,1.90464796347374e-06,-6.66437213860963e-16,3.72426457797606e-07,-1.00927821155024e-15,-5.74220184820755e-15,-1.10918249565396e-15,5.64818601737104e-16,1.57028801114017e-16,3.45391275459398e-09,2.03849166686259e-15,2.70290876449759e-16
"Psychotria_loniceroides",-0.0811788215634519,-0.0497692580040972,-0.00020915731206792,0.257366080051598,0.0488960675181153,-0.0679508167537673,-0.218604373026221,-0.021184908842966,0.00498334937498782,-0.00856461606559255,0.00881743166133823,0.111158379080566,0.0607640171212811,0.0271209725357237,0.000522628512720365,-0.000181932349367796,-0.000102801266222181,0.00370168279989077,0.0246278245580105,0.000927147506091607,-3.20760307185511e-16,-1.27031957742165e-16,-0.00114158780197852,-0.0101152730411257,-0.0960143993094516,-8.77819954862758e-05,0.000773689636074016,-0.169801110983816,4.74324056054786e-06,7.50668584364393e-07,2.22263548537106e-06,-1.08656002542303e-06,8.24113998512596e-06,-0.000163553354465692,0.000114410137119153,-0.00186050720897216,2.76746295093634e-05,1.37912952842137e-15,5.19742236299419e-16,-7.871946720279e-17,-3.55668137168843e-16,9.96485699244311e-06,1.26506119038211e-07,-5.92198023995419e-05,-0.000767859117310277,0.896498748193066,1.36783003624762e-14,1.19579320189747e-14,-6.10019902593796e-15,6.69868716619189e-16,-1.90080394340871e-06,-8.82194054819497e-05,6.46765994521033e-16,-1.60586994889752e-06,5.20572671162262e-06,-6.08540995372664e-15,-3.8441472227646e-15,7.49400541621981e-16,2.55438031837585e-15,-1.65960724110829e-06,9.80938314328029e-06,1.17030372503458e-16,-1.67890132440455e-16,5.10665092035174e-16,7.48494412539732e-16,3.15270573765702e-16,-2.94507908902465e-16,3.25897992871152e-16,-1.13311690086076e-16,-4.50004359820131e-06,1.48398275996978e-05,7.84025618875895e-07,5.14248953474545e-16,2.29875301726252e-06,3.78058250327399e-16,3.26021922817265e-16,-8.16271575578733e-16,-7.728040157606e-05,-3.88709860711032e-16,1.06648616874814e-16,5.0829637880452e-07,2.3032806205279e-06,7.01874433033218e-16,1.53955870513924e-15,5.6362232983416e-08,2.83174726674339e-17,-6.39140656619749e-16,1.24285675760765e-15,2.05862612829791e-06,-6.79142930703364e-16,4.01266266130936e-07,-1.25176823118709e-15,-5.12405333142023e-15,-1.00510269616729e-15,5.24648134347253e-16,2.77722014950402e-16,3.7077763321539e-09,2.60791829835739e-15,5.4606818440687e-16
"Rudgea_jasminoides",-0.080072431947535,-0.0485979325036586,-0.000199297048535795,0.226509062140491,0.0426180952028066,-0.0586942194224985,-0.166006856682006,-0.0128440557203557,0.00289233794397633,-0.00437372705992443,0.00449628589259725,0.0336508438768535,0.0183754752157156,0.00748057461305413,6.47217364370707e-05,-2.19602330312362e-05,1.44040837091872e-05,-0.00167382814013625,-0.0225762197581453,-0.00115220046308148,1.05881783617256e-15,9.71234295207753e-16,0.00179931396870949,0.021608400349879,0.214031834504022,0.000242041530322986,-0.00226517226288846,0.590304178478052,0.000115969378804512,1.29878873802655e-05,2.26437102319298e-05,-6.58957675283954e-06,4.72081847470468e-05,-0.000875698451228299,0.0005776685547368,-0.00935388726464642,0.000131319720097686,-0.707106781186548,-2.47818517273722e-15,-4.09152870779788e-17,-7.20326801751789e-16,5.08070277466212e-05,6.48626270293399e-07,-0.000362065758893328,0.00073907785874616,-0.00384532330148989,-5.55645887674759e-16,8.87101939229159e-16,1.15561436516484e-15,-7.21135823913519e-17,-4.19498101231033e-06,-0.000198371161949372,-3.37711626354269e-16,-3.65345112806917e-06,1.18508308893372e-05,-1.90819582357449e-17,4.5102810375397e-16,-1.42594269725294e-15,-4.15032591627451e-16,-3.80209688675769e-06,2.24643098608243e-05,6.70826546160575e-16,7.40931491950207e-17,4.62019356300483e-16,1.27323470261122e-15,8.72362541110208e-17,6.06662467410263e-16,2.78146181498195e-16,-3.33553002199937e-16,-9.94065208574736e-06,3.24645733434218e-05,1.70807374154968e-06,8.12420064986714e-16,4.972860681613e-06,5.60359686869327e-16,3.32908189055207e-16,-7.33177872373001e-16,-0.000166068192441599,-3.16745513818449e-16,-1.55196128750977e-16,1.0865913454743e-06,4.91483288103683e-06,2.20054478175031e-16,8.02594654367237e-16,1.20067133071183e-07,-6.12991896233069e-16,-5.17107595553985e-16,8.63558934754437e-16,4.32775769193664e-06,-3.74774188296026e-16,8.37265808784863e-07,-6.43575943588222e-16,-4.05280099969009e-15,-1.0541966669319e-15,3.50583554223384e-16,5.25527295687803e-16,7.66384879408511e-09,1.80338748474656e-15,2.61358254247818e-16
"Palicourea_guianensis",-0.080072431947535,-0.0485979325036586,-0.000199297048535823,0.226509062140491,0.0426180952028066,-0.0586942194224985,-0.166006856682006,-0.0128440557203557,0.0028923379439761,-0.00437372705992442,0.00449628589259724,0.0336508438768535,0.0183754752157155,0.00748057461305401,6.47217364369115e-05,-2.19602330317846e-05,1.44040837090461e-05,-0.00167382814013642,-0.0225762197581452,-0.00115220046308189,5.02971428644672e-16,1.28200386428311e-15,0.00179931396870935,0.0216084003498796,0.214031834504022,0.000242041530323014,-0.00226517226288807,0.590304178478053,0.00011596937880551,1.29878873805057e-05,2.26437102323146e-05,-6.58957675306318e-06,4.72081847468871e-05,-0.000875698451231435,0.000577668554738292,-0.00935388726464749,0.000131319720108535,0.707106781186547,1.82009156404717e-15,4.86379588784927e-16,1.51097743284772e-15,5.08070277444094e-05,6.48626270145771e-07,-0.000362065758893814,0.000739077858746979,-0.00384532330149171,2.70082486890249e-16,-1.5762053966575e-15,-8.98298230391426e-16,-6.40186327966437e-16,-4.19498101246865e-06,-0.000198371161947515,-6.55576817561226e-18,-3.65345112899065e-06,1.18508308871688e-05,9.19403442267708e-17,2.84494650060196e-16,4.12517242587285e-15,-9.28510740516586e-16,-3.80209688684261e-06,2.24643098616509e-05,-1.41509370897166e-16,2.38201039809858e-16,-2.92783400501732e-16,1.62230618775644e-15,4.50905097811051e-16,6.9622659788178e-16,3.30236207190365e-17,-3.82661918635632e-16,-9.940652085474e-06,3.24645733431195e-05,1.70807374017739e-06,5.98275397642344e-16,4.97286068175313e-06,2.26465832966958e-16,2.84403194524011e-16,-9.69681665960872e-16,-0.000166068192442664,-4.13890028472877e-16,1.63992990828749e-16,1.08659134594417e-06,4.91483288045186e-06,-1.92809709107439e-16,4.4177217137478e-16,1.20067133328521e-07,-7.65313690145891e-16,-7.81852958273257e-16,1.51360560115953e-15,4.32775769250221e-06,-3.8878118066661e-16,8.37265809896565e-07,-1.19868745590181e-15,-3.07094751228722e-15,-1.1252388832677e-15,3.82749211742881e-16,5.93699965002377e-16,7.66384877153533e-09,2.65513671145122e-15,5.58166463599269e-16
"Faramea_luteovirens",-0.0778996063374154,-0.046270506388891,-0.000179141762076132,0.157387517492611,0.0283973990233021,-0.0375080006822873,-0.02651481792186,0.0157308728104098,-0.00463497214620987,0.0130737149829051,-0.0135232344652048,-0.555939117803079,-0.304472620141316,-0.159328099760353,-0.0109186182890272,0.00396258122168681,-0.00136602600641473,0.0220753312248245,0.0892406542717346,0.00262711295942725,-6.00415120325907e-16,4.21242860664032e-16,-0.00256453080607255,-0.0149787777933873,-0.131428273582381,-6.84433894104501e-05,0.000465820216476604,-0.00968340446537951,0.000103994640911134,1.21136634374211e-05,2.29732169111998e-05,-7.51190965887773e-06,5.46587807163923e-05,-0.00103410458320435,0.00069545107867254,-0.011278540161574,0.00016354292649778,-1.73941068585505e-16,1.86961824270981e-17,2.54507818971134e-16,-2.18846598242347e-16,6.46341085700605e-05,8.25581237220574e-07,-0.00046475821478412,0.000959792338046798,-0.000416850683668251,-1.9321128152377e-16,-5.42698034899559e-16,3.38565842006479e-16,1.84023550186127e-15,-5.61266208224733e-06,-0.000266301273749797,0.707106781186547,-4.92200119419623e-06,1.59700664506355e-05,-6.08540995372664e-15,1.13589693206961e-14,3.06837888430778e-14,2.6068773875676e-14,-5.15915719833508e-06,3.05168396208407e-05,-4.28159163362181e-16,-1.02564239537506e-16,-5.17977011970153e-16,1.02802839685105e-15,-1.01020984416078e-16,3.67930559112571e-16,1.96087717378948e-16,-5.54119666427401e-17,-1.37325565819062e-05,4.49653007158324e-05,2.3682362552031e-06,7.1267248474727e-16,6.90639024106438e-06,1.29159838047744e-16,1.02836469773116e-16,-8.29979001123174e-16,-0.000230982606248808,-9.43631574323953e-16,-2.14588090137031e-16,1.51301297912694e-06,6.84618337120931e-06,-8.16088453324705e-16,1.42264795371526e-15,1.67306402963119e-07,-1.19116852438722e-16,-3.13383055075797e-16,3.59032990671804e-16,6.04597056248233e-06,-4.51241189933201e-16,1.17125578935235e-06,-8.35309298974572e-16,-3.63130748644692e-15,-1.0879987657125e-15,7.2844655123166e-16,3.52658126787984e-16,1.07381450137534e-08,1.62027979791679e-15,1.27267709163801e-16
"Faramea_occidentalis",-0.0778996063374154,-0.046270506388891,-0.00017914176207612,0.157387517492611,0.0283973990233021,-0.0375080006822872,-0.02651481792186,0.0157308728104098,-0.00463497214620974,0.0130737149829053,-0.0135232344652049,-0.555939117803079,-0.304472620141316,-0.159328099760353,-0.010918618289027,0.00396258122168677,-0.00136602600641473,0.0220753312248243,0.0892406542717351,0.00262711295942723,-7.10950580706967e-16,5.43969826341565e-16,-0.00256453080607254,-0.0149787777933873,-0.13142827358238,-6.84433894104907e-05,0.000465820216476526,-0.00968340446537998,0.000103994640911019,1.2113663437495e-05,2.29732169114301e-05,-7.51190965918356e-06,5.46587807164834e-05,-0.00103410458320305,0.000695451078672677,-0.0112785401615727,0.000163542926497686,1.00145240632658e-16,-2.75244479858814e-16,1.53011419478141e-16,-7.80864185225936e-17,6.46341085698146e-05,8.2558123753467e-07,-0.000464758214784654,0.000959792338042711,-0.000416850683667059,8.26097511564961e-17,4.7107946931613e-17,-1.74912306882687e-16,-1.9170652321656e-15,-5.6126620832109e-06,-0.000266301273660138,-0.707106781186548,-4.92200121553241e-06,1.59700665799973e-05,5.14172038279526e-15,-1.23165366794353e-14,-2.85049761572509e-14,-2.73884647600253e-14,-5.15915719981099e-06,3.05168396217657e-05,4.28074100210602e-16,4.38587516482641e-16,-2.64871780255817e-16,9.99346834351645e-16,-2.57900365477816e-16,3.54793218481326e-17,2.82656166427313e-16,-9.68470527049789e-16,-1.37325565825247e-05,4.49653007161027e-05,2.36823625267519e-06,6.24570963796893e-16,6.90639024219113e-06,3.43119158161844e-16,3.51301267209207e-16,-8.11211466764257e-16,-0.000230982606250645,-5.54531546347589e-17,3.12767846559929e-16,1.51301297911865e-06,6.84618337246282e-06,1.83112268837205e-16,-3.67586673471965e-16,1.67306401435307e-07,-8.33676869737625e-16,-7.58145443492247e-16,1.88317429715882e-15,6.04597056293857e-06,-5.90785826570911e-16,1.17125578919529e-06,-1.3071540844411e-15,-4.1864189987595e-15,-1.07356719675201e-15,5.82907612061364e-16,4.08389528538536e-16,1.07381449322169e-08,2.70101252345021e-15,2.47248670404146e-16
"Tarenna_mollissima",-0.0308227294934427,0.183821640447561,-0.0205114837603512,-0.0592580605106796,0.00342682049468723,-0.157543520210507,0.000413350631804109,-0.0162133418478189,0.00499757638230326,-0.0708593122230902,0.079612888573906,-0.0103071825245039,-0.00549924997403842,0.034785487275003,-6.17983517846764e-05,2.12748911471567e-05,-9.89926515688643e-07,0.000731447767088846,-3.45202860870669e-06,-3.38001103504654e-05,-4.66715781262045e-17,1.99987370356348e-16,9.13417687200971e-07,0.0016724717908444,-0.000186403042005033,4.50449057089416e-07,-4.12953168327762e-06,-6.02469549394855e-08,-0.000183653972321959,-2.47851474482111e-05,-3.97234554015228e-06,7.41604636529872e-05,-4.72824815836014e-05,9.10444995397921e-05,-0.50004213080272,-0.0134869583488979,0.147271005231593,-1.13600541338161e-15,-3.46861344157876e-17,2.36692587393938e-16,6.02476515057169e-16,3.72989547050678e-05,4.74618530155546e-07,-1.24903808975656e-05,2.29788596462039e-05,-8.42678843184578e-06,-1.16311949507074e-15,2.54156872881247e-16,-5.64578130867746e-16,-1.45985311097958e-15,-0.574376589658045,-4.85251974603057e-06,8.69321395571094e-15,-0.557248416265235,-3.83514951609633e-07,4.81316375644525e-14,8.86096751528953e-15,4.14425438410859e-14,2.49646223832167e-14,-1.48267884481367e-06,4.89783066468874e-07,1.88055895999225e-15,-3.23028086568548e-16,-9.64504010609499e-16,1.72377540773575e-15,-2.18706367078208e-15,2.79138870215849e-16,7.74982285679839e-16,-9.81902821729641e-16,-0.0338460515827822,7.18793171027368e-07,3.8186416402365e-08,5.02368683069391e-16,1.12134245669507e-07,8.58445166194541e-16,-2.58921322169192e-16,-1.1331930066885e-15,-3.76425056057106e-06,-1.03314985187946e-15,-2.55715501307205e-15,0.00239772828577736,1.11654111834248e-07,-1.35924168819036e-15,-2.93191818666606e-16,0.00025521254775864,-4.11702048702148e-16,-1.13153101157234e-15,3.7328246066934e-15,9.91345308391633e-08,-3.36147557724202e-16,1.92453124390161e-08,-7.53298126852035e-16,-4.26879133498976e-15,-1.26846371440369e-15,6.52520616876571e-16,-8.19730592683675e-17,1.76932555650772e-10,1.52981793973389e-15,-9.30712885033891e-16
"Rosenbergiodendron_formosum",-0.0312917924433136,0.188673893859561,-0.0216077028037292,-0.0675901554714793,0.00394490245077966,-0.182909139139963,0.000537110257315761,-0.0248295414456732,0.0078693076517143,-0.120289666153201,0.13525821018443,-0.0219886807091002,-0.0117359779247967,0.0764896249217491,-0.000161955056756157,5.59625468292669e-05,-3.6154403129873e-06,0.00429332993222101,-6.88731981790492e-05,0.00197300888804769,-1.51946980932518e-17,4.07092566160954e-17,-1.21445026091972e-05,-0.0108124706028876,0.00112210955886958,-2.01343893841482e-06,1.72057555017017e-05,2.10392030852876e-07,0.000202086487302994,2.53198335588086e-05,3.34659387186198e-06,-4.18083656946192e-05,2.47257645737292e-05,-4.27435528409701e-05,0.207593661553308,0.00553896198719723,-0.0461781644667456,4.39446269353369e-16,-7.38512256672923e-17,-8.20366932175274e-17,-1.85671876872776e-16,-9.11043773857346e-06,-1.15082508863349e-07,2.66015772939533e-06,-3.52588613415205e-06,1.23770497260301e-06,-4.0411691732489e-16,-1.43184393470247e-16,4.37963018282163e-17,-1.97493105497663e-16,0.0289649846983168,1.3800140335812e-07,1.59073058796047e-15,-0.0390904061490236,-5.38995200477163e-08,1.02652261690928e-14,-1.94289029309402e-15,4.58660887048268e-15,9.74155651978226e-16,9.18891363794938e-12,3.80478635403358e-09,-1.06448130208207e-15,1.77529363064719e-15,-6.10097304141345e-16,7.44198683451806e-16,-3.85979648245666e-15,2.29326062120211e-15,-1.15956585198273e-15,-1.26536147080173e-15,-0.140438066101568,-2.83286284071546e-08,1.10494137744879e-11,3.53387162107277e-16,3.28352916385122e-09,-8.99664675116733e-16,8.60514090941556e-16,-3.23665745087679e-15,-7.84975654797143e-08,-7.46081772525706e-15,1.02411743654309e-13,-0.24764355135814,1.97435382750545e-08,-5.25446787558074e-14,8.44130455754852e-14,-0.863820193941392,-2.66219666177888e-15,6.93248890843334e-15,3.84545031447724e-15,1.48325318032962e-08,-1.81448677796017e-15,2.98904949699721e-09,6.38239406528332e-15,-1.00192475144772e-14,-3.77479513075433e-15,2.9091781370321e-16,1.41682438793882e-15,2.93845956577815e-11,-5.08588838715035e-15,2.35051234661941e-15
"Randia_pterocarpa",-0.0312986270001693,0.188744488799223,-0.0216235962028389,-0.0677097514604869,0.00395233057532038,-0.183272457286577,0.000538860787004268,-0.0249495069712616,0.00790919542162907,-0.120972030298629,0.136026320704334,-0.022147385474655,-0.0118207081867597,0.077055175269233,-0.000163300313413306,5.64283687081256e-05,-3.65021492600219e-06,0.0043398841328389,-6.9715307770904e-05,0.00199862329597297,-9.84699852479985e-17,2.02116830972083e-16,-1.23099657345146e-05,-0.0109691213017858,0.00113850451499573,-2.0440920646366e-06,1.7470657386807e-05,2.1373334087825e-07,0.00020651077260935,2.58899269750046e-05,3.42793444163003e-06,-4.30174241747159e-05,2.54656259861714e-05,-4.40874697740811e-05,0.214503512513818,0.00572425752691097,-0.0479291522930738,2.0786905074643e-16,-4.24502133824042e-16,-7.41349592331249e-17,-3.8041648239936e-16,-9.49734634205778e-06,-1.19985820925431e-07,2.78011258644274e-06,-3.70765209029098e-06,1.30257948683576e-06,6.78337749659532e-17,3.45952681331815e-16,2.07141455585383e-16,-5.59817393557585e-16,0.0309910448694358,1.48272042184514e-07,-4.92194433541116e-16,-0.042222705807415,-5.8244994571334e-08,9.65286878207294e-15,-4.62130334000221e-15,8.67361737988404e-17,-3.3809760546788e-15,1.00709525721876e-11,4.18434527456844e-09,1.43714545582061e-15,-7.94779000786514e-16,1.73235812419798e-16,7.2176446145888e-16,-5.44762648246702e-15,3.56951923451502e-17,3.64921419186956e-15,-1.47148066841345e-15,-0.17869547533973,-3.99811558917935e-08,1.68404380813058e-11,-2.78763982671546e-16,6.45884251783386e-09,-4.19784876882957e-16,3.9657726948145e-15,-3.7389907306944e-16,-4.51330618237553e-07,1.06735411155931e-14,-1.05665121376691e-13,0.32463132712969,-1.03521087738265e-08,1.44809530504537e-14,2.03466198705243e-14,0.138329895494026,9.46257240069131e-13,-0.0599170507613985,-0.814295163742677,8.89643443124016e-09,-6.43715338863075e-15,2.11830385145611e-09,-6.82122254021024e-15,-2.97096956670428e-16,1.92464912651563e-15,1.71660688440187e-15,1.27039653064305e-15,2.30124098780257e-11,3.50490363706499e-15,3.21876354075318e-17
"Randia_hebecarpa",-0.0312986270001693,0.188744488799223,-0.0216235962028389,-0.0677097514604869,0.00395233057532027,-0.183272457286577,0.000538860787004128,-0.0249495069712616,0.00790919542162903,-0.120972030298629,0.136026320704334,-0.0221473854746552,-0.0118207081867597,0.077055175269233,-0.000163300313413393,5.6428368708235e-05,-3.65021492581848e-06,0.00433988413283893,-6.97153077705414e-05,0.00199862329597294,-2.37127742665097e-16,5.04935749565367e-16,-1.2309965734385e-05,-0.0109691213017858,0.00113850451499581,-2.04409206474763e-06,1.74706573868322e-05,2.13733340829081e-07,0.000206510772609263,2.58899269749544e-05,3.42793444194717e-06,-4.30174241744231e-05,2.54656259860137e-05,-4.40874697748899e-05,0.214503512513819,0.00572425752691075,-0.0479291522930727,-4.02753612444067e-16,5.72669168547382e-17,3.69465486600954e-17,-1.41983498059982e-16,-9.49734634218059e-06,-1.19985820800674e-07,2.78011258810114e-06,-3.70765208958148e-06,1.30257948684786e-06,1.08599776657e-16,1.4299003466169e-16,3.07755417211063e-16,-5.60521832146039e-17,0.0309910448694393,1.48272042668936e-07,1.36282127316215e-15,-0.0422227058074125,-5.82449921895586e-08,2.12243417285762e-15,1.5404344466674e-15,-9.71445146547012e-17,-9.47592698752331e-17,1.00724684471737e-11,4.18434806248591e-09,6.45641181903228e-16,-1.65920886390403e-15,-8.07437428645564e-16,2.2050659131474e-15,-5.50632460317765e-15,-9.3844079576038e-17,7.63117619865246e-16,-2.69595086354069e-15,-0.178695475339734,-3.99811513548411e-08,1.68369195030548e-11,1.72966941939517e-16,6.45884783056003e-09,1.19267578269489e-15,-2.80490793523658e-15,2.59778459121805e-15,-4.51330624885598e-07,-8.54719499875426e-15,-1.21360899387329e-13,0.324631327129672,-1.03520859766593e-08,-2.77699719304349e-14,1.03181834590932e-14,0.13832989549403,-8.66449938399667e-13,-0.675241772599271,0.459037269950561,8.89643906504909e-09,-1.27164501271476e-15,2.1183278458878e-09,-5.48462451199863e-16,-1.61715514853342e-14,1.22751813930324e-15,2.76148045361484e-16,9.85556424396235e-16,2.30228876054615e-11,2.8110142466742e-15,2.96782563038386e-16
"Randia_thurberi",-0.0312986270001693,0.188744488799223,-0.0216235962028389,-0.0677097514604868,0.00395233057532031,-0.183272457286577,0.000538860787004347,-0.0249495069712616,0.00790919542162914,-0.120972030298629,0.136026320704334,-0.0221473854746551,-0.0118207081867598,0.077055175269233,-0.000163300313413525,5.64283687082354e-05,-3.65021492576802e-06,0.00433988413283916,-6.97153077709334e-05,0.00199862329597304,3.49528593758071e-17,2.66348779701761e-16,-1.23099657344588e-05,-0.0109691213017861,0.00113850451499575,-2.04409206489523e-06,1.7470657386848e-05,2.13733341112492e-07,0.000206510772609238,2.58899269744279e-05,3.42793444175222e-06,-4.30174241742748e-05,2.54656259861891e-05,-4.40874697741648e-05,0.214503512513819,0.00572425752691104,-0.0479291522930732,-1.07061072903597e-17,-1.11710644790492e-16,3.05377993100401e-16,-1.2664016236543e-16,-9.49734634216388e-06,-1.19985820800704e-07,2.78011258877074e-06,-3.70765209017129e-06,1.30257948697171e-06,-3.72810325725234e-20,-5.89930633961056e-16,3.66736015372052e-16,-1.48054990668954e-16,0.0309910448694372,1.48272040248996e-07,6.7234711998109e-16,-0.042222705807413,-5.82449921722114e-08,2.90566182226115e-16,-2.17881268582687e-15,2.73392419813945e-15,3.36102673470506e-17,1.00722586410832e-11,4.18434480077209e-09,3.14648586917848e-15,-2.44656700842921e-15,-1.21456331706485e-15,1.2380284831339e-15,-4.57446239999242e-15,-1.97665740287482e-15,9.17758058673099e-16,-2.01497298203324e-15,-0.178695475339729,-3.99811430293611e-08,1.68377359615007e-11,9.03476894259877e-16,6.45886131647651e-09,1.45365107525732e-15,2.7045453767372e-16,-3.24480953129869e-15,-4.51330619815706e-07,8.47391174813739e-15,-1.02847930451705e-13,0.32463132712966,-1.03521004168187e-08,-2.65279099216384e-14,-3.37094236255528e-14,0.138329895494045,-7.57066105349926e-14,0.735158823360674,0.355257893792133,8.89645923055898e-09,5.8965377942831e-15,2.1183309742007e-09,3.29134796301283e-15,4.30685914857201e-15,7.52545025122638e-16,1.08928374225327e-15,-2.22706192190397e-15,2.30209724603943e-11,8.22335149172154e-15,1.42693176872632e-15
"Randia_armata",-0.0312876453524923,0.188631056723228,-0.0215980579563587,-0.0675175639676008,0.00394039367855553,-0.182688605291068,0.000536047414786858,-0.0247566807991764,0.00784508080077186,-0.119875164806213,0.134791621720447,-0.0218922458933501,-0.0116844926990328,0.0761459637703797,-0.000161137452106538,5.56794339699624e-05,-3.59429987885604e-06,0.00426502147939205,-6.83609918724912e-05,0.00195742680523618,3.95971862212795e-17,-3.31053888637101e-16,-1.20438332076455e-05,-0.0107171465363593,0.0011121327650162,-1.99478339168572e-06,1.70445302946844e-05,2.08358240768398e-07,0.000199390343599294,2.49723786038552e-05,3.29700200253443e-06,-4.10705682920644e-05,2.42741958400663e-05,-4.19230648132352e-05,0.203373574078466,0.00542579190802696,-0.0451078337804584,4.62900948390529e-16,-4.55054427205311e-16,-3.01670112140126e-17,-1.87570447480998e-16,-8.87372830609005e-06,-1.1208259861883e-07,2.58673366084448e-06,-3.41449407995163e-06,1.19794143774789e-06,2.86298261078256e-17,-4.74854373769804e-16,1.37398154914449e-16,9.27961179221093e-16,0.027719188381572,1.31681084641379e-07,2.71170387444749e-17,-0.0371609145776175,-5.12224781626727e-08,-8.59989163215502e-15,-3.08780778723872e-15,5.25621213220973e-15,-7.29884902517242e-16,8.64257039239231e-12,3.57018213343469e-09,-8.95749923545355e-16,2.73028640422229e-15,6.80069430927821e-16,-1.35119964932521e-16,2.12774164932638e-16,2.21174618968738e-15,-8.24265393622835e-16,-1.42805168686391e-15,-0.116174529797378,-2.0815524488045e-08,7.28659978864877e-12,1.61875217626532e-15,1.14418363856178e-09,4.98590753625743e-16,-1.25038463081709e-15,1.54419552774154e-15,1.93098017127107e-07,-5.10958457269183e-15,2.49165291366106e-13,-0.787273987080794,6.40643692331855e-08,9.02979194585598e-14,-8.13106469375262e-14,0.443155490442638,-2.71410604574317e-15,-1.24107990242248e-14,-1.75361308909494e-14,1.800598347135e-08,1.46355394305047e-15,3.47685794304441e-09,-9.14848077685797e-15,-6.52202019609529e-16,-5.06048010005151e-15,-3.61841005448506e-16,-1.3324969276943e-16,3.30381253070564e-11,-3.5372974043126e-15,-1.18276675449904e-15
"Rothmannia_urcelliformis",-0.0312134237045936,0.187864094150512,-0.0214252212368103,-0.0662133931393046,0.0038593668643061,-0.178724395696413,0.000516882052240411,-0.0234377166386199,0.0074062546446175,-0.112355950031511,0.126327396784645,-0.0201361494395626,-0.0107469319002444,0.0698850823410323,-0.000146208283667152,5.05096694691382e-05,-3.20701741120847e-06,0.00374483399495221,-5.89161759634547e-05,0.00166955640666518,2.23005674997283e-18,2.51769375341613e-16,-1.0181020590195e-05,-0.00894941302714172,0.000927061303347649,-1.64818470361044e-06,1.40478540346208e-05,1.70510152712195e-07,0.000148446675728051,1.8396805265447e-05,2.35418667704116e-06,-2.6877232038837e-05,1.55647155517201e-05,-2.60361266739007e-05,0.121270687316045,0.00322308359611201,-0.0240322915897881,-1.20807384807764e-17,-1.9156659864745e-16,-1.5583788661488e-16,-4.08043828689047e-16,-4.15695983443407e-06,-5.22834927410849e-08,1.11352277853451e-06,-1.14090877504497e-06,3.84472203573389e-07,-5.18786920536104e-16,4.63213136896339e-16,-7.93102323881387e-16,-7.23023699887661e-16,0.000994960698111309,-5.58209449410402e-09,-6.37777431995981e-16,0.00541343014171708,7.92785678598029e-09,6.10882872065233e-15,3.44169137633799e-15,1.52308721190764e-15,4.5547333266116e-16,-3.99270574453664e-12,-1.90349894397049e-09,-3.32662420127611e-15,2.24120001651792e-15,1.32619357030868e-15,1.18598331767747e-15,2.47171582705394e-14,-4.37111714731723e-15,-2.86424816287476e-15,7.69919673570226e-15,0.929626917682662,7.59614385970563e-07,3.11156493979495e-08,2.30279285535322e-15,7.08922412802262e-08,8.69423978010726e-17,1.06131853899434e-15,-3.44386759594019e-15,-2.08649360086293e-06,-1.25172489300713e-15,-2.00049895657497e-14,0.0518603789668504,5.21281842407075e-08,6.38660754645308e-16,4.01783865388044e-15,0.00470214446869354,-1.0718814847683e-15,-2.78257427660093e-15,3.63935232915886e-15,4.3528303095965e-08,-1.25475062154986e-15,8.2173186943863e-09,-2.12250453787095e-16,-1.40118476287788e-15,-1.24480921591868e-15,-6.92424109033919e-19,9.87827237180735e-16,7.39022434687645e-11,6.76798057975889e-15,-3.20657081757321e-16
"Genipa_americana",-0.030923529030576,0.184864655292804,-0.0207472728193716,-0.061053593818104,0.00353848837597703,-0.163011890757533,0.00044009467914239,-0.0180809695677849,0.00562033986588384,-0.0815917924385352,0.0916949339273972,-0.0128516186679106,-0.00685772533650468,0.0438727683425354,-8.36651303817388e-05,2.88483835017149e-05,-1.56480773790843e-06,0.00151354386677119,-1.78640025460764e-05,0.000409106963770436,7.8440932413923e-18,1.90705692104138e-16,-1.97310755941565e-06,-0.00109346603513979,0.00010357929422308,-9.64532637429722e-08,6.08350793576733e-07,-6.89622052497084e-11,-9.63520457731061e-05,-1.34222219162346e-05,-2.30244911889869e-06,4.72364000828981e-05,-3.0494736626455e-05,5.96469819502598e-05,-0.332550309149124,-0.00898004335582152,0.100355314624838,5.47324977405784e-17,4.08663631116965e-16,1.34984367109244e-16,3.40918684949898e-16,2.57132495703547e-05,3.27261402308529e-07,-8.6333491649826e-06,1.58085810456213e-05,-5.78635397196419e-06,1.45558475045965e-15,-2.44419777187074e-16,-5.17151591008435e-16,7.92551778037225e-16,-0.322313086325098,-1.98310461968325e-06,-1.22345071039e-14,0.822767474469616,1.17759677252006e-06,-1.02364297593915e-13,-2.94902990916057e-15,-5.10910758144689e-14,-1.75815308492422e-14,-1.48272288863628e-06,4.74034504243303e-07,-1.96357941282006e-15,2.76071130421685e-16,8.42025103865084e-16,1.19110292417089e-15,-1.13272513263964e-15,7.21550100718805e-16,-3.9524656783457e-16,-5.7990946836221e-16,-0.0705004372473906,5.7955926459428e-07,3.11844602822981e-08,8.87855317947911e-16,9.24509460244777e-08,-5.87640886277597e-16,3.51702129524153e-17,-1.81776964808619e-16,-3.11805512703011e-06,-1.23797174953749e-15,1.19741488590946e-15,0.00409172089019163,9.25860462902575e-08,1.03530144344579e-15,1.0332737409825e-15,0.000429429061711921,-2.42105178503484e-16,-5.83236927053432e-16,5.73661604400742e-16,8.26502560073006e-08,-5.17636344979145e-16,1.60734284929557e-08,-1.08510792565375e-15,-3.76664671829355e-15,-7.92489281073449e-16,4.06830638784948e-16,3.28816823225859e-16,1.48081653457528e-10,3.00645910039219e-15,1.27485549901683e-15
