"","c1","c2","c3","c4","c5","c6","c7","c8","c9","c10","c11","c12","c13","c14","c15","c16","c17","c18","c19","c20","c21","c22","c23","c24","c25","c26","c27","c28","c29","c30","c31","c32","c33","c34","c35","c36","c37","c38","c39","c40","c41","c42","c43","c44","c45","c46","c47","c48","c49","c50","c51","c52","c53","c54","c55","c56","c57","c58","c59","c60","c61","c62","c63","c64","c65","c66","c67","c68","c69","c70","c71","c72","c73","c74","c75","c76","c77","c78","c79","c80","c81","c82","c83","c84","c85","c86","c87","c88","c89","c90","c91","c92","c93","c94","c95","c96","c97","c98","c99","c100","c101","c102","c103","c104","c105","c106","c107","c108","c109","c110","c111","c112","c113","c114","c115","c116","c117","c118","c119","c120","c121","c122","c123","c124","c125","c126","c127","c128","c129","c130","c131","c132","c133","c134","c135","c136","c137","c138","c139","c140","c141","c142","c143","c144","c145","c146","c147","c148","c149"
"t1",0.00649780117872124,-0.046627989042871,0.00253924592251611,-0.000430393465455626,-0.00886259710577602,0.00211790801151042,-0.00472642273547558,-0.0177675515898002,-0.0293598575284466,-0.0155057030966111,-0.0189623481726664,-0.0532147280863599,-0.0840156994288072,0.0435422509196838,0.00663500497568696,0.00679606569729002,0.00159140260436394,0.00889988259949262,0.0952481792130792,-0.0008364022698217,0.000741216174717252,-0.000928104973656639,0.45720755708706,0.00426180515254157,0.0312593019224591,-0.023458134952966,-0.0503386351492185,0.572455509224904,0.0834304976289382,0.0406100759962154,-0.0473837176563163,0.0945108160794958,0.0159856623352372,0.00586572008065048,-0.00988332475496182,0.00312330729940494,-0.00139635762008846,-0.0423248275050547,0.0110525531434538,0.00141035744293901,0.000217152057845158,0.00490205940284149,0.00927427428200448,0.00211714878178866,0.000398994019337702,-2.39511647763997e-14,0.0304896399772106,0.577167604851513,-0.252651985022168,-0.00858711753053251,-0.00779387479516541,0.0243536484699994,-0.0255148399425424,0.00178879589483949,-0.00271914811611476,0.0055965804819169,0.0110361776536303,-0.00123348270524681,-0.00203631313318441,1.67154586584204e-05,0.00136559005548156,-0.000195855980756676,1.84293111963108e-15,-0.000263915459945195,0.0168861539356889,-0.000738349784510885,0.00105031256888528,-3.95205297305288e-05,-6.12039460275462e-08,-0.000445921798520377,-0.00478594554477842,0.00948359174403906,-0.0669451062767101,2.20280814943669e-05,0.00139051875891316,-1.1797849309201e-15,0.00160754340552309,0.000409774160108078,-2.04298468784444e-05,-0.000514876547610244,-0.00446417156049259,-5.69129881021096e-05,-0.0212892090086238,-3.83627621486203e-06,-0.000413980457393014,-1.07447380021237e-16,0.000412478290701805,-0.0172166383598828,5.21578756666094e-06,9.65611447170925e-06,3.685526088107e-16,0.00371414180909719,-8.29338358196081e-06,-4.5435636260908e-05,-2.56163232021415e-16,-4.38462400935548e-07,-0.000447798805269623,0.000659928944656327,0.00133423050632532,-0.000522189941799602,7.23939892782535e-16,3.80024327918337e-05,0.000208345972264821,3.04350456138638e-16,-8.1450798832063e-05,-7.24396449902792e-06,6.13424087478528e-16,-0.00113440996482571,-1.14316411086833e-06,-5.30274960561074e-07,1.95705903620508e-16,-3.67069534926906e-17,-4.30189061116791e-06,-3.45637073010281e-16,-0.000221705156039449,1.34393671332287e-15,-3.25582536027162e-16,-3.40084677716235e-05,1.37891603278008e-05,-3.58216229862985e-16,5.10792733430455e-06,-2.30892830222558e-05,-6.59055589726044e-19,3.5418319949591e-05,2.95100360376745e-16,-2.5699434670916e-16,1.12212794703032e-05,-9.82032538947901e-05,2.20562313744108e-05,2.89190317192089e-06,-7.93356429183195e-09,0.000143501036568871,3.33496813394723e-16,6.09261029689196e-06,4.92942182064526e-05,-4.71456229234216e-06,-5.69305666036825e-16,-8.52583260169597e-07,1.68139784556333e-08,-3.20779491808542e-05,-5.11257888297194e-16,-4.14749962948719e-17,-1.44900497603814e-15,4.267813367782e-17,4.1494000073734e-15,1.08585923581025e-15,-2.63726573644769e-16,6.36424312492717e-14,0.081923192051909
"t4",0.0102971111365023,-0.129567490973327,-0.0414551435553562,0.0010673409331259,-0.0511581722084466,-0.000905388620054438,-0.000416498451599932,-0.00265921648319978,-0.00527991876289297,-0.00331464438185893,-0.00544424210251983,-0.0230114506455711,-0.0886911618872879,-0.00788294768739425,-0.000492584849851914,-0.000129089897035851,0.000137322543705148,0.0010207334366099,0.0122341070579337,-0.000175561918278867,0.000163952265447928,-0.00023051286769534,0.145532354005349,0.00149994661139873,0.0577021998830333,0.0512040918759827,0.00224770744191083,0.018587448072646,0.00713144197754744,0.00342960559434629,-0.00387159875461807,0.00765631162126703,-0.00745608950656803,0.00021829645885009,-0.00029857141636264,1.27460630746791e-05,8.5737082905846e-06,0.0430610162573601,-0.000232520487618873,-3.70784669402837e-05,-5.94835802394798e-06,-0.000204890709600051,-0.000661831673270469,-0.000153880728003811,-3.04730863503451e-05,2.18520513133378e-14,-0.0392677744563323,-0.0537463242464397,0.0219417039761096,-0.00075158598593055,0.000589871205269835,-0.00155621343628401,0.00150294573489726,2.93473530307245e-05,-7.82483816325757e-05,0.00317194494032873,0.00800539608088354,-0.0014884269325447,-0.0107797428390136,-6.26610526206449e-05,-0.00227034381048884,0.000322363234276145,-1.00746891128839e-15,0.000456227446698965,-0.030342914633221,0.00134356899851226,-0.0124580169946262,0.00011936506374836,2.19446597465868e-07,0.00174728915574314,0.0213248741909722,-0.109041565731512,0.936541005261385,0.00131224425314456,0.0328234955648181,1.22456735160925e-14,0.0126326398890954,0.00298235218494015,-8.95781578096714e-05,-0.00217431450585274,-0.0176630633064008,-0.000209817421703095,-0.0737391460239367,-1.08262072649489e-05,0.0112746748680988,4.79503057036652e-15,0.0010193659436842,-0.0344983012266509,5.24817057669601e-06,8.66663672215996e-06,-3.85423070139441e-15,-0.172397869278607,-3.77987851991207e-05,-0.00018757328314412,4.36256043853688e-15,-1.07258217518687e-06,-0.00108288290479753,0.00155647654409931,0.00299943408993691,-0.00117047196634354,-2.06668412745266e-15,8.37668929932436e-05,0.000456545095678827,-9.6448943755939e-16,-0.000153465117377458,-1.36190785422217e-05,2.10885624520379e-15,-0.00207128823971911,-1.87816190467065e-06,-8.59742195158206e-07,-1.80763898529547e-15,2.84177094272629e-16,-6.37202304019787e-06,1.262707230704e-15,0.00890732551968219,-5.49787945136557e-14,1.76233363291036e-16,-0.00356214924862487,1.89143262968655e-05,-5.02830923653509e-16,6.69330094436213e-06,-2.94039482819127e-05,3.85894256890852e-16,0.00190423439154054,-4.85449864708291e-16,-1.75903615584001e-16,-0.000677773872103644,0.00598045663936316,2.68804327669834e-05,3.44901873232554e-06,-9.41050508896911e-09,0.000168147058467641,1.12921099658071e-15,7.11445475931143e-06,5.75454323329097e-05,-5.49668165507738e-06,-7.15073427027238e-16,-9.72859816059864e-07,1.85769041349356e-08,-3.50497379303578e-05,-1.47012068088784e-15,8.40269939909843e-16,-3.45003789143114e-15,4.77641126444444e-16,5.879350906699e-15,1.64877279461592e-15,-4.66077053789712e-16,6.4660342650102e-14,0.0819231920519138
"t26",0.0122164661940175,-0.17031865241676,-0.0621773617302508,0.00174872134155239,-0.216303838787348,-0.00467674896789544,0.00232235221698796,0.00649233667758994,0.00906941224992688,0.00387597859631124,0.00280442870334516,0.00370399669903376,0.00293133382742278,-0.000532399791195848,-4.30795440710258e-05,-1.33627897064489e-05,2.20825192023735e-05,0.000193643560732159,0.00254499574328915,-9.99939531100636e-05,0.000130217826506118,-0.000322681236318237,0.332073106491294,0.00382587152093103,0.256324224449747,0.267472007814065,0.0485201075257735,-0.322781664967573,-0.0174452668527438,-0.00498404195582089,0.00499720403360224,-0.00964632703640404,0.00751788362416693,-0.000150665477875581,0.000195643363902572,-7.19309342315675e-06,-4.6775966154089e-06,-0.0231548571797946,0.000117126662431473,1.83798211759014e-05,2.93916783912128e-06,9.77372971851971e-05,0.000313664984576511,7.31939224622254e-05,1.46903834536701e-05,-0.707106781186558,0.215784858194503,0.00861216486289729,-0.00374496762820795,0.000130212309538845,-0.000105711352497727,0.000285988927695924,-0.000278137708451517,-5.62096264697235e-06,1.50087151758751e-05,-0.000604716337199404,-0.00152181328827003,0.0002811977596327,0.00200855777022483,1.14124128894522e-05,0.000386267498014728,-5.2539376487654e-05,-1.24705224320428e-15,-7.18484044159422e-05,0.00469173980904832,-0.000206642011578192,0.00173979391853094,-1.59417197890934e-05,-2.83622869109587e-08,-0.000222429350063156,-0.00266090223492146,0.0123767638829217,-0.1051034059413,-0.000137616520853418,-0.00337158796446247,1.07930567208887e-15,-0.00120652861841004,-0.000282254904909616,7.78506434452335e-06,0.000187367224763451,0.0014985782422463,1.74827049359651e-05,0.00604127532007256,8.37311932447538e-07,-0.000856973593120219,1.45845038730824e-16,-7.63815992152555e-05,0.0025235294500493,-3.77759531303613e-07,-6.23345843710326e-07,5.02873407534696e-16,0.0122609343512836,2.66094304819235e-06,1.31714928677674e-05,2.0212072714931e-15,6.98541891411279e-08,7.01740923888037e-05,-9.96934901422253e-05,-0.000187236314752421,7.29399311021581e-05,1.02869392857422e-15,-5.16754403452748e-06,-2.80602164989086e-05,-6.44286494968152e-17,8.37247305426353e-06,7.41453219092545e-07,1.38672590013052e-15,0.000109503871029476,8.74611031630621e-08,3.92989164095784e-08,-2.39834812636207e-17,-2.1040252688231e-16,2.54137087525048e-07,-1.02531998377637e-16,0.00600425561377631,-3.56044200517975e-14,-7.73502564075811e-16,0.000116797907409756,-6.15617155574692e-07,-7.81996355530406e-17,-1.91938289970125e-07,7.70494425695333e-07,-1.28695168254745e-16,-4.84307968759857e-05,2.30890619714097e-16,3.26076668051272e-17,-0.000527182662053037,0.00466131796907723,-5.72462256378256e-07,-6.60725563541174e-08,1.74930133499663e-10,-2.90632262025723e-06,9.77984621521165e-16,-1.20309303834073e-07,-9.71343716895279e-07,9.20142227926063e-08,-1.08427301223286e-18,1.39485433061984e-08,-1.96021587035477e-10,3.22343335138282e-07,-1.15714167300891e-15,-1.67237847368971e-16,-9.17510704116161e-16,-2.08070047119621e-16,9.74854348065148e-16,1.06713923712388e-15,-2.41320587630321e-16,6.31740847075909e-14,0.0819231920519057
"t27",0.0122164661940184,-0.17031865241676,-0.0621773617302511,0.00174872134155234,-0.216303838787348,-0.00467674896789561,0.0023223522169886,0.00649233667759035,0.00906941224992682,0.00387597859631152,0.00280442870334484,0.0037039966990342,0.00293133382742263,-0.000532399791196354,-4.30795440698921e-05,-1.33627897060057e-05,2.20825192027883e-05,0.000193643560733214,0.00254499574328912,-9.99939531100926e-05,0.000130217826505893,-0.000322681236319132,0.332073106491287,0.00382587152093264,0.256324224449743,0.26747200781406,0.0485201075257707,-0.322781664967562,-0.0174452668527401,-0.00498404195581539,0.00499720403359264,-0.00964632703639527,0.00751788362416217,-0.000150665477876952,0.000195643363903414,-7.19309341958019e-06,-4.67759662190964e-06,-0.0231548571798033,0.000117126662433115,1.83798212020739e-05,2.93916782492117e-06,9.77372971295183e-05,0.000313664984623112,7.31939224707196e-05,1.46903834602941e-05,0.707106781186536,0.215784858194598,0.00861216486292862,-0.00374496762822897,0.000130212309549395,-0.000105711352474244,0.000285988927701803,-0.000278137708450067,-5.62096266329035e-06,1.50087151796156e-05,-0.000604716337182397,-0.00152181328827247,0.000281197759650865,0.00200855777022284,1.14124128944017e-05,0.000386267498011424,-5.25393764732597e-05,2.70576522839563e-15,-7.18484044116136e-05,0.00469173980904918,-0.000206642011573248,0.00173979391855138,-1.5941719797043e-05,-2.83622843502171e-08,-0.000222429350060751,-0.00266090223492466,0.0123767638829269,-0.105103405941324,-0.000137616520853423,-0.00337158796446359,-3.19628299203108e-15,-0.00120652861841161,-0.000282254904910679,7.78506434088615e-06,0.00018736722475871,0.00149857824224734,1.74827049336647e-05,0.00604127532007279,8.37311928352645e-07,-0.000856973593117537,-5.4475748169737e-16,-7.63815992146218e-05,0.00252352945005151,-3.77759526156052e-07,-6.23345842545886e-07,1.35685734905055e-16,0.0122609343512857,2.66094305775624e-06,1.31714928689295e-05,-1.56868099100999e-15,6.98541904475486e-08,7.01740923878946e-05,-9.96934901408828e-05,-0.000187236314746277,7.29399310977862e-05,-8.41229057982718e-16,-5.1675440400277e-06,-2.80602165000259e-05,8.75203636657981e-16,8.37247305697417e-06,7.41453220016892e-07,-2.32459671412659e-15,0.000109503871029487,8.74611040039031e-08,3.9298915918707e-08,1.32529611369993e-17,4.85878571361228e-16,2.54137087995421e-07,-8.94071444585355e-16,0.00600425561378284,-3.53669977121233e-14,9.07621362086199e-16,0.00011679790741237,-6.15617153048162e-07,6.27545005527048e-16,-1.91938288124525e-07,7.70494426814524e-07,-9.39020264136144e-16,-4.84307968718369e-05,-2.46694496024049e-15,5.79334342312285e-16,-0.000527182662053948,0.00466131796907896,-5.724622560811e-07,-6.60725569448518e-08,1.74931242819767e-10,-2.90632262355625e-06,1.34037216877892e-18,-1.20309304242501e-07,-9.71343716947009e-07,9.20142228533631e-08,-1.05535756421874e-15,1.39485448426032e-08,-1.96022774546517e-10,3.22343332878517e-07,-1.03900939436247e-15,-3.09993857201132e-16,-2.02203586136961e-15,4.43156620180222e-16,5.36175840770671e-15,1.04749584875091e-16,-8.99640903710801e-16,6.3758377347809e-14,0.0819231920519069
"t113",0.01298855227489,-0.187050257916744,-0.070881657477192,0.00203877466103542,-0.292584920885197,-0.0064337852790221,0.00368810941750455,0.0112242494829368,0.0166731703030673,0.0078207160860112,0.0078028050701569,0.0224717658561082,0.0740435245001273,0.00582944314045483,0.000356004628318357,9.16232061029362e-05,-9.16999060589517e-05,-0.000662660047814817,-0.00780971465202496,9.6309804579079e-05,-9.24013146442767e-05,0.000156802863622666,-0.131158888800331,-0.00145820776360624,-0.0856949993785973,-0.0870490588515338,-0.0140368881180319,0.0856584827449916,0.0034047056368501,0.000743149202106414,-0.000680876789296914,0.00128797460353902,-0.000800642019205085,7.83645238338735e-06,-8.49247289110958e-06,1.12208591162218e-07,3.85681989503608e-08,0.000113198017989451,1.4895029462214e-06,3.32670267091337e-07,5.66056144878044e-08,3.46810692212087e-06,2.57150773975652e-05,6.21555621841851e-06,1.37842915545297e-06,-3.94129173741931e-15,0.0739475459414018,-0.00194142817910871,0.000669081263505608,-2.17949221575026e-05,1.49055887869332e-05,-3.42658440829465e-05,3.15564680281386e-05,4.04943377486499e-07,-1.03346699659188e-06,2.01153894956536e-05,4.64125864988228e-05,-7.21353544661788e-06,-3.56002979101998e-05,-9.82096979031763e-08,3.1093637215072e-06,-7.86278507404775e-07,9.20942604027588e-17,-1.39325709248195e-06,0.000100625304095518,-4.54831083540537e-06,5.20595923646652e-05,-5.15974875116876e-07,-9.56942888670497e-10,-7.62046385648996e-06,-9.27006128375205e-05,0.000444886019560734,-0.00377307537554208,-4.78987915386286e-06,-0.000115259903726555,3.91875844130299e-15,-3.72619145897667e-05,-8.56367318338053e-06,1.8470900815587e-07,4.29152538803032e-06,3.19440900036421e-05,3.38003362180417e-07,0.000104750129576608,7.89405239753713e-09,-5.71959137164727e-06,4.87696911233857e-16,-3.26243337579801e-07,-1.91815530560535e-07,1.21429536509323e-09,2.0985233390092e-09,2.88163661841494e-15,-6.95952710630687e-05,-2.09047751718808e-08,-1.10727356906557e-07,-3.39523565402092e-15,-1.91892774416761e-09,-2.03032108922829e-06,3.23653926080014e-06,7.6444574281972e-06,-3.02093469251747e-06,-2.84750587017814e-15,2.32351411421068e-07,1.29904020806886e-06,1.97686366524471e-16,-8.57244469304032e-07,-7.68618354151364e-08,4.61631782592954e-15,-1.34715370652783e-05,-2.25484239200586e-08,-1.14016177337606e-08,-1.19725899636088e-15,-7.97708868793031e-16,-3.17247057246009e-07,5.16166676726822e-15,-0.381921473723095,2.26932005350529e-12,6.06195471742938e-16,3.58502491568431e-05,-1.5988837464518e-07,2.59106318338934e-15,7.36788551134433e-08,-1.19802976018429e-06,5.03466467150254e-14,0.000238792429541267,1.46419822739376e-13,-7.55753483709669e-14,0.0894182389286122,-0.813518172512271,-1.1214290225991e-06,-7.64687938110615e-08,1.85496143959521e-10,-2.62339414734053e-06,-9.82267649527428e-16,-1.04466923428354e-07,-8.40835174067348e-07,7.85656922733125e-08,4.6222283886779e-15,9.82402134364886e-09,-1.12952403156199e-10,1.7601525500197e-07,3.94630448806695e-15,8.00893646544961e-15,-3.35640354502286e-15,2.8017542654376e-15,-1.67261814721339e-14,-1.51506581564587e-15,-3.2473138691116e-15,6.39426528035793e-14,0.0819231920519184
"t126",0.0130227110229843,-0.187785587695053,-0.0712614047284916,0.00205137537047509,-0.29581592088043,-0.00650801408831928,0.00374465998801484,0.0114181542222408,0.0169826130928975,0.00797971976856992,0.00799903194020585,0.0231823293074633,0.0766760033912067,0.00605962410333041,0.000370370646887178,9.53864329437304e-05,-9.57135811409692e-05,-0.000692608922895103,-0.00816986123039902,0.000102426833457361,-9.89848858490549e-05,0.000169828522716799,-0.143038794062641,-0.00159226919139754,-0.0940156542545807,-0.095595923225935,-0.0154834684032706,0.0948003948884851,0.00381413767126887,0.000841458765106261,-0.000773653149421439,0.00146461358279539,-0.000918133996904007,9.18288558123846e-06,-9.99196588936005e-06,1.33891806396583e-07,4.62004739470531e-08,0.000135840786697515,1.80409160420019e-06,4.04042349120807e-07,6.87901827547384e-08,4.24762458330538e-06,3.2034844026266e-05,7.74931957533126e-06,1.72247767913528e-06,-7.50788320402762e-15,0.0944232935447386,-0.00254109009667983,0.000878840569607061,-2.86595052236944e-05,1.96627424795961e-05,-4.5354745114903e-05,4.18190370156916e-05,5.42782187207009e-07,-1.38697014582053e-06,2.75641159261748e-05,6.37525924785697e-05,-9.95460756320206e-06,-4.95701074638693e-05,-1.38546107890484e-07,4.54899426087838e-06,-1.17767110043432e-06,-3.88320130070656e-16,-2.12831413443358e-06,0.000155407051098764,-7.04737574706513e-06,8.60742802599978e-05,-8.8335778282902e-07,-1.68491695662535e-09,-1.36035915321457e-05,-0.000168658972068027,0.000899981431381,-0.00774706052974209,-1.08895376759162e-05,-0.000271798208177631,4.97904345962083e-15,-0.000102773362425119,-2.4184043967139e-05,6.97091425094264e-07,1.68333637456086e-05,0.000135392389870995,1.58852415224488e-06,0.000551398785998292,7.71114444033615e-08,-7.89709755895382e-05,1.00234610286419e-15,-7.0366314082612e-06,0.000231964863252413,-3.46269132535554e-08,-5.7129225069938e-08,1.31421486643658e-16,0.00112071447036189,2.42512513626582e-07,1.19945990649188e-06,9.45857460763833e-17,6.1062403903223e-09,6.10915424018706e-06,-8.58918783029665e-06,-1.56940311211388e-05,6.10104109838857e-06,-3.78363839505578e-15,-4.26665052344045e-07,-2.3051495703937e-06,-4.40819960868982e-16,5.0186260067521e-07,4.40028578320579e-08,3.36658718584554e-14,5.4637836450673e-06,-2.89575419188493e-09,-2.22009627504721e-09,-3.85522503763125e-15,7.60251989954092e-15,-2.45079364607406e-07,4.92996696853824e-15,-0.408551580628049,2.42599898506933e-12,-6.08825905463697e-15,0.000115430303307625,-5.8995892968555e-07,2.3359184428265e-15,-1.70662831032949e-07,1.08715605869544e-06,1.50995959527403e-14,-0.00015976803448581,-8.82425915026664e-14,-1.49355424535119e-13,-0.716636153343548,0.347835055614371,2.89190410645052e-07,8.29638828943758e-09,-1.42970188186008e-11,3.70378079484976e-08,-1.00559924392972e-14,-2.22618036838051e-10,-2.89566181565148e-09,7.31378468572303e-10,-9.20991374159316e-16,9.57508443095028e-10,-2.2827712145457e-11,4.09747009287492e-08,-3.81504154531925e-15,-2.07494442534235e-16,-2.17730097941899e-15,5.57104025784315e-16,1.99150173068892e-15,5.70489150885805e-16,6.41631273580174e-16,5.62916924547368e-14,0.0819231920518957
"t127",0.01302449440773,-0.187824007358081,-0.071281262243496,0.00205203459275782,-0.29598542789102,-0.0065119094336712,0.00374763404334263,0.0114283631005341,0.0169989167342921,0.00798810556589379,0.00800940878068105,0.0232200399117842,0.0768160137812051,0.00607189262868226,0.00037113670735197,9.55871829879793e-05,-9.59280022365367e-05,-0.000694210092953699,-0.00818912538231699,0.000102757035681775,-9.93416847304919e-05,0.000170538664700545,-0.143688877745655,-0.00159961009303123,-0.0944724210832817,-0.0960653552379699,-0.015563107626856,0.0953045715392303,0.00383686192640386,0.00084694535920813,-0.000778840252213684,0.00147449335899428,-0.000924733772197096,9.25934180413388e-06,-1.00772839160595e-05,1.35134059473657e-07,4.66385595255275e-08,0.000137141579759902,1.82224483996231e-06,4.08166261801591e-07,6.9494408538469e-08,4.29284473684951e-06,3.24043785309385e-05,7.83903634155554e-06,1.74262372986063e-06,-7.17481629664007e-15,0.0956341288904707,-0.00257694242753498,0.000891400898135403,-2.90707532130957e-05,1.99481311219941e-05,-4.60209568631009e-05,4.2435924668147e-05,5.51108251607421e-07,-1.40833454403702e-06,2.80182416539976e-05,6.48108141648534e-05,-1.01222092525035e-05,-5.04274216584843e-05,-1.41034611801422e-07,4.63908739844933e-06,-1.20238357208986e-06,-3.85535254691576e-16,-2.17506411970433e-06,0.000158905053453602,-7.2071362749618e-06,8.82979943415277e-05,-9.07648616628241e-07,-1.73347681927943e-09,-1.40043445475983e-05,-0.00017377563672847,0.000931549713316051,-0.00802377477488711,-1.13247347613002e-05,-0.000283056874284726,9.80445348157924e-16,-0.000107631580078186,-2.53472162694397e-05,7.36892185807321e-07,1.78120841535031e-05,0.000143535212745947,1.68798521854797e-06,0.000587282776291602,8.28830928756878e-08,-8.51537870478969e-05,-2.85147217163589e-15,-7.60892800579885e-06,0.000252129044241391,-3.77801112271351e-08,-6.2343104386418e-08,-1.84683565797391e-16,0.00122647361314904,2.66119939237335e-07,1.31713276219642e-06,-6.87652507394574e-15,6.88040830981329e-09,6.89848282594934e-06,-9.75051695011649e-06,-1.80539403012362e-05,7.02529933723663e-06,-3.57189030732161e-15,-4.94254780392486e-07,-2.67647969960756e-06,3.22693510327954e-15,6.69312336496709e-07,5.89513612459495e-08,-1.11432835523698e-14,7.94369164992204e-06,7.74366667283419e-10,-3.70924903060017e-10,-1.3918226925141e-15,1.00922665317437e-14,-1.86584533208424e-07,1.12244964699566e-14,-0.328045608247264,1.93834235301229e-12,-1.54560731944433e-15,9.85514190875185e-05,-5.04991508881385e-07,-1.71605002449933e-14,-1.49822371328384e-07,9.43873596363092e-07,-6.85291200217262e-14,-0.000125254081777129,-5.22774878865098e-14,2.38335895835438e-13,0.690400841403363,0.465150691273362,2.74868137623179e-07,7.83292204549093e-09,-1.34897459684001e-11,3.49874969922754e-08,3.90119251016045e-15,-2.10350397023744e-10,-2.73627653127037e-09,6.91206982379914e-10,2.28472413757087e-15,9.07304778239089e-10,-2.17401644999342e-11,3.90698346709416e-08,-6.84851216259197e-15,-6.01277935889195e-15,1.45274749321028e-15,-4.15738308429502e-16,-1.16123081886916e-14,-7.78972208481821e-17,3.19841038399101e-15,6.88266598048226e-14,0.0819231920518554
"t142",0.0130451132770613,-0.188268187076504,-0.0715108316908269,0.00205965559109704,-0.297944785133205,-0.00655693575509429,0.00378200786370888,0.0115463504808432,0.0171873372396802,0.00808501558478484,0.00812931384602667,0.0236557192356012,0.0784334318689295,0.00621360680965558,0.000379985315832036,9.79059660328437e-05,-9.84045350881141e-05,-0.000712702752368614,-0.00841161121178424,0.000106569073248298,-0.000103460048888952,0.000178733359074374,-0.151189306012646,-0.00168430425980997,-0.0997416947202426,-0.101480609584839,-0.0164817120167043,0.101119587028528,0.00409888343284664,0.000910193146027855,-0.000838630907203083,0.00158837350575441,-0.00100079249011757,1.0140042029735e-05,-1.10599781531766e-05,1.49438085098147e-07,5.16825180736743e-08,0.000152117888375979,2.0312067676309e-06,4.55633935533514e-07,7.76002020915312e-08,4.81325542917114e-06,3.66556698496787e-05,8.87116195654168e-06,1.97437885970515e-06,-1.43843270627997e-14,0.109557399221998,-0.00298901151900829,0.0010357536751553,-3.37970282515186e-05,2.32277724131896e-05,-5.36764813614122e-05,4.95245025783549e-05,6.46762145238095e-07,-1.65377375924933e-06,3.32334110813707e-05,7.69628945537737e-05,-1.2046706257042e-05,-6.0270061875447e-05,-1.69598229200982e-07,5.67257683330761e-06,-1.48576330195416e-06,1.04470503187863e-15,-2.71098711170201e-06,0.000198998115783184,-9.03817487069756e-06,0.000113760690909576,-1.18566208056201e-06,-2.28901264324239e-09,-1.85886109142738e-05,-0.00023229229523269,0.00129215118174769,-0.011184169955844,-1.62903465849807e-05,-0.000411477627605733,-9.58804278733026e-15,-0.000162979502513539,-3.85966791507173e-05,1.18951381402139e-06,2.89403094600692e-05,0.000236089989215394,2.81805532630763e-06,0.000994838946898273,1.48343953560741e-07,-0.000155246424977829,-3.53695596982749e-16,-1.40944031761414e-05,0.000480484549536553,-7.34728438398511e-08,-1.21360459457289e-07,3.81801222644223e-16,0.00242319220792799,5.33167196643943e-07,2.64814561514979e-06,3.05263973102163e-15,1.56151243005678e-08,1.58026691791704e-05,-2.28454797478469e-05,-4.46375339474934e-05,1.74360507024838e-05,4.41125495340609e-15,-1.25526861809759e-06,-6.85676964136746e-06,1.88910130431635e-16,2.54374472623366e-06,2.26265572634947e-07,-1.60426779468304e-14,3.5653787367765e-05,4.14092313253196e-08,2.00682279338068e-08,9.31382235710383e-16,-1.08460331677809e-14,4.48338987877967e-07,-1.03712991339608e-14,0.538002721239632,-3.1909061880832e-12,1.21521291138562e-15,-7.74284454960006e-05,3.78234539492147e-07,3.94785244173678e-15,4.86032061374113e-08,-1.3308582715886e-07,6.41086288202209e-15,8.72163238924659e-06,1.31822612909557e-15,-9.23138763870892e-15,-0.0298246988550005,-0.0153432275378037,2.05241449095742e-08,1.22829970260561e-09,-2.38345056412902e-12,7.56405270560913e-09,5.57879935595706e-15,-4.77493748175758e-11,-6.23644517123618e-10,1.60277835470651e-10,-2.56596304300157e-15,2.67035690054852e-10,-8.17724510641585e-12,1.5614314464588e-08,1.39130011181478e-14,1.62144121213256e-14,-4.32952998510398e-14,6.99151697881249e-15,0.707106781186569,-9.32153426240346e-14,-1.63759243640738e-14,4.87992192674741e-14,0.0819231920518948
"t143",0.0130451132770613,-0.188268187076504,-0.0715108316908269,0.00205965559109722,-0.297944785133205,-0.00655693575509441,0.00378200786370904,0.0115463504808433,0.0171873372396804,0.00808501558478474,0.00812931384602638,0.0236557192356017,0.0784334318689293,0.00621360680965593,0.000379985315832933,9.79059660338127e-05,-9.84045350881758e-05,-0.000712702752368815,-0.00841161121178372,0.000106569073247777,-0.000103460048888295,0.000178733359074182,-0.151189306012647,-0.00168430425981004,-0.0997416947202431,-0.101480609584838,-0.0164817120167043,0.101119587028528,0.0040988834328453,0.000910193146028472,-0.000838630907203023,0.00158837350575455,-0.00100079249011997,1.014004203192e-05,-1.10599781524672e-05,1.49438085507183e-07,5.16825180590274e-08,0.000152117888377241,2.03120676771257e-06,4.55633936088341e-07,7.7600202195815e-08,4.81325543067277e-06,3.66556698488482e-05,8.87116195685092e-06,1.97437886049394e-06,-9.82547376793264e-15,0.109557399221998,-0.00298901151900629,0.00103575367515363,-3.37970282524468e-05,2.32277724127452e-05,-5.36764813614994e-05,4.95245025787908e-05,6.46762146470907e-07,-1.65377375804432e-06,3.32334110835107e-05,7.69628945549984e-05,-1.20467062567397e-05,-6.02700618749839e-05,-1.69598228548279e-07,5.6725768324836e-06,-1.48576330127474e-06,2.18631777714677e-16,-2.71098711117372e-06,0.000198998115786488,-9.03817487249493e-06,0.00011376069090663,-1.18566208278386e-06,-2.28901361316573e-09,-1.85886109149222e-05,-0.00023229229523417,0.00129215118174652,-0.0111841699558423,-1.62903465789444e-05,-0.000411477627602873,1.3920376246489e-15,-0.000162979502513894,-3.85966791526966e-05,1.18951381626205e-06,2.89403094589881e-05,0.00023608998921572,2.81805532590934e-06,0.000994838946896168,1.48343954508181e-07,-0.000155246424972605,5.87732885334824e-16,-1.40944031739926e-05,0.000480484549536746,-7.34728454976881e-08,-1.21360462681633e-07,-1.8965269392694e-15,0.0024231922079213,5.3316719474827e-07,2.64814561640604e-06,8.30852233373797e-15,1.56151199704898e-08,1.58026691783893e-05,-2.28454797488442e-05,-4.46375339577354e-05,1.74360507067571e-05,5.26940906800602e-15,-1.25526861777996e-06,-6.85676964047497e-06,-3.23926779940273e-15,2.54374473155869e-06,2.26265576214975e-07,-8.65665099819809e-15,3.5653787373347e-05,4.14092291809669e-08,2.00682272783086e-08,3.91662464599383e-15,-6.0563509915099e-15,4.48338985857294e-07,-9.63308587049959e-15,0.538002721239677,-3.19180365267752e-12,5.40761855576827e-15,-7.74284454993402e-05,3.78234543017207e-07,7.82728367960145e-15,4.86032128638077e-08,-1.33085831411958e-07,-1.05781160529282e-15,8.72163241884433e-06,1.06692006002546e-15,-8.45735050664539e-15,-0.0298246988550175,-0.0153432275377918,2.05241443182211e-08,1.22831285816763e-09,-2.3903569489432e-12,7.56403965857006e-09,3.13319277103657e-15,-4.77617898901804e-11,-6.23672852391219e-10,1.60283473492043e-10,-6.41234691515458e-15,2.67032512467614e-10,-8.12909842472238e-12,1.56143477068015e-08,-1.13817157317761e-14,-1.85016962125182e-14,3.89113676790674e-14,-9.75763002502111e-15,-0.707106781186526,9.95314890518397e-14,1.46728565989571e-14,8.10725725694827e-14,0.0819231920519555
"t38",0.0125572553868391,-0.177720368550973,-0.0660375267964953,0.00187753922642842,-0.250476606768083,-0.00546458040346768,0.00293902564396091,0.00863669161946574,0.0125235690908283,0.00567402289073216,0.00510422092291734,0.0124528763540259,0.0363549565617471,0.00248306963597943,0.000146441407317298,3.65725786773379e-05,-3.2360975242959e-05,-0.000217400458539213,-0.00243584785718268,-1.52562752060943e-06,1.62572248996891e-05,-6.89170430181874e-05,0.0812808653143809,0.000952904666991822,0.0672658319719459,0.0708014199588936,0.0132437659436321,-0.0895024451172449,-0.00492049153804756,-0.00136721734325429,0.00134729830054083,-0.00258928269085056,0.00189638317677999,-2.70745589147468e-05,3.13307955867487e-05,-5.15834780428591e-07,-1.88085664211599e-07,-0.000567063200277983,-8.5658149204699e-06,-1.99229598319703e-06,-3.41926655279801e-07,-2.34806301855821e-05,-0.000222981369826147,-5.4532223813746e-05,-1.25016265624834e-05,6.08263439616508e-14,-0.925416784443352,0.0361014672149065,-0.0132176558676874,0.000438949417955976,-0.000317519241631554,0.000775765669733822,-0.000730423714614044,-1.168123308403e-05,3.05797816475848e-05,-0.000970508037190409,-0.00239450470933495,0.000427228853889335,0.00287931315340274,1.52873278651537e-05,0.000456557272464638,-5.89385285049531e-05,-1.22325787143629e-15,-7.79246603594139e-05,0.00500845517548662,-0.000219627908158348,0.00173328164108662,-1.55208898028093e-05,-2.72060429360686e-08,-0.000212006386934887,-0.0025160903901964,0.0113341170200792,-0.0959317611036611,-0.00012338877179131,-0.00300833902238986,-4.1974821257115e-15,-0.00106026438061721,-0.000247609904851502,6.73140657926534e-06,0.000161799414272298,0.00129111342280184,1.50237568815209e-05,0.00517961069322565,7.12721604337361e-07,-0.000728003626216152,-1.45215589436417e-16,-6.4784101298711e-05,0.00213492888427105,-3.19069171253044e-07,-5.26460753958696e-07,-2.7171410062442e-16,0.0103439186534141,2.24272993425579e-06,1.10987582048005e-05,-3.20183298637971e-15,5.84881441216265e-08,5.87337998052109e-05,-8.33687015944607e-05,-0.000156294738475668,6.08792867364592e-05,2.69624051926759e-16,-4.31021833898505e-06,-2.33992988840443e-05,2.9250213240731e-16,6.93960075112368e-06,6.14513336975961e-07,2.86408271283243e-16,9.06704167653235e-05,7.23885804481237e-08,3.25505531614794e-08,1.52761715027864e-15,-9.21286081465699e-16,2.20562378223397e-07,2.35734951951304e-16,0.0236971765908713,-1.41246102502099e-13,-5.75569220776266e-16,9.1194441705704e-05,-4.81721802723609e-07,-2.62844230913728e-16,-1.5327567486405e-07,6.301709114524e-07,-6.56397563326567e-16,-4.22475042664402e-05,-2.17153751213509e-15,1.85279770487573e-15,-0.00190688456218772,0.0168387264751929,-4.35186470158341e-07,-5.10345509739704e-08,1.35352900242166e-10,-2.25472890808647e-06,-8.67165034406967e-16,-9.33850829199044e-08,-7.53995166774291e-07,7.14374866959279e-08,-4.96640750019541e-16,1.08493572567928e-08,-1.52563393660244e-10,2.50852674015638e-07,2.50176615837501e-15,7.35350505296725e-16,-1.54613329950978e-15,5.74970445875824e-16,4.08585103459469e-15,1.15155890371341e-15,9.54953112849696e-16,6.39270691174234e-14,0.0819231920518961
"t89",0.0111438051026409,-0.14687849974525,-0.0500117714815343,0.00134853422117373,0.0161415495221967,2.81217116060407e-05,-0.000907587781915364,-0.005154724643024,-0.0103521081860516,-0.00683662702672745,-0.0141315727760828,-0.0981625658514188,-0.63117497208556,-0.17139900441858,-0.0196372795908957,-0.0166925206222215,-0.0023918808530695,-0.011106291349247,-0.107125905127407,0.000323861141983793,-0.000221199719902651,0.000212876718539236,-0.10507181466524,-0.00102585325452452,-0.0287793571427767,-0.0224877966402598,0.00128250710900739,-0.0308688964548679,-0.00488616584367506,-0.00192071816650378,0.00206217674547682,-0.00403598359789597,0.00685464363608011,-8.34058050140296e-05,0.000110795421201417,-4.55651325581327e-06,-3.40494933947052e-06,-0.0225697620812202,5.96749387485803e-05,9.61513953840162e-06,1.54312406241745e-06,5.21674470703054e-05,0.000155414071307081,3.59859256326717e-05,7.04305656109388e-06,-7.18175519054398e-16,0.00587575571480705,0.0102049460701645,-0.00410502093685874,0.000300615288771193,-0.000108301376426085,0.000281835961181884,-0.00027087084963145,-5.05965761079862e-06,1.34273837359288e-05,-0.000505046179571274,-0.00126418618323216,0.000231403475727213,0.00162739905057814,9.07935582201765e-06,0.000296310967236753,-3.95869374105486e-05,2.36424756679012e-15,-5.34188703826192e-05,0.00346414350516002,-0.000152267722300919,0.00151232100504544,-1.11203231168718e-05,-1.95189966894537e-08,-0.000152091877945084,-0.00180367340976283,0.00802194012742265,-0.067728503346573,-8.54752300765986e-05,-0.00206907160907073,-3.16211225714064e-15,-0.00070766150157289,-0.000164560481813329,4.27980924694232e-06,0.000102388971815331,0.000810026365928023,9.33344638033128e-06,0.00318979784080067,4.31735818492827e-07,-9.78322670484951e-05,-2.75507278904447e-15,-4.00605032671725e-05,0.0014882126323469,-4.08615060927414e-07,-7.51518322156412e-07,-3.05407106981487e-15,0.000136303200061592,6.58832018397035e-07,3.52874881947897e-06,-4.55333339461435e-15,2.37828307701514e-08,2.37724227789083e-05,-3.33132685454211e-05,-6.02423110453128e-05,2.34013573747579e-05,-3.07410269581804e-15,-1.62920461884248e-06,-8.78786746095729e-06,-1.33762133523962e-14,1.94484517623244e-06,1.71048503983762e-07,0.707106781186547,2.27473352745127e-05,8.46939602136393e-09,3.10200811151309e-09,-2.81312270080437e-15,2.24207796489283e-15,-1.95776183704246e-08,5.14108832416891e-15,-0.000218578650807493,6.49901788437493e-16,2.33108172743966e-15,-0.000240963385647049,1.82601786282383e-07,1.25792733958754e-15,9.39809702071205e-08,-4.97387513404085e-07,-6.64778744337803e-16,0.000157595203069104,-1.11773588756925e-15,-6.17660336138747e-16,1.10400153679465e-05,-9.66330005859407e-05,5.82612465741454e-07,8.32222079438679e-08,-2.33040082372736e-10,4.40748499882306e-06,1.5206248535384e-15,1.89428629616844e-07,1.53416795594677e-06,-1.47391107244176e-07,-1.57586243043648e-15,-2.8667527388225e-08,6.25059586107559e-10,-1.23185894063047e-06,-2.57888901173245e-15,1.28544894776563e-16,-2.36782243281183e-15,-1.724430027044e-15,7.289416707995e-15,2.0214527248092e-15,-1.90024642885278e-16,6.30022392096123e-14,0.0819231920519012
"t90",0.0111438051026409,-0.14687849974525,-0.0500117714815343,0.00134853422117376,0.0161415495221966,2.81217116054954e-05,-0.000907587781915168,-0.00515472464302399,-0.0103521081860518,-0.00683662702672735,-0.0141315727760829,-0.0981625658514182,-0.631174972085559,-0.17139900441858,-0.0196372795908956,-0.0166925206222213,-0.00239188085306951,-0.011106291349247,-0.107125905127407,0.000323861141983735,-0.000221199719902328,0.000212876718539753,-0.105071814665241,-0.00102585325452494,-0.0287793571427778,-0.0224877966402601,0.00128250710900731,-0.0308688964548675,-0.0048861658436756,-0.00192071816650412,0.00206217674547669,-0.0040359835978954,0.00685464363607879,-8.34058050142934e-05,0.000110795421200828,-4.55651325665048e-06,-3.40494933938736e-06,-0.0225697620812198,5.96749387470094e-05,9.61513953823193e-06,1.54312406257439e-06,5.21674470708253e-05,0.000155414071307015,3.59859256326444e-05,7.04305656218653e-06,-4.21537804662364e-15,0.00587575571480608,0.0102049460701644,-0.00410502093685814,0.000300615288768745,-0.000108301376425365,0.000281835961180678,-0.000270870849631098,-5.05965761137277e-06,1.34273837359371e-05,-0.000505046179572938,-0.00126418618322906,0.000231403475726795,0.00162739905057771,9.07935582302591e-06,0.000296310967234377,-3.95869374113265e-05,-2.2131272018223e-15,-5.34188703842428e-05,0.00346414350515743,-0.000152267722300876,0.00151232100504242,-1.11203231153275e-05,-1.95189970583059e-08,-0.000152091877946853,-0.00180367340976553,0.00802194012742294,-0.0677285033465783,-8.5475230073286e-05,-0.00206907160906931,1.34902658977316e-15,-0.000707661501573662,-0.000164560481812254,4.27980924724544e-06,0.000102388971808292,0.000810026365929832,9.33344639044718e-06,0.00318979784078879,4.31735827188583e-07,-9.78322670443565e-05,2.14403112230474e-15,-4.00605032689351e-05,0.00148821263234724,-4.08615073661408e-07,-7.51518328236815e-07,2.48917881139085e-15,0.000136303200023577,6.58832021093812e-07,3.52874882854007e-06,4.51590587681108e-15,2.37828366869391e-08,2.37724227775941e-05,-3.33132685488089e-05,-6.02423110571956e-05,2.34013573812194e-05,3.07789853558014e-15,-1.62920463947035e-06,-8.7878674651596e-06,1.35081606477388e-14,1.94484508667614e-06,1.71048804712421e-07,-0.707106781186547,2.27473350611205e-05,8.46941709958833e-09,3.10200136997878e-09,2.55254352286355e-15,-2.59977269387921e-15,-1.9577617943903e-08,-4.91312122972032e-15,-0.000218578650842951,1.67604541364456e-15,-2.50247436294955e-15,-0.000240963385635622,1.82601784316686e-07,-1.33150165311263e-15,9.39809612922123e-08,-4.97387519490691e-07,8.73001730086436e-16,0.000157595203066154,1.90003351547197e-15,7.19602846900404e-17,1.10400153248144e-05,-9.66330005812914e-05,5.82612468377553e-07,8.32222089075875e-08,-2.33039401406562e-10,4.40748500510592e-06,-1.03983630282821e-15,1.89428631327221e-07,1.53416794546747e-06,-1.47391109575842e-07,3.35020886511579e-16,-2.86675281681976e-08,6.25060683292923e-10,-1.23185894309633e-06,1.48289878596459e-15,-2.7831205393414e-16,-9.95642984802296e-16,1.47811485216399e-15,-2.83518626381738e-16,1.05395059312255e-16,9.56046307340067e-18,6.44441695428101e-14,0.0819231920519058
"t64",0.0135969752518064,-0.203196491659805,-0.0819374569298343,0.00248752482793198,0.205112550208156,0.00113603150356122,0.0020437638391061,0.00706464257990334,0.0110152281696055,0.0054116105499983,0.00585140998015976,0.0189703952686655,0.0737506780726481,0.0105457407917949,0.001007325603567,0.000721978036414694,3.86553555931366e-05,3.90648069599559e-05,-0.000441547442553271,3.2541928168342e-05,-2.80139997557998e-05,3.33008308891711e-05,-0.0179161444102479,-0.000177161021026679,-0.00517795646443999,-0.0040751240436796,0.000238435061483753,-0.0058052732792846,-0.000870016290703843,-0.000183158473920698,1.59226374327582e-05,9.34951937750928e-05,-0.247588926387042,-6.97552224060855e-05,0.00010001486290706,-8.70428810299673e-06,-1.21518072798927e-05,-0.146427852340123,-8.61696424595695e-05,-9.37751026086326e-06,-1.39990059564077e-06,-2.16663887075966e-05,-1.59862198192514e-05,-3.4456766331659e-06,-5.45976169092642e-07,3.30638294521179e-15,1.41074111578154e-05,-0.00469108368441568,0.0100918791003882,-0.702360368810768,-0.000120211088332336,0.000180773130601019,-0.000155488309881182,-1.86324554068043e-06,4.84499659482773e-06,-0.000159960461916485,-0.000399206995174029,7.28757225423939e-05,0.000513907016425018,2.91006703687159e-06,0.000101611475480636,-1.42941939505714e-05,1.78422192836841e-15,-2.02265704924876e-05,0.00135050368730129,-5.99137830411218e-05,0.0756683736389718,-4.01597735098187e-06,-7.94728149276905e-09,-6.42382635836802e-05,-0.00079455399869175,0.00420869418695279,-0.0362930211835538,-5.24405916897983e-05,-0.00132869777917408,1.2949691872768e-15,-0.000546205832731397,-0.000130411911409086,4.59163005892744e-06,0.0001140752401222,0.000971992953492003,1.23257343425661e-05,0.00466107829493641,1.0300770079003e-06,0.00984658596690463,2.70014684431838e-15,-0.000144558102400871,0.00989510182616476,-6.33948647672103e-06,-1.24498156762347e-05,-9.42518693467678e-15,-0.128718184179041,-1.13761112941262e-05,-4.89338647437611e-05,6.70300976249133e-15,-4.44519411959632e-08,-4.17959824177491e-05,5.12862988221233e-05,7.19535752933118e-05,-2.75214865401901e-05,-4.24495070792744e-15,1.75456535939842e-06,9.17535828169782e-06,1.09243991161683e-15,-8.97746116354078e-07,-7.7952259256646e-08,8.83817066694346e-16,-8.66208971718209e-06,-1.25604933910143e-09,-3.71096393273805e-10,4.89657642855198e-16,1.50921250750739e-14,-3.00605860547112e-09,3.62394901686453e-15,-7.32544650742031e-05,-4.49340688499052e-15,1.0605360549565e-14,-0.534685573175538,-1.44296866519608e-06,2.1822450685531e-15,-5.56829616712474e-08,2.56369815436488e-07,1.15124405296826e-15,-0.102746890657466,2.52707875146142e-14,2.99865568703082e-14,1.97233876027356e-06,-5.64736859507702e-06,-7.19181534810041e-08,-9.31050790350372e-09,2.49063654957273e-11,-4.1837920222537e-07,1.13936597246868e-15,-1.73338221082048e-08,-1.39952809769641e-07,1.32585036498021e-08,5.67672237740641e-16,1.97957283850563e-09,-2.52435758940336e-11,3.85744536675078e-08,-1.12452106371287e-16,-4.72149139466914e-16,-1.48991972633072e-15,-1.64195573865366e-16,3.70023612296624e-15,6.15258457640697e-16,1.03570942308192e-15,6.46876389747969e-14,0.0819231920519134
"t65",0.0135239404101367,-0.201568492804534,-0.0810448973539845,0.00245630723058159,0.20054980725867,0.00110965028377,0.00198107616198126,0.00682126880529538,0.0106084033032658,0.00519328792436152,0.00556165989128532,0.0178013690153069,0.0686722673965674,0.00974421022512204,0.000929187765392523,0.000665040196293176,3.54203306771171e-05,3.56965360778352e-05,-0.000402756324855172,2.87080897580243e-05,-2.43545698687175e-05,2.8317541876263e-05,-0.0150248941697744,-0.000148199844127597,-0.00429066880777496,-0.00337010158576157,0.00019544098039713,-0.00472689942140957,-0.00069137971891877,-0.000142477629032662,1.22998569978064e-05,7.21107868986881e-05,-0.187786466282583,-5.06802821115393e-05,7.20843283641631e-05,-6.10100901739396e-06,-8.45214242909069e-06,-0.101488795095705,-5.86396714059936e-05,-6.34692487255487e-06,-9.46392651080667e-07,-1.44237120858722e-05,-1.02917934993364e-05,-2.21479307886686e-06,-3.49375476201337e-07,-9.78384040450919e-16,8.65194269223692e-06,-0.00274070898882867,0.00585542705515315,-0.406632276496021,-6.91639401787918e-05,0.000103322999915152,-8.86612823955856e-05,-1.03902149348901e-06,2.695210573017e-06,-8.5431924942575e-05,-0.000212207069742647,3.83890927994158e-05,0.000266015173025877,1.46838100258423e-06,4.77532546456253e-05,-6.41617415493166e-06,3.85593661823188e-16,-8.73574791400601e-06,0.000570895136808737,-2.51662288134839e-05,0.027977569868878,-1.38600884025404e-06,-2.59404589611012e-09,-2.03996075147421e-05,-0.000242895993333883,0.00103658365551884,-0.00866674683700214,-1.00760783777013e-05,-0.000235448680912365,-2.61587320013322e-15,-6.6706997768993e-05,-1.49872708760656e-05,2.02337504576081e-07,4.18018468330377e-06,2.2227319702833e-05,8.10762719174661e-08,-4.17005308895054e-05,-6.60287003640518e-08,-0.000801877058479801,-3.34258379052967e-15,1.38690297545571e-05,-0.00119620616788274,8.74778858928282e-07,1.72803297644196e-06,3.66703115087768e-15,0.0194269571960592,1.84363318509749e-06,8.06568316101517e-06,1.14505505890456e-15,1.11697746718063e-08,1.0752837350814e-05,-1.39205686306153e-05,-2.18236023447437e-05,8.40682476823486e-06,4.05506384998704e-15,-5.5844155908552e-07,-2.96361664401193e-06,-5.82781702393972e-16,4.36891161702267e-07,3.8175948281002e-08,6.5736578768009e-15,4.62402762354759e-06,9.34731832568277e-10,2.88747696601059e-10,-2.46328281748311e-15,-2.35412831470686e-14,3.23851412040028e-09,-4.37608616860119e-15,8.72373266898493e-05,7.77666215377771e-15,-1.50929838712147e-14,0.791461749270082,2.16682753468946e-06,-5.01603833915525e-16,1.05306610400523e-07,-5.70048371108747e-07,-3.90142151770168e-15,0.247882012755845,-6.24398701468661e-14,-7.25702296633279e-14,-4.92212474369162e-06,1.42875092475511e-05,2.15526490388773e-07,3.31522046851776e-08,-9.29947532721019e-11,1.75091560636271e-06,-1.02020482510492e-15,7.50614332311076e-08,6.07779111560309e-07,-5.83295354904411e-08,-1.17343879035788e-15,-1.10981683703375e-08,2.33204576816846e-10,-4.54021514525756e-07,-1.38710331844073e-15,5.88844009890737e-16,-2.55184714748609e-15,7.58075870837317e-16,7.06168784777442e-15,1.5503705035518e-15,-1.32467783014535e-15,6.20515719270604e-14,0.0819231920518868
"t76",0.0135622655582143,-0.202426118650028,-0.081517115968273,0.00247286434275887,0.203005976960095,0.00112387323561723,0.00201527469685032,0.00695485295420472,0.0108326136654158,0.00531429228370709,0.00572477365804952,0.0184737284383337,0.0716322726628365,0.0102177699560508,0.000975492941811976,0.000698867103573759,3.73606323845168e-05,3.77270337511323e-05,-0.000426217978366321,3.1182931861963e-05,-2.67908495548455e-05,3.18042770107911e-05,-0.0171164497826555,-0.000169280862493329,-0.00495221846398796,-0.00389847576618542,0.000228429758789252,-0.0055695322695338,-0.000841262632583676,-0.000179061866532687,1.56380662570737e-05,9.19245916595274e-05,-0.246777691077175,-7.34725894903508e-05,0.000106894942734739,-9.93943252708425e-06,-1.42082564693459e-05,-0.173242624013402,-0.000109723914699168,-1.22623201264896e-05,-1.84153478444415e-06,-3.12895250402501e-05,-3.29250868211621e-05,-7.28356758744137e-06,-1.25162183837564e-06,-5.01682029252493e-15,-0.000148249234995951,0.00259295091147016,-0.00429356531651623,0.274801018851729,3.67065664173122e-05,-4.15575316361183e-05,3.20406276751008e-05,7.02701066258893e-08,-1.1574253215628e-07,-2.17999102873722e-05,-5.94617187434776e-05,1.24709365970662e-05,0.000106540671997318,7.24001792098614e-07,3.33187368128192e-05,-5.28464728229119e-06,-8.28104394012639e-16,-8.27727997879273e-06,0.00058978403035226,-2.6730861254901e-05,0.212299169137405,8.7625578462416e-07,-4.97069808849021e-11,-3.22884737268236e-06,-6.95681839425532e-05,0.000624425677948081,-0.00544987954481559,-7.88559127141147e-06,-0.000196391028615438,2.28968354243456e-16,-7.22344785477635e-05,-1.69148692333888e-05,4.63115895618053e-07,1.1126771871587e-05,8.87066812318156e-05,1.03137382254664e-06,0.000355652538645065,5.07143536121144e-08,0.000398925181672713,-6.08019198338386e-16,-4.79391037123138e-06,0.000202058806904018,-7.37303118448175e-08,-1.3959443028546e-07,-4.00736535694041e-16,-0.000638123938906398,9.08093411605598e-09,1.09104904308154e-07,7.0491816125499e-16,2.09180141503322e-09,2.09647912018224e-06,-2.94802357271875e-06,-5.31776034846396e-06,2.06456387490731e-06,-1.76652372100604e-15,-1.43152195829008e-07,-7.70759456111897e-07,3.15054334533593e-17,1.48501981897596e-07,1.30097383199906e-08,2.77112515363805e-15,1.62626720644718e-06,3.49362050296375e-10,1.07963621266689e-10,1.25662231321578e-15,-1.23605896171901e-15,1.12324901446512e-09,-1.95525281786136e-15,2.82434738175897e-05,2.18325998558709e-15,-7.26904436272036e-15,0.178794116488031,4.67610775177396e-07,-6.22058109168753e-15,-1.04351239484786e-08,5.58750920014574e-07,1.57573702970015e-14,-0.809053770992643,1.95142582034449e-13,2.312321743232e-13,4.158035346386e-05,-0.000267252702733409,4.79645026141665e-07,4.80098229648379e-08,-1.26473071885099e-10,2.13818260105628e-06,-2.08570500003231e-15,8.94511504058516e-08,7.22904774011913e-07,-6.87924479403414e-08,-8.94353600982391e-15,-1.17207318812474e-08,2.23594219604665e-10,-4.25672646654556e-07,-4.01356204724915e-15,3.61019966643979e-15,2.51165431944461e-15,7.46049272620902e-16,-1.4355211284754e-14,1.04074069841088e-15,-3.92538886304183e-15,6.36580496111567e-14,0.0819231920519117
"t77",0.0136303036457627,-0.203944323563933,-0.0823504451276144,0.00250202998897223,0.207286189681682,0.00114863135096562,0.0020742996821162,0.00718440222187342,0.0112167721776205,0.00552078326170493,0.00600005480685814,0.0195914038211742,0.0765070272689328,0.0109903323612446,0.00105087657077725,0.000753840461486545,4.0493229585779e-05,4.09938104155871e-05,-0.000463878956137989,3.49840805232656e-05,-3.04569415337096e-05,3.68837528346257e-05,-0.0200990640529237,-0.000199224916602454,-0.00587778728469766,-0.00463533389047402,0.000273766006295004,-0.00671461450468389,-0.00103636063940892,-0.000224785659655368,1.97524071606316e-05,0.000116268365487376,-0.316755027301036,-9.79083931699829e-05,0.000143440937167487,-1.36624422140665e-05,-1.96598704416236e-05,-0.240441461494692,-0.000154692495908698,-1.7368284617154e-05,-2.61091184051685e-06,-4.49471861132419e-05,-4.8656834282929e-05,-1.07780428226624e-05,-1.8591010555072e-06,-1.46688217128599e-14,-0.000228179765193617,0.00415463883093938,-0.00691873618192772,0.443611716028882,5.9559262062395e-05,-6.7796616922627e-05,5.23720418853122e-05,1.16967692151084e-07,-1.93039509499225e-07,-3.75759940640841e-05,-0.00010288148660459,2.17348436453927e-05,0.000188299715340247,1.30581872427674e-06,6.35389362305379e-05,-1.04411054903177e-05,7.20421334835336e-17,-1.68409738799729e-05,0.00121956761230429,-5.55401970259962e-05,0.484538461014023,2.10063576886645e-06,-1.2389153767974e-10,-8.20140212001199e-06,-0.000181340949756462,0.00187254121923602,-0.0166581024734335,-2.73741832545095e-05,-0.000712600134422313,-6.75485164717822e-16,-0.000314282469132448,-7.55543988280955e-05,2.79771614305629e-06,6.97811711501382e-05,0.000598638367189692,7.64671529055467e-06,0.00290979037426955,6.54559476766178e-07,0.00628447490446935,1.93801465769303e-15,-9.25674617404238e-05,0.00636782351043255,-4.09162435593288e-06,-8.03638948264786e-06,-3.99583560886713e-15,-0.0832416691718728,-7.36830726338949e-06,-3.17059973833862e-05,6.27401898074113e-16,-2.90220328636709e-08,-2.72957618341231e-05,3.35123886603798e-05,4.70504554067627e-05,-1.79966879832643e-05,-1.69281037180507e-15,1.14740237376817e-06,6.00020585983362e-06,-7.57179675027166e-16,-5.81819822525089e-07,-5.05036931106739e-08,-1.50728684908527e-15,-5.58269805846236e-06,-7.76971937264788e-10,-2.27414602441954e-10,-8.48351702685686e-16,2.76998666842445e-15,-1.62256613760815e-09,1.38829425728145e-15,-3.65477771117928e-05,-3.62263282718122e-15,5.78342966529354e-15,-0.183727925575218,-4.73432911293511e-07,5.40207367353965e-15,8.3723231814754e-09,-3.83175609362919e-07,-9.4516203695278e-15,0.513615796906387,-1.2272535490162e-13,-1.47377001556253e-13,-2.55746924534527e-05,0.000162300001963386,-2.49562414779337e-07,-2.14650889561608e-08,5.42848287895583e-11,-8.33846787010036e-07,2.37141960859119e-15,-3.39140473333216e-08,-2.73434933659772e-07,2.57450904351533e-08,4.36937021009771e-15,3.61913638378809e-09,-4.84759593526775e-11,7.94806655387638e-08,1.55554555482647e-15,-2.34579971639571e-15,-4.50357948714832e-15,-1.36881153906857e-16,1.42574964057071e-14,1.37202912673334e-15,2.82418003210646e-15,6.46415133587899e-14,0.0819231920519013
"t51",0.0135844015109447,-0.202918342372334,-0.0817862550963084,0.00248226289820861,0.204366883966538,0.00113173426375794,0.0020338153271203,0.00702655541007158,0.0109521630074412,0.00537821870004445,0.00580877750560353,0.0188080367865094,0.0730721822458366,0.0104430559461365,0.000997412305823808,0.000714813469378462,3.82610994017002e-05,3.86615134282105e-05,-0.00043695707055177,3.22000918612232e-05,-2.77421581352566e-05,3.30575457556127e-05,-0.0178274697095932,-0.00017637330171755,-0.00516600794965353,-0.00406775467910818,0.000238588631489179,-0.00582117872848839,-0.00088094716953193,-0.000187669393228334,1.63914603090076e-05,9.6354211529997e-05,-0.25861957874111,-7.67459004061257e-05,0.000111533405302971,-1.03164863338716e-05,-1.47198708591054e-05,-0.179316627174643,-0.000112955414257795,-1.26002071058153e-05,-1.89151007221215e-06,-3.19493718058093e-05,-3.30724338073984e-05,-7.30952540632879e-06,-1.25277713303352e-06,7.46971928755613e-15,-0.00014387338551851,0.00238997376451131,-0.00392141577188749,0.250233802707267,3.31302200015265e-05,-3.71387251430893e-05,2.85286930868697e-05,6.02073424017041e-08,-9.8708585808557e-08,-1.69153797067628e-05,-4.55272296877982e-05,9.29036968024966e-06,7.47236526575908e-05,4.54769342171508e-07,1.145812262762e-05,-3.60367437425381e-07,-1.2400738011474e-15,2.07776766614924e-06,-0.000281924887638325,1.48116798600192e-05,-0.843969680587501,-1.15076676523471e-05,-1.43698462904801e-08,-0.000102412226361058,-0.00111741471724906,0.00431235140961261,-0.0363444093800324,-4.71764648427041e-05,-0.00116493227641588,-3.30794319505465e-16,-0.000444163994286642,-0.00010517802161263,3.45464455749528e-06,8.52809576648053e-05,0.000718305360904748,8.98942817620619e-06,0.00335833368936559,7.12512673759012e-07,0.00672812295079811,1.16118326339108e-15,-9.77852059692664e-05,0.00658023506419754,-4.16742336724227e-06,-8.17975305708341e-06,-5.50170826652558e-15,-0.083887209911798,-7.35924292430667e-06,-3.15974461237955e-05,2.29411538223648e-15,-2.71203770383149e-08,-2.54003527809589e-05,3.08808192576825e-05,4.24304320923558e-05,-1.62061767370483e-05,3.4790920420949e-16,1.02452192540947e-06,5.34104226834898e-06,9.72522551412751e-16,-4.67799422497023e-07,-4.05318077933897e-08,3.48355501960746e-15,-4.36498565834588e-06,-5.37900477737527e-10,-1.54403032595856e-10,-4.61558448494949e-16,2.15675823535503e-15,-9.24201463167492e-10,2.55746533241593e-16,-1.94130577015483e-05,-6.58165188530907e-16,1.96749365275389e-15,-0.0805879246886738,-2.04540997124798e-07,2.48809307972127e-16,2.65504582374309e-09,-8.63217225355789e-08,-2.10691152099436e-15,0.0899676083561257,-2.11889947921721e-14,-2.50516452531406e-14,-3.92801497267258e-06,2.34905532361496e-05,-7.10470517596445e-09,2.21127818886774e-09,-7.69499183970293e-12,1.99098385127792e-07,8.23913454018034e-16,9.12442082133549e-09,7.42664750767062e-08,-7.29264596779424e-09,1.23671138205472e-15,-1.8671491977755e-09,5.21412472726508e-11,-1.09433952182178e-07,4.75301939081131e-16,-1.1278968861722e-15,-2.00944675872584e-15,1.17169880978511e-16,7.77401886659666e-15,9.04864775020626e-16,-1.531161576217e-17,6.33706065295102e-14,0.0819231920519076
"t69",0.0136347224786467,-0.20405349324058,-0.0824168679550044,0.00250448844977203,0.207768593340255,0.00115149654918903,0.00208255211267594,0.0072194709387077,0.0112788477508484,0.00555673282351933,0.00605793396776231,0.0198869169466668,0.0779738210512349,0.0112534011832958,0.00107723921883513,0.000773492017449012,4.17077156949597e-05,4.23149581906987e-05,-0.000479527571419612,3.75703281332206e-05,-3.35559792945759e-05,4.29409593787126e-05,-0.024596748441215,-0.000246436749379021,-0.0076190628087638,-0.00607675290830614,0.000380383046676529,-0.00984757585406606,-0.00214187288122818,-0.0013299714613797,0.00183859616383496,-0.00386320855703341,0.46071593093724,-3.62741043642567e-06,1.50635990217701e-05,-3.34553690015204e-06,-5.26755435435601e-06,-0.0666110810905734,-4.83733151668353e-05,-5.56182576963826e-06,-8.39864471985075e-07,-1.51216832152648e-05,-1.67725251896841e-05,-3.71182255081138e-06,-6.37920769872879e-07,2.09901540593194e-15,-6.90532952107477e-05,0.000527379358792759,-0.000485816430474783,0.0215999751607689,-1.58538999027806e-06,9.42798902647514e-06,-1.00346716760331e-05,-2.85889995040273e-07,7.79389243598169e-07,-3.97715428117116e-05,-0.000102076831183309,1.95373273249118e-05,0.000148157695649804,9.05336746736779e-07,3.54902046232374e-05,-5.17319815852061e-06,5.66486667044384e-16,-7.43218484558823e-06,0.000497802717117388,-2.20877026810823e-05,0.00912967899956751,-1.82498355325543e-06,-3.40919548817397e-09,-2.71962763803649e-05,-0.000332003688024396,0.00167558805799142,-0.0143581087495398,-1.98103789566563e-05,-0.000492919926174928,-1.25426360329223e-15,-0.000185272962395323,-4.35562424719082e-05,1.18214153438085e-06,2.79428774243077e-05,0.000211458281820465,2.15912693705626e-06,0.000552173192115452,-8.71025760495681e-07,-0.817011707020371,-2.11365267570716e-13,-0.000282611694298909,0.00950841819631293,-4.97959269878992e-06,-9.70732591153033e-06,1.57401114313284e-14,-0.0912589344195193,-7.53136223423558e-06,-3.19148931854375e-05,-1.57395348631667e-14,-2.20055064892923e-08,-2.04407632380385e-05,2.44138740959917e-05,3.24525119082147e-05,-1.23706959280004e-05,3.02869508561333e-15,7.73399506926473e-07,4.01632109706618e-06,-4.39632313142741e-15,-3.20296897655085e-07,-2.77138419393569e-08,-3.72792297327485e-16,-2.92883647550237e-06,-3.31226439347864e-10,-9.3692873081343e-11,-1.12991455936494e-15,-8.42655023883741e-16,-4.73239251665903e-10,-1.14937043561008e-16,-8.98359665979203e-06,1.03272945783852e-15,4.83150911849996e-17,-0.0195284874975375,-4.37467682695527e-08,-8.35479366394579e-16,4.20919110315981e-09,-3.42419961271672e-08,5.81504596202062e-16,0.0074175845213008,-1.6785891319654e-15,-3.02053809267084e-15,3.47343614829859e-07,-4.00055646066847e-06,3.93475358363122e-08,6.36914252751241e-09,-1.82822991012462e-11,3.63777154133124e-07,4.66405380661924e-16,1.5841852599019e-08,1.28438908398517e-07,-1.23984579141725e-08,4.15681693626026e-16,-2.59499725110035e-09,6.20459128054218e-11,-1.2577415526244e-07,-7.00358294906209e-16,-3.22060777092045e-16,-2.09137562131054e-15,2.9452586712e-16,1.91402289185008e-16,1.14444922434402e-15,4.27122728228415e-16,6.38375133974828e-14,0.0819231920519179
"t78",0.0136399345186592,-0.204170141301169,-0.0824811062446816,0.0025067410364981,0.208103024890899,0.0011534333391878,0.00208721325510852,0.00723768808847584,0.0113094361105032,0.00557325111032932,0.00608024453536909,0.0199792039195014,0.0783811983084094,0.0113187831456376,0.00108363728153141,0.00077816903361016,4.19767031252462e-05,4.25968800144407e-05,-0.000482788442446457,3.79242057622098e-05,-3.3911429687446e-05,4.34733088978188e-05,-0.024930034719934,-0.000249827557675068,-0.00772996310194211,-0.00616622635084201,0.000386270756074953,-0.0100056118283601,-0.00218076983947585,-0.00135664164690926,0.00187662035206743,-0.00394364493662646,0.471011043282271,-3.72305628407148e-06,1.54723688963894e-05,-3.44540453987212e-06,-5.42880891346809e-06,-0.0686736036416279,-4.99602020278918e-05,-5.74735409969026e-06,-8.67979075833809e-07,-1.56517810938282e-05,-1.74194858802359e-05,-3.85562361549797e-06,-6.62939602119728e-07,1.66186508998578e-15,-7.20822922627117e-05,0.000553429257191087,-0.000510205882604522,0.0226898719201272,-1.66654970718687e-06,9.91801536621295e-06,-1.0559052934331e-05,-3.0159632654292e-07,8.22437948517925e-07,-4.21692132083935e-05,-0.000108291506190085,2.07493601479403e-05,0.000157683215291324,9.66580091818081e-07,3.82371423480873e-05,-5.60792220084621e-06,1.55555521672314e-16,-8.09968712255905e-06,0.000544155305262697,-2.41663262624378e-05,0.0101812102228535,-2.05776661439531e-06,-3.8800473246453e-09,-3.10989056634862e-05,-0.000382192301803928,0.00200993070618171,-0.0173326372406024,-2.50856805498201e-05,-0.000636301480903031,2.43181752201075e-15,-0.000263752147014798,-6.30899487436675e-05,2.3113817629579e-06,5.78924875551551e-05,0.00050261429002231,6.57248651063996e-06,0.00259390506004718,1.0424470663038e-06,0.40604630774912,1.01392208993503e-13,5.34839765601165e-05,0.00107699268040713,-1.19887013428969e-06,-2.38623666541989e-06,-2.01713953530448e-14,-0.028608134536897,-2.74722286425403e-06,-1.20067117428846e-05,0.707106781186558,-1.2990277779846e-08,-1.2247140931182e-05,1.50950030866903e-05,2.12291934385635e-05,-8.11884113572336e-06,8.45941856249439e-15,5.168538695459e-07,2.7007364196508e-06,1.50311833390373e-15,-2.44544658403739e-07,-2.11896734868805e-08,6.20249402847839e-15,-2.28092386169675e-06,-2.72416822329424e-10,-7.74946459004293e-11,-2.23629289353281e-15,4.77432054626603e-16,-4.04946419020276e-10,-4.41854005805639e-16,-7.74997989621287e-06,-9.2150836158871e-17,-7.17575862634434e-16,-0.0170979095357149,-3.83347311656474e-08,1.77408798304459e-15,3.73325406754997e-09,-3.05788589227505e-08,-3.81624329045187e-16,0.0066441483775793,1.20138348732673e-15,-2.19052038929118e-15,3.11493395240687e-07,-3.58931855331016e-06,3.54882433163236e-08,5.77011891323938e-09,-1.65833267708738e-11,3.30722705257776e-07,2.65882108656592e-16,1.44120390783824e-08,1.16853041475595e-07,-1.12828409488947e-08,-1.11663048655116e-15,-2.37112597080183e-09,5.70201817406385e-11,-1.15810681711973e-07,5.35529704978139e-17,8.60943323916646e-16,-1.36532649998766e-15,-2.18520395485869e-16,7.14570653297992e-15,6.89892339202466e-16,3.06720057493857e-16,6.26425540712686e-14,0.0819231920518962
"t79",0.0136399345186592,-0.204170141301169,-0.0824811062446816,0.00250674103649814,0.208103024890899,0.00115343333918782,0.00208721325510853,0.0072376880884756,0.0113094361105036,0.00557325111032898,0.00608024453536954,0.0199792039195009,0.0783811983084096,0.0113187831456373,0.00108363728153139,0.000778169033610032,4.19767031252973e-05,4.25968800146124e-05,-0.000482788442446172,3.79242057626908e-05,-3.39114296879944e-05,4.3473308897653e-05,-0.0249300347199341,-0.000249827557674846,-0.00772996310194258,-0.00616622635084269,0.000386270756075113,-0.0100056118283601,-0.00218076983947626,-0.00135664164690929,0.00187662035206797,-0.00394364493662638,0.471011043282272,-3.72305628441051e-06,1.54723688955596e-05,-3.44540454051312e-06,-5.42880891357821e-06,-0.0686736036416268,-4.99602020263926e-05,-5.74735409909381e-06,-8.67979074988891e-07,-1.56517810948348e-05,-1.74194858808071e-05,-3.85562361522496e-06,-6.62939601684685e-07,-2.09901540593194e-15,-7.20822922579169e-05,0.000553429257191476,-0.000510205882603439,0.0226898719201229,-1.66654970856164e-06,9.91801536550432e-06,-1.05590529340908e-05,-3.01596327314276e-07,8.22437948656432e-07,-4.21692132096678e-05,-0.000108291506190724,2.07493601495615e-05,0.000157683215291216,9.66580094266612e-07,3.82371423454629e-05,-5.607922198031e-06,-1.04161784636932e-15,-8.09968712090979e-06,0.000544155305262431,-2.41663262641599e-05,0.0101812102228535,-2.05776661311972e-06,-3.88004607353301e-09,-3.10989056635479e-05,-0.000382192301808272,0.00200993070618195,-0.0173326372406059,-2.50856805524804e-05,-0.000636301480902289,-1.46343334464091e-15,-0.000263752147013871,-6.30899487504803e-05,2.31138175229596e-06,5.78924875620615e-05,0.000502614290023574,6.57248651523348e-06,0.00259390506005601,1.04244708328743e-06,0.406046307749154,1.07895362587053e-13,5.34839765494825e-05,0.00107699268040963,-1.19887018192213e-06,-2.38623668161394e-06,-3.95762679904708e-15,-0.028608134536956,-2.747222905383e-06,-1.20067116827809e-05,-0.707106781186536,-1.29902090471965e-08,-1.2247140934058e-05,1.50950030965571e-05,2.12291934377448e-05,-8.11884114971794e-06,-1.28181159784942e-14,5.16853851286609e-07,2.70073641986178e-06,2.86900424330708e-15,-2.44544665516431e-07,-2.11896708907237e-08,-2.90740630561381e-15,-2.28092386258916e-06,-2.72418947185794e-10,-7.75028267697859e-11,2.23820776832203e-15,1.22619194558714e-15,-4.04947706761077e-10,1.17104321390065e-15,-7.74997988254412e-06,-1.75503258130804e-15,1.65463396005371e-15,-0.0170979095357123,-3.83347337847131e-08,5.29437247681953e-16,3.73325409800313e-09,-3.05788570956784e-08,-5.1000586358551e-16,0.00664414837757686,-1.87016203426261e-15,-1.43528508498623e-15,3.11493387653007e-07,-3.58931855390517e-06,3.5488243725859e-08,5.77012212011438e-09,-1.65778456913043e-11,3.30722704726192e-07,4.47986989704182e-16,1.44120394884722e-08,1.16853039731669e-07,-1.12828388020316e-08,-9.85095479538465e-16,-2.37112697548016e-09,5.70192307416034e-11,-1.15810685228839e-07,-8.18574967714417e-16,8.27578198641421e-17,-1.8530466693549e-15,4.28863458812427e-16,1.79755405654342e-15,1.32835248568972e-15,-9.56569694639448e-16,6.52215783870404e-14,0.0819231920518946
"t34",0.0132387017515253,-0.19515218829481,-0.0774917276978858,0.00233131163857153,0.18163919895095,0.000999924277893808,0.00171312282146632,0.0057662162368359,0.00882817434986365,0.00422543521763774,0.00423045250411826,0.0121609055775847,0.0434138337918448,0.00563265797855871,0.000525601940648085,0.000369264247598493,1.82476484620718e-05,1.76088219792764e-05,-0.000192878502243774,4.62555892714876e-06,3.51555021779237e-07,-9.62258364027138e-06,0.00894378179358917,9.58611690673748e-05,0.00369495913356202,0.00306900698294307,-0.000225757714711262,0.00647716667424009,0.00182692502330699,0.0011750371104049,-0.00151691371005466,0.00310743756225649,-0.122922109119679,0.0001746275189641,-0.000295475207938746,4.23441465455301e-05,6.74226760891753e-05,0.86313636738914,0.000702580843689284,8.4632622269453e-05,1.29153391405133e-05,0.000273104773106519,0.000497726473493788,0.000113508850591659,2.13323795153668e-05,4.54497550705923e-16,0.0136454085202802,0.0206262843481665,-0.00895014664381115,0.0677256790155491,-0.000195380211332368,0.000514006012020769,-0.000493461515070255,-8.96939518823336e-06,2.37262909522221e-05,-0.000851804254007757,-0.0021228234434628,0.00038551368832214,0.00267513816025923,1.46930948467211e-05,0.000467679179322296,-6.213571144796e-05,1.23365393775185e-16,-8.38571654866999e-05,0.00544752087450569,-0.000239626171898164,0.0262718333977514,-1.78610967269569e-05,-3.20761183421784e-08,-0.000252540624991954,-0.00303806659601272,0.0147095980050286,-0.125763964653503,-0.000173511287966033,-0.00434040815910359,-3.24764511447605e-15,-0.00171248505285532,-0.000406926032078689,1.3751678387415e-05,0.0003403717974073,0.00288079225758542,3.6256347480118e-05,0.0136172058948614,2.93894184333419e-06,0.0206382973247146,2.32947819018694e-15,-0.000412051636304707,0.0279303094668683,-1.78121549811314e-05,-3.49734866853697e-05,-2.2058384256519e-14,-0.360575492828588,-3.17935214434253e-05,-0.000136684126422027,1.63638334425261e-14,-1.22869992320826e-07,-0.000115499299258303,0.000141676231372655,0.000198888066158522,-7.6081154866128e-05,-4.39177182799151e-15,4.85455140263041e-06,2.53967236702323e-05,1.9168052043365e-16,-2.61177589243358e-06,-2.27187943718803e-07,1.0559206347017e-14,-2.60197458887e-05,-5.46456847118943e-09,-1.85071344258239e-09,-2.90617927799976e-15,-2.36200352758747e-16,6.37418770970117e-09,-1.12075776811638e-16,5.80850489584553e-05,-3.37836415665645e-16,-3.93545822429372e-16,0.00650003733642256,-9.28030488673458e-09,1.8704435992043e-15,-5.09060128175468e-09,4.7062913631066e-09,1.99301359338711e-16,0.000175089105700048,-7.90777957739052e-17,-1.05598156651977e-15,1.86454363071106e-07,-1.94446738153851e-06,3.16330558707935e-08,6.87988786566302e-09,-2.08706885759769e-11,4.6137009820907e-07,5.46893347291439e-16,2.06180555198934e-08,1.67508123186229e-07,-1.63192127915737e-08,-6.35314643015218e-16,-3.89124424385077e-09,1.06582260366708e-10,-2.23925997604739e-07,-6.90811378877491e-16,5.77356118388182e-17,-1.82023909806496e-15,2.50280919783519e-16,5.98550448212572e-15,1.71668036326965e-15,-2.62156570849412e-17,6.3974190086852e-14,0.0819231920518995
"t35",0.0130986124407068,-0.192069493473969,-0.0758259820759229,0.00227354870341541,0.1736382786964,0.000953930678581823,0.00160880655940997,0.00537140692446256,0.00817964834171862,0.00388601380398034,0.00381217293091916,0.0106589841638807,0.0374091178373806,0.00477083480275005,0.000443487306636047,0.000310588264838325,1.51660895204614e-05,1.45427052047481e-05,-0.000158641509767821,3.51415608649295e-06,2.57518445973943e-07,-6.6562149263258e-06,0.0059594220302691,6.34369779997575e-05,0.00238159681481193,0.00196706916958836,-0.000141075465215673,0.00396990840093841,0.00104031095421029,0.000624776836346216,-0.000787952265147681,0.00160569333699618,-0.0599257924589264,7.22414658081933e-05,-0.000118215683042702,1.49595848800016e-05,2.29565964850587e-05,0.288841089632006,0.000213896628503605,2.50123484460818e-05,3.79261754220613e-06,7.33587558780438e-05,0.000106934447168642,2.41016258543363e-05,4.37834821789997e-06,2.57779908530154e-15,0.00189282274912191,0.00133463993334191,-0.00048627966306455,0.00345927389404273,-8.16243256995579e-06,1.64205513423325e-05,-1.40344514878586e-05,3.91454808138487e-08,-1.87744396875473e-07,5.67512045222401e-05,0.000155642891876211,-3.32099379750643e-05,-0.000296162968879526,-2.14580791147411e-06,-0.000112912397766556,1.86850153651081e-05,8.48195266221368e-16,2.92721557299522e-05,-0.00204523387826668,9.18261902369826e-05,-0.0139612659089133,1.08236849115193e-05,2.12866873068411e-08,0.000174544687535336,0.0022127915045279,-0.0135310179990171,0.118806757335991,0.000191278211783563,0.0050094878263953,3.61345479442231e-15,0.00231260125957203,0.000560245938824106,-2.26131809771891e-05,-0.00056956612225643,-0.00497692403536541,-6.49937016179729e-05,-0.0252655110778614,-6.12926356209485e-06,-0.0445833221082488,-3.84971446015999e-15,0.000916241324679612,-0.0652061883954873,4.29657285895735e-05,8.4491263478998e-05,5.27508730184606e-14,0.891216390663951,8.02287524120131e-05,0.000346682666966571,-3.92608900953197e-14,3.63515115430056e-07,0.000345240669215244,-0.000433825278682911,-0.000642434536846628,0.00024663444418074,9.56101864306562e-15,-1.60732225101766e-05,-8.47405841190234e-05,-1.79585587439371e-16,1.12595518217181e-05,9.83974073165891e-07,-2.49436736285294e-14,0.000120349101084024,3.41943353810037e-08,1.21453355570694e-08,5.86087352873075e-15,3.23866778272557e-15,-6.36403451751535e-08,1.60897967980538e-15,-0.000683217640528322,1.03242712715114e-15,2.29150314498219e-15,-0.120252922754112,1.7809872349263e-07,-5.3812783930889e-15,2.24796428163329e-07,-1.16818994063672e-06,-4.63109043396847e-16,0.0372437380637315,-6.50760263097881e-15,-9.70039220033638e-15,2.27536078144118e-05,-0.000202858013593092,1.22517528800485e-06,1.69787126105155e-07,-4.71539743233695e-10,8.7513301243974e-06,-8.63410294752417e-16,3.74102977025465e-07,3.02848419821994e-06,-2.90370806029267e-07,5.65278161953874e-16,-5.45905640494433e-08,1.13090421362974e-09,-2.18994847939022e-06,5.03953578569758e-16,-6.701765126461e-16,-1.29940124634477e-15,-9.17194253851798e-16,7.64384486013393e-16,-6.87062240552526e-16,3.63150699611167e-17,6.36375183976411e-14,0.0819231920519105
"t11",0.0635099144596069,0.0191527195215727,-0.0015935920007309,-5.07107412461734e-05,-0.00262873249474379,0.00149436077968601,-0.022643123654966,-0.0936111793942721,-0.172028763200459,-0.115854495543259,0.010501818009855,0.00730170783172482,0.00321220021821759,-0.000270054923332824,5.33774449734817e-05,0.00110948371152748,4.9320923120623e-05,0.00108458200852312,0.00442596150699962,-8.94214911434928e-05,0.000490179877162102,-0.000140078154549323,0.0930069568164937,0.000949227744336681,-0.00942892138611956,-0.181972913009488,0.0124227070131819,-0.0552072469242058,0.00513234825454282,5.06304929107033e-06,0.00707582328891255,8.46915201366913e-05,0.000147416682359901,-0.000226427957585174,0.00717457580408583,-0.000208732578659261,0.000103292484068821,8.5026515874503e-05,-0.0124403138090108,-0.00163010848209013,-0.000252335414366134,-0.00606008795293545,-0.0122553373246185,-0.00021301502175278,-0.000528404013306436,3.40699690681845e-15,-0.00127182173739079,-0.0302851728468597,0.00567756408758938,0.000326813438322835,-0.000209199604937164,0.00242477782042184,-0.0303090355407952,0.00561370799024899,-0.00101503223346836,0.0138694611121603,0.0369210114532529,-0.0613221628919506,-0.0297893716677879,-0.0024791361045825,-0.00925495376190811,0.00815631807369071,-1.02276012835491e-14,0.0118803343884783,-0.815895461290686,0.0645883735507951,0.00163035585666549,-0.0776531764212885,-1.78528153436914e-07,-0.0011703201303189,-0.0109678499405457,0.00813461206243191,-0.038690023870901,-0.00688099463377268,0.00479507173846026,-3.61888977217834e-15,0.00300909570128492,0.000737019063903212,-0.000253406301685013,-0.000681239444078881,-0.00565809976545328,-0.000370246303828842,-0.0245067702159842,-6.86824296068107e-05,-0.000102838871764099,-1.60875240604442e-15,0.000352514999799145,-0.0129887416168083,-5.81615019407159e-05,6.39918319875779e-06,2.35881008703712e-15,-7.28047358360797e-05,-0.000409720654167182,-2.58471919499691e-05,-2.44742386056651e-15,5.37870281446364e-06,0.000402021032405011,-0.00119115965447912,-0.383682871899351,0.238112280101632,-7.58669067238152e-14,0.00855298011535181,0.00129407295340495,5.67474009596928e-15,-0.000128320843980931,-1.13408117497409e-05,6.49484653592637e-15,-0.00164572512012705,-1.92768855800643e-05,-6.21733259724375e-07,1.32208570168185e-15,-1.42628339110542e-17,-4.50515279159265e-06,1.75987092650056e-15,-6.37484171036232e-05,-3.67546281797426e-16,5.38535354536996e-16,-9.47448003050776e-06,1.32831760127061e-05,1.41754768258774e-15,4.7014283540399e-06,-2.0682714524042e-05,-2.02887254858141e-16,9.36770093044951e-06,-8.524755695703e-16,1.8912245847032e-16,2.95947109926004e-06,-2.58707811140639e-05,0.000226471205568674,2.43803226636402e-06,-6.65727886001407e-09,0.00139551605145669,-3.19660240133432e-17,5.89697209423013e-05,0.000476927502141218,-3.88121544655196e-06,-1.42260792422909e-15,-6.90157863936149e-07,1.32314978970826e-08,-0.000283700192422205,-1.0793361110642e-15,2.58911291972159e-16,-1.73473690508994e-15,-4.76573199821289e-16,4.92828417828537e-15,7.16579620318014e-16,-1.46619196970373e-16,6.41342299135962e-14,0.081923192051896
"t25",0.0664085549428889,0.0205059066374182,-0.00175327071087428,-5.67135407865993e-05,-0.00327702525553728,0.0018860237292361,-0.0317338121549237,-0.139550555980863,-0.268126892567656,-0.193109932794943,0.0219686747761202,0.0251172677874406,0.0199874993086068,-0.0171569327344667,-0.00287943016359015,-0.0232845378704609,-0.000303089998327767,-0.00476405898276311,-0.0163179538239357,6.10871401412217e-05,-0.000202998229887184,2.57930593482263e-05,-0.00831657123503342,-7.08588234869132e-05,0.000216630559101682,0.00231931321133125,0.000393079031685855,-0.00360538458705513,0.00164000899894388,-2.34612276856221e-07,0.000149685610000958,2.64043646462577e-06,1.45531566615992e-05,-4.03277932182566e-05,0.00134996009833689,-4.54311383499699e-05,2.32066494900952e-05,1.93651934259126e-05,-0.00301861707074887,-0.000402219092261902,-6.24774268618073e-05,-0.00156615932476524,-0.00342215491247622,-5.96742399312696e-05,-0.000149358080071318,-4.49987269668384e-15,-0.000387235000521908,-0.00986605276418718,0.00186546049624738,0.000107664017865673,-6.9432800690227e-05,0.00081100819843041,-0.0101649082513663,0.00192940180991522,-0.000349755855452787,0.00497513782811821,0.0133017486077489,-0.022275222502344,-0.0109882186430095,-0.000934084754165143,-0.00367836954561439,0.00334386756079375,-4.28410697394746e-15,0.00499097095802597,-0.347259011502929,0.0275947465997863,0.000747557883240819,-0.0368635581729088,-8.70459595817755e-08,-0.000577951307425356,-0.00551084941171926,0.0044758876746739,-0.0215479520425726,0.00259909963510777,0.00296519238661668,6.22140490482669e-15,0.00208048990121896,0.000517736327984946,-0.000213121925340243,-0.000585670877803412,-0.00507694140712211,-0.000350759836175488,-0.0245562372041932,-8.79715221567408e-05,-0.000145289576425829,2.29740127005938e-15,0.000546611974331914,-0.0244010017332479,-0.000128773623314849,1.42916034955464e-05,-3.00230036758669e-15,-0.000187337944510366,-0.00123073435273525,-8.10648161636686e-05,3.88507075498263e-15,-3.14232963295081e-05,-0.00192083855266514,0.0039458623147666,0.731996492502299,-0.440954032886807,1.42014415701045e-13,-0.0134499573747758,-0.00192524247565838,-1.17133261952513e-14,5.42949369772174e-05,4.71287539110693e-06,-6.86442188242702e-15,0.000532907728791633,1.89267838897853e-06,4.82646981571663e-08,-3.9355780899691e-15,-1.58425911301737e-15,-1.53879740751864e-07,-1.07571276946269e-16,-3.7514835732446e-06,7.15361908350583e-16,-3.44993155417818e-16,-9.67327664965831e-07,1.38866619532026e-06,-1.4667121635637e-16,6.5062964058068e-07,-3.25028733511632e-06,-1.58420535467913e-16,1.54905136996079e-06,3.36954242360623e-15,-8.1646992144004e-16,4.98821812947517e-07,-4.39302768751657e-06,4.16438411134025e-05,4.77332996382528e-07,-1.32281667790364e-09,0.000286256591025977,1.02361804395971e-15,1.22011512711589e-05,9.87485522709114e-05,-8.0616236629246e-07,-6.62366738924183e-16,-1.50803716311254e-07,3.09425990360237e-09,-6.7784993930532e-05,4.01934675274685e-16,-5.09182764280507e-17,-2.18026923914028e-15,6.42849242316476e-16,-4.08170157447187e-15,1.29689915587765e-15,-2.03713955374386e-16,6.31331760080566e-14,0.0819231920519185
"t61",0.068543860035183,0.0215049328315986,-0.00187144430815395,-6.11623146633971e-05,-0.00376159053920311,0.00217902980614013,-0.0385816033554883,-0.174280489517439,-0.340952192789716,-0.251853804920322,0.0307707504226222,0.038977630248741,0.0331517798710626,-0.03052932838428,-0.00520665235175207,-0.0426749568675133,-0.000585077088887278,-0.00946083240032546,-0.0330159055960555,0.000188769785560246,-0.0008090951421817,0.000179957826431272,-0.107794206360182,-0.00108446860041476,0.0103337558950595,0.198261216268117,-0.0133795993957963,0.0601852795155995,-0.00967840568948987,8.91813885241661e-07,-0.00051047779280501,-8.80462663862918e-06,-3.921605220931e-05,7.36390248445558e-05,-0.0023289245516415,6.5979523983439e-05,-3.23201810088691e-05,-2.64756051068286e-05,0.00377207880870437,0.000490272154093301,7.57611277633281e-05,0.00177783502483866,0.00342205820939661,5.9345568609758e-05,0.000146278707129706,-1.72084568816899e-15,0.000332472528849177,0.0074716326677301,-0.00139009771593032,-7.98285939678922e-05,5.07598413540891e-05,-0.000584270462093845,0.00728534011846357,-0.00131965698042336,0.000238054758996544,-0.00313574929994018,-0.00831461164668182,0.0137075358656211,0.00656791112397113,0.000536448073626716,0.00191505404957339,-0.00164814871694104,2.91203318213472e-15,-0.00235977636386588,0.160677727487224,-0.012688962368731,-0.000308639104070843,0.0145232324515848,3.31837105122881e-08,0.000217121036814201,0.00203203488987707,-0.00154855886203719,0.00745261901256973,-0.407783156256292,-0.000602587579373339,-0.70710678118659,-0.000519079120422847,-0.000128732319164493,4.98447270314608e-05,0.000135962372513205,0.00116233740282944,7.89895670523886e-05,0.0054436974054758,1.84583397035627e-05,2.99749243711941e-05,1.66990978861579e-15,-0.000111211627755173,0.00484885330372992,2.51864733187776e-05,-2.79316892157063e-06,-1.20112425102624e-15,3.62094796740247e-05,0.000235494771195625,1.54727734356698e-05,1.7676257735957e-15,5.56601704530742e-06,0.000338554461187443,-0.000687437962139419,-0.124300993059228,0.0747507144819582,-2.18828975114755e-14,0.00225718188014955,0.000321908381271592,3.37132154369796e-15,-8.06085927038574e-06,-6.98235313601684e-07,-1.91987071598639e-15,-7.66734694194036e-05,-2.39837841074448e-07,-6.00260217188823e-09,3.74853794524504e-17,4.74416546964393e-16,1.64988711985976e-08,1.61399741946599e-15,3.8277555993726e-07,2.36939671786654e-16,3.8706047147404e-16,8.81367322011939e-08,-1.25553576329602e-07,2.14002344057738e-16,-5.17812242458117e-08,2.35739430758982e-07,7.77273372750108e-16,-1.07131877383608e-07,-3.42134189753938e-17,1.7006401796796e-17,-3.38204247564605e-08,2.95465231433777e-07,-2.53391807984375e-06,-2.62158192549831e-08,7.06317798991404e-11,-1.42884107614441e-05,1.12052985702667e-15,-5.96913950978845e-07,-4.8229515497007e-06,3.90753111482324e-08,-1.10258216672775e-15,6.35443834032932e-09,-9.97520765873997e-11,1.94621553935306e-06,2.03294034299667e-16,2.59937905161253e-18,-1.98909632199527e-15,7.53481904820904e-16,-2.23463211282144e-15,5.39375916934829e-16,1.71892503203894e-16,6.40662410904914e-14,0.0819231920519002
"t62",0.068543860035183,0.0215049328315986,-0.00187144430815398,-6.11623146634074e-05,-0.00376159053920313,0.00217902980614012,-0.0385816033554884,-0.174280489517439,-0.340952192789716,-0.251853804920322,0.0307707504226222,0.0389776302487411,0.0331517798710626,-0.0305293283842801,-0.00520665235175203,-0.0426749568675134,-0.000585077088887384,-0.00946083240032548,-0.0330159055960556,0.00018876978556028,-0.000809095142181135,0.000179957826431064,-0.107794206360183,-0.00108446860041486,0.0103337558950596,0.198261216268118,-0.0133795993957963,0.0601852795155996,-0.00967840568948941,8.91813885715132e-07,-0.000510477792804892,-8.80462663840816e-06,-3.9216052209818e-05,7.36390248450593e-05,-0.00232892455164191,6.59795239833127e-05,-3.23201810086699e-05,-2.64756051058894e-05,0.0037720788087048,0.000490272154094537,7.57611277634334e-05,0.00177783502483893,0.00342205820939575,5.93455686090926e-05,0.00014627870712798,2.31412111695306e-15,0.000332472528845018,0.00747163266773062,-0.00139009771593075,-7.98285939672357e-05,5.07598413532149e-05,-0.000584270462093758,0.00728534011846352,-0.00131965698042514,0.00023805475899705,-0.00313574929994208,-0.00831461164668142,0.0137075358656215,0.00656791112397196,0.000536448073625159,0.00191505404957139,-0.00164814871694192,1.8564684302856e-15,-0.00235977636386451,0.160677727487226,-0.0126889623687307,-0.000308639104070509,0.0145232324515802,3.31837151049466e-08,0.000217121036809656,0.00203203488987865,-0.00154855886203421,0.00745261901254856,-0.407783156256436,-0.000602587579302732,0.707106781186505,-0.000519079120447951,-0.000128732319149224,4.98447270377963e-05,0.000135962372512086,0.00116233740282742,7.89895670551787e-05,0.00544369740547308,1.84583397017768e-05,2.99749243692128e-05,-3.04854452781202e-15,-0.000111211627755392,0.00484885330373229,2.51864733317227e-05,-2.79316892069665e-06,-5.246955460108e-16,3.62094796710377e-05,0.000235494771186296,1.54727734346203e-05,-1.63937113322272e-15,5.5660170424842e-06,0.000338554461191002,-0.000687437962139012,-0.124300993059237,0.0747507144819633,-2.35368670615018e-14,0.00225718188014872,0.000321908381272688,2.24691950502149e-15,-8.06085927516206e-06,-6.98235319929306e-07,2.4789543382218e-15,-7.66734694196021e-05,-2.39837840201584e-07,-6.00260329185006e-09,1.3604517089788e-15,2.98168621863823e-16,1.64988667175995e-08,-1.88123112549762e-15,3.82775571674412e-07,6.78240070671396e-16,1.19774866584576e-16,8.81367363857773e-08,-1.25553575533997e-07,-1.65630451347881e-16,-5.17812252855198e-08,2.357394298059e-07,-8.15628594182986e-16,-1.07131875817672e-07,-2.92642686796529e-16,9.43583329344788e-16,-3.38204214951804e-08,2.95465232641158e-07,-2.53391808165526e-06,-2.62158191004001e-08,7.06337478547586e-11,-1.42884107622023e-05,-1.39068444053753e-15,-5.96913951442908e-07,-4.82295155024359e-06,3.9075313288386e-08,-5.87265459788852e-17,6.35443838836321e-09,-9.97516284965244e-11,1.94621553942008e-06,-1.82031734575559e-16,2.64103478044322e-16,-1.26162490532471e-15,-5.3804361392499e-17,8.71494246754415e-15,5.83694805681391e-16,-5.02846391282473e-16,6.38435460608788e-14,0.0819231920519
"t60",0.0685364192092308,0.0215014393024583,-0.00187102946996836,-6.11466629563779e-05,-0.00375986331562382,0.00217798400653664,-0.0385569126846299,-0.174154615152348,-0.340687341992415,-0.251639155800091,0.0307381740769153,0.0389254491997784,0.0331017044343716,-0.030477934516397,-0.00519768787429186,-0.0426001243029749,-0.000583981144668319,-0.0094425104764689,-0.0329506113850713,0.000188247553834422,-0.000806566610926049,0.000179295075246782,-0.107358379503351,-0.00108001261345657,0.0102886997813968,0.197386217614366,-0.0133173428361247,0.0598942780504645,-0.009625012444867,8.86340520868601e-07,-0.000507238682901636,-8.74834956663637e-06,-3.89454009042704e-05,7.30295638086464e-05,-0.00230902565665417,6.53524620733866e-05,-3.20041854750088e-05,-2.62134061265077e-05,0.00373219760963978,0.000484989200621768,7.49414765149412e-05,0.00175755911865489,0.00337847062387177,5.85858169996258e-05,0.000144379045398934,3.62557206479153e-16,0.00032754560810508,0.00734386911208005,-0.00136585089167907,-7.84274985650103e-05,4.98529910561766e-05,-0.000573634891773442,0.00715183654349523,-0.00129392104596978,0.000233380915612091,-0.00306695747062528,-0.00812988487321163,0.0133955222227615,0.00641129980268581,0.000522769579286316,0.00185639994388099,-0.00159142026624151,1.43054619993257e-15,-0.00227023299736198,0.154240609200439,-0.0121723399263775,-0.000291208588740304,0.0135376845371798,3.05548345270974e-08,0.000198506907252903,0.00183697454519683,-0.00122343408249465,0.0056402665351074,0.816925876852997,-0.00136866542700791,8.13673688504267e-14,-0.000632304069602648,-0.000154242008912596,5.52521511986528e-05,0.000150096702170173,0.00127465929082798,8.60521935555172e-05,0.0058990216905987,1.97300572063733e-05,3.19385756891773e-05,1.87280878796212e-16,-0.000118217330523003,0.00513600519003164,2.66212911264853e-05,-2.95200754329605e-06,3.71881858752014e-15,3.82160128452951e-05,0.000248251450197915,1.63063321642076e-05,-2.60706225919556e-15,5.8247010795996e-06,0.000354151461826268,-0.000718476934592113,-0.12968067409986,0.0779770440923543,-2.8183396685512e-14,0.00235306948268749,0.000335505573166358,8.99581537934523e-16,-8.35061815545486e-06,-7.23271992139643e-07,3.16231379696839e-15,-7.9331167249144e-05,-2.47157501701601e-07,-6.18280091582441e-09,5.65769492600172e-16,-2.35174608993991e-16,1.69406506494207e-08,1.10726264894759e-16,3.92694902141152e-07,-2.44739270447999e-15,-8.73634776249044e-16,9.02738353922422e-08,-1.28585309789063e-07,-2.62219224023281e-16,-5.29555171348628e-08,2.40878497036573e-07,6.75631613818027e-16,-1.09424555759201e-07,3.45379331162262e-17,-1.22531582068417e-15,-3.45388639683487e-08,3.01723327755639e-07,-2.58577715060524e-06,-2.6735949179083e-08,7.2022680551993e-11,-1.4564689204701e-05,3.8102461750747e-16,-6.08397619965007e-07,-4.9156987185017e-06,3.98253354705141e-08,-2.60847947261233e-16,6.47258643080244e-09,-1.01518006048416e-10,1.98010788988468e-06,-1.92791777491234e-15,-2.34145746621654e-16,-1.46806451845542e-15,-5.89678738953842e-16,8.54700940223918e-15,1.61525563574799e-15,-6.50125449138164e-17,6.38395058518468e-14,0.0819231920519039
"t12",0.0654911546641497,0.0200637237447161,-0.00169924869215073,-5.46418747894584e-05,-0.00302583297431307,0.00173249427367534,-0.0278410281536468,-0.118978148465116,-0.223807053205128,-0.156009251416837,0.0158262644794738,0.0140755756724145,0.0086269131572386,-0.00465615000209305,-0.000665141109795555,-0.00456276460032123,-1.54229690621917e-05,0.000169163820370429,0.00155486273744997,-0.000136346409214727,0.000913290707786326,-0.00035413101220962,0.293403582330214,0.00312949081526585,-0.0373305997609459,-0.751676871574594,0.063413396394407,-0.341143338775121,0.12696734772559,-8.00536007607811e-05,-0.0731370981698011,-0.000813060184425285,-0.00080249899686252,0.00058969569390381,-0.0170474836876852,0.000380984631120673,-0.000177278417112275,-0.000142053300901197,0.0182743191361574,0.00231213312568454,0.000355315861076726,0.00778404607038099,0.0132381426402751,0.000228395400318198,0.000554972499639902,-4.5102810375397e-16,0.00112007956715542,0.022586803996166,-0.00414499203848679,-0.0002370249087882,0.000148921523135576,-0.00169302118891898,0.021018520849275,-0.00365985939123499,0.000657484478451644,-0.00811560429186856,-0.0213678140909213,0.0347609224478687,0.0162461151399557,0.00128193372757417,0.00419494382805128,-0.00343198841846056,3.96353529567561e-15,-0.00472174704328873,0.314728077395779,-0.0247004471935104,-0.000535230744700213,0.0237898995985665,5.20048552762866e-08,0.000333087268084438,0.00302766707737217,-0.00194524248315939,0.00909554808338186,0.00104998210226228,-0.000987853753132538,7.58481855423513e-16,-0.000558478076587957,-0.000135064553683368,4.16026551086908e-05,0.000110763881411887,0.000904611418133245,5.81533863141489e-05,0.00379414302964516,1.0387227862674e-05,1.56436187435987e-05,3.57465723520532e-17,-5.42856876199516e-05,0.00208918234305447,9.87675973820401e-06,-1.09022845021688e-06,1.66895167276663e-16,1.31485277597046e-05,7.96727152300123e-05,5.13979206339525e-06,2.46588547992987e-16,8.05872934928026e-07,4.47169283985169e-05,-7.02561718416783e-05,-0.00442408899299981,0.00232499947943931,-4.64055213033456e-16,1.0359830148883e-05,-1.65401441286905e-06,1.51424343884059e-16,2.68063403932096e-06,2.36385133019472e-07,-4.88901979307122e-16,3.24898442166512e-05,1.95796029676902e-07,5.26868657254748e-09,-9.85826118774398e-18,4.89400596404077e-16,-2.30990300889714e-08,-8.98800455484128e-17,-6.08663843894763e-07,-3.00315388161849e-16,-2.56480019412341e-16,-1.81308677881518e-07,2.62502028997896e-07,-1.13292168499191e-15,1.38907192167582e-07,-7.44947139837087e-07,1.57518086492895e-16,3.66535692498067e-07,3.83601089781954e-16,-1.54683642978909e-16,1.19518820257968e-07,-1.05780435490178e-06,1.06088383933522e-05,1.27694847876009e-07,-3.5820252870896e-10,7.96364839016636e-05,1.40220547127841e-16,3.42004227959052e-06,2.76968756521394e-05,-2.2674358791418e-07,-2.57952634010158e-16,-4.44279847441435e-08,9.75219434619405e-10,-2.1854387556731e-05,-6.2373223276194e-16,1.4995225648678e-18,-1.65115754446297e-15,4.11427284497901e-16,3.84976292931261e-15,1.01094902632155e-15,-6.24968305071388e-17,6.37246444512327e-14,0.0819231920519049
"t114",0.0989073516042996,0.0456860236666045,-0.0134036234266015,0.000545085653912054,0.000781268311596379,-0.000337103304149854,-0.0207533289717862,-0.056988550621271,-0.0441967074389519,0.115483615768417,9.30498300800231e-05,-0.00495976087937129,-0.0142316485993849,0.0619784729815284,0.0204602744809148,0.501746200510244,-0.00169361454942051,-0.26915763919405,-0.026807050550334,0.00010111346530741,-0.00188939593878384,6.62080500423266e-05,-0.0309871953227914,-0.000291945370233177,0.00188039757631731,0.0314410025454215,-0.000245663637977117,-0.00917927654286325,0.0990295935112559,-1.78789509900311e-06,-0.0227029764170753,-0.000875903568159618,2.02953744782668e-05,6.23056758203111e-05,-0.0154290579721982,5.66086035691028e-05,-3.30724652888527e-05,-2.97978200137555e-05,0.0431523664515472,0.00706272330837655,0.00839761780689429,0.343505698075378,-0.0132057603991068,3.22588781607859e-05,-0.000433462156720617,1.29757316003065e-14,-3.27294864266893e-05,8.39378298092899e-06,-1.49644808165334e-05,-1.11343230318759e-06,1.26088377026872e-06,-3.17958205711507e-05,0.000944281370258832,-0.000247062781368756,6.9812715242839e-06,-0.000231176214993207,-0.000740573834661087,0.00332798345973671,-5.1584867107404e-06,0.000123227479334432,6.95189680621353e-05,-0.000170719819258231,2.31062860900862e-16,-0.000131540908199957,0.0045749263523981,-0.000352661962167274,-3.89847109444368e-06,-0.00869918635492775,-3.93605721990754e-11,-9.43120602904061e-07,-1.72018780490805e-05,4.25306285683782e-05,-0.000219584798348257,2.33092535493758e-05,4.42480761119539e-05,-6.90581696793256e-17,3.70849533294307e-05,9.38017583593089e-06,-3.69381852728674e-05,-1.17433015823567e-05,-0.000102377481514303,-5.53206774170631e-05,-0.000494932058229858,-4.05015180023046e-05,-2.72953275630956e-06,-5.49187616073876e-17,9.99257445511004e-06,-0.000420271755121747,-1.9055498777288e-05,2.33084209634641e-07,1.50592496051315e-15,-2.93061203779626e-06,-0.000154047782882075,-1.18294227732755e-06,-1.13600612266175e-15,-4.5800226329723e-06,-1.28957488078287e-05,2.0147555946466e-05,0.00104641444376405,0.000451102068997242,-2.47714400276875e-15,0.000215217217282269,3.52200346635422e-06,2.90550694913828e-16,-2.09032395389021e-06,-1.86139414439958e-07,-8.29825642381513e-16,-2.96125787425385e-05,-3.36544681015463e-06,-1.46194978935347e-08,2.12913090139797e-15,-1.26726705078726e-15,-1.2339240381821e-07,-4.6309853585915e-15,-1.81584574357284e-06,-4.43543186689564e-15,-3.66239863856854e-15,-2.91126482799658e-07,4.10040780174932e-07,0.707106781186547,1.55331361444006e-07,-7.12348292628111e-07,4.72944909129338e-16,3.28909555676637e-07,1.34539447275751e-15,-2.4918715091062e-15,1.04710396960419e-07,-9.18143689707682e-07,5.76450298987537e-05,9.2669310648896e-08,-2.55465141580812e-10,0.000371389740283504,4.07026479673029e-15,1.57552763051583e-05,0.000127464626180513,-1.49203096479432e-07,-2.82563910087737e-15,-2.77988860677076e-08,5.59810281903872e-10,-0.000206294199141214,-1.03475103309017e-15,-3.13915705220167e-16,-2.11088256053248e-15,7.38740303121732e-16,6.05689427243448e-15,-2.15980535856273e-16,5.47966072241274e-17,6.43127685957009e-14,0.0819231920519049
"t115",0.0989073516042996,0.0456860236666045,-0.0134036234266016,0.00054508565391205,0.000781268311596434,-0.00033710330414986,-0.0207533289717862,-0.0569885506212711,-0.0441967074389519,0.115483615768417,9.30498300800845e-05,-0.00495976087937124,-0.0142316485993848,0.0619784729815285,0.0204602744809146,0.501746200510244,-0.00169361454942039,-0.26915763919405,-0.0268070505503338,0.000101113465307283,-0.00188939593878362,6.62080500421001e-05,-0.0309871953227914,-0.000291945370233285,0.0018803975763169,0.0314410025454225,-0.000245663637977261,-0.00917927654286325,0.0990295935112556,-1.7878950990107e-06,-0.0227029764170748,-0.000875903568159112,2.02953744784129e-05,6.23056758202792e-05,-0.0154290579721993,5.66086035694056e-05,-3.30724652891635e-05,-2.97978200145756e-05,0.0431523664515465,0.00706272330837612,0.00839761780689464,0.343505698075374,-0.0132057603991074,3.22588781605031e-05,-0.000433462156720899,1.3836154444391e-14,-3.27294864260995e-05,8.39378297992979e-06,-1.49644808172967e-05,-1.11343230368692e-06,1.26088377042191e-06,-3.17958205710989e-05,0.000944281370259173,-0.000247062781368739,6.9812715246758e-06,-0.000231176214993472,-0.000740573834660737,0.00332798345973741,-5.15848671143253e-06,0.000123227479334329,6.95189680616956e-05,-0.000170719819257638,5.3211123362061e-16,-0.000131540908199802,0.00457492635239597,-0.00035266196216654,-3.89847109263361e-06,-0.00869918635492892,-3.93606154661453e-11,-9.4312060383674e-07,-1.72018780501122e-05,4.25306285683439e-05,-0.000219584798350339,2.33092535488446e-05,4.42480761106992e-05,-5.40902955145027e-16,3.70849533308207e-05,9.38017583636403e-06,-3.69381852737022e-05,-1.17433015828851e-05,-0.000102377481513676,-5.53206774144188e-05,-0.00049493205822867,-4.0501517997196e-05,-2.72953275354341e-06,-1.55555046598971e-16,9.99257445492943e-06,-0.000420271755117722,-1.9055498778913e-05,2.33084210328894e-07,-1.11103739590751e-15,-2.93061204629597e-06,-0.00015404778288258,-1.18294227465547e-06,2.93406021543093e-16,-4.5800226331141e-06,-1.28957488078623e-05,2.01475559443316e-05,0.00104641444376306,0.000451102068997519,2.27027804907961e-15,0.000215217217282471,3.5220034647012e-06,1.67983984873576e-16,-2.09032395650698e-06,-1.86139409654617e-07,1.78787208286749e-15,-2.96125787415294e-05,-3.36544680895008e-06,-1.46195021090911e-08,-2.16247147552141e-15,1.11560020696119e-15,-1.23392406177853e-07,4.50041664288015e-15,-1.81584572949865e-06,4.05897251912781e-15,3.46269422941463e-15,-2.91126487171121e-07,4.1004076742018e-07,-0.707106781186548,1.55331397970629e-07,-7.12348282897046e-07,-3.51944068586779e-16,3.28909566052621e-07,-3.60028722050119e-16,2.25005137137913e-15,1.04710377661498e-07,-9.18143703100343e-07,5.76450299024054e-05,9.26693003084887e-08,-2.55460725156384e-10,0.000371389740257577,-3.606631897436e-15,1.5755276305007e-05,0.000127464626180662,-1.49203092530534e-07,1.4732904988995e-15,-2.77988858064369e-08,5.59814040413751e-10,-0.000206294199142228,-5.82382031548747e-17,3.71253056080551e-16,-1.13609556569241e-15,-3.37798279459176e-16,2.28083494610198e-15,2.1290287884933e-15,-3.49847586997028e-16,6.30112414529703e-14,0.0819231920519039
"t30",0.0978045340675534,0.0449212812715959,-0.0130964001264777,0.000530632700474865,0.000743643293703588,-0.00032011338411554,-0.0193450285135975,-0.052602101745579,-0.0405256851304359,0.104910375988463,8.23308583643381e-05,-0.0042244010077616,-0.0118245967265488,0.0501642715983212,0.0164614656081998,0.401664172295884,-0.00132990761976967,-0.209147004862006,-0.0206869193237163,6.70389199559991e-05,-0.00115163144329619,3.44718789519205e-05,-0.0142291560795406,-0.00013067635046914,0.000756379747285905,0.0123372125916244,-8.52475173389357e-05,-0.00285812330843558,0.0166257708375328,-3.87651932082234e-08,0.000705750597661759,3.78145608963055e-05,-3.71194204159284e-06,-3.99099177957616e-05,0.0115245593776195,-6.73601326941649e-05,4.42298144087496e-05,4.19965953122976e-05,-0.0792970971043298,-0.0140221408331944,-0.0169480064164704,-0.862648104250998,0.0545430841914372,-0.000136616884801359,0.00197262753391577,-3.6498581934552e-14,0.000344096202265522,0.006295866830288,-0.00120323223236183,-7.03797177006265e-05,4.99565389020052e-05,-0.00091338583035671,0.0247632274573729,-0.00368253370505406,9.97184608769175e-05,-0.00204143624590807,-0.00629559186030315,0.0264587203846152,-3.67237161626363e-05,0.000771562884626494,0.000342756893313258,-0.000760084495417816,-1.31456858387053e-16,-0.000547649663427762,0.0184482694200278,-0.00140954681004239,-1.36241406226811e-05,-0.0289321824725069,-1.26699283123042e-10,-2.99316131281046e-06,-5.36259589777228e-05,0.000123131283728648,-0.000630755212971387,6.41255291906567e-05,0.000120269546150901,7.18608397293537e-17,9.69708666035616e-05,2.44176657122275e-05,-9.25128445333409e-05,-2.93075156532801e-05,-0.000253882819599933,-0.00013620767753939,-0.00121068480543484,-9.70239147475925e-05,-6.50007663540266e-06,6.47321789568151e-17,2.36832435217368e-05,-0.000988364815033313,-4.45875389056775e-05,5.45260825398398e-07,4.4362977857424e-17,-6.83207301228027e-06,-0.00035802484771686,-2.74722850167585e-06,3.06394462817808e-16,-1.04132116874695e-05,-2.92811843635086e-05,4.56073482164215e-05,0.0023532311478466,0.00101402559381415,7.80173446888149e-17,0.000482571077101194,7.89005237226762e-06,-3.6681499245327e-16,-4.5584716001145e-06,-4.05747223789003e-07,4.02663695561635e-17,-6.4165695477415e-05,-7.12407328740929e-06,-3.08502591194106e-08,-2.83538823048612e-16,-1.42001695710994e-16,-2.54623638692283e-07,4.71794907032573e-16,-3.72235738999439e-06,-4.40268651478394e-16,-1.88877369908097e-16,-5.88670087271473e-07,8.28399806789291e-07,2.28590801095212e-15,3.09674615330996e-07,-1.40813215893073e-06,7.26489970624072e-17,6.47560915312342e-07,2.18716546813955e-16,-2.3951307110847e-16,2.05822247299147e-07,-1.80357196342989e-06,0.000112383468534134,1.79422265573465e-07,-4.93744926899806e-10,0.000714925056470799,-2.98289509300146e-17,3.029437995613e-05,0.000245067016409467,-2.86740350961787e-07,-2.68363552525653e-16,-5.30400066493893e-08,1.05630356813271e-09,-0.000387732949237167,-5.81566257268411e-16,-5.18964531915522e-17,-1.61671710209981e-15,6.64208980091301e-17,3.03574815618131e-15,1.03856639579854e-15,-1.64203304270402e-16,6.39225886342401e-14,0.0819231920519011
