"","c1","c2","c3","c4","c5","c6","c7","c8","c9","c10","c11","c12","c13","c14","c15","c16","c17","c18","c19","c20","c21","c22","c23","c24","c25","c26","c27","c28","c29","c30","c31","c32","c33","c34","c35","c36","c37","c38","c39","c40","c41","c42","c43","c44","c45","c46","c47","c48","c49","c50","c51","c52","c53","c54","c55","c56","c57","c58","c59","c60","c61","c62","c63","c64","c65","c66","c67","c68","c69","c70","c71","c72","c73","c74","c75","c76","c77","c78","c79","c80","c81","c82","c83","c84","c85","c86","c87","c88","c89","c90","c91","c92","c93","c94","c95","c96","c97","c98","c99","c100"
"t31",-0.0759055183804281,-0.192606965549757,-0.0669318749557492,-0.0130216332962764,-0.00115419525282987,-0.0114211689880815,0.000112411523659082,6.94663299075131e-05,0.000650795199835496,-0.143551286089611,0.00666341034237283,-0.000952007768484921,4.70735169809512e-05,3.1643520889381e-05,0.00162469804528967,0.000362284745212455,-0.000493636731737209,0.00102932214445672,-0.00988737262132209,-0.0604544685647042,0.638451853774225,0.153831027449792,0.0113208986101798,-0.00299341080709627,0.00158412546616936,0.696014106806304,-0.00353486915533695,0.0451902049076561,-0.00116045978122555,-2.63646779264814e-05,5.53252826215886e-06,-0.000109175419508771,9.06044499252091e-06,0.000267397395890675,0.000404793071666151,0.000324370715338845,8.00394645777834e-05,-0.000187933638562656,-0.000108099348337728,-1.51978803958155e-05,-0.00560621532841774,-1.07237421003687e-05,8.0882411190533e-07,3.36948045670426e-16,-3.56104799805832e-06,-2.04489519510719e-05,3.34195724068511e-05,4.58119513121857e-17,0.00150779812785712,-7.05169202363453e-05,8.2453722908775e-05,-3.91471360054141e-16,-3.66804444684522e-16,0.000168213244241755,3.73000845079731e-16,-3.31606707910862e-17,4.50643334805185e-06,1.67700309659987e-05,-1.71862575912796e-05,1.33159157072588e-15,-7.01223445996067e-16,-1.06726820948112e-07,-0.000407395163366683,8.46079904222187e-16,6.72888220871934e-05,-8.13762167443313e-06,-1.04151529206737e-15,-1.24439404204392e-06,0.000179885023683786,7.19212928550904e-16,2.23144863101487e-05,-1.62448907700381e-16,-6.87300962444936e-16,-5.32140643193458e-16,-0.000119805575329231,6.03343737217659e-06,1.98805580848017e-16,8.17593686096736e-16,1.11824008533122e-15,2.67019759867477e-16,6.13486613564128e-05,9.80250002937521e-16,1.21800093250763e-15,5.78226447648242e-16,2.37368915174952e-16,-9.53617107063314e-16,-5.7714258715168e-16,4.24803505013347e-16,-1.82789114871787e-17,-2.61117628172379e-07,-3.15291996899598e-15,5.95725340735769e-16,1.7458039500091e-16,-1.14113411162558e-15,1.12185812936972e-15,7.21838881161282e-17,-3.2692373198374e-06,-6.59543619775425e-15,-1.16238871122736e-14,0.100000000000002
"t45",-0.0771387030805021,-0.202781286458834,-0.0715036958295425,-0.014441525846925,-0.00147225946866303,-0.0155239553394096,0.000172290973925979,0.000108309741488897,0.00112858302342977,-0.270857331963685,0.0137329385072051,-0.00290276220650452,0.000254643703870198,-0.000336290064917271,-0.00689907584000118,-0.000749798727242891,0.000524549576906509,-0.000869189439243653,-0.00102886391646362,-0.0066372125777302,0.0737382942089505,0.0179221511293375,0.0017265348811816,-0.000629546742865626,0.000376496131851742,-0.177133577178959,-0.000538664470840813,-0.575485234879921,0.0250222416661617,-1.06205517690137e-05,2.2302665713092e-06,-4.53035561350188e-05,0.703385066384676,0.000112113767435388,0.000170219220477177,0.00014067544191063,3.48281236717876e-05,-8.35711340103408e-05,-4.83615518036888e-05,-6.80350287853932e-06,-0.00252742495898328,-4.86997182691139e-06,3.67971226697635e-07,1.79822880153465e-16,-1.62881801845257e-06,-9.41348850504191e-06,1.55624259101335e-05,-1.1927847884838e-15,0.000716116085598289,-3.35654853325301e-05,3.94147610260158e-05,2.19517519553625e-17,-4.27248479390209e-15,8.16106392586714e-05,-4.09478235513522e-16,9.43359790772577e-16,2.22192513813594e-06,8.30585616698228e-06,-8.59444504663987e-06,1.31695147469795e-14,2.31031790944632e-15,-5.35207842951568e-08,-0.00167136189079248,-1.37569582391616e-14,3.41338726144343e-05,-4.13186290086817e-06,-4.57996745589975e-16,-6.32575877055403e-07,9.15121495352064e-05,-1.24682147041064e-15,1.1405715328577e-05,1.74165377712302e-14,9.65651522260732e-16,-1.35314052728356e-15,-6.16635806544302e-05,3.10570210216292e-06,1.67250434148046e-16,6.14257690265175e-15,-7.60168214495501e-15,-1.84775708551937e-15,3.21173126322035e-05,7.61499789226456e-16,6.56513501217846e-16,-5.52425689819111e-16,1.80870661811683e-15,-6.95140019811334e-16,-1.13110276391467e-15,-7.32788670080438e-16,-1.87513808213245e-16,-1.38004910118725e-07,-3.74633014740365e-15,-3.33580092833567e-16,2.00609610064659e-16,-1.20891651736332e-15,1.29831666906507e-15,-1.71511833502548e-15,-1.74882458624977e-06,-7.15332522570816e-15,-1.18212575308188e-14,0.0999999999999958
"t46",-0.0771470498042187,-0.202850124683352,-0.071534623627779,-0.014451127762482,-0.00147440786261245,-0.0155516557556451,0.00017269496544327,0.000108571783998391,0.0011318045569597,-0.271715397020864,0.0137805724815811,-0.00291589199448789,0.000256039543681698,-0.000338760593854399,-0.00695627169792826,-0.000757253265257318,0.000531363940475923,-0.00088188661186586,-0.000970752580572876,-0.00628440119629478,0.0700386859769238,0.0170318812187926,0.0016640234561732,-0.000614383707052163,0.00036884434075117,-0.174226148883266,-0.000530559982444993,-0.567280521855407,0.0246655821433043,-1.0493949679309e-05,2.20378586032378e-06,-4.46699718301248e-05,-0.710796230343567,0.000111153784677843,0.000168710861883736,0.000139400502474371,3.45139484691522e-05,-8.28436862849338e-05,-4.79451289743935e-05,-6.74498719181957e-06,-0.00250596650692538,-4.82918527566981e-06,3.64899839943248e-07,1.08958012274479e-15,-1.61536067945381e-06,-9.33666366784913e-06,1.54382196407872e-05,1.24460171629245e-15,0.000710618479148475,-3.33089347787776e-05,3.91160532745593e-05,1.9703201761857e-15,1.88790388705565e-15,8.10103395572824e-05,-3.48202273695423e-15,-1.28771943374218e-15,2.20611189023324e-06,8.24729267317837e-06,-8.53509325471225e-06,-1.32843367850795e-14,-1.2332325145909e-15,-5.31540588216246e-08,-0.00170496951771116,1.0481106883478e-14,3.39047550353492e-05,-4.10418353978556e-06,6.37106215238126e-16,-6.2834872694832e-07,9.09016086056504e-05,1.79914947211516e-16,1.13303796930927e-05,-2.02212326097826e-14,2.02028491465577e-16,-5.19650564560153e-16,-6.12622674793531e-05,3.085494160737e-06,3.46658592583478e-16,-3.77315571693922e-15,5.18537544440228e-15,1.66944174148407e-15,3.19157892537847e-05,3.27358233747025e-16,1.17283717373408e-15,2.3266877268185e-16,-3.90269883599285e-16,7.92460437201675e-16,-1.65448599126483e-15,1.67736548745525e-15,-4.22620345721602e-16,-1.3715668756669e-07,-2.79569968753592e-15,-1.9177608409812e-15,1.22075246025122e-15,-9.29300104624334e-16,2.26199214190072e-15,8.14815397608314e-16,-1.73835714418638e-06,-7.84735574154819e-15,-1.16320454188774e-14,0.100000000000008
"t99",-0.077942919738954,-0.209413986908259,-0.0744836595067896,-0.0153666976963858,-0.00167926526183077,-0.0181929944285997,0.000211216943604578,0.000133558418926242,0.00143898698290359,-0.353533960104551,0.018322562703584,-0.00416781536990953,0.000389129716780292,-0.00057430927076474,-0.0124093963298796,-0.00146795103965683,0.00118098753892054,-0.00209229084910626,0.00456347882610009,0.0273144546023709,-0.282269204803448,-0.0677465823427322,-0.00428716045420669,0.000828034619360133,-0.000358548377337259,0.101663502689787,0.000237357337597177,0.209044092786827,-0.00908106221314104,1.27167332825805e-06,-2.53459978507562e-07,6.02858088588873e-07,0.00242141265862958,2.04212617257684e-06,4.1711014873496e-06,1.23133700197426e-05,3.26922843928926e-06,-1.11313147180494e-05,-6.94573973656089e-06,-9.84402134699257e-07,-0.00039565126807285,-8.2075099648041e-07,6.30827354180615e-08,1.01009738815503e-15,-2.93203764978889e-07,-1.78870993370907e-06,3.2263465678081e-06,1.29628701442326e-15,0.000167943114501473,-7.96529572408775e-06,9.55698824141207e-06,-2.7995643416043e-15,5.17808147122907e-15,2.09957448243933e-05,1.75817727108186e-15,1.01281706456363e-15,5.71967727206609e-07,2.04680105877053e-06,-5.21354956335132e-07,-2.76254691952221e-13,-6.29052508897886e-15,2.15402097134802e-08,0.818091662785382,-4.01729163899823e-13,1.41789168432396e-05,-1.7010484407544e-06,9.26743967467621e-15,-2.58089535265557e-07,3.7157890312349e-05,1.08130535534109e-14,4.55189789028374e-06,1.20215455709135e-14,-8.63070126440286e-15,2.24891309324141e-15,-2.45140096719898e-05,1.2347148354999e-06,2.0301444213252e-15,1.00665941803316e-14,1.3762441603602e-15,-9.94257291928236e-15,1.31154852043939e-05,1.27357390839211e-15,-4.48273365896946e-15,3.85042791019286e-15,-4.62115860068193e-16,7.17807027217237e-17,-5.73272463731412e-15,-4.65949627179469e-16,-1.92877305003303e-16,-5.76285976600197e-08,-8.59702587960005e-16,-7.49343647623393e-17,2.2480640112195e-15,-3.74125194251627e-15,3.67627064978979e-15,-6.67388685403939e-16,-7.52880222392384e-07,-6.65788320799318e-15,-1.49831333261654e-14,0.0999999999999878
"t101",-0.077952384629425,-0.209491235988749,-0.0745182259980975,-0.0153773253182447,-0.00168157337438459,-0.0182224333441347,0.000211638994890532,0.000133831588932711,0.00144230542087343,-0.354410748461118,0.0183708810288192,-0.0041808311389033,0.000390488940840892,-0.000576647314063508,-0.0124628782336195,-0.00147479671557674,0.00118708439967373,-0.00210352648836999,0.00460479999392775,0.0275639866983749,-0.284871348341776,-0.0683721311905248,-0.00432931970868735,0.000837297524779529,-0.000362890900160968,0.103073823812684,0.000240896088536264,0.212325240910851,-0.00922363203302825,1.29708005437179e-06,-2.58566671256603e-07,6.1722200663607e-07,0.00248029818870008,2.09418928378689e-06,4.27900988741919e-06,1.2692541196724e-05,3.3720313334085e-06,-1.15380196130027e-05,-7.21171538251193e-06,-1.02228807715263e-06,-0.000411797125655815,-8.5650783589379e-07,6.58777982904942e-08,9.77156947184712e-18,-3.06897998577311e-07,-1.87808486663479e-06,3.41111777663198e-06,2.59367604283165e-19,0.000180923339970368,-8.60667176182358e-06,1.03945408476021e-05,4.2101432096244e-15,-3.23875271873536e-15,2.36810884348304e-05,7.6268671225077e-16,3.06247088472869e-15,7.24100124350169e-07,2.83323294824679e-06,-3.89628164052888e-06,1.47515084669295e-13,1.06101463077176e-14,-3.67839800809052e-08,-0.406644721017861,0.707106781186749,1.05478569002634e-05,-1.29242041450588e-06,8.81386338377926e-15,-2.00558274127614e-07,2.92468158029586e-05,-1.55006686267143e-14,3.7963784778329e-06,2.76122528407242e-14,1.55258969760885e-14,-3.72879013294255e-15,-2.14551998263718e-05,1.08120231213992e-06,7.52796294205998e-17,-1.71996456510519e-14,1.38245419627717e-15,7.44484454465935e-15,1.21117105176199e-05,3.6479056056475e-15,8.37463054928837e-15,-3.845497540027e-15,9.89955949317969e-15,-5.02995996799181e-15,3.0006499738113e-15,4.02490245287541e-15,3.24859589533243e-17,-5.40279054872603e-08,-4.83970777208909e-15,1.43971410350595e-15,-1.03730642609585e-15,1.98544682387707e-15,5.99485929132021e-16,-3.84992711284681e-16,-7.14984152286948e-07,-6.59803437227444e-15,-1.27102962402704e-14,0.100000000000002
"t102",-0.0779523846294251,-0.209491235988749,-0.0745182259980979,-0.015377325318245,-0.00168157337438468,-0.0182224333441343,0.000211638994890964,0.000133831588931742,0.0014423054208732,-0.354410748461117,0.0183708810288202,-0.00418083113890376,0.0003904889408416,-0.000576647314062894,-0.0124628782336229,-0.00147479671557674,0.00118708439967369,-0.00210352648836999,0.00460479999392832,0.027563986698375,-0.284871348341774,-0.068372131190523,-0.004329319708685,0.000837297524778528,-0.000362890900160263,0.103073823812681,0.000240896088535718,0.212325240910859,-0.0092236320330308,1.29708005296595e-06,-2.58566673102153e-07,6.17222005807665e-07,0.00248029818867584,2.09418928319314e-06,4.27900988406367e-06,1.26925411927275e-05,3.37203133874233e-06,-1.15380196159837e-05,-7.21171538239236e-06,-1.02228808058807e-06,-0.0004117971256737,-8.56507841203159e-07,6.58778000528014e-08,-7.48761715074166e-16,-3.06897988325411e-07,-1.87808486674847e-06,3.41111777189302e-06,-5.40561040263805e-16,0.000180923339953193,-8.60667177181542e-06,1.03945408423116e-05,-3.43428088986083e-15,-1.49658941305408e-15,2.36810884269678e-05,4.33286116261252e-16,-4.02339405857638e-15,7.24100076202909e-07,2.83323295115929e-06,-3.89628165830756e-06,1.33263405612953e-13,-5.02000361180965e-15,-3.67840939506064e-08,-0.406644721018558,-0.707106781186346,1.05478569033942e-05,-1.29242043788268e-06,-2.1006041692727e-14,-2.00558160772509e-07,2.9246815777146e-05,6.69716796109189e-15,3.79637845490719e-06,-3.89663006661529e-14,-8.86625280817535e-15,8.40413653967495e-16,-2.14551998601797e-05,1.08120234452103e-06,-2.99898346909341e-16,7.94368522608201e-15,1.07852638124619e-15,3.13247057632166e-15,1.2111710520706e-05,-2.17521551991326e-15,-2.68444765270193e-16,1.70970978301787e-15,-9.65604953741757e-15,3.392659362118e-15,1.14243909754463e-15,-1.9000438836118e-15,4.2710030527699e-16,-5.40279066999796e-08,-3.45778593074986e-15,1.10211328302157e-16,-4.52994376721417e-16,-1.61554515977156e-15,-7.01036398333989e-16,5.05778472200254e-16,-7.14984139143275e-07,-7.04240483030711e-15,-6.75832818194709e-15,0.10000000000001
"t91",-0.0762197441773703,-0.195196395608553,-0.068094889143954,-0.0133824236643443,-0.00123471849215447,-0.0124584012399505,0.000127515007738675,7.92609751455869e-05,0.000771071589247077,-0.175561782241968,0.0084391042797545,-0.00144027529559187,9.88783270475527e-05,-5.97348441800518e-05,-0.000487597907723216,8.76433634745736e-05,-0.000243514250229082,0.00056405079981244,-0.00786995936330651,-0.0482324268865989,0.510583805492642,0.123073987277467,0.00920314327264821,-0.00251864734426105,0.00137466245976878,-0.649806738551482,-0.00305265685228669,0.457437270048795,-0.0190721099672591,-2.11402603926575e-05,4.44385216520622e-06,-8.96957977479956e-05,1.5326147873862e-05,0.000220941107275993,0.000334829657262255,0.000271065490866764,6.69516972494412e-05,-0.000158140636149479,-9.11035470146398e-05,-1.28104425684967e-05,-0.00473383676835071,-9.07110330794079e-06,6.84469836300208e-07,-1.04235230276185e-15,-3.01738144109875e-06,-1.73528381177239e-05,2.84337192798434e-05,1.49974465684889e-16,0.00128839611287093,-6.02843812472252e-05,7.05529288129334e-05,3.33562842613992e-17,9.44808681083371e-16,0.000144381897409789,3.35734822230902e-16,2.28955535062965e-16,3.88078389316317e-06,1.44548635740001e-05,-1.48416581516647e-05,1.44227391313935e-15,-4.48393408595939e-16,-9.2208497580752e-08,-0.000537300266030946,4.99721078958636e-15,5.82785709667651e-05,-7.04925171250506e-06,-6.85242718008289e-16,-1.07820842069805e-06,0.000155884997053026,9.10045396548407e-16,1.93552241068209e-05,1.64083883076962e-15,-2.67686408650804e-16,-3.59351577136374e-16,-0.000104058531075829,5.24051431670066e-06,1.22755498850244e-15,2.38011648011758e-16,3.72624069738967e-16,-3.10858178763647e-16,5.34612855775019e-05,7.07745695267872e-16,-1.13555193239734e-16,-2.82804969921443e-16,1.11575763351541e-15,-3.09207109115038e-16,-8.43853996704858e-18,6.11919544704882e-16,4.14195346246722e-16,-2.27964104604888e-07,-2.94898881699048e-15,5.08558256206429e-16,-2.26169033404893e-16,-1.62559722025854e-15,8.45216426760374e-16,-2.2699311888277e-16,-2.86077808983529e-06,-7.41950918468546e-15,-1.20844723798103e-14,0.0999999999999978
"t94",-0.0784806601536661,-0.21488102649886,-0.0771550400348843,-0.0163915611058327,-0.00219848957170547,-0.0286403920963641,0.000852106040851888,0.000785734878352618,-0.00266632819356447,0.215498083980305,-0.00417713199793844,-0.000668646894527065,9.3494851317292e-05,-8.24888302409732e-05,0.349418204500081,-0.000796389738762823,0.000529702336656999,-0.000903148990719996,0.000772020671162818,0.00442046908691684,-0.0435244008261475,-0.0103520693478119,-0.000405744293829541,-4.77521157040893e-05,6.56949968732559e-05,-0.000238312016986188,-0.000295898674244615,0.000562964702855495,4.94977811834945e-05,-3.10483664157696e-06,6.530955831994e-07,-1.24944040783985e-05,2.96821364612065e-07,2.84540224079953e-05,4.20863520080445e-05,1.3188730809025e-05,2.0483537225114e-06,5.06536025662155e-05,7.09916581933245e-05,1.11680110141998e-05,0.509932470882095,-1.28125926757187e-05,8.13554111381181e-07,-1.51875878510475e-14,-2.57528057087843e-06,-1.1837030917789e-05,1.55997652631677e-05,-1.19916907078034e-15,0.00248570475870687,-2.7339634083752e-05,3.1576533246192e-05,7.49980663432806e-15,-1.25790108579227e-15,6.18409000609587e-05,-4.31380536886868e-15,7.15948923000118e-15,1.61918019245213e-06,6.00411141517096e-06,-6.12526569017438e-06,0.707106781186549,3.27295612826966e-14,-3.80155712472929e-08,-5.92774428313921e-05,-1.43200769923472e-14,2.39615071861926e-05,-2.89823663180243e-06,-1.50618972623161e-14,-4.43290643670984e-07,6.40906281903466e-05,8.70625040521335e-15,7.9605720385424e-06,-1.03459753845383e-15,-9.54182153386441e-15,3.91485950202312e-15,-4.28569227039762e-05,2.15838393462588e-06,4.0801754413678e-15,3.08289251403306e-15,5.28582627975487e-15,5.22715271826823e-15,2.2169616935081e-05,2.13001312117512e-15,6.16987103779391e-15,9.61045288588996e-16,3.1474111324123e-15,-1.12020295563968e-15,-1.64055261260289e-15,3.37696659337489e-15,-8.89578534040347e-16,-9.50591187319165e-08,-2.57634161398391e-15,1.86635541992921e-15,1.04245202543483e-15,7.55609469913052e-16,1.39566920562483e-15,-6.23434702669258e-16,-1.2030238970772e-06,-7.87721068465493e-15,-1.26077095108068e-14,0.0999999999999926
"t95",-0.0784806601536661,-0.21488102649886,-0.0771550400348844,-0.0163915611058327,-0.00219848957170507,-0.0286403920963641,0.000852106040851574,0.000785734878352525,-0.00266632819356437,0.215498083980304,-0.00417713199793836,-0.000668646894527676,9.34948513179818e-05,-8.24888302404058e-05,0.349418204500081,-0.000796389738763031,0.000529702336657974,-0.00090314899072155,0.0007720206711581,0.00442046908691828,-0.0435244008261491,-0.0103520693478106,-0.000405744293829424,-4.77521157065168e-05,6.56949968734688e-05,-0.000238312016985355,-0.00029589867424448,0.000562964702859103,4.9497781183871e-05,-3.10483663976295e-06,6.53095580548866e-07,-1.24944040791122e-05,2.96821390827207e-07,2.84540224086732e-05,4.2086352007731e-05,1.31887308139945e-05,2.04835372309082e-06,5.06536025673542e-05,7.09916581952201e-05,1.11680110123272e-05,0.509932470882096,-1.28125926735581e-05,8.13554108771638e-07,-1.70164707170035e-14,-2.57528057501855e-06,-1.18370309249376e-05,1.55997652543211e-05,4.21724757843901e-15,0.0024857047587213,-2.73396340875473e-05,3.15765332409211e-05,-5.29147921751866e-15,-1.72846140783772e-15,6.18409000548921e-05,4.25616003397359e-15,-6.7290751508678e-15,1.61918017444405e-06,6.00411139884295e-06,-6.12526586409636e-06,-0.707106781186546,-2.97545222803971e-14,-3.80155198291503e-08,-5.92774433126738e-05,8.20589505978414e-16,2.39615072096502e-05,-2.89823662170819e-06,1.12498442619743e-14,-4.43290649177553e-07,6.40906281697826e-05,-1.11769849243535e-14,7.96057206652803e-06,-5.73160986498793e-15,6.14201585834061e-15,-4.97997719849047e-15,-4.28569227231336e-05,2.15838393053387e-06,-3.34263479914564e-15,-3.30618836749103e-15,-6.14358121245691e-15,-4.58487430812172e-15,2.21696169341522e-05,-6.27417974397265e-16,-1.97392043874578e-15,-7.56585271582011e-16,-4.31654594623141e-15,1.4570892581617e-15,-1.02348687328013e-15,-2.57711914122188e-15,-1.64025921954338e-15,-9.50591201413144e-08,-3.80619332808608e-15,-6.14096406909302e-16,1.68141165062353e-16,-3.26760027944203e-16,-2.30893178275361e-17,-1.36708007507941e-15,-1.2030238891634e-06,-6.59416206181411e-15,-1.02137949191455e-14,0.100000000000006
"t129",-0.0786006486473858,-0.215886730302329,-0.0776106962580552,-0.016536860441107,-0.00223807335430038,-0.0292522923055524,0.000874868365395755,0.00080725273447705,-0.00274937133131648,0.222758169456256,-0.00432755938630712,-0.0006976362590598,9.80867997973074e-05,-8.73071961371925e-05,0.371209366477237,-0.000850817337490779,0.000570513506017943,-0.000976085941196714,0.000893770422706731,0.00512625478444729,-0.0505620633199931,-0.0120297546534807,-0.000477640359483387,-5.7992549714104e-05,8.16445821522345e-05,-0.000310895554085935,-0.000398508394640698,0.000778197732044655,6.84305246450622e-05,-5.13850311886439e-06,1.09045886494726e-06,-2.66546991859037e-05,6.6119009708987e-07,7.13445611039087e-05,0.000110190528609067,0.000118448823481698,3.06559284278657e-05,-0.000129164432295202,-0.000114960370501749,-1.73066762192924e-05,-0.489774855110494,7.40464314611844e-06,-4.10962327870426e-07,1.47297573081688e-14,8.27777360693731e-07,1.79777897101151e-06,1.04266567097509e-06,-1.79371680620881e-15,0.000750139512189939,-8.7869087556702e-06,1.12572456917896e-05,-8.82242075768551e-16,7.61869038047214e-16,2.82387942047538e-05,-1.07191592058564e-16,-6.84317976810061e-16,8.70941714599045e-07,3.34298999924211e-06,-3.62659889890045e-06,-5.32972254368512e-15,-3.69770881416774e-15,-2.27676952400353e-08,-3.57264580372134e-05,5.82561000769665e-15,1.53268776391067e-05,-1.86152710323797e-06,2.92060603245548e-16,-2.86172363424077e-07,4.15091425898825e-05,2.0456079030336e-15,5.25662992291279e-06,3.20158586603059e-15,-2.22336814086499e-15,5.08339628813463e-15,-2.90439806487373e-05,1.46324442309367e-06,4.31403052637172e-15,-3.22612541752337e-14,0.707106781186549,-1.68259838314188e-14,1.58452523602375e-05,1.82511280545349e-14,-2.70497843437501e-14,6.84111599315199e-15,4.15868774795834e-15,8.85802246226769e-15,1.42240966586277e-15,3.17226933773704e-15,-5.45870470101943e-15,-6.9640315550099e-08,6.7624823492652e-15,-9.1180134931979e-16,9.51554158910474e-16,3.75949803388885e-16,1.56087220819825e-15,-5.92446568541915e-16,-9.05806584060263e-07,-2.71228151678921e-15,-1.55572154485628e-14,0.099999999999995
"t130",-0.0786006486473858,-0.215886730302329,-0.0776106962580552,-0.016536860441107,-0.00223807335430068,-0.0292522923055525,0.000874868365396029,0.000807252734477122,-0.00274937133131662,0.222758169456256,-0.00432755938630705,-0.000697636259060293,9.80867997973894e-05,-8.73071961368774e-05,0.371209366477238,-0.000850817337491082,0.000570513506017748,-0.000976085941196937,0.000893770422706103,0.00512625478444699,-0.050562063319994,-0.0120297546534808,-0.000477640359482973,-5.79925497147402e-05,8.1644582153469e-05,-0.000310895554084027,-0.000398508394640431,0.000778197732048416,6.84305246447031e-05,-5.13850311874021e-06,1.09045886479496e-06,-2.66546991850932e-05,6.61190084461083e-07,7.13445611038181e-05,0.00011019052860769,0.000118448823481954,3.06559284277535e-05,-0.000129164432295736,-0.000114960370503779,-1.73066762186237e-05,-0.489774855110496,7.40464314592312e-06,-4.10962330182985e-07,1.60721032916964e-14,8.27777361092948e-07,1.79777896957965e-06,1.0426656728838e-06,-1.97638073529894e-16,0.000750139512188961,-8.78690875093315e-06,1.1257245692004e-05,-1.36062760735109e-15,1.42400662736482e-15,2.82387942052863e-05,4.76351399299636e-16,1.02978790464308e-16,8.70941715386986e-07,3.34299000230988e-06,-3.62659890152403e-06,6.32761921487832e-15,2.71111152738938e-16,-2.27676932557896e-08,-3.57264580371027e-05,5.83948779550391e-15,1.53268776367487e-05,-1.86152710510893e-06,-5.15588393659427e-16,-2.86172364659922e-07,4.15091425892071e-05,1.57110435398369e-15,5.25662989826405e-06,1.14348965267336e-15,3.95809140189053e-15,-5.69796044348862e-15,-2.90439806506969e-05,1.46324442555966e-06,-2.77986693270096e-15,3.51277860078082e-14,-0.707106781186546,1.69889386616641e-14,1.58452524133338e-05,-1.64111500143436e-14,2.76478403713486e-14,-6.09007357427425e-15,-1.67278683498865e-15,-1.10180281562459e-14,-2.10976288566207e-15,-1.91031016629095e-15,7.8055560673889e-15,-6.96403246930342e-08,-1.28043262220609e-14,3.80841276989069e-16,-1.13088657125418e-15,-4.6438845276242e-15,1.74672321363284e-15,1.75009584618954e-15,-9.05806588041045e-07,-1.08791624254646e-14,-8.30276703522271e-15,0.100000000000001
"t110",-0.0786765343788469,-0.216598199670891,-0.0779473993406599,-0.0166561798296477,-0.00228352347374815,-0.0300521405337124,0.000911884299390552,0.000843267440468198,-0.00291380125342887,0.238999275736931,-0.00470650574613905,-0.000811536687490181,0.000127324041925329,-0.000318779293068027,-0.343031054059569,-0.000316645700680357,0.00036041175766117,-0.000659047627204021,0.00071838544356814,0.00412053639899425,-0.0406428281823972,-0.0096697471955053,-0.000383556698961619,-4.62359895069643e-05,6.45935883592116e-05,-0.000241297014213861,-0.000305122697586771,0.000589107096014813,5.18000183235088e-05,-3.59897422654312e-06,7.60956693337848e-07,-1.6933572663217e-05,4.13811938743125e-07,4.29620600813092e-05,6.54803886762383e-05,5.5780551768274e-05,1.38350838363587e-05,-3.33970860688431e-05,-1.94601210768778e-05,-2.74274938317951e-06,-0.00427786693555198,-1.75746505015e-06,1.32704838652405e-07,2.74282664913932e-15,-5.75817201441599e-07,-3.16003888447989e-06,4.08806370749582e-06,-8.66716433600708e-15,-0.503018135227722,-8.32345113560403e-05,4.63624126260395e-05,-1.04379796230366e-14,2.37561974173881e-16,5.8299098221199e-05,-6.45379274822725e-16,-7.26702265162653e-16,1.4112288270478e-06,5.19251766670189e-06,-5.25274885395409e-06,-1.98558398128157e-15,3.50888383674638e-15,-3.25712137929911e-08,-5.07673549854355e-05,4.08526552930979e-14,2.04989703975041e-05,-2.47967280539865e-06,2.25253680710585e-14,-3.79327349286005e-07,5.48490430838587e-05,-4.05358743576238e-14,6.81910122627182e-06,-0.707106781186544,-4.54578101343494e-14,7.13344324557895e-14,-3.67835435960625e-05,1.85257216243552e-06,8.71358292255403e-15,1.03691237511154e-14,1.64231005804738e-15,-1.2063143085782e-15,1.9149581200974e-05,9.41852145109808e-15,-2.29369096387601e-15,-7.75458643070921e-15,-1.00065428951234e-15,-4.92683020563103e-15,3.30511280272971e-15,2.86298294533865e-15,-1.2209368253513e-15,-8.24383611812622e-08,-5.05780723776826e-15,-8.61898023574872e-16,-3.63455780467435e-16,1.29389473955825e-15,6.16553897294838e-15,3.53178247979462e-15,-1.04871673411752e-06,-7.17407698197248e-15,-9.30033626164645e-15,0.100000000000005
"t111",-0.0786765343788469,-0.216598199670891,-0.0779473993406599,-0.0166561798296477,-0.00228352347374811,-0.0300521405337126,0.000911884299390623,0.000843267440468305,-0.00291380125342877,0.238999275736931,-0.00470650574613885,-0.000811536687490252,0.000127324041925324,-0.000318779293068099,-0.343031054059568,-0.000316645700679956,0.000360411757661381,-0.000659047627203521,0.000718385443565965,0.00412053639899254,-0.0406428281823982,-0.00966974719550564,-0.000383556698960674,-4.62359895081794e-05,6.45935883585949e-05,-0.000241297014212917,-0.000305122697586581,0.000589107096011718,5.18000183240361e-05,-3.59897422755932e-06,7.60956689763384e-07,-1.69335726652599e-05,4.13811901203709e-07,4.29620600795132e-05,6.54803886716634e-05,5.5780551767542e-05,1.38350838365201e-05,-3.33970860737163e-05,-1.94601210743635e-05,-2.74274938876771e-06,-0.00427786693554365,-1.7574650510153e-06,1.32704838372173e-07,2.22663017706165e-15,-5.75817204714774e-07,-3.16003888733999e-06,4.08806370098397e-06,-7.1798510679148e-15,-0.503018135227712,-8.32345113584611e-05,4.63624126267038e-05,-9.363896173133e-15,3.93548726821161e-15,5.82990982203247e-05,2.44383263629122e-15,-7.90228241432503e-15,1.41122882983829e-06,5.19251765901551e-06,-5.2527488608829e-06,-6.66586791946673e-15,-3.23799060148118e-15,-3.25711942471971e-08,-5.07673550060856e-05,-2.56358260941409e-14,2.04989703990178e-05,-2.47967280785333e-06,-2.10981064167565e-14,-3.79327350353782e-07,5.48490431744846e-05,3.99423854237224e-14,6.81910103836151e-06,0.707106781186551,4.39357011830285e-14,-7.19804349030633e-14,-3.67835435031592e-05,1.85257217892938e-06,-4.04928948861957e-15,-1.25954010537249e-14,-2.38130189911473e-16,5.47919805813438e-15,1.91495812218182e-05,-6.32690148286828e-15,3.82223621357599e-15,9.73493969813277e-15,-2.20839921562678e-16,2.56620333609681e-15,-2.8417724038481e-15,-1.3181560643894e-15,4.05963278355704e-15,-8.24383677374776e-08,8.24986484410247e-17,2.59184706273559e-15,-2.16402200476222e-16,-5.35836088544568e-15,-4.80624816383383e-15,-5.60416784932556e-15,-1.04871672100881e-06,-5.20723436580172e-15,-1.21235515397675e-14,0.100000000000007
"t125",-0.0787157683729686,-0.216927535383678,-0.0780967187818378,-0.0167038939072402,-0.00229665990674706,-0.0302564324440894,0.000919584095024382,0.000850561120686358,-0.00294233196045026,0.241522823703616,-0.00475947689323982,-0.000822435835126752,0.000129247872200387,-0.000324444932012403,-0.34950995450987,-0.000323153887677443,0.000368678827625193,-0.00067482562906422,0.000749239954734023,0.0042993422100993,-0.0424250987789172,-0.0100945861632119,-0.000401693077809615,-4.87836374072446e-05,6.85123120871365e-05,-0.000258623738476675,-0.000329141152362797,0.000638681784788889,5.6160459142713e-05,-4.01984530908624e-06,8.51022916709061e-07,-1.95072556327474e-05,4.78751753699158e-07,5.02320052056535e-05,7.68278295614e-05,6.88655882561859e-05,1.72106292834374e-05,-4.44647227256464e-05,-2.66375331690717e-05,-3.76640335505193e-06,-0.00612282367702891,-2.6632482273594e-06,2.04572873704769e-07,-2.36388407596184e-15,-9.44018161255536e-07,-5.74386790365658e-06,1.08973348990318e-05,8.09411008478312e-15,0.496954191884614,4.89422423671603e-05,-6.57829607468178e-06,1.0461665731067e-14,-3.57356175525769e-15,2.50238979603965e-05,-1.39740783635796e-15,4.65532252751615e-15,8.96603241216318e-07,3.47570415950711e-06,-3.80241668126872e-06,2.66602961630696e-15,-1.9159769742327e-15,-2.38844903763079e-08,-3.74858119732758e-05,8.09425309266194e-15,1.60543341965155e-05,-1.94926077118073e-06,-2.14215544144438e-16,-2.99533661768506e-07,4.34347510271593e-05,-1.44172982578188e-15,5.48964701809594e-06,8.07176798128832e-15,-9.60744589341941e-16,-7.0030290988171e-15,-3.02320996078486e-05,1.52302745718156e-06,-6.02917488620073e-15,0.707106781186549,3.4147412712967e-14,-2.28250220431906e-14,1.63528074028687e-05,9.61537713446969e-16,1.34767707569697e-15,3.57161318318121e-15,3.49119004184389e-16,-1.02960835928135e-15,4.89714054450701e-15,2.59332328474313e-15,5.25255206879675e-15,-7.15394970566043e-08,3.52532895675973e-15,-3.79518972716245e-15,-1.69543771459149e-15,-3.9349484680675e-15,7.29179530556956e-15,-1.8454999775659e-15,-9.25427166034363e-07,-5.73431685755991e-15,-1.63032702879956e-14,0.0999999999999916
"t126",-0.0787157683729685,-0.216927535383678,-0.0780967187818378,-0.0167038939072401,-0.00229665990674709,-0.0302564324440894,0.000919584095024756,0.000850561120686365,-0.00294233196045041,0.241522823703616,-0.00475947689323969,-0.000822435835126859,0.000129247872200095,-0.000324444932011688,-0.349509954509869,-0.000323153887677136,0.000368678827625481,-0.00067482562906353,0.000749239954734127,0.00429934221009984,-0.0424250987789165,-0.0100945861632122,-0.000401693077808343,-4.87836374078429e-05,6.85123120881821e-05,-0.000258623738476606,-0.000329141152361839,0.000638681784787432,5.616045914236e-05,-4.01984530884357e-06,8.51022917231108e-07,-1.95072556320131e-05,4.78751763482999e-07,5.02320052082023e-05,7.68278295587065e-05,6.88655882556166e-05,1.72106292830942e-05,-4.44647227251869e-05,-2.66375331685841e-05,-3.76640335304877e-06,-0.00612282367703123,-2.66324822713068e-06,2.04572872756595e-07,-1.34455633028432e-15,-9.44018160566123e-07,-5.74386790192264e-06,1.0897334903162e-05,7.70491785682615e-15,0.496954191884618,4.8942242368084e-05,-6.57829607871874e-06,8.42276368233071e-15,-1.376765311051e-15,2.50238979589963e-05,-3.02116017209259e-16,3.94151125405006e-15,8.96603242709865e-07,3.47570415245801e-06,-3.80241668020861e-06,9.11226205303641e-15,1.26225888515701e-15,-2.3884479721431e-08,-3.74858119563451e-05,-1.68302538101731e-14,1.60543341949454e-05,-1.94926076394142e-06,-2.65878724294186e-15,-2.99533646930753e-07,4.34347510378914e-05,3.85807472424095e-15,5.4896470471905e-06,-1.47155595991426e-14,1.00820870435872e-15,5.65915859936052e-15,-3.02320995624355e-05,1.52302744082383e-06,3.90454850070208e-15,-0.707106781186545,-3.41902838996634e-14,1.88834625815256e-14,1.63528073786473e-05,-9.46606537928432e-16,4.26765117286948e-16,-4.37424144161721e-15,1.94047291827092e-15,1.9325897423851e-15,-7.21041747932553e-15,-2.05626817067076e-15,-7.99720296065086e-15,-7.15394961238189e-08,-1.14599525841678e-14,2.34915120486588e-15,3.09575341935876e-15,2.8431016693143e-15,-3.63427031250017e-15,2.82546963173926e-15,-9.25427185272473e-07,-9.6227039161136e-15,-8.92220160867507e-15,0.0999999999999997
"t128",-0.0955190441814659,0.00741660622565868,0.243261021006692,-0.0123700472550831,-0.00260105820191123,-0.0634424584531444,0.00020807190338941,0.000267060978284095,-0.00140660548815359,0.0061705234551504,0.142622379116526,0.00214544894412942,3.89809721450436e-05,-0.000145019804878229,-0.000145644840116428,-0.173911542192284,-0.000168793976607838,0.000319713732440991,0.000386902461102375,0.00483615082854587,-0.0694242407060334,0.287983129736653,-0.000192976981400065,1.48278030709016e-06,1.44537805814876e-05,-2.18245697384319e-06,-0.000240314536214133,7.39005386828084e-06,2.47151548154162e-05,-1.25221618641729e-06,2.64984739239512e-07,-5.93770389156559e-06,6.05206612949716e-09,1.50851994336007e-05,5.5149350387654e-05,4.61903988425913e-05,1.14276007611039e-05,-2.6894623809935e-05,-6.42790133020743e-06,-9.02660410580098e-07,-1.53414734177624e-05,-6.39029564300643e-07,1.14298736792267e-07,-2.88891913566672e-15,-4.95085228384531e-07,-1.1681521993504e-06,1.80907697062353e-06,1.15928437790666e-15,3.51912696766987e-06,-0.00214841653696652,7.33343055442888e-06,-3.00156691632836e-16,3.74422530595281e-15,8.97001072497847e-06,4.50971798968368e-16,2.67325140944033e-15,-5.21055802596241e-08,-4.50772759984945e-07,3.03713114992628e-06,-1.07084699965451e-14,-4.85771382089514e-15,9.5711241874999e-09,8.42727157678963e-07,-2.04187362322157e-14,-1.97341911206965e-05,6.20557834337366e-06,-7.3735298110064e-15,4.7307877665953e-07,-0.0015388692745807,2.91469310350465e-15,-1.67565149434104e-05,-5.80126375285168e-14,-3.18997254582316e-14,-1.86710423290684e-13,0.882552088185888,0.000382538976560446,1.27928622901981e-14,2.89834297350058e-14,-6.14554926315654e-16,-8.13821138879249e-15,0.00320572420204387,-6.11831252484953e-15,-6.25327959731563e-15,-1.25480967567803e-16,-8.35885333638178e-15,-5.52510904486351e-15,1.56611486829509e-16,-6.73357871629165e-16,-2.00126200682673e-15,-1.02547655896319e-07,-6.83734378635586e-15,4.44087778081219e-15,1.66219600258119e-15,-1.01239298457468e-16,-9.56460838415187e-16,2.57692474835406e-15,-0.0116573788936008,-4.20771040858662e-15,-1.22683283020847e-14,0.0999999999999518
"t165",-0.0957082435386087,0.00746128799998337,0.245105674656261,-0.0125099989413129,-0.00265974646610808,-0.0651297941001974,0.000214918855656549,0.00027605852779884,-0.00146010879735826,0.0064231645335234,0.148836518228764,0.00225642493062469,4.12405324424089e-05,-0.000154846320430555,-0.000156105296821673,-0.187451709206303,-0.000183379681206421,0.000348481899309596,0.000446740700612267,0.00559110096401315,-0.0803651296970946,0.333445152099008,-0.000225523480245014,1.76929409334653e-06,1.74923607048307e-05,-2.71292842950622e-06,-0.00030343923928179,9.44236583142084e-06,3.158063347596e-05,-1.70528398127408e-06,3.61760020082562e-07,-8.5548809897563e-06,8.78228348204224e-09,2.22667340977445e-05,8.184764553845e-05,7.35656305114846e-05,1.83699021204466e-05,-4.64556602698801e-05,-1.13796253069937e-05,-1.60233859907704e-06,-2.81294686786976e-05,-1.21742864954204e-06,2.2000122301931e-07,1.33110374244425e-15,-9.8502773364933e-07,-2.43088658049375e-06,4.16108969156678e-06,1.00363001015125e-15,1.06564334921241e-05,-0.00680487711233165,2.56721967883577e-05,-8.92791937615744e-18,5.31044031149947e-17,5.85119964935467e-05,6.02622788249633e-16,8.48297372526431e-16,7.41349443845479e-07,2.86735374610734e-06,-7.65504661439526e-06,9.42056376980673e-15,2.3833125035017e-15,-2.07464064581737e-08,-1.68247179074499e-06,1.46865891924354e-14,1.76081119881592e-05,-5.20344820865593e-06,1.81906577069522e-15,-3.6680895237639e-07,0.00113336330690711,4.11165641362331e-15,8.8237771406176e-06,9.17905872361874e-15,7.99154481884108e-15,4.63881190836185e-14,-0.259550686373458,-0.000111416733024956,-2.70891898152525e-16,-1.90883811457894e-14,-1.49693033041021e-15,2.50624566974705e-14,0.000183073809869918,-3.53417284580128e-15,2.07883881713375e-15,-2.13325566115672e-15,1.12548680511294e-14,1.46584402212273e-14,1.42293684930006e-14,2.68511047871648e-16,-3.99098067224371e-15,-1.73046114970797e-08,2.44212956677536e-16,-2.43964170862907e-14,-2.5354371678757e-14,9.35307975422492e-15,-4.31906313886987e-14,-3.95567816226127e-14,0.820897496963261,-3.07386024577254e-15,-7.2491573223823e-14,0.100000000000177
"t168",-0.0957168862969316,0.00746332501416071,0.245189706897478,-0.0125163627716426,-0.00266240078147694,-0.0652059634285977,0.00021522703629617,0.000276463360661239,-0.00146251133507408,0.00643449433582592,0.149114865135913,0.00226137786971738,4.13411042894586e-05,-0.000155281865117919,-0.00015656814827143,-0.18804932945796,-0.000184021201098655,0.000349745384281955,0.000449306030253003,0.00562345024474165,-0.0808337004139688,0.335391995182986,-0.000226912109311014,1.78142004277455e-06,1.76202732174113e-05,-2.73504034071018e-06,-0.000306055830651152,9.52708453064513e-06,3.18640324634496e-05,-1.72359433737156e-06,3.65668018228953e-07,-8.65884222816339e-06,8.89051238704697e-09,2.25500084285213e-05,8.28991285510868e-05,7.46233722834772e-05,1.86375049011609e-05,-4.71965673936397e-05,-1.15661247169543e-05,-1.62867493761342e-06,-2.8607390839376e-05,-1.23887098185726e-06,2.23911572387691e-07,-5.10076929491732e-17,-1.00303326869493e-06,-2.47689780394252e-06,4.24530790505813e-06,1.30723934884737e-16,1.09023100725096e-05,-0.0069644516191189,2.62939357182917e-05,1.02004075605738e-16,-1.66673248937243e-15,6.01162931614168e-05,5.6029934274468e-16,-2.56389239407353e-15,7.65243420904992e-07,2.96463663933979e-06,-7.9473356916619e-06,1.6208364739333e-15,-3.39287131550507e-16,-2.15603991465709e-08,-1.74953832779688e-06,7.79266301259146e-16,1.84569403920656e-05,-5.45854441107989e-06,2.88327225386902e-15,-3.85182171603205e-07,0.00119094873927105,-1.09856332585416e-15,9.3167276123448e-06,2.0330480480928e-14,9.17185299020526e-15,5.93489160390438e-14,-0.276591602073594,-0.00011875049018984,-3.33706017672075e-15,-6.86674687815032e-15,-1.39637933748609e-15,8.42481844346523e-16,0.000204730455580531,4.72894668818369e-15,4.15902761469047e-15,2.35423024866249e-15,3.86346764331767e-15,-6.03946644429408e-15,-8.86903677522456e-15,8.57534991535008e-16,5.06796243692954e-15,-2.11406990030904e-08,-3.9731540268053e-15,2.20042275369452e-14,1.278110222322e-14,7.82896599393593e-15,3.44152983878624e-14,1.8419406089132e-14,-0.403726983963702,2.76779494682313e-14,-0.707106781186529,0.0999999999998492
"t169",-0.0957168862969316,0.00746332501416071,0.245189706897478,-0.0125163627716426,-0.00266240078147693,-0.0652059634285976,0.000215227036296413,0.000276463360660796,-0.00146251133507385,0.00643449433582607,0.149114865135913,0.00226137786971782,4.13411042897272e-05,-0.000155281865118298,-0.000156568148271523,-0.18804932945796,-0.000184021201097671,0.000349745384281679,0.000449306030253164,0.00562345024474081,-0.0808337004139682,0.335391995182986,-0.000226912109311032,1.78142004207641e-06,1.7620273217209e-05,-2.73504034123753e-06,-0.00030605583065189,9.52708453028431e-06,3.18640324637319e-05,-1.72359433837088e-06,3.65668018628983e-07,-8.65884222914848e-06,8.89051251194706e-09,2.25500084278269e-05,8.28991285502592e-05,7.46233722831911e-05,1.86375049000089e-05,-4.7196567390574e-05,-1.15661247156845e-05,-1.62867493876468e-06,-2.86073908400991e-05,-1.23887098307453e-06,2.23911572862755e-07,4.52512244381481e-16,-1.00303326939221e-06,-2.47689780255602e-06,4.24530790469047e-06,-1.56943619703956e-15,1.09023100747978e-05,-0.00696445161912725,2.62939357178312e-05,-8.29472647200107e-17,-1.39520263981719e-15,6.01162931621179e-05,-5.95822356727977e-16,-8.94052940622193e-16,7.65243418788097e-07,2.96463663866568e-06,-7.94733568869648e-06,4.06679657506056e-15,1.9693111951603e-15,-2.15603976105336e-08,-1.74953832113554e-06,6.78834842204281e-15,1.84569403914721e-05,-5.45854440998087e-06,-1.06428023424079e-15,-3.85182180438232e-07,0.00119094873926924,-3.35087207574554e-15,9.31672761152462e-06,2.32170603449534e-14,1.08037197758286e-14,6.27224707417184e-14,-0.276591602073591,-0.000118750490191342,-5.9185905389853e-15,9.39508763745136e-16,5.34822553711173e-15,-1.68379315149713e-14,0.000204730455568957,6.28922597147979e-15,3.54081469604105e-15,1.1312657185427e-15,-6.72891391557743e-15,-5.26881187352953e-15,-8.40536287968742e-15,1.56247958132304e-15,6.74174521022736e-16,-2.11407050531069e-08,-2.68180719173018e-15,-1.31882266847509e-15,1.24622538499891e-14,-2.11048082720089e-14,1.4934669718753e-14,1.7635368376953e-14,-0.403726983963596,-4.8942971758776e-14,0.707106781186567,0.100000000000014
"t131",-0.095221035018217,0.00734338671664131,0.240191626447872,-0.0121284670092193,-0.00248776309751595,-0.0600501090716902,0.000193393226634202,0.000247615984202551,-0.00128567217278952,0.00558192753236692,0.127740010510385,0.00185550813595335,3.26609381979497e-05,-0.000114326408633541,-0.000111392886428802,-0.12627384696188,-0.000111748256067225,0.00020193080629723,-0.000402842994208175,-0.00554975971545404,0.0878979735491037,-0.371083826722841,0.000499857941239141,-0.000202693884326336,0.000127504849323232,-9.24018475494375e-06,-0.000867937733757492,2.47010099973018e-05,8.25842066565087e-05,-3.52025475562235e-06,7.42958402176986e-07,-1.6245213284347e-05,1.65605062024676e-08,4.13838376813705e-05,0.000151505069846183,0.00013168939140435,3.28068450418965e-05,-8.2439462816566e-05,-2.023511458822e-05,-2.85023525371034e-06,-5.03341885156522e-05,-2.20328656796444e-06,3.99694993161016e-07,-2.15304514473058e-15,-1.8164770554133e-06,-4.60431863168418e-06,8.66184896783776e-06,-5.73976733762632e-15,7.77334516469541e-05,-0.491468668872494,-5.55611515978588e-05,3.27790047076711e-15,1.80786364328603e-15,3.15233145560099e-05,2.0544256660016e-15,-1.98403996650328e-15,5.9499165819687e-07,2.34777048407725e-06,-6.19554185559445e-06,-2.60941300466535e-15,7.85506352914829e-16,-1.66024644659061e-08,-1.33575979744444e-06,2.00775779384278e-15,1.15897761764197e-05,-3.3316346292707e-06,-8.69319890743602e-16,-2.25835993706031e-07,0.000678011545933886,2.3701339527716e-15,4.01850310927446e-06,-3.90742169906234e-15,-2.94169850725796e-15,6.09217366362253e-16,-0.0111400795956044,-3.75506568596935e-06,-2.38337415958602e-14,2.0785268495709e-14,1.58835174252504e-14,0.707106781186546,0.00110778477451072,-1.50226469982949e-14,3.25950349249989e-14,3.19205221760679e-14,3.00476550500825e-15,-1.69030114013304e-14,-2.26048627799994e-14,6.19774435514654e-15,9.77028804667506e-15,-4.87798303508005e-08,8.37317866187158e-15,4.36181340311307e-15,-1.0653218296182e-15,1.57242964461719e-16,3.20475818126681e-15,-2.66165378883207e-16,-0.000292910445870473,-9.7916864995839e-15,-5.60446637154277e-15,0.100000000000001
"t132",-0.095221035018217,0.00734338671664133,0.240191626447872,-0.0121284670092192,-0.00248776309751594,-0.0600501090716902,0.000193393226633841,0.000247615984203272,-0.00128567217278969,0.00558192753236703,0.127740010510385,0.0018555081359532,3.26609381979646e-05,-0.000114326408633064,-0.000111392886428833,-0.12627384696188,-0.00011174825606821,0.000201930806297546,-0.000402842994207763,-0.00554975971545357,0.0878979735491027,-0.371083826722839,0.000499857941239501,-0.00020269388432642,0.000127504849322968,-9.24018475422818e-06,-0.000867937733758224,2.47010099977841e-05,8.25842066562146e-05,-3.52025475426706e-06,7.42958400953729e-07,-1.62452132851054e-05,1.65605029186361e-08,4.13838376832666e-05,0.000151505069845836,0.000131689391402625,3.28068450425538e-05,-8.24394628160925e-05,-2.02351145869805e-05,-2.85023525741603e-06,-5.0334188515303e-05,-2.20328656929418e-06,3.99694990313476e-07,-4.03347413912078e-15,-1.81647705512317e-06,-4.60431863428462e-06,8.66184896403558e-06,-6.10251743531798e-15,7.77334516410053e-05,-0.491468668872491,-5.55611515972297e-05,2.11568641716637e-15,3.46861957723249e-15,3.15233145576582e-05,4.53361056845833e-15,1.52582244084103e-15,5.9499165387237e-07,2.34777048764105e-06,-6.19554185107217e-06,6.75809376560931e-15,-1.60622735161157e-16,-1.66024583338883e-08,-1.33575981549945e-06,6.10170519714798e-15,1.15897761796014e-05,-3.33163462705284e-06,3.05649280962167e-15,-2.25835985794042e-07,0.000678011545941382,-1.92777057653715e-15,4.01850313610475e-06,3.14249450730754e-15,1.80345602547881e-16,1.96576742870944e-15,-0.0111400795956168,-3.75506567902504e-06,2.50290337038837e-14,-2.08376865868838e-14,-1.82818614341128e-14,-0.707106781186549,0.00110778477412204,1.52783565416749e-14,-3.27199907596923e-14,-3.2443354156025e-14,-1.72396817126707e-15,1.55313110405946e-14,1.99642422002625e-14,-5.89288304385589e-15,-1.18486482624763e-14,-4.87798531452779e-08,-1.29551582173359e-14,-3.4620123136772e-15,2.62718225559626e-15,-3.382529106078e-15,-2.84615187174222e-15,-1.51101315127858e-16,-0.000292910445832221,-4.59061910284599e-15,-2.3562323794867e-14,0.100000000000003
"t116",-0.0951595043973644,0.00732893698126848,0.239596464553549,-0.0120835801819308,-0.00246934086800082,-0.0595253256498191,0.000191298274132921,0.000244869091730813,-0.00126954927441607,0.00550651516032352,0.125902062024859,0.00182373689630461,3.20330763134949e-05,-0.000111749797848069,-0.000108728669912502,-0.122994031527984,-0.000108518527144879,0.000195847011846573,-0.000381566612704992,-0.00525377370125601,0.0831632048004991,-0.35105902326298,0.000470943694497737,-0.000189157431428759,0.000118190918124874,-8.45161360883868e-06,-0.000787384511483438,2.22654817761681e-05,7.44390918247667e-05,-3.05536471267623e-06,6.43808204279149e-07,-1.35607475418679e-05,1.37497009524562e-08,3.39068995004941e-05,0.000123591389726336,0.000100812207255329,2.48790865593931e-05,-5.74915563233601e-05,-1.36401755761219e-05,-1.91378368287977e-06,-3.21332963243502e-05,-1.31257942628373e-06,2.33247219509158e-07,4.78223826875582e-15,-9.8450632628624e-07,-2.20681079882281e-06,2.64776940134725e-06,5.30863164974368e-15,-5.41778351530012e-05,0.508306547845164,0.00012851360266654,-4.88338528379135e-15,-3.86506539138454e-15,0.000115814956733661,-2.26896832346117e-15,8.64597227469825e-16,1.11798582754487e-06,4.07998778971305e-06,-9.60723825463599e-06,3.23658546316642e-15,2.18539398058684e-15,-2.52743197737027e-08,-2.01356504426511e-06,-5.6033225835998e-15,1.60824045614839e-05,-4.59925409763965e-06,-2.44939791628522e-15,-3.09818665960145e-07,0.000926480866756127,-8.4382977606188e-16,5.36762940604767e-06,-7.01389294838796e-14,2.28749281559174e-15,-0.707106781186543,-0.0144626083640934,-4.87320334652396e-06,-2.24936041439816e-14,-5.69180526598318e-15,7.5255272243002e-15,-1.42325862047569e-16,0.0013652056308345,3.64840231543889e-15,8.1380892436543e-15,-4.09257695551591e-15,-1.55933756729195e-15,3.70971184694317e-16,4.51265439390573e-15,2.73657670623512e-17,4.95551176983807e-15,-5.88244786606716e-08,-2.02018767048125e-15,-2.61830052958386e-15,-2.03752212270207e-15,-1.60514149739542e-15,1.71214874409383e-15,-3.23117229693734e-16,-0.000345375608768157,-5.50527792549194e-15,-7.15077134139176e-15,0.0999999999999989
"t117",-0.0951595043973644,0.00732893698126846,0.239596464553549,-0.0120835801819308,-0.00246934086800072,-0.059525325649819,0.000191298274132794,0.000244869091730727,-0.00126954927441619,0.00550651516032354,0.125902062024859,0.00182373689630448,3.2033076313145e-05,-0.000111749797848323,-0.000108728669912603,-0.122994031527983,-0.000108518527144535,0.000195847011846839,-0.000381566612704094,-0.00525377370125566,0.0831632048004991,-0.351059023262978,0.000470943694496994,-0.000189157431429233,0.000118190918125389,-8.45161360899568e-06,-0.000787384511484454,2.22654817749607e-05,7.4439091824402e-05,-3.05536471304231e-06,6.43808203750952e-07,-1.35607475425093e-05,1.37497014347093e-08,3.39068995026372e-05,0.000123591389723977,0.000100812207252103,2.48790865605683e-05,-5.74915563262772e-05,-1.36401755786512e-05,-1.91378368358697e-06,-3.21332963242654e-05,-1.31257942483288e-06,2.33247218830921e-07,2.59363282193523e-15,-9.845063244672e-07,-2.20681080228192e-06,2.64776940189968e-06,6.68074683093198e-15,-5.41778351531758e-05,0.50830654784516,0.000128513602663558,-9.51451340163348e-16,-3.2527085997765e-15,0.000115814956739092,-5.21714694046497e-15,-6.9274615629725e-16,1.11798583448479e-06,4.07998778268336e-06,-9.60723826319715e-06,-4.47599511102658e-15,-3.08206672239023e-15,-2.52743329961583e-08,-2.01356504876159e-06,-1.06528597044453e-15,1.6082404569983e-05,-4.59925411751852e-06,-6.50900782594891e-16,-3.09818664179342e-07,0.000926480866819513,1.2235664775835e-15,5.36762931903775e-06,7.36557688867902e-14,1.21781646727467e-15,0.707106781186551,-0.0144626083637955,-4.87320326259597e-06,2.31534600826768e-14,6.69412035247731e-15,-3.15516521728901e-15,7.87485920410358e-16,0.00136520563080752,-1.26516357674719e-15,-3.47530727382448e-15,5.61909473736912e-15,2.20414316508501e-15,-4.91237036348385e-19,-4.25119246676967e-15,1.53374305583205e-15,-2.45994927608681e-15,-5.88244868326761e-08,-5.1323449221753e-15,1.97915119456138e-15,9.17590521752496e-16,-2.73798929031381e-16,2.7478430463478e-15,-4.41466113125619e-16,-0.000345375608755325,-7.52454873087863e-15,-1.03793085706451e-14,0.100000000000006
"t143",-0.0935304433492201,0.00692656005366264,0.222686060575061,-0.0107430139095024,-0.00181956580295398,-0.0397423346849499,0.000102882271692838,0.000127200921425018,-0.000516704986063199,0.00176161936471951,0.0291159941963797,-0.000227643100862105,-1.67007868429298e-05,0.000175546098970946,0.000250209399882905,0.504035177516559,0.00124148583799047,-0.00440089877166802,0.000191048288047847,0.00162621680519819,-0.0114259355382447,0.0381442063361583,0.000310444915691199,-0.000242101974868137,0.000169844666912568,-1.32559632563941e-05,-0.0012635899009921,3.61437523570644e-05,0.000120843192696361,-5.10934983279589e-06,1.07739041631901e-06,-2.30221187216323e-05,2.33881242081568e-08,5.79523748824748e-05,0.000211574502054828,0.000176921910730933,4.38360403170366e-05,-0.000105270776313316,-2.54034485591678e-05,-3.5713718679359e-06,-6.15777076903591e-05,-2.6138291956711e-06,4.70030813547131e-07,1.09218332220889e-15,-2.07297158125735e-06,-5.01985538613866e-06,8.27589915529562e-06,1.05282483408436e-16,1.85064163067511e-05,-0.00205306130774532,4.85623095965367e-05,-6.69653566936701e-16,5.94857254740368e-17,9.92479331806119e-05,-7.80008416355421e-16,2.01175746426572e-15,1.10837919000318e-06,4.09016376844765e-06,-9.59729503808053e-06,1.48127285062489e-15,-2.88471294898937e-15,-2.51116942839021e-08,-1.99284897138557e-06,-7.80901670830288e-16,1.45236909487583e-05,-4.10018504369534e-06,6.85140687329436e-16,-2.71270629026129e-07,0.000800742224693719,9.95873457629032e-15,4.13843557351986e-06,1.16514562234393e-14,-1.24509332776361e-14,-1.61707906558596e-14,-0.00167724357066269,1.01904670743458e-07,-1.28047765174376e-14,1.46162273634952e-14,-3.04938664860281e-14,2.25578357292506e-13,-0.820606700231492,2.26877463597705e-13,-2.43622254917657e-15,-8.93350559114466e-15,6.99153214728876e-14,-8.33469408041816e-15,4.59537659994957e-15,1.05740684839259e-14,3.39131872542729e-15,-1.66381636969426e-07,-1.14675964511588e-16,1.49170452084297e-14,5.13576588997345e-15,-8.51325244910874e-15,-1.53300921598546e-14,-1.16828775174132e-15,-0.000146667583004352,-1.13878516360403e-15,-1.84535335484689e-14,0.0999999999999835
"t161",-0.0935787127363932,0.00693739159069695,0.223123735464599,-0.0107744076138758,-0.00183006046579708,-0.0400115311346453,0.000103739546249995,0.000128285322763457,-0.000521658641850166,0.00177975065262079,0.0294341437721649,-0.000230574643528328,-1.6940463593229e-05,0.00017846568390421,0.00025460448599124,0.513582313370198,0.001267391930455,-0.00449623165246213,0.000197786098498075,0.00168403752739538,-0.0118355672196615,0.0395137491884737,0.0003222496068417,-0.00025244444793083,0.00017763412446633,-1.39413375958826e-05,-0.00133315766912624,3.82241978322054e-05,0.000127800385964553,-5.47009442337348e-06,1.15399282393755e-06,-2.48993396581098e-05,2.53267546761193e-08,6.29402935903684e-05,0.00022999694900859,0.000194557074336475,4.82755556638245e-05,-0.000117189155465931,-2.83789160891603e-05,-3.99119370486202e-06,-6.91245348289777e-05,-2.94915525092301e-06,5.31037613623267e-07,-1.31527964856355e-16,-2.35188574284719e-06,-5.72648549439253e-06,9.54830418454117e-06,5.24886611668836e-16,2.19075696512095e-05,-0.00243903485170015,5.81177177033531e-05,-1.28391007001894e-15,-8.18731123375159e-16,0.000122666285128057,1.20131086924217e-15,-2.05545742877928e-16,1.44587248693829e-06,5.44801100227481e-06,-1.35356088113677e-05,1.39138246656328e-15,8.29141526646938e-16,-3.59646645944917e-08,-2.88107743032553e-06,1.83536057602434e-15,2.43176680804366e-05,-6.98296009528443e-06,-6.50759007235144e-16,-4.72758106578566e-07,0.0014182256785766,-1.29548459885123e-15,8.34111427866036e-06,-1.14827879215939e-14,-7.14541328051064e-16,8.86048579759428e-15,-0.0049201968843562,3.01555581599241e-07,9.53515811613579e-15,-1.1051593233898e-15,1.52638541442179e-14,-1.08190305614054e-13,0.404095454716572,-1.06895180504603e-13,3.18077919740613e-16,6.4783993389146e-15,-4.89845812849293e-14,6.68415407131568e-15,-9.47757659538725e-15,5.14709488991989e-15,-8.66072281324936e-15,-4.41014619495147e-08,-3.71808171973491e-15,-3.61543472734787e-14,-1.97162787943148e-15,-4.92867045981713e-14,-0.707106781186537,4.22944202875061e-15,-8.20074482449706e-05,-7.39904992537673e-15,-1.84807207119252e-14,0.100000000000017
"t162",-0.0935787127363932,0.00693739159069699,0.223123735464599,-0.0107744076138758,-0.00183006046579704,-0.0400115311346454,0.00010373954625001,0.000128285322763502,-0.000521658641850118,0.00177975065262106,0.029434143772165,-0.000230574643528306,-1.69404635929178e-05,0.000178465683904297,0.000254604485991193,0.513582313370199,0.0012673919304548,-0.00449623165246242,0.000197786098498069,0.00168403752739649,-0.0118355672196612,0.0395137491884731,0.000322249606841432,-0.000252444447931391,0.000177634124466103,-1.39413375958202e-05,-0.0013331576691267,3.82241978333989e-05,0.000127800385965228,-5.47009442279496e-06,1.15399282440886e-06,-2.48993396589183e-05,2.53267553422531e-08,6.29402935914223e-05,0.00022999694900766,0.000194557074338242,4.82755556645438e-05,-0.000117189155466672,-2.83789160884192e-05,-3.99119370342772e-06,-6.91245348276631e-05,-2.94915525068057e-06,5.31037613212049e-07,-5.3068983873126e-16,-2.35188574324007e-06,-5.72648549451424e-06,9.54830418320849e-06,5.07596995649682e-17,2.19075696493836e-05,-0.00243903485170273,5.81177177026601e-05,1.64648610605428e-15,-2.15140015274607e-16,0.000122666285126054,-3.06531419723937e-16,-1.61271486908456e-15,1.44587248762672e-06,5.44801100183498e-06,-1.3535608810571e-05,6.6053730916802e-17,1.90727491047444e-15,-3.59646642373826e-08,-2.88107743537704e-06,1.05820445878661e-15,2.43176680840178e-05,-6.98296009256288e-06,-1.93013855796713e-15,-4.72758105542003e-07,0.00141822567857768,-7.86183456077737e-15,8.3411142703222e-06,-7.17094029681911e-16,1.24241007451206e-14,7.6531182557658e-15,-0.00492019688435102,3.01555588201745e-07,4.46598221391573e-15,-1.16939114207454e-14,1.5636819691553e-14,-1.13921831978091e-13,0.404095454716544,-1.143034108093e-13,4.63410849819747e-15,2.9894873757781e-15,-1.90390235302641e-14,4.97743503017796e-16,2.7304304537139e-15,-1.40118492337265e-14,5.12233024252154e-15,-4.41014173630425e-08,-5.83646683949099e-15,2.15897073701992e-14,-2.20845080032508e-15,5.426837938242e-14,0.707106781186556,-3.53986692897975e-15,-8.20074481667712e-05,-1.21954052477155e-14,1.40267976974283e-15,0.0999999999999998
"t120",-0.0892141932437191,0.00583163472227887,0.17614732353592,-0.00694218635338749,0.00026108580374022,0.0275845215446094,-0.000238352973394987,-0.000335713363522135,0.00284400955810587,-0.0169067524380356,-0.518543778515034,-0.0257341914993182,0.00174283561917644,-0.000722841286357441,-0.000427704024236551,-0.079822377415386,0.000898725231080102,-0.00403393828694455,0.000237846268206047,0.00172410198382276,-0.00514449269279168,0.00609244178772263,0.000554845934477455,-0.000407666091259076,0.000283919053169488,-2.19968562461502e-05,-0.00208959336775366,5.96214965605489e-05,0.000199336459760394,-8.31771644163336e-06,1.75302490451792e-06,-3.70449513130039e-05,3.75783197580082e-08,9.27864737350579e-05,0.000338368028050477,0.00027885061613795,6.89584679543093e-05,-0.000163150680865017,-3.91697684058037e-05,-5.50363431778305e-06,-9.42554248193332e-05,-3.96904404300051e-06,7.1219925029132e-07,6.63394555045302e-16,-3.11927928647326e-06,-7.48267569100089e-06,1.2078254838978e-05,1.64559538687265e-15,2.52708704164996e-05,-0.000551209444547114,6.56385238613802e-05,2.18554368170393e-16,5.66746333557707e-17,0.000120122400725571,-2.19965655126985e-16,-4.39485466543845e-15,9.86228238982066e-07,2.9523116350351e-06,-5.5147208516508e-07,1.30361854361407e-14,5.37120268781583e-15,4.89383881705317e-09,7.39311847954822e-07,1.51242615660914e-14,-0.000171484466081859,7.69487185289932e-05,-8.22261126955048e-14,1.36868542867839e-05,-0.820883161340199,-7.10718490145294e-15,5.28451429812216e-05,5.29601463996859e-14,-6.86673791347525e-15,3.67393277365762e-14,-0.00328603814416707,6.25931567271749e-06,-3.85939305854616e-15,-5.74759098519166e-15,7.86835280373823e-16,-4.36174723432452e-15,0.00109244872911188,-2.67851334386507e-15,4.81462115780643e-15,-5.08993270817427e-15,9.27643771994999e-17,-1.16781113205985e-15,8.02609354497812e-16,1.85384526773215e-16,-2.43489125140005e-15,-1.99585339428001e-07,-1.77015282442156e-15,-1.80474121607053e-15,6.47458710936905e-16,-4.6947253890298e-15,2.03679441695541e-15,2.74102031134426e-16,-4.92099818479633e-05,-6.42163319692244e-15,-1.27385771588513e-14,0.100000000000005
"t139",-0.089290486737736,0.00584678411001092,0.176723013208917,-0.0069759984587696,0.000263613053996266,0.0278988711030608,-0.000241707186674036,-0.000340549120570886,0.00289019920383904,-0.0172020516793906,-0.528174330399863,-0.0263001921065342,0.00178571039252325,-0.000743566751103328,-0.00044068647131474,-0.0824441198537922,0.000931403086590373,-0.00418650954751817,0.000253016001338711,0.00183504569831981,-0.00547854695329364,0.00648869435462434,0.000593279310154662,-0.000439790116405712,0.000308141883176761,-2.41465043984909e-05,-0.00230906249384292,6.6214193246511e-05,0.000221383485735819,-9.48854385886292e-06,2.00187380795625e-06,-4.3264252150192e-05,4.40175944964316e-08,0.000109455248888323,0.000400051543528096,0.000339364517872969,8.42404423234242e-05,-0.000205165758143941,-4.9742215396402e-05,-6.99662845823474e-06,-0.000121368671153705,-5.18800027615577e-06,9.34655604406082e-07,-5.04871555352827e-16,-4.14636895614905e-06,-1.01187163372034e-05,1.69560197477325e-05,-7.07793167906543e-16,3.90504690823129e-05,-0.000864362454608841,0.000106231520557012,-1.0178698992878e-15,-7.86582289923565e-16,0.000228640545186653,7.92979674069629e-16,2.15914241310298e-15,2.84506564144345e-06,1.10129088452628e-05,-3.01578834092895e-05,-8.82962600630899e-15,-3.86818438878497e-15,-8.2884130555371e-08,-6.79231122479261e-06,-1.71308914633541e-14,0.000135944253864663,-5.25012086518763e-05,3.91603939117668e-14,-7.68786909758838e-06,0.40381692355761,5.30505337286757e-15,-8.68600165932298e-06,-2.65932842172344e-14,1.05793850964226e-15,-2.02010532238343e-14,-0.000406895967599566,7.94685003147083e-07,4.4124550400867e-15,4.38162322469813e-15,-2.52433406167363e-15,-1.89089198512884e-16,0.000504698979913678,-3.06502052130053e-16,4.16822423068263e-14,5.42056901244534e-16,0.707106781186548,-1.63355143956714e-15,-2.5111567589021e-14,-1.12079449564345e-14,-1.03005048214868e-14,-1.11893608970185e-07,-1.2511183023559e-15,4.22943470340614e-15,-1.88468868554081e-15,-1.10734445994691e-15,-1.40658560743877e-14,5.31078568229816e-16,-3.17868586850318e-05,-4.70942938475001e-15,-5.68222565093699e-15,0.0999999999999946
"t140",-0.089290486737736,0.00584678411001092,0.176723013208917,-0.00697599845876963,0.00026361305399632,0.0278988711030608,-0.000241707186674139,-0.000340549120571049,0.00289019920383902,-0.0172020516793905,-0.528174330399862,-0.0263001921065342,0.00178571039252346,-0.000743566751102642,-0.000440686471314558,-0.0824441198537925,0.000931403086590042,-0.00418650954751837,0.000253016001338988,0.00183504569831909,-0.00547854695329256,0.00648869435462409,0.000593279310155101,-0.000439790116405603,0.000308141883175968,-2.41465043996775e-05,-0.00230906249384351,6.62141932459906e-05,0.00022138348573529,-9.48854385837848e-06,2.00187380731241e-06,-4.32642521485214e-05,4.40175967515721e-08,0.000109455248886696,0.000400051543526132,0.000339364517872199,8.42404423238731e-05,-0.000205165758145087,-4.97422153971256e-05,-6.99662845765831e-06,-0.000121368671156338,-5.1880002732739e-06,9.34655604055116e-07,1.32935147497884e-16,-4.14636895657639e-06,-1.01187163390245e-05,1.69560197511762e-05,-6.12170004383193e-16,3.90504690848017e-05,-0.000864362454609418,0.000106231520558058,4.76860685520327e-16,3.9281195525046e-17,0.000228640545187037,-5.39809536205176e-16,2.01814418672959e-15,2.84506564139067e-06,1.1012908847406e-05,-3.01578834118263e-05,-1.12051487906815e-15,-1.78418281277579e-15,-8.28841282501232e-08,-6.79231122526449e-06,2.83924519209084e-15,0.000135944253870698,-5.25012086580887e-05,3.95854967717596e-14,-7.68786909084753e-06,0.40381692355761,2.93858694361293e-15,-8.68600164820971e-06,-2.57051057975342e-14,4.74341499184556e-15,-1.65650728171326e-14,-0.000406895967612734,7.94684992473744e-07,1.16155281813072e-15,2.77179983898793e-15,3.0822922126834e-15,4.35588630827586e-15,0.00050469897979333,4.94903799599249e-15,-4.34184759925762e-14,5.28972517879739e-15,-0.707106781186547,1.38107166230148e-15,2.23478425325768e-14,1.25329921573317e-14,1.26002392829408e-14,-1.11893650491286e-07,-6.40661886934114e-15,-2.09514962517997e-15,1.94103907536379e-15,2.29981737506692e-15,1.60003711976906e-14,-1.38746006904267e-15,-3.17868586701873e-05,-1.00455380307128e-14,-1.63820000507723e-14,0.0999999999999992
"t40",-0.10304024337718,0.112659283480018,-0.0848316467947167,-0.00354556158880251,-0.000614117558505656,-0.00998344891872605,-4.77058395484433e-07,-4.21120253956745e-06,0.000140993015463776,-0.000747257155812185,-0.00659191823918239,0.235006711160551,-0.041777092538992,-0.000230426600375191,-0.000118377868202209,-0.00114481396852874,0.000392439911450278,-0.0303934674337763,-0.000262156659295915,-0.0270993805801973,-0.000443857935202223,-3.414137026074e-06,-0.000386743983947687,0.000603654389914997,-0.000683335600605083,0.000190141136081491,0.943230535066829,0.000911496035696954,0.00303402663990465,-2.95369787794058e-05,6.11119623078592e-06,-0.000102335606323127,1.02913862196075e-07,0.00027769026397876,0.0268281211889438,0.100834950864016,0.00181511921023046,-0.0086547310094149,-6.82610837285829e-05,-9.61202539603586e-06,-0.000166222126888281,-7.00664625658655e-06,3.64111571157366e-05,-2.59144673990614e-17,-0.000769717863705982,-1.3192477167745e-05,2.13605699165291e-05,-2.28315301968481e-16,4.59667646157273e-05,-0.000105389698135742,0.000135811554824451,-1.23744132299976e-16,-4.59632446387012e-16,0.00650184033776582,-6.71133498240247e-17,-2.22409266111657e-17,2.72408082047449e-06,1.01178251344799e-05,-0.000623372764068688,1.21229665757503e-15,-2.07212193092429e-16,-6.39409921588393e-08,-5.09808123626073e-06,-8.60997186083126e-17,4.00690422324598e-05,-0.000285393892188116,-6.85415100868789e-16,-7.41631970416014e-07,0.000250781210412794,-6.861668166172e-17,1.32076779619615e-05,-1.89068749848068e-16,-1.52991988248646e-16,4.59752493419919e-16,-0.000165634357715715,3.51644437958268e-06,4.56812691980437e-16,1.09104586491525e-15,5.61010908605791e-16,-5.5849837493814e-16,8.38321794211685e-05,8.24642223786236e-16,1.32736939672258e-15,1.29489470942617e-16,-2.10919985337786e-16,-4.76199603444707e-16,-6.31006940769219e-16,6.80309362717953e-16,-7.96677069636146e-17,-1.51864728203365e-07,-2.86338654525701e-15,1.23774214083035e-16,2.23758472111027e-16,-1.14346283152386e-15,1.59999115558611e-15,-6.20536087790556e-16,-4.40656221820805e-06,-6.76981085840768e-15,-1.11483875457148e-14,0.0999999999999916
"t72",-0.1042114705614,0.116716786663749,-0.0887400899775163,-0.00379919212971546,-0.000713929896115151,-0.0119962806861508,-6.06662270720168e-07,-5.39563505061851e-06,0.000188716911428223,-0.00103205647152802,-0.00938152038245473,0.37140416224891,-0.072598023011886,-0.000481961497473929,-0.00027224774852882,-0.00311889121183012,0.001490469925436,-0.140005537170725,0.000243184997022274,0.0241608185654638,0.000380172354927297,2.90339739581399e-06,0.000250729208294827,-0.000227130688998515,0.00018121313495289,-2.54722412696695e-05,-0.0806754914342281,-5.28794057402509e-05,-0.00017566869080861,-4.75461788012607e-08,8.85075494608078e-09,5.78070318813568e-06,-7.7357381958465e-09,-3.83313059916169e-05,-0.0044394180361244,-0.594453605284015,0.0190268656802067,-0.0073538013895985,-5.06148461844174e-05,-7.04600552713651e-06,-0.000109980529539491,-4.37825793249439e-06,2.27350824822478e-05,5.13428997962915e-15,-0.658525166888597,-6.75341367754334e-06,1.08083318814025e-05,-6.01024449540256e-17,2.25266614458895e-05,-5.15379967546434e-05,6.61925653997465e-05,-8.95022632270635e-16,-8.93877305464451e-16,0.00315252200708432,-2.27219342010719e-16,2.81810454940275e-17,1.32477884056332e-06,4.93042973684954e-06,-0.000305433958223521,1.05436446756454e-15,2.29401739663507e-16,-3.13713302374011e-08,-2.50324725367049e-06,-2.56805962959603e-15,1.98624650556561e-05,-0.000141587358214214,-1.24685892856914e-16,-3.68314259514495e-07,0.000124629687383183,2.76446010451293e-15,6.59270624494486e-06,-2.00249129109523e-15,-4.88155696278865e-16,-9.22120732279556e-16,-8.32472046617744e-05,1.76753133592045e-06,1.22559009827848e-15,3.11920461017554e-16,1.11573699555053e-16,7.94838721237211e-16,4.29154023061379e-05,7.61619240192293e-16,4.31410078189884e-16,5.92715670177704e-16,7.73733556426337e-16,-1.55885162527092e-16,-1.65488327411308e-15,1.83433324464275e-16,-5.88908271042661e-17,-7.86030900230485e-08,-3.04944756569486e-15,2.21451429913202e-16,5.63159369176833e-16,-1.06585300496309e-15,1.77382135233007e-15,-2.78615859837864e-16,-2.31417091924457e-06,-7.14643454153814e-15,-1.24872744531869e-14,0.0999999999999848
"t106",-0.104572198451574,0.117959065595855,-0.0899339629139032,-0.00387623268959099,-0.000743722188927215,-0.0125931880304305,-6.44698501169276e-07,-5.74278619783088e-06,0.000202601733209475,-0.00111450137099037,-0.0101853613986533,0.41013616833022,-0.081248979397415,-0.000551235169042486,-0.000314279589352447,-0.00365146469100886,0.00178131043717445,-0.1688099686107,0.0003544152743053,0.0353887090464983,0.00055975097668285,4.27888983383132e-06,0.000384270089157021,-0.000384469663309484,0.000331886258733983,-5.60591319480556e-05,-0.203672981467905,-0.000151311474400215,-0.000502991103351168,-9.09667457027499e-07,2.28283750635523e-07,-1.93336520309154e-05,2.19971430983484e-08,7.88372871334086e-05,0.00834418126484069,0.456554846270659,-0.0132540043310994,0.00249915221435788,1.33735229402971e-05,1.80947299419075e-06,1.96154601206881e-05,4.55326894921183e-07,-1.95257407285685e-06,7.54280312194231e-17,-0.0450026365184426,9.12850701437477e-09,9.16408198818725e-07,-1.90907349499602e-16,4.55353226332006e-06,-1.10122004126182e-05,1.55638290690022e-05,4.22010058167866e-16,-4.08930455774604e-16,0.000954693336517,-3.17279215851559e-16,3.59964787411851e-16,4.85116995970463e-07,1.88434289168108e-06,-0.000126299394557924,-7.73534636493943e-15,-1.58508797799237e-15,-1.31697170481375e-08,-1.05969690492844e-06,1.02732451692217e-14,9.11649861044385e-06,-6.53614394625104e-05,1.14250113815223e-15,-1.71236807585631e-07,5.82074540689346e-05,0.707106781186547,3.16471901237941e-06,-4.03756308331574e-14,-5.47264115736022e-16,3.29073801666404e-16,-4.14862701084378e-05,8.81302663502915e-07,5.54228104396694e-16,2.6904924879796e-15,2.02637168313194e-16,-2.25851596170464e-15,2.31545663848211e-05,-4.71250550707968e-16,1.10800744697663e-15,1.0033342785086e-15,-1.03503737720111e-15,-2.45569731691625e-16,-1.29839086352032e-16,2.81282134482512e-16,-3.97267745163031e-16,-4.40592902644141e-08,-3.39405060709044e-15,-1.3533749968182e-16,9.49778323273231e-17,-1.05539551449433e-15,3.77512867195653e-15,-1.04837074315163e-15,-1.35463936912685e-06,-7.11455254468473e-15,-1.0685835100448e-14,0.0999999999999995
"t107",-0.104572198451574,0.117959065595855,-0.0899339629139032,-0.00387623268959096,-0.000743722188927212,-0.0125931880304303,-6.44698501179842e-07,-5.74278619788946e-06,0.000202601733209532,-0.00111450137099026,-0.0101853613986533,0.41013616833022,-0.0812489793974149,-0.000551235169042502,-0.000314279589352723,-0.00365146469100934,0.00178131043717468,-0.168809968610701,0.000354415274305269,0.0353887090464985,0.000559750976682891,4.27888983453372e-06,0.000384270089156729,-0.000384469663308896,0.000331886258733962,-5.60591319476401e-05,-0.203672981467906,-0.000151311474398171,-0.000502991103351316,-9.0966745711682e-07,2.28283750304096e-07,-1.933365203113e-05,2.19971416914877e-08,7.88372871340067e-05,0.00834418126484045,0.456554846270657,-0.0132540043310992,0.00249915221435857,1.33735229399591e-05,1.8094729936432e-06,1.96154601163861e-05,4.55326894649057e-07,-1.95257407196666e-06,4.58298900200111e-16,-0.0450026365184457,9.12850677430231e-09,9.16408198443315e-07,6.74607370158978e-16,4.55353226542588e-06,-1.10122004126015e-05,1.5563829068721e-05,-3.84194903640067e-16,2.11549089434706e-17,0.000954693336518041,6.96246645875929e-16,7.71709886222391e-17,4.85116997239397e-07,1.88434289172572e-06,-0.000126299394557862,1.30258241955507e-14,8.47418629819517e-16,-1.31697156030129e-08,-1.05969688733839e-06,-1.24169378965551e-14,9.11649862550778e-06,-6.53614394697527e-05,-2.70988895136471e-15,-1.712368286512e-07,5.82074540816167e-05,-0.707106781186547,3.16471900709208e-06,4.04624831473623e-14,4.06684094316317e-16,1.07847434579895e-15,-4.14862701050527e-05,8.81302661668291e-07,1.42237385430051e-16,-2.57612798510506e-15,6.46726378163248e-16,1.59950904805382e-15,2.31545663679265e-05,1.89152038077724e-15,1.61352739158834e-15,-6.59455124889809e-16,1.47684221344889e-15,-1.47030340203071e-15,-4.06303961296541e-16,9.91603655060433e-16,5.22109112578016e-16,-4.40592891744507e-08,-3.3018886770613e-15,7.5180102705667e-16,3.29422573896374e-16,-1.14895131969206e-15,-2.69192045702388e-15,5.37755079557997e-16,-1.35463936171807e-06,-7.05971217756611e-15,-1.26981143326129e-14,0.100000000000005
"t108",-0.104250403364125,0.116850909628249,-0.0888690038062604,-0.00380751357728984,-0.000717151007542225,-0.0120608405254382,-6.10778465871938e-07,-5.43320559352345e-06,0.000190220186765043,-0.00104098492156341,-0.00946859390866014,0.375602828244115,-0.0735363582318338,-0.00048948231514138,-0.000276812790417564,-0.00317676745986303,0.00152210304091476,-0.143139552703427,0.000255371667794677,0.0253911802304841,0.000399854128946843,3.05415574647721e-06,0.000265384309341801,-0.000244449536540768,0.000197834582967356,-2.88616118385475e-05,-0.094344092260267,-6.38432217483741e-05,-0.00021212777057126,-1.44998074263016e-07,3.36715671588495e-08,2.89139194895193e-06,-4.30595935123346e-09,-2.47230925414951e-05,-0.00295123846696682,-0.467141084484431,0.0150890740447522,-0.00604990468404675,-4.17356531608774e-05,-5.80948957558195e-06,-8.99619831889434e-05,-3.41483006889613e-06,1.71068023410251e-05,-6.01478457327906e-15,0.749862323587015,-6.7720862994644e-06,1.01159241449117e-05,6.59309779023822e-16,2.09019082575337e-05,-4.78332092619703e-05,6.14794122581357e-05,4.02710934354118e-16,-5.53033861379857e-16,0.00293927134764089,1.05672510895929e-16,-7.77437386625493e-16,1.2411989108165e-06,4.62564812859028e-06,-0.000287347782563255,-2.83639080478808e-15,-3.37701349214961e-16,-2.95305695534607e-08,-2.35712570297218e-06,7.61402128129309e-15,1.87655060062779e-05,-0.000133801646283414,-8.53677291869352e-16,-3.48170548154074e-07,0.000117837461661918,-3.61485699906288e-16,6.24122593190218e-06,1.30031317655169e-15,-7.67800640828244e-16,-2.6413134130572e-15,-7.89501301978971e-05,1.6763367099679e-06,3.93812381906536e-16,1.10838677592388e-15,3.96908753806936e-16,8.59374835970994e-16,4.08675263152244e-05,1.29017148476054e-15,9.00983651413598e-16,2.71068798357446e-16,3.832514966131e-16,-2.18298851930356e-17,-6.06055975701957e-16,3.09224427002735e-16,-1.52415843375662e-16,-7.50115838968688e-08,-3.42637070305297e-15,-2.76719717477915e-16,2.59011404184343e-16,-1.18996824236637e-15,1.91399436406138e-15,-8.21078755644533e-17,-2.21405439720551e-06,-6.78785792900749e-15,-1.15287448730676e-14,0.100000000000008
"t62",-0.104534213877396,0.118251859655807,-0.0904120687852543,-0.00394590524908669,-0.000890588780465342,-0.0186716126742748,1.53080866250882e-05,2.46047005668232e-05,-6.33660953395811e-05,2.47803509170518e-05,-0.000925768798370986,0.0721965429962563,0.00196792711549242,3.6928070824537e-05,6.49623294543709e-05,0.00194920450208163,-0.00295299234078277,0.498942926755836,0.000644549428909149,0.0850745046983118,0.00504838131513437,0.000312965589048393,0.000273979033092537,-0.000260725266521578,0.000192628469361247,-1.97758605548085e-05,-0.0361571549080011,-4.09979066303551e-07,-8.81027780474692e-07,-3.04305120260385e-06,6.40082133928966e-07,-1.13800872382365e-05,1.11209760237513e-08,2.85179885644322e-05,0.0043433469885306,-0.00222099611200854,-0.00166273747970824,0.832905161674317,-0.000166795957051589,-2.15766321010674e-05,-0.000212423717854867,-6.79635396785271e-06,6.28817342917768e-05,-4.64912060569478e-16,-0.000130710155894508,-9.94065557997547e-06,1.44595419383105e-05,4.42284584233515e-16,2.84171177215402e-05,-6.47743038770724e-05,8.26993724412206e-05,-5.96271112890542e-16,2.34355040088264e-16,0.00683561830305983,-2.53659630350455e-16,-3.30977601368402e-17,1.5853685426849e-06,5.88783823335341e-06,-0.000634876357167134,1.00631530519821e-15,1.05611663117051e-16,-3.72261138206523e-08,-2.96914452514074e-06,-9.59353298518569e-16,2.34281966288187e-05,-0.000288889672392515,-4.21029191499138e-16,-4.33858233794732e-07,0.000146763986592387,8.51003703762948e-16,7.74687036468869e-06,2.79089669049574e-15,-6.13191343255576e-16,8.42914142212264e-16,-9.75121753129531e-05,2.0703170725306e-06,1.03973193995152e-15,1.0594060323895e-15,-7.68722920222728e-17,3.62299830409337e-16,4.98987788691747e-05,1.04857927836623e-15,8.53226830821839e-16,3.57848406075074e-16,-3.18152845230841e-16,-6.60571875981099e-16,-6.83397965854156e-16,3.19278457821187e-16,-1.68787367866366e-16,-9.10330251324682e-08,-3.10971758939015e-15,1.12759469686316e-16,3.63282335436191e-16,-1.13889945625439e-15,1.48035807574423e-15,-1.09013711922377e-16,-2.66705577118808e-06,-6.77604093738788e-15,-1.33694831700757e-14,0.100000000000004
"t76",-0.104671331725197,0.118727142451783,-0.0908707726605041,-0.00397598066733629,-0.000904414730655032,-0.0190159241198506,1.5661609965246e-05,2.51873457610612e-05,-6.50745656951048e-05,2.55036251863971e-05,-0.000954672680554445,0.0749163463341601,0.00205205950786805,3.88110485168512e-05,6.85031836887912e-05,0.00206584841475295,-0.00315274247276628,0.534360214914048,0.000736073564485218,0.0973126075689791,0.0057843136102732,0.00035869764600129,0.000317963742106991,-0.000311991481914629,0.000235904710037584,-2.54639935510885e-05,-0.0481664426996037,-5.61929975571862e-07,-1.20773397859956e-06,-5.17354192897015e-06,1.10080068624519e-06,-2.81914042680133e-05,2.97197407673339e-08,9.61578181676563e-05,0.0161258465970954,0.0085664129906476,0.00452990262786767,-0.391080881154607,4.24335953599617e-05,5.08228707856828e-06,1.19328711910031e-05,-5.66995245617344e-07,7.07377272201219e-06,1.13859292170194e-15,-2.48258851265043e-05,-2.65470609214017e-06,5.43157497434313e-06,-0.707106781186548,1.43640495421966e-05,-3.34885448690584e-05,4.44862882736694e-05,-4.02291257880805e-16,-2.34203652464031e-15,0.00409929619653175,1.26140466151389e-15,-4.17368613180818e-16,1.03402457113736e-06,3.91405992373395e-06,-0.000437134474880063,-2.298627584742e-15,1.22233395273407e-16,-2.58047092041636e-08,-2.0658711480246e-06,1.75769391709554e-15,1.68986473045662e-05,-0.000208909278401561,-5.90283660099268e-16,-3.1473375199644e-07,0.000106682740903501,-4.15637964497126e-16,5.70020413795987e-06,-7.02688377470717e-16,-5.32388773967026e-16,-8.04017097151708e-16,-7.29503225627792e-05,1.54918746899823e-06,2.57657810161943e-16,9.06037843155603e-16,-3.9042494810317e-16,-5.70800710148857e-17,3.86596507853728e-05,9.52377682969643e-16,4.59489349075489e-16,-1.31540017115942e-16,1.01730517683896e-16,3.13482800514627e-18,-6.91810005920998e-16,4.97210650207491e-16,1.53514013792909e-16,-7.17174890128894e-08,-3.09242586335531e-15,-2.16051100640433e-16,2.59277915568998e-16,-1.25727107448012e-15,7.38337034161327e-16,9.62701608262855e-17,-2.14121657590094e-06,-7.11262326217382e-15,-1.15711619703212e-14,0.100000000000003
"t77",-0.104671331725197,0.118727142451783,-0.0908707726605042,-0.00397598066733629,-0.000904414730654996,-0.0190159241198505,1.56616099652528e-05,2.51873457610631e-05,-6.50745656951764e-05,2.55036251864873e-05,-0.000954672680554479,0.0749163463341599,0.002052059507868,3.88110485168762e-05,6.85031836885723e-05,0.00206584841475264,-0.00315274247276664,0.534360214914049,0.000736073564485089,0.0973126075689793,0.00578431361027367,0.000358697646000623,0.000317963742106389,-0.000311991481914667,0.000235904710037152,-2.54639935511006e-05,-0.0481664426996035,-5.61929975849418e-07,-1.20773397803685e-06,-5.17354192873012e-06,1.10080068582627e-06,-2.8191404270057e-05,2.9719743213294e-08,9.61578181668561e-05,0.0161258465970956,0.00856641299064767,0.00452990262786874,-0.391080881154608,4.2433595360132e-05,5.08228707934081e-06,1.19328711875061e-05,-5.66995248212494e-07,7.07377272446347e-06,4.64916598392838e-17,-2.48258851275175e-05,-2.65470609174285e-06,5.43157497020421e-06,0.707106781186548,1.43640495198081e-05,-3.34885448858242e-05,4.44862882693547e-05,7.77933648721902e-16,-4.59114457145728e-16,0.00409929619652675,-9.1780439905988e-16,6.13509181735632e-16,1.03402457333163e-06,3.91405992386044e-06,-0.000437134474878911,2.82227611634134e-15,-3.95456299717349e-16,-2.58047090343196e-08,-2.06587114984959e-06,1.14707125355158e-15,1.68986473040722e-05,-0.000208909278400487,-1.04436700595973e-15,-3.1473375223003e-07,0.000106682740906324,1.53351335630244e-16,5.70020413826268e-06,-2.19715265202474e-15,-1.96016047895174e-17,-2.22822507093802e-15,-7.29503225643961e-05,1.54918746982161e-06,4.81977285579143e-16,3.92559694267399e-16,1.13136122119748e-15,-1.40346797855927e-16,3.86596507851842e-05,5.78843928268581e-16,1.17892469088998e-15,5.68528983371537e-16,8.78886634916712e-16,-1.29695385590053e-16,-5.20603093332219e-16,7.71652276620225e-16,-7.36937012433616e-17,-7.17174890964038e-08,-3.15946168204171e-15,5.07620931137826e-16,1.23570887480319e-16,-1.22867786478105e-15,1.18242624399188e-15,-6.14586864302478e-16,-2.14121657796177e-06,-7.15734731894139e-15,-9.76704955530491e-15,0.100000000000001
"t93",-0.107854159524756,0.131024162964717,-0.103288079334317,-0.00489169062164617,-0.0015800504320565,-0.0405030665023768,5.45145686359145e-05,9.58794722952265e-05,-0.000550144567139368,0.00178798694225896,0.0113532123398294,-0.200040453956323,-0.288175693567121,-1.46607553647533e-05,-2.22872693604769e-05,-0.000498122808147306,0.000456775504452564,-0.0601987515227457,0.000213216516211284,0.0347748327310894,0.00289957899312888,0.000195840936368991,-3.6504247452965e-06,-3.1417753918194e-05,2.80084147795417e-05,-3.3944119692611e-06,-0.00655919514480559,-7.6784709257538e-08,-1.65029521142688e-07,-6.40803186222584e-07,1.3541016872273e-07,-2.89719130328698e-06,3.0006167411889e-09,1.07524946593852e-05,0.00303849458249488,0.000288413080114886,0.000313892504432614,3.68237128219415e-05,6.56038116625612e-07,1.00755760418992e-07,3.58371009026665e-06,2.53697315406261e-07,-6.32111018605551e-06,-1.01909872320472e-15,8.67423765442249e-06,1.01312616685808e-06,-2.89719800294229e-06,-2.52789886195888e-15,-1.83579608575769e-05,4.89249297621451e-05,-8.75516429067353e-05,1.89876334797947e-15,9.115330279546e-14,-0.78647901830407,-2.04840177496873e-15,-2.69242630626942e-15,2.75277363000235e-06,8.80756392741358e-06,-0.44748578840408,5.89740267262102e-14,2.2800503514436e-14,-1.28055537768492e-08,-1.66428127529623e-06,1.13873180974181e-14,1.85239033508813e-05,-0.0445376954292931,-1.19847934407846e-15,-2.87647708731428e-07,9.98337875529647e-05,-2.87802988431909e-18,5.27328111777118e-06,-2.87381599623173e-15,-1.55299974044781e-15,-6.18339565947203e-16,-6.39063041731771e-05,1.35606367888006e-06,1.01109816343625e-15,9.94231080818682e-16,1.05490754430437e-15,-2.28347310227604e-15,3.01108135714659e-05,9.92660926445277e-16,-1.37270758721521e-16,5.11410502597418e-16,1.11065486838337e-15,-1.27259696834057e-15,-1.27965801826578e-15,-1.18147428811356e-16,1.61351193263976e-16,-5.30665516012884e-08,-4.3298690484842e-15,-3.6677311275654e-16,1.15242667676713e-16,-1.31409382466747e-15,2.93840582823048e-16,3.61300108294816e-16,-1.50242210042855e-06,-6.91896513668035e-15,-1.02211595146879e-14,0.100000000000006
"t103",-0.108025327776796,0.131660404350084,-0.103920839690278,-0.00493664979242609,-0.00160950502428689,-0.0413985243422628,5.60201907141484e-05,9.85939205076953e-05,-0.000567847020744291,0.00185019515311397,0.0117752839965588,-0.208982727034253,-0.302754910946395,-1.554148226374e-05,-2.37157587380485e-05,-0.000533074308419803,0.000492852077663609,-0.0651791830678101,0.000247181094342651,0.04038111383087,0.00337280537860109,0.000227873736268738,-4.30138438880994e-06,-3.81496914299549e-05,3.47652154149499e-05,-4.40921535116347e-06,-0.00877309688512986,-1.05155104446891e-07,-2.26030531622729e-07,-1.02480681963311e-06,2.18131330818561e-07,-5.63556240687938e-06,6.01928394107498e-09,2.33816705006458e-05,0.00679621861361248,0.00112030095738036,0.00137201491630053,-0.00116617281037697,-4.6984642649671e-06,-6.62090084537845e-07,-1.13676049126201e-05,-4.67473572965519e-07,1.03390945408999e-05,4.6782082885463e-16,-1.00892021580946e-05,-7.91737107612665e-07,1.02364437068222e-06,-8.66783923812287e-16,-6.48316114829636e-07,3.14069579461148e-06,-9.98999853255176e-06,1.64531805572345e-15,1.50119890487805e-14,-0.18649833040599,1.51798508144696e-15,-4.33914442127091e-17,7.16336413383979e-07,1.83468102432146e-06,0.783009462936771,-9.71626693581481e-14,-4.09795042322389e-14,-6.12559169957754e-08,-3.64383102138298e-06,-1.61106782486906e-15,2.72029500978139e-05,-0.398841960984288,4.62366334963546e-15,-3.2362993837492e-08,3.73484309394936e-05,2.46730951776441e-15,3.29888638416338e-06,3.08397010630573e-15,-7.60650589424008e-16,-1.12202671617995e-15,-4.27422211663087e-05,9.07404218304664e-07,1.55584578476649e-15,-6.67389436143923e-16,-7.4756398510602e-16,1.81824032554363e-15,2.12456971759087e-05,8.89875258932874e-16,2.06218293558879e-15,3.40707748046111e-16,5.40112336747265e-16,-7.70940138404261e-16,-1.34222495868103e-15,5.50544896545234e-16,-1.39136477716271e-16,-3.83204668462705e-08,-1.05880727644815e-15,1.271093675309e-15,3.73456235327687e-16,-8.53636527215825e-16,1.30277569539293e-15,-3.43117270727062e-19,-1.11430821982958e-06,-8.83114733945916e-15,-1.28510386773325e-14,0.100000000000005
"t112",-0.108115187612418,0.131994381609919,-0.104252975578147,-0.00496024644124958,-0.00162495926905669,-0.0418682990223057,5.68099242559605e-05,0.000100017678414316,-0.000577130956913309,0.00188281700823691,0.0119965999759203,-0.213670498209688,-0.310396233460264,-1.60029496427989e-05,-2.44641351381124e-05,-0.000551381585808938,0.000511743327934313,-0.0677868411508148,0.000264923527468625,0.0433095674828152,0.00361998247005554,0.000244605040220352,-4.64125363432214e-06,-4.16611307812069e-05,3.82872483211326e-05,-4.9374820073906e-06,-0.00992462235293513,-1.19902094251542e-07,-2.57738884476913e-07,-1.22367428378292e-06,2.60964293759526e-07,-7.0485413626516e-06,7.57612501206539e-09,2.98873414411661e-05,0.00873119255467843,0.00154641489832665,0.00191361589194271,-0.00177827129294072,-7.41703472851446e-06,-1.04930691205876e-06,-1.8934615873275e-05,-8.3115839897847e-07,1.87325293137178e-05,5.10659084508549e-16,-1.95117000820153e-05,-1.69399128546079e-06,2.96286423599313e-06,-3.68386029395782e-16,7.83013460620737e-06,-1.86546767814412e-05,2.64625429233991e-05,-7.94611471186796e-16,-8.24156974204047e-15,0.0736868603480853,-1.36473269028064e-16,1.05169212434295e-15,9.18663198797392e-08,3.58600991954916e-07,0.207651808621231,-1.85991564089803e-14,-7.8441804953887e-15,-1.62489500487387e-08,-9.54450537295634e-07,-1.65865532110175e-14,-2.33942638207362e-05,0.866529525085934,-8.81719472028084e-15,-5.70217946232755e-07,0.000133318550333648,-3.81710192294671e-15,3.60693293901986e-06,2.48483798744581e-15,4.00180437766666e-15,1.30040169378846e-14,-3.6792264087135e-05,7.79963081987526e-07,-5.62752170002643e-15,5.17117221689377e-15,-9.33589437823428e-16,2.21303998969164e-15,1.7053123374132e-05,-8.10175449551996e-16,1.62142831167926e-15,1.46395166557567e-15,-3.89322596773108e-15,6.10583007703891e-17,-8.08106038147339e-16,6.31553655708126e-16,1.12910642955874e-16,-3.09864493514029e-08,-3.61092478978171e-15,-2.42601045192277e-16,2.10246841098579e-16,-1.50001807551959e-15,-6.48660673658569e-16,-1.6650605519155e-15,-9.15800857984318e-07,-5.21379396700929e-15,-1.25430474534451e-14,0.0999999999999581
"t155",-0.108269151033827,0.132566126508345,-0.104821383889858,-0.00500059787686398,-0.00165132576606282,-0.0426691238978541,5.81544645670815e-05,0.000102441277244342,-0.000592920785764923,0.00193826698744253,0.0123725913807105,-0.221621640331729,-0.323341143185294,-1.67832165141174e-05,-2.57285262745727e-05,-0.000582276122722069,0.000543571443050775,-0.0721772763964471,0.000294446079635747,0.048181136084835,0.00403106149215151,0.000272429480544378,-5.2054010369677e-06,-4.7465338271856e-05,4.40924537109021e-05,-5.80355834301719e-06,-0.0118066547283835,-1.43947964437174e-07,-3.09440726228339e-07,-1.54392468215442e-06,3.29908008423753e-07,-9.29949924544531e-06,1.00529161332213e-08,4.02039109476291e-05,0.0117965001560434,0.00221265746856389,0.00275899029155786,-0.00272139543149012,-1.15876597794053e-05,-1.64306444210833e-06,-3.04725465077428e-05,-1.38206068563796e-06,3.14245736177798e-05,-2.94846579752727e-17,-3.36806973605776e-05,-3.04072696101969e-06,5.8115684671539e-06,1.4783496111048e-15,1.98001257698978e-05,-4.92443390321737e-05,7.69840983173375e-05,-1.89457303876634e-15,-4.50529586852114e-14,0.412795962783504,4.58809555340595e-16,1.1058755435678e-15,-6.2003084500012e-07,-1.21579865357842e-06,-0.267889234176942,2.95332941459779e-14,1.22956455402675e-14,1.75074819337429e-08,9.28682889092938e-07,4.12853087317761e-15,6.48199798205656e-06,-0.209841824409761,8.56561820436289e-16,1.14622865763518e-07,-2.34121859999152e-05,2.06128031966689e-15,-1.34976818036308e-07,-3.33509690702336e-15,-1.19753012785099e-15,-8.76878767176305e-15,-4.33829764235704e-06,9.34591775422517e-08,1.61971331002334e-15,1.6949093429408e-15,1.90642812666809e-15,-4.63703731820993e-15,6.15475848166189e-06,1.03789541514067e-16,1.06911274666765e-15,5.38160706483759e-16,-1.33527626285968e-15,-4.95309711097069e-17,1.8539026681041e-15,2.41995961019778e-15,4.68033725620898e-16,-1.39186407793607e-08,-9.37692884452984e-15,0.707106781186547,3.97893304907301e-15,-3.12032874885768e-15,-2.62890300249186e-14,-2.66579809371608e-15,-4.88860581123518e-07,-6.28935877039911e-15,6.57872749792194e-16,0.100000000000012
"t156",-0.108269151033827,0.132566126508345,-0.104821383889858,-0.00500059787686401,-0.00165132576606281,-0.0426691238978542,5.81544645669653e-05,0.000102441277244358,-0.000592920785764976,0.00193826698744273,0.0123725913807105,-0.221621640331729,-0.323341143185294,-1.67832165140988e-05,-2.57285262743595e-05,-0.000582276122722288,0.000543571443050721,-0.072177276396447,0.000294446079635775,0.048181136084835,0.00403106149215154,0.000272429480544345,-5.20540103654358e-06,-4.74653382722922e-05,4.40924537109632e-05,-5.80355834213942e-06,-0.0118066547283835,-1.43947961770904e-07,-3.09440726532512e-07,-1.54392468179416e-06,3.29908008198991e-07,-9.29949924486705e-06,1.00529179165171e-08,4.02039109473498e-05,0.0117965001560431,0.00221265746856414,0.00275899029155811,-0.00272139543149016,-1.15876597795441e-05,-1.64306444161596e-06,-3.04725465064761e-05,-1.38206068602984e-06,3.14245736185933e-05,-1.80181469017739e-16,-3.36806973607192e-05,-3.04072696083044e-06,5.81156846707265e-06,2.56775595382488e-15,1.98001257675909e-05,-4.92443390329871e-05,7.69840983177962e-05,-1.07716140570462e-15,-4.54205247034101e-14,0.412795962783504,4.72496420033024e-16,2.66820278181211e-16,-6.20030845511697e-07,-1.21579865402396e-06,-0.26788923417694,3.17537401952276e-14,1.27830610936573e-14,1.75074827100072e-08,9.286828880867e-07,5.8910099247696e-15,6.4819979822857e-06,-0.209841824409762,9.00556258972544e-16,1.14622866925516e-07,-2.34121859965638e-05,1.08983520254495e-15,-1.34976819173976e-07,1.75983408353885e-16,-2.22502222313906e-15,-4.13360654233832e-15,-4.33829763598623e-06,9.34591792045036e-08,4.14943642009002e-15,-4.07825038511445e-15,8.48843117517094e-16,3.41207960994379e-15,6.15475845605605e-06,2.66547750464992e-15,3.82799385543475e-16,-1.4611107377557e-15,4.84033927835571e-15,-1.53939044637447e-16,-1.70923826757607e-15,-9.58494258915646e-16,-5.1564264818538e-16,-1.391863303497e-08,2.45597410251436e-15,-0.707106781186548,-3.3901953207215e-15,8.90316206567962e-16,3.0804188987999e-14,2.69892125710147e-15,-4.88860621324971e-07,-7.63994757030358e-15,-2.26776274490609e-14,0.100000000000013
"t85",-0.106267425956975,0.124942979447495,-0.0971667534899138,-0.00444370227755464,-0.00125685710741603,-0.0302964531822189,3.61991346514063e-05,6.25704487435414e-05,-0.000321412026663768,0.000952437449639769,0.00545663615939846,-0.0503963327184399,0.0990070739762211,-5.6637421459179e-06,-4.20321950407982e-06,2.13640051529128e-05,-0.000170780849413165,0.0317181492900308,-0.00354843325949269,-0.654545882548339,-0.0627076274046299,-0.00434960466207536,0.00138924432474387,-0.00051182757544144,0.000313632849664701,-2.78659734638878e-05,-0.0494590013400186,-5.56665138823007e-07,-1.19623809533405e-06,-4.62944827432335e-06,9.83384740814411e-07,-2.67865942194607e-05,2.97586197402916e-08,0.000153642822235122,0.0649465126196468,0.00413909477378872,0.0127833977708392,-0.00447245445940355,-1.85550977216113e-05,-2.62315297707899e-06,-4.68723356282795e-05,-2.03047841977855e-06,0.000105937024071142,6.58827157998042e-16,-4.6907619264238e-05,-4.00265810607623e-06,6.71912696039325e-06,1.58223756363916e-15,1.53600746991625e-05,-3.54723518080821e-05,4.64043484867199e-05,4.98246125587646e-15,1.19892353956995e-15,0.00864720485922431,0.707106781186548,-2.14470060255494e-15,9.64147075135383e-07,3.63084179401321e-06,-0.000846116322474442,4.79009932858992e-15,-5.51665577527778e-16,-2.35739536604526e-08,-1.88545318856837e-06,2.45359474019801e-16,1.52315143053647e-05,-0.000390755707127852,-1.31159640752987e-16,-2.82833893173368e-07,9.58099414114335e-05,9.61353108417614e-16,5.09619606445906e-06,-2.30570266711876e-15,-1.29552308966398e-16,1.28665733019215e-15,-6.48039772963052e-05,1.37606833708877e-06,5.13412163373648e-16,6.47730128927146e-16,7.57082841071628e-16,1.2994334508444e-15,3.38739550065415e-05,7.09236746190724e-16,9.30474562520125e-16,6.14794919610247e-17,-3.28660550341586e-17,-1.8897098091217e-16,-1.87274959420199e-16,8.15846834250119e-16,-7.33819346335794e-17,-6.24255072255217e-08,-2.88480646273655e-15,1.36338583746409e-16,5.58253854045688e-16,-1.08033645126595e-15,2.60394268579948e-15,-4.03239610159061e-17,-1.84991410924241e-06,-7.01754748166336e-15,-1.13988372397983e-14,0.100000000000007
"t86",-0.106267425956975,0.124942979447495,-0.0971667534899138,-0.00444370227755467,-0.00125685710741604,-0.0302964531822189,3.61991346514052e-05,6.25704487436385e-05,-0.00032141202666374,0.000952437449639757,0.00545663615939851,-0.05039633271844,0.0990070739762209,-5.66374214603909e-06,-4.20321950397701e-06,2.13640051528465e-05,-0.000170780849413177,0.0317181492900308,-0.00354843325949232,-0.654545882548339,-0.062707627404631,-0.00434960466207496,0.00138924432474387,-0.000511827575441498,0.000313632849664698,-2.78659734624228e-05,-0.0494590013400188,-5.56665134560791e-07,-1.1962380953849e-06,-4.62944827427815e-06,9.8338474080718e-07,-2.67865942194592e-05,2.97586224846241e-08,0.00015364282223422,0.064946512619646,0.00413909477378915,0.0127833977708406,-0.00447245445940397,-1.85550977217159e-05,-2.62315297669369e-06,-4.68723356285774e-05,-2.0304784209768e-06,0.000105937024069721,-1.77193101900469e-16,-4.69076192640922e-05,-4.00265810471248e-06,6.71912696203294e-06,-1.08923658935019e-15,1.53600746966955e-05,-3.54723518181547e-05,4.64043484899685e-05,-5.84989142424543e-15,-3.56378113489572e-15,0.00864720485922671,-0.707106781186548,2.37808796422827e-15,9.64147077063124e-07,3.63084179797704e-06,-0.000846116322472103,-3.82800690006293e-15,5.835049871369e-16,-2.35739529434912e-08,-1.88545318715281e-06,3.5638177648225e-16,1.52315143054237e-05,-0.000390755707129145,-6.05347545694039e-16,-2.82833893036855e-07,9.58099414117611e-05,-2.46014429957893e-16,5.0961960655315e-06,7.30063415840969e-16,-9.09406804938704e-17,-1.68318926030859e-15,-6.48039772958831e-05,1.37606833794928e-06,1.09952253783255e-15,-4.62492895708803e-16,3.06054737317658e-16,-1.11530162790358e-15,3.38739550079524e-05,1.22856366655585e-15,1.16521705489104e-15,9.07180396087972e-17,1.24389042400828e-15,-7.30159417088512e-16,-7.24950052702385e-16,5.51696099418016e-16,9.71708299002438e-17,-6.24255063054364e-08,-2.56518931871447e-15,3.91936062402181e-17,-2.62123924587139e-16,-1.34353997207272e-15,8.55341423400025e-16,-2.2214202575273e-16,-1.84991410848956e-06,-6.79133316832424e-15,-1.25715103095658e-14,0.100000000000007
"t67",-0.107442745253911,0.129412886258101,-0.101651140492895,-0.00476893751530317,-0.00148223646558643,-0.0372589141373727,4.80916377775366e-05,8.40269906121735e-05,-0.000460794214510589,0.00143539734021499,0.00864814069562263,-0.097440668534857,0.238512801366278,-2.55389522229655e-05,-3.30506339647985e-05,-0.000658214666870263,0.000556939235233272,-0.0718599669474621,0.000321821504919055,0.0552334061416211,0.00490493362751976,0.000335531574111594,-5.76653419671973e-05,3.30797617595822e-07,1.80789221353103e-06,4.63652381873375e-07,0.0024076730742865,4.59904264810129e-08,9.90477203636174e-08,2.25226661685555e-06,-5.06434377507357e-07,5.33506436162157e-05,-7.5485928736907e-08,-0.000867085426883152,-0.553088380953954,0.00390240401444341,-0.191723573142643,-0.00788185693249955,-2.9493129150465e-05,-4.12961917418853e-06,-6.68177263091144e-05,-2.51848575093417e-06,-0.729691283533054,1.5939832000447e-14,-6.00742059618079e-05,-4.81142071131639e-06,7.44342557767842e-06,1.56172360415629e-15,1.53631995889995e-05,-3.51463167922644e-05,4.51904393516861e-05,1.01901148325154e-15,8.74210898190364e-16,0.00799425266264277,8.20175543478001e-16,-2.14706746372552e-16,8.52103191149966e-07,3.17452949291454e-06,-0.000724894609678278,2.6465544831081e-15,-5.88682250729565e-16,-2.01167779391938e-08,-1.6054118262444e-06,5.81501124812128e-16,1.26942602932404e-05,-0.000325164886545079,-7.23363685196996e-16,-2.34914339452662e-07,7.94807690069579e-05,1.28771543165048e-16,4.19690808193592e-06,-2.03847553694442e-15,-5.74586510266154e-16,-1.59119972215642e-15,-5.2842281519846e-05,1.12191798510286e-06,4.4814733407965e-16,2.18499216373133e-15,2.09836654924036e-15,1.72158049621821e-15,2.70599270519029e-05,1.2013856368729e-15,6.43905232662374e-16,4.62425302923003e-16,1.29901250348648e-15,-2.46855392442108e-16,-1.84691728959082e-15,-1.01117279807141e-16,-7.69923591774651e-17,-4.93992712896829e-08,-3.83323351658522e-15,-1.03829875736361e-16,3.75318515516896e-16,-1.01922295993052e-15,8.96910540810109e-16,-4.28499470796648e-16,-1.44905467544103e-06,-6.22892485783875e-15,-1.18787810748566e-14,0.100000000000003
"t113",-0.108104853738641,0.131882378543746,-0.104109793936421,-0.00494397558540502,-0.00159663581365836,-0.0407160386397565,5.37901690136423e-05,9.42618554168043e-05,-0.000525603566385365,0.00165606484284135,0.0100830171652601,-0.117518103802205,0.295599468969085,-3.31198260939232e-05,-4.37192138613021e-05,-0.000897779510768706,0.000795500550025541,-0.104741457470945,0.000800484739988366,0.139848785956482,0.0126540243473344,0.000868599097971157,-0.000173740983063134,1.65785097425906e-06,1.80585473096442e-05,-4.07105633204192e-06,-0.00931262905571697,-1.21054968547571e-07,-2.60299403760113e-07,-1.68867903293508e-06,3.64843124726608e-07,-1.47796550971143e-05,1.75474672309966e-08,0.000111172003128321,0.0520306480761465,0.0175186916634028,0.559486236983438,0.00182000427481574,4.61640127915499e-06,6.19437515496587e-07,5.7930443877555e-06,8.64515633469072e-08,0.0166797132785835,-1.01338710621931e-15,-5.40238416564851e-07,-2.07282903569492e-07,7.19226924946817e-07,-2.07736478514119e-16,2.6645964438743e-06,-6.36821393685698e-06,8.84545922846271e-06,-7.05998899190581e-16,6.54254266980468e-16,0.0019414035956604,5.77263096928025e-16,1.12064462993903e-15,2.4624151129401e-07,9.55537221086287e-07,-0.000235604179684651,9.2377748452721e-15,1.65668211524628e-15,-6.63704015891833e-09,-5.34102896975027e-07,-9.73906252617274e-15,4.58439527408327e-06,-0.000118130824487578,-1.70058434195963e-15,-8.59728190545667e-08,2.92259287944706e-05,8.53612570939572e-16,1.58816015102672e-06,-4.18395357666157e-14,0.707106781186548,-1.54408556296774e-16,-2.08064631543256e-05,4.41994273480624e-07,1.46256104183056e-15,1.43856442179394e-15,3.25370382771746e-15,2.19278806469258e-15,1.16180913208965e-05,-2.24747579221734e-16,8.73507061205458e-16,-5.15756188300738e-16,2.36602442542891e-15,-5.03246833922478e-16,-6.93848406749291e-16,2.89525939288766e-16,4.304382917868e-16,-2.21370842219137e-08,-3.20249049393591e-15,-3.86491113243798e-16,-2.98270958052774e-17,-1.15276566026109e-15,-5.51322044684733e-15,-7.00904414260506e-16,-6.8243002266983e-07,-7.10386878900725e-15,-1.1916986068628e-14,0.100000000000008
"t114",-0.108104853738641,0.131882378543746,-0.104109793936421,-0.00494397558540501,-0.00159663581365844,-0.0407160386397564,5.37901690137159e-05,9.42618554168188e-05,-0.000525603566385409,0.00165606484284106,0.0100830171652602,-0.117518103802205,0.295599468969085,-3.31198260938304e-05,-4.37192138613342e-05,-0.000897779510768618,0.000795500550025639,-0.104741457470945,0.000800484739988329,0.139848785956482,0.0126540243473347,0.00086859909797112,-0.000173740983062922,1.65785097394482e-06,1.80585473096659e-05,-4.07105633305153e-06,-0.00931262905571689,-1.21054970316989e-07,-2.60299403030228e-07,-1.68867903296051e-06,3.64843124617435e-07,-1.4779655097164e-05,1.75474677583526e-08,0.000111172003128566,0.0520306480761472,0.0175186916634038,0.559486236983439,0.00182000427481537,4.61640127906058e-06,6.19437515428976e-07,5.79304438408744e-06,8.64515630660385e-08,0.0166797132785827,-1.13758747593292e-15,-5.40238416871257e-07,-2.07282903292687e-07,7.19226924908691e-07,-3.60392144393057e-16,2.66459644494048e-06,-6.36821393277043e-06,8.84545922845704e-06,-7.24416742318798e-16,-2.13068243783364e-17,0.00194140359566069,2.97430559662157e-16,-1.05943480997059e-15,2.46241512915413e-07,9.5553722334348e-07,-0.000235604179681988,-6.12493625797828e-15,-2.04616223828363e-15,-6.63703934201933e-09,-5.34102910762555e-07,1.50605442863918e-14,4.58439528107194e-06,-0.00011813082448116,1.27425436738945e-15,-8.59728288922971e-08,2.9225928805882e-05,4.87008888686574e-17,1.58816014440367e-06,4.22321027731238e-14,-0.707106781186548,-1.43116503723909e-15,-2.08064632049556e-05,4.4199427762723e-07,-5.07360682654741e-16,-8.23514990861332e-16,-2.55761981680484e-15,-1.51605072612562e-15,1.16180913418227e-05,1.63168058303604e-15,7.36914875822484e-16,6.34461523681393e-16,-1.597818711928e-15,-5.21861612080886e-16,-2.08551830050908e-17,6.63721199558446e-16,-2.45544267260527e-16,-2.2137083926012e-08,-2.95571066713642e-15,7.70569648495667e-16,4.6698396115305e-16,-1.06074401399245e-15,7.39312222834364e-15,9.56490793959446e-17,-6.82430024285579e-07,-7.11934960812201e-15,-1.04095113679725e-14,0.100000000000003
