"","c1","c2","c3","c4","c5","c6","c7","c8","c9","c10","c11","c12","c13","c14","c15","c16","c17","c18","c19","c20","c21","c22","c23","c24","c25","c26","c27","c28","c29","c30","c31","c32","c33","c34","c35","c36","c37","c38","c39","c40","c41","c42","c43","c44","c45","c46","c47","c48","c49","c50","c51","c52","c53","c54","c55","c56","c57","c58","c59","c60","c61","c62","c63","c64","c65","c66","c67","c68","c69","c70","c71","c72","c73","c74","c75","c76","c77","c78","c79","c80","c81","c82","c83","c84","c85","c86","c87","c88","c89","c90","c91","c92","c93","c94","c95","c96","c97","c98","c99","c100","c101","c102","c103","c104","c105","c106","c107","c108","c109","c110","c111","c112","c113","c114","c115","c116","c117","c118","c119","c120","c121","c122","c123"
"t1",-0.0343150520994167,0.000431527204445538,-0.0102057995005131,-0.0266965806390289,-0.000214203939343142,-0.00175861385379833,0.00217307435647011,-0.142660772564977,-0.00586804395134876,-0.00513319335851741,-0.00240296943649199,0.00617865313799431,-0.000182990674267266,0.0107935315480353,2.16639634707497e-05,0.0151914498060893,-2.51114029355018e-05,-0.0341496585172178,0.0138086762927881,0.000615880436386584,-0.0205593279890146,-0.00885033039335269,0.0331604862435816,-0.0443216567286471,-0.000247612570974274,-0.00421864761755101,0.161775696200085,0.256271738774762,0.00669125841402889,0.000848907443756272,0.000160073166455119,-0.00188184776686235,0.00756099130151119,-0.000176970268899714,-0.0648406408916226,0.000297674421470296,-0.00974435592074233,-0.00721635532908191,0.122239593627739,0.104635659243858,-0.0713146637942279,-0.197074185136367,-0.00894861411858178,-0.24769793279611,0.263257465635719,0.675907334336943,0.231331332360245,0.0024443412159254,-0.000400364035291045,0.282200001111608,-0.0236592455933833,-5.38645682807824e-05,-0.0102828242185868,0.183402561306513,-0.0329049517454393,0.0198369075070696,0.0379645603760696,-8.32484517294696e-16,0.0136681598471415,-0.104247001697659,-0.000232465534076291,-0.00269308637262959,-0.00150156449376767,0.0888090209959324,-0.000403708985633603,-0.0742250918082632,-1.25537666576007e-05,-1.32558505765091e-16,0.00168578302266082,-0.000207293110042789,-0.00128805632204595,-0.000346423113649732,-1.65226312367871e-16,0.000247813337460399,-0.00495641923203667,-1.2424211347944e-15,0.000892183304427497,2.98291225524407e-05,-1.17161233974035e-15,0.000688989839268409,0.00802453563901661,1.3466999311209e-15,-7.31883946384569e-16,-1.15834514238495e-15,0.0223097949977663,4.52667033373733e-15,0.00183548176098753,-0.0617683275934241,-0.10597507491936,3.84241811852717e-15,-0.000161586870752589,8.25598819851611e-05,-6.86470467743593e-05,-2.05555556027531e-15,1.10459938485379e-15,-0.000610777424891094,-3.35649059898546e-06,8.11784283020247e-16,4.91349497621745e-16,5.28899495260214e-15,-3.05545025508609e-15,-2.23340978470563e-16,8.94529920719439e-05,-7.97885144421949e-17,-6.54464085151921e-16,9.12619708266612e-06,1.28683824244789e-15,1.96732446672443e-16,1.56047890678085e-05,3.31777334357429e-16,-4.02708352795614e-06,-4.36225595655376e-16,-0.000393844900089409,4.53974921280583e-17,1.19227778417573e-15,-6.8791848533818e-16,2.54056007444355e-05,-3.63382496010127e-16,5.56130934249396e-16,-2.21851793272358e-15,9.31950904515913e-16,-2.40570344007089e-15,-2.30573206548349e-14
"t13",-0.0517210575017797,-0.00150638511570579,-0.00775947017907713,-0.0273175431473605,-0.000371876082113189,-0.00233061968520236,0.00486639574436139,-0.503077847002886,-0.0231183495038155,-0.0356742390332989,-0.0469971883745381,0.100378344943482,0.00343102203074319,-0.0262698052795587,-4.2993668966283e-05,-0.0482620425476464,6.51673117591448e-05,0.0651826191604798,-0.0101163326614766,-0.000326180411805889,0.0128972403403374,0.0037955030961127,-0.0133554339070021,0.0200337789287503,8.0053028820405e-05,0.00170515198589639,-0.0582202082943737,-0.0882142658955986,-0.00239494525195294,-0.000558658610469727,1.7485805772148e-06,0.00010170242110757,-4.0332036795078e-05,2.15559030908516e-08,-9.21378977586952e-05,2.64968473462728e-06,-0.000119428639779317,-0.000299951658985151,0.00848723486042793,0.00845686467786938,-0.00646892767286489,-0.0166044187414925,-0.000941721061914556,-0.0363331151167959,0.044944314957999,0.180632402972091,0.0754587134066766,0.00233422429578044,-0.0014445456646925,-0.740414335213304,0.0304024175319908,1.28731982499473e-05,0.00382494451023256,-0.0566894518223641,0.00390027064627326,-0.0022874712257074,-0.00386878157905923,2.99358929002766e-15,-0.00134679928895756,0.00962175542001792,7.51022409051168e-06,0.000211470103202616,0.000104678625894903,-0.00582032897398423,-6.61256436121673e-06,0.00456236229941406,4.1751544908355e-07,-1.79906430947381e-15,0.000128723100404628,-2.03124237541514e-05,-0.000137277201220748,3.46128248121272e-06,-8.67162121132562e-16,-2.03370453204981e-06,1.79282935801083e-05,6.60044431875424e-16,8.02900974867924e-07,4.13805684552143e-06,3.75314789620041e-15,7.91725480688851e-06,0.00144271514771731,-4.6386429849778e-16,3.23359519414363e-16,-2.7536755377497e-15,0.0074267690999425,7.42019611798109e-14,0.000462085821434641,-0.314153571446814,0.0921303952658758,4.36565452352082e-15,4.51475833547492e-05,-3.37199749949376e-07,3.38847393117501e-07,-2.08238395919154e-14,3.19425874944082e-15,-9.87188169344669e-06,-1.37808340385043e-08,-2.61215623569354e-15,-1.95951733338162e-15,5.41881471120375e-14,2.79571570923324e-16,2.62230228093428e-15,1.30631422590417e-06,2.69776652456175e-15,1.34992678096394e-15,1.61925424042953e-07,2.25931461386459e-16,1.35570559216257e-15,4.12077383669289e-07,-9.09981953000396e-16,-1.23675722976728e-07,1.32014349987973e-15,-1.32260489562354e-05,-9.69174386169039e-16,-1.45690486608413e-14,-1.77165325558905e-15,3.10973930855885e-06,-3.99060437365083e-15,-6.09860013154497e-16,6.23471420939359e-17,-5.6877757479729e-16,-2.13663823400739e-15,-1.71136473686092e-14
"t25",-0.0517846418106202,-0.00150922543887555,-0.00778718228212909,-0.027475390138008,-0.000374516616406443,-0.00235108310461246,0.00493622558712534,-0.512017058704784,-0.0235442998355769,-0.03642084074877,-0.0480840567213603,0.102983158091334,0.0035355234689679,-0.0272178908456178,-4.46995627004799e-05,-0.0502622736961338,6.80675665184667e-05,0.0684871880499278,-0.0108028578968635,-0.00035696359025793,0.0142594445381434,0.00426058045221507,-0.0152098423410384,0.0229079722613127,9.16422817010243e-05,0.00197581237288322,-0.0685875105326517,-0.104648335569318,-0.00297802171037295,-0.000737665171275178,2.73478739036936e-06,0.000253992195207372,-0.000434301560073432,1.50227265669722e-05,0.00363913519660933,-2.91838797664766e-05,0.00052524037172762,0.000353439329371658,-0.0056718802600199,-0.00484523354062421,0.00359604955682363,0.00887710304223335,0.000406232539801272,0.0124027767727898,-0.0124043668216229,-0.0300811295267608,-0.0109501706253479,-0.000200027494358965,9.50041675746264e-05,0.0371289805007183,-0.00125802249724194,-1.44901158437453e-07,-2.38801133545366e-05,-9.58550558309099e-05,0.000145102792334827,-8.56589738747399e-05,-0.000144832876581486,-1.40501273328133e-15,-4.99563671257485e-05,0.000346080228556501,2.67502865869721e-07,6.42720170877211e-06,2.46464073371569e-06,-0.000110791963542438,-1.14645025979138e-07,6.23192479431768e-05,-2.89497168980226e-08,5.10544687796641e-15,-1.04667035078601e-05,3.6663031199797e-06,3.17148156932338e-05,-9.40916255994292e-07,-2.10316475750762e-15,6.03010966337893e-07,-6.58631199664759e-06,-3.58957981816282e-15,-3.5931513375484e-07,-1.90501789332923e-06,-1.024108291019e-14,-5.28118693847495e-06,-0.00111118968534863,3.63169674225384e-15,-2.38890617341278e-15,6.6901237200855e-15,-0.0110835263665893,-1.97491998859459e-13,-0.000990342531039092,0.779621465859516,-0.27550612340565,-1.05014049875292e-14,-0.00017766530988973,1.44158101584766e-06,-4.98209689027214e-06,4.11433495612296e-14,-9.50320368209894e-15,-0.000229995378204903,-2.28154279213687e-07,7.57655095316135e-15,3.69989309410055e-15,-1.03284454169129e-13,-6.3327089687874e-15,-3.40935969694882e-15,5.67844251541638e-06,-4.04950677127922e-15,-7.17444126591113e-15,5.73149628173139e-07,-1.18393032781129e-15,-3.8735608361777e-15,9.77226418815307e-07,2.43711240995312e-15,-2.55107935515392e-07,-3.0356223080362e-15,-2.52384376793506e-05,2.02870801718439e-15,2.39881010687946e-14,5.27298293195448e-16,5.42024372473499e-06,8.80159974554294e-15,2.81303936068072e-15,-1.62517997055803e-15,4.1780155390272e-15,-4.68044861612929e-15,-3.5730374429298e-14
"t26",-0.0521492276562957,-0.00152537300049342,-0.00794146991609059,-0.0283322085984128,-0.000388647216869151,-0.00245872582304483,0.00528529511550891,-0.555486399605343,-0.0256052177351383,-0.0399670814260039,-0.0531678019130082,0.114941360354468,0.00400216246902427,-0.0313202544120123,-5.19455786638223e-05,-0.0586846783483554,8.01032578172608e-05,0.0818285540140027,-0.0133989600197238,-0.00046448991597375,0.018885828799093,0.00578173759877611,-0.0210837796350791,0.0319357006610388,0.000127958899730562,0.00280401988660083,-0.0993801867078883,-0.152892735911942,-0.00457574589680834,-0.00119544130845014,4.94612519167626e-06,0.00054112270142133,-0.00107876470240874,3.87712931167334e-05,0.00949327438486019,-7.80901812409217e-05,0.00147695694307166,0.00119570020263504,-0.0222580606483432,-0.019975173551833,0.0149764348718695,0.0374671923483466,0.00185400029202835,0.0622227746319835,-0.0684003788122983,-0.214600903997874,-0.0844686555160609,-0.00214528398964749,0.00122367853039663,0.583555475989669,-0.0229175455514309,-8.054772406968e-06,-0.00230332638899913,0.0319162624166185,-0.00107809673826741,0.000609891837411957,0.000859913317223761,-5.58914555888469e-16,0.000283027310656477,-0.00179512472902123,-1.36016485435847e-06,-2.72218681488343e-05,-9.10962251680786e-06,0.000383131842416443,3.87754248428423e-07,-0.000201702124070508,5.69697424255489e-08,-3.42635504445818e-15,1.97497333802919e-05,-5.3682208883911e-06,-4.2390053064056e-05,1.18134794875512e-06,2.39624646879539e-15,-7.31736508916465e-07,7.33681848167302e-06,2.03622586031726e-15,3.69470781066233e-07,1.93641913967515e-06,5.83871036851021e-15,4.61858135381609e-06,0.000917715461487741,-2.04468014135238e-15,1.20883229821401e-15,-4.08920160162661e-15,0.00717456736536826,1.1307962187638e-13,0.000572559617785212,-0.432705772708712,0.145802674799093,5.50900367956143e-15,8.84275169182627e-05,-7.05741020696145e-07,2.08559327770895e-06,-1.89514770460842e-14,5.96169162376528e-15,8.43315232334687e-05,8.17021870868421e-08,-3.16831132390965e-15,-1.7808929329883e-15,4.76900999189328e-14,2.92993971956591e-15,7.96186597259644e-16,-1.52541487076766e-06,2.2723405649237e-15,3.66827612041915e-15,-1.36565896892685e-07,1.62589073237386e-15,2.52178288812564e-15,-1.46491487766634e-07,-9.14042550803259e-16,2.68476573253441e-08,1.06893858565537e-15,1.91036147693232e-06,-9.5041644020806e-16,-6.82111172686757e-15,-6.08139320448856e-16,-1.95225087409304e-07,-4.99585863586029e-15,-8.42062918773856e-16,-2.0341831181471e-15,-5.75411440978988e-16,-1.43630944906745e-15,-1.7758685152933e-14
"t123",-0.112655252551399,-0.00957923358041373,0.0115666379739116,0.0142572120449558,-0.157745792186579,0.000597245321911462,-0.000479067615424712,0.0282104668670986,0.00115425316162532,0.00109057455020952,0.000857640401436438,0.00460319227075118,-0.000260796321432895,0.00213955448387554,2.35855494563434e-05,0.354859872864349,0.00046784734735273,0.200003164404946,-0.000362266196938798,-0.000128569780218768,0.217164111708142,-0.000398628172268652,-0.00118219973043258,0.00469635532923293,-3.41370407028352e-06,0.0116818201491294,-0.177111556239441,0.102505555095809,5.51998621460784e-05,-8.18396924274641e-05,5.45260709367327e-06,-0.00884894617859409,1.21743873088261e-05,0.02388916699501,-4.88923801754458e-05,-2.59111795651861e-05,1.11397329091537e-05,3.72010887956873e-05,-0.00145122982933633,-0.00331876626623801,0.0142849941707894,-0.00201298502945989,0.000129714482452849,0.0150656262608785,-0.00979861978966994,0.00980384707328315,0.00261331901277171,1.55828830295598e-05,-2.51759506038346e-06,0.000866066473754916,-7.5590420431836e-05,-3.28872732764803e-05,-2.1688156488393e-05,0.000334852223444915,-4.84462700228413e-06,1.96622921619968e-06,-4.41269536924252e-06,1.39394327928362e-15,-2.4026386671865e-06,3.35096996535258e-05,-0.00483692550894782,1.47938179335924e-06,1.15710142072504e-06,-8.43225941754204e-05,-0.00636060819332621,6.99709091915625e-05,1.15606624138075e-07,1.27110529401223e-14,0.427701069228367,4.35620330989871e-05,0.000175312163925423,-7.48249232573612e-08,1.35551581537734e-15,3.81991006022654e-08,-2.29530793445954e-07,-2.33900550371561e-15,-6.5604748899043e-09,-9.73806108437044e-07,-7.21216829631542e-16,-1.19189236051068e-09,7.70394527872365e-05,-6.59551253121554e-16,4.06285607055904e-16,4.29651900526631e-15,0.000899590092324518,2.76694758940444e-15,3.19466461028998e-06,-0.000563138027243212,-0.00172496941715206,-1.70559305620794e-15,7.81521856091641e-06,-2.62059486053103e-07,4.26211075004161e-08,3.44266211919623e-14,-1.10469227254667e-14,-0.117002394728331,2.15848707105755e-08,1.6740435380149e-14,1.70483661156835e-14,-1.57981616035158e-14,1.09754580160082e-14,4.88684071018192e-15,-1.1246178145841e-07,-6.94366129449761e-15,-4.37714777033638e-15,-9.72989175377366e-09,-1.69453285502983e-16,-6.94003185451106e-16,-1.08738352521955e-08,5.28297083976647e-16,2.18171245585573e-09,-5.90832603790807e-15,1.73258150349657e-07,-3.76253553128442e-15,-1.16288756479689e-14,1.89610734614022e-15,-2.39655419653313e-05,4.78080415163128e-15,2.97001945768188e-15,-2.77742949745741e-15,1.51752420654471e-14,4.30258385742665e-14,-0.707106781186574
"t124",-0.112655252551399,-0.00957923358041421,0.0115666379739113,0.0142572120449551,-0.157745792186579,0.000597245321911443,-0.000479067615424993,0.0282104668670987,0.00115425316162484,0.00109057455020984,0.000857640401436474,0.00460319227075097,-0.000260796321432872,0.00213955448387546,2.35855494561231e-05,0.354859872864348,0.000467847347352144,0.200003164404946,-0.000362266196940417,-0.00012856978021872,0.217164111708142,-0.000398628172269001,-0.00118219973043155,0.00469635532923187,-3.41370407099369e-06,0.011681820149129,-0.177111556239442,0.102505555095811,5.51998621458202e-05,-8.18396924293964e-05,5.45260709263813e-06,-0.00884894617859341,1.21743873096836e-05,0.023889166995009,-4.88923801753648e-05,-2.59111795647225e-05,1.1139732908486e-05,3.72010888020673e-05,-0.00145122982933511,-0.00331876626623927,0.0142849941707886,-0.00201298502945801,0.000129714482451723,0.015065626260879,-0.00979861978966739,0.00980384707328312,0.00261331901277121,1.55828830283414e-05,-2.5175950618982e-06,0.000866066473757969,-7.55904204241026e-05,-3.2887273275766e-05,-2.16881564832687e-05,0.000334852223443838,-4.84462700137958e-06,1.96622921725374e-06,-4.412695372272e-06,-6.52068919851485e-16,-2.40263866546473e-06,3.35096996507207e-05,-0.00483692550894836,1.47938179224963e-06,1.1571014195135e-06,-8.43225941734216e-05,-0.00636060819332722,6.99709091905873e-05,1.15606627530612e-07,1.1479857186161e-14,0.427701069228375,4.35620330941863e-05,0.000175312163923999,-7.48249154203041e-08,3.7421807055004e-15,3.81990947995671e-08,-2.295307927728e-07,6.43041086717708e-16,-6.56048064533055e-09,-9.73806107739545e-07,-3.75815879604974e-15,-1.19190088357811e-09,7.70394527868556e-05,3.28682636889335e-16,-4.32410168720167e-15,-9.34529483480293e-16,0.000899590092318499,4.41289613890912e-15,3.19466460628239e-06,-0.000563138027219977,-0.00172496941714895,-2.12853243865063e-15,7.81521855501088e-06,-2.62059487498187e-07,4.26211036347936e-08,2.88406455241494e-14,-8.50448636473954e-15,-0.117002394728336,2.15848684166904e-08,1.61694203778542e-14,1.03515139004916e-14,-1.73301904273352e-14,-1.08581736617241e-14,-1.86289558557788e-15,-1.12461769746887e-07,8.17388273152258e-15,2.45544666181102e-15,-9.72988932479533e-09,1.08689055362643e-16,-1.40282104520183e-15,-1.08738039396673e-08,-1.37439416296214e-16,2.18172425599267e-09,3.34683174101251e-15,1.73258147731859e-07,6.93863545662259e-15,1.73979166343838e-14,-8.3392710075319e-16,-2.3965541937094e-05,-3.49902604247837e-15,-2.67836023125505e-15,-1.4262688974191e-15,-1.16616481332785e-14,-4.87974120046377e-14,0.707106781186521
"t57",-0.112244501342576,-0.00952625903134438,0.0114487568886623,0.0140298789169028,-0.154713023361157,0.000583370305053232,-0.00046209816485356,0.0270194890316226,0.00110407829458854,0.00103810475276796,0.00081302504885152,0.00434156740235818,-0.000244081713598539,0.00198441286949917,2.17564801725195e-05,0.326488926941925,0.000428556406070109,0.181659332933049,-0.000322159950135029,-0.000111228382572398,0.185948941302875,-0.000336496168296462,-0.000985460045782502,0.00390159946330077,-2.83334753099956e-06,0.00960210826172857,-0.143773573581166,0.0827949010363133,4.32346674205497e-05,-6.20123716009911e-05,3.85210422528612e-06,-0.00560688822518055,6.93609164874053e-06,0.0132463077980734,-2.69041926854504e-05,-1.40016426439451e-05,5.8081893281326e-06,1.69277795238443e-05,-0.000590256318342419,-0.00129978181853623,0.00555117293829826,-0.000774249570166589,4.69623604984565e-05,0.00506613286133248,-0.00305895045979757,0.00249484181860859,0.000624875013650697,2.86775630403512e-06,-4.01349763946469e-07,0.000118452329268971,-9.25156200170087e-06,-1.94814487777556e-06,-9.90976805953806e-07,7.19732006332959e-06,1.21475895266301e-06,-5.2010180649119e-07,1.46756475273926e-06,-1.764863913958e-15,8.48044519440993e-07,-1.32394127724009e-05,0.00196062604445834,-7.611433101341e-07,-7.14966051344257e-07,5.71065418932641e-05,0.00444308480429616,-5.20029287547268e-05,-1.88982747355342e-07,-2.00261144317829e-14,-0.755858770688776,-0.000132757822258999,-0.000682255251365871,3.53143557321852e-07,-3.25159528540931e-15,-2.02604546830553e-07,1.72033932560199e-06,-8.44311189875227e-16,7.6198917342278e-08,1.22337617794114e-05,6.06517312994932e-15,7.9883160346989e-07,0.00305689672206605,-3.18871510646205e-15,5.04463037154391e-15,-2.4698140011935e-15,0.00732246944585973,4.63971752891144e-15,1.9898958783341e-05,-0.0032527668599052,-0.00921676735642096,1.61847732017657e-15,3.825973755337e-05,-1.25569050302969e-06,1.72435505380477e-07,1.03993721602519e-13,-3.66011233060668e-14,-0.425007776907089,7.71088212629128e-08,5.63028573671303e-14,5.97298938116732e-14,-6.9201212368145e-14,-3.9271675146483e-15,6.06062405346622e-15,-3.42612817449769e-07,2.67250141226835e-15,-1.89826341135875e-14,-2.82340595197518e-08,2.54099014493622e-15,2.15133438531974e-15,-2.77270087538094e-08,-6.23703041474745e-16,5.24243447626147e-09,-2.97922757211635e-15,4.0104211482485e-07,-4.11543906867218e-15,5.35714704324785e-15,-3.6376614650908e-15,-5.28706629801659e-05,-6.98405854623867e-15,1.95770788092673e-15,-2.85632816565945e-15,2.27118898532869e-16,-1.97453844329203e-15,-2.11963170292349e-14
"t35",-0.1111623504771,-0.00938710171122666,0.0111413282067791,0.0134422587273623,-0.146913417990036,0.00054790667715801,-0.000419530958970479,0.0240629259739288,0.00097975931610181,0.000909019241042607,0.000703916134630039,0.00370643121373247,-0.000203949859786463,0.00161664807709579,1.74536243086879e-05,0.259988598357568,0.000337019776010249,0.139419424742069,-0.000232407834664107,-7.37980343901334e-05,0.119456045672248,-0.000206508454103115,-0.000580244505107833,0.00227147137159577,-1.64434736144927e-06,0.00539154570760138,-0.077286416170735,0.0437195847772148,2.03527499818816e-05,-2.54861853324947e-05,1.11613176725466e-06,-0.000621910013216533,-4.02967515683137e-07,-0.00133680672527552,3.0395714073871e-06,1.98378895835759e-06,-1.15187770743983e-06,-7.07186976239168e-06,0.000358132332397533,0.000874341158204288,-0.00381070816206416,0.000545629228645464,-3.82460110486572e-05,-0.00483307211151614,0.00337025425805801,-0.00387568511541816,-0.00106644642239744,-7.02575256930816e-06,1.17965587237323e-06,-0.000419279500122681,3.73147150178697e-05,1.75091100910971e-05,1.1713501155725e-05,-0.00018527563239575,3.20894604161081e-06,-1.30993614409308e-06,3.01478870699508e-06,1.56380902988054e-15,1.65223317301995e-06,-2.33242258835501e-05,0.0033757428558926,-1.05615509445169e-06,-8.36706296884623e-07,6.121983208816e-05,0.00462208570358024,-5.08971935051913e-05,-7.02819323084448e-08,-8.4059446543503e-15,-0.245722358557848,-6.0051152710334e-06,3.85434024700716e-05,-4.49709538542865e-08,-3.51517526338115e-15,3.37113556239558e-08,-4.58000789406736e-07,2.85939026593737e-15,-2.76120785387404e-08,-4.60553870623668e-06,-2.18064222359595e-15,-4.53171615559134e-07,-0.00196779398614155,4.7952890123272e-15,-1.21167498428611e-15,-2.33154268135277e-15,-0.00731168447766071,-1.36836618431858e-14,-2.35289914173453e-05,0.00407348788206305,0.0123165851518103,2.40047368285076e-15,-5.54293403025317e-05,1.85827525456743e-06,-3.09236638066509e-07,-2.2585897986331e-13,7.66561963151362e-14,0.887172738277124,-1.65235221054246e-07,-1.18408316625393e-13,-1.17041783310656e-13,1.38663337860056e-13,2.28571795817287e-16,-1.17829349702837e-14,9.92687493621017e-07,-3.43393660789556e-15,2.44753264286968e-14,9.20341460814397e-08,-2.0501171676922e-15,5.33756425700327e-16,1.374284395601e-07,1.69224724163703e-15,-3.4532462130438e-08,6.13710197838984e-15,-3.34947927466288e-06,9.67503286791338e-16,-1.16525585704652e-14,5.59888553705233e-16,0.000680338339052707,7.93086146033195e-15,-1.12211646329971e-15,2.99023358856727e-15,-7.70658726421416e-16,-2.45456881172465e-15,-1.87071235162845e-14
"t71",-0.110889396721443,-0.00935026990480792,0.0110501811699019,0.0132437292835969,-0.144085598620443,0.000533937455885417,-0.000398329805409933,0.0223995127876346,0.000908266608469376,0.00082860954006919,0.000631322317440834,0.00324883283549241,-0.000171433826602505,0.00127615136958778,1.31430563510582e-05,0.190833325867708,0.000235676935438559,0.0866963985038995,-8.15061534153194e-05,2.04552779997562e-05,-0.0773501843512885,0.000282818626451463,0.00135034000938853,-0.00604422194443284,4.54023133390316e-06,-0.0217707370402424,0.518413641007719,-0.36559426715877,-0.00238060587092512,-0.000604852000933717,1.70180311727326e-05,-0.0188888122543949,2.18731055283556e-05,0.0415705015164798,-8.43666773031139e-05,-4.38649080338838e-05,1.82216811972046e-05,5.49112359656554e-05,-0.00201084870633035,-0.0045149147001128,0.0193630438418327,-0.00271573028624946,0.00017048417889532,0.0192422599875462,-0.0121970032375597,0.011509941881583,0.00302254028868865,1.71105110186563e-05,-2.7028660029052e-06,0.000911029928654043,-7.85028472376752e-05,-3.23206230505974e-05,-2.10676498523844e-05,0.000318616025632382,-3.67227823922086e-06,1.47337593105369e-06,-3.12282964076737e-06,7.26822387248522e-16,-1.67121844942388e-06,2.24856546488204e-05,-0.00321721283974021,8.9437604788363e-07,6.36676940317913e-07,-4.38650975148253e-05,-0.00324147931083615,3.41249640606069e-05,1.25394945390708e-08,2.51550845968003e-15,0.0249759209190313,-1.6692017044839e-05,-0.000113879323132275,6.73842160015686e-08,1.3635716716494e-15,-4.10066366958681e-08,3.909207245709e-07,-2.04278454127921e-15,1.86825106375776e-08,3.02612214727189e-06,3.10884716064177e-15,2.1313358158788e-07,0.000825293189927503,1.90443634429652e-15,3.52743227206329e-16,-9.89312388213819e-15,0.00189541123631136,7.47296810232191e-15,4.78832511773766e-06,-0.000754855027923697,-0.00203459814725949,8.68033554978787e-15,7.80741212606272e-06,-2.50088920536545e-07,2.48716010874525e-08,0.707106781186556,1.16805794071321e-11,-0.0363752597402731,5.70135693679804e-09,-4.6731460442606e-15,3.47487672646493e-14,-2.88004061430883e-14,1.9444699298049e-14,-3.89595782544842e-15,3.32935663126845e-08,-3.07352694245535e-15,5.00241356869253e-17,5.22549121056432e-09,-2.39155454891103e-15,-7.8899809878994e-15,1.71987857457882e-08,-3.81115189439954e-15,-5.53301871816313e-09,-4.73691394678053e-15,-6.1516972014666e-07,-2.95033716570775e-15,6.41147422649838e-15,-2.85338240852587e-15,0.000146571323005548,-1.54036927252307e-14,9.981154598903e-16,1.1096133671896e-15,1.89846417587274e-15,-3.5144071294168e-15,-2.02957152884673e-14
"t72",-0.110889396721443,-0.00935026990480792,0.0110501811699019,0.0132437292835969,-0.144085598620443,0.000533937455886137,-0.000398329805409849,0.0223995127876348,0.00090826660846916,0.000828609540068726,0.000631322317440966,0.00324883283549283,-0.000171433826602007,0.00127615136958753,1.31430563512609e-05,0.190833325867708,0.000235676935438521,0.0866963985038997,-8.15061534141003e-05,2.04552780000721e-05,-0.0773501843512887,0.000282818626452111,0.00135034000938821,-0.00604422194443281,4.54023133387796e-06,-0.0217707370402425,0.518413641007718,-0.36559426715877,-0.00238060587092576,-0.000604852000934929,1.70180311714911e-05,-0.0188888122543944,2.18731055297096e-05,0.0415705015164796,-8.43666773015621e-05,-4.38649080339924e-05,1.82216811979691e-05,5.49112359671484e-05,-0.00201084870632937,-0.00451491470011213,0.0193630438418315,-0.00271573028624973,0.000170484178899142,0.0192422599875417,-0.0121970032375586,0.0115099418815797,0.00302254028868561,1.71105110168143e-05,-2.70286600248911e-06,0.000911029928661877,-7.85028472397586e-05,-3.23206230520861e-05,-2.10676498503437e-05,0.000318616025632086,-3.67227823903622e-06,1.47337593516737e-06,-3.12282964125222e-06,2.37273001837262e-17,-1.67121844966826e-06,2.24856546476191e-05,-0.00321721283973704,8.94376047424457e-07,6.36676937425303e-07,-4.38650975093284e-05,-0.00324147931083925,3.41249640628434e-05,1.25394988380328e-08,-1.53893436388431e-15,0.0249759209190381,-1.66920170450883e-05,-0.000113879323142837,6.73842122052686e-08,-5.90767876652663e-16,-4.10066315296312e-08,3.90920741641108e-07,1.23397309110978e-15,1.86825122046292e-08,3.02612214073057e-06,-2.6927480176815e-15,2.13133591236107e-07,0.000825293189924523,-1.40956781405797e-15,-7.81656844699317e-16,9.76350432092074e-15,0.00189541123631389,-5.09913251164908e-15,4.78832515229782e-06,-0.000754855027849992,-0.00203459814726092,-9.13137068817608e-15,7.80741213738215e-06,-2.50088918533679e-07,2.48714307580285e-08,-0.707106781186539,-1.16867744239391e-11,-0.0363752597406313,5.70128851503263e-09,1.50854971899981e-14,-2.60418676278569e-14,2.0292679148169e-14,-2.15387481655675e-14,4.04109115490155e-15,3.32935819373062e-08,4.30875426031402e-15,-2.83472952887486e-15,5.22552617822256e-09,3.22392363348738e-15,8.1821697943748e-15,1.71987827511474e-08,3.74016410386159e-15,-5.53302608687328e-09,3.98168127585984e-15,-6.15169727131299e-07,2.70536628499113e-15,-4.76958463356868e-15,1.34281771441881e-15,0.000146571323007223,1.34057053095311e-14,2.01104901968265e-16,-4.30693909468539e-15,-3.58718893128606e-16,-2.16580060504404e-15,-2.59092804567283e-14
"t45",-0.113813220770906,-0.00973673266349082,0.0119680024633701,0.0151813699398462,-0.171471549183814,0.000669396762474518,-0.0006248920229638,0.0430405002318028,0.00183142623681639,0.00209698573285024,0.00213597234886343,0.0218739502209713,0.0011605829405101,-0.0018374353782018,-1.06654092708827e-05,-0.119814536933957,-9.52221647075143e-05,-0.0118467627189407,-1.13624773753305e-05,2.19106196130242e-05,-0.0952864519815056,0.000912067321167742,-0.00348106499659966,0.0098435346169343,-6.71078407944151e-06,0.430469475449894,-0.0365052905022532,0.00970757684838097,-0.000372181368791211,-0.000151562540950981,6.19938948070185e-06,-0.057078365814505,1.75444203823396e-05,0.0622174712817901,-0.00017582531531843,0.00129268177683676,-1.24326147225569e-05,3.55574259276258e-07,-0.000157683835324175,-0.000503668746473143,0.00253519192821041,-0.000574164508632363,9.82463724129969e-06,0.00136941093443583,-0.000880605983738237,0.000684755911244293,0.000162435501484682,4.58175628245862e-07,-3.17964262510527e-08,-3.29685936140134e-06,1.11259781111154e-06,2.20110975910448e-06,1.71458384763516e-06,-3.4018066566787e-05,2.36143212114604e-06,-1.02300864425177e-06,3.30635090703857e-06,-6.40132655382436e-17,2.08840406019397e-06,-6.32341816539793e-05,0.0482923435255849,-1.85705723212385e-06,-3.74927467676221e-06,0.00100393574291864,0.852393337381049,0.000469515213517874,1.22704171393805e-08,4.24697930117563e-15,0.0132240087770276,-1.96792771665165e-05,-0.000121305587636585,6.79707481471951e-08,-6.63743285337936e-17,-4.02885534223456e-08,3.62246907620388e-07,4.68826651143772e-16,1.65120700063736e-08,2.65763415353835e-06,3.59952936855233e-16,1.73655452879191e-07,0.000655368720148085,2.28662644836327e-15,8.57861248381865e-16,-9.22304426209774e-17,0.00135754086610923,-1.53222214723701e-15,3.25748715404824e-06,-0.000502996828589498,-0.00132025713364163,-3.39205309407382e-16,4.8689804629912e-06,-1.54079255536776e-07,1.27984343874171e-08,1.05154057914209e-15,-1.07297335401579e-15,-0.0108390119282477,1.23784021588247e-09,3.64930491704028e-16,2.38961008827944e-16,-8.59191275970164e-15,-1.19003478525627e-14,1.6359920459015e-16,4.04523484303942e-08,-1.94281915036852e-16,1.73176803150692e-16,5.22249564898737e-09,-9.34094979969398e-16,2.80847097098842e-16,1.40992088104515e-08,-1.20506263710307e-15,-4.33442697663346e-09,-8.70212572922752e-16,-4.71109413158395e-07,-3.49390067732951e-16,2.81388111241352e-15,-1.00869594523206e-15,0.000836890993686542,-1.5846677993672e-15,-1.91537010386177e-15,-9.80691533672213e-16,1.45861905653145e-15,-1.71132689921905e-15,-2.3039961837821e-14
"t85",-0.114156446197595,-0.00978136686392161,0.0120696642274531,0.0153845097878947,-0.174248861392536,0.000682560960722821,-0.000643906921983769,0.0446144512410873,0.00190049187347285,0.00218501336849514,0.00223339170021567,0.0229704772554088,0.00122678834165891,-0.00195729416489988,-1.14142842936126e-05,-0.128514373996773,-0.000102522915791357,-0.0128487347681492,-1.25519592151939e-05,2.47984874035893e-05,-0.108836474992669,0.00105513446637761,-0.00407297460807152,0.0115525025202515,-7.8825587839154e-06,0.510109195588693,-0.0437547762561231,0.0116889295229531,-0.000461080512089825,-0.000193701126309334,8.47727660826027e-06,-0.0871343089446813,3.00143035909829e-05,0.109696389485208,-0.000312668098584745,0.00234646929841903,-2.3513798373587e-05,7.92914673895827e-07,-0.000407332059727397,-0.00137074078398038,0.00697552536814108,-0.00160291008983202,2.99458251559886e-05,0.00467422925913583,-0.00339447559002362,0.00388964462575561,0.00106099391749375,6.72969168487737e-06,-1.11028218357151e-06,0.000388518017252378,-3.42513033042319e-05,-1.55015078479621e-05,-1.03043422369571e-05,0.000161351852099494,-2.95459556240571e-06,1.22642886811014e-06,-3.25613317647265e-06,-1.38570923589236e-15,-1.94672866180392e-06,5.28652321903638e-05,-0.03935168073437,1.17103617245699e-06,1.89288550239635e-06,-0.000448802592756324,-0.365068911562912,-0.000183986762859765,-5.8972489955816e-10,-2.32387226049301e-15,-0.000322146193321309,-2.0298379227931e-06,-1.73388925355461e-05,1.14558232435764e-08,-6.88999436145298e-17,-7.32948385587621e-09,7.74753026088685e-08,2.25905156931153e-17,3.99097169229003e-09,6.5258036221576e-07,4.09774525015414e-15,5.07729397283837e-08,0.000202260008486803,-9.79608850520643e-16,2.89400763178691e-16,3.84639644316006e-15,0.000501076748055631,3.81101946559735e-15,1.27990268297653e-06,-0.00020165918258858,-0.000541141375216846,3.05513919758624e-15,2.0491312165912e-06,-6.52842153033401e-08,5.74167670778008e-09,2.21011090708062e-14,-5.9293435618356e-15,-0.00506199885659108,5.8186607262413e-10,-1.89262728908124e-14,-1.15486536512546e-15,-4.88259628282803e-14,-0.707106781186543,-5.45020040239278e-14,2.03096782121726e-08,-5.34526966368647e-14,-3.2185511956969e-14,2.67916722190012e-09,1.00315222181911e-14,-1.89173762125371e-15,7.68583052554138e-09,-9.58078127467632e-16,-2.4337783387861e-09,-5.49045976509171e-15,-2.69655076844017e-07,3.03673641775391e-15,3.51010469358089e-15,-5.09331924196277e-15,0.000491310628422577,-1.9172605743691e-15,5.32057216325488e-15,-1.60851181888183e-15,2.22511514834274e-15,-3.61614512220086e-15,-3.46079415946991e-14
"t86",-0.114156446197595,-0.00978136686392162,0.012069664227453,0.0153845097878948,-0.174248861392537,0.000682560960722646,-0.000643906921984614,0.0446144512410872,0.00190049187347255,0.00218501336849482,0.00223339170021515,0.0229704772554086,0.00122678834165937,-0.00195729416490006,-1.14142842938595e-05,-0.128514373996773,-0.000102522915791101,-0.0128487347681485,-1.25519592147394e-05,2.47984874037797e-05,-0.108836474992667,0.00105513446637767,-0.00407297460807053,0.011552502520251,-7.8825587835755e-06,0.510109195588692,-0.0437547762561221,0.0116889295229527,-0.000461080512089272,-0.000193701126309847,8.4772766074406e-06,-0.0871343089446814,3.00143035903566e-05,0.109696389485208,-0.000312668098586714,0.00234646929842049,-2.35137983738165e-05,7.92914673606701e-07,-0.000407332059727944,-0.00137074078397995,0.0069755253681382,-0.00160291008983025,2.99458251550457e-05,0.00467422925913776,-0.00339447559002551,0.0038896446257562,0.0010609939174941,6.72969168504279e-06,-1.11028218424187e-06,0.00038851801725065,-3.42513033054965e-05,-1.55015078495407e-05,-1.03043422366663e-05,0.000161351852101302,-2.95459556200618e-06,1.22642886982681e-06,-3.25613317659257e-06,-6.67669742365491e-17,-1.94672865996262e-06,5.28652321916464e-05,-0.0393516807343689,1.17103617176074e-06,1.89288550244496e-06,-0.000448802592749583,-0.365068911562893,-0.000183986762859644,-5.89721829813774e-10,-6.65808472260706e-16,-0.000322146193324992,-2.02983791916465e-06,-1.73388925343687e-05,1.14558249997882e-08,2.52938940627899e-16,-7.32948415478652e-09,7.74752998280391e-08,-1.4506874276254e-15,3.99097348167085e-09,6.52580351838802e-07,-4.0800473669207e-15,5.07729402821298e-08,0.00020226000848086,-2.62300876066669e-16,-1.22376868290726e-15,-3.81332976977414e-15,0.000501076748045969,7.65167142561733e-18,1.27990269848658e-06,-0.000201659182590859,-0.00054114137525153,-3.54658970739644e-15,2.04913120296557e-06,-6.52842240892624e-08,5.74167188542056e-09,-1.80889644206245e-14,5.95759827127991e-15,-0.00506199885659333,5.8186110599095e-10,2.25530545034721e-14,2.69673509178613e-15,5.53177710659043e-14,0.707106781186552,5.4044175706371e-14,2.03098936742842e-08,5.49601054786971e-14,2.98977042774082e-14,2.67925722768441e-09,-8.33409763923831e-15,2.25090735526106e-15,7.68581375304193e-09,1.92046203341757e-15,-2.43376520836157e-09,5.62969516980833e-15,-2.6965506536991e-07,-3.11138425723564e-15,-3.20432365745695e-15,4.05345271004748e-15,0.000491310628430372,1.95681405474322e-15,-3.04017714557107e-15,-1.56398644766978e-15,-1.03968778979142e-15,-2.07357049768913e-15,-1.27677730321511e-14
"t81",-0.115238294605677,-0.00992452239310825,0.0124104832900466,0.0161056643604407,-0.184449947206789,0.000733041889858913,-0.000728008967065667,0.0522203966879188,0.00224000969759711,0.00264726215170472,0.00277596770719436,0.0295675413822109,0.00167940717185423,-0.00292881636017854,-1.82344543702994e-05,-0.212668516030098,-0.000181330543493845,-0.0267174876351782,-6.32761404508618e-05,-5.6387332411148e-05,0.132311218742253,-0.000660688398599751,0.00151188490082642,-0.00373050979422853,2.44811836042653e-06,-0.104523703787355,0.00487834040115835,-0.000974108895603266,-8.22559174192461e-06,-8.22924620350218e-06,-9.63147954460437e-07,0.489961392019235,4.96838615668304e-05,0.158840637863105,-0.000439608849575674,0.003107595360943,-2.85290888815445e-05,8.15937628511975e-07,-0.000395656171668632,-0.00131469823656217,0.0066748032557213,-0.00152932613397001,2.81587881002188e-05,0.00433881391166097,-0.00312186622410493,0.00352887545969041,0.000960706957101605,6.08042816464485e-06,-1.00448059384364e-06,0.00035234335689046,-3.11285484116673e-05,-1.43044690183304e-05,-9.55260290681981e-06,0.000151019377561135,-3.93227113976808e-06,1.70839029223875e-06,-6.49248884496373e-06,-4.90594953480757e-15,-4.69031563072567e-06,0.000277522392085353,-0.317081829856797,-1.05294553197772e-06,-3.62072173910261e-07,2.6854128640269e-05,0.0106984163577821,-3.11615737883745e-06,7.28879875209701e-10,-2.07457692424818e-15,0.000945965913391119,-2.83262708535671e-06,-2.04344209730979e-05,1.25478278788257e-08,-4.58018417113615e-15,-7.78199498191941e-09,7.7463288295686e-08,-1.33748488840786e-15,3.8332320822555e-09,6.23744405841476e-07,-1.9990061104997e-15,4.62110433238461e-08,0.000181634006434659,3.45131221790831e-16,-3.0250260199149e-15,-6.91839551930633e-16,0.000432864193679202,1.03262977093748e-15,1.09294746493252e-06,-0.000171597408961222,-0.000458752071717203,-5.13641254248699e-15,1.72966943822009e-06,-5.50471712962608e-08,4.79976069916208e-09,2.51515646624654e-14,-3.89272325990237e-15,-0.00420798594042493,4.83286292027112e-10,-2.05802542119249e-14,3.04441241088161e-14,0.707106781186544,-5.17747355166624e-14,-2.13596918043597e-14,1.67319979017114e-08,-1.19066206628665e-14,-1.57843422016418e-14,2.20189814759023e-09,-2.241578956684e-16,2.90121381688646e-15,6.27899961564615e-09,8.00882966119377e-16,-1.98376752079059e-09,7.06885154682293e-16,-2.19609739959428e-07,7.55374394720759e-18,-3.51357110510552e-15,-1.84766799222979e-15,0.00248696632907357,2.50792990934798e-15,-8.96537921413762e-16,-2.49473143588366e-16,3.29447786940535e-16,-1.47963013523285e-15,-2.31463697599726e-14
"t82",-0.115238294605677,-0.00992452239310824,0.0124104832900466,0.0161056643604407,-0.184449947206789,0.00073304188985894,-0.000728008967064947,0.0522203966879187,0.00224000969759751,0.00264726215170507,0.00277596770719407,0.0295675413822117,0.00167940717185432,-0.00292881636017814,-1.82344543709319e-05,-0.212668516030097,-0.000181330543493916,-0.0267174876351775,-6.32761404523645e-05,-5.63873324102708e-05,0.132311218742252,-0.000660688398599311,0.00151188490082712,-0.00373050979422871,2.448118360088e-06,-0.104523703787354,0.00487834040115973,-0.00097410889560388,-8.22559174180236e-06,-8.22924620424425e-06,-9.63147955809219e-07,0.489961392019233,4.96838615662577e-05,0.158840637863103,-0.000439608849576297,0.00310759536094291,-2.85290888833137e-05,8.15937626719826e-07,-0.000395656171669865,-0.00131469823656529,0.00667480325572052,-0.00152932613396796,2.81587880946863e-05,0.00433881391166216,-0.00312186622410395,0.00352887545969623,0.000960706957104764,6.08042815917743e-06,-1.00448059222653e-06,0.000352343356868415,-3.11285484122597e-05,-1.43044690197277e-05,-9.55260290814693e-06,0.000151019377560318,-3.93227113815566e-06,1.70839029176072e-06,-6.49248884699877e-06,-5.67796400620704e-15,-4.69031562767413e-06,0.000277522392083558,-0.317081829856792,-1.05294552881071e-06,-3.62072175864915e-07,2.68541286438859e-05,0.0106984163577688,-3.11615738140354e-06,7.28880683142839e-10,-2.52203333154982e-16,0.000945965913396271,-2.83262708339916e-06,-2.04344209713713e-05,1.25478327134823e-08,2.7785358949913e-15,-7.78200032875136e-09,7.74632879442961e-08,8.7113698828459e-16,3.83322994030908e-09,6.23744408756413e-07,7.58889332018545e-16,4.62110477630001e-08,0.00018163400642979,1.5881382545114e-15,2.15793660304084e-15,1.78806622514435e-16,0.000432864193689067,-3.48888743931312e-15,1.09294747655221e-06,-0.000171597409139603,-0.000458752071693226,4.10382225130835e-15,1.7296694034874e-06,-5.50471773503479e-08,4.79965936696058e-09,-2.38925374503513e-14,3.79924129846448e-15,-0.0042079859402023,4.8327138417515e-10,2.26160870133019e-14,-2.96248246722516e-14,-0.70710678118655,5.04351716878911e-14,2.00696711384239e-14,1.67319643111411e-08,1.18962876137407e-14,1.5215769266015e-14,2.20195643747995e-09,-1.14790219909683e-15,-2.80387685476167e-15,6.27899753954409e-09,-1.01487265056382e-15,-1.98376440326392e-09,-3.10333142705616e-15,-2.19609747577874e-07,5.00964631404995e-16,2.98891025692114e-15,3.06629485014593e-16,0.00248696632907611,-1.32368863467283e-15,4.30728332782955e-16,-1.14217107684044e-15,2.44360312378282e-15,-2.03848212093978e-15,-2.46486402901685e-14
"t40",-0.114857928682564,-0.00987479317385602,0.0122956274724781,0.01587182144495,-0.181215816639937,0.000717480839233421,-0.000704307335310409,0.0501874440187059,0.00215016520858009,0.00252947908294219,0.00264217006440388,0.0280068898133386,0.00157909423748972,-0.00273007322973484,-1.69078359782999e-05,-0.196698640783353,-0.000166998666306499,-0.0244024834333797,-5.65953518321724e-05,-4.904548190531e-05,0.11386942343467,-0.000560213961881199,0.00126506507664013,-0.00311031424433038,2.03908064729347e-06,-0.0861597387253443,0.00396733755121284,-0.000787886069350051,-6.43006938223207e-06,-6.19414962920159e-06,-6.66433583755435e-07,0.293700463765013,2.54239459179591e-05,0.077800252414698,-0.000212623921439145,0.00145788184624377,-1.25755504541073e-05,2.74408355929686e-07,-0.000100698130053423,-0.000299610234082931,0.00148484551173037,-0.00032930072168202,4.90159391348234e-06,0.00054416369995585,-0.000244607000723748,-0.000145167142496405,-7.17366407769898e-05,-1.22470221070443e-06,2.62780010081365e-07,-0.000112426862807408,1.11026476604455e-05,7.61957699821647e-06,5.47286234904435e-06,-9.774170824368e-05,6.96219369384428e-06,-3.15458909351589e-06,1.46825032566759e-05,1.82076174291373e-14,1.12577577933273e-05,-0.000752621707032073,0.885742464785904,4.03708016709643e-06,1.89844547797548e-06,-0.000170642672214415,-0.0730780174035167,2.4955974390041e-05,7.75195476595947e-09,1.65247502431713e-15,0.00858079220261312,-1.41456216202634e-05,-8.9107075013282e-05,5.05360899719776e-08,2.61803035916193e-15,-3.01286126594625e-08,2.74312382846144e-07,-1.68180490559735e-16,1.26238950591683e-08,2.03433113287562e-06,2.60437744600486e-15,1.3471648763891e-07,0.000510452736623863,-1.62425348696057e-15,-7.34736275892264e-16,3.08271594104026e-16,0.00107059257818005,3.5450143195488e-15,2.57913870444898e-06,-0.000398740715214025,-0.00104798595605599,7.29304816892033e-16,3.87079525101738e-06,-1.22538625707935e-07,1.02103758473781e-08,4.46497766605672e-15,-1.06663125554833e-15,-0.00866501534562616,9.89884209922267e-10,2.22927018449174e-15,8.36578183583745e-17,2.52484254458725e-15,-1.97043984461066e-16,8.62764384326196e-16,3.24503523111279e-08,4.93096780735277e-16,-9.94125430841601e-16,4.19349704907197e-09,1.19713126759092e-15,-2.54703216842919e-16,1.13519771266232e-08,9.79409639280597e-16,-3.49515494140696e-09,2.83522658714459e-16,-3.8044320918399e-07,-2.05009023255236e-16,1.36405164353863e-15,4.73017930165656e-16,0.00421255088233773,-6.8002333073069e-16,1.00460402840309e-15,-2.95816966893051e-15,2.85926354334156e-16,-4.21291808046773e-15,-2.36648957811208e-14
"t106",-0.115888300994906,-0.0100100809090701,0.0126114669054255,0.0165236879415224,-0.190303451292591,0.000761642036464088,-0.000773729817763415,0.0562537648729121,0.00241920282474432,0.00288687898517498,0.0030528359656295,0.0328668509849507,0.00189863441635249,-0.0033809214834151,-2.13281873565361e-05,-0.250363058919362,-0.000215864273539605,-0.0325286344555764,-8.19736970154197e-05,-8.04923367638389e-05,0.196994688296424,-0.00104960938248836,0.002562536347154,-0.00644274915404178,4.25061494258113e-06,-0.192382090240507,0.00977253043944949,-0.00202615874189925,-2.29987857016504e-05,-4.05503056388988e-05,4.21985873720044e-06,-0.347104071607869,-1.1452946284862e-05,-0.0267872509580114,6.7449405261641e-05,-0.000374328766802523,1.89315008938549e-06,4.99478128546168e-08,-4.68943144883429e-05,-0.000174325599111767,0.000902832888393493,-0.000212042133912577,4.39955566992522e-06,0.000751799609363791,-0.000582993487378037,0.000746163950317703,0.000208038323360874,1.40336102696212e-06,-2.36467337395523e-07,8.41498846933242e-05,-7.49007776670125e-06,-3.50925468212402e-06,-2.34728680947199e-06,3.71405203480647e-05,-8.17937511735523e-07,3.48605341460176e-07,-1.17569292188444e-06,-1.42419354424971e-15,-8.11357949378338e-07,4.28000785882602e-05,-0.0473109348621313,-8.6813645513302e-08,4.53514033217214e-09,-2.39616869886672e-06,-0.0013095024164809,6.38642333127947e-07,8.45753767982787e-10,8.66691689928027e-16,0.000993169150281327,-2.17676333677816e-06,-1.48514358290226e-05,8.85033402556734e-09,2.88146445550868e-16,-5.4117812426032e-09,5.22685895533681e-08,-1.60341653365599e-15,2.5281747016299e-09,4.10179682132855e-07,2.52322502573035e-15,2.94234891807239e-08,0.00011449874327445,1.04560665284856e-16,8.00598684788051e-16,-2.933159118847e-16,0.000263591564122754,6.81259554642128e-17,6.56438974503506e-07,-0.000102562590380301,-0.00027263813210663,-7.05350871067621e-15,1.02035955389785e-06,-3.24075456422636e-08,2.76916298295648e-09,-5.61187311113695e-16,1.98498555598254e-16,-0.00238105515922294,2.72426936874755e-10,1.72774285070252e-15,-1.79913297825679e-15,-1.12058472252471e-15,3.55115343428652e-15,-9.54629874990605e-15,8.90964848874509e-09,-3.83676374473667e-15,3.07555745664046e-15,1.13536654624106e-09,4.44836709686483e-15,6.15619245106884e-15,2.59747114947667e-09,-4.50386962468508e-15,-5.16326255499012e-10,-1.55081899714246e-14,7.33390906900099e-09,3.6797915690283e-15,2.42983975958294e-13,-4.48463727988662e-14,-0.821169079157484,6.59697755594151e-15,-5.55084641734665e-14,4.25892869917944e-14,-3.11780550377468e-15,6.44203455041078e-15,-7.09847838406245e-15
"t109",-0.115933447247626,-0.0100159871521983,0.0126251321016527,0.0165515796213929,-0.190689820969765,0.000763505023637867,-0.000776589491537815,0.0565003290792207,0.00243011078793704,0.00290123695963036,0.00306920618560514,0.0330587307806593,0.0019110682693012,-0.00340582017594537,-2.14955684525757e-05,-0.252385196987627,-0.000217690454926038,-0.0328275225356997,-8.28708095609077e-05,-8.15477318188799e-05,0.199730659138561,-0.00106528674867342,0.00260311295506478,-0.00654629404782032,4.31920769401698e-06,-0.195615670816846,0.00994502654907179,-0.00206259558121118,-2.34575936956709e-05,-4.14396934607355e-05,4.3284340276796e-06,-0.357769984692063,-1.18511667790174e-05,-0.0277433115891997,6.98737295566618e-05,-0.000388002985108244,1.96440252357724e-06,5.20122014531781e-08,-4.89510447828956e-05,-0.000182104385868023,0.000943257055546304,-0.000221578374821392,4.60231438040012e-06,0.000787378715013074,-0.000611242212691578,0.000784257793342976,0.000218798152916881,1.47919091106853e-06,-2.49480247072094e-07,8.88561400713209e-05,-7.91316784004483e-06,-3.7158111328818e-06,-2.48660400652676e-06,3.93770064132442e-05,-8.74228725981072e-07,3.72731645578814e-07,-1.25924016028617e-06,-3.95775978818336e-16,-8.69450440072036e-07,4.59109251911929e-05,-0.0507618885371732,-9.33751022598616e-08,4.88842801196995e-09,-2.58584570304757e-06,-0.00141373618868663,6.90053304146709e-07,9.25462866774928e-10,-4.96993066369553e-17,0.00108829205603364,-2.40897562402382e-06,-1.65059881462322e-05,9.867626072034e-09,-1.17004283734768e-15,-6.04483246093206e-09,5.86687525938752e-08,-8.84112668700361e-16,2.85197040123151e-09,4.63063653096673e-07,-2.85753865320992e-15,3.35781960449682e-08,0.00013127083357422,8.88710451874897e-17,-4.83317108173464e-16,-2.86446608077595e-16,0.000309347753275232,-2.95856226122791e-15,7.80693481940386e-07,-0.000122618471196781,-0.000328063496872632,3.58311957481238e-15,1.23875442532509e-06,-3.94428615104639e-08,3.46082890240523e-09,6.49818670162827e-15,1.87149771116263e-15,-0.00305701276873927,3.51637986322138e-10,1.23368290163617e-16,2.29130468725419e-16,-2.19654371607775e-15,-6.38064718657024e-15,1.00690488852101e-14,1.2463166211601e-08,1.41459418207183e-15,-1.58041146609015e-15,1.66096264773835e-09,8.49837442720885e-17,-3.465803228608e-15,5.08084114373257e-09,1.56923380516656e-15,-1.76069534174658e-09,-3.56988612987789e-14,-2.26987724120942e-07,-1.67309039047261e-13,-0.707106781186667,-4.0854118374365e-13,0.403514762436165,3.20848624929604e-15,2.09137020719706e-14,-2.54515246963547e-14,-4.75929197987369e-15,-6.67054053132363e-15,-1.70587884744116e-14
"t110",-0.115933447247626,-0.0100159871521983,0.0126251321016527,0.0165515796213929,-0.190689820969765,0.000763505023637797,-0.000776589491537886,0.0565003290792206,0.0024301107879371,0.00290123695963026,0.00306920618560528,0.0330587307806594,0.00191106826930069,-0.00340582017594541,-2.1495568452549e-05,-0.252385196987626,-0.00021769045492596,-0.0328275225356993,-8.28708095604544e-05,-8.15477318194648e-05,0.199730659138562,-0.00106528674867376,0.00260311295506509,-0.0065462940478205,4.31920769496911e-06,-0.195615670816847,0.00994502654907269,-0.00206259558121188,-2.34575936948215e-05,-4.14396934614587e-05,4.32843402881875e-06,-0.357769984692064,-1.18511667786769e-05,-0.0277433115891999,6.98737295567487e-05,-0.000388002985108167,1.96440252290376e-06,5.20122013652798e-08,-4.89510447841239e-05,-0.000182104385867433,0.000943257055545482,-0.000221578374820538,4.6023143803541e-06,0.000787378715015232,-0.000611242212687921,0.000784257793345107,0.000218798152918436,1.47919091298863e-06,-2.49480246801721e-07,8.88561400599341e-05,-7.91316783683256e-06,-3.71581113173107e-06,-2.48660400823281e-06,3.93770064138904e-05,-8.7422872475549e-07,3.72731645389675e-07,-1.25924015942369e-06,-1.37208993583156e-15,-8.69450442525586e-07,4.59109251900731e-05,-0.050761888537176,-9.3375104338555e-08,4.88842716581453e-09,-2.5858457001779e-06,-0.00141373618868977,6.90053302032515e-07,9.2546330315717e-10,-1.83074068030881e-16,0.0010882920560319,-2.40897563054529e-06,-1.65059881414777e-05,9.86762721422405e-09,-1.41755060110043e-16,-6.04483687420242e-09,5.86687563772936e-08,6.79782703275478e-16,2.85197267883365e-09,4.63063657132544e-07,-8.52781464739078e-16,3.35782020202859e-08,0.000131270833574798,-1.20154062059131e-16,-4.29000139938938e-16,5.46366916755436e-16,0.000309347753279541,3.53921781235677e-15,7.80693477111405e-07,-0.000122618471230768,-0.000328063496851298,1.97192622789349e-15,1.23875442477352e-06,-3.94428556035623e-08,3.46082984594805e-09,-4.36812115189083e-15,-1.88078029464049e-15,-0.00305701276872049,3.51628674885269e-10,1.37068782714602e-16,1.80085130977875e-15,4.37502249179154e-15,2.25179809949438e-16,-1.06442799739839e-16,1.2463185685471e-08,4.26076536827199e-15,-3.14534541949508e-15,1.66096375846171e-09,-3.68202602480203e-15,-1.90511180958945e-15,5.08087169535097e-09,3.70383737876179e-15,-1.76071400009532e-09,5.08434342964278e-14,-2.26987670671625e-07,1.63400527937639e-13,0.707106781186428,4.50457949054193e-13,0.403514762436584,-1.19764518134422e-14,3.56051415728971e-14,-2.01969905247066e-14,1.04893258519677e-14,-8.53548716239845e-15,-4.60286705232243e-14
"t14",-0.111978665324954,-0.00949699849926437,0.0114151732750144,0.0140588893888828,-0.155978122154911,0.000595066695330363,-0.000513106863932471,0.0335494912187756,0.00141288702575149,0.0015531674048937,0.00152356991022864,0.0148191426288302,0.000717459014628006,-0.000989630265282063,-5.15305847912153e-06,-0.0543952130367692,-3.80703189636733e-05,-0.00319064890516745,7.43799266420048e-06,2.49886788561475e-05,-0.0744314043878538,0.000468812634959765,-0.00119666928256268,0.00297738591158634,-1.95417998323611e-06,0.0768086626653581,-0.00142130578936162,-0.000160126373981449,0.000135799042437067,0.000117847439442751,-1.15937729242638e-05,0.184879645685369,-0.000212711480980147,-0.938323901623079,0.00282946025119683,-0.0244430318541656,0.000334822122597128,0.000303965236991453,-0.00934280095301916,-0.0249493247022097,0.122034775622183,-0.0267047558759015,0.000395984746765281,0.0506939669726121,-0.031806608175047,0.0280699361797794,0.00724150493796683,3.87289462355864e-05,-5.98511215063022e-06,0.00198043692301682,-0.000168796454644347,-6.66556218700431e-05,-4.31123732950772e-05,0.000643620450332588,-6.88723379701594e-06,2.76636427268962e-06,-6.05128755312375e-06,-1.0563313439277e-15,-3.34246364405466e-06,6.50367935166934e-05,-0.0355945597215573,1.43154084731522e-06,1.10867648820747e-06,-9.92020220995633e-05,-0.0314036260286797,3.80864612015742e-05,1.28984513130855e-08,2.07732878197529e-16,0.0146512664138106,-2.72927687893113e-05,-0.000177599107602496,1.02705946592363e-07,2.16079212536694e-16,-6.18312259352964e-08,5.75510701487298e-07,-6.79275275737088e-16,2.69606782993649e-08,4.35494834775982e-06,-4.50494702540536e-16,2.96169149792072e-07,0.00113158893867323,-3.18936353172964e-16,-1.89102723315915e-16,-5.35556401305749e-16,0.00243751950794862,-4.71155896271644e-16,5.92264024730302e-06,-0.000918054586103962,-0.00241956695937818,-8.20859237456926e-17,8.96513792364494e-06,-2.84032676261948e-07,2.38101813372564e-08,4.91225224290321e-15,-1.02958803143135e-15,-0.0202782833778803,2.31775660223027e-09,3.40840733229814e-15,2.71845485934761e-15,-1.26009346925448e-15,3.70283122952504e-16,2.62559327942765e-16,7.62811531902327e-08,5.38276210575029e-16,-1.80764859234161e-15,9.86485826185479e-09,2.16410478638234e-16,2.2620391562204e-16,2.67071666231936e-08,3.46133327534489e-16,-8.21145251208322e-09,-4.43965675096668e-16,-8.92102556623874e-07,2.48415800013293e-16,8.07989295558094e-16,1.95594681247479e-17,0.000970246667374777,-1.12915292359154e-15,6.75343993556114e-16,-1.69873220251692e-15,1.02967186936513e-15,-3.06174362819201e-15,-2.42744125301023e-14
"t21",-0.111038882638775,-0.00937193401011035,0.0111132217066831,0.0134088599147602,-0.14669251985834,0.00054856393753559,-0.000432783444600136,0.0261388744899405,0.00108087554713013,0.00109498445750536,0.000979642828228827,0.00811338325677057,0.000247775682848856,4.25997852793389e-05,2.19464283092456e-06,0.0368631892943211,4.83250127207517e-05,0.012326676687956,6.68819947004674e-05,0.00012430149886345,-0.370889811760581,0.00253613510923375,-0.00725211548722934,0.0183015467246649,-1.19917551528614e-05,-0.163891865533948,-0.115744739289988,0.0262311586358742,-0.000694512865667481,-0.000225120476106339,5.5969648636703e-06,-0.00192066944320255,-1.1621934525731e-05,-0.0415178012445252,0.000111581673751604,-0.000601153267906774,-6.51876087113964e-06,-0.000144436737765224,0.0212173411217385,0.12919989147365,-0.808410624880633,0.269219420035885,0.00285795596716766,0.154695762071122,-0.069964020487047,0.0433177920512325,0.0105996365671169,4.98500998839902e-05,-7.41335759337633e-06,0.0023830997748843,-0.000199917718115522,-7.48240125860418e-05,-4.79622894192847e-05,0.000705719896434327,-6.77880783845795e-06,2.70548538156278e-06,-5.62556069742684e-06,-7.29080302484963e-17,-3.00725775734966e-06,4.31290932068938e-05,-0.0103203794364331,1.48334342325487e-06,1.04519831272329e-06,-7.47846678774734e-05,-0.00937204600811608,5.11722173853263e-05,1.30546260281705e-08,-5.78296389497783e-16,0.0147887630356188,-2.7233070108942e-05,-0.000176718460564923,1.02032267794528e-07,-6.14341267122915e-16,-6.13773663603331e-08,5.70301713644401e-07,-4.39754833558056e-16,2.66812811898924e-08,4.30908439062982e-06,7.65699464617713e-16,2.92522396529131e-07,0.00111709068886974,5.23392978287746e-16,-6.05036973452986e-16,-1.03610990891297e-15,0.00240318364662478,1.33326434331548e-15,5.83786869906852e-06,-0.000904879129559142,-0.00238479560593612,5.69619591252546e-17,8.83640033470892e-06,-2.79956669735772e-07,2.34732321876688e-08,5.45269377245548e-15,-1.01699796916127e-15,-0.0199971809627924,2.28576619614947e-09,3.23427162611267e-15,1.98577739892222e-15,-1.49758940169894e-15,-2.53774106671914e-15,1.01029414187432e-15,7.52936163711864e-08,7.87167013495049e-16,-4.5910753629604e-16,9.74100954632059e-09,5.68030801379881e-16,1.16707475682777e-16,2.64108547854898e-08,-1.82462206446137e-16,-8.12793391256239e-09,-6.99992597308047e-16,-8.83616076289127e-07,-2.88388278507496e-16,1.79144580147336e-16,-8.21288377650392e-16,0.000351842510763783,8.62825530053464e-16,-6.21906270020057e-16,-1.10310095175152e-15,2.33827849295155e-16,-2.83524456912629e-15,-2.46520925946385e-14
"t66",-0.111614887073048,-0.00944604642668897,0.0112772423088796,0.0137234339842991,-0.150880121957799,0.00056770144256855,-0.000456627670874378,0.027890213859007,0.00115572385135101,0.00118009542910453,0.00106296795916337,0.00887871447706074,0.000274744446995559,4.79911447629979e-05,2.49670827220117e-06,0.0421362903504883,5.56865595273453e-05,0.0144331672118236,8.16649293270874e-05,0.00016112667456438,-0.492450408901924,0.00348707873706896,-0.0103015441447507,0.0262333133118764,-1.72325867196055e-05,-0.241934682009424,-0.177181881026317,0.0407685098008655,-0.00119500148113921,-0.000440978498479472,1.6131213608524e-05,-0.0399271481285854,3.73879834311798e-05,0.0999134584412155,-0.000250119913734444,0.0011540692932479,9.62793618105899e-06,0.00010276039538263,-0.0095172012444801,-0.0502440749821321,0.305393129804035,-0.0979108602091357,-0.000833841969374636,-0.0345721721088643,0.0118854908320781,-0.00302825165255159,-0.000512450921966241,8.2598778804627e-07,-3.00992136799007e-07,0.000144337200516299,-1.44556326911573e-05,-8.73873955904585e-06,-5.99841962115153e-06,9.80398890495808e-05,-1.64028421452151e-06,6.64217020328838e-07,-1.47097746686911e-06,-2.12527639583075e-16,-7.9942627375626e-07,1.18291294045206e-05,-0.002850719426448,4.37291228523735e-07,3.23370447063385e-07,-2.36851487680617e-05,-0.00299136072616069,1.65852774996901e-05,4.98271898211691e-09,2.24048871551774e-15,0.00571698825390537,-1.13196181113278e-05,-7.52484219406042e-05,4.41444406010279e-08,9.66798616789522e-16,-2.67807880874872e-08,2.54017031308128e-07,5.78031456677081e-15,1.21046342801756e-08,1.95997264422469e-06,1.33949318485566e-15,1.37389083945981e-07,0.000530699507945603,1.28233850767627e-14,-3.84793046219254e-14,3.98047684137037e-14,0.00119317312372177,-0.707106781186547,2.95128644592925e-06,-0.000460282336802339,-0.00122153493749369,-1.71405186996961e-14,4.56528201684973e-06,-1.44964042695758e-07,1.23994069828107e-08,9.04362606296065e-15,-1.60912523175904e-15,-0.0107233031543189,1.22881052942214e-09,4.31974543479852e-15,-6.63891564172223e-15,1.12803490354283e-15,-9.81328073091122e-16,2.96877763779032e-16,4.15824548631281e-08,2.44568958650741e-15,1.95574730026842e-15,5.43059760700524e-09,-6.81798264364542e-16,2.81738481041328e-15,1.51463802103927e-08,2.14164338714413e-16,-4.73081875644405e-09,-4.73974182858031e-16,-5.19468316691004e-07,-1.39912023509668e-15,4.76768757205278e-15,1.01823456829763e-15,0.000209691935210751,2.05872644494838e-15,-3.0957329409654e-15,2.22147918290623e-15,7.86935762988696e-16,-4.23999238401644e-15,-2.2861549942864e-14
"t67",-0.111614887073048,-0.00944604642668895,0.0112772423088796,0.0137234339842991,-0.150880121957799,0.000567701442568545,-0.000456627670874406,0.0278902138590071,0.0011557238513509,0.00118009542910466,0.00106296795916342,0.0088787144770606,0.000274744446995484,4.79911447634721e-05,2.4967082723385e-06,0.0421362903504871,5.56865595274326e-05,0.0144331672118235,8.16649293270115e-05,0.000161126674565789,-0.492450408901922,0.00348707873706889,-0.0103015441447503,0.0262333133118757,-1.72325867189225e-05,-0.241934682009425,-0.177181881026317,0.0407685098008651,-0.00119500148114051,-0.000440978498480495,1.61312136087491e-05,-0.0399271481285839,3.73879834294107e-05,0.0999134584412141,-0.00025011991373567,0.00115406929324917,9.62793618100415e-06,0.000102760395381965,-0.00951720124448071,-0.0502440749821302,0.305393129804036,-0.0979108602091349,-0.00083384196937805,-0.0345721721088647,0.0118854908320768,-0.00302825165254901,-0.00051245092196601,8.25987784247931e-07,-3.00992137529569e-07,0.000144337200508562,-1.44556326900518e-05,-8.73873955814977e-06,-5.99841962279328e-06,9.80398890507023e-05,-1.64028421704954e-06,6.64217022555735e-07,-1.47097746557945e-06,7.407406819e-16,-7.9942627189501e-07,1.18291294034906e-05,-0.00285071942645305,4.37291227975223e-07,3.23370447174933e-07,-2.36851487714592e-05,-0.00299136072615626,1.65852774994851e-05,4.98271635815633e-09,-7.95664286785996e-16,0.00571698825390053,-1.13196181082901e-05,-7.52484219364723e-05,4.41444309629153e-08,-1.03908333204132e-15,-2.67807890865108e-08,2.54017032473103e-07,-6.71584807843014e-15,1.21046488876721e-08,1.95997263086024e-06,-2.47273193548878e-15,1.3738908452619e-07,0.000530699507938935,-1.24710875768231e-14,3.86480088553886e-14,-3.91574065562685e-14,0.00119317312355059,0.707106781186548,2.95128666546029e-06,-0.000460282336500452,-0.00122153493764965,1.68283975227714e-14,4.5652819829188e-06,-1.44964030853841e-07,1.23994155575107e-08,-3.20785848612563e-15,5.75680927844642e-16,-0.0107233031542983,1.22881126715769e-09,-6.73359171937953e-16,7.93775936598476e-15,-3.56959626940242e-15,2.71016348378753e-15,-7.81384341966222e-16,4.15824550239127e-08,-1.26187544610951e-15,-3.31562183705631e-15,5.43060078408887e-09,6.99790802517912e-16,-2.51175339986003e-15,1.51463781038203e-08,7.41861559632258e-17,-4.73081719693694e-09,-2.99177050619619e-16,-5.1946831699678e-07,1.30985795582452e-15,-1.83813942446806e-15,-2.12368627648263e-15,0.000209691935210538,-5.65279782695559e-15,4.40440700017371e-15,-4.4774760463613e-15,1.84817535541172e-15,-9.18462493750068e-16,-2.44783122224744e-14
"t113",-0.0985628471122211,-0.00772406598964739,0.00720875739150445,0.00520094044105018,-0.0310650894178479,-2.04591964230567e-05,0.000494179638391387,-0.0561274617267232,-0.0025756864025909,-0.00378973727068327,-0.00463395629624455,-0.0577215594360941,-0.00386686916382622,0.00678883515292005,3.12856087575588e-05,0.222139801797188,-0.000234932553894108,-0.628493501940863,-0.0138621756534706,-0.000368479721659188,0.0758152478104461,0.00375053923655098,-0.015614767020164,0.0415347539694745,-2.75807220436285e-05,0.00381773113383026,-0.0809399199790669,-0.0953259353832862,-0.00354236402664689,-0.00117264487733103,3.76464963980068e-05,-0.00464880708610865,3.367689831649e-05,0.0137851645563626,5.85570259345754e-05,-0.00238669525910924,7.51986450782937e-05,0.000154983000899405,-0.00469194985736816,-0.00677617057335144,0.0176124073662586,0.0045059619255444,0.000594716844619249,0.0591168703450789,-0.0359670347052604,0.0324796212946375,0.00846830733694602,4.70138797273185e-05,-7.37633397911519e-06,0.00247240947936379,-0.000212344935923785,-8.63121511885627e-05,-5.61213182617706e-05,0.000845122992843924,-9.31657984162425e-06,3.7277787050396e-06,-7.75637754527828e-06,3.37594303862466e-16,-4.10868461735224e-06,4.96025512658192e-05,-0.00018031745093005,2.23039335058633e-06,1.53419957022499e-06,-9.79722664183843e-05,-0.000274421949541702,8.64302226036959e-05,1.58837402836678e-08,6.54273291210016e-16,0.00126232698610677,-5.05722429236356e-05,-0.000324425803033607,1.86687352128041e-07,-1.95476603362731e-16,-1.12185899441901e-07,1.04113380724873e-06,-1.36235858148668e-15,4.86947737381651e-08,7.86414986970465e-06,-1.02574274474329e-15,5.33442570738934e-07,0.00203524698990883,2.79795523267463e-15,1.51241097242168e-15,9.04951253296691e-16,0.00432121721499722,4.52806392792241e-15,1.0332096700302e-05,-0.00158780305221997,-0.0041310920764449,8.49615628827348e-16,1.49568447307422e-05,-4.70099379995031e-07,3.3419631895567e-08,1.39908065222262e-14,3.19707645926031e-15,-0.00294192495313143,-2.29432983975779e-09,1.21181574231691e-15,1.19607906800626e-15,-1.77038815760636e-15,-2.52279368564163e-15,1.35359495893583e-15,1.91574531606678e-07,3.80643558359022e-15,-7.87520341360213e-15,2.33499499488268e-08,-1.61049506299153e-15,-2.28770243533675e-15,5.92306615339587e-08,-3.72281878663995e-15,-1.7995813675887e-08,-3.58604213561458e-15,-1.94606586010166e-06,5.72653734645391e-15,8.36834633241123e-15,-1.98926580316859e-14,3.70687438533392e-05,0.707106781186547,1.43528837652305e-12,4.50757645664668e-14,8.23293860047351e-16,-3.21242196934868e-15,-1.92570187458772e-14
"t114",-0.0985628471122211,-0.00772406598964739,0.00720875739150446,0.00520094044105015,-0.0310650894178479,-2.04591964230717e-05,0.000494179638391526,-0.0561274617267235,-0.00257568640259087,-0.00378973727068334,-0.00463395629624446,-0.0577215594360941,-0.00386686916382631,0.0067888351529199,3.12856087573702e-05,0.222139801797189,-0.0002349325538943,-0.628493501940863,-0.0138621756534704,-0.000368479721658814,0.0758152478104475,0.00375053923655094,-0.0156147670201632,0.0415347539694742,-2.75807220437398e-05,0.0038177311338311,-0.0809399199790676,-0.0953259353832864,-0.00354236402664694,-0.00117264487733117,3.76464963981112e-05,-0.00464880708610685,3.36768983162004e-05,0.0137851645563634,5.85570259352598e-05,-0.00238669525910721,7.51986450775354e-05,0.000154983000899466,-0.00469194985736827,-0.00677617057335136,0.0176124073662551,0.00450596192554501,0.000594716844617681,0.0591168703450779,-0.0359670347052611,0.0324796212946369,0.00846830733694443,4.70138797278202e-05,-7.37633397896232e-06,0.00247240947936407,-0.000212344935925136,-8.63121511884377e-05,-5.61213182656165e-05,0.000845122992843764,-9.3165798402793e-06,3.72777870413354e-06,-7.75637754526755e-06,1.08926816089862e-16,-4.10868461838153e-06,4.9602551264535e-05,-0.000180317450931703,2.23039335062502e-06,1.53419957066546e-06,-9.79722664170499e-05,-0.000274421949543203,8.64302226027576e-05,1.58837448296584e-08,-5.0049619682784e-16,0.00126232698611212,-5.05722429289452e-05,-0.000324425803031077,1.86687353474806e-07,-7.99137875555016e-17,-1.12185901196582e-07,1.04113381034604e-06,9.38688766827419e-16,4.86947751449378e-08,7.86414986983911e-06,6.18960162080672e-16,5.33442571358586e-07,0.00203524698990274,-2.79775526704739e-15,-1.97919095815874e-15,-1.57383442481139e-15,0.0043212172149897,-3.13247494199081e-15,1.03320967019306e-05,-0.00158780305220785,-0.00413109207645645,-9.70411702701975e-16,1.49568447264387e-05,-4.70099381826024e-07,3.34196368672006e-08,-1.41255915764061e-14,-3.21432523423942e-15,-0.00294192495311718,-2.29432932196861e-09,4.84128504027796e-16,-8.91052544599486e-16,1.78232552119419e-15,9.88286629735423e-16,-1.49483744699822e-15,1.91574526138427e-07,-3.03444763068335e-15,6.72937322147131e-15,2.33499479784927e-08,2.02793438049285e-15,2.75972525140888e-15,5.92306610481077e-08,4.3681773805632e-15,-1.79957812873907e-08,3.08323037057581e-15,-1.94606590078314e-06,-5.75608092396407e-15,-6.92497583180089e-15,1.8856550010658e-14,3.70687438407017e-05,-0.707106781186548,-1.43451840749093e-12,-4.74899427559861e-14,7.57443366131145e-16,-2.11154515371361e-15,-2.75351191732385e-14
"t6",-0.094627547181465,-0.00724711665462981,0.0063300569760497,0.00400707271716646,-0.0195005328550511,-4.57718655265415e-05,0.000378556323795719,-0.0380950317554467,-0.00171050833385867,-0.00231830360789856,-0.00263698850778138,-0.0298662232158393,-0.00170283253170733,0.00237845367499427,9.18444846752762e-06,0.0578590241730402,-5.92083935233484e-05,-0.0970684635525927,0.000730457614973474,0.000117332039818643,-0.0275949877449422,-0.00215025856271576,0.0108614973491712,-0.0302723731649795,2.0357370584376e-05,-0.00293465179080323,0.0759038530096007,0.0977985976908523,0.00470382618946126,0.00195787136861271,-9.07033567847914e-05,0.0148771755391001,-0.000160873552371652,-0.0645747982624883,-0.000324634478591243,0.0131400965309326,-0.000442994712093653,-0.00116586955577021,0.0417575005238656,0.062990923430553,-0.162839750277468,-0.0448924198500302,-0.00620204029982138,-0.67178660759424,0.443051259227118,-0.485659002319878,-0.133382693940749,-0.000894855757913278,0.000153124358254943,-0.0556787047853306,0.00504055532572555,0.00261154495502925,0.00179422414211727,-0.0299149420344788,0.00311892690542764,-0.00184204431242657,-0.00320468220854059,-7.61688571095928e-16,-0.00112328279307721,0.00813036298621729,-0.00916194386734052,0.000182958282104428,9.18480647841193e-05,-0.00514415736635586,-0.00792482205215357,0.00404162191645491,3.8148503734044e-07,-3.4759923350889e-17,0.0206657570074164,-0.000927833716571032,-0.00552882410509617,3.03306027531866e-06,1.88509280478988e-15,-1.77747094684519e-06,1.5529714206443e-05,-2.40086489753962e-15,6.88758778410832e-07,0.000110414134879732,1.62218886796391e-15,6.8378871644008e-06,0.0252646547516536,5.29833077843478e-15,1.86155497214026e-15,-2.09765118979669e-16,0.0474609431362671,6.32740282549748e-15,0.000107974159442185,-0.0163137648413114,-0.0416377637026238,2.19138024882638e-15,0.00014719988789889,-4.59764967731005e-06,3.08580141163185e-07,8.6171503223483e-15,-2.27937997571118e-15,-0.0209185171380673,-2.13170652705044e-08,3.52909320756778e-15,2.03609347257017e-15,-2.98903891942173e-15,2.24267404953912e-16,6.88921272284367e-17,1.58432138404027e-06,4.03819202928174e-16,-1.53834600005354e-15,1.88109428783067e-07,4.22592030650493e-16,6.1709686864229e-16,4.41659817092485e-07,-2.35008681313981e-16,-1.2889090253443e-07,1.17797521974143e-16,-1.35644494844627e-05,3.47661390615349e-17,1.39894130688243e-15,-2.23804467966945e-16,0.000204817987367853,4.55642467605977e-16,-3.39809813751004e-16,-2.44633209919754e-15,2.24795838735881e-15,-2.83009708358094e-15,-2.38672827615155e-14
"t115",-0.114923203587088,-0.00988728604025331,0.0123580871889673,0.0162601929812187,0.161507292683551,0.00070932803624644,-0.000746500752714423,0.058014383627639,0.00254992366739816,0.00347696403100519,0.00470353699318833,0.148202088538472,-0.319157097277072,-8.27316044035893e-05,-7.0187846167717e-07,-0.00444663222079761,0.00109943653662869,0.00985470329147293,-0.000223631668504796,-1.78258245696957e-05,0.00270823364082087,0.00030982324626702,-0.00201440362033143,0.0123383128311414,-5.17131437282066e-05,0.00017245323665161,-0.00605093479823193,-0.00852579327264201,-0.000372773010934966,-0.000140712481487004,5.55915267092259e-06,-0.000580555757994598,1.50000417860654e-05,0.00787326644778518,8.365809815644e-05,-0.284959474613343,-3.53873041945995e-05,-3.62782390226825e-06,-9.86805436971606e-05,-0.000188200059504208,0.0004773841388423,0.000166719301296119,2.47366751389552e-05,0.00317113616035721,-0.000770548386901118,0.00150402247460163,0.000394369128288835,2.04104590760792e-06,-2.96763102705292e-07,8.98595610536734e-05,-7.08684278851466e-06,0.000221736309867721,-5.35878756521726e-07,-1.24057308314648e-06,1.07081051825633e-05,-6.60131153842479e-06,-1.37845127844084e-05,1.85645647708974e-15,-5.06425848985955e-06,4.00240033319257e-05,-5.73433329629387e-06,1.10620681640099e-06,6.38184937988731e-07,-3.82612361818572e-05,-1.64865202096536e-05,3.23024760522993e-05,5.80383930283674e-09,3.32372370090532e-15,0.000141124643217553,-0.493158888741959,0.000894808039342309,1.53933595179226e-09,1.32428870881125e-14,-5.50860628151508e-09,1.14530696332005e-07,1.67627549720549e-15,7.04876076945145e-09,1.698685844118e-05,-1.13841283428576e-15,1.19312042467933e-07,0.00193244780418272,-1.7658669798053e-15,-4.55523693016976e-16,3.33862008942186e-15,0.00408583648787742,5.66977782340784e-15,-6.92708239002631e-08,-6.4632809499629e-05,-0.000289906691378272,-2.15188041576523e-15,0.000125077673881596,-4.50869756885589e-08,3.99907576355342e-09,5.16207836193025e-16,5.64721697884285e-16,-0.000159683694520299,-3.51991546810877e-10,1.10593374868777e-15,-1.38482768957129e-15,-6.11084874251325e-16,-3.14999096153222e-15,1.44878659027657e-15,2.8418400664313e-08,2.79314819758764e-15,-2.51723486572353e-15,3.5328970611966e-09,1.06043161612438e-15,-3.64415569945298e-15,9.41399131517858e-09,-9.69914910100527e-16,-2.92146982413903e-09,-4.50140242827872e-15,-3.20081384341769e-07,1.54993672509309e-14,5.64222050078753e-15,1.0965438738182e-15,2.88189651593726e-06,1.43654147603495e-12,-0.707106781186546,-6.0330460254447e-15,-5.68505865116674e-14,-2.64601014723539e-15,-2.79217735441493e-14
"t116",-0.114923203587088,-0.00988728604025331,0.0123580871889673,0.0162601929812187,0.161507292683551,0.000709328036246427,-0.000746500752714457,0.0580143836276392,0.00254992366739813,0.00347696403100511,0.00470353699318833,0.148202088538472,-0.319157097277073,-8.27316044035919e-05,-7.01878461574863e-07,-0.00444663222079775,0.00109943653662898,0.00985470329147277,-0.000223631668504654,-1.78258245696622e-05,0.00270823364082049,0.000309823246267058,-0.00201440362033111,0.0123383128311418,-5.17131437280037e-05,0.000172453236652004,-0.00605093479823227,-0.00852579327264142,-0.000372773010935256,-0.000140712481488205,5.55915267013315e-06,-0.000580555757993317,1.50000417840501e-05,0.00787326644778559,8.36580981579959e-05,-0.284959474613341,-3.53873041954275e-05,-3.62782390234282e-06,-9.86805436960359e-05,-0.000188200059503656,0.000477384138840618,0.000166719301295622,2.47366751398114e-05,0.00317113616035597,-0.000770548386900811,0.00150402247460134,0.000394369128288564,2.04104590779955e-06,-2.96763103505325e-07,8.98595610535555e-05,-7.0868427877401e-06,0.000221736309870686,-5.35878754312827e-07,-1.2405730849185e-06,1.07081051824236e-05,-6.60131153700817e-06,-1.37845127859303e-05,1.06470879401149e-15,-5.06425848845535e-06,4.00240033300906e-05,-5.73433329708749e-06,1.10620681487284e-06,6.38184939715631e-07,-3.82612361800538e-05,-1.6486520205988e-05,3.23024760541253e-05,5.8038381301047e-09,3.38593835525102e-15,0.000141124643219093,-0.493158888741958,0.000894808039340047,1.53933511631115e-09,1.22302435875115e-14,-5.50860478725917e-09,1.14530693965924e-07,1.46972656048686e-15,7.04876319613986e-09,1.69868584401082e-05,1.04044047487868e-15,1.19312045333917e-07,0.00193244780418019,1.05124483622663e-15,-3.59851806677675e-15,4.21542013960626e-16,0.00408583648787286,-1.53799821927579e-15,-6.92708274988114e-08,-6.46328095019605e-05,-0.000289906691371461,2.11209859598537e-15,0.000125077673878967,-4.50869798289821e-08,3.99907876922823e-09,-2.38396875856835e-16,-3.3469700135901e-15,-0.000159683694517756,-3.5199223803124e-10,-1.89394127549821e-15,5.60342650247232e-16,5.39470471190359e-16,5.28770402561896e-15,-7.85824180198896e-16,2.84184029322509e-08,-1.32616279460339e-15,1.03710034748923e-15,3.53289833735756e-09,-5.14865932511187e-16,1.94620461373857e-15,9.41398835491606e-09,1.82021371070239e-15,-2.92146576360525e-09,7.72362353442297e-15,-3.20081378427419e-07,-1.61923709180007e-14,-8.96415116693731e-15,-2.84369037526802e-15,2.88189641928161e-06,-1.43456465458474e-12,0.707106781186548,3.96094021308183e-15,5.87222773038252e-14,-1.51887600315111e-15,-2.23099430993643e-14
"t104",-0.114864049909813,-0.00987956447127835,0.0123402863708015,0.0162235112320886,0.161067727260524,0.000706993569550838,-0.0007427466557554,0.057666238136938,0.0025341642100749,0.00345316036199552,0.00466869545463351,0.147001642643981,-0.316238105631026,-8.18742369462625e-05,-6.94092176307286e-07,-0.0043957554057073,0.00108621306104503,0.00972507805202569,-0.000220068790866668,-1.74783023114011e-05,0.00265187612507581,0.000302816611858378,-0.00196566950647737,0.0120346180987083,-5.04342319208254e-05,0.000167980507013111,-0.00588469452377351,-0.0082863330302821,-0.000360917275214785,-0.000135686920678512,5.31628997255033e-06,-0.000548460769127121,1.40142192233993e-05,0.00733592654667053,7.78898213124764e-05,-0.264840264575728,-3.27760973890486e-05,-3.31903867962947e-06,-8.94491348319926e-05,-0.000170092490962014,0.000431195047543447,0.000150470743078849,2.22260529500202e-05,0.00283454636056078,-0.000685379973915289,0.00132170977442079,0.000345426012361148,1.76630118118047e-06,-2.55399550047592e-07,7.69362179020502e-05,-6.04752311599097e-06,0.000186408531177536,-4.49020834186503e-07,-1.03332459933797e-06,8.2795311407048e-06,-5.08289077182463e-06,-1.03903084292305e-05,-1.32723552657892e-15,-3.79216549189148e-06,2.95542996330031e-05,-4.21962607551303e-06,7.82967287550249e-07,4.33845309756665e-07,-2.53706063722075e-05,-1.08310883276952e-05,2.07996190354322e-05,1.75189649015316e-09,-3.33241984376557e-15,3.28576932042486e-05,0.506619702455043,-0.00378813229152652,8.39619466374958e-08,-1.37075012472725e-14,-4.6757682979534e-08,3.84928650645858e-07,-2.39982955075077e-15,1.71753927431216e-08,4.00876380471041e-05,-1.45500830709782e-16,2.14961054627486e-07,0.00327330041285969,1.41488385149141e-15,5.93921616423534e-16,-9.36052535140288e-16,0.00590117769543096,3.49215773972148e-16,-9.57752772716028e-08,-8.8203931255984e-05,-0.00039022073294977,-1.77752857783231e-16,0.000165720095772196,-5.95038001369396e-08,5.1145277570766e-09,-4.31882108669549e-15,-2.62610440694972e-16,-0.000200104326714592,-4.39696424639552e-10,1.20785723253328e-15,-1.0620016381508e-16,3.06675357440484e-15,3.99050910120626e-15,-1.74862998575645e-16,3.4437278390504e-08,2.3970851593315e-15,2.0014699558109e-16,4.24159212630995e-09,1.83975160181081e-15,-4.0459421704097e-15,1.10283794929627e-08,-2.40354098921314e-14,-3.38445357473053e-09,-0.70710678118655,-3.68218314392962e-07,-1.62448151802876e-14,4.63666416310226e-14,2.95280594621271e-15,3.28581554124075e-06,-5.88979822123746e-15,6.30333721771031e-15,-1.5842878710782e-15,2.1047507667627e-15,-4.55031130877415e-15,-1.71218204915116e-14
"t105",-0.114864049909813,-0.00987956447127834,0.0123402863708015,0.0162235112320886,0.161067727260524,0.000706993569550854,-0.000742746655755391,0.0576662381369382,0.00253416421007479,0.00345316036199549,0.00466869545463344,0.147001642643981,-0.316238105631026,-8.18742369460935e-05,-6.94092176327428e-07,-0.00439575540570754,0.00108621306104494,0.00972507805202577,-0.000220068790866743,-1.74783023109433e-05,0.0026518761250757,0.000302816611858905,-0.00196566950647701,0.0120346180987077,-5.04342319209712e-05,0.000167980507012719,-0.00588469452377332,-0.00828633303028195,-0.000360917275214958,-0.000135686920678663,5.31628997159109e-06,-0.00054846076912551,1.40142192226475e-05,0.00733592654667125,7.78898213125902e-05,-0.264840264575728,-3.27760973894416e-05,-3.3190386791847e-06,-8.94491348319495e-05,-0.000170092490960442,0.00043119504754344,0.000150470743079881,2.22260529498415e-05,0.00283454636056114,-0.000685379973916013,0.00132170977442216,0.000345426012360123,1.76630118103394e-06,-2.55399549334756e-07,7.69362179027858e-05,-6.04752311492368e-06,0.000186408531177593,-4.49020836028292e-07,-1.0333245999937e-06,8.27953114099103e-06,-5.08289077195772e-06,-1.03903084275759e-05,-8.53735710107902e-16,-3.79216549167231e-06,2.95542996333943e-05,-4.21962607704248e-06,7.82967288538933e-07,4.3384530934128e-07,-2.5370606371282e-05,-1.08310883262497e-05,2.07996190371379e-05,1.75189675116914e-09,-3.45749863346381e-15,3.28576932044971e-05,0.506619702455048,-0.00378813229152559,8.39619508389969e-08,-1.2957488877411e-14,-4.67576837772629e-08,3.84928651621098e-07,-2.39973538685297e-15,1.71753936635432e-08,4.00876380439669e-05,-4.03107709055961e-16,2.1496105644763e-07,0.00327330041286489,6.43955444273506e-16,3.75819176588638e-15,-3.80090312710047e-15,0.00590117769543371,-3.58928376951805e-17,-9.57752766841558e-08,-8.82039312506792e-05,-0.000390220732949212,-6.23705648984921e-16,0.000165720095771954,-5.95037929115853e-08,5.11452243065454e-09,4.22469203249058e-15,3.79928861043225e-15,-0.000200104326724308,-4.39697060424335e-10,8.99992229996376e-16,-4.5880580286757e-16,-7.21015135390638e-16,-6.93130990354371e-15,-1.12038729738289e-15,3.44372757573792e-08,-2.25723606412982e-15,-1.1772868614236e-15,4.24159473468292e-09,-1.59887663261222e-15,6.33205279861686e-15,1.10283688129081e-08,2.37844509678309e-14,-3.3843805442377e-09,0.707106781186546,-3.68218241363865e-07,1.65955460973196e-14,-4.0584637878838e-14,-3.21411718396852e-15,3.28581551476019e-06,6.9174264661919e-16,-6.35320526330001e-15,-1.54267948665177e-15,-1.18121402182346e-16,-2.31266975700022e-15,-2.62933035090009e-14
"t119",-0.11435749514523,-0.00981323837310615,0.012186208246256,0.0159029627381071,0.157205388218753,0.000686342340056921,-0.00070883645295175,0.0544839549787478,0.00238979434250368,0.00323329809768152,0.00434462585361169,0.135738616193313,-0.28848559123011,-7.359420460954e-05,-6.18178104514735e-07,-0.00389745298887919,0.000955694473949247,0.00842630084727542,-0.000182988108744712,-1.36726118857895e-05,0.00202260092696562,0.000222416567336644,-0.00139259569285719,0.00843964481729643,-3.52671440085147e-05,0.00011390534999756,-0.00382374378245156,-0.00528724388004349,-0.00020260850033794,-6.35680185693563e-05,1.20652022237708e-06,0.000185346914764025,-1.88859533070646e-05,-0.012837445409201,-0.000146449660805964,0.589936243709646,0.000102172134748864,6.53748204791575e-05,-0.00150334098174609,-0.00197935506921855,0.00474281051491968,0.00154718749788438,0.000170879171902982,0.0175090319103303,-0.00365928491229724,0.00561227106864097,0.00140418018287039,6.36182760197808e-06,-8.82785316609671e-07,0.000257350906334455,-1.98544433999831e-05,0.000572491613223778,-1.36300799693725e-06,-3.07761026695653e-06,2.20124219517478e-05,-1.34779253182136e-05,-2.72693465025843e-05,6.00261466637e-17,-9.93011401049544e-06,7.71139803745794e-05,-1.10026858018198e-05,2.03652862142942e-06,1.13360324252956e-06,-6.66489705501952e-05,-2.85219413545564e-05,5.509398417208e-05,7.33371063054635e-09,-3.9627594565851e-16,0.000168188118859789,-0.0107965634519766,-0.00251566542341087,7.49920867383591e-08,8.15268812659999e-16,-4.58438346015374e-08,4.36064808328131e-07,-3.611928933265e-16,2.10063623333544e-08,4.94404051955546e-05,3.33250815090929e-16,2.85353262583067e-07,0.00441880215686109,3.58023101686046e-16,-2.41060597587613e-16,-7.37755239683108e-17,0.00828303420365215,1.27909781701537e-15,-1.35530488520662e-07,-0.000125072538340831,-0.000554398022466171,6.44281931490641e-16,0.000235883696248396,-8.47308512060359e-08,7.29849518930304e-09,1.16408948765017e-15,1.66389041984843e-16,-0.000285595844921081,-6.27499943602214e-10,1.38029131898279e-15,-2.54733762782544e-16,-5.95316454618278e-16,-2.90624416209742e-15,-4.67318941053787e-16,4.90213987412804e-08,3.70866810813633e-18,4.72855456788424e-16,6.02867623610117e-09,3.13977451886819e-16,-2.39207551620939e-16,1.55772739030772e-08,-3.90164249228097e-15,-4.76066357364447e-09,-1.58312731366672e-15,-5.16354702488352e-07,-1.42949608950082e-15,8.10164014608036e-15,-6.31783031316921e-16,4.5866710238515e-06,4.70187756719776e-16,5.71252155801785e-14,-1.77475833251127e-14,-0.707106781186547,2.41244824605104e-15,-3.71498412127215e-14
"t120",-0.11435749514523,-0.00981323837310616,0.012186208246256,0.0159029627381071,0.157205388218753,0.000686342340056899,-0.000708836452951661,0.0544839549787479,0.00238979434250375,0.00323329809768158,0.00434462585361166,0.135738616193313,-0.28848559123011,-7.35942046095557e-05,-6.18178104482002e-07,-0.00389745298887902,0.000955694473948793,0.00842630084727545,-0.000182988108744709,-1.36726118857415e-05,0.0020226009269657,0.000222416567336941,-0.00139259569285718,0.00843964481729651,-3.52671440084652e-05,0.000113905349998134,-0.00382374378245104,-0.00528724388004361,-0.000202608500338885,-6.35680185698753e-05,1.20652022226524e-06,0.000185346914763483,-1.88859533071183e-05,-0.0128374454092007,-0.000146449660806666,0.589936243709646,0.000102172134748639,6.53748204792963e-05,-0.00150334098174638,-0.00197935506921854,0.00474281051491892,0.00154718749788492,0.000170879171903307,0.0175090319103319,-0.00365928491229803,0.005612271068642,0.00140418018287088,6.3618276022838e-06,-8.82785316697504e-07,0.00025735090633415,-1.98544433999076e-05,0.00057249161322415,-1.36300799689714e-06,-3.07761026839201e-06,2.20124219512986e-05,-1.34779253181715e-05,-2.72693465024516e-05,1.56056610232335e-16,-9.930114009929e-06,7.71139803744994e-05,-1.10026858005458e-05,2.03652862065256e-06,1.13360324165641e-06,-6.66489705495902e-05,-2.85219413557407e-05,5.50939841714023e-05,7.33371063348266e-09,1.74020631779065e-16,0.00016818811885743,-0.0107965634519762,-0.00251566542340963,7.49920867316794e-08,8.25531692628758e-16,-4.58438344311364e-08,4.36064808554987e-07,-1.40324559976159e-16,2.10063626034698e-08,4.94404051953509e-05,1.77856575096154e-17,2.8535326289877e-07,0.00441880215686232,6.72511058693842e-16,-2.24277117853458e-17,-2.17847226461251e-16,0.00828303420365552,3.6489854517603e-16,-1.35530488949328e-07,-0.000125072538345251,-0.000554398022463355,-7.93923633248484e-16,0.00023588369624923,-8.47308508797728e-08,7.29849581296937e-09,-1.05115239117218e-15,3.18759288470029e-16,-0.000285595844919267,-6.27499211378164e-10,5.99613588822652e-18,-2.27334317523108e-16,1.67988180434242e-15,4.10547123970236e-16,9.10567522186693e-16,4.90213978947629e-08,8.64894039469591e-16,-8.88201601481802e-16,6.02867513140273e-09,-1.44992807112913e-16,5.2342399469241e-16,1.55772722138131e-08,4.52403202369328e-15,-4.76066376327197e-09,8.14260529924659e-16,-5.16354682221698e-07,1.1604292150468e-15,-7.20555980593966e-15,-8.05694518442897e-16,4.58667101683114e-06,3.83451582920058e-16,-5.78383786193087e-14,1.51976071276212e-14,0.707106781186548,-7.53534636812455e-15,-1.02737703994128e-14
"t101",-0.114289224839976,-0.00980289411236896,0.0121531658758001,0.0158063260378113,0.155812864868045,0.000677157239491885,-0.000680549485822455,0.0506000977672586,0.00219973850290796,0.00284053339039196,0.00356166650128495,0.0918715664968778,0.203327697967808,-0.000133745212651904,-9.25435164073309e-07,-0.00550279012415659,-0.315310715454711,0.0115914799358355,-0.000241147190772152,-1.82557296407161e-05,0.00273326693302703,0.000306945740568907,-0.00196519720664767,0.0119883394451544,-5.01900746628856e-05,0.000165460463174516,-0.00572092919655037,-0.00801338470616589,-0.000337631728183313,-0.000122103611900869,4.3232274209888e-06,-0.000341287124055919,4.13761635524401e-06,0.00122817658741881,9.83174519651788e-06,-0.00444881782140549,8.57267959773753e-06,1.77110064566298e-05,-0.000512456605247899,-0.000704969339350048,0.00170237542397873,0.00056072529391552,6.47978695192894e-05,0.006875539080767,-0.00146436553131248,0.00222809844531742,0.000547759427409992,2.10157992529505e-06,-2.39815416194645e-07,4.59744885824981e-05,-1.62144035115901e-06,-0.549185515987812,-4.38635222147263e-06,-4.85327101778198e-06,1.78973468053739e-05,-1.09147957058795e-05,-2.17654008723975e-05,1.53740826637635e-15,-7.90124358865835e-06,6.104158327401e-05,-8.70033016321979e-06,1.59810160805879e-06,8.86412853757577e-07,-5.20573390470206e-05,-2.22711052931205e-05,4.30000466186864e-05,5.74222512756001e-09,5.79628974026407e-16,0.000131761898575071,-0.000344315532861745,-0.00331110969732361,5.86549863046336e-08,2.66022944579323e-17,-3.61914815098398e-08,3.47264386706852e-07,-1.1286089775032e-15,1.68046766080519e-08,6.33600353221529e-05,7.38501951847632e-17,2.29972106530029e-07,0.0035703537710297,-7.67217164338145e-16,3.43576767022307e-16,9.23299828560991e-17,0.0067764398853615,1.39126183073398e-15,-1.11968272939946e-07,-0.000104008201431739,-0.000468610537624883,-2.82553507772784e-16,0.0118346584682347,-6.03536236867746e-08,5.92719662381265e-09,-2.97132317795978e-15,-5.97843642999801e-16,-0.000234001769065042,-5.14701908879748e-10,1.8998621259873e-15,-1.43331617813757e-16,1.54734453681946e-15,4.023040842831e-16,-6.1677926379569e-16,4.05923461109622e-08,-2.29923428536347e-15,1.61043358037247e-15,5.00649183091523e-09,8.82719642097347e-16,-1.90631301057118e-15,1.30438164485993e-08,-0.707106781186547,-4.00348717066922e-09,2.23767721755562e-14,-4.35487650210167e-07,2.3058383234535e-15,2.19111618635342e-15,1.38587466654731e-15,3.8837864100197e-06,-4.5271704924201e-15,2.77140429125052e-15,-9.73383847811741e-16,5.06630396720165e-15,-2.46599206081553e-15,-2.36387864698209e-14
"t102",-0.114289224839976,-0.00980289411236896,0.0121531658758001,0.0158063260378113,0.155812864868045,0.000677157239491842,-0.00068054948582251,0.0506000977672586,0.00219973850290803,0.00284053339039198,0.00356166650128494,0.0918715664968778,0.203327697967808,-0.000133745212651839,-9.25435163715351e-07,-0.00550279012415667,-0.315310715454711,0.0115914799358356,-0.000241147190772351,-1.82557296411915e-05,0.00273326693302644,0.000306945740568499,-0.00196519720664759,0.0119883394451542,-5.01900746627708e-05,0.000165460463175024,-0.00572092919654999,-0.00801338470616617,-0.000337631728183015,-0.000122103611900507,4.32322742119506e-06,-0.000341287124055634,4.13761635526204e-06,0.00122817658741909,9.83174519669005e-06,-0.00444881782140593,8.57267959760211e-06,1.77110064566033e-05,-0.000512456605247525,-0.000704969339349462,0.00170237542397809,0.00056072529391533,6.47978695189673e-05,0.00687553908076647,-0.00146436553131239,0.00222809844531721,0.000547759427410188,2.10157992519664e-06,-2.39815416024249e-07,4.59744885823801e-05,-1.62144035106924e-06,-0.549185515987811,-4.38635222136925e-06,-4.85327101853224e-06,1.78973468055903e-05,-1.09147957062832e-05,-2.17654008726309e-05,1.19468606402375e-15,-7.90124358927748e-06,6.10415832745632e-05,-8.70033016426703e-06,1.59810160767521e-06,8.8641285370933e-07,-5.20573390472834e-05,-2.22711052911707e-05,4.30000466192706e-05,5.74222578447683e-09,7.89369277350796e-17,0.00013176189857482,-0.000344315532861102,-0.00331110969732178,5.86549861173191e-08,3.20435357054611e-16,-3.61914813031756e-08,3.47264386173763e-07,-7.82072298940844e-16,1.68046763953382e-08,6.33600353220322e-05,-3.04442614504758e-16,2.29972104218459e-07,0.00357035377103189,1.51814491301591e-15,4.40566100110749e-17,-5.53989695662444e-17,0.00677643988536079,2.23000063136902e-15,-1.11968273370428e-07,-0.000104008201434899,-0.0004686105376222,1.78246374698038e-16,0.0118346584682362,-6.03536233707919e-08,5.92719875128138e-09,4.70959869279649e-15,6.60725604774319e-16,-0.000234001769067517,-5.14700852692436e-10,5.6788447030804e-16,-6.00494166651009e-16,1.82117161225713e-16,-2.53978693097356e-15,5.42969188573176e-16,4.05923474604479e-08,3.62337693536744e-15,-2.84821262533371e-15,5.00649493447174e-09,-6.8124373897022e-16,2.09295542367229e-15,1.30438309568352e-08,0.707106781186548,-4.0034922327e-09,-2.32811497122269e-14,-4.3548764594862e-07,-2.80635176834022e-15,1.64959166411928e-16,-2.30615737444681e-15,3.8837864018158e-06,3.43694498578899e-15,1.90135759183469e-16,-1.21599750231537e-15,-3.16322420187811e-15,-2.50108819420768e-15,-2.3031633253229e-14
"t76",-0.114348673073836,-0.00981064020711313,0.0121709332778822,0.015842657226019,0.156245901621899,0.000679439199834238,-0.00068408365371361,0.0509151745761051,0.00221385779347815,0.00286079704503505,0.00358923598486367,0.0926519326495563,0.205288268351016,-0.000135215753951228,-9.36369280987194e-07,-0.00556997015529593,-0.319369863255666,0.0117556638506392,-0.000245347874728687,-1.86528464318276e-05,0.00279722254108245,0.00031483555654264,-0.00201975716242068,0.0123278461063217,-5.16192286980274e-05,0.000170438703760956,-0.00590504318200235,-0.00827806868980507,-0.0003505724917504,-0.000127502545985871,4.57127218005095e-06,-0.000368597554735969,4.57329331303679e-06,0.00136613966350913,1.09561031164769e-05,-0.00497944067166142,9.68128536479231e-06,2.07715224071518e-05,-0.000623340304709458,-0.000869228969363587,0.00210511506636683,0.000696060360169626,8.23829294127532e-05,0.00902738736823387,-0.00199370445207623,0.00344144641174426,0.000888234102917364,4.56891967931162e-06,-6.84186883770702e-07,0.000219375828733034,-1.83991314548094e-05,0.373011718103296,1.5830708085463e-06,1.17220184352521e-07,1.23339733082206e-05,-7.62012363843604e-06,-1.59898898915136e-05,1.40716845148036e-16,-5.87512284003596e-06,4.63807222029378e-05,-6.64177894316296e-06,1.26968813786442e-06,7.23155009490977e-07,-4.29840448251556e-05,-1.84611242005726e-05,3.59140382655077e-05,5.15972244639994e-09,-7.58960042523324e-16,0.000119046584826414,-0.000321428155510757,-0.00312881029405715,5.59101905015143e-08,2.12912622172938e-15,-3.46679353214821e-08,3.3703407991804e-07,1.36348955488135e-15,1.65332367703278e-08,6.24677932501174e-05,5.40030848702102e-16,2.34186386810982e-07,0.0036936570107092,-3.44935469889547e-15,8.81263862270367e-16,3.21230064816962e-16,0.00793419127055579,1.29985728313202e-14,-1.53837896213867e-07,-0.000160936845437491,-0.000951050335863455,2.11900457141269e-15,0.398515532252718,2.45429642555518e-07,2.91958448884993e-09,1.31107664860999e-14,-1.60891885050828e-14,-0.000158378219551464,-3.57259684227862e-10,0.70710678118655,1.61521041694834e-14,1.18889894566779e-14,-1.72243069385886e-14,-8.89293828645752e-15,3.24367851178882e-08,7.01121778127732e-15,1.03426186366534e-15,4.09987023895376e-09,-7.93128560075177e-16,1.41855049610283e-15,1.11971745331857e-08,6.6696480239766e-17,-3.49267447072478e-09,-1.80029556900943e-16,-3.83360873693483e-07,6.21757711380557e-16,6.33070642164791e-16,-1.43842397676585e-16,3.45511839288057e-06,-1.88431141538192e-15,1.92780733264787e-15,-9.324293851415e-16,1.12106878448127e-15,-3.54605398680409e-15,-2.1942528798439e-14
"t77",-0.114348673073836,-0.00981064020711312,0.0121709332778822,0.015842657226019,0.156245901621899,0.000679439199834248,-0.000684083653713671,0.0509151745761051,0.00221385779347812,0.00286079704503505,0.00358923598486359,0.0926519326495563,0.205288268351016,-0.000135215753951382,-9.36369281194124e-07,-0.00556997015529618,-0.319369863255666,0.0117556638506391,-0.000245347874728865,-1.86528464322536e-05,0.00279722254108234,0.000314835556542502,-0.00201975716242075,0.0123278461063219,-5.16192286981417e-05,0.000170438703761421,-0.00590504318200238,-0.00827806868980502,-0.000350572491749801,-0.000127502545985776,4.5712721800328e-06,-0.000368597554735388,4.5732933129348e-06,0.0013661396635088,1.09561031167227e-05,-0.00497944067166103,9.68128536464761e-06,2.07715224069405e-05,-0.000623340304708839,-0.000869228969363407,0.00210511506636696,0.000696060360169699,8.238292941264e-05,0.00902738736823405,-0.00199370445207594,0.00344144641174394,0.000888234102917385,4.56891967894453e-06,-6.84186883804421e-07,0.000219375828733701,-1.83991314549447e-05,0.373011718103294,1.58307080839576e-06,1.17220184354255e-07,1.23339733079724e-05,-7.62012363768972e-06,-1.59898898909115e-05,-5.43959753420074e-16,-5.87512283912431e-06,4.63807222021904e-05,-6.64177894256442e-06,1.26968813769616e-06,7.23155010202343e-07,-4.29840448242067e-05,-1.84611242030882e-05,3.59140382653262e-05,5.15972216840749e-09,1.13412495492577e-17,0.000119046584827932,-0.000321428155508891,-0.0031288102940593,5.5910190769995e-08,-2.33674371019139e-16,-3.46679354596857e-08,3.37034082924153e-07,-1.99825629670519e-15,1.65332366537049e-08,6.24677932461368e-05,6.97860444074593e-16,2.34186385703155e-07,0.00369365701070667,-4.14172738770297e-15,2.10326131452151e-15,9.12577315330243e-16,0.00793419127055905,8.15739329073743e-15,-1.5383789439219e-07,-0.00016093684542743,-0.000951050335871473,-8.55791971653661e-15,0.398515532252728,2.45429642343521e-07,2.91959080790926e-09,-6.82684410417073e-15,2.48740058233998e-14,-0.00015837821974024,-3.57269980593543e-10,-0.707106781186545,-1.75994182023972e-14,-3.11616430466382e-14,2.43257897580078e-14,6.38647628827715e-15,3.24367894776968e-08,-4.38564677460168e-15,-2.89208676441197e-15,4.09986555736057e-09,1.14515155672106e-15,-8.84549765963154e-16,1.11971751312406e-08,-1.19618221036192e-15,-3.49267768990285e-09,-1.80029556868294e-16,-3.83360872667574e-07,1.31830351061833e-15,7.16337369012503e-16,-1.10471677328629e-15,3.4551183909306e-06,-1.0620524877686e-15,-1.12530598517906e-15,-1.27364722559846e-15,-2.66709996546411e-16,-3.02065003305243e-15,-2.24109041369527e-14
"t70",-0.114305194035706,-0.00980498540100656,0.0121580223452335,0.0158164072269266,0.155934047656075,0.000677802421564967,-0.000681579777986883,0.0506934954011098,0.00220393662040853,0.00284662636004194,0.00357003407263985,0.0921111292203196,0.203939852569355,-0.000134213322029793,-9.28955643236383e-07,-0.00552453691286892,-0.316636553260711,0.0116460274332578,-0.000242600663943455,-1.84001089374192e-05,0.00275693145483259,0.000309934737203207,-0.00198628643837273,0.0121202655817469,-5.07462305312627e-05,0.00016742687865728,-0.00579502573427109,-0.00812069091620608,-0.000343109649970524,-0.000124489924080505,4.44220632000125e-06,-0.000355856310206762,4.39070503001471e-06,0.00130988650711113,1.05011906415504e-05,-0.00476867129896416,9.25664402468848e-06,1.97513918338261e-05,-0.000590412364143602,-0.000822320059656251,0.00199102746340706,0.000658129077404087,7.77545513224395e-05,0.00850304157768194,-0.00187439974387416,0.00322130748318375,0.000830457599194104,4.25433877236276e-06,-6.35936984827871e-07,0.000203571901975383,-1.70560580981791e-05,0.344244510073277,1.45960599062708e-06,1.07897617730203e-07,1.11529035325123e-05,-6.88456421668864e-06,-1.4386528948737e-05,-1.42685742264738e-15,-5.27953570100847e-06,4.15747409397533e-05,-5.9499650521759e-06,1.13030393503368e-06,6.40082195737749e-07,-3.79244716456003e-05,-1.62696309152524e-05,3.15763099276488e-05,4.35604363782305e-09,1.92770794137882e-16,9.99868442332667e-05,-0.000259027518689933,-0.00246909397650651,4.33720185501608e-08,-1.47803320728294e-15,-2.66130462221276e-08,2.50880910465307e-07,8.8154436734958e-16,1.18677907537459e-08,4.4572312339575e-05,-1.29756882371837e-15,1.50509758710028e-07,0.00223761976557254,8.72586573039644e-15,-3.12055505217433e-15,-2.27818395207627e-15,0.00243504475355186,-1.92455887950552e-14,7.6755138999534e-09,4.56967452300283e-05,0.000691803038515664,5.71872927496422e-15,-0.825872737869654,-7.05525429413679e-07,1.10169687671166e-08,-6.81493079369902e-15,-7.34514606151918e-15,-0.00034375963941505,-7.37587598022903e-10,-5.82179097602467e-15,7.31965428233608e-16,2.05387659835835e-14,-8.18838301681674e-15,2.15076613410235e-15,4.95424367966996e-08,-1.87401423031602e-15,5.75719078071276e-16,5.92009557176023e-09,3.51626220231915e-16,2.10314886918837e-17,1.44943495990914e-08,6.6344673881479e-16,-4.35643742455884e-09,-5.56486736432191e-16,-4.68522617254815e-07,-1.49271493968567e-15,1.35849866820503e-16,-1.07510715276061e-15,4.12502857081491e-06,2.13200594785614e-15,-1.71831388327049e-15,-2.05068443881728e-15,1.28073607189353e-15,-1.98909127079383e-15,-2.72681631580475e-14
"t53",-0.114094609354523,-0.00977762939645565,0.0120957770526482,0.0156905348987762,0.154444334891469,0.000670026528958229,-0.000669980097566788,0.0496897242730822,0.00215924971388605,0.00278428946600348,0.00348778096831041,0.0898987076043729,0.199071655498655,-0.000131963081102653,-9.31623513152249e-07,-0.00570627376282809,0.299688929361723,0.0105260012308109,-0.000223416375228241,-1.67805081605082e-05,0.00250194510352857,0.000279244137852628,-0.00177777824106297,0.0108283682803721,-4.53143396105847e-05,0.000148721534479351,-0.00511244713159172,-0.00714435148553485,-0.00029670119527852,-0.000105643599080191,3.6204078488309e-06,-0.000272129258377003,3.1532210113585e-06,0.00092569469709507,7.38761074103782e-06,-0.00331876459644078,6.30662502930883e-06,1.24071526682509e-05,-0.000346779857909329,-0.000472165352477035,0.00113787798435505,0.000373807781698776,4.25850885647484e-05,0.00445400883107914,-0.000938551796990838,0.00142205996216649,0.0003524804994035,1.51724123434151e-06,-2.04067690512172e-07,5.75511343668678e-05,-4.33796483676092e-06,0.000191308309271999,-2.54092440314614e-07,-5.3990578261897e-07,3.92687835818893e-07,-1.15212678602236e-07,1.06475703776814e-06,9.68677034419353e-16,5.34649557313975e-07,-6.57000869277828e-06,1.02314208091744e-06,-3.66223411269082e-07,-3.04683687926499e-07,2.15197791373098e-05,9.77895095700525e-06,-2.12528916664137e-05,-1.18520588515767e-08,-7.88339546874973e-16,-0.00031740724412137,0.00379537475875238,0.883377891110303,1.19136823376174e-06,-3.56242387986598e-14,-4.75644877790788e-07,2.5095481709916e-06,2.92405161387712e-15,8.26718406272207e-08,-0.18266107343357,-6.39680989503766e-16,8.4087259630396e-07,0.0118869085008955,1.74785797228027e-16,2.71798938271762e-15,1.17302597618169e-16,0.0171510717450679,-1.88824114175281e-15,-2.59115919869436e-07,-0.000233310985093552,-0.00100737635359279,-3.69310878067418e-15,0.000731398219956066,-1.47825744184297e-07,1.19686868135383e-08,-5.44912276640136e-15,-1.69115410521445e-15,-0.000448944280544203,-9.79839709859255e-10,-1.91128780255311e-16,-1.10278913027936e-15,1.29276707261634e-15,-2.698027443275e-15,2.26461921426234e-16,7.1719561481613e-08,-3.29078351292279e-16,-1.21814048160227e-15,8.64267501526223e-09,-8.33550153896742e-17,1.39371316409875e-16,2.11458158419494e-08,-1.00286004559957e-15,-6.30184084453054e-09,-1.22226677178413e-15,-6.72778630484515e-07,-3.23339219512603e-16,-1.87838911571025e-15,1.27520243636684e-15,5.85619020229294e-06,1.0665765726391e-15,1.71223276264304e-15,-8.84289185460369e-16,7.84013039360141e-17,-3.88750565435351e-15,-2.23181276073716e-14
