"","c1","c2","c3","c4","c5","c6","c7","c8","c9","c10","c11","c12","c13","c14","c15","c16","c17","c18","c19","c20","c21","c22","c23","c24","c25","c26","c27","c28","c29","c30","c31","c32","c33","c34","c35","c36","c37","c38","c39","c40","c41","c42","c43","c44","c45","c46","c47","c48","c49","c50","c51","c52","c53","c54","c55","c56","c57","c58","c59","c60","c61","c62","c63","c64","c65","c66","c67","c68","c69","c70","c71","c72","c73","c74","c75","c76","c77","c78","c79","c80","c81","c82","c83","c84","c85","c86","c87","c88","c89","c90","c91","c92","c93","c94","c95","c96","c97","c98","c99"
"Carpacoce_spermacocea",-0.0481186219027067,0.0141694138677647,-0.0180709086144775,0.0662767028466207,-0.0139797651972531,-0.0771863176367258,0.107656646639071,-0.0160034971365731,0.0296356342779437,0.673434151068946,-0.0212526122041546,0.136169087822506,-0.0255628902861503,0.686600600535109,-0.0022555711346136,-0.106939857386733,-0.00125738534946288,2.31995001837864e-16,-0.0377805577610892,-0.0791327955835713,-0.00209504177867274,-5.69756465050706e-05,0.002573080084464,2.44312379306209e-15,-4.95312098583463e-16,5.15171338265908e-16,1.07308431590137e-16,-3.52800509608746e-17,0.00545388480046693,-3.0800768086955e-16,2.18356437997962e-16,-1.25367737580365e-16,-3.24613540615904e-18,-2.49661861191035e-05,-0.00987328837176431,0.00424971678625845,-0.000227475594347484,0.00172450092421014,7.51064173916148e-06,0.000310015189144443,-1.61968350732681e-05,-0.000118811081379429,-0.0023461417631298,-5.90549202001581e-06,8.97968309673613e-05,0.000636451725528752,-0.000108078370193074,1.01865676415156e-16,1.77208410815512e-16,-0.000532332329589808,-0.00233973477631302,-0.000131944955057855,-1.08008147227738e-05,9.13372109049205e-05,0.00133898923978071,4.09645295375141e-17,2.248642008043e-05,-2.58183177450713e-16,-2.8979125230282e-16,5.09969208852797e-05,-0.000930399337734749,-7.15460543145531e-17,1.4146178979847e-16,2.29761441075167e-05,2.23098512415067e-05,-3.31161914461521e-17,0,1.29943133944081e-16,-1.18331008827203e-16,-1.63438942672226e-16,-0.000284436274410591,-1.20114817105663e-16,2.40864724267987e-06,-1.09160848871856e-15,5.11337675653696e-06,-7.39331501424749e-05,3.64245366602014e-16,-1.00297337166811e-16,6.82075497899249e-17,-2.46233012192363e-16,-4.9113442325138e-06,2.32491418888282e-16,4.84568128550102e-17,8.93524083684852e-16,-9.60029985316228e-17,-5.30767197151583e-05,3.01366680329348e-16,-1.51948195618212e-15,5.61918768703022e-16,-5.24458333955279e-16,1.78901406691687e-16,-1.43554370581536e-16,1.08992282745637e-05,2.53234343832498e-16,1.01582230504628e-16,-6.23473099082189e-16,5.15123766913298e-16,8.59897570915016e-16,-2.00757566752219e-16
"Galium_binifolium",-0.097346970326564,-0.118575257428697,0.0166728436639845,-0.00828830868553683,-0.182059325326665,0.0193007597784159,-0.0154954552102042,0.267779703405648,-0.00131939216268987,-0.0337128504808466,0.000976058190356876,-0.00605776761652654,0.000627848628525043,0.014312894819927,-0.000302044070739361,-0.110865943107262,0.00630686431049441,-1.91788195239801e-15,0.223670767574919,-0.0373943662693225,-0.0706758088918588,-9.16307155989529e-08,-0.00665123654962222,1.46237533707225e-15,3.1235575124333e-16,6.40771595719548e-16,1.11989865586761e-15,-1.41239599824481e-15,-3.50127173668188e-05,4.66584133955954e-17,1.8593371104735e-15,1.23218916557246e-15,1.36846615642086e-16,8.42246240253427e-08,-0.000433185626698607,-3.25691259607122e-05,1.30398832430264e-06,0.0206920102365877,-0.351149022390222,-0.0204200634188747,-1.93103208174826e-05,-5.50310952719233e-06,-0.000357503962930957,-1.08889424986713e-08,2.15676019343379e-07,2.0095564082492e-06,-4.18160373489887e-07,3.07694593021394e-16,1.28869451241333e-15,-0.00135814173560542,-1.45880529692389e-05,-8.43155756087273e-07,-9.62111730426301e-08,8.35148854253591e-07,1.37062284536815e-05,9.14343256835861e-15,2.34336338121667e-07,-1.75419083095504e-15,-1.59113007553647e-14,5.46221198786499e-07,-1.03346690543418e-05,-8.69898281796268e-15,-5.84948956154937e-16,3.13518224257405e-07,3.31838864004455e-07,-4.44732303172423e-14,-1.71441626730284e-14,-5.58558105569405e-15,-1.62702188902328e-14,9.2573503414159e-15,-4.64569646096988e-06,-8.97614279721462e-14,0.407824813046895,-0.7071067811837,8.97152510342279e-08,-1.33240762845661e-06,-7.8013314360982e-14,3.17557546226967e-14,-1.58304055899263e-14,5.37464901520029e-15,-9.65761602940331e-08,-2.03520452547494e-15,-5.3566481075267e-17,-5.3365287917292e-15,-2.19131700823241e-15,-1.13457003404637e-06,-1.28471540304678e-15,1.01398477430385e-15,-4.86577481090506e-15,-6.95114595691617e-15,-4.72181025906284e-15,3.02891158950589e-16,2.46849606920726e-07,8.6628196092878e-15,-9.04108503788242e-16,7.13865803059728e-16,3.18978188152948e-15,-1.11386985798391e-15,-2.81087659043415e-16
"Galium_cankiriense",-0.0973469703265629,-0.118575257428697,0.016672843663984,-0.00828830868553682,-0.182059325326664,0.0193007597784157,-0.0154954552102031,0.267779703405645,-0.00131939216268972,-0.0337128504808438,0.000976058190357643,-0.00605776761652723,0.00062784862852639,0.0143128948199247,-0.000302044070736961,-0.110865943107259,0.00630686431049211,-1.30347042762343e-15,0.22367076757491,-0.0373943662693235,-0.07067580889186,-9.1630714603488e-08,-0.00665123654962353,-1.12135719198874e-15,5.20976717657043e-16,-1.7458014070214e-15,3.85889427091209e-16,-7.32576273582348e-16,-3.50127173622293e-05,2.47427986857506e-15,8.97471077104762e-16,1.42829256146034e-15,-2.21809856888266e-16,8.42246246421001e-08,-0.000433185626702504,-3.25691259611636e-05,1.30398832279694e-06,0.0206920102365883,-0.351149022390194,-0.0204200634188628,-1.93103208205351e-05,-5.50310952880815e-06,-0.000357503962933399,-1.08889332411274e-08,2.15676018282897e-07,2.00955640794892e-06,-4.18160371350268e-07,1.05757948626254e-15,-2.07774427021738e-15,-0.0013581417355993,-1.4588052963634e-05,-8.43155756775907e-07,-9.62111669006583e-08,8.35148858020276e-07,1.37062284344038e-05,-1.16660075701622e-14,2.3433633510805e-07,1.02062858285453e-15,3.34406845516308e-15,5.46221192584542e-07,-1.03346690309094e-05,4.70431793710607e-15,-4.54871152716219e-16,3.13518237371464e-07,3.31838852588401e-07,2.68917425608085e-14,5.34844216771581e-15,1.41335749546155e-14,5.20855332290027e-15,-1.1182692965066e-14,-4.64569649456566e-06,8.09762409841347e-14,0.407824813037047,0.707106781189397,8.97152018583618e-08,-1.33240766964701e-06,5.2885804433906e-14,-6.36808972621281e-15,7.91776916114963e-15,4.84631058029363e-16,-9.65761706967996e-08,1.64141305748012e-15,-2.25338356075643e-15,1.28361958507662e-15,-2.47592527772392e-15,-1.13457007417536e-06,-3.17225949085823e-15,7.22786013061455e-15,3.36816572199373e-15,2.88059418449984e-15,-2.80976604614176e-16,1.06427785829785e-16,2.46849627882813e-07,-2.56160651162494e-15,1.07231099217683e-15,1.2631655592044e-15,-1.21418179925252e-15,3.78540770946548e-15,-1.05038181027194e-15
"Cruciata_articulata",-0.0973442966555256,-0.118568170689912,0.0166710427379802,-0.00828582967421413,-0.181994500566692,0.0192931751256593,-0.0154880355133124,0.267610219976654,-0.00131849097767835,-0.0336879398154252,0.00097527442195906,-0.00605280344994944,0.000627218879874303,0.0142978204569477,-0.000301666906957103,-0.110723147331885,0.00629867288679802,-9.9027946396258e-16,0.223343738986565,-0.0373389745205663,-0.0705668329879481,-9.14797869529735e-08,-0.00663954798049286,-2.33310489115485e-16,6.11747399096294e-16,-1.62309621779103e-15,7.63465277698758e-16,-1.86544988401366e-15,-3.49418816745632e-05,7.74913367360742e-16,1.37584781122723e-15,6.92010439842195e-16,3.02983284439122e-16,8.40430915578192e-08,-0.00043224325287321,-3.24975584421515e-05,1.30107457182583e-06,0.020637902545895,-0.350129725123203,-0.020359710445755,-1.92516071408972e-05,-5.48535587548895e-06,-0.000356298335499295,-1.08493667766728e-08,2.14866179065951e-07,2.00164128850054e-06,-4.16432914860741e-07,-1.52843070268144e-16,-1.0590550347202e-15,-0.00135096789310213,-1.45095466600972e-05,-8.38604178652435e-07,-9.55826957993758e-08,8.29549069000972e-07,1.36012698875364e-05,8.53730848774524e-17,2.32497237570613e-07,1.59650635748434e-15,1.67563078294483e-14,5.41760404025373e-07,-1.02452865312188e-05,5.34590193607886e-15,9.99101652239504e-16,3.09153476679358e-07,3.25305742001839e-07,1.99322406834169e-14,1.27675357931008e-14,-5.35643160817654e-15,1.12517976259126e-14,1.28840086876722e-15,-4.47265373258416e-06,8.16677438459653e-15,-0.816919559446599,-5.67958180486272e-12,9.92778230327059e-08,-1.42574506949699e-06,2.21363710143767e-14,-2.41005148273695e-14,6.47141072905066e-15,-6.21756534201095e-15,-9.90449007665353e-08,1.15598326657426e-15,1.20436582120234e-15,4.59930331365409e-15,3.38371294232198e-15,-1.1510784777851e-06,5.52046473107902e-15,-2.03780036219926e-14,3.60129767840228e-15,1.35993586260815e-15,4.75846627462909e-15,-9.67410780684747e-16,2.4955350548923e-07,-5.65299281051369e-15,5.44062282416869e-16,-3.80683115620733e-15,4.55654583885918e-16,-7.55392067962712e-16,2.92640203723652e-16
"Plocama_tinctoria",-0.0972150347647791,-0.118221830191734,0.0165815766417527,-0.00815407923888094,-0.178476140618202,0.0188757782643847,-0.015066034269726,0.257354581720807,-0.00126280271034903,-0.0321113289805066,0.000924253197394517,-0.00572726087260688,0.000582218742007447,0.0131936152895996,-0.000271048648816881,-0.0988733348501657,0.00561473435079205,-9.50109988325138e-16,0.193245030759618,-0.032178897171445,-0.0600095960392379,-7.57697842618063e-08,-0.00532014582946878,-5.06219943891275e-16,-7.20318393890228e-16,-2.16064571283965e-15,1.74960028353886e-16,-7.76269157924057e-16,-2.49045325331587e-05,-1.13134635702898e-15,-1.46494318728757e-15,-2.63634840114837e-15,2.52745570541031e-15,5.45877108959737e-08,-0.000275871816228328,-2.03221815721809e-05,7.83287999007459e-07,0.00295524758539372,0.557762518183248,0.0582560649311473,0.000278750354562828,-2.24244550117689e-05,-0.000950828773092931,-2.13361817176124e-08,3.91478822350183e-07,3.36359952951236e-06,-6.59993457243247e-07,-9.73968773246527e-16,6.02121456494915e-16,-0.00183847697741281,-1.96171361896045e-05,-1.13262213238358e-06,-1.2301080110643e-07,1.06248017071868e-06,1.7074124462064e-05,2.25546599731328e-16,2.90969702912972e-07,-1.02217613923814e-15,2.63764162925458e-15,6.74895830577041e-07,-1.26871853195465e-05,-1.04640794952011e-15,-4.95831701085131e-17,3.71765671679505e-07,3.87906487125956e-07,-6.5605497684073e-16,-4.09814649879903e-16,-1.39837244735344e-15,1.08848347043034e-15,3.37970371415696e-15,-5.33375534940276e-06,2.63203930407928e-15,0.000349870848084074,-1.03389519168218e-14,1.06362141126318e-07,-1.55824941782403e-06,1.15010915730603e-14,-9.41111619546071e-16,-3.52873942735275e-15,-2.41459910127409e-15,-1.10364410827983e-07,-4.28541841546134e-15,-8.51456037771028e-15,-2.85373577646791e-14,-3.05957570773499e-14,-1.28045065962717e-06,-1.01121707354961e-14,0.707106781186548,-1.10475760355658e-15,-1.83939442769505e-14,4.4131502277066e-15,-3.16198365851356e-15,2.76606302861647e-07,1.38559899922431e-14,-3.74529663297773e-15,6.35909781063896e-15,-3.61974565332368e-15,4.83519893224086e-15,-1.09731629041781e-14
"Plocama_eriantha",-0.097215034764779,-0.118221830191734,0.016581576641752,-0.00815407923888067,-0.178476140618202,0.0188757782643847,-0.0150660342697256,0.257354581720806,-0.00126280271034785,-0.0321113289805076,0.000924253197395641,-0.00572726087260545,0.000582218742007385,0.0131936152895999,-0.000271048648817761,-0.0988733348501647,0.00561473435079274,-9.64611821635783e-16,0.193245030759616,-0.0321788971714456,-0.0600095960392376,-7.5769785282471e-08,-0.00532014582946754,-1.79803530301659e-15,-7.93203743949781e-16,-1.60466106682867e-15,1.73221966708954e-16,-4.5668048184663e-16,-2.49045325328026e-05,-1.32110824193745e-15,-6.88349523810962e-16,-1.69321747999555e-15,2.39241573945902e-15,5.45877113161619e-08,-0.000275871816227061,-2.03221815731144e-05,7.83287998526246e-07,0.00295524758539408,0.557762518183256,0.0582560649311477,0.000278750354561364,-2.24244550137732e-05,-0.000950828773092092,-2.13361789071329e-08,3.91478820690641e-07,3.36359952751958e-06,-6.59993454923288e-07,-3.7005522577199e-16,9.2883396454374e-16,-0.00183847697740563,-1.96171361897108e-05,-1.13262213384946e-06,-1.23010802537379e-07,1.06248017040552e-06,1.70741244641711e-05,1.47779692736031e-15,2.90969700694282e-07,-5.66914956787857e-17,-7.4701895656365e-15,6.74895830303303e-07,-1.2687185319624e-05,1.44177894149914e-16,5.86010493926566e-16,3.71765672538905e-07,3.87906490935523e-07,-1.46236855125565e-15,-1.55492302977076e-16,-1.49116953052925e-15,-1.26441750416465e-15,-2.94258735390163e-15,-5.33375535623461e-06,-2.43534011397976e-15,0.000349870848112156,-4.50334214363579e-15,1.06362140334828e-07,-1.55824942990687e-06,-6.82537802498463e-15,-9.78707648374501e-16,4.25121515036021e-15,2.01317144692539e-15,-1.10364410095488e-07,3.99010821376394e-15,9.36236074394206e-15,3.16378587353101e-14,3.06634070643862e-14,-1.28045074016281e-06,1.02855668494943e-14,-0.707106781186547,2.19688109588493e-15,1.83738048038432e-14,-4.23997015012965e-15,2.84311214707637e-15,2.76606271077751e-07,-1.30538304373391e-14,3.26708038901546e-15,-8.15013635996482e-15,3.83018670809239e-15,-3.07774203557243e-15,9.24338636209642e-15
"Saprosma_kraussii",-0.0963699556457268,-0.115939431178262,0.0159846574841896,-0.00722524723917636,-0.153205466643061,0.0158395068143887,-0.0118975449604364,0.175133839410766,-0.000805389804546462,-0.0187799185954409,0.000476913810290517,-0.00284466730664255,0.000128741237245583,0.00157691461980473,0.00012882574916266,0.0648752897235829,-0.00399420557776221,1.91296148703813e-15,-0.393635277257867,0.073816713543239,0.203732511753977,5.99185892874372e-07,0.451103850848279,5.76476464312879e-16,-7.67252796720769e-15,7.78006956970509e-15,-2.46119504789998e-15,3.13530203623816e-15,-0.000182750073063947,-6.05861601809981e-16,-2.32959547046657e-16,2.22510385495066e-16,-2.29959343388587e-15,3.20744346285301e-07,-0.00158947205436927,-0.000115009532900742,4.33425867264383e-06,0.0401207944812729,-0.0160136602272641,0.0236562137668284,0.00022953002483031,-2.78977884448135e-05,-0.0013239709664389,-3.23584116708317e-08,6.05210283136511e-07,5.29235781320878e-06,-1.04892006232043e-06,7.9041123783055e-16,-5.83243702143025e-17,-0.00293885259331193,-3.13333029763128e-05,-1.80881730961474e-06,-1.94393289624819e-07,1.67642082299875e-06,2.67314871214035e-05,-3.17696418674259e-16,4.5491490130276e-07,-9.57492117924536e-16,-9.65465768899855e-16,1.05284178516577e-06,-1.97314861148817e-05,-4.49952444216698e-16,5.36849839810716e-17,5.66598483899875e-07,5.85473447428185e-07,-9.33448967877256e-16,1.66639484999049e-15,1.71137867201568e-15,-1.33853291879593e-15,-4.96504560436012e-16,-7.96315701511063e-06,-4.28147865518415e-16,9.06679964285326e-05,3.94823063132321e-15,1.5629707599541e-07,-2.28503172603243e-06,6.96092314293451e-17,-1.66796956167715e-16,-1.5811744650029e-16,-2.40995464792537e-15,-1.601724103691e-07,4.79198743421309e-15,-5.57535829100616e-15,4.92026404636421e-15,-3.28352237148828e-15,-1.83653749049173e-06,2.11104237339946e-15,-1.41093790948845e-14,2.86385208980452e-15,4.17257820620036e-15,1.49870151416901e-14,2.28327435033363e-15,3.93338509239349e-07,0.707106781186548,-8.76943212693578e-14,-4.51291271247999e-15,-7.40333807702691e-15,8.29984785668443e-15,1.33865204674117e-14
"Saprosma_glomerulata",-0.0963699556457268,-0.115939431178262,0.0159846574841895,-0.00722524723917592,-0.153205466643061,0.0158395068143885,-0.011897544960437,0.175133839410766,-0.000805389804546607,-0.0187799185954403,0.000476913810290928,-0.00284466730664287,0.00012874123724549,0.00157691461980475,0.000128825749163236,0.0648752897235826,-0.00399420557776217,2.20978708039488e-15,-0.393635277257867,0.0738167135432388,0.203732511753976,5.9918589166939e-07,0.451103850848279,3.77322714763676e-16,-6.9429401886329e-15,8.41017852065954e-15,-2.60998659503713e-15,3.3902542487813e-15,-0.000182750073062741,-1.43805933642859e-16,-9.25392965914301e-16,-3.64253756009575e-16,-2.52701616518728e-15,3.2074434659025e-07,-0.00158947205437001,-0.000115009532900751,4.3342586730975e-06,0.0401207944812732,-0.0160136602272634,0.0236562137668278,0.000229530024830118,-2.78977884463955e-05,-0.00132397096643851,-3.23584083614079e-08,6.05210287104128e-07,5.29235781277662e-06,-1.04892005799988e-06,-2.38603443454912e-16,4.8035254647459e-17,-0.00293885259331424,-3.13333029767904e-05,-1.80881730749503e-06,-1.9439328913857e-07,1.67642082300578e-06,2.67314871217679e-05,-1.1357167959736e-16,4.54914898328047e-07,9.96531314791011e-16,-1.33015182749678e-16,1.05284178728096e-06,-1.97314861174531e-05,4.47996283145322e-16,-1.27866601441819e-17,5.6659848448979e-07,5.85473444239774e-07,1.60926002019037e-15,-8.36528369727494e-16,-1.61370279507949e-15,9.63571734592994e-16,4.91658314129027e-16,-7.96315701709683e-06,2.64403644366657e-16,9.06679964380909e-05,-7.15399961492835e-15,1.56297069384734e-07,-2.28503172370791e-06,8.95376523685126e-16,2.72279771928097e-16,7.62290874823957e-16,2.03945557209443e-15,-1.60172407671618e-07,-4.35924311022922e-15,5.92234900460312e-15,-3.71961291457921e-15,3.79052599389229e-15,-1.83653748224849e-06,-1.66647136564845e-15,1.27302625254286e-14,-2.22277186408278e-15,-5.14918522159297e-15,-1.44172436132191e-14,-2.18318660818427e-15,3.93338671891013e-07,-0.707106781186547,8.7840043931119e-14,3.4413352144116e-15,8.60485740744497e-15,-6.46560414385331e-15,-1.38664244755817e-14
"Mycetia_longifolia",-0.0949591615010964,-0.112163994762804,0.0150113734586222,-0.00580805814643291,-0.115537382197757,0.0113863135736804,-0.00743863183327601,0.0694589977431221,-0.000237957187563427,-0.00295267346276283,-2.45929157798719e-05,0.000335242931777173,-0.000266473529252524,-0.00766891726394045,0.000300187934584525,0.119956406614217,-0.00696975583397952,1.65655995816224e-15,-0.284103566134927,0.0463126491272974,0.0672965005732238,-1.42663527291722e-07,-0.46671327389201,1.87978318937967e-15,7.29346864547919e-15,-3.51381360628514e-15,1.28297655014773e-15,-6.96935080062421e-16,0.00133769169858731,-1.07803505237286e-15,2.04742881169611e-17,3.26517809142684e-15,-7.1747176177704e-15,-3.51417378734232e-05,-0.280850866593166,-0.00554116451425377,9.81599163244171e-05,0.20526184824829,-0.0141799133259703,0.0935804930613995,0.000842764670829921,-9.33601823381129e-05,-0.00419985619989996,-9.5457439471464e-08,1.73778852185735e-06,1.46753819435514e-05,-2.82097122124157e-06,5.93012365018552e-16,2.54240119030799e-15,-0.0070593057995736,-7.47836753896546e-05,-4.31262954986611e-06,-4.39150180826445e-07,3.76423021960427e-06,5.84126467626451e-05,-0.707106781186546,9.89668415239465e-07,5.20537313735141e-14,6.26497581886536e-14,2.27486252461108e-06,-4.2244840287222e-05,-4.23531286755167e-15,-2.54183053108271e-15,1.15016073593701e-06,1.16183695883227e-06,-1.41234037256941e-16,-2.16992528309489e-15,2.00091029177088e-15,-1.44274615186638e-15,-1.24233928441555e-15,-1.54295282590276e-05,-4.18697319718101e-16,6.03046776512135e-05,-1.43149381237606e-14,2.93082568184451e-07,-4.26706409285081e-06,4.6547878635407e-16,-5.45010199238688e-16,8.14438796975159e-16,-1.30826582910372e-15,-2.93136951741846e-07,1.22092862605007e-16,-2.94249923078066e-16,1.02308906201638e-15,4.70158135116916e-16,-3.28726932705269e-06,1.60467251892344e-16,-2.17873435009712e-15,4.17858114936521e-16,-8.09663789394059e-16,-1.15339032363437e-15,-2.06195411759101e-16,6.93039310494095e-07,-2.14659109139643e-18,-8.47425669718047e-16,-7.67203835797155e-16,4.69314618412896e-16,1.11458255637423e-15,2.46475184071147e-16
"Argostemma_condensum",-0.0949591615010964,-0.112163994762804,0.0150113734586222,-0.00580805814643289,-0.115537382197756,0.0113863135736801,-0.00743863183327658,0.0694589977431222,-0.000237957187563228,-0.0029526734627628,-2.45929157789842e-05,0.000335242931777154,-0.00026647352925256,-0.00766891726394023,0.000300187934585732,0.119956406614218,-0.00696975583397966,2.00742756935778e-15,-0.284103566134926,0.0463126491272991,0.0672965005732225,-1.42663527830896e-07,-0.466713273892008,2.41491706639199e-15,7.89919231157223e-15,-3.36330414531357e-15,2.14195774000807e-15,-1.30408926339258e-15,0.001337691698588,-4.62567743402214e-16,-1.93124883654733e-16,3.41459231326121e-15,-7.68324749716965e-15,-3.51417378713793e-05,-0.280850866593166,-0.00554116451425358,9.81599163250209e-05,0.205261848248287,-0.0141799133259726,0.0935804930613978,0.000842764670831938,-9.3360182339101e-05,-0.00419985619990139,-9.54574377964868e-08,1.7377885205834e-06,1.46753819455309e-05,-2.82097121972906e-06,-8.24110667144635e-16,-2.02334385764717e-15,-0.00705930579955883,-7.47836753847528e-05,-4.31262954651486e-06,-4.39150190185293e-07,3.76423022375675e-06,5.8412646749472e-05,0.707106781186548,9.89668808909756e-07,-5.23019961094843e-14,-6.21449483251156e-14,2.27486256426954e-06,-4.22448402882779e-05,3.15287580644504e-15,2.36699794634966e-15,1.15016073742033e-06,1.16183695445229e-06,1.22955902486585e-15,2.16885982638132e-15,-1.37606479469216e-15,8.02291701855782e-16,1.26085384461432e-15,-1.54295282597529e-05,3.136113828521e-16,6.03046776527193e-05,6.65439925384703e-15,2.93082573808983e-07,-4.26706409251948e-06,-3.45872216843023e-16,2.99404380938638e-16,1.21625400051306e-16,5.80505689793504e-16,-2.93136948845486e-07,3.13531376921474e-16,2.62247096810088e-16,-1.14488283642692e-16,-6.6681225988147e-16,-3.28726932675089e-06,3.00599720097533e-16,-1.24198367306964e-15,6.94071692074692e-16,-8.40536884658618e-16,2.10267127976173e-15,1.41986637580126e-16,6.93039310345906e-07,5.8072049683681e-16,2.16804015302957e-16,-5.35763984829016e-16,3.2070431394713e-16,4.35690978360561e-16,-4.87635792777157e-16
"Coprosma_glabrata",-0.094045840866276,-0.109762669275349,0.0144093146221601,-0.00503901449335424,-0.0960403461790123,0.00915665746552327,-0.00539178739303405,0.0298596994394572,-4.27236495038095e-05,0.00191527656080094,-0.000156087058028727,0.00112969834493613,-0.000299951108889405,-0.00791297646438018,0.000237446357895397,0.0899350689313846,-0.00514622273988514,9.55282437604914e-16,-0.154231588854371,0.0236835581381679,0.0239545432518078,-1.08682856390522e-07,-0.193757479673218,-2.66498354234244e-15,3.28572618675724e-15,-1.98976140579516e-15,-1.45554430020782e-16,1.80304499829161e-15,-2.03655065525981e-05,-7.74755081048273e-16,-1.13635641053001e-15,-2.00405765066074e-15,2.67605307999615e-15,9.7782312771403e-06,0.0909590224043965,0.0020810469011487,-4.59480728857398e-05,-0.434441764506781,0.0574067244009039,-0.827413686241537,-0.013938923783219,-0.00310605032596016,-0.0497325711886501,-6.05306598083834e-07,9.41500304450852e-06,6.70420153619612e-05,-1.13473660266513e-05,1.76933992193227e-16,-6.81740394495308e-16,-0.0198954650697773,-0.00020734652463139,-1.19258395490093e-05,-1.07101550050935e-06,9.06171606636877e-06,0.000132997011926492,-1.01670609903609e-15,2.23377816842583e-06,-7.44176700945074e-16,3.48621033899677e-16,5.06699238654098e-06,-9.24709832111415e-05,-6.85846229461876e-16,4.39459676586595e-16,2.29165395456315e-06,2.23153525003164e-06,-8.2293630914526e-16,1.2469564727704e-15,-2.07762853596537e-15,1.86455060220113e-16,-2.13952178725091e-16,-2.85663394234095e-05,-7.64788940238067e-16,6.91213814297854e-05,4.78783679369599e-15,5.17429400512259e-07,-7.48984777962637e-06,7.84690367873482e-16,-1.73422533005738e-16,-4.82880328502559e-16,5.45712049790399e-16,-5.0058065766145e-07,4.21056627496201e-16,1.65276328120346e-16,9.50737852333554e-16,5.98398902338661e-17,-5.45264125661548e-06,6.29081124659692e-16,-1.32132810782168e-15,2.59756536756745e-16,-3.7072879148267e-16,5.94309147806642e-16,-2.7536469786689e-16,1.12689310591598e-06,3.82160091197572e-16,6.57206291379092e-16,-1.61153921334128e-15,4.55063174688636e-16,6.22456723587659e-16,-1.13409750555456e-16
"Hedyotis_novoguineensis",-0.0969311942515918,-0.117418986525293,0.0163559182455392,-0.00765752648210994,-0.162975772951342,0.0168084837821865,-0.0120879127977161,-0.340467260902536,-0.00294684877277361,-0.0478545177312592,0.00117698022240289,-0.00711313693061808,0.000607709504965822,0.0132207935324907,-0.000217948709972715,-0.0741094631571565,0.00411648851485904,-6.82936195676229e-16,0.071262486237299,-0.00976279428962296,-0.00230131194380435,6.72290792953666e-08,0.0675084361977864,-1.06549186216302e-15,8.78864455461777e-17,1.07572685407344e-15,-9.48795426602512e-17,7.32929040983056e-16,0.000110520852830868,-9.07285790234218e-16,9.10321694152266e-17,-7.19394020709272e-17,-7.67899833105729e-16,-5.85126208297528e-06,-0.0502950052306826,-0.00106845482410779,2.12277381033089e-05,0.113289859872145,0.00753595872730509,-0.0612012774094928,0.510386272680191,0.000172102728410567,0.00228945734198358,1.21158770328542e-08,-6.39534721624033e-08,9.43622064169877e-07,-4.28732043449319e-07,-1.80762244966883e-15,2.45564842355289e-15,-0.161693076620223,0.00023501998669615,1.13263346641231e-05,4.91333843538103e-08,-2.96222293519986e-07,1.48261357746562e-06,4.97585441262402e-16,3.76808928985391e-08,-2.99419398849855e-16,-4.67664939661862e-16,1.27746491143302e-07,-3.29732777962899e-06,1.33878714765994e-16,-6.12033448098677e-16,2.00146706091684e-07,2.39187570653622e-07,-1.1435847209566e-15,1.31678457009226e-15,9.05704713187116e-16,-1.89037147764156e-15,-4.8608450733842e-15,-3.64702339895288e-06,1.50422729290315e-15,5.80581353174653e-06,1.10328413072125e-15,8.05567504004893e-08,-1.19278786054088e-06,2.97948969011212e-16,-1.55022274825531e-16,1.02895070771684e-15,-3.35420785824342e-16,-8.84575412181095e-08,-2.06915386038266e-15,-1.28913223553152e-15,1.35097606531149e-15,-4.44551397402282e-16,-1.07013634490206e-06,2.34925545672354e-15,-1.27414848845179e-14,-6.85214301958376e-16,2.23076385547983e-16,-6.07697556982829e-15,1.9921776517111e-15,2.37073541508504e-07,1.46062717557134e-14,-6.68456847732311e-15,-9.18408076492426e-15,-1.3760996463947e-14,1.42714806522474e-14,-0.707106781186549
"Hedyotis_ceylanica",-0.0969311942515918,-0.117418986525293,0.0163559182455392,-0.00765752648210988,-0.162975772951342,0.0168084837821864,-0.0120879127977159,-0.340467260902535,-0.00294684877277336,-0.0478545177312592,0.00117698022240283,-0.00711313693061833,0.000607709504965055,0.0132207935324905,-0.00021794870997217,-0.0741094631571572,0.00411648851485953,4.00113622968481e-17,0.0712624862373,-0.00976279428962236,-0.00230131194380396,6.72290803949649e-08,0.0675084361977863,-9.56500634771129e-16,7.68597671524461e-17,6.80996540382318e-16,-3.80207736330694e-16,8.3566070788681e-16,0.000110520852830913,-7.5089446215013e-16,1.1176589685419e-16,2.62030620728121e-16,-8.68866803938863e-16,-5.85126208327179e-06,-0.0502950052306824,-0.00106845482410742,2.12277381028288e-05,0.113289859872146,0.00753595872730578,-0.0612012774094928,0.510386272680192,0.000172102728408985,0.0022894573419832,1.21158774499989e-08,-6.39534721337058e-08,9.43622064638923e-07,-4.28732045600187e-07,-1.55585175813047e-15,1.0509671589409e-15,-0.161693076620225,0.000235019986696138,1.13263346646827e-05,4.91333852198748e-08,-2.96222293842221e-07,1.48261358007454e-06,1.31637492192345e-15,3.76808907875746e-08,-3.1459265433367e-16,3.26529866721249e-16,1.27746493250569e-07,-3.29732778075264e-06,-4.42411640606296e-16,3.57346996751786e-16,2.00146705135505e-07,2.39187568652832e-07,1.66249648510564e-16,4.8660744122315e-16,-1.84414910713696e-15,-1.15212068154552e-16,5.15279491168968e-15,-3.6470233983078e-06,-2.13678771739087e-15,5.80581353309267e-06,2.26207941267376e-15,8.05567574265818e-08,-1.19278786625003e-06,2.11531494830897e-15,6.47861964082089e-17,-5.75252099229857e-16,-2.29361653860102e-16,-8.84575512732855e-08,2.44433319542937e-15,6.22194806701918e-16,-4.37403907317555e-16,-5.39309765751602e-16,-1.0701363444675e-06,-1.64908756770409e-15,7.75600770762404e-15,2.09817495704736e-15,-5.85386473276621e-16,5.96033245925263e-15,-2.13958904014889e-15,2.37073549935662e-07,-1.32429789276183e-14,6.98215089378958e-15,7.92436207688394e-15,1.4375177765292e-14,-1.28561377575712e-14,0.707106781186547
"Oldenlandia_cryptocarpa",-0.0962780101134044,-0.115689570181026,0.015917632324135,-0.0070739131556562,-0.148068343078855,0.015102627383898,-0.0105744003345653,-0.282824968473589,-0.00240438514773912,-0.0382440229136074,0.00091759184674156,-0.0055093001564583,0.000435136533023274,0.00924718251208838,-0.000137790463615679,-0.045812766635071,0.00252869595461756,-3.70958717340032e-16,0.0394603174045698,-0.00533434030997654,-0.00120334030313736,3.23311192014761e-08,0.0293829868256677,1.04532845076747e-15,-1.14505132852764e-15,2.06298002871003e-16,6.1920628347125e-16,-2.7981705642461e-16,3.50724361909589e-05,2.34387635225445e-17,-1.11683115913577e-16,9.82226360679947e-16,-1.55136986218089e-15,-1.48746482833173e-06,-0.0122870814353829,-0.000249394582759031,4.56006213151475e-06,0.000813135180429817,-0.00130815255704247,0.0128117983490916,-0.137131645489887,-7.0016122709728e-05,-0.00120147324586417,-9.1872271613388e-09,5.62069769693634e-08,-1.01661889971735e-06,5.6137100598414e-07,1.54988616122638e-15,-3.83631575257678e-15,0.582686125923393,-0.000923249339336636,-4.51494984264276e-05,-6.631079905426e-07,5.30970552563014e-06,6.57803075388092e-05,5.74785033541298e-14,1.08382039733949e-06,9.8610660548584e-14,0.707106781186548,2.39472379248866e-06,-4.24215705665927e-05,-7.25828700627674e-15,-2.29693088774538e-16,9.5988299600665e-07,9.23551542491893e-07,2.8770594431114e-15,-7.15142454817529e-15,-3.82486906811209e-16,1.43035658174745e-16,7.84106317673742e-16,-1.1797335863264e-05,3.55489568111896e-15,1.62490021698262e-05,-1.27536869953815e-14,2.15789894533492e-07,-3.13005571755712e-06,-1.13399987855665e-15,1.52470392398507e-15,9.70544614806962e-16,1.80526078508786e-15,-2.11769796406184e-07,-2.35267666384353e-16,1.09113042473388e-15,6.42598442468291e-16,5.04309768451684e-16,-2.34642745099617e-06,1.71457246631048e-16,-3.23149440131477e-15,8.69435641224403e-16,-1.05099991585607e-15,4.098455090145e-16,2.6643685605224e-16,4.91771640353553e-07,-1.02081986347288e-16,-3.90220249495629e-16,-9.72612677822319e-16,1.22177668081741e-15,1.52812238347015e-15,2.47140971954058e-16
"Oldenlandia_justiciformis",-0.0962780101134044,-0.115689570181026,0.015917632324135,-0.00707391315565634,-0.148068343078856,0.0151026273838981,-0.0105744003345654,-0.282824968473588,-0.00240438514773886,-0.0382440229136077,0.000917591846740584,-0.00550930015645798,0.000435136533021162,0.00924718251208833,-0.000137790463615814,-0.0458127666350717,0.0025286959546183,-1.47597452567634e-16,0.0394603174045704,-0.00533434030997643,-0.00120334030313703,3.23311172670384e-08,0.0293829868256668,-1.73603343445155e-15,-8.95281272375632e-18,7.21192630491046e-16,7.53398915726231e-17,-1.6665383764811e-16,3.50724361915796e-05,1.15720401358961e-17,3.74270311051425e-16,-2.85174800620072e-16,4.06772572640176e-16,-1.48746483270302e-06,-0.012287081435385,-0.000249394582758788,4.56006213247584e-06,0.000813135180430866,-0.00130815255704816,0.0128117983490894,-0.137131645489886,-7.00161227116343e-05,-0.0012014732458664,-9.1872248313342e-09,5.62069784807188e-08,-1.016618897832e-06,5.61370997522984e-07,3.56954764134724e-15,2.64342380723766e-15,0.582686125923395,-0.000923249339338588,-4.51494984392588e-05,-6.63108002930497e-07,5.30970553537182e-06,6.57803075353732e-05,-6.93341195484647e-14,1.08382040015281e-06,-9.81367151796943e-14,-0.707106781186546,2.39472402744056e-06,-4.24215705710458e-05,8.9680564926626e-15,3.44951632505839e-16,9.59882994894865e-07,9.23551535317534e-07,1.69680985232482e-15,3.32705457590197e-15,2.77658829248822e-15,2.91285894503659e-15,-6.81403304077237e-15,-1.17973358715086e-05,-2.82162952858973e-15,1.62490021433925e-05,5.90499871222505e-15,2.15789902194443e-07,-3.13005571963068e-06,3.81257196589825e-16,8.86168660979177e-17,-9.81164663092706e-16,-1.27471077706462e-15,-2.11769796546351e-07,-9.99839551932019e-17,8.00424976839021e-16,4.54759362249486e-16,-9.73305221958471e-16,-2.34642745098526e-06,3.36806743695585e-16,7.19766313625779e-15,-5.92704166367676e-16,-1.17868883284027e-15,1.01392350574578e-15,1.70885765344173e-17,4.91771642514553e-07,-1.01454653471109e-15,4.0433459421817e-16,4.10253611800625e-16,1.0857201545158e-15,4.3149235503079e-16,1.1509319029376e-15
"Mitracarpus_steyermarkii",-0.0965575350225034,-0.116426152463454,0.016102947643035,-0.00731303423011595,-0.154113930758055,0.0157896735257527,-0.0111738135787785,-0.30490652435304,-0.00260975598138852,-0.0418326774946482,0.00101284790724352,-0.00609566692741293,0.000494871636670119,0.0105997003290288,-0.000163100060139308,-0.0545942089390258,0.00301903330261885,-3.26312577286661e-16,0.0484982338103311,-0.00657905447868159,-0.00150074604322274,4.11184920469769e-08,0.0381421731577149,1.14021593094274e-15,-7.39024098782476e-16,2.80202786785366e-16,1.67047035817198e-16,-5.68127052541671e-16,4.75513460916939e-05,-2.80337953668109e-16,-3.07578787335866e-16,1.37746834917692e-16,-6.69329123150087e-16,-2.03614452440106e-06,-0.0168147028730563,-0.000340912473124775,6.20663575387242e-06,-0.00820464338702836,-0.00409121987076467,0.0405486884521769,-0.453478466010447,-0.000276090969854862,-0.00591616398702915,-9.92051081183666e-08,1.73589470077135e-06,1.45460145408023e-05,-2.90287840466774e-06,4.51538361156023e-16,-1.42521967835991e-15,-0.365070837331034,0.000506643652339578,2.42298484423499e-05,4.39577753075668e-08,-1.45178142539467e-07,8.14552463105316e-06,4.03312560134532e-15,1.57576555870948e-07,-1.0371828626104e-15,-5.00938261591741e-15,4.24338457952848e-07,-9.21763603830327e-06,-1.33563850694141e-15,1.93948515953469e-16,3.88401094637939e-07,4.3074655867619e-07,1.53316792958727e-16,-4.2791976003981e-15,-2.50182931820063e-15,-2.13482967503158e-15,1.15653847778146e-14,-6.16936697364648e-06,0.707106781186547,9.31375081592717e-06,-8.46545056276682e-14,1.27117244120935e-07,-1.86753995669998e-06,-2.39627104665867e-15,-2.70654438358424e-15,2.5904269791645e-15,1.91202624042714e-15,-1.33666088111471e-07,2.20280013816807e-15,-2.29037212288717e-15,1.31024319615721e-15,-2.54028396458952e-15,-1.56132289812012e-06,-4.70539194327622e-16,-5.0342110392488e-15,1.69103774035759e-16,-1.89379971062516e-16,-1.54103180048979e-15,-7.63960858654791e-16,3.38112929887248e-07,7.62853084901298e-16,1.74180326063994e-16,-4.9177289379615e-16,7.20439827686168e-16,1.1533907655064e-15,1.3464213353071e-15
"Galianthe_chiquitosiana",-0.0965575350225034,-0.116426152463454,0.0161029476430351,-0.00731303423011596,-0.154113930758055,0.0157896735257527,-0.0111738135787785,-0.30490652435304,-0.00260975598138889,-0.0418326774946483,0.00101284790724349,-0.00609566692741298,0.000494871636670149,0.0105997003290288,-0.000163100060139876,-0.0545942089390264,0.00301903330261917,-4.56796320516425e-16,0.048498233810331,-0.00657905447868152,-0.00150074604322317,4.11184905523755e-08,0.0381421731577157,8.80031033179406e-16,-2.96368188533256e-16,3.09679606813683e-16,1.38809327827724e-16,-8.40266711031822e-17,4.75513460911054e-05,-2.9955385438934e-16,-1.80412067793903e-16,3.28403737904235e-16,-8.07493858002319e-16,-2.03614452399887e-06,-0.0168147028730579,-0.000340912473124482,6.20663575388012e-06,-0.00820464338702882,-0.00409121987076433,0.0405486884521778,-0.453478466010448,-0.000276090969853379,-0.00591616398703115,-9.92051082162045e-08,1.73589469948149e-06,1.454601454379e-05,-2.90287840548622e-06,-1.16241361742119e-15,-9.35951475622114e-16,-0.365070837331034,0.000506643652339265,2.42298484419893e-05,4.39577752796304e-08,-1.45178144192998e-07,8.14552462292745e-06,4.7079330335003e-15,1.57576556934819e-07,5.56818804880955e-16,1.50623875984661e-15,4.24338463065247e-07,-9.21763603875156e-06,-1.18353833574851e-16,9.56236756546917e-17,3.88401092194427e-07,4.30746559159222e-07,-2.78588789632946e-15,6.44086390835398e-15,1.97509378830961e-15,1.52771120231234e-15,-8.67628801638873e-15,-6.16936695666511e-06,-0.707106781186547,9.313750801411e-06,8.48279779752659e-14,1.27117251170727e-07,-1.86753996611043e-06,2.57174950480147e-15,1.5019400046339e-15,-3.08362358230126e-15,-3.08437015838851e-15,-1.33666090534272e-07,-8.37774793861667e-16,1.44147378123323e-15,4.33883301850694e-16,2.83538907640964e-15,-1.56132289502328e-06,1.14312193098271e-15,1.49142706969898e-16,6.99247071528401e-16,-5.03954425967601e-16,1.37055262978132e-15,-4.40217699874769e-17,3.38112932934188e-07,3.89887537566284e-16,-8.99695427127987e-17,-1.48529867698393e-15,-3.61159528254854e-16,4.8029226747167e-16,-2.5601759325928e-15
"Otiophora_lanceolata",-0.093660346825215,-0.108739342412758,0.0141486894436881,-0.00467596161676474,-0.0864705538461158,0.00802764486599187,-0.00424080694257114,-0.0374732815692428,-8.19491993141281e-05,0.00317611772531097,-0.00020918546785333,0.00147215841265698,-0.00033455958195933,-0.00860155637473066,0.000233083904940132,0.0859463423447435,-0.00487776666819906,6.14322367379655e-16,-0.113149717581369,0.0159916342686542,0.0041448689197442,-1.41251616537622e-07,-0.164773329953323,1.04851033697061e-15,-1.20155326436537e-15,-3.46920053125695e-15,-1.50066641109976e-15,-9.17891021374556e-16,-0.00037492470201881,3.98552718152e-15,-6.80191606819948e-16,-2.96387554742682e-15,7.14086145032635e-15,2.31279566724494e-05,0.203405797160572,0.00442985439657395,-9.17661313013909e-05,-0.745299658371314,-0.0651035806682088,0.52639968427384,0.172970725118025,-0.00317214551510987,-0.0542938771505256,-6.88932044285786e-07,1.08070328848814e-05,7.75520836481678e-05,-1.31889786262343e-05,3.52153448610801e-16,1.38220082416506e-15,-0.0376475821935269,-0.000218510560359478,-1.27650256019517e-05,-1.22717513637455e-06,1.03860605964424e-05,0.000152416390825844,-3.13844782475281e-16,2.55950972439311e-06,-1.6035660093426e-16,-1.62219222416306e-15,5.80402834803635e-06,-0.000105866798456769,-9.49515761249946e-17,-2.27905673891148e-16,2.61195021601239e-06,2.53729694647492e-06,-2.17319136614122e-16,-4.72991880581437e-16,3.03986088012836e-15,-1.53595236835636e-15,4.30353110516171e-16,-3.23904142439605e-05,7.99674004552343e-17,4.42067504062491e-05,-3.29597460435593e-15,5.84279667891551e-07,-8.45289900705363e-06,3.57114934420167e-16,-5.41274352756205e-16,3.86188880304053e-17,-7.32889575056778e-16,-5.63413419274031e-07,8.91747708355024e-16,3.08480506165319e-16,1.64289404144328e-15,3.70548146640109e-16,-6.11800140680373e-06,3.27122394410958e-16,-1.98465383780123e-15,5.2080144750751e-16,-9.02526982606176e-16,1.41070955908045e-15,-5.13407512468872e-16,1.26153105868792e-06,-4.47772614757992e-17,-1.28485215824244e-16,-4.27045624004339e-16,6.85814161442151e-16,4.60998760502033e-16,-2.19837806897972e-17
"Psychotria_cochabambana",-0.0985486300463233,-0.122176478181074,0.0178041010958591,-0.019686237073737,0.258009104106614,-0.00128193630520829,-0.00641657785727095,0.00864313944850395,-0.00133775054321718,-0.0273162708722527,0.000749078657591384,-0.00461633152881888,0.000457305930630369,0.0102947736714839,-0.000199267996514548,-0.0707530430326614,0.00398072294439828,-2.5671917047732e-16,0.0745310929025057,-0.0078287555233966,0.226859785684612,-1.20924407928341e-07,-0.0187783304605837,3.1277779095102e-16,-7.55510130941448e-16,-6.66318659813912e-17,-5.50806096925029e-16,-9.88928805409195e-16,-4.73305764974157e-06,-1.70080561118327e-16,-2.74106298509837e-16,-6.27623764236406e-16,-7.3009599554952e-16,-5.171895831789e-07,-0.0049390850274551,-0.000114702175078267,2.54601871106316e-06,0.000833882001109734,1.00183666480805e-05,0.000460995630807574,-2.90804872855286e-05,-0.0028726062163886,-0.0356551983254653,6.03602167544225e-08,-5.26691355389038e-07,-1.60011800714507e-06,5.1326099821565e-08,-1.16677909709346e-16,-2.23888828406906e-16,-0.000239479070440763,-1.13609991743782e-05,-6.49082476057328e-07,-7.80744278093015e-08,6.83352912717957e-07,1.15608404979016e-05,1.2990103679361e-15,1.98456422754554e-07,1.78564047145675e-16,4.71732123234233e-15,4.65277963648037e-07,-8.86517925942993e-06,3.83908555465454e-15,6.03649570669241e-16,2.76346790019112e-07,2.94153966670363e-07,0.171239176890453,0.217272523844839,0.0114238678649321,-0.388663711983058,-0.778211502256207,-4.11830193606195e-06,1.14115802123038e-14,2.16753068004241e-06,-1.77358128183869e-14,8.38591817953158e-08,-1.23148093750952e-06,1.66126671620327e-15,6.82014489675082e-15,-1.30756731217896e-15,-1.34585349216248e-15,-8.8166938094429e-08,-7.8866222215765e-16,-1.81141895957153e-15,1.4791965663413e-15,-2.84494325722588e-16,-1.03388188293222e-06,2.76284720540807e-16,2.60536356798608e-15,7.48144087708576e-16,-1.93450608486895e-15,1.3574954365799e-15,3.55052177596657e-16,2.24887452559128e-07,-1.11627209155315e-15,-4.23625220308019e-16,-7.34614291897094e-16,-2.69008855351648e-16,1.54172714379818e-15,5.58770802675154e-15
"Psychotria_cuneifolia",-0.0985486300463233,-0.122176478181074,0.0178041010958591,-0.0196862370737369,0.258009104106614,-0.00128193630520841,-0.00641657785727083,0.00864313944850365,-0.00133775054321779,-0.0273162708722524,0.000749078657591677,-0.00461633152881908,0.00045730593062957,0.0102947736714835,-0.000199267996513741,-0.0707530430326611,0.00398072294439772,-3.55323884355983e-16,0.0745310929025048,-0.00782875552339642,0.226859785684611,-1.20924407508792e-07,-0.0187783304605838,4.89789826215909e-16,-6.92140227651478e-16,-7.6673441163182e-16,-6.30347224057899e-16,-7.53892197061209e-16,-4.73305764946098e-06,-9.27743765751803e-17,-2.61884948822486e-16,-1.02184788765371e-15,3.96714173409156e-16,-5.17189581971175e-07,-0.0049390850274551,-0.00011470217507888,2.54601870971582e-06,0.000833882001108944,1.00183666470119e-05,0.000460995630808735,-2.90804872835356e-05,-0.00287260621638888,-0.0356551983254652,6.03602182552145e-08,-5.26691354842051e-07,-1.60011800685906e-06,5.13260957908333e-08,8.3368882342e-17,4.52520558015917e-16,-0.000239479070441024,-1.13609991752971e-05,-6.4908247742906e-07,-7.80744259052896e-08,6.83352914360354e-07,1.15608404973404e-05,-1.44879161801117e-15,1.98456424352604e-07,-2.3099729594717e-15,2.16380827571221e-15,4.65277966101735e-07,-8.8651792575528e-06,-5.42722820425023e-16,-2.64041645256653e-15,2.76346780387951e-07,2.94153936213627e-07,0.0363680701849854,-0.0117745553661273,-0.169498440806692,0.869319998083071,-0.217772992235568,-4.11830194186598e-06,4.59758639868904e-15,2.16753069310141e-06,-1.53835277849623e-14,8.38591823298832e-08,-1.23148093503763e-06,9.91831416950356e-16,-7.01348241623263e-15,1.94321534709988e-15,-1.88722698886237e-15,-8.81669391146368e-08,-6.7134590837014e-16,1.95593727460694e-15,-4.65116624645858e-16,8.60047197841817e-16,-1.03388188110525e-06,8.30346272719023e-16,-2.13390096838256e-15,1.62788039914565e-15,-2.9714453389998e-16,-3.5994931057608e-16,-9.84417370537174e-16,2.24887453286372e-07,1.78418556028007e-15,8.55893678838475e-16,-1.24765118357924e-15,1.29753246535099e-15,4.82025475008038e-16,-1.29940550067786e-16
"Psychotria_leucocarpa",-0.0985486300463233,-0.122176478181074,0.017804101095859,-0.0196862370737369,0.258009104106614,-0.0012819363052084,-0.00641657785727082,0.00864313944850356,-0.00133775054321717,-0.0273162708722525,0.000749078657591462,-0.00461633152881871,0.000457305930630325,0.0102947736714833,-0.000199267996514483,-0.070753043032661,0.00398072294439719,-3.98166836261649e-16,0.0745310929025048,-0.00782875552339611,0.226859785684611,-1.2092440727828e-07,-0.0187783304605831,1.90543087036344e-17,-2.31235092518879e-16,-1.74301822462914e-16,-8.7040864339718e-16,-1.44665609690162e-15,-4.73305765063886e-06,1.21443361324281e-16,-4.17670529019577e-16,-3.67111366564339e-16,7.86557536741999e-17,-5.17189582021256e-07,-0.00493908502745475,-0.00011470217507913,2.5460187101767e-06,0.000833882001109983,1.0018366645631e-05,0.000460995630807002,-2.90804872845301e-05,-0.0028726062163883,-0.0356551983254644,6.03602170449587e-08,-5.26691353425554e-07,-1.60011800583557e-06,5.13260956411808e-08,2.53178548146839e-16,-3.61337609896907e-16,-0.000239479070438782,-1.13609991748659e-05,-6.49082477595519e-07,-7.80744215214682e-08,6.83352913615218e-07,1.15608404962554e-05,2.79781145118005e-15,1.98456433870975e-07,-1.34976041423934e-15,-7.11696232076642e-15,4.65277966640363e-07,-8.86517926461712e-06,-7.97052855712568e-17,8.58179536209867e-16,2.76346783981354e-07,2.94154001928196e-07,-0.253655739686281,-0.827273458233436,-0.186991280137396,-0.220113713814498,0.0345678825413976,-4.11830191305905e-06,-7.37200558555864e-15,2.1675306596837e-06,3.26266791361718e-14,8.38591929005985e-08,-1.23148093297649e-06,-3.05248327089583e-15,-2.69323829583305e-15,-3.44695493395065e-15,-1.10222683125777e-15,-8.81669361705361e-08,-2.7433514202573e-16,-4.54426467505173e-16,1.97199585469239e-15,3.27810141057877e-16,-1.03388188406811e-06,-8.8011450545376e-16,-1.127761352316e-15,8.6213571310956e-16,6.42184301048872e-16,3.7055297184122e-16,-3.05246729210948e-16,2.24887447442374e-07,1.07294893512958e-15,8.19594366147171e-16,4.99363768358362e-17,-5.07770148963122e-16,1.00030481956015e-15,-8.79341091689826e-16
"Psychotria_interstans",-0.0985486300463233,-0.122176478181074,0.017804101095859,-0.0196862370737369,0.258009104106614,-0.00128193630520842,-0.006416577857271,0.00864313944850335,-0.0013377505432174,-0.0273162708722525,0.000749078657592708,-0.00461633152881904,0.00045730593063036,0.0102947736714835,-0.000199267996514411,-0.0707530430326608,0.00398072294439742,-2.50496781030243e-16,0.0745310929025054,-0.00782875552339677,0.226859785684612,-1.20924407171861e-07,-0.0187783304605836,4.06556771706655e-16,5.60722263966895e-16,4.65929867106072e-17,-1.66392273291399e-16,-1.34293868242292e-15,-4.73305765017048e-06,1.54118029446286e-16,4.66412020638648e-17,6.64766201436052e-16,-6.61628514750976e-16,-5.1718958226362e-07,-0.00493908502745485,-0.000114702175079198,2.54601871024088e-06,0.00083388200111037,1.00183666457976e-05,0.000460995630808371,-2.90804872846543e-05,-0.00287260621639043,-0.0356551983254649,6.03602172364943e-08,-5.26691354814746e-07,-1.60011800725937e-06,5.13260956710235e-08,1.03665453607666e-15,6.6547798696937e-16,-0.000239479070432145,-1.13609991738893e-05,-6.49082476559028e-07,-7.80744249234667e-08,6.83352912099689e-07,1.15608404990649e-05,-9.90824620353292e-16,1.98456427321807e-07,-3.96969405458809e-16,2.17421661656581e-15,4.65277964183215e-07,-8.86517925772881e-06,3.66538821700971e-16,1.37658961031761e-16,2.7634678532999e-07,2.94153972732491e-07,-0.724712534847656,0.480759783458782,-0.0788149828431809,-0.10951814530012,0.242464595572496,-4.1183019429887e-06,6.70172449070849e-16,2.16753066946754e-06,3.51732531989057e-14,8.38591849987162e-08,-1.23148094081483e-06,-2.72107170487999e-15,4.65666898237881e-15,3.72506644638363e-15,-1.09768274595611e-15,-8.81669338073411e-08,-5.44221437115009e-16,1.69605427058592e-16,-9.1447984794562e-16,-2.87300869655258e-15,-1.03388187946078e-06,1.68470732195768e-16,-1.97430640859269e-15,3.68795602614857e-16,-2.45763452730059e-16,-6.84599451985934e-16,-6.99577641817528e-17,2.24887448806173e-07,-2.11547281371579e-15,-1.09211719097888e-15,3.85779209195574e-16,6.52825612196796e-16,5.10152315957276e-16,-1.57323048208054e-15
"Psychotria_ambohimitombensis",-0.0985486300463233,-0.122176478181074,0.017804101095859,-0.0196862370737369,0.258009104106615,-0.00128193630520844,-0.00641657785727093,0.00864313944850304,-0.00133775054321726,-0.0273162708722524,0.000749078657591279,-0.00461633152881897,0.00045730593063,0.0102947736714835,-0.000199267996514264,-0.0707530430326611,0.00398072294439735,-5.30929378845783e-16,0.0745310929025057,-0.00782875552339644,0.226859785684611,-1.20924407448456e-07,-0.0187783304605835,2.88396981289665e-16,-1.27328914539887e-16,-5.406574362959e-16,-9.85589505256753e-16,-6.52534787599274e-16,-4.73305765048669e-06,1.25988843752528e-16,-3.0325473007975e-16,-8.98607311139997e-17,-5.59697522563137e-16,-5.1718958219868e-07,-0.00493908502745466,-0.000114702175079431,2.54601871023961e-06,0.000833882001108975,1.00183666470396e-05,0.000460995630808526,-2.90804872848305e-05,-0.00287260621638995,-0.0356551983254641,6.03602184576131e-08,-5.26691353166147e-07,-1.60011800588445e-06,5.13260955152507e-08,-6.87334793864617e-16,6.2481408282184e-16,-0.00023947907043645,-1.1360999176714e-05,-6.49082477947362e-07,-7.80744238106774e-08,6.83352911615946e-07,1.15608404963118e-05,-2.70473141461837e-15,1.98456432047519e-07,8.34730420978665e-16,-3.43240965778762e-15,4.65277967268912e-07,-8.86517926396058e-06,1.72761671072922e-15,5.66055980994892e-15,2.76346791505614e-07,2.94154021930479e-07,0.588811994335558,0.187126786919694,-0.436181774186269,-0.178892095452576,0.478915871870344,-4.11830191280844e-06,-8.73202879071283e-15,2.16753069830558e-06,-1.67227343084164e-14,8.38591902902407e-08,-1.23148093386378e-06,6.29036283854025e-15,2.99115160389345e-15,7.67245240079363e-16,5.79134367976637e-15,-8.81669345427097e-08,8.79772689608835e-16,-1.60293832690669e-15,1.79439588535102e-15,1.69663559186654e-15,-1.03388188533694e-06,-4.03995152703251e-16,-3.54249643087573e-15,-7.03568687603665e-16,-1.42085327170704e-15,-8.88996785679421e-17,-8.39709771998929e-16,2.24887450808618e-07,1.83622726455938e-15,2.38664209141222e-16,-1.78159835375084e-15,1.72738148056908e-15,6.83921401969277e-16,-4.598588224184e-15
"Psychotria_camptodroma",-0.0985486300463233,-0.122176478181074,0.017804101095859,-0.0196862370737369,0.258009104106615,-0.00128193630520839,-0.00641657785727103,0.00864313944850352,-0.00133775054321726,-0.0273162708722527,0.000749078657592021,-0.00461633152881893,0.000457305930630642,0.0102947736714838,-0.000199267996513512,-0.0707530430326615,0.0039807229443972,-4.03394066174372e-16,0.0745310929025047,-0.00782875552339591,0.226859785684611,-1.20924408656585e-07,-0.0187783304605828,-3.19839418198202e-16,5.2797824506852e-17,-6.19049944066857e-16,-9.33365601604727e-17,-8.98319152748206e-16,-4.73305765081089e-06,-2.08941927769098e-16,3.41630653445461e-16,9.05200016248439e-16,-9.9478903170479e-16,-5.17189581506184e-07,-0.00493908502745465,-0.000114702175079914,2.54601871019843e-06,0.000833882001110855,1.00183666502454e-05,0.000460995630804624,-2.908048728442e-05,-0.00287260621639072,-0.035655198325463,6.03602187217078e-08,-5.26691354349377e-07,-1.60011800601124e-06,5.13260942871224e-08,-1.85699879090585e-16,-2.80084612309059e-16,-0.000239479070439319,-1.13609991758807e-05,-6.49082477102747e-07,-7.80744274859877e-08,6.83352912903475e-07,1.15608404953352e-05,1.61819948751583e-15,1.98456426507993e-07,3.01461651726737e-15,2.10509641757945e-16,4.65277971079631e-07,-8.86517926243429e-06,-5.97626360441591e-15,-4.12272931761593e-15,2.76346794327007e-07,2.94153981245048e-07,0.181949033122942,-0.046111080623751,0.860062610108608,0.0278676684671818,0.240036144507537,-4.11830191483729e-06,-1.30741231354865e-15,2.16753067735359e-06,-1.74096848049032e-14,8.38591885924037e-08,-1.23148093442043e-06,-2.41157239742574e-15,-4.54216154551315e-15,-2.05326401939093e-15,-1.51279883581306e-15,-8.8166939514629e-08,2.44893963702729e-15,1.25626749859563e-15,-2.11116005119839e-16,-9.4463997216051e-16,-1.03388188201301e-06,1.95853771813651e-15,-3.00126270637096e-15,-2.94409622522994e-16,6.5699865672814e-17,3.58993174098483e-16,1.09692914556285e-15,2.24887449244959e-07,-1.21341660620785e-15,1.53418110295854e-16,-4.55774240864709e-16,1.72743088099833e-15,6.25943956025406e-16,-3.24229579377314e-16
"Palicourea_calophylla",-0.0973952052849795,-0.119013937325897,0.0169503339973682,-0.0167847002290987,0.211204416404811,-0.00101951821063737,-0.00472794803708925,0.00530700216283032,-0.000759928707126007,-0.0140038944833429,0.000331808864503928,-0.00195664863341548,7.78034898300047e-05,0.000869046562158973,7.02606785714656e-05,0.0330876879123029,-0.0019959708536688,5.32216144359242e-16,-0.0866961137171322,0.0099114932269633,-0.3725232260698,3.1009245819472e-07,0.0796658394581396,-6.49751827980272e-16,-4.4660757224248e-16,1.43739165006663e-15,1.28567412227305e-15,2.09004997936583e-15,0.000304547787945202,-8.9758647662555e-16,1.70946243116536e-16,8.29605763583989e-16,-1.05004864489968e-15,-9.88980038799899e-06,-0.080775869581716,-0.00162920952875653,2.98820226050795e-05,0.00433039162532097,4.25237967952713e-05,0.00192469461242333,-0.000120835093385029,-0.501935955654263,-0.0927207695916686,1.67235078928786e-07,-1.44318021541712e-06,-4.28978315795857e-06,1.34444357132659e-07,-9.71558164839912e-16,-1.52349740355022e-15,-0.000566665329867418,-2.67164739975922e-05,-1.52483259416014e-06,-1.73877815795218e-07,1.51259138255476e-06,2.48928808282797e-05,-4.45467709056711e-16,4.25387145127218e-07,-1.82513369472769e-16,9.7524242738418e-16,9.90358114844125e-07,-1.86930987329473e-05,-4.59037850363578e-16,6.05015946380936e-16,5.51408259705566e-07,5.7319509245297e-07,-4.50275749458673e-16,4.45997545397323e-15,-3.00033772258326e-15,-6.72361864884017e-15,-2.80446359275128e-15,-7.82649765656299e-06,-2.40597519401003e-15,4.01510406473557e-06,-2.17534323887492e-14,1.5396803085203e-07,-2.25117888998967e-06,-3.40093902228929e-14,-0.707106781186548,-1.97826095137431e-14,5.08727253868303e-15,-1.57785058548271e-07,-8.01035738112998e-16,-2.30155448698831e-15,1.30538520324293e-15,2.00536466820992e-15,-1.80745276507437e-06,-1.83592388357287e-15,-7.2487971429957e-16,1.76818314224911e-15,2.44709709349014e-17,6.32480849618679e-16,-3.70697346582637e-16,3.86682648724243e-07,8.94982415620943e-16,-2.14504188430809e-16,-3.38489859166524e-15,-6.39396370896583e-16,8.34958955907383e-16,-6.98955434453298e-16
"Palicourea_insignis",-0.0973952052849795,-0.119013937325897,0.0169503339973682,-0.0167847002290987,0.211204416404811,-0.00101951821063735,-0.00472794803708916,0.00530700216283061,-0.000759928707126135,-0.014003894483343,0.000331808864504263,-0.00195664863341539,7.78034898301083e-05,0.000869046562159063,7.02606785713911e-05,0.0330876879123025,-0.00199597085366881,6.60228002381362e-16,-0.0866961137171318,0.00991149322696372,-0.3725232260698,3.10092458254971e-07,0.079665839458139,-3.47144608235784e-16,-3.45140216665971e-16,1.26874503541202e-15,1.26248810129412e-15,2.18257634266857e-15,0.00030454778794595,-4.06066552457434e-16,-1.9284990825772e-16,3.00116583373988e-16,-1.2912987736221e-15,-9.88980038880615e-06,-0.0807758695817153,-0.00162920952875572,2.98820226057332e-05,0.00433039162532085,4.25237967974917e-05,0.00192469461242387,-0.000120835093385188,-0.501935955654265,-0.0927207695916682,1.67235078027522e-07,-1.44318021492233e-06,-4.28978315948014e-06,1.34444356556229e-07,-2.44358813470531e-16,-1.36394665924487e-15,-0.000566665329869546,-2.67164739977331e-05,-1.52483259386161e-06,-1.73877815726077e-07,1.51259138153804e-06,2.48928808309754e-05,-1.37527949218028e-15,4.25387146447024e-07,-6.72566616133276e-16,-4.12536353393317e-16,9.90358111410545e-07,-1.86930987343037e-05,-4.64711740497347e-16,-1.67583422779175e-15,5.51408260565196e-07,5.73195089976514e-07,6.02701400492303e-16,-5.12957592123124e-15,1.96606716879513e-15,6.34578801928128e-15,8.10700131348809e-16,-7.8264976505863e-06,1.86773292950891e-15,4.01510402256097e-06,1.68337566108789e-14,1.53968035413903e-07,-2.25117893150106e-06,3.46669906734782e-14,0.707106781186546,2.07353186106975e-14,-5.59452874620088e-15,-1.57785064129175e-07,1.542184310005e-15,2.81221174700482e-15,2.40753825208642e-16,-2.38509212664612e-15,-1.80745277312756e-06,2.39893429523002e-15,-7.45696396011292e-16,-3.77883438460071e-16,-6.27058830182992e-16,-4.13187810640783e-16,-7.77737024100582e-17,3.86682648913555e-07,1.34601051937491e-15,1.45586941180803e-15,2.5815904532941e-15,9.92654854052962e-16,8.36425806834936e-16,-5.74055344182874e-16
"Notopleura_sucrensis",-0.0973812441566814,-0.118976438475006,0.0169405336003644,-0.0167560898166316,0.210767412802576,-0.00101716002430163,-0.00471421040782328,0.00528542118971755,-0.000756528775640567,-0.0139346091864715,0.000329978175059489,-0.00194555710213093,7.72196288679352e-05,0.000862042574350502,6.95238334712851e-05,0.0327226095018365,-0.0019736404175109,3.40406279766184e-16,-0.0855047075989232,0.00977200459609903,-0.366872662795338,3.04738641946623e-07,0.0780902680239508,1.10848352528522e-16,-4.50390724483134e-16,1.79959429359797e-15,1.06189052547028e-15,1.89737060347425e-15,0.000296115654877153,-5.98845094703011e-16,1.91604535204034e-16,7.44411979258226e-16,-1.92783348161694e-15,-9.56298601169965e-06,-0.0780312372857271,-0.00157213054783091,2.87786935453002e-05,0.00403179956894831,3.65970844126012e-05,0.00160311717737863,-9.17761033461606e-05,0.497062051247653,-0.136982137482437,1.94171715367554e-07,-1.62510979995595e-06,-4.70487373965272e-06,1.45098566387351e-07,7.45124713248626e-16,1.01654860366834e-15,-0.000591506365730924,-2.78539414401423e-05,-1.58944720829305e-06,-1.79710062962004e-07,1.56206179651944e-06,2.56215820145487e-05,-5.40296770332696e-16,4.37620484368724e-07,-1.05982308227805e-15,-1.90852176275975e-15,1.01807353622584e-06,-1.91976059412321e-05,8.51789341401274e-16,1.70718594063625e-15,5.6352323661044e-07,5.84756220030612e-07,4.62056164895645e-15,2.82864578118245e-15,-2.32060620459469e-15,-2.73899177554659e-16,6.03898342835457e-16,-7.97088000896571e-06,-2.18477215880054e-15,4.08277790425737e-06,6.37129238256762e-14,1.56483558491905e-07,-2.28739888594207e-06,-0.707106781186546,3.55756217306293e-14,1.53167968917611e-14,9.38670219155107e-16,-1.60141692345834e-07,1.13477189690881e-15,3.8929338284915e-16,-1.31309598507492e-15,-1.5689441172758e-16,-1.8323231576663e-06,5.71380184128475e-16,7.17702452922751e-15,2.52595120942872e-15,-1.54230988704828e-15,1.35136860542436e-16,-1.22802442857424e-15,3.91702165620454e-07,-4.51778601199646e-16,1.23055859009594e-15,-1.47551087342558e-15,-4.14147414263096e-16,-3.87125162117294e-16,1.32965452127074e-15
"Notopleura_merumensis",-0.0973812441566814,-0.118976438475006,0.0169405336003644,-0.0167560898166316,0.210767412802576,-0.00101716002430152,-0.00471421040782335,0.00528542118971766,-0.000756528775640474,-0.0139346091864715,0.000329978175059488,-0.00194555710213087,7.72196288677611e-05,0.000862042574350472,6.95238334709815e-05,0.0327226095018362,-0.00197364041751141,1.98305607673733e-16,-0.085504707598923,0.00977200459609869,-0.366872662795337,3.04738641919999e-07,0.0780902680239499,-3.71726220408415e-16,-3.2145319824609e-16,1.74466703196722e-15,1.2733644034473e-15,1.25772959065037e-15,0.000296115654877682,1.54834315835397e-19,2.3834812821675e-16,3.22543400597742e-16,-1.30515964090244e-15,-9.56298601224852e-06,-0.0780312372857271,-0.0015721305478313,2.87786935443637e-05,0.00403179956894877,3.6597084407522e-05,0.00160311717737922,-9.17761033482655e-05,0.497062051247651,-0.136982137482437,1.94171714816335e-07,-1.6251097995388e-06,-4.70487373737514e-06,1.45098566752755e-07,1.54723980786273e-15,7.24239704261697e-16,-0.000591506365729567,-2.78539414407789e-05,-1.58944720781819e-06,-1.79710061968422e-07,1.56206179447247e-06,2.56215820136244e-05,2.78492710328356e-16,4.37620488109114e-07,7.86278146276518e-16,1.45390832781868e-16,1.01807353258695e-06,-1.91976059374794e-05,-3.15119560799843e-16,-8.20599248611108e-16,5.63523235038608e-07,5.84756223205736e-07,-4.6498006067808e-15,-1.09703344493639e-15,3.65302250559528e-15,-2.01040791961296e-16,5.90020554444724e-16,-7.97088001498287e-06,3.38585860337265e-15,4.08277794432949e-06,-6.68284871885305e-14,1.56483531200445e-07,-2.28739886364782e-06,0.707106781186549,-3.44933289134831e-14,-1.59517009663541e-14,-1.09653874879633e-15,-1.60141688217871e-07,-1.06882075257339e-15,1.05693517199826e-16,3.02947754379335e-15,1.70056299405235e-16,-1.8323231538532e-06,-4.9408808071624e-16,-1.1335944406397e-14,-1.85281644857682e-15,-6.80248059959873e-17,2.17869331689454e-16,1.0062018676295e-15,3.91702165144551e-07,2.35171895287172e-16,-2.28898667847744e-15,-9.93856623396336e-16,9.74751995470792e-16,2.12004392898022e-15,-4.74457893745516e-16
"Gynochthodes_ammitia",-0.095371334203034,-0.113558830452114,0.0155163408728484,-0.0124634603677116,0.144323534598393,-0.000655051632546977,-0.00254513581526698,0.00160891630239284,-0.000156003145954179,-0.00105840399935363,-3.79404199278005e-05,0.000339719287704885,-0.000147916977354938,-0.00399458003451717,0.000119848430930658,0.0447150630645093,-0.00254485908921585,4.24658992611565e-16,-0.0494114988930392,0.00509141170419312,-0.130832668715342,3.16893259442003e-08,-0.0110702169655554,-1.19336154929975e-15,8.18529228097329e-16,-4.64231068307224e-16,-4.6637785959901e-16,1.72774362642208e-16,-0.000220161273365332,1.06281344959603e-15,1.62326526196032e-16,-1.97475042210475e-16,2.66672098174538e-15,1.02846790261181e-05,0.0881063425555449,0.0018686223983535,-3.71736239647782e-05,-0.0105709281764375,-0.000156074944435501,-0.00754146388778819,0.000517709746237161,0.0430057148570206,0.956663869816912,-2.52336937614616e-06,2.89932788638446e-05,0.000159302714149235,-2.29221115272055e-05,-9.75075382898476e-16,1.17877882361127e-15,-0.00727345520572333,-0.000322273750504786,-1.8214614585001e-05,-1.3728275761404e-06,1.14940963827501e-05,0.000161687976204074,9.88140626325435e-16,2.69851505323932e-06,-2.45975985294788e-16,-2.11195897099183e-15,6.06332146068101e-06,-0.000109307037191249,7.89960277803862e-16,2.42974294669227e-16,2.54619652906038e-06,2.42453783474211e-06,-3.93404582061331e-16,9.41279184154542e-16,-1.30989894243466e-15,-9.2976724693563e-18,-1.96117720075196e-15,-3.03789210173948e-05,-1.18283190592309e-15,1.43612699196674e-05,8.46545056276682e-16,5.36006116323909e-07,-7.7348495407051e-06,2.81892656102231e-16,-4.99612910176551e-16,2.10909099988851e-16,-3.84530306968695e-16,-5.09627050801381e-07,6.18134227830469e-16,1.62996468684149e-18,6.78906941206005e-16,3.13246371270154e-16,-5.47156593340047e-06,2.62652738895026e-16,-8.10661937415716e-16,1.16045220457023e-15,-8.1943627766561e-16,7.67429325511825e-16,3.82035169361737e-17,1.12013374094546e-06,3.6845158337491e-16,-5.4741046195295e-16,-6.74529232413294e-16,1.7301994166385e-16,6.0634319804798e-16,1.12840904735766e-16
"Faramea_umbellifera",-0.091223671302492,-0.102289691858877,0.0125170715662078,-0.00290928306906333,-0.00638090077573818,0.000176965287528435,0.00260392978932211,-0.00774813074795979,0.00141376683503689,0.0337251341081431,-0.0010751720101839,0.00686014498281906,-0.00091549326362367,-0.0217843535717037,0.000460288297139466,0.160470132246887,-0.00895390260492427,7.07138235818722e-16,-0.102851779347852,0.00916902725927702,-0.0612650727925356,-3.23605245854088e-07,-0.184601893702125,-1.86934395276574e-15,2.46122524135925e-15,-3.65855807334151e-15,6.06072996460807e-16,8.23872941477216e-16,-0.00194992677600388,5.03398196745943e-15,1.57050139663274e-15,-8.27641226640961e-15,2.08120701200374e-14,9.79663989482409e-05,0.858266127333406,0.0187225298602074,-0.000394449269370772,0.375185603144199,0.0005591264605968,0.0208671190772601,-0.000952880000069818,-0.00771372687236728,-0.128904406749912,-1.09582937675647e-06,1.76366031238e-05,0.000128654782378568,-2.20354193298472e-05,-2.38746090898976e-16,-2.61738983848928e-17,-0.0101078680396247,-0.000453891967092289,-2.57081330196294e-05,-2.12544147044232e-06,1.79485576235562e-05,0.000261347228434827,4.96502264148929e-16,4.38394949826553e-06,3.3016843834082e-17,-9.09091973115381e-16,9.92479623346297e-06,-0.000180640852539759,2.12911765932468e-16,1.34714510744807e-16,4.40153723929937e-06,4.25151011515206e-06,4.93063056709266e-16,1.20903193499727e-16,-1.21705555425334e-16,2.16287804724681e-16,-5.7565069623024e-16,-5.39286852004243e-05,-1.2609567082395e-15,2.57458507010137e-05,-4.85722573273506e-17,9.63609459092767e-07,-1.39230745561026e-05,3.06849361866475e-16,-4.23306404373412e-16,1.23015906288662e-16,-4.13392188599881e-16,-9.22113866906776e-07,-3.65427586726359e-17,-2.21765211161495e-16,8.51284143041801e-16,-6.12843845543016e-16,-9.93849282223274e-06,6.82399734700807e-16,-6.07750739087318e-16,4.52056766230877e-16,-1.03323084225168e-15,5.05840081950934e-16,8.21261866420783e-17,2.03788351531665e-06,-1.96629004999412e-16,-4.66422896775779e-16,-3.4209718412087e-16,5.70064607991246e-16,9.30427207629292e-16,-3.62967351676165e-16
"Lasianthus_latifolius",-0.0757568614697169,-0.0606496783075477,0.00164162269453151,0.0211503410673341,-0.0189574170385208,-0.0254256753941633,0.0369690280187244,-0.0122962414445913,0.00986284015846156,0.217952068206401,-0.00655277417125915,0.0413184661953632,-0.00510839535901336,-0.120455967907722,0.00247300933383386,0.845152875270838,-0.0467554607427046,-1.59687292543264e-15,0.363904415424832,-0.148661397170389,0.0929177717167223,-4.81012055114653e-05,0.132263919939678,1.24337932570107e-15,-1.43146628996929e-16,1.32399011084401e-15,-5.05063383407e-17,1.15794274286904e-16,0.00386098691017606,-6.29571515779082e-16,-6.83741147599102e-16,6.91707276320509e-16,-2.56399777933124e-15,-2.97229869901556e-05,-0.126727490996589,7.39680157566474e-05,-8.84719848973225e-05,0.0154325973165841,5.91390836810202e-05,0.00239619928378116,-0.000121800288989974,-0.000848625249146726,-0.0161964417524793,-3.13224993276986e-06,4.76879676780249e-05,0.00033787457208284,-5.73069234284591e-05,5.93367211885368e-18,3.66725483213518e-16,-0.00294404282901811,-0.00122597709226768,-6.91621357106194e-05,-5.64801093186414e-06,4.77365743628705e-05,0.000698043386982743,-1.01504693117235e-15,1.17176750366631e-05,-2.62557788187219e-17,-4.03525842894196e-16,2.6556979909509e-05,-0.000484078982312326,1.80515679399976e-16,-1.87881744356675e-18,1.18906081559817e-05,1.15190435454214e-05,4.37639687684321e-16,-1.6999539030578e-16,8.52140373398754e-16,6.71740780030843e-17,-2.41494777249877e-16,-0.000146501086729087,-1.33432864850878e-16,1.05449466862653e-05,-1.56819002228303e-15,2.62489891271204e-06,-3.79369077538013e-05,3.22353780725868e-16,5.55926747235667e-16,1.80841011487611e-16,-2.07636865905814e-16,-2.51505146254777e-06,2.82010588279543e-16,2.26251158987141e-16,4.06595982269953e-16,-3.24509454738732e-16,-2.71210304198828e-05,1.5670041047659e-16,-1.3315277872889e-15,5.67530556492848e-16,-5.42479360531888e-16,2.00033213712083e-16,-1.38208122671547e-16,5.56091068729545e-06,-8.50095220828048e-17,2.40564686311157e-17,-6.63372858138782e-16,6.9911985583115e-16,8.46351416895159e-16,-1.9912799000745e-16
"Coptosapelta_parviflora",-0.0537843455149479,-0.0010892412082493,-0.0140836238518527,0.0575154254181295,-0.0155719117746363,-0.0673373658958027,0.0945977248946863,-0.0162627811450233,0.0262981095366361,0.59913582581047,-0.0189594411110489,0.121554584118692,-0.0224004219924177,-0.714822951936339,-0.00271163642525496,-0.276484670747357,0.00830716459355426,9.38645008417193e-16,-0.0553478263428333,-0.0584033134856445,-0.00472577319075692,-4.73587273871502e-05,0.00455257172558149,1.20620190196616e-15,4.9040183839296e-16,-3.55159741222625e-16,-2.75435030837362e-16,5.02238139076519e-16,0.00468819017813935,8.79097000124021e-16,-3.8377076418212e-16,1.32892205260925e-16,-1.0574050012701e-15,-2.22997886422376e-05,-0.0157315643455919,0.00350135644347053,-0.000192711246336326,0.00264173634895337,1.13106836337681e-05,0.00046567831979045,-2.42368707670512e-05,-0.000176499533797449,-0.00346826008459111,-5.1325361210272e-06,7.80935419909962e-05,0.000553911271487826,-9.4120324167938e-05,4.07536234292972e-17,-5.16313100470287e-16,-0.000759768834631525,-0.0020420741166839,-0.000115164989620222,-9.43978972943392e-06,7.98386204079841e-05,0.00117114626064749,3.34800889886922e-16,1.96697421235304e-05,1.80519952674101e-16,-1.69573190739835e-16,4.46160314922847e-05,-0.00081415860384328,5.14065819781736e-17,-6.94298158594116e-17,2.0131280456509e-05,1.95585273464884e-05,1.54403339445356e-16,4.46239895033469e-16,4.70188227587931e-16,-2.10285227226221e-16,-3.94777654977503e-16,-0.000249510784943286,-9.51706423946009e-17,3.3135951286456e-06,-2.85882428840978e-15,4.48939099230963e-06,-6.49183407926875e-05,3.42698526012769e-16,-6.8846188859589e-17,-4.4217175964464e-19,-2.6775392693088e-16,-4.31487331032902e-06,-1.17243491398677e-17,1.08691853721402e-16,6.81093462626358e-16,8.0173190295783e-17,-4.66597985426785e-05,3.78629759942551e-16,-1.92554050772821e-15,3.07812826308636e-16,-7.16544774676201e-16,6.17019614690304e-17,1.34247564437805e-17,9.58587520718144e-06,5.52793602883321e-16,-5.86852898740333e-18,-8.60367940889231e-16,5.83560622482829e-16,7.35784557537557e-16,-4.28884077887543e-16
"Benkara_depauperata",-0.0848656402214048,0.180971265844095,0.0306312441286407,-0.173073132087619,-0.00277398577422636,-0.00308372779060939,-0.00420791944783949,0.000935655446252386,-0.00189473897926152,-0.0542481209687036,0.00611030253332245,0.21402483358269,-2.66637604570494e-05,-1.91277093934857e-06,-1.99390071815995e-05,-0.00141649422163864,-1.85382081425664e-05,7.33881478498984e-17,-0.00539649064501391,-0.027134696204319,0.000246633887019696,2.20171232535595e-06,-5.66122970586952e-05,-8.92899255711084e-17,2.8877074132431e-16,2.7198296991637e-16,4.52131168186309e-19,1.22779318084294e-16,0.00581930389795593,8.12234240872396e-17,4.5570941091106e-17,-7.74538386047166e-17,6.51349690065391e-17,-3.58374805212993e-07,-0.000365029859241404,0.0211611355519276,7.8528458039005e-06,-1.47787642756111e-06,4.22182667887683e-08,2.08766685534352e-06,-1.38062363636954e-07,-1.48968200062277e-06,-3.73539435206163e-05,-1.34875706055725e-07,2.3947156559207e-06,0.000617175448717448,-4.55728827632653e-06,1.65923790649966e-16,-3.4096151689749e-15,-0.000437768254700617,-0.296929260555693,0.0007066499512145,1.41162641820307e-06,-0.000273288969123707,-0.166966341979724,-8.99323353851214e-16,6.69333406997793e-06,-2.13267244123884e-15,1.06197519123611e-15,5.26168444170378e-06,-0.0208938387378725,1.77113300588504e-15,2.25408927021775e-15,0.151311668285951,-2.84194532640828e-08,-2.7938453917854e-15,7.75787235058891e-16,2.08426575521201e-16,1.12036104800986e-15,6.92483577220824e-16,-0.000166065682213245,1.09908819531808e-15,1.00486820565904e-08,-1.92276750077269e-14,2.71547713819823e-08,-0.000156850380595438,2.13324088230158e-15,-1.0502499572567e-15,5.33526116050592e-16,2.5855443868348e-15,-4.82808257237586e-08,5.88204115811303e-15,5.38442379447223e-15,3.11170616271478e-14,2.36977320799588e-13,-0.326495905560984,-7.60681677751895e-15,6.34292973710684e-15,1.07066953267401e-14,-3.22244048359272e-15,4.87543079012495e-15,2.06951523633412e-14,0.350858759829553,3.09158608747739e-14,3.943275412639e-15,1.84956219946447e-14,-0.707106781186549,-7.416668962396e-15,1.23566812120208e-14
"Benkara_scandens",-0.0848656402214048,0.180971265844095,0.0306312441286407,-0.173073132087619,-0.00277398577422642,-0.00308372779060934,-0.00420791944783954,0.000935655446252327,-0.00189473897926152,-0.0542481209687036,0.00611030253332254,0.21402483358269,-2.66637604570854e-05,-1.91277093923754e-06,-1.99390071818145e-05,-0.00141649422163859,-1.85382081426941e-05,4.29834050375794e-16,-0.00539649064501426,-0.0271346962043188,0.000246633887019185,2.2017123253488e-06,-5.66122970586946e-05,-6.15866979587749e-16,1.85949884515232e-16,3.51160645337981e-17,-2.56988417633525e-16,1.60006888327372e-17,0.00581930389795605,1.41970660486563e-16,1.69067383836131e-18,5.77490595585934e-17,8.72431671354818e-17,-3.58374805169879e-07,-0.000365029859241884,0.0211611355519277,7.85284580402402e-06,-1.47787642737571e-06,4.22182677532745e-08,2.08766685518545e-06,-1.38062363616029e-07,-1.48968200078721e-06,-3.73539435203117e-05,-1.34875705857754e-07,2.39471565622395e-06,0.000617175448717664,-4.55728827603912e-06,8.66209044583074e-17,-3.40717681713885e-15,-0.000437768254701944,-0.296929260555693,0.000706649951214433,1.41162641841635e-06,-0.000273288969123627,-0.166966341979725,-5.55848105607806e-16,6.69333406994058e-06,-2.19080141144626e-15,1.15218081197843e-15,5.26168444210802e-06,-0.0208938387378719,1.68094926754312e-15,2.18831348652393e-15,0.151311668285951,-2.84194530231384e-08,-4.37938264898162e-15,-5.63419288375266e-16,-4.51635706503939e-16,2.18304839980158e-16,-9.45095384864087e-16,-0.000166065682213884,1.27643048724875e-16,1.00486815222955e-08,-1.47590273336107e-14,2.71547720859374e-08,-0.000156850380595981,5.8066309254944e-16,-2.85436237341109e-15,2.566883717166e-16,1.37314669557018e-15,-4.82808267202208e-08,6.54101446214654e-15,3.33893010296432e-15,3.10073634354754e-14,2.36711096077763e-13,-0.326495905560989,-6.27290946874873e-15,1.2463034160353e-14,9.08583504544835e-15,-5.66063434651783e-15,3.57337036426273e-15,1.96129451758173e-14,0.350858759829556,4.6694905612259e-14,2.40964549838043e-16,-2.67773581613203e-14,0.707106781186546,9.77376011714891e-15,-1.58152280378427e-14
"Randia_pittieri",-0.0848262767282643,0.18078917246791,0.0305757964939491,-0.172221124928193,-0.00275781519438684,-0.00306395617532,-0.00417530493918182,0.000926203630822329,-0.00187417676006814,-0.0536144413146414,0.00603318075781136,0.211272117002473,-2.62507647538401e-05,-1.88179828417619e-06,-1.95626394820774e-05,-0.00138900783645408,-1.81758002182709e-05,1.9056855761999e-16,-0.00527936584572315,-0.0265390032252964,0.000241026514243443,2.14870593721721e-06,-5.51713519981265e-05,-5.73765212781919e-17,-2.62547952659186e-16,-1.56714943360151e-16,-2.81762764656021e-16,-5.28492034305485e-16,0.00565243412818761,9.00772951892022e-17,-5.60961786949638e-17,-3.9170743003426e-16,-3.36020405361347e-17,-3.47542363216019e-07,-0.000353910927483339,0.0205111908080324,7.60830239320956e-06,-1.42559410457629e-06,4.05962156287132e-08,2.00632083747457e-06,-1.32563115959494e-07,-1.42758179221951e-06,-3.57434817047916e-05,-1.28727473967575e-07,2.2828672215752e-06,0.000587325981120304,-4.32917420718723e-06,9.44294549008027e-17,-2.27557165112123e-15,-0.000411807839615789,-0.27910242058405,0.000664137833091503,1.31574777133364e-06,-0.000254428465591653,-0.15450091707736,-6.82207920631166e-16,6.18654220823481e-06,-1.83452499851871e-15,-8.47493642206361e-16,4.85423648475412e-06,-0.0192237490521621,1.22851108445522e-16,9.57939015987908e-16,0.136065024905308,-2.5146043617242e-08,-7.20999140465197e-17,2.60311349868941e-15,-1.61508579881691e-15,3.02459259416822e-15,-3.88242139075623e-15,-0.000143215846850441,-1.53652579843162e-15,8.28630800434049e-09,6.75848266240564e-15,2.18594599690124e-08,-0.000124437275293643,3.35443984741817e-16,-3.86134884500007e-16,1.23028452391315e-16,-1.92173602677137e-15,-3.39621124650074e-08,-7.03472069336424e-15,-7.09828235915853e-16,1.03726014593803e-15,8.48065479632456e-14,-0.125366542412575,2.59975667137116e-16,2.51251047948082e-14,-2.65522708969244e-15,1.01390375397251e-14,-7.10790019087393e-15,-4.56731020796427e-14,-0.856961165065145,-9.89110149373628e-14,-6.98915342845004e-15,1.08899426966322e-14,1.91459876209872e-15,2.81813543480079e-16,5.26109684420019e-15
"Rothmannia_urcelliformis",-0.0847488588289115,0.180430850369737,0.0304666006422861,-0.170538065331836,-0.00272584311476669,-0.00302484170175787,-0.00411069760247206,0.000907436463141391,-0.00183331875348823,-0.0523542550559373,0.00587966664347084,0.205791410168344,-2.54263267241604e-05,-1.81992602208119e-06,-1.88087711989695e-05,-0.00133392317118411,-1.74494036942457e-05,1.52911381592539e-16,-0.00504409737182232,-0.0253421356213673,0.000229751306256916,2.04197788231926e-06,-5.22659874863732e-05,2.80247426765048e-17,-3.32796770836602e-16,-2.1128169565178e-16,6.87770799563348e-17,2.53348898473022e-16,0.00531487953961795,2.16871429138859e-16,1.0146241763418e-16,-2.05294209918586e-16,-9.2833721565919e-17,-3.25595385690539e-07,-0.000331378174575537,0.0191937251607315,7.1123880478494e-06,-1.31911242096517e-06,3.72823578953518e-08,1.84003845627931e-06,-1.21311936340606e-07,-1.30028635156958e-06,-3.24374598176161e-05,-1.16074041828343e-07,2.05241032102047e-06,0.000525717716586587,-3.85753205167738e-06,-5.06944646471618e-17,-2.47381722406177e-15,-0.000357614773291136,-0.241859817009866,0.00057531306106991,1.11378158803092e-06,-0.000214653484339704,-0.128055116424191,-7.02727389197042e-16,5.11015938449381e-06,-1.49314588663977e-15,5.465086029137e-16,3.98726728139006e-06,-0.0156606669307086,4.34780931398738e-16,7.7609308292178e-16,0.102797565369021,-1.78894704941978e-08,1.08660412217493e-15,-2.05051054635081e-15,-1.85486832326478e-15,-1.43418534744299e-15,-5.15053710540699e-17,-9.1271300009585e-05,2.4066741860275e-15,4.10015064261637e-09,2.10040318471272e-14,8.9812746095196e-09,-4.44763241427081e-05,-1.90057231923054e-15,4.93764338971064e-15,-3.33098703485316e-15,-2.31682543758052e-15,5.76787159982208e-09,-3.90710006084551e-15,-8.79726555070863e-15,-6.78814349169188e-14,-6.29989129496385e-13,0.876900031295747,1.46905885557537e-14,-5.42999372727641e-14,-1.68939919166451e-14,-2.23895239943645e-15,-9.92369304922608e-16,3.61589340818406e-15,0.139140185145471,2.13257537256973e-14,3.26160714468005e-15,-5.57212240096763e-15,3.32933512392743e-15,8.6600613701805e-16,-1.01599130197104e-15
"Gardenia_epiphytica",-0.0844224805444722,0.178913857362725,0.0300013956843499,-0.163188226987003,-0.00258519572436026,-0.00285195741376658,-0.00382198103399095,0.000821909163506527,-0.00164593166230783,-0.0465337102932256,0.00516486630193831,0.180218905728821,-2.14901035222832e-05,-1.52266802555621e-06,-1.50980237901823e-05,-0.00106146304865353,-1.38517063995715e-05,1.13442487323058e-16,-0.00385524599091817,-0.0192799366837442,0.000172216944337571,1.49034392017466e-06,-3.70471202612913e-05,1.02084141052704e-16,1.25351403115224e-16,2.21894434385855e-16,1.41539879607551e-16,3.0235881180432e-16,0.00348912184103282,6.38874515098771e-17,-1.16918139853601e-16,1.89151342895264e-16,-2.35743275744205e-16,-2.0499560281899e-07,-0.00020726104425164,0.0119176896542751,4.36143674252613e-06,-7.0120488640784e-07,1.7391887048579e-08,8.35802714452445e-07,-5.26862243308944e-08,-5.0694616399542e-07,-1.14820929255101e-05,-3.34261773132869e-08,5.26006849592717e-07,0.000109006310511333,-5.96825718989943e-07,1.93944447313856e-16,4.34791480628686e-16,6.8829870202342e-05,0.0544693016589922,-0.000132758859957727,-7.11909176625193e-07,0.000151825056358481,0.142622974932858,1.6700507304185e-15,-6.14095739855809e-06,1.450418135479e-15,1.25296365358159e-16,-5.39976574609618e-06,0.0250363541164438,-4.3759408652924e-15,-6.71445600973076e-15,-0.602735163062846,3.65999812052107e-07,4.4285090923795e-15,1.08430288842795e-15,2.99291866392354e-15,-4.61854916969356e-15,1.99791162763382e-15,-0.00213035634175082,6.12476078320663e-16,4.53128951756476e-08,6.40459907330637e-15,9.98462138209283e-08,-0.000526853555696499,2.43977579096754e-16,-2.17373457689763e-15,-2.00173982744608e-17,-1.38827603093079e-15,-1.05671983340262e-07,-2.66177116160007e-15,2.57947811760222e-15,5.10825075460519e-14,9.86465701766238e-14,-0.0289242810951592,0.707106781186548,1.02210788169895e-14,4.07655219907069e-15,-9.22061693298053e-17,-1.9027600734984e-15,6.00530921192703e-16,0.00450369244905384,-1.56166324659965e-15,1.91215610323146e-15,-8.54785080810852e-16,-6.55824278872066e-17,9.60636696511506e-16,9.80717847269581e-16
"Coddia_rudis",-0.0844224805444722,0.178913857362725,0.03000139568435,-0.163188226987003,-0.00258519572436035,-0.00285195741376664,-0.0038219810339909,0.000821909163506357,-0.00164593166230781,-0.0465337102932255,0.00516486630193827,0.18021890572882,-2.14901035222157e-05,-1.52266802560651e-06,-1.50980237901166e-05,-0.00106146304865364,-1.38517063995875e-05,1.07005179824935e-16,-0.00385524599091815,-0.019279936683744,0.000172216944338,1.49034392006012e-06,-3.7047120261584e-05,-5.06932409917471e-17,1.30528989109553e-16,1.36911084219202e-16,5.40850440598035e-17,2.63519926712108e-16,0.00348912184103276,8.74485803277593e-17,-7.52494817988344e-17,-2.41944317242893e-17,1.29088260038033e-16,-2.04995602647481e-07,-0.000207261044251218,0.0119176896542743,4.36143674246972e-06,-7.0120488629595e-07,1.73918868889844e-08,8.35802712923937e-07,-5.26862242534024e-08,-5.0694616418977e-07,-1.1482092925615e-05,-3.34261772833112e-08,5.26006849397397e-07,0.000109006310510936,-5.96825718490962e-07,5.62864303790568e-16,2.87080739916525e-16,6.88298702020883e-05,0.0544693016589928,-0.000132758859957665,-7.11909176397265e-07,0.000151825056358766,0.142622974932859,1.77413413897711e-15,-6.14095739857202e-06,2.71024604474579e-16,-6.06756941494169e-16,-5.3997657463121e-06,0.0250363541164444,-4.49663176702103e-15,-6.32634799354613e-15,-0.602735163062848,3.65999811652545e-07,4.2715166179282e-15,2.08350361057378e-15,5.33165116971748e-15,-3.4077121830384e-15,1.51912794888388e-15,-0.00213035634175282,-7.09383210327528e-16,4.53128858809992e-08,4.53109771925142e-15,9.98462131083454e-08,-0.000526853555695977,-7.20528680015431e-16,2.21338109684941e-15,1.77961444960371e-15,9.15562735488208e-16,-1.05671984249032e-07,3.54848469424537e-15,-1.29898284511306e-15,-4.6848391702514e-14,-5.79170528583212e-14,-0.0289242810951347,-0.707106781186547,-9.80456898968675e-15,-2.31740112861696e-15,-7.2274653803177e-16,2.10541672348382e-15,2.20460267071342e-16,0.00450369244904955,2.04656158343211e-15,-5.96222724299174e-16,-7.34980154255956e-17,1.61363030673931e-15,8.3677626755848e-16,-2.83220435292721e-15
"Cordiera_tuberculata",-0.0841876163599848,0.17782194454436,0.029666415501575,-0.157886479122975,-0.00248368082537055,-0.00272712511519546,-0.00361330744036536,0.00075997414529385,-0.00151014300291178,-0.0423126131593221,0.00464600715228098,0.161651796520234,-1.86238856807455e-05,-1.30603192105214e-06,-1.2384147855405e-05,-0.000862047819969148,-1.1217978101054e-05,1.63918196106253e-16,-0.00298205852150743,-0.0148255710243501,0.000129886928249593,1.08353505530002e-06,-2.57948946205311e-05,4.61482381498802e-16,6.77623034714646e-17,-8.40035435518871e-17,1.2919354140376e-16,9.92246194627989e-17,0.0021301588910205,-4.73649950649439e-17,-1.87744909570606e-17,9.66276834468108e-17,-1.05308814931892e-16,-1.14906514200635e-07,-0.000114492156243349,0.00647599354590744,2.30184339180101e-06,-2.33152720287028e-07,2.17563877330518e-09,6.60879567006886e-08,7.90008213746883e-11,1.07428858490055e-07,4.84274749852982e-06,3.16876551998007e-08,-6.83260209007448e-07,-0.000224031091443201,2.03445934827687e-06,5.66720960880602e-16,3.86302863133311e-15,0.000437892399555163,0.312763891158515,-0.000750701976776314,-2.46869119488941e-06,0.000510832648183332,0.440834853561996,2.49505214513905e-15,-1.88901489118043e-05,4.86902533993455e-15,-1.98436884809319e-15,-1.65976591040225e-05,0.0781638756518373,3.52020807783348e-15,3.18027405004294e-15,0.314251122480816,3.42588560782538e-07,6.6697801717145e-16,-1.88676665543038e-15,-2.35321790868991e-15,-1.43796698775316e-16,-2.23957947148813e-16,-0.00254275820530399,-1.53232013302149e-15,5.72073155305497e-08,5.20417042793042e-16,1.26828669813632e-07,-0.000670294660478111,1.01713686046854e-15,-3.63132028506949e-15,2.32062018256621e-15,5.51396109390811e-16,-1.3408993607123e-07,1.9813334478043e-15,0.707106781186547,-6.36781330575245e-15,1.37728581012404e-14,-0.0141821684251103,-1.16894308891159e-15,9.22985217626168e-15,1.17803155738446e-15,-2.5775320762859e-15,-2.18852078908343e-15,-3.26111113099052e-15,0.00240064562453249,6.18003144044247e-15,-5.14953283230187e-16,-3.06954656717621e-16,1.89473023475983e-15,6.21426023699222e-16,-1.81050359861793e-15
"Agouticarpa_hirsuta",-0.0841876163599848,0.17782194454436,0.029666415501575,-0.157886479122975,-0.00248368082537053,-0.00272712511519539,-0.00361330744036543,0.000759974145293732,-0.00151014300291165,-0.0423126131593219,0.00464600715228128,0.161651796520234,-1.86238856808592e-05,-1.30603192114581e-06,-1.23841478551055e-05,-0.000862047819968731,-1.12179781010538e-05,2.35820550955041e-16,-0.00298205852150783,-0.0148255710243499,0.000129886928249162,1.08353505556808e-06,-2.57948946201774e-05,4.29857515894351e-16,-2.51060801723099e-16,-1.73303999754191e-16,2.20536238972279e-16,-2.2848496282557e-16,0.00213015889102042,-2.43686511861341e-18,-4.095776829488e-17,-3.10567122312277e-17,1.35498787762907e-16,-1.14906513996563e-07,-0.000114492156243666,0.00647599354590762,2.30184339157655e-06,-2.33152720930177e-07,2.17563986618097e-09,6.60879564456842e-08,7.90005480117453e-11,1.07428858348004e-07,4.84274749830398e-06,3.16876554747262e-08,-6.83260209191117e-07,-0.000224031091442773,2.03445934841866e-06,5.95046983243683e-16,3.04561684151823e-15,0.000437892399556893,0.312763891158514,-0.000750701976776271,-2.46869119469824e-06,0.000510832648183142,0.440834853561996,2.89750799156567e-15,-1.88901489117297e-05,3.88197161573687e-15,-2.24804681644006e-15,-1.65976591037858e-05,0.0781638756518372,2.96633946439551e-15,3.33689945990885e-15,0.314251122480815,3.42588561328841e-07,-1.05039822402597e-15,-2.24065024453231e-15,-8.1814357407509e-17,3.95708959850051e-15,4.42175867723861e-16,-0.00254275820530429,-4.85605031298559e-15,5.72073127237671e-08,-1.42941214420489e-15,1.26828669087812e-07,-0.000670294660479489,9.06114555596004e-16,1.35774443232113e-15,-1.17100270323552e-15,-2.13776144230037e-15,-1.34089936867844e-07,-2.25832447086431e-15,-0.707106781186547,1.14127127067507e-14,6.13292300310154e-15,-0.0141821684251252,1.89804806324884e-15,-8.53371621774083e-15,3.61558042746909e-16,-2.29395264600593e-16,3.61503033704694e-15,3.54164480548847e-15,0.00240064562453595,-5.54669925716074e-15,-1.34420970081797e-15,1.72639102905457e-16,-7.62866170734132e-16,4.48636640446192e-16,3.87116267733872e-17
"Razafimandimbisonia_humblotii",-0.0826792920244288,0.170831003877325,0.0275315934708004,-0.124727360417044,-0.00185241606160322,-0.00195378615981127,-0.00233203121346829,0.000385889697503812,-0.000694468782117136,-0.0171132266485503,0.00157072749083466,0.0518102298334214,-2.02621349882531e-06,-5.90664151322445e-08,2.86319653569025e-06,0.000252712135292672,3.48448714444544e-06,-5.53492668915037e-17,0.00178865413064042,0.0094481211561244,-9.88843062722389e-05,-1.08292828663308e-06,3.31837890290479e-05,4.65160166920199e-16,8.81062527557098e-17,3.3174037307806e-16,9.03758028371362e-17,1.69114770775503e-16,-0.00470979268958114,-9.5461611306883e-17,-5.88594978967654e-17,-4.97695034991154e-17,-4.20505481047562e-16,3.28918034050317e-07,0.000341006906826071,-0.0201450555648786,-7.71090589764082e-06,1.89082331312237e-06,-6.2943425891554e-08,-3.19043709537587e-06,2.19133469554173e-07,2.54906866683394e-06,6.73734899855475e-05,2.63786177625698e-07,-4.8383436466793e-06,-0.00130187295162223,9.98061354648866e-06,-1.63620419750884e-15,7.30362298193065e-15,0.00100145057786902,0.668927222149383,-0.00158718299334083,-1.32407095846843e-06,0.000144323944877882,-0.61317140762166,-8.35832241869217e-15,3.42742986759795e-05,-3.29862143662703e-15,1.21876641192346e-15,4.36427071512011e-05,-0.330738528983354,-1.00635735230717e-15,1.00389480848935e-15,0.0321688097644829,2.94903181123857e-06,-7.36558956255542e-16,1.91196622348449e-15,-7.56806873481751e-16,1.25597578694472e-15,-1.08139921627562e-15,-0.014858186717732,3.38883795933079e-15,2.66490597214397e-07,-6.94583279781114e-15,5.55687553226222e-07,-0.00285568415237178,1.15364939885983e-15,7.54474236112108e-16,-6.65824522863442e-16,3.8543297503485e-16,-5.06000925857116e-07,-6.00333242483548e-16,2.10431164686198e-16,7.0204586394199e-16,5.72409994436683e-15,-0.00714261952903626,-3.384070363088e-16,-1.86733719262232e-15,6.07547672823848e-16,-1.01213815591713e-15,9.66711065964523e-17,-4.42927469050046e-16,0.0012630391873717,5.63101710607506e-16,3.19508342931381e-16,-1.7629667299467e-15,2.65737416497242e-16,8.03478752249832e-16,5.06488828946672e-16
"Rytigynia_pauciflora",-0.0827155262104362,0.170720369730813,0.0273599404406601,-0.110901834114998,-0.00150347694674094,-0.00144865692086926,-0.00113239037964827,-0.000261570008320659,0.00104251208143316,0.0514607443104698,-0.00986204928207226,-0.3941319354302,0.000352880592355383,0.000251775410686588,-0.000119679119632639,-0.00741085398168018,-9.38747089909073e-05,-3.00325169418512e-18,-0.0194708391638923,-0.0952200368358424,0.000800601817500969,6.41027499839266e-06,-0.000150651990384264,-4.69750223622057e-16,1.39008386996e-16,5.28381909350083e-16,1.90144964224162e-16,5.98169311640466e-16,0.0131900042984967,-5.50098481410252e-17,1.01986758272223e-16,8.56665517958477e-17,-2.5650845580777e-16,-7.62897308172708e-07,-0.000770154420973312,0.0442215199692286,1.61531419256918e-05,-2.63028749252544e-06,6.80268268000994e-08,3.30375904860312e-06,-2.12224220634345e-07,-2.14708295184359e-06,-5.10958960878302e-05,-1.67146591269132e-07,2.82474025210206e-06,0.00067217995990565,-4.52751234466124e-06,9.09648834738395e-18,-7.83559654263179e-16,-0.000162729015699782,-0.0928743041224097,0.00021396409234087,-5.80553814047068e-07,0.000140662075208396,0.104527121726475,9.08020658072588e-16,-2.3164769217247e-06,9.08971317694816e-16,3.46003354993668e-15,4.94642711031874e-06,-0.250519652549449,1.83101383789797e-15,2.11694997571625e-18,-9.45452502462941e-05,4.27578889240307e-07,7.18374851425528e-15,-6.6911773625556e-15,1.87586459305302e-15,-3.21075642421437e-15,5.34751869552085e-15,-0.353531002777422,-3.74551511076596e-15,-8.65379229386676e-09,-1.12687636999453e-14,1.01725434024029e-07,-0.252872222360998,3.3029056304415e-15,-9.31685959116745e-15,-6.11047830075264e-16,3.1496425955351e-16,-2.22394203546665e-08,-2.50708195765779e-16,7.48499456659013e-16,1.95101859606312e-16,-5.13549444780464e-16,-0.00021995364000846,9.79049953656142e-16,-5.45216547934879e-15,2.24787319568657e-16,-3.63150236356583e-16,-4.21166875607093e-16,3.86246596312963e-15,5.59297173705796e-05,4.72141497614494e-15,9.82737495463232e-15,0.707106781186547,2.27520467145169e-14,-3.49019044106142e-15,-1.00126044458753e-14
"Rytigynia_adenodonta",-0.0827155262104362,0.170720369730813,0.02735994044066,-0.110901834114998,-0.00150347694674095,-0.00144865692086924,-0.00113239037964834,-0.000261570008320836,0.00104251208143315,0.0514607443104695,-0.00986204928207226,-0.3941319354302,0.000352880592355366,0.00025177541068684,-0.000119679119632595,-0.00741085398168013,-9.38747089909789e-05,4.58104612892937e-16,-0.0194708391638924,-0.0952200368358429,0.000800601817501356,6.41027499856623e-06,-0.000150651990384069,-2.34636379349882e-16,-2.53820115705708e-16,4.49659228971687e-16,9.55701124641681e-18,7.24818324358082e-16,0.0131900042984968,-1.07998372286471e-16,1.63853910820146e-16,1.19172606643067e-16,-2.87604882720121e-16,-7.62897308159202e-07,-0.000770154420972903,0.0442215199692285,1.61531419256614e-05,-2.63028749201066e-06,6.8026826238049e-08,3.30375904998678e-06,-2.12224220771234e-07,-2.14708295324398e-06,-5.10958960877363e-05,-1.67146591382984e-07,2.82474025196206e-06,0.000672179959904736,-4.52751234468507e-06,2.29509086366572e-16,-3.37681410590893e-16,-0.000162729015698417,-0.0928743041224101,0.000213964092340631,-5.80553813704884e-07,0.000140662075208067,0.104527121726477,1.14394305080543e-15,-2.31647692195653e-06,1.0655216310086e-15,1.94735467887296e-15,4.94642711040734e-06,-0.25051965254945,1.61553059558474e-15,-4.38761133319307e-17,-9.45452502461719e-05,4.27578888989502e-07,5.2269804331475e-15,-7.29139168521668e-15,2.67708999930382e-15,-4.15444599584606e-15,5.37527427011252e-15,-0.35353100277742,-2.19120287635451e-15,-8.65378704112407e-09,-1.05887520973624e-14,1.01725433839495e-07,-0.252872222361001,3.76087233491556e-15,-3.34941083607432e-15,-3.45327407069088e-16,-6.79657745162329e-17,-2.2239420326732e-08,-6.09238282127668e-16,4.08409435415096e-17,4.51193635792452e-16,-1.70888899628523e-15,-0.000219953640013412,3.52775752844809e-16,9.9036067299979e-15,-7.38131229509368e-16,-1.94654811204653e-15,3.09023211521416e-16,-3.68269494350441e-15,5.59297173521608e-05,-2.84197937911394e-15,-9.20103924537193e-15,-0.707106781186548,-2.17400385778393e-14,5.0597176913779e-15,7.11778987939537e-15
"Canthium_megistocarpum",-0.0825425497037021,0.169944279432068,0.0271354905074349,-0.108397573268388,-0.00146313249066166,-0.00140580321757434,-0.00109168196661144,-0.000249199774746869,0.000989387949324318,0.0486287585097915,-0.00927340780915464,-0.370136544299059,0.000326731391581775,0.000232214901973473,-0.000108720403715413,-0.00671173426475448,-8.49474334186681e-05,1.11192001014454e-16,-0.0173966381985405,-0.0849491783307171,0.000710874171501962,5.64521979092313e-06,-0.000131531902768448,6.36210761343941e-16,-7.00966852158021e-17,-2.10173517810793e-17,4.70761858298749e-17,-4.42499090636148e-16,0.0112779291888738,-5.62815586581859e-17,3.64339512036688e-16,1.88219959802764e-16,-2.88111936124794e-16,-6.45538806499272e-07,-0.000650642382399631,0.0372944754579767,1.35829406261073e-05,-2.14592655649088e-06,5.42361358948917e-08,2.62285415138382e-06,-1.67337066097773e-07,-1.66778984130757e-06,-3.92222637276106e-05,-1.25608723540207e-07,2.10172161726993e-06,0.000492633087777445,-3.26588610898106e-06,2.74273214239218e-16,-6.38022670446638e-16,-0.000106546833984528,-0.0602930557058452,0.000138703944849814,-3.40753347461308e-07,8.12911262974767e-05,0.0553554254243024,5.17664576631933e-16,-1.205023478051e-06,7.44428534369327e-16,-2.02272257000557e-15,2.49645361141265e-06,-0.12067595942849,1.30909871543774e-15,1.19101867796598e-15,-2.47558303064344e-05,3.11876548252508e-08,-5.56740211870393e-15,6.81361426394301e-15,-4.50481742857269e-16,8.34746350208414e-16,-3.61986150042837e-15,0.108934763603632,-4.88469841926494e-15,1.21225622526366e-08,2.98858160441284e-14,-2.50220774880983e-07,0.871864781284962,-1.2502275142465e-14,2.45218592647732e-14,7.28986471366128e-16,-2.00895320314826e-15,-2.42031726150727e-07,1.87445774667417e-16,-7.87644316187141e-16,1.80361248379941e-15,2.33782721135293e-15,-0.000669110719664066,3.97080599564887e-16,-9.69612917414295e-15,3.15184095774229e-15,3.99046352862695e-16,7.08692525001092e-16,-3.15047286840492e-16,0.00012710076906124,1.9159076578939e-15,-9.86023342575889e-16,-2.31205067542732e-15,1.00622768543277e-15,6.54208687207912e-16,2.8868174992041e-15
"Pyrostria_heliconioides",-0.0824084536719793,0.169342060389396,0.0269610776679801,-0.106440661105498,-0.00143155352165847,-0.0013722240679978,-0.00105970404111618,-0.00023943902412276,0.000947409568950604,0.0463873317988105,-0.00880665687237549,-0.351100889405298,0.000305877754253318,0.000216593307482114,-9.99196846362218e-05,-0.00614966049109875,-7.77679449622261e-05,2.37922506031071e-16,-0.0157208226957233,-0.0766465318068261,0.00063821744180828,5.02388870533914e-06,-0.000115955873099522,8.01233522720367e-16,-1.49198245696076e-16,-7.39272570168584e-17,9.0434378051299e-17,-2.2031869213472e-16,0.00970873629216074,1.60224472728289e-16,-2.43859713826901e-16,2.84986109174624e-17,-4.82393380744629e-16,-5.48873800600516e-07,-0.00055214893912635,0.0315822429759283,1.14613204789475e-05,-1.74192778343036e-06,4.26437055077444e-08,2.04967321720535e-06,-1.2946516964446e-07,-1.26139421460647e-06,-2.91153323843474e-05,-9.0006917766744e-08,1.48004334818123e-06,0.0003375082833626,-2.17040280150508e-06,4.15074284473819e-16,-2.82371424766013e-17,-5.63108654742184e-05,-0.0310875424500896,7.12132966842777e-05,-1.19629711790769e-07,2.63154574720193e-05,0.0087816334425551,6.82091431684116e-16,-1.47593025868481e-07,-1.39789568653207e-15,-5.01644808328517e-15,1.48250743228937e-07,0.00516085033437024,3.21359744789524e-16,-1.73848033074189e-15,5.09449780736976e-05,-4.47857752538874e-07,-1.21413433481313e-14,1.41289387631483e-14,-4.17042679852832e-15,1.09274491418051e-14,-1.35986991914295e-14,0.835027484767055,1.19627814339284e-14,2.41515984988894e-07,9.3119956190435e-15,5.51675522701523e-07,-0.333727723898171,9.0606255201574e-15,-1.32237063062774e-14,1.35316919419714e-15,-1.55668840957349e-16,-2.77297275745446e-07,1.73213969520049e-15,2.14216912436095e-16,2.72997638920504e-16,1.50084967254911e-15,-0.000863381357434814,-1.00832417787022e-15,-2.89666279335481e-15,-3.84526519171673e-16,4.44586283733475e-16,3.9733586628258e-16,-5.43661647120909e-16,0.000164029676866765,-1.44451320481473e-15,3.22639476020936e-17,8.90223516213777e-16,8.14050829600128e-16,4.41698130562128e-16,-1.85505537885347e-15
"Ixora_brachypoda",-0.0819448403652097,0.167257115710745,0.0263559884534043,-0.0995947120005826,-0.0013208002367939,-0.00125426188601181,-0.000946932881673831,-0.00020477481388996,0.000797982852118606,0.038387984839291,-0.00713588247679054,-0.282908325078073,0.000230516734779176,0.000160002900101448,-6.77313314956834e-05,-0.00408987094257665,-5.14436232615797e-05,-9.21959245154968e-17,-0.00952547377244339,-0.0459223014797147,0.000368512211788496,2.70488124084674e-06,-5.74841746749449e-05,2.03143203884287e-16,-4.80499708445576e-16,2.96986839693969e-16,1.31197535158264e-16,5.30842072426802e-16,0.00373344468789485,-4.95556900008412e-17,-1.21222006736907e-16,1.04719523728014e-16,-5.15118887076081e-16,-1.7810162364072e-07,-0.000173940767576043,0.00962085228704173,3.28758026131476e-06,-1.51199559879573e-07,-3.79169610292829e-09,-2.53698475082215e-07,2.35225213190706e-08,3.99431299288362e-07,1.25758752349085e-05,5.93779567027926e-08,-1.14987082840084e-06,-0.000327013271681166,2.58596052365247e-06,-5.92906097076196e-16,9.17402015878456e-16,0.000181826138584065,0.10850144998261,-0.000251811215536146,1.05291938064817e-06,-0.000270234847032041,-0.269620080146231,-2.24344170650288e-15,6.3166503488616e-06,-2.53408656830495e-15,-1.39029481213325e-15,-1.47790384382054e-05,0.857394514225953,-7.16747836801968e-15,6.35298590578222e-16,0.00256685000622998,3.49857854205756e-06,5.59150667547339e-15,-7.10896217966117e-15,9.77447092493157e-16,-5.67116359615192e-15,5.64589921929743e-15,-0.201561421282507,-1.35521640425852e-15,2.36155304665642e-07,-2.47163400857175e-14,5.09548246839578e-07,-0.0240382489065501,-2.52533911996381e-15,1.40456145825435e-15,-8.1870609368465e-16,1.1847802677551e-15,-4.62399444018325e-07,4.07837964282656e-16,3.31704990917121e-17,1.1185584594051e-15,6.50137761806676e-16,-0.00142247804177189,7.12785324294492e-16,-8.52611272051132e-16,4.86842231768452e-16,-1.33516778136387e-15,4.05033485785858e-16,6.41480891736632e-17,0.000267219818182196,-1.28622770813482e-15,1.54131747059556e-16,-1.46483396898504e-15,-1.95543541236398e-16,1.11235729626336e-15,7.03082126727438e-16
"Dendrosipanea_spigelioides",-0.0751823462499257,0.13606925267764,0.0169195404185315,0.037268997011595,0.00119127640247459,0.00173181547984982,0.0035315524251232,-0.00106156730251768,0.00212080659358474,0.0530078636590429,-0.0032583948098734,-0.0730585150858489,-0.000386052191908117,-0.000354066963685087,0.000318816780209331,0.0217681437033182,0.000282964615710516,-1.31153646794016e-15,0.0836395101024487,0.42506558719838,-0.00402483031906754,-3.93595557190041e-05,0.00113738531285596,-3.86672224921202e-15,9.46019376552585e-16,-1.01210451016167e-15,2.87258785319421e-16,1.47269083785222e-16,-0.168713565838158,4.71934001125304e-16,-1.67948926536197e-15,-5.76918038992637e-15,9.35272418086796e-15,1.3252282520453e-05,0.0140835794244538,-0.856773944650071,-0.000346775565614462,0.0007803563766433,2.97938743079595e-06,0.000121106195629227,-6.19349252883178e-06,-4.38236784205936e-05,-0.000847366741687561,-2.07772260766959e-06,3.13500438254694e-05,0.00637797054116222,-3.68398425499723e-05,1.49171835670899e-16,-1.42639529532033e-15,-0.000261764484864659,-0.0625470069759194,0.000104829784359468,-3.20845583973995e-06,0.00062904748314864,0.0278537369173005,-7.6730942742253e-17,5.46045001053742e-06,-1.11170564119151e-16,-3.99243441975513e-16,1.43601336040751e-05,-0.0182860209743327,5.07754590485336e-16,1.24456077754234e-16,0.000390154820465647,6.33887675411807e-06,-1.49851692338269e-16,3.82581769826533e-16,-3.96712661036901e-16,-8.73741185902641e-17,-1.33162739286437e-15,-0.00425865371845383,-3.04738782310438e-16,6.79168964581867e-07,1.1518563880486e-15,1.44058518148077e-06,-0.00100279398432689,4.00572027085992e-16,3.09705944083833e-16,1.0224324895081e-16,-2.72305685356875e-16,-1.37816418111632e-06,6.885606153244e-16,-1.09918139334265e-16,1.14794053518156e-15,1.32483078598274e-16,-0.000643294658827764,2.1933951950238e-16,-1.1447048166476e-15,5.61246584936502e-16,-5.20509666173524e-16,2.21555927314716e-16,-8.02227069819142e-17,0.000126710568576675,1.54833161386778e-17,-4.17044612712792e-17,-7.69890875261592e-16,6.20870929736421e-16,6.30164977824035e-16,-1.23329352022253e-16
