"","c1","c2","c3","c4","c5","c6","c7","c8","c9","c10","c11","c12","c13","c14","c15","c16","c17","c18","c19","c20","c21","c22","c23","c24","c25","c26","c27","c28","c29","c30","c31","c32","c33","c34","c35","c36","c37","c38","c39","c40","c41","c42","c43","c44","c45","c46","c47","c48","c49","c50","c51","c52","c53","c54","c55","c56","c57","c58","c59","c60","c61","c62","c63","c64","c65","c66","c67","c68","c69","c70","c71","c72","c73","c74","c75","c76","c77","c78","c79","c80","c81","c82","c83","c84","c85","c86","c87","c88","c89","c90","c91","c92","c93","c94","c95","c96","c97","c98","c99"
"t80",0.0166652329858034,-0.105971644739715,0.0267123750453908,-0.0606471049336823,-0.177776335916179,-0.0734648417737415,-0.139979095226673,0.00584425908161078,0.0154210187043309,-0.000803716301340202,0.249966868173201,0.00967118754271819,-0.0586593171308954,-0.00329571858762664,-0.000976413442647119,0.156381929028092,-0.00460173841775339,-0.00907848394074084,0.00112323601579004,4.41542735204763e-05,-8.40318654675889e-08,-7.41761015912044e-05,-0.000123036451343503,0.00523895205425314,-0.000334785524195268,-0.117572051817996,0.00238946628364503,0.00546503245726869,-3.30547161802807e-06,-0.00153083341997399,0.901476664569998,-0.00857384088164708,0.00101205514801882,0.000515500254540579,0.00147257953040941,0.000559605529301833,-1.83116396491899e-08,0.000599759133335641,-0.000168738043750289,-1.49373616739811e-05,-5.31298755617038e-17,0.00131556188374008,0.000248889708238498,-3.7673642951342e-05,-0.00324551530619033,-0.000611275240012519,-0.00177464955286429,-8.85342098986144e-05,-1.65749507284075e-16,-6.32177581524468e-05,-8.63504381799355e-06,-3.52227018961821e-05,-8.53227453409363e-17,6.10442534106817e-16,-5.41863025056997e-05,-4.00807151999806e-05,-1.47762992682968e-15,3.00222512888133e-17,3.5502311398936e-05,-9.56941106122076e-06,1.33458457497601e-15,9.75129940212092e-17,0.000343561139935005,3.90469307410289e-16,-8.76297412018357e-06,2.72070054173969e-05,-9.69088305545761e-06,-1.44761554629196e-05,2.98050141154183e-17,-3.01636144452945e-06,2.39187497101886e-15,-6.30815005626817e-07,5.68053533433945e-17,-4.26832134140572e-16,-3.87286516163196e-16,-1.6995437100836e-06,2.63068559996064e-05,7.67595635598336e-05,-7.39509846218974e-06,4.59469130279762e-16,6.95009257925116e-17,-1.38850698142755e-15,-8.02056315019804e-07,-1.52814596585431e-16,-1.01336971687391e-15,1.45244969768744e-15,-5.25005032658609e-16,1.72044278200976e-05,3.22333157337317e-15,1.23104686707333e-15,-5.20287359014628e-16,-5.53043917320606e-16,-5.38582287042817e-15,5.26034919831863e-15,2.53990959231339e-15,-2.78665047245215e-15,-1.47606577313622e-15,-3.4754026372075e-15,6.97697399035996e-13
"t208",0.0168998741354443,-0.108519058577585,0.0278502587963402,-0.0643560501871116,-0.195035486599491,-0.0812299741276235,-0.159806177781606,0.00686419990494212,0.0194072703808446,-0.00107310071328898,0.420135809175053,0.0166584595456756,-0.102922111524305,-0.00606821586719493,-0.00196368524864756,0.347264811371452,-0.0122354169059308,-0.0390533318859469,0.00546969493696957,0.000217685004194223,-1.21867363381643e-06,0.0052728528818873,0.000658994399894796,-0.0242374068305121,0.000626859779859593,0.14947514823345,-0.00303627574005689,-0.00517953533173765,2.41735992923954e-06,0.000673570466359994,-0.263997302177248,0.00246033816155423,-0.00020875968031201,-3.90226435720032e-05,7.70403893109795e-05,2.99194531244763e-05,-1.08364036208945e-09,0.000112318951790519,-3.19865603386678e-05,-2.91784702035187e-06,3.75969242079688e-16,0.000302316795401575,7.13992996028553e-05,-1.15633658478031e-05,-0.00100040229169234,-0.00021587783916705,-0.000629348439747835,-3.48485999276072e-05,-2.29361251543044e-16,-2.75803478242595e-05,-3.87677202981182e-06,-1.58430535890699e-05,1.12825575446422e-15,-1.78968343632505e-15,-2.48125165450392e-05,-1.87109024211965e-05,3.07606085358489e-15,4.39771461453539e-15,1.68281585262079e-05,-4.53836737743521e-06,-6.39401465083191e-15,-2.50102023817399e-15,0.000165597402408843,-9.61050790527701e-15,-4.24696064746096e-06,1.32131258363156e-05,-4.74999923827035e-06,-7.16097627501155e-06,-1.71358355843677e-13,-1.50750644578944e-06,-0.707106781186542,-3.1701320607124e-07,-6.51599776851314e-15,-1.75291351383916e-16,-1.5682978944482e-14,-8.71659052903972e-07,1.3492979560888e-05,3.95278255094378e-05,-3.81982634865619e-06,3.45500824011125e-16,2.49965789275452e-15,-1.08431033444839e-16,-4.27445380760787e-07,-5.30913602404366e-16,-1.21408643118559e-15,1.33805742987447e-14,1.88201242783301e-16,9.24517420821895e-06,-9.88467836982908e-16,2.19153079072313e-16,-7.48261359865988e-16,-9.48250907292713e-16,-4.74691889754139e-15,7.70194333573073e-15,1.17500996016388e-15,-1.51960623442858e-15,3.06183842408852e-16,-8.66086299721261e-15,7.04018607092562e-13
"t209",0.0168998741354446,-0.108519058577585,0.0278502587963405,-0.0643560501871121,-0.19503548659949,-0.0812299741276238,-0.159806177781605,0.00686419990494206,0.0194072703808443,-0.00107310071328913,0.42013580917505,0.0166584595456764,-0.102922111524304,-0.00606821586719518,-0.0019636852486475,0.34726481137145,-0.0122354169059312,-0.0390533318859462,0.00546969493696986,0.000217685004193104,-1.21867363250593e-06,0.00527285288188837,0.000658994399894151,-0.0242374068305101,0.000626859779857925,0.149475148233449,-0.00303627574005815,-0.00517953533173601,2.41735992973597e-06,0.000673570466359399,-0.263997302177245,0.00246033816155547,-0.000208759680315075,-3.90226435725341e-05,7.70403893088387e-05,2.99194531238654e-05,-1.08364062061813e-09,0.000112318951792664,-3.19865603400899e-05,-2.91784701663045e-06,-5.35314897799807e-16,0.000302316795408903,7.13992996009487e-05,-1.15633658430899e-05,-0.00100040229169374,-0.000215877839170515,-0.000629348439729748,-3.48485999298258e-05,2.37908859625153e-16,-2.75803478358848e-05,-3.87677202635026e-06,-1.58430535863421e-05,-1.08984619680707e-15,3.03083824839958e-15,-2.48125165412282e-05,-1.8710902423719e-05,-1.10053268385888e-15,-5.03635386681694e-15,1.68281585147068e-05,-4.53836737766904e-06,9.03033267979363e-15,2.86054712332489e-15,0.000165597402356018,8.8422168248386e-15,-4.24696068164994e-06,1.32131257824509e-05,-4.74999922159182e-06,-7.16097605357031e-06,1.70657550055417e-13,-1.50750596602249e-06,0.707106781186553,-3.17013374692893e-07,6.60789573234646e-15,-3.351010410427e-17,1.37879881837819e-14,-8.71659062263917e-07,1.3492979557806e-05,3.95278255210593e-05,-3.8198263652636e-06,2.94493347815058e-16,-1.87531573187317e-15,-2.86281806500233e-15,-4.27445384343192e-07,-3.77819040865704e-16,-1.96534574919485e-16,-9.88513930421739e-15,-8.71747396211778e-16,9.24517418504364e-06,1.01160528814984e-14,2.88416391863992e-15,-1.83336822723174e-17,6.36449465534202e-17,-5.60383433001582e-15,2.78687157688582e-15,3.41494899879009e-15,-3.41931924879316e-15,-3.09958809675694e-15,2.25105587944398e-15,6.91316184692353e-13
"t178",0.017040069699375,-0.11010216498636,0.0286113277868773,-0.0670270363305145,-0.209403796718866,-0.0879265755378385,-0.179673531934971,0.00804283261275849,0.0262866013231364,-0.00180210004637618,-0.319885320046896,-0.00841162255979041,0.038054726067292,0.000849263628956789,-0.000149599493066484,0.0757864682412617,-0.00201972897155639,-0.0104020428267584,0.001445757686507,5.74578120117386e-05,-2.39227389190844e-07,0.000423236567583175,-0.00141430899651813,0.517653826860245,0.000496538853826581,0.0980426366052818,-0.00199116774080635,-0.00321982465358814,2.41862463739233e-05,0.000161663722118473,-0.0187684291787308,0.000148057873036471,3.23209165397494e-05,5.82363386046817e-05,0.000285086281629457,0.000108745732579188,-3.62485790850997e-09,0.000168064263389632,-4.75350683570674e-05,-4.26416487298921e-06,-3.6123948659243e-17,0.000405218815912257,8.60761823781132e-05,-1.35361569731197e-05,-0.00116896973164017,-0.000238818149127619,-0.000695126457067697,-3.70653853234891e-05,-2.35787239642428e-15,-2.83679302111394e-05,-3.95318335765058e-06,-1.61464119515594e-05,-2.2672651162033e-15,2.90738971930541e-14,-2.51560668986633e-05,-1.88661866976645e-05,-0.70710678118655,5.48246616091567e-13,1.68962039809265e-05,-4.55604394589911e-06,5.35239768133811e-14,-1.16974857285867e-14,0.000165514793050183,-3.71315377161473e-15,-4.23865944715963e-06,1.31800823783026e-05,-4.72667139853039e-06,-7.10891590892903e-06,-2.47695794462256e-14,-1.49264750868892e-06,8.88178419700125e-16,-3.13453983211387e-07,-1.58421146407663e-15,-7.14074154986184e-16,-8.98251848569652e-16,-8.5758421606555e-07,1.3274925150162e-05,3.88518999273199e-05,-3.75177329347621e-06,5.71804532700866e-16,2.32762530198773e-15,-1.78918303088258e-16,-4.16821165572719e-07,-6.66636030908106e-16,5.66890649472211e-16,7.06927283525745e-15,2.09233524295516e-16,8.99890309019328e-06,-6.72103670254973e-17,4.25961194951631e-16,8.68668111308527e-17,-4.06433012692813e-16,-5.49698958763099e-15,5.03795313155733e-15,1.82018850694631e-15,-2.94413973396332e-15,-6.64739216555328e-16,8.65434308432603e-15,6.93325939720331e-13
"t179",0.0170400696993755,-0.11010216498636,0.0286113277868767,-0.067027036330515,-0.209403796718866,-0.087926575537838,-0.179673531934972,0.00804283261275825,0.0262866013231362,-0.00180210004637557,-0.3198853200469,-0.00841162255979072,0.0380547260672931,0.000849263628957147,-0.000149599493066173,0.0757864682412636,-0.00201972897155621,-0.0104020428267581,0.00144575768650721,5.74578120122583e-05,-2.39227389020615e-07,0.00042323656758231,-0.00141430899651759,0.51765382686025,0.000496538853828509,0.0980426366052864,-0.00199116774080454,-0.00321982465358915,2.41862463733381e-05,0.000161663722118819,-0.0187684291787273,0.000148057873036085,3.23209165400835e-05,5.8236338604786e-05,0.00028508628163198,0.000108745732579751,-3.62485742710858e-09,0.000168064263391269,-4.75350683658844e-05,-4.26416486853656e-06,1.69679081977718e-17,0.000405218815910304,8.60761823785164e-05,-1.35361569808172e-05,-0.00116896973164133,-0.000238818149125866,-0.000695126457092748,-3.70653853204616e-05,3.8405771713969e-15,-2.83679302161324e-05,-3.95318335192608e-06,-1.61464119325506e-05,2.1576880144214e-15,-2.80204711163725e-14,-2.51560668941084e-05,-1.88661866343242e-05,0.707106781186544,-5.48857938283296e-13,1.68962040127252e-05,-4.5560438475432e-06,-5.05394655176889e-14,1.23442266332416e-14,0.000165514793050149,3.44141659998848e-15,-4.23865945154057e-06,1.31800823737838e-05,-4.72667142721978e-06,-7.10891587703268e-06,2.41297868978213e-14,-1.49264750993851e-06,4.95437024738976e-15,-3.13453989344005e-07,1.16510825660631e-15,2.84982974889081e-16,-7.30767446723037e-16,-8.57584233918541e-07,1.32749251387764e-05,3.88518998997584e-05,-3.75177329003626e-06,6.40853139539905e-16,-2.20278089128775e-15,-2.65390563640879e-15,-4.1682116156074e-07,-3.2743777498941e-16,-2.69254500888633e-15,-3.37724041994967e-15,-9.69774199346214e-16,8.99890310559235e-06,6.53530886439044e-15,1.95268653323829e-15,-1.39376632064386e-15,-6.19298681715506e-16,-4.83644353925132e-15,5.82559077493549e-15,2.54447971605771e-15,-2.49913024179712e-15,-1.8797392400238e-15,-1.52919826235037e-14,7.02175996862422e-13
"t244",0.0171013804222554,-0.110778223278267,0.0289223854386972,-0.0680723513394845,-0.214579739728091,-0.0902918518595476,-0.186140129649861,0.00839896768736822,0.0280042181156185,-0.00195426504378486,-0.373920469431305,-0.00991685648605652,0.0451570708107749,0.00102530914626604,-0.000186600831909984,0.0982134100485258,-0.00281714310440618,-0.0180515355098352,0.0026647513831532,0.000106547566453541,-7.53661881281911e-07,0.00391666091700254,0.00180102523685996,-0.478485749212215,7.78926073745531e-05,0.0346398188745221,-0.000703921976564807,-0.00146264951081089,1.25771517529742e-05,9.80253633451176e-05,-0.0121817633654918,9.63491363034405e-05,2.17811173916432e-05,4.14054496889043e-05,0.000212934041382154,8.12582065138618e-05,-2.71437985399209e-09,0.000131815501146811,-3.73124954696767e-05,-3.35392186145602e-06,-1.71903409586781e-16,0.000322556551019191,6.98612372757428e-05,-1.10602733467552e-05,-0.000955570656026943,-0.00019813664431111,-0.000576992696405654,-3.11574312939333e-05,-1.52184208696946e-15,-2.41726287029891e-05,-3.3820378571078e-06,-1.38172611656819e-05,1.23979069113679e-16,-6.06769315652349e-16,-2.15821087068717e-05,-1.62310225561657e-05,-4.82303382842535e-15,1.98021796328314e-15,1.45687097164278e-05,-3.92875028180787e-06,-2.41141723630155e-15,1.00351190190214e-15,0.000143069777587966,3.33358891576237e-15,-3.66687139583233e-06,1.14056544553479e-05,-4.09601931768154e-06,-6.16902356288018e-06,3.11705086550099e-15,-1.29733828275809e-06,-7.57727214306669e-15,-2.72671542429591e-07,1.68205225707354e-15,-4.00204119712696e-16,7.99487912058556e-16,-7.48376186561042e-07,1.15845488208427e-05,3.39259271415629e-05,-3.27767407221656e-06,1.04007546463213e-15,1.82088530763691e-16,3.12832468335463e-14,-3.65974063279866e-07,9.76732179260665e-14,8.67090681663391e-13,-0.707106781186547,-5.66685074959612e-12,7.9117904280046e-06,-1.78399953851388e-14,-1.70479450520286e-14,-2.92579231013573e-15,2.31381646174268e-15,-2.39545333764163e-14,1.54964329167581e-14,5.45785052294272e-15,-1.54444190458503e-14,-2.99563664727524e-15,4.02381631072388e-15,7.07913704640524e-13
"t245",0.0171013804222554,-0.110778223278267,0.0289223854386971,-0.0680723513394845,-0.214579739728092,-0.0902918518595476,-0.186140129649861,0.00839896768736825,0.0280042181156189,-0.00195426504378451,-0.373920469431305,-0.00991685648605631,0.0451570708107756,0.00102530914626588,-0.000186600831909812,0.0982134100485252,-0.00281714310440637,-0.0180515355098347,0.00266475138315332,0.000106547566453268,-7.53661881033841e-07,0.00391666091700187,0.00180102523686077,-0.478485749212216,7.78926073738918e-05,0.0346398188745221,-0.000703921976564632,-0.0014626495108101,1.25771517527075e-05,9.80253633448408e-05,-0.0121817633654916,9.63491363037756e-05,2.17811173915438e-05,4.14054496903965e-05,0.000212934041382235,8.12582065146142e-05,-2.7143802898721e-09,0.000131815501146524,-3.73124954690758e-05,-3.3539218610763e-06,1.31552273940918e-16,0.000322556551017952,6.98612372760571e-05,-1.10602733475447e-05,-0.000955570656026834,-0.000198136644317102,-0.000576992696402772,-3.11574313014295e-05,-4.47864648967265e-17,-2.41726286984143e-05,-3.38203785501516e-06,-1.38172611608761e-05,1.99658986727862e-16,1.44914874153748e-15,-2.1582108705445e-05,-1.62310225568759e-05,6.05021291899728e-15,-1.6006260111561e-15,1.4568709711743e-05,-3.92875027776021e-06,4.00601769054643e-15,-1.38661174249978e-15,0.000143069777598234,-3.01026792083416e-15,-3.66687139708718e-06,1.14056544471465e-05,-4.09601932622555e-06,-6.16902357235537e-06,-3.28237919079182e-15,-1.29733828286205e-06,1.58484336765241e-14,-2.72671546882464e-07,-1.1228214348798e-15,-3.85571813606016e-16,-1.51455374964623e-15,-7.48376195149407e-07,1.15845488229406e-05,3.39259271172153e-05,-3.27767409664723e-06,-9.00801405028353e-16,1.63672713840566e-16,-3.39675150945252e-14,-3.65974015117204e-07,-9.81049190184349e-14,-8.68516360327651e-13,0.707106781186549,5.66627129728201e-12,7.91179068729511e-06,2.57269813185639e-14,2.02517198166046e-14,1.98388960472166e-15,-3.25024238449696e-15,1.33564184733054e-14,-5.53000105030648e-15,-6.52907810474998e-16,1.03132731180923e-14,-1.65380543499148e-16,-1.03721673918251e-14,6.87396817549755e-13
"t106",0.0165001717671676,-0.104172426590889,0.0259028766886708,-0.0579903547434139,-0.165260782685542,-0.0678184950741526,-0.125410055029618,0.00508867144966626,0.0124309952233869,-0.000603205070082308,0.0718330292405855,0.00242147147312479,-0.012801203499047,-0.000397101870165751,0.000110144709136594,-0.0883577537118155,7.45108801898956e-06,0.0212263151175295,-0.00339412496543753,-0.000136640836234999,1.24447173839858e-06,-0.00678337498428938,-0.00127370194475955,0.0535893166267886,-0.00234771366339488,-0.927542103770182,0.0188578233951936,0.0658823551882322,-0.00292574820012026,0.00305860440572191,-0.213120881075252,0.00165328831353006,0.00029208453586054,0.00039337491907201,0.00150392700488059,0.000572467444054604,-1.88845174882384e-08,0.00069975916094432,-0.000197153950693034,-1.75142239262511e-05,6.54637510749558e-16,0.0015710142001763,0.000303731102335359,-4.62245869524648e-05,-0.00398342529462286,-0.000756599065208909,-0.0021969891170319,-0.000110002561380492,2.83713038756067e-16,-7.85979030901042e-05,-1.07313021249086e-05,-4.37717851610189e-05,-7.36829885202212e-17,-1.92299527646267e-15,-6.73096938389448e-05,-4.97586277618465e-05,3.59486207077807e-15,2.55146838491709e-16,4.40498606794934e-05,-1.18730890641701e-05,1.2900349019721e-15,1.22456267884552e-16,0.000425968397624069,-2.18425478115508e-16,-1.0862040690911e-05,3.37206859420435e-05,-1.20052835337194e-05,-1.79242622568107e-05,1.5675664865979e-16,-3.73255422328575e-06,3.60822483003176e-15,-7.80321828307876e-07,-1.57718335795899e-16,1.26974897935314e-16,-4.64894810143795e-16,-2.09941150648098e-06,3.24961852007433e-05,9.47911147429996e-05,-9.13016167326933e-06,5.40325923103938e-16,-8.62777500498559e-17,-1.03551506138413e-15,-9.87649636915528e-07,-5.24451150446177e-16,-8.63069489254085e-16,1.44820027222785e-15,-3.3822838085498e-16,2.11691249903641e-05,2.74487643835696e-15,1.48716176011522e-15,-4.59287218691302e-16,-3.62077840087522e-16,-4.0918063614708e-15,4.93208319915975e-15,2.47224809965588e-15,-2.47308897833691e-15,-1.42742750446797e-15,-4.33181944593558e-15,6.97739292053261e-13
"t167",0.0167864032296239,-0.107276536140774,0.0272863399266339,-0.0624886434918772,-0.186079150319546,-0.0771715147518421,-0.149136587008588,0.00630114793685768,0.0170812933426282,-0.000912748886324109,0.173169498731435,0.00620842347602511,-0.0344526706170497,-0.00122530296770583,0.000458716137610555,-0.587450719852102,-0.05508186755714,-0.0651747537018001,0.00863948501067229,0.000342278026570133,-1.62977327204029e-06,0.00665026696897133,0.000772777639874268,-0.0302632365867832,0.000667660721594056,0.158576827460679,-0.00322132226763337,-0.00620913867173154,0.000101687863344106,0.000178733827238618,-0.0239770100184556,0.000189766610315965,4.29102509481921e-05,7.98247109750568e-05,0.000395963121053457,0.000151048170718933,-5.03629711349533e-09,0.000233505963413777,-6.60378763527039e-05,-5.92238083210582e-06,-1.34403867680493e-16,0.000561642421951917,0.000118696699461405,-1.86231270067268e-05,-0.0016080201340311,-0.000326498306144229,-0.000950122701199912,-5.03338603143106e-05,6.90544252265412e-15,-3.82023950000742e-05,-5.30907142495464e-06,-2.16803854919095e-05,-3.29483907039139e-14,-0.707106781186546,-3.37164198873614e-05,-2.52340315503327e-05,-2.77218638680201e-14,-1.21997484580128e-16,2.2560650744145e-05,-6.08308153996706e-06,-1.65099771286149e-15,-2.80669995612445e-15,0.000220573277154089,2.17969764784755e-16,-5.64494716068248e-06,1.75485351576433e-05,-6.28617884200122e-06,-9.44351424348834e-06,1.84174127309199e-15,-1.98022055499266e-06,6.48092690624935e-15,-4.15541819277837e-07,7.18988710984055e-16,-2.31578168484467e-16,1.51183382653441e-16,-1.1337486055158e-06,1.75496569648243e-05,5.13341122114007e-05,-4.954984780834e-06,-1.85730751823452e-16,-8.88644198063934e-16,-2.18322422850389e-15,-5.47957918210757e-07,-1.40732527148019e-15,-3.28573458017827e-16,2.21332397392843e-15,8.62751027560952e-16,1.18148111874294e-05,4.40972458188918e-15,2.00542780109694e-15,-7.45950458039029e-16,-1.28640500906404e-15,-4.51148094278745e-15,5.17925414197187e-15,2.66294369756588e-15,-2.35870253484015e-15,-1.60041681698981e-15,-8.76838882033251e-15,7.00761151008721e-13
"t172",0.0167864032296239,-0.107276536140774,0.027286339926634,-0.062488643491877,-0.186079150319546,-0.0771715147518422,-0.149136587008587,0.00630114793685768,0.0170812933426286,-0.000912748886323856,0.173169498731434,0.0062084234760264,-0.0344526706170496,-0.00122530296770564,0.000458716137610046,-0.587450719852101,-0.0550818675571398,-0.0651747537018003,0.00863948501067215,0.000342278026570359,-1.62977327228572e-06,0.00665026696897159,0.000772777639874141,-0.0302632365867829,0.000667660721593926,0.158576827460675,-0.00322132226763312,-0.00620913867173079,0.000101687863343935,0.000178733827238092,-0.0239770100184565,0.00018976661031639,4.29102509486065e-05,7.98247109747709e-05,0.00039596312105154,0.000151048170718808,-5.03629627382541e-09,0.000233505963414602,-6.6037876348304e-05,-5.92238083136246e-06,-2.25579791120055e-16,0.000561642421950964,0.000118696699464533,-1.86231270117739e-05,-0.00160802013403033,-0.00032649830614397,-0.000950122701197383,-5.03338603132604e-05,-7.52068043144342e-15,-3.82023950067842e-05,-5.30907141773305e-06,-2.16803855214838e-05,3.30670389364143e-14,0.70710678118655,-3.37164198087789e-05,-2.52340315554215e-05,2.93496711298788e-14,2.12241431610673e-16,2.25606507392972e-05,-6.08308154939506e-06,4.1436212743679e-15,3.01164506245245e-15,0.000220573277147729,-1.599959432432e-16,-5.64494715079076e-06,1.7548535158834e-05,-6.28617884982028e-06,-9.44351425631367e-06,-2.35553116672671e-15,-1.98022054966057e-06,1.12410081243297e-15,-4.15541819632248e-07,-5.44016032738758e-16,-2.76196278573499e-16,-1.90009908969047e-15,-1.13374861089908e-06,1.7549656965174e-05,5.13341122159476e-05,-4.95498477969823e-06,9.32058258026799e-16,1.19893445687667e-15,-7.20972484448028e-16,-5.47957919848259e-07,6.18714977150112e-16,-1.09269316639193e-15,1.59411378371887e-16,-2.3674786010142e-15,1.18148111870599e-05,3.03222483293497e-15,5.86420646386921e-16,-1.24036498497742e-16,3.07439889044377e-16,-5.89505329109657e-15,5.16037529711889e-15,2.1124086342354e-15,-2.82041749472087e-15,-1.43079739827884e-15,2.29926872751658e-15,6.94780333217957e-13
"t153",0.0168139479964401,-0.107978086104199,0.0283249355738588,-0.0749427948400474,-0.041767797084319,-0.0202579243361753,0.196129444052207,0.00841155209607562,-0.418168814481376,-0.00363372257869003,-0.049800342278505,0.00991306536945373,-0.210823153183956,0.00616292996088601,0.000256291236173917,0.000553023408385984,-0.00683928373207653,-0.0193662574010911,0.00279737617713682,0.000111709327128093,-3.2836511583709e-07,0.0163699474741437,9.53894419462943e-05,-0.000189761531464002,8.43293933072022e-05,0.00217737155591091,-4.34394798188156e-05,0.00140244211074214,-0.0001136023793428,0.000175988055807039,-0.000660422537149818,-0.000111446014873009,0.000173123834396718,4.36239401255551e-05,0.000128746578287219,4.87802255765253e-05,-1.57053304160593e-09,-1.76619651150987e-05,5.76490241900684e-06,6.99513999393259e-07,-4.15039582342452e-16,-0.00020158477483955,-0.000154591873074884,5.12774508862304e-05,0.007442286284865,0.0265754359032008,0.84115279424917,-0.000209405440513796,4.53393259535129e-17,-9.01212943701757e-05,-1.13525263225745e-05,-4.60884940041876e-05,-9.62215426267359e-16,-8.66344584060056e-16,-6.79499965345458e-05,-4.82619454250051e-05,1.4873704692915e-14,-8.75735789344323e-16,4.15463730713494e-05,-1.11879056059494e-05,-1.35707577343998e-16,-8.87738944019959e-16,0.000789216436215937,-3.52439252880208e-16,-9.85321707898838e-06,3.05094105887569e-05,-1.0725247670017e-05,-4.76236006757202e-05,1.84560271405222e-15,-3.25081740645671e-06,-7.09154956979319e-15,-6.75081172970995e-07,1.05064437021109e-15,-1.49471909611799e-16,-9.21178667240568e-16,-1.77580653799078e-06,2.74856278752596e-05,0.000159326175278468,-7.66558178455312e-06,3.32839754996856e-16,7.45492600838749e-16,-1.73082291801804e-15,-8.06782704941422e-07,2.6059885837106e-17,-1.16847828597425e-15,8.08122767754089e-17,-2.63417817758063e-16,3.39786320796543e-05,3.00711060944256e-15,5.34925052622057e-16,-7.07451735275848e-17,-1.73535293004026e-15,-4.68323651827107e-15,5.14844567534736e-15,2.33338544206487e-15,-2.79004897362282e-15,-1.7304260549009e-15,-3.79601331891601e-15,6.97419188765244e-13
"t268",0.0169301491109647,-0.109237284524444,0.0288978074310374,-0.0770735077487759,-0.0435798084617256,-0.0212059441227145,0.207973662401144,0.00901692859668617,-0.45930382728444,-0.00406667838392994,-0.0590937380056534,0.0118235513739679,-0.252398690709119,0.00744758715395105,0.000314575704184069,0.000689330041816077,-0.00872669990202669,-0.0257731113503731,0.00375090593826828,0.000149890956421058,-4.56414019876547e-07,0.023224403337076,0.000140794895532781,-0.000281880537188576,0.000133398193550031,0.00359674572367078,-7.17613059521466e-05,0.00241320385092194,-0.000203839365978363,0.000347708436589115,-0.00142258592946199,-0.000241122239477475,0.000402335995758111,0.000122408329161942,0.000554848532711455,0.00021160648995909,-7.04785467587883e-09,0.000343774228083533,-9.74916403749091e-05,-8.80831424450226e-06,6.96869699268134e-16,0.000888263853458164,0.000238653176247019,-5.6802164670149e-05,-0.00806572098058916,-0.01244872706269,-0.381334218616298,2.65096888012585e-05,1.45016756361595e-15,-1.09023052585826e-05,-2.04269072850148e-06,-8.46380405919065e-06,7.01187303931587e-16,-4.43251705849721e-15,-1.48414640012013e-05,-1.22798399741205e-05,5.3262994519725e-15,-6.28835233014727e-16,1.17105882344852e-05,-3.16419609578596e-06,1.28646201114138e-15,8.8156312379577e-16,0.000245427043684886,8.93596259094882e-16,-3.15572769030449e-06,9.87770020097399e-06,-3.63715906850506e-06,-1.68649978877627e-05,-6.05344359301324e-16,-1.2046559603054e-06,3.03229663600746e-15,-2.56044909032527e-07,-1.82801442906396e-16,-4.52039899679343e-16,-1.24822654151679e-15,-7.29030668357842e-07,1.12861539497454e-05,6.637434740444e-05,-3.22834462396039e-06,1.88658010507229e-15,-1.52718081357537e-16,-1.71275691372699e-15,-3.76054808598638e-07,4.59462279078939e-17,-3.03287822572224e-15,9.73209908301069e-15,-2.20148356860712e-15,1.62276646066248e-05,-9.58634086887881e-15,3.55296865011862e-15,3.94342485625886e-17,4.41866946314247e-16,-1.85518573667022e-14,9.53332128926577e-15,4.12864130153358e-14,-2.31021032667834e-14,-1.31758405263884e-14,0.707106781186544,6.96932571042677e-13
"t269",0.0169301491109647,-0.109237284524444,0.0288978074310374,-0.0770735077487759,-0.0435798084617257,-0.0212059441227147,0.207973662401144,0.00901692859668614,-0.45930382728444,-0.00406667838392967,-0.0590937380056534,0.0118235513739672,-0.252398690709118,0.00744758715395051,0.000314575704183747,0.000689330041816181,-0.00872669990202676,-0.0257731113503728,0.00375090593826838,0.000149890956420665,-4.56414019927494e-07,0.0232244033370751,0.000140794895534312,-0.000281880537188493,0.000133398193550491,0.00359674572367223,-7.17613059517949e-05,0.00241320385092331,-0.000203839365978017,0.00034770843658943,-0.0014225859294619,-0.000241122239477611,0.000402335995758219,0.000122408329162678,0.000554848532711119,0.000211606489959991,-7.04785467554626e-09,0.000343774228084089,-9.74916403736003e-05,-8.80831424539656e-06,-2.90759297643548e-16,0.000888263853457729,0.000238653176246523,-5.68021646702336e-05,-0.0080657209805909,-0.0124487270626919,-0.381334218616299,2.65096887989902e-05,-1.78718081650388e-15,-1.09023052572106e-05,-2.04269072707388e-06,-8.46380405859345e-06,2.71544752093439e-16,6.8084910658325e-15,-1.48414640024001e-05,-1.22798399753228e-05,-1.87308457128739e-14,1.37742389912666e-15,1.17105882304692e-05,-3.16419610007382e-06,3.04779596538116e-15,3.10869403618802e-16,0.000245427043683392,-8.68318513213031e-16,-3.15572768528687e-06,9.87770019785266e-06,-3.63715906778822e-06,-1.68649978919157e-05,-1.69831714336213e-15,-1.20465595981731e-06,1.37112543541207e-14,-2.56044909857684e-07,-6.37486840434924e-16,-1.35936889478408e-16,1.93365665035791e-16,-7.29030664463727e-07,1.12861539535713e-05,6.63743474025375e-05,-3.22834461147123e-06,-9.95504287719011e-16,1.26569686545735e-16,-7.0879249639574e-16,-3.76054807926769e-07,-1.08493998993409e-15,1.70662809492984e-15,-5.06162272011952e-15,1.18028790304696e-15,1.62276645619024e-05,1.72586289093654e-14,-8.92769664804382e-17,-1.42470601019917e-15,-3.52880401748328e-16,7.86439254337354e-15,8.75170110470853e-16,-3.64476264832063e-14,1.79229661211908e-14,1.06533491735614e-14,-0.70710678118655,6.98787536865428e-13
"t151",0.0164952645720713,-0.10442076109966,0.0266161508064956,-0.0682397235262235,-0.035465942388565,-0.0168822456396223,0.149676802646068,0.00582332992404866,-0.200358645400633,-0.000859697137167645,0.0972986672503594,-0.024418930420599,0.617248197542931,-0.0286887153009682,-0.00356013426137932,0.0261271984643728,-0.0604120749231896,-0.0945164345005449,0.0129728410836161,0.00051583042201908,-1.29604798441049e-06,0.0611562148088573,0.000333481865185987,-0.000658566521337861,0.000280696970607029,0.00719148632857592,-0.000143472751042353,0.00464178439513828,-0.000379321617584226,0.000609777585441736,-0.0023958246561061,-0.000405336716750595,0.000658102823858972,0.000189320541277759,0.00079173597250287,0.000301673372884094,-1.00012716331427e-08,0.000418033745403992,-0.000118049566255006,-1.05481204746574e-05,3.65397466221074e-16,0.000980751583465393,0.000205001891950505,-4.08079754220479e-05,-0.00570702329809568,-0.000856725758905883,-0.0122393643592332,-7.58562695297649e-05,0.707106781186548,-5.72590393287487e-05,-7.92276027692187e-06,-3.23438850115504e-05,-1.90154856285679e-15,7.87872703188206e-15,-5.01473625487333e-05,-3.7402579703495e-05,-3.55701017504729e-15,1.72576272846749e-15,3.33511322464571e-05,-8.99176908518321e-06,1.52999280296411e-15,-1.96336133101395e-15,0.000656452412620542,-1.14095795711407e-15,-8.28609770168294e-06,2.5761543002399e-05,-9.21725876743062e-06,-4.16197688784904e-05,-1.56290286533688e-16,-2.89219084466323e-06,3.21964677141295e-15,-6.06190101232358e-07,-6.61590465738149e-16,8.3356764988121e-17,-3.91938461877847e-16,-1.64648461089588e-06,2.54861680636591e-05,0.000148612231948762,-7.18210006741274e-06,2.12011987360446e-16,-1.10516115063312e-16,-1.3207578533772e-15,-7.88372996584946e-07,-7.77937819702555e-16,-5.96831788586846e-16,5.27555840202996e-16,-8.0341790399858e-16,3.35418486660266e-05,4.38814869809735e-15,1.2080549626241e-15,-8.80105135161745e-16,-9.37324555572405e-16,-5.47061851050462e-15,5.62523373660635e-15,2.37247740896264e-15,-2.75359840299619e-15,-1.86522745698491e-15,-4.80510895590773e-15,6.97476196937964e-13
"t152",0.0164952645720712,-0.10442076109966,0.0266161508064956,-0.0682397235262235,-0.035465942388565,-0.0168822456396223,0.149676802646068,0.0058233299240487,-0.200358645400633,-0.000859697137167701,0.0972986672503597,-0.0244189304205991,0.617248197542933,-0.0286887153009683,-0.00356013426137923,0.0261271984643735,-0.0604120749231899,-0.094516434500546,0.0129728410836162,0.000515830422018957,-1.29604798476054e-06,0.0611562148088587,0.000333481865185769,-0.000658566521335772,0.000280696970607074,0.00719148632857557,-0.000143472751042611,0.00464178439513863,-0.000379321617584858,0.00060977758544111,-0.00239582465610638,-0.00040533671675238,0.000658102823858162,0.000189320541277452,0.000791735972503186,0.000301673372883152,-1.00012710321191e-08,0.00041803374540501,-0.000118049566252825,-1.05481204733989e-05,-1.29169547395749e-16,0.000980751583466532,0.000205001891950231,-4.08079754211246e-05,-0.00570702329809675,-0.000856725758913918,-0.0122393643592326,-7.58562695302077e-05,-0.707106781186547,-5.72590393292732e-05,-7.92276027498284e-06,-3.23438850118296e-05,1.9639896953228e-15,-6.92887255905597e-15,-5.0147362547558e-05,-3.74025797044975e-05,2.63942208114187e-15,-1.80328101246391e-15,3.33511322469936e-05,-8.99176908494039e-06,1.01104456711604e-15,2.33041512048888e-15,0.000656452412617602,9.38655794389242e-16,-8.28609770078408e-06,2.57615429997391e-05,-9.21725876601522e-06,-4.16197688738026e-05,-2.31144185946864e-16,-2.89219084305411e-06,3.70536934468646e-15,-6.06190101234011e-07,6.99423464042269e-16,-6.3075499777535e-16,-1.12585038198451e-15,-1.64648461235028e-06,2.54861680623375e-05,0.000148612231949948,-7.18210006552431e-06,6.06300001898413e-16,3.45772732760866e-16,-1.63277575572146e-15,-7.88372996600378e-07,1.9092141659603e-16,-1.33392259324954e-15,2.11656254419775e-15,5.7571669531774e-17,3.35418486633817e-05,3.15925871556508e-15,1.69354870135104e-15,-1.00019957745666e-16,-7.49868267541473e-17,-4.8982141129766e-15,4.9038361091497e-15,2.26891843007113e-15,-2.46445864172029e-15,-1.06912285338093e-15,-1.43280651860881e-15,6.97989994630877e-13
"t185",0.0167064757995433,-0.106893295915936,0.027917867172486,-0.0738684436916675,-0.0420366537742614,-0.0206206986652393,0.220237397049591,0.0122176180730943,0.132228400040043,-0.000375310343232237,0.00209161000764161,-0.000532015614774735,0.0116777337302266,-6.45951205708027e-05,0.000182300736260204,-0.00349073151792952,0.0194958241044839,0.0945508170533477,-0.0156787652732924,-0.000634465340794409,4.38556982108008e-06,-0.534048498593999,0.0028835179481408,-0.00459729418855187,0.000833316319622133,0.0171130042490368,-0.000341323312475037,0.00968894669130746,-0.00071927720005699,0.000975171304405237,0.00331507675388639,0.771709628777966,0.11291895701926,0.000282299030516613,0.00109668959651698,0.000417600583312015,-1.38004103111108e-08,0.000537212153743123,-0.000151510306699908,-1.34941757524475e-05,-6.61829080494744e-16,0.0012303530895932,0.000248332324777334,-4.86998584483316e-05,-0.00680320609270124,-0.000738396253415861,-0.00584698547748233,-8.95593325864497e-05,-1.654269798073e-15,-6.54738652322881e-05,-8.9902443439372e-06,-3.66836530658868e-05,7.4466140629991e-17,3.56152386988397e-16,-5.66084193147718e-05,-4.20083862536055e-05,-2.32968456135241e-16,-2.3580684255378e-16,3.7308729885356e-05,-1.00573509109736e-05,1.88156250374767e-15,6.30543796074176e-18,0.000731136362965985,1.10508065239399e-16,-9.21557211615198e-06,2.86357727559858e-05,-1.02210036519147e-05,-0.000374045712201919,7.87930129274968e-17,-3.19047334456805e-06,3.65679708735911e-15,-6.67738984993434e-07,-1.80242853172972e-16,-1.81070975813854e-16,-4.5454492864343e-16,-1.80389005115014e-06,2.79222473117584e-05,0.000162644115497978,-7.85380432024444e-06,3.74930640486994e-16,8.32906480898915e-17,-1.34420345843169e-15,-8.54887617676426e-07,-1.75472245347711e-16,-3.48192801614007e-16,8.46237718497761e-16,-5.61428784204573e-16,3.62901712598131e-05,3.38968186896299e-15,1.232841890678e-15,-2.83688264906596e-16,-2.66589924255042e-16,-5.09422735093815e-15,5.31341122300672e-15,2.48616602889499e-15,-2.71887990797746e-15,-1.37108663662176e-15,-2.99563051720538e-15,6.97572861023079e-13
"t101",0.0167361502734855,-0.107221936824775,0.028074046697917,-0.0744783881155321,-0.0426202555973368,-0.0209369603721644,0.225065426089977,0.0125696837423923,0.139097107861084,-0.000407263627500067,0.000970380431207046,-0.000334628671875754,0.00811676159196763,-5.07463560140707e-05,0.000155441644508409,-0.00309036327703309,0.0177925655168328,0.0887033457551052,-0.0147585183427799,-0.000597402113430249,4.18233894343481e-06,-0.512407090128894,0.00279595101344514,-0.00446494335556278,0.000822719288845817,0.01711719210812,-0.000341414260093493,0.00983967190873349,-0.000745815608413909,0.00112440736030246,-0.00962628115600368,-0.574306921435844,0.545908094752993,0.000233193285539324,0.000979932922302252,0.00037328826879014,-1.23596211042316e-08,0.000495884637178214,-0.000139909567688023,-1.2473107084923e-05,1.92178176123485e-16,0.00114340769512845,0.00023256101972174,-4.57168935985575e-05,-0.00638746876986959,-0.000696715877579751,-0.00551778900060418,-8.48482294790275e-05,-2.06194245528797e-16,-6.22770127013675e-05,-8.56098357974255e-06,-3.49346988678754e-05,-2.09105994643669e-16,7.7566699397656e-16,-5.39480496603101e-05,-4.00652770706433e-05,-4.47967949682902e-16,-4.17324905340073e-17,3.56050299751366e-05,-9.59829398926336e-06,1.68440859946773e-15,3.00322541474155e-16,0.000698227130680973,1.98669227471762e-16,-8.80275371128438e-06,2.73553487157266e-05,-9.76772803322385e-06,-0.000406475365915466,6.57777781160212e-16,-3.05141274558705e-06,5.84254866708989e-15,-6.38783693420358e-07,-2.27062015842506e-16,-7.83180673445874e-17,-2.23350327687006e-16,-1.72715140655405e-06,2.67344811713053e-05,0.000155751864555675,-7.52196850308324e-06,3.22484755473461e-16,1.42250266673992e-16,-1.10527750515967e-15,-8.19867227812734e-07,-8.09385891926878e-16,-9.37686214986431e-16,1.27731580819338e-15,-8.4973715756867e-16,3.48160853560165e-05,3.54688728541209e-15,1.59982367405052e-15,-4.88775199212035e-16,-4.89824129951939e-16,-5.18212771186574e-15,4.82811255131295e-15,2.44746195357567e-15,-2.74464015318668e-15,-1.38934096066062e-15,-3.04446716531347e-15,6.97550198283191e-13
"t203",0.0173339594626296,-0.113866431160505,0.0312525442593652,-0.0869717980794593,-0.0547189737835287,-0.0275118881829159,0.326592184863827,0.0200479406031689,0.288549801151452,-0.00111667792545303,-0.0258403416772669,0.00442073135165827,-0.0781527552310655,0.00028960949764408,-0.00052165953444033,0.00728112812739465,-0.028399671134881,-0.0865695472262345,0.0134062303807765,0.000539183484767658,-2.80723319407702e-06,0.295986776477938,-0.00124552086149076,0.00191293743664928,-0.000246959946302996,-0.00410263386922047,8.18025497675623e-05,-0.0019208879321144,0.000118106681073429,-0.000106126563929839,0.000448826423954107,0.0252152255675693,0.0530897122029755,-2.93761740475658e-06,4.19645543850696e-05,1.61705224603981e-05,-5.65913198769504e-10,5.18302217387713e-05,-1.4780643995101e-05,-1.3532227584087e-06,-1.5761358544076e-17,0.000143944222604211,3.63645744712075e-05,-7.66216294340842e-06,-0.00107527451098916,-0.000135524245981211,-0.00107816938801116,-1.8588619770896e-05,2.81914085090964e-15,-1.52437065758278e-05,-2.15353895112315e-06,-8.80222352935589e-06,1.96754597301598e-16,7.37334881764199e-15,-1.37839248414308e-05,-1.03326864648479e-05,-1.81539731411734e-14,-7.44234510287912e-16,9.15995654646793e-06,-2.46836047929276e-06,-4.40464892308131e-15,4.29004501571883e-15,0.00017359625900033,4.29378074170559e-15,-2.11812013101636e-06,6.45720465984006e-06,-1.82086561845449e-06,0.817126194196597,-7.3215542717567e-14,-1.20468466588835e-06,-1.24351917651921e-13,-2.32373905586202e-07,1.11751640394116e-14,-5.46000006701518e-15,-3.2081892884778e-15,-5.82561759785567e-07,9.01693984496071e-06,5.23735105329848e-05,-2.52607030785544e-06,1.34024500307531e-15,-1.26998607332663e-15,-4.77732179326065e-16,-2.78649674862982e-07,1.77492716743625e-15,-9.08911079246201e-16,7.07333026411761e-15,-2.21468867177794e-15,1.19168461237502e-05,6.55151311961337e-16,2.69357431600039e-15,-5.48307116147914e-16,4.57394183678185e-16,-5.67861586406811e-15,4.04105991714029e-15,3.19910915410597e-15,-3.42698609720166e-15,-2.0617844371414e-15,-6.01749381515243e-15,6.9959243389142e-13
"t205",0.0173362261179583,-0.113891375833411,0.0312642668377976,-0.087017103189731,-0.0547615317269669,-0.0275348568917458,0.326937318810427,0.020072784935591,0.289021340575463,-0.00111882863427976,-0.0259120128363459,0.00443330258830263,-0.0783789651794852,0.000290483964360517,-0.000523340890449892,0.00730602273463998,-0.0285049316251563,-0.0869327049904407,0.0134635896529613,0.000541494532017459,-2.82032607020744e-06,0.297429227483136,-0.00125207043902037,0.00192311098673751,-0.000248411128854416,-0.00412819119314571,8.23121804648241e-05,-0.00193345392465903,0.000118914856136139,-0.000106919153775706,0.000452399376033561,0.0254165497499907,0.053532857930944,-2.96450394780686e-06,4.24012120696628e-05,1.63390183036363e-05,-5.7185239506232e-10,5.24968715927017e-05,-1.4971650185881e-05,-1.37092229830522e-06,1.8907924762722e-16,0.000145982231777974,3.69732449058099e-05,-7.80024131109216e-06,-0.00109475201541239,-0.000138556837619241,-0.00110249650329786,-1.91372271557885e-05,-1.11093920381281e-15,-1.59762352561921e-05,-2.28380043603722e-06,-9.34414425339849e-06,1.7023241055924e-17,-5.31246066597199e-15,-1.48131589259894e-05,-1.13497409624694e-05,3.41028455834614e-14,-1.63182233661249e-15,1.03844589794203e-05,-2.80266451358395e-06,5.79451189737396e-15,-7.39064712978972e-16,0.000213012395844858,-7.03079594248892e-16,-2.74739976874032e-06,8.63177352240388e-06,-3.37475932565153e-06,-0.407617504817311,-0.707106781186511,-7.7164195788658e-07,2.38947750474949e-13,-1.73511702241237e-07,4.64965245326263e-15,6.27815152446502e-15,8.67236535541629e-15,-5.13332114714076e-07,7.94702887654879e-06,4.6763860922938e-05,-2.27450795617657e-06,-1.03985275586499e-15,2.13935059040223e-15,-1.1151255276178e-15,-2.62863196005677e-07,-2.26084201250096e-15,1.48216651512123e-15,-4.32612160057817e-15,-2.10109991034993e-15,1.13150275515056e-05,7.71651844305543e-15,-5.1326236450947e-16,4.56747099646727e-16,-9.45983528218756e-16,-5.17164945607808e-15,5.17019457634317e-15,1.05546045694521e-15,-1.34044763518276e-15,-1.53299785639297e-15,-2.10609609299198e-15,7.02070005999292e-13
"t206",0.0173362261179583,-0.113891375833411,0.0312642668377976,-0.087017103189731,-0.054761531726967,-0.0275348568917458,0.326937318810427,0.020072784935591,0.289021340575463,-0.00111882863427979,-0.0259120128363458,0.0044333025883031,-0.0783789651794855,0.000290483964360588,-0.000523340890449885,0.00730602273463993,-0.0285049316251562,-0.0869327049904408,0.0134635896529614,0.000541494532017719,-2.82032606994175e-06,0.297429227483137,-0.00125207043901967,0.00192311098673807,-0.000248411128854629,-0.00412819119314504,8.2312180465177e-05,-0.0019334539246584,0.000118914856136044,-0.000106919153776939,0.000452399376033273,0.025416549749991,0.0535328579309429,-2.96450394936454e-06,4.24012120691098e-05,1.63390183035618e-05,-5.71851843543338e-10,5.24968715941056e-05,-1.49716501866837e-05,-1.37092229726102e-06,2.53221938900856e-16,0.000145982231780849,3.69732449054298e-05,-7.80024131103176e-06,-0.00109475201540871,-0.000138556837621328,-0.00110249650330158,-1.91372271558035e-05,-1.29135044531444e-15,-1.59762352559733e-05,-2.28380043832288e-06,-9.34414425258923e-06,-2.66755479775225e-16,-1.26014662609016e-15,-1.48131589257618e-05,-1.13497409631279e-05,-1.49759509988745e-14,2.38381069550924e-15,1.03844589799962e-05,-2.80266451180481e-06,2.1368137147437e-15,-3.08392908596581e-15,0.000213012395824603,-4.19563550840816e-15,-2.74739974466185e-06,8.63177352213238e-06,-3.37475930960661e-06,-0.407617504817186,0.707106781186584,-7.71641892874897e-07,-1.04569131131882e-13,-1.73511704226596e-07,-1.59568500882001e-14,-1.51265052052791e-15,-8.10616385881142e-15,-5.13332116906063e-07,7.94702887702546e-06,4.67638609268001e-05,-2.27450795961663e-06,1.02276434337248e-15,-6.50453492458495e-16,-2.63422376085103e-15,-2.62863192798978e-07,-4.08892069011484e-16,-3.55764242089695e-15,2.00214963978523e-15,3.06100834322238e-15,1.13150275555114e-05,2.71562930608049e-15,1.85609688889546e-15,-1.60814241455074e-15,-9.92420568337959e-16,-4.72599674394168e-15,6.37714508718115e-15,2.75330537725806e-15,-3.18785759897699e-15,-9.10115125863677e-16,-2.91100778584532e-15,6.91800354333017e-13
"t237",0.0168388711101023,-0.108364917307135,0.0286219116053452,-0.076636035063197,-0.0447173013286841,-0.0220775314844037,0.242736915177266,0.0138751315896481,0.165365107226046,-0.000532645286124701,-0.0038599502878678,0.000523687793751098,-0.00747551349704779,1.09810203411856e-05,3.19115836705149e-05,-0.00118655957283931,0.00922961828556378,0.0555705337642022,-0.00941429145650937,-0.0003816605710787,2.83018735522794e-06,-0.354119206162052,0.00198380059455606,-0.00317744744397407,0.000595414376010088,0.0124051842461969,-0.000247429165137631,0.0070932281732031,-0.00053075213257723,0.000739603478285511,-0.00469384035911054,-0.26947858317046,-0.825033344543063,0.000243927317895626,0.000905846198186057,0.000344889375336426,-1.13911595649603e-08,0.000442651457174688,-0.000124853457254646,-1.11228927677011e-05,-4.4114259735218e-16,0.00101612759459471,0.00020602547995534,-4.0481346067744e-05,-0.00565585163670872,-0.000616900575700091,-0.0048857764159873,-7.52052956643925e-05,2.58953821780702e-16,-5.53121947209775e-05,-7.60953548453243e-06,-3.1053837685176e-05,3.7345140718165e-16,9.09803875282464e-16,-4.79812980655501e-05,-3.56567853740233e-05,-2.11697612047185e-16,-4.25247837133098e-16,3.17045199968672e-05,-8.5469763229175e-06,6.38902806816258e-16,-1.01055533270511e-16,0.000622133324809586,3.47274606973698e-16,-7.84513821690023e-06,2.4381536523108e-05,-8.7093263697479e-06,-0.000636513087710943,-6.90374749945835e-16,-2.72284428968314e-06,2.41473507855972e-15,-5.70150085389188e-07,8.55996141625736e-16,-5.52468313791659e-16,-3.93131531913579e-16,-1.54308019909517e-06,2.3885319670112e-05,0.000139180457919503,-6.72268970868513e-06,4.04678151649562e-16,5.50913166055184e-16,-1.64424795878765e-15,-7.33964157077844e-07,-2.0081763334006e-16,-7.06736575280307e-16,1.43163697001695e-15,-1.32380934903803e-16,3.11827887532043e-05,3.56550343207544e-15,1.38679236966629e-15,-3.99992106219817e-16,-5.48893668003535e-16,-5.1035628999497e-15,5.33320077763818e-15,2.51519648433858e-15,-2.27172819104484e-15,-1.36011831353757e-15,-3.29754416117812e-15,6.97439371624919e-13
"t180",0.0185152920701485,-0.129585651321607,0.0424870248377267,-0.1650272256611,0.244325589698801,0.0521292990183601,-0.099621323593046,-0.000921786295222781,0.0163058905210204,-0.000327368102342155,-0.00443142093014925,0.000664911730112546,-0.00976164451754312,-0.000209003207673968,-0.000121965622003894,0.00136011218098488,-0.00415671365558405,-0.00760421032247592,0.00104679851565265,4.16206796920941e-05,-9.40212516456654e-08,0.00286434242544061,4.05939141176264e-05,-7.43826003781224e-05,2.25940839902729e-05,0.000473761535973186,-9.44857580297985e-06,0.000242355165531778,-1.43835680155122e-05,2.45996308816443e-06,6.47351848406148e-05,6.68298709150601e-06,-2.15795355360731e-05,-2.29373833265508e-05,-0.000203725043835682,-7.81879275236154e-05,2.68759995288487e-09,-0.000303488600317685,8.7738362504673e-05,8.33118041521791e-06,-4.46546592448768e-16,-0.00118645799592533,-0.000974340016067194,0.00190447432864071,0.598320098030449,-0.00158424270157446,-0.00863609410698362,-0.000121741727840327,9.97259796694393e-16,-6.62202817981307e-05,-8.63707809164371e-06,-3.51486254653175e-05,-6.18769258865108e-16,1.00038303084699e-15,-5.32165399530243e-05,-3.96719599186869e-05,-5.47086823988587e-13,-0.707106781186544,3.772015470113e-05,-1.02236744374122e-05,-4.56659425241475e-14,-1.99245627042103e-15,0.112712210466067,1.03179827195326e-14,-1.91320016417446e-06,1.04563995873175e-05,-5.99235709888095e-06,-1.97717708048507e-05,1.57974450686405e-15,-2.12550876837424e-06,3.80251385934116e-15,-4.48911773867922e-07,-8.12804101337786e-16,2.52024339142496e-15,-6.27264189326975e-16,-1.25112642461984e-06,1.9374196995733e-05,0.015441231610573,-5.0479664522188e-06,1.0453766656373e-15,6.03861504370265e-16,-1.71807625916371e-15,-5.59973927918624e-07,-1.20125542819083e-16,1.22382527170817e-16,-1.44763775695551e-15,-5.63639707502294e-16,0.00269495204999192,4.27602494753338e-15,6.10106364341575e-16,-2.4692641799272e-16,4.96839899098227e-16,-3.91433397482573e-15,5.53199327268373e-15,2.22175320834398e-15,-3.65126688386853e-15,-2.24405648030566e-15,-5.36466827275816e-15,7.00565033081678e-13
"t181",0.0185152920701485,-0.129585651321607,0.0424870248377267,-0.1650272256611,0.244325589698801,0.0521292990183601,-0.099621323593046,-0.000921786295222671,0.0163058905210205,-0.000327368102342058,-0.00443142093014895,0.000664911730112219,-0.00976164451754302,-0.000209003207674596,-0.000121965622003544,0.0013601121809853,-0.00415671365558407,-0.00760421032247541,0.00104679851565265,4.16206796920522e-05,-9.40212516650456e-08,0.00286434242544031,4.05939141169284e-05,-7.43826003775667e-05,2.25940839900134e-05,0.00047376153597376,-9.44857580296291e-06,0.000242355165531756,-1.43835680149942e-05,2.45996308741639e-06,6.47351848404067e-05,6.68298709163579e-06,-2.15795355363869e-05,-2.29373833270481e-05,-0.000203725043835459,-7.81879275238437e-05,2.68760008904755e-09,-0.000303488600317497,8.77383625049281e-05,8.33118041338526e-06,1.69466467811493e-16,-0.0011864579959246,-0.000974340016066538,0.00190447432864182,0.598320098030446,-0.00158424270157268,-0.00863609410698239,-0.000121741727840826,-2.31259259546939e-15,-6.62202817971168e-05,-8.63707809195978e-06,-3.51486254625428e-05,-2.69594671855462e-16,5.84049396612563e-16,-5.32165399441156e-05,-3.96719599144489e-05,5.48189823167553e-13,0.70710678118655,3.77201547771437e-05,-1.02236744776831e-05,5.09384637758907e-14,3.24196319956521e-15,0.112712210466049,-6.53436857267209e-16,-1.91320015055705e-06,1.04563995925816e-05,-5.99235709263082e-06,-1.97717708036648e-05,-1.91745802069737e-15,-2.12550877135309e-06,1.32047150991355e-14,-4.48911772356455e-07,1.21437416991774e-15,-3.43994394167432e-15,-1.99099165946919e-16,-1.25112642439957e-06,1.93741969910855e-05,0.0154412316105751,-5.04796645155026e-06,6.58113970306756e-17,-3.84874871525369e-16,-1.29073076521772e-15,-5.59973925597392e-07,-1.03518800448321e-15,-1.72714014734338e-16,2.20222043649969e-15,-7.21586081336662e-16,0.00269495204998927,2.60414750717321e-15,1.04365721225373e-15,-6.49973448009151e-16,-1.60751850441635e-15,-6.66554073588816e-15,4.83675195612387e-15,2.17835810199013e-15,-1.29135225012107e-15,-1.10897364775083e-15,-3.11646664789226e-15,6.96684924530486e-13
"t210",0.0186880175230297,-0.131637359310428,0.0436659555707362,-0.171529435430578,0.259287671352674,0.0555874243451279,-0.108294475030925,-0.00101881951241904,0.0187314679986034,-0.000387943626771864,-0.00583561777281365,0.000884325305281312,-0.0130781010333173,-0.000285233428333657,-0.000171804673280771,0.00197909815522475,-0.00636831060912589,-0.0128815237531947,0.00180746043407816,7.19924563310094e-05,-1.78852361343281e-07,0.00578383066295827,9.30115493098974e-05,-0.000174206805096532,6.76341297003726e-05,0.00175065651510401,-3.49270023845564e-05,0.00114683426082488,-9.51773201975742e-05,0.000157905356705616,-0.000634595678333218,-6.19352540518691e-05,0.000106929305204294,5.2878038561004e-05,0.000233500751422832,8.90292037056057e-05,-2.96149547905583e-09,0.000142017021826823,-4.0293102720498e-05,-3.64584815960287e-06,-8.55402834564901e-20,0.000377313017021052,0.000149121038991483,-0.000199362129560919,-0.0608579379597188,2.43123415800738e-05,0.000113244759678768,-3.0067024725974e-06,1.89990655121582e-15,2.92586246999462e-06,1.22512179007285e-06,5.32727415624116e-06,2.24968604382462e-15,-4.12965527249253e-15,1.51031480332915e-05,2.35012838667149e-05,3.47309028729499e-15,-1.23624988669299e-14,-4.77686277052865e-05,1.33860276575232e-05,-9.62456560927359e-15,-3.40238354995144e-15,-0.903531901068136,-3.48061768251156e-14,-4.56787821089468e-05,0.000104993454058831,-1.83681228839277e-05,-3.88632308810976e-05,-1.38093914095232e-14,-3.17651199145268e-06,-3.13846171273724e-14,-6.08849803390577e-07,-4.01966615758808e-15,-1.98127879960344e-15,-8.29186193953352e-15,-1.69708449568387e-06,2.63655054255581e-05,0.194566928424201,-2.17795482677972e-06,3.54599946851101e-15,-5.7463675164106e-16,-3.54776927693854e-15,-4.24420185177671e-07,5.54866994390325e-16,-5.42956296410884e-16,8.68519614532792e-15,1.0155238394611e-15,0.0143283976693838,3.18462536534358e-15,-2.5793913044999e-15,-1.61649399330139e-15,-1.35760920777305e-15,-5.38046402968181e-15,5.95790754149635e-15,2.62750354836253e-15,-3.18349140462767e-15,-1.27505972692044e-15,-3.05746871448618e-15,6.96937403384626e-13
"t231",0.0187610168185845,-0.132502278930146,0.0441607168450969,-0.174246730750313,0.265493887829023,0.057019455056704,-0.111862836894879,-0.00105852795131718,0.0197125407068398,-0.00041223217294936,-0.0063843955233021,0.000969891252995008,-0.0143694288294384,-0.000314801479089324,-0.000191015212463299,0.00221624338554893,-0.00720806260405665,-0.0148547718088633,0.00209112839829437,8.3316029196476e-05,-2.10101465347335e-07,0.00685206911241744,0.000111953509654448,-0.000210209760948242,8.35837271560321e-05,0.00219755613857847,-4.38440257569861e-05,0.00146009727504034,-0.000122876830751332,0.000210070095184606,-0.000865298919800615,-8.45531546827419e-05,0.000148750937583339,7.68505238855727e-05,0.000365509453776388,0.000139488391938879,-4.66145337870126e-09,0.000264226552435945,-7.5327961772454e-05,-6.9023824657004e-06,5.08419220488775e-16,0.000783824883296415,0.000409538215920387,-0.000658015823672905,-0.203907504060965,0.000301349023006672,0.00160327365928559,8.94903140352925e-06,-6.19216146706932e-16,-1.64000715633371e-06,-3.90325541597322e-07,-1.62680951509755e-06,1.43753689635972e-16,3.52366314542502e-15,-2.89352162254337e-06,-2.17222186148847e-06,-1.84675515479863e-14,7.13431067813675e-16,1.44276200163193e-06,-3.78358516599345e-07,1.72046902072163e-15,4.52500200408856e-16,-0.0185182202179265,-2.55822535024808e-15,-1.47461665586301e-06,3.77902677878311e-06,-8.54763118666438e-07,-1.70190346132998e-06,2.69270514969806e-15,-4.27069638288422e-08,1.11161080340594e-14,1.5343727250158e-08,4.71973760880143e-15,1.4575877980976e-14,9.8982141297722e-15,1.89140680636728e-06,-2.97679329030029e-05,-0.89792986467243,-1.43996291238078e-05,-1.31429332692934e-14,-1.16018614796621e-15,2.68461920598221e-15,-3.10761811613832e-07,1.70084679101517e-15,2.18086648404604e-15,-2.58816447270189e-14,-9.21467932213488e-16,0.0659491762542683,-7.92414996189595e-15,-1.46265934128024e-14,-2.82576879402894e-15,2.46759108615527e-15,-3.2379945417685e-15,3.40861414974989e-15,3.17443708932653e-15,-3.23238544069189e-15,-1.60081365557044e-15,-4.18384321137481e-15,6.93735412714039e-13
"t257",0.0188001719903669,-0.13296585650428,0.0444255492556452,-0.175699442212958,0.268804689491674,0.0577830284537567,-0.113761995988139,-0.00107962949162596,0.0202321857401276,-0.000425066054751576,-0.00667235222716101,0.00101476402417483,-0.015046350457726,-0.000330285425938823,-0.000201058561392203,0.00234002672208289,-0.00764537156425844,-0.0158783218469962,0.00223817203754205,8.91854167188953e-05,-2.26250005593532e-07,0.00740317936994985,0.000121695905465252,-0.000228718345834339,9.17471374244577e-05,0.00242565710547439,-4.83953238318894e-05,0.00161959915220011,-0.000136947361341097,0.000236440149442857,-0.000981482034027051,-9.59415647402782e-05,0.000169750305418421,8.88141213251781e-05,0.000430772992747074,0.000164432117050476,-5.50134266262687e-09,0.000323566979976012,-9.23321595886441e-05,-8.48115795192523e-06,-6.57029252029208e-17,0.000979387191971426,0.000532576102639133,-0.000872820413023431,-0.270860604182362,0.000427409885530164,0.0022804716895891,1.41541894706803e-05,1.30753429001881e-15,-3.43906576430318e-06,-9.91578179919606e-07,-4.20308719164302e-06,-2.20250159449271e-16,6.98514551118017e-16,-9.21854743049109e-06,-1.04894393222168e-05,1.19040636439861e-14,-8.91249329514734e-17,1.59253383391836e-05,-4.41223990141963e-06,3.38796341614687e-15,-1.37036896353861e-15,0.201326922704889,8.92691789680704e-15,8.64157785443488e-06,-1.85572423268005e-05,2.25669387756118e-06,2.76080685054362e-06,5.35403388474968e-15,4.23926065155543e-08,-4.18415302405606e-15,-1.17177964979716e-08,-9.22865024921136e-16,-6.55634693251171e-16,4.85314165983665e-16,-4.63720462698842e-07,7.2690530620413e-06,0.161382144110124,1.95861741683868e-06,2.92405692395322e-16,1.28913175048287e-16,2.93565241454192e-14,2.22006763642618e-08,-1.23766529926099e-14,-7.15207863688121e-14,1.57612985200803e-13,-5.33677761274124e-15,-0.842358504642699,1.22761543475377e-13,1.98380250917706e-13,1.83692273418663e-14,-6.82445878213823e-15,-1.83931532241862e-14,2.39863318357514e-15,-1.94372718543387e-15,3.51035427760339e-15,-4.91602556582385e-15,2.31281406811174e-14,6.8152430176525e-13
"t270",0.0188107495019808,-0.13309100131861,0.0444969539556821,-0.17609067727549,0.269694549580674,0.0579881668530195,-0.11427134265868,-0.0010852809249894,0.0203709407624643,-0.000428485443356749,-0.00674859616269522,0.00102663920125759,-0.0152254258537983,-0.000334377910752371,-0.000203709188545621,0.00237264978930238,-0.00776038992615568,-0.0161466113500168,0.00227669230477721,9.07229086852617e-05,-2.30469153768146e-07,0.00754696327632001,0.000124231082353529,-0.000233532739999708,9.38627258348187e-05,0.00248463403223028,-4.9572086346906e-05,0.00166075599108322,-0.000140571022336993,0.000243204537168975,-0.00101119390053966,-9.88535340387611e-05,0.000175107807782297,9.18515599068207e-05,0.00044722167033404,0.000170718276287388,-5.71291710333152e-09,0.000338320248280051,-9.65583872399702e-05,-8.87321874269458e-06,-2.09541202817792e-16,0.0010276773463854,0.000562568763064836,-0.00092486503705287,-0.287075509031921,0.000457370902187794,0.00244129681163336,1.53578212903861e-05,-6.35569730203713e-16,-3.83310477203958e-06,-1.11975853849027e-06,-4.75117771653531e-06,-6.41936805658609e-16,3.81633293372388e-15,-1.05340516289478e-05,-1.21656397661568e-05,-3.73618224562819e-15,4.92684501035412e-15,1.87506721852083e-05,-5.19815644553235e-06,4.44613260779483e-15,2.180341800484e-15,0.242220466304113,8.53501319981972e-15,1.04871145260578e-05,-2.25998064157055e-05,2.79740233030355e-06,3.49758886530341e-06,7.53536519140269e-15,5.5409663450158e-08,2.28567165194704e-14,-1.56416025447257e-08,3.86552830337668e-16,-5.48750446175971e-15,-2.5424898532541e-15,-7.01480696369352e-07,1.1001759742635e-05,0.254307251847738,3.20364662443562e-06,4.24843990299177e-15,-8.98105029364367e-16,-1.70317627237008e-14,-9.36889675123764e-08,5.49816249326319e-15,3.82731501585777e-14,-5.50180381791209e-14,9.22611541018718e-16,0.378062835194778,-4.38267313524056e-14,-8.38692816136414e-14,-1.13007518616266e-14,-2.74417910998623e-15,5.15878666140606e-15,4.68545459665362e-15,-7.52796029644208e-15,-9.96337996209861e-15,2.52201318050146e-14,-1.4987381264026e-14,0.707106781187255
"t271",0.0188107495019808,-0.13309100131861,0.0444969539556821,-0.17609067727549,0.269694549580674,0.0579881668530195,-0.11427134265868,-0.0010852809249894,0.0203709407624643,-0.000428485443356881,-0.00674859616269523,0.00102663920125738,-0.0152254258537983,-0.00033437791075253,-0.000203709188545566,0.00237264978930227,-0.00776038992615588,-0.0161466113500167,0.00227669230477711,9.07229086859317e-05,-2.30469153600998e-07,0.00754696327632037,0.000124231082354137,-0.000233532739999589,9.38627258343927e-05,0.00248463403223031,-4.95720863472358e-05,0.00166075599108395,-0.000140571022337619,0.000243204537169337,-0.00101119390053963,-9.88535340390647e-05,0.000175107807782547,9.18515599064703e-05,0.000447221670334027,0.000170718276287347,-5.71291615739684e-09,0.000338320248280533,-9.65583872407104e-05,-8.87321874276917e-06,-2.31089644840068e-17,0.0010276773463871,0.000562568763064907,-0.000924865037053914,-0.28707550903192,0.000457370902188742,0.00244129681163279,1.53578212884536e-05,-1.21843681813187e-15,-3.83310477336142e-06,-1.11975853946402e-06,-4.75117771682942e-06,-5.05374573050853e-16,-1.84580449186441e-15,-1.0534051629003e-05,-1.21656397665605e-05,4.79171836227379e-15,9.43919909402397e-16,1.87506721845349e-05,-5.19815644282398e-06,3.69471066860507e-15,1.62935961559518e-15,0.242220466304116,9.73751549331407e-15,1.04871145220208e-05,-2.25998064157498e-05,2.79740232842654e-06,3.49758886862297e-06,-3.12277584508528e-15,5.54096641469688e-08,1.02695629777827e-14,-1.56416020045833e-08,-3.98883091706269e-16,-7.05860287140486e-15,-3.44343841857803e-15,-7.01480699178931e-07,1.10017597420155e-05,0.254307251847746,3.20364662408952e-06,6.63494606052243e-15,3.1986235943986e-15,-1.80748873731281e-14,-9.36889681637026e-08,3.29008792824573e-15,2.57715703153404e-14,-7.55016529834551e-14,2.48446261838714e-15,0.378062835194808,-5.57554798527967e-14,-8.90952808733961e-14,-5.23975358334616e-15,6.17828573726346e-15,-3.30541315383498e-15,9.34064240528176e-15,1.5882477475405e-14,-3.96648035567952e-16,-2.42407468684522e-14,-1.62502599545371e-14,-0.707106781185841
"t115",0.0150776898819996,-0.0885672387133777,0.018812366241926,-0.0347805709329215,-0.0434315218243292,-0.0128888736857235,0.0244824926474095,-0.00256766256335177,-0.0243376062183447,0.00223141397378301,0.0521259852732419,-0.00725968987712564,0.0804079050075492,0.00790367160615008,0.0034559671892913,-0.0458297170614177,0.201061214834355,0.91736494061821,-0.159439225095302,-0.00649011327874123,-0.000252244764071601,0.229720366630362,0.00810635062102869,-0.013574524640201,0.00289209204190908,0.0606035695587917,-0.00120877301253667,0.0345196636752389,-0.00257100537014047,0.00359228116956207,-0.0130201057369436,-0.000486877810517515,0.00090808604718571,0.000903664119773944,0.00346068002663498,0.00131751438811642,-4.34974657294052e-08,0.00164341043122189,-0.000463165497581629,-4.11767451552547e-05,-9.7697575861214e-17,0.00370873952900717,0.000720922454287213,-0.000111377296863378,-0.00998608523536991,-0.00180308903958649,-0.00550442164896222,-0.000260203361780683,-4.23086667860106e-16,-0.000185015303637524,-2.52087830192867e-05,-0.000102808714751214,-6.22381782951282e-18,6.49999463060252e-16,-0.000157858210690235,-0.000116489579771734,-1.92993144224703e-16,-4.14614798648316e-16,0.000102967364495339,-2.77520145495395e-05,1.6413902747676e-15,1.46634367154219e-16,0.00104606713274169,-1.25181400370751e-16,-2.5324047471544e-05,7.86001339445284e-05,-2.79529376462152e-05,-4.38614197824015e-05,-5.00939105079255e-16,-8.66884499165169e-06,3.30985239216375e-15,-1.810903812054e-06,-4.1021583163513e-17,-2.15417047949827e-16,-6.53804946897108e-16,-4.85748442734917e-06,7.51869436603895e-05,0.000230478896206532,-2.11007583152748e-05,2.80087860714044e-16,1.52280175286771e-16,-1.45466643158321e-15,-2.27023362822416e-06,-3.60022968534048e-16,-6.91099832259012e-16,1.27114598512187e-15,-6.51665320489139e-16,5.10529248687027e-05,3.5853874148079e-15,1.40606812066795e-15,-4.52907314473436e-16,-3.9398479446003e-16,-5.05917563474033e-15,5.07488136294371e-15,2.30607046903938e-15,-2.73421683244375e-15,-1.47789649080154e-15,-3.2533004953115e-15,6.97813986689368e-13
"t150",0.01698180781024,-0.109226510319614,0.0266110206028715,0.232201126145258,0.0509672498059752,-0.00647175569714448,-0.0099025797880851,0.00576717680258652,0.00421694326697513,-0.000861354465926305,0.00205954218881826,-0.00118946929210061,0.0109426388432106,0.427855289736182,-0.00128377408293548,0.00436021406885568,-0.0196378767437229,-0.0241575031291313,-0.0669142381594743,-0.000222627209906117,-5.49795748975493e-06,0.00129107378456821,0.000585774465171842,-0.000262764542621546,0.000394220244195935,0.00526070297057793,-0.000101124425456794,0.0620136580168903,-0.00303824932794695,-0.000119044607175817,-1.11481011897206e-05,-5.46040662850451e-07,4.82335444459108e-06,2.9227892480648e-05,0.00818494118461931,-0.000633565231652304,1.81231224764951e-09,-0.000302924079280088,-3.69957844661349e-07,2.01610451446959e-07,-4.4597531903685e-16,-0.000123154867860794,-0.000112755772397025,2.57763260808749e-05,0.0010631825326495,0.852642321027925,-0.0275823904564389,-0.00017136405540177,-4.52718802552764e-15,-7.69885667762567e-05,-9.7801517167224e-06,-3.97255728273642e-05,-7.88499951085065e-17,3.6502581745459e-16,-5.8849145713948e-05,-4.19971233349071e-05,-1.72255449284832e-15,-9.6242279503598e-16,3.62707666706324e-05,-9.76818676987176e-06,1.01217037216054e-15,-1.9645538703297e-15,0.000137303387947608,-6.08148306896185e-16,-8.68129014248651e-06,2.68706370534208e-05,-9.4537679156855e-06,-5.62304171955285e-06,1.03646002216748e-15,-2.87574805342247e-06,6.23112672570869e-15,-5.97829507009962e-07,4.82759413778095e-17,3.67741034796987e-16,-3.34978934729809e-16,-1.57851262215468e-06,2.44321457267739e-05,2.88358019821865e-05,-6.82583746412756e-06,3.4844977192447e-16,2.56249716745892e-16,-1.31178257295422e-15,-7.22283652190756e-07,-4.07494501396966e-16,-1.59722104621608e-16,5.13162066009816e-15,-9.64215807330934e-16,6.3107125735573e-06,3.6850928070335e-15,1.30040166712213e-15,-5.60330568529234e-16,-6.5480702949381e-16,-5.2318436170297e-15,5.27207184807712e-15,2.38472852652057e-15,-2.53973099423445e-15,-1.54986515571332e-15,-4.53290164389459e-15,6.98397597541056e-13
"t242",0.0170909643273315,-0.110411045722078,0.0271113968727704,0.238337276379585,0.0530214690740399,-0.00675309802564048,-0.0104578705123638,0.00615244762044568,0.00460167494771316,-0.00095647977211625,0.00241503789198923,-0.00140146603190974,0.0129380019002326,0.510293266571585,-0.00155347681756452,0.00535242751924077,-0.0246368743314097,-0.0315170893622211,-0.0879118952292531,-0.000292675873775031,-7.46873635925931e-06,0.00178756700452704,0.000841407374644676,-0.000379677214055796,0.000603846920978682,0.00838798984005879,-0.000161248840602819,0.102686679827008,-0.00522959510073194,-0.000223943177103178,-2.27047642482013e-05,-1.11660258843714e-06,1.0530773392411e-05,7.57387423593931e-05,0.031048157750806,-0.0024170571776324,7.12038539157355e-09,0.0153739157887341,1.34294241797051e-05,-4.19261618789632e-06,-1.30818513155722e-16,0.000620437726946524,0.000176827982942959,-2.82860242263367e-05,-0.00113959246717552,-0.367465655453255,0.0114627997642166,1.47110936878022e-05,2.46780994438226e-15,-1.22740809753537e-05,-2.12495762959189e-06,-8.77557358758177e-06,8.87980313231582e-16,-2.12345459841852e-18,-1.50014513146145e-05,-1.21818992385084e-05,-1.03957608077453e-15,4.46074965683046e-16,1.14896184209814e-05,-3.10337948655836e-06,1.19728306879512e-15,9.46101438123514e-16,4.73790937278527e-05,7.16029757608546e-16,-3.07401334805852e-06,9.60568558945988e-06,-3.52038613588046e-06,-2.17568901011694e-06,-3.33267115680042e-15,-1.15845969286018e-06,3.30291349825984e-15,-2.45864990850547e-07,-3.06378519461782e-16,-3.05175528035307e-15,-6.91447203303911e-16,-6.96845284651336e-07,1.078774912345e-05,1.28983572001277e-05,-3.08320561234714e-06,5.78678081375635e-16,1.866665385687e-16,-3.12681276986947e-15,-3.57534729363767e-07,2.1242164064932e-13,-0.707106781186548,-8.60823809941165e-13,-1.11046524686482e-14,3.19341717732629e-06,2.80748334066092e-15,1.1493917268481e-14,6.30188372368929e-15,1.26311791034385e-15,-3.67276541306481e-15,5.73091602377953e-15,4.76191349350223e-15,-3.28273462957016e-15,-1.28143495148451e-15,-5.26201931675862e-15,7.03608217653305e-13
"t243",0.0170909643273315,-0.110411045722078,0.0271113968727704,0.238337276379585,0.0530214690740399,-0.00675309802564046,-0.0104578705123637,0.00615244762044571,0.00460167494771322,-0.00095647977211632,0.002415037891989,-0.00140146603190965,0.0129380019002328,0.510293266571585,-0.00155347681756459,0.00535242751924092,-0.02463687433141,-0.0315170893622213,-0.0879118952292531,-0.000292675873774731,-7.46873635899018e-06,0.00178756700452729,0.000841407374645051,-0.000379677214055256,0.000603846920978775,0.00838798984005866,-0.000161248840602852,0.102686679827008,-0.00522959510073219,-0.000223943177102932,-2.27047642478891e-05,-1.11660258896276e-06,1.05307733926356e-05,7.57387423584348e-05,0.0310481577508054,-0.00241705717763274,7.12038563008315e-09,0.015373915788734,1.34294241798337e-05,-4.19261618841321e-06,4.39282731819116e-17,0.000620437726946544,0.000176827982943062,-2.82860242263844e-05,-0.00113959246717633,-0.367465655453255,0.0114627997642173,1.4711093686707e-05,1.5744273542544e-15,-1.22740809767073e-05,-2.12495762979608e-06,-8.77557358935212e-06,-6.83172234163371e-16,9.55443904140775e-16,-1.5001451316692e-05,-1.21818992397746e-05,1.95455663876144e-15,5.01586116659249e-16,1.14896184227337e-05,-3.10337948740653e-06,1.23254688106557e-15,1.07633556415543e-15,4.73790937257174e-05,-3.32507659399072e-16,-3.07401334774776e-06,9.6056855879181e-06,-3.52038613514377e-06,-2.17568901040502e-06,1.89231595261744e-15,-1.15845969311691e-06,2.05391259555654e-15,-2.45864990753985e-07,4.11949036595513e-16,2.33085526347933e-15,-6.38282300794141e-16,-6.96845283129979e-07,1.07877491210782e-05,1.28983571963726e-05,-3.08320561448436e-06,9.79237133839171e-17,9.58020954976536e-17,4.48671199842878e-16,-3.57534706184493e-07,-2.12996342934139e-13,0.707106781186547,8.6089617885972e-13,1.06607718314184e-14,3.19341705758676e-06,4.81129760779019e-15,-8.70225694432376e-15,-7.34018209424041e-15,-2.1721646148145e-15,-6.36370023885892e-15,4.60209190627822e-15,-2.03911117330401e-16,-1.90924302355155e-15,-1.5399648802658e-15,-5.10611716058121e-16,6.91034941548331e-13
"t194",0.0171442379226246,-0.111016501495841,0.0273900707288995,0.242059857662858,0.0544919539900571,-0.00696266236429892,-0.0109465688320936,0.00654820466720531,0.00519790422359546,-0.00117909037339595,-0.00488485793596099,0.00141869500359906,-0.00853708593638843,-0.117514803343506,-2.85891487211396e-05,0.000381169943189983,0.00125000956542918,0.0742443449155376,0.519571525358511,0.00195472381658187,-1.88178557317651e-05,0.00336983208258515,0.00126570108703861,-0.000559779993330413,0.000799641142898869,0.0108117815093187,-0.000207838094648643,0.131421019116047,0.00580456416853886,-0.000284936503047408,-2.97444535998764e-05,-1.46538028157053e-06,1.42720753299339e-05,0.000115940191771229,0.123405356872369,-0.010092198443241,4.20177902791138e-08,0.304386229596618,0.00161922914848843,3.86089284222541e-05,-1.90300636683993e-16,-0.000418816150912803,1.38707858229292e-05,-3.76305259637859e-06,-0.00015346483731816,-0.00527114317404765,1.59095327262376e-05,-2.49088906127097e-05,-8.27655308938406e-16,-2.20173369846602e-05,-3.16033137135762e-06,-1.29315171505143e-05,-5.50741755085451e-16,2.25937458473884e-16,-2.0487272214728e-05,-1.56252158093115e-05,2.98813907870293e-15,-5.71717877387638e-15,1.41675658144201e-05,-3.82187006786888e-06,-5.4851707310559e-16,9.85066105590428e-15,5.63783506466205e-05,-0.707106781186547,-3.62071233607042e-06,1.12722437190015e-05,-4.06762431514017e-06,-2.47902631623777e-06,-2.36133537153615e-15,-1.30151004000966e-06,1.24830701331291e-14,-2.74301079770524e-07,4.78173039105516e-17,-3.0537613640995e-16,-1.33442553464054e-15,-7.60021296327306e-07,1.17650961616917e-05,1.40116908213819e-05,-3.33956966023256e-06,-1.20831574505966e-16,3.18035339565779e-16,-3.42920936616079e-16,-3.77510370084738e-07,-2.41739344905977e-16,-1.39752121755611e-15,-1.82490700678608e-15,-5.33107477558122e-16,3.35289319839391e-06,3.74322907950797e-15,1.59546506525732e-15,-3.84171358719065e-16,-3.04097393802043e-16,-5.20427342431224e-15,5.30325914003453e-15,2.4629778292467e-15,-2.34440474487966e-15,-1.6181380274633e-15,-2.21208988886313e-15,6.97111478461814e-13
"t195",0.0171442379226246,-0.111016501495841,0.0273900707288995,0.242059857662858,0.054491953990057,-0.006962662364299,-0.0109465688320935,0.00654820466720529,0.00519790422359532,-0.00117909037339588,-0.0048848579359606,0.00141869500359908,-0.00853708593638846,-0.117514803343506,-2.85891487212608e-05,0.000381169943190294,0.00125000956542963,0.0742443449155374,0.51957152535851,0.00195472381658189,-1.88178557314478e-05,0.00336983208258557,0.00126570108703886,-0.00055977999332996,0.000799641142898727,0.0108117815093187,-0.000207838094648634,0.131421019116047,0.00580456416853876,-0.000284936503046833,-2.97444536007316e-05,-1.46538028126945e-06,1.42720753303993e-05,0.000115940191771612,0.123405356872369,-0.0100921984432413,4.20177899030889e-08,0.304386229596617,0.00161922914848826,3.86089284223516e-05,-1.4247435787839e-16,-0.000418816150912581,1.3870785822604e-05,-3.76305259633378e-06,-0.000153464837319188,-0.00527114317404684,1.59095327267065e-05,-2.49088906109079e-05,1.20674164751316e-15,-2.20173369837909e-05,-3.1603313704511e-06,-1.29315171504068e-05,7.20911952278706e-16,7.116600317474e-16,-2.04872722180008e-05,-1.56252158099768e-05,-4.36361901248678e-15,5.35035700295757e-15,1.41675658153744e-05,-3.82187007245951e-06,2.97188922550143e-15,-1.01140491886364e-14,5.63783505917772e-05,0.707106781186548,-3.62071233030183e-06,1.12722437405553e-05,-4.06762432515158e-06,-2.4790263241846e-06,1.12198936834731e-15,-1.30151004130453e-06,-6.32133234645949e-15,-2.74301077921028e-07,2.90000718472639e-16,-3.69119617664721e-16,4.03437442325409e-16,-7.60021297019011e-07,1.176509616189e-05,1.40116908189301e-05,-3.33956965845772e-06,1.02717293036149e-15,8.57089406624559e-17,-2.31946483749142e-15,-3.77510369292219e-07,-2.91255914791721e-16,-4.6770943135112e-16,4.66295879336718e-15,-1.99038847955276e-16,3.35289320029569e-06,3.61113187719008e-15,1.01607499263978e-15,-4.78123619888841e-16,-4.78836080162421e-16,-5.24697114079718e-15,5.01278890098279e-15,2.41064976903985e-15,-2.79388190935815e-15,-1.42486776259201e-15,-3.85313829713731e-15,6.9847844055894e-13
"t124",0.0170110324242912,-0.109563335901629,0.026770056136078,0.234378382097579,0.0518664504193745,-0.00660119794441363,-0.0102165199853761,0.00602973750655986,0.00464023670894682,-0.00102690001151045,-0.00391850445366107,0.00112941071346447,-0.00675834531819391,-0.0917258825742018,-2.17850485526565e-05,0.000283433864021307,0.00089441134595975,0.0493468549350217,0.340593534858529,0.00127973086794342,-1.15106338555596e-05,0.00197671826740161,0.000680782852079375,-0.000296678537924281,0.000361406878142141,0.0043022267250914,-8.26859133645529e-05,0.0455743372912288,0.00170755402950121,-4.92676240771345e-05,-1.90791802854272e-06,-8.58686731402658e-08,-4.43674993815494e-07,-3.06413552319423e-05,-0.0939645748565922,0.00775607147857244,-3.38210449075797e-08,-0.883576515519354,-0.0048565279592546,-0.000126174725230301,-1.99157615466452e-16,0.00267324097137634,0.000295409735983331,-3.47513466608712e-05,-0.00136875601509436,-0.0225685283359276,6.70642621582185e-05,-7.59409465338824e-05,-5.9906874817766e-16,-5.30299285472942e-05,-7.1989418582156e-06,-2.93536001749429e-05,-1.46970018753824e-16,9.08298793007727e-16,-4.49990797091327e-05,-3.31683735653964e-05,8.82818277342405e-16,9.17818930885627e-18,2.93017416528812e-05,-7.89733078481103e-06,1.58505241201926e-15,3.16940801841763e-16,0.00011342220846261,-4.24132656790431e-16,-7.22000368255078e-06,2.24033440902805e-05,-7.96686489574738e-06,-4.78640761018307e-06,6.31678771440468e-16,-2.47375191568293e-06,4.70803951380105e-15,-5.17033006493928e-07,-2.25196631501321e-16,-9.81998092831769e-17,-8.26154765435204e-16,-1.39029410352773e-06,2.15199301553604e-05,2.5482615409655e-05,-6.04704465984518e-06,3.72577104009391e-16,6.16258412156306e-17,-1.45352459957785e-15,-6.54563782949604e-07,-5.81765546782069e-16,-9.49278390993689e-16,1.22434665777121e-15,-6.88270155977714e-16,5.74939532560669e-06,3.43283063499321e-15,1.524873813742e-15,-3.93392988291655e-16,-6.45731387481123e-16,-5.0072067300526e-15,5.23834406157403e-15,2.4493463967591e-15,-2.72009396725311e-15,-1.3271201466979e-15,-3.54416057987278e-15,6.97330279601522e-13
"t170",0.0170095106665949,-0.109556491340797,0.0267751329387076,0.234544268220636,0.0519951852692078,-0.00662140692942034,-0.0102792156701335,0.00608944681824739,0.00475108210223427,-0.00107065645463678,-0.00479716982641283,0.00142504849580453,-0.00874527683219603,-0.12830816986369,-3.74416883528838e-05,0.000742136238340891,-0.00540085433385596,-0.0128700172704356,-0.0593999970685455,-0.0002148329102265,7.2274873145635e-08,1.4106801379119e-05,-2.93858498056069e-05,1.72703549264809e-05,-0.000106840338421396,-0.00243477910654402,4.68357436797521e-05,-0.0431060431739088,-0.0266076069143167,0.000191674804617728,2.84831858218607e-05,1.42600946300954e-06,-1.77151528787287e-05,-0.000248713532171418,-0.926115639916681,0.0776272186365556,-3.69494959429978e-07,0.178799470780485,0.00070335530709175,1.68780555005305e-06,1.19794887587792e-16,0.00132986037816316,0.000253190647751326,-3.19814482814071e-05,-0.0012643713242739,-0.0227273953952063,6.7659060293193e-05,-7.9262812327407e-05,-8.5863320365191e-17,-5.62771531641237e-05,-7.65792832873365e-06,-3.12290348249724e-05,1.71870652799932e-16,-7.92363585115618e-16,-4.79236071345336e-05,-3.53517129008239e-05,1.42403465449531e-15,1.66224741487347e-16,3.12427678393728e-05,-8.42055792174138e-06,9.49044252502665e-16,1.53568078510519e-16,0.000120961063487804,3.00142363544306e-16,-7.70006135133398e-06,2.38929925461215e-05,-8.49635192667837e-06,-5.1040566697446e-06,-5.87460771612987e-16,-2.63747147634733e-06,2.23085439010617e-15,-5.51184626247366e-07,-3.57670340264402e-16,-3.68166157874542e-16,-1.05641577885649e-15,-1.48121071185096e-06,2.29271522629258e-05,2.71448478484873e-05,-6.44070219761051e-06,2.6595699783835e-16,3.06624524247968e-16,-1.07894212484499e-15,-6.96087015275184e-07,-5.61617964248288e-16,-1.23437673521967e-15,1.40308463966029e-15,-1.79565479049485e-16,6.11104392903198e-06,3.35629276976243e-15,1.27131942564331e-15,-5.22104685185167e-16,-5.14987453354101e-16,-4.90561580586514e-15,5.03181589182819e-15,2.50851373166882e-15,-2.59970927818448e-15,-1.26514926566366e-15,-3.17108383149931e-15,6.97821528204052e-13
"t221",0.0172700517124127,-0.112418935164611,0.0280126755809218,0.250081291627968,0.0574451343627763,-0.00737644008120583,-0.0118449045919473,0.00722893853491225,0.00605836771147302,-0.00145017311976113,-0.00815687528135942,0.00248087606328633,-0.0154960800478426,-0.238016319704747,-7.54460592601696e-05,0.0016381322586473,-0.0140044731040483,-0.0498243742372988,-0.253139458343406,-0.000924175860010037,6.18096484980992e-07,0.000307120447922825,0.000287449644619807,-0.000135075262654396,0.000248867298863403,0.00308843583795143,-5.93471618656323e-05,0.0143541673425,-0.511499015547622,-0.000227361817251398,-2.2082793570407e-05,-1.08684429228094e-06,1.05683570785183e-05,9.12398414654924e-05,0.156090332601306,-0.0129519260109322,5.85411455414566e-08,0.00410964879960906,1.83700789939352e-05,5.73928779266633e-08,5.86785624268392e-17,0.000107225037126977,3.95801937329024e-05,-5.83743200092092e-06,-0.000232927925495746,-0.00550320282209798,1.65103379973525e-05,-2.32651984388423e-05,-1.29069012488356e-16,-1.95254757212968e-05,-2.77752533291139e-06,-1.13592004328651e-05,6.07715001014519e-16,7.89761369401152e-16,-1.79128380028341e-05,-1.36028741155027e-05,-1.06138058023191e-15,3.12576534317819e-15,1.22976508596372e-05,-3.31711653537256e-06,2.2743421819022e-15,-1.78942225412602e-17,4.88010609088395e-05,-6.65288085667612e-16,-3.13153158403283e-06,9.74640639019528e-06,-3.51265107185826e-06,-2.1384092639036e-06,3.66053561358929e-15,-1.12144117948537e-06,3.60128593612785e-15,-2.3622362877818e-07,-3.07095182789895e-15,0.707106781186547,-3.46933876681653e-14,-6.53448505909638e-07,1.01153153745989e-05,1.2043755354339e-05,-2.86999517816019e-06,1.86516329627531e-15,-3.00119930800131e-17,6.9884399769343e-16,-3.24016611618512e-07,2.74250126586751e-16,-3.5803999434219e-15,1.4134559157528e-15,-3.77251318091718e-16,2.87734074445543e-06,4.25905454572239e-15,1.01312345378852e-15,-4.85937473944868e-16,-5.05719643855764e-17,-5.0509036673702e-15,5.13063573892745e-15,2.6438736305995e-15,-2.62098262763395e-15,-9.2021805295896e-16,-3.44354064119255e-15,6.9705971289739e-13
"t222",0.0172700517124127,-0.112418935164611,0.0280126755809218,0.250081291627968,0.0574451343627762,-0.00737644008120587,-0.0118449045919473,0.00722893853491224,0.00605836771147304,-0.00145017311976114,-0.00815687528135917,0.00248087606328617,-0.0154960800478427,-0.238016319704746,-7.54460592600875e-05,0.00163813225864734,-0.0140044731040483,-0.0498243742372988,-0.253139458343406,-0.000924175860009908,6.18096485237736e-07,0.000307120447922411,0.000287449644620139,-0.000135075262653948,0.000248867298863517,0.00308843583795103,-5.93471618656577e-05,0.0143541673425002,-0.511499015547622,-0.00022736181725117,-2.20827935708493e-05,-1.08684429231662e-06,1.05683570792429e-05,9.12398414655882e-05,0.156090332601306,-0.0129519260109324,5.85411456838396e-08,0.00410964879960868,1.83700789933883e-05,5.73928783566673e-08,1.19972285316208e-16,0.000107225037126221,3.95801937326548e-05,-5.83743200067152e-06,-0.000232927925495164,-0.00550320282209714,1.65103379974407e-05,-2.32651984390445e-05,5.90190708738353e-16,-1.95254757205446e-05,-2.77752533254545e-06,-1.13592004323073e-05,-8.97939069278701e-16,5.39961188860495e-16,-1.79128380033121e-05,-1.3602874114004e-05,9.74147017206008e-17,-3.12010653193277e-15,1.22976508603007e-05,-3.31711653571735e-06,4.29357309179937e-16,4.10572056467177e-16,4.8801060906395e-05,2.50645914677891e-16,-3.13153158281496e-06,9.74640639090205e-06,-3.51265107114173e-06,-2.13840927299717e-06,-4.08326998302237e-15,-1.12144118227973e-06,4.78436734674403e-15,-2.3622363206188e-07,3.2738263901809e-15,-0.707106781186548,3.3514294208072e-14,-6.53448505979048e-07,1.01153153914973e-05,1.20437553305118e-05,-2.86999519166244e-06,-1.01151393696028e-15,3.15821976685094e-16,-3.69291973323292e-15,-3.2401660914995e-07,-7.79177611840151e-16,1.70703723885866e-15,1.24692246205903e-15,-3.87381770831064e-16,2.8773407398806e-06,3.07410972475461e-15,1.61074609024093e-15,-5.68003358450353e-16,-8.05810637449925e-16,-5.49619677832816e-15,5.18533513306506e-15,2.0098428083319e-15,-2.54467578814857e-15,-2.06050072615871e-15,-3.72977001472875e-15,6.98905458716673e-13
"t238",0.0172933317267253,-0.112676321368887,0.0281252381259299,0.251510295506105,0.0579568191951134,-0.00744766711927245,-0.0119954677917527,0.00734035607762081,0.00619127795328588,-0.00149000574266158,-0.00855085791991033,0.00260601950913486,-0.0163025807222449,-0.251389205069841,-8.02430458132113e-05,0.00175541049971889,-0.0151989909757262,-0.0556084046701676,-0.284186808403382,-0.00103810173186157,7.17120687688331e-07,0.000364739333573316,0.00036225040092573,-0.000172272554767036,0.000382336646748454,0.00648444511736036,-0.000124699584108854,0.109356123432473,0.482965905608457,-9.56203844184354e-05,-1.34069106932002e-05,-6.65915904523537e-07,7.18201086302037e-06,6.93291595391397e-05,0.127534377356395,-0.0105881761659745,4.79853999340769e-08,0.00354535226115595,1.58601035324223e-05,4.96482265232131e-08,-8.19013496552648e-17,9.38003578364604e-05,3.52136582966906e-05,-5.22201457436031e-06,-0.000208444168192877,-0.00498178719541634,1.49514244845769e-05,-2.12636766826132e-05,-1.22641464958713e-16,-1.80139320363979e-05,-2.56932862579651e-06,-1.05095681828258e-05,1.05478034535874e-16,1.61137813463548e-15,-1.66006979731755e-05,-1.2629263206175e-05,-1.42926157246172e-15,-6.81407279698396e-18,1.1433850611247e-05,-3.08427565445329e-06,2.03053734587004e-15,4.22879218544909e-16,4.54449910227878e-05,-1.1299673505243e-15,-2.91768587527949e-06,9.08262356099454e-06,-3.27628438714231e-06,-1.99625633315926e-06,-1.0451577814144e-15,-1.04791514993448e-06,2.0122792321331e-15,-2.20852172965471e-07,2.92513742455002e-16,1.88726554113972e-15,-8.33674997883689e-17,-6.12116559729269e-07,9.47555250168871e-06,1.12863319366689e-05,-2.69029190879815e-06,-1.19881130193575e-15,1.32262591553658e-15,-0.707106781186549,-3.04642074889243e-07,2.88542494471615e-15,6.59209728254065e-16,-3.09432481061961e-14,-1.44690469139576e-14,2.7074520285214e-06,4.62874206358103e-15,4.0568284245834e-15,3.51469305602298e-16,-3.90114992044617e-15,-2.64554614439079e-15,5.31866198709664e-15,2.99564927180547e-15,-3.83546717708434e-15,-1.32693756403368e-15,-3.79134124731664e-15,6.98178975209383e-13
"t239",0.0172933317267254,-0.112676321368887,0.0281252381259298,0.251510295506105,0.0579568191951134,-0.00744766711927248,-0.0119954677917526,0.00734035607762082,0.00619127795328588,-0.00149000574266151,-0.00855085791991018,0.00260601950913508,-0.0163025807222448,-0.251389205069842,-8.02430458133113e-05,0.00175541049971893,-0.0151989909757263,-0.0556084046701676,-0.284186808403382,-0.00103810173186146,7.17120687920009e-07,0.000364739333573385,0.00036225040092547,-0.000172272554767052,0.000382336646748264,0.0064844451173609,-0.000124699584109029,0.109356123432474,0.482965905608457,-9.56203844183076e-05,-1.34069106931742e-05,-6.65915904588739e-07,7.18201086251504e-06,6.93291595387107e-05,0.127534377356395,-0.0105881761659742,4.79853995733352e-08,0.00354535226115567,1.5860103532938e-05,4.96482267302562e-08,-1.16312298705946e-16,9.3800357836828e-05,3.52136582969375e-05,-5.22201457382978e-06,-0.000208444168193026,-0.00498178719541645,1.49514244851513e-05,-2.12636766823081e-05,-3.31729853922275e-16,-1.80139320368246e-05,-2.56932862541078e-06,-1.05095681817143e-05,1.35623912738658e-16,-1.37223129149136e-16,-1.66006979728724e-05,-1.2629263205858e-05,1.47813497327541e-15,-4.68250517792192e-16,1.14338506109864e-05,-3.08427565399303e-06,7.27419640005888e-16,-2.99941191612358e-16,4.54449910224449e-05,8.61495215635877e-16,-2.9176858756252e-06,9.08262356020121e-06,-3.27628438717414e-06,-1.99625633457444e-06,9.11610299141826e-16,-1.04791515022608e-06,5.30825383648903e-15,-2.2085217270242e-07,-8.94118425228306e-17,-2.36280943223373e-15,-1.30202354343044e-15,-6.12116558929054e-07,9.47555249834195e-06,1.12863319470582e-05,-2.69029190705474e-06,1.94858935549077e-15,-9.58498541897588e-16,0.707106781186546,-3.04642046268173e-07,-3.5010835762918e-15,-1.97756761557546e-15,3.38521431684896e-14,1.34639713858934e-14,2.70745208209126e-06,2.56110001267482e-15,-9.98735522027543e-16,-1.2565657861253e-15,2.9695984776942e-15,-7.71194625542562e-15,5.04530510894872e-15,1.75313824477804e-15,-1.41610227643459e-15,-1.57388987790555e-15,-2.52499310985366e-15,6.97068751725386e-13
"t219",0.0162953180487155,-0.101700770939206,0.0233721622827956,0.191749985163952,0.0369482976254381,-0.00453595594753493,-0.00595001969465982,0.00293846470474938,0.00114970749190621,-3.41906328912237e-05,0.00308232073793086,-0.000928446516508758,0.00551731363817272,0.0423475055536932,0.000377686494933662,-0.0025585404105015,0.0192310961657858,0.0332892424324781,0.0600120102344179,0.000172102401673138,1.80456053423676e-05,-0.00482501804502294,-0.00291677856421111,0.00137063885466415,-0.00323747034164564,-0.0592185437283472,0.0011388881864405,-0.951651766391797,0.0967603021616723,0.00764384161591277,-0.00691223646092043,-0.000235737927449756,0.000403653798970407,0.00109472867299112,0.113226508983185,-0.00784786696513309,-4.38198471227043e-10,0.0380545784285483,-0.000181884013659425,-2.87534251297605e-05,1.06029050286381e-15,0.00288817941965598,0.000546220976898156,-6.95386626347181e-05,-0.00275004432915993,-0.0267464491264234,-0.000632346811720396,-0.000183878553039006,-1.22932447821648e-16,-0.0001287673277094,-1.744707890586e-05,-7.11277209794636e-05,-1.65757608300563e-17,8.8112338127216e-16,-0.000108819128567124,-7.99810505568778e-05,-8.27539109407827e-16,-1.07036931469063e-16,7.04626296635427e-05,-1.8988898178502e-05,1.51263164418782e-15,4.10832100807446e-16,0.000271784099854609,2.05797105678625e-17,-1.72786029606113e-05,5.3588039456297e-05,-1.90122770934966e-05,-1.13941055875002e-05,1.99440973204976e-16,-5.87136519650824e-06,4.8017145815038e-15,-1.22509714683433e-06,1.19058201620856e-16,-3.38519648668805e-16,-8.67676884133228e-16,-3.2722081303766e-06,5.06484866272531e-05,5.98902129816873e-05,-1.41962786378776e-05,4.0498743842102e-16,-3.68383164630887e-17,-1.3509338382789e-15,-1.517776071249e-06,-2.98944122490807e-16,-6.51759618546107e-16,1.96109813023483e-15,-6.10071763358731e-16,1.32833904415848e-05,3.82732779757915e-15,1.54797781449122e-15,-5.36828821402713e-16,-5.94223841420447e-16,-5.22022490739151e-15,5.19623646958869e-15,2.23693598684682e-15,-2.77863105849387e-15,-1.45719602181183e-15,-4.0517607493028e-15,6.974850540833e-13
"t165",0.0237673245316627,0.00228413474979422,-0.0281552841992648,0.00297734975807995,-0.029207950132133,0.0628134271713935,0.00423512014591348,-0.0471254640862414,-0.00622085622355126,0.0168943250584324,0.0237728414594119,-0.0134648666365349,0.0372205096989789,0.0127681310939129,0.020849159401438,-0.0411461391596783,0.957676652477295,-0.23057571683925,0.0124358814800602,0.0655854544997431,-0.00185966806282554,0.011909476775458,0.011203952634,-0.00162392005213667,0.0155774802365329,0.0115953262295832,-0.000115732308544992,0.0216270103931033,-0.00159812200923601,0.0214017833576637,-0.00267658476584347,-9.23057304556357e-05,0.000181586108057096,0.00499423494295719,0.00290393167048772,0.00837597606416458,-2.39126769422541e-07,0.00112677770430442,-0.000784603474662122,-6.94779420698726e-05,-2.96472485536893e-17,0.0190041818250482,0.00356964043618729,-0.00013487189709296,-0.00237654183847038,-0.00114390718049395,-0.00132783226211107,-0.00129284403587626,-1.99130942334804e-16,-0.000901613738888558,-0.000122187509481278,-0.00049813840426862,-1.14160269556994e-16,4.94412002765001e-16,-0.000762222332588664,-0.000560288809316004,-2.48904058993926e-17,1.24265906071258e-16,0.000493597035480944,-0.000133018218666526,1.7264523539528e-15,1.61796123601343e-16,0.000274957450733829,-3.84683844436262e-16,-4.10193197556951e-05,0.000375643765839415,-0.000133229756098091,-1.16100717654071e-05,-1.35697174609003e-16,-4.11293409473293e-05,4.22014853618258e-15,-8.58090112393256e-06,-4.15268958927141e-17,-1.88852235855849e-16,-6.92499640169832e-16,-2.29061543057396e-05,0.000354549354807568,6.1705572571024e-05,-9.93616273474992e-05,3.72985826459472e-16,8.53744680457647e-18,-1.34396499382308e-15,-1.06068754302906e-05,-3.31755150167334e-16,-7.02907883155728e-16,1.66495452122354e-15,-4.9521301701093e-16,1.38493736416486e-05,3.61703345394995e-15,1.28478460663012e-15,-5.13956982863461e-16,-5.49127740014804e-16,-5.1644108070745e-15,5.16954510838266e-15,2.25235717819596e-15,-2.59576856862725e-15,-1.43801744127993e-15,-3.42736758992409e-15,6.97610042636264e-13
"t131",0.0342365700569357,0.028946723421952,-0.0556181621788113,0.00243351958172106,-0.0921757633881394,0.332313639160804,-0.016049151959545,0.150341966029779,0.00204791915366406,-0.0086004118852063,-0.00157284895623668,0.000802901432860424,-0.00205584482940103,-0.000580910238593308,-0.00106794771962857,0.000926036920859278,-0.0113723802646931,0.000361217275564091,-9.11896961115419e-06,0.000386158202158538,-1.27981634489869e-05,1.44488200944985e-05,-1.99216582614807e-05,4.0625484561944e-06,-0.000499048125119161,-0.000246836450067695,-1.36234681531574e-06,-0.000674989886050528,6.80860529505153e-05,-0.00354341608195359,0.000257544463211917,9.02817492590108e-06,-2.24514044023175e-05,-0.00219649477980511,-0.00139777693802808,-0.00698749067220965,2.04840502270016e-07,-0.00192648163707082,0.00141825008782591,0.000146577407204939,-4.3412596339267e-15,-0.917931387088485,0.0119737712250865,-0.000153466717645015,-0.00266290854566199,-0.000856537179485998,-0.000984233126284561,-0.00161701918928167,-6.88273304005948e-16,-0.000935248759813095,-0.00736413397553092,-0.000487791645021673,-8.39164005695105e-17,-1.05217442821132e-16,-0.000732217902092139,-0.00052358015566726,-1.32996983929605e-15,4.05600151702287e-16,0.000451572623092481,-0.00012160311551117,1.23361080006146e-15,4.29302564032163e-16,0.000119596365688564,4.50064264847041e-17,-1.77362922760733e-05,0.000332709678869034,-0.000116605144239411,-4.90254544066803e-06,1.92390524119659e-15,-3.51338004358015e-05,8.72912853111529e-15,-7.28109422186312e-06,-7.02701519079783e-16,2.27024779732985e-16,-5.5202738209291e-16,-1.89768377664129e-05,0.000293710943575076,2.49884543422169e-05,-8.1655817608909e-05,3.6209905758233e-16,-1.09596278365212e-16,-1.16709923931435e-15,-8.4268248839689e-06,-8.40039115760665e-16,-7.27614258585704e-16,6.9089691703562e-16,-5.89103079807164e-16,5.39616131218864e-06,3.64632479823961e-15,1.48322521865463e-15,-4.96926673758653e-16,-6.86850767358755e-16,-5.15483503687675e-15,5.15749908276195e-15,2.30700491406432e-15,-2.74321926327718e-15,-1.36522407129401e-15,-3.04176714051333e-15,6.96464512658543e-13
"t246",0.0349369065972622,0.0299567713369717,-0.0590514195536226,0.00264882331727136,-0.105079954040931,0.382925088910339,-0.0193140782503134,0.187914288968259,0.00280030423889934,-0.0126695045207359,-0.00303916943621099,0.00159443434596782,-0.00416675940352596,-0.00124096818115682,-0.0025055741492355,0.00240480725451976,-0.035188037836495,0.00169186584524499,-4.69678890405466e-05,0.00200732580698665,-0.000124765526660021,0.000282439437205067,0.000426859543801654,-6.52659422023396e-05,0.00234332337062091,0.000786814776313284,4.34052219271264e-06,0.0016607221409833,-0.000136366786975988,0.00503323712167741,-0.000293558170343614,-1.01908418206088e-05,2.19748612307976e-05,0.00162833647456718,0.000719531981429474,0.00358292984318607,-1.02993307103252e-07,0.000544282076327496,-0.000395189324945185,-3.94099128899893e-05,1.06771580973995e-15,0.193504131126407,-0.00138672374923211,1.27113224108669e-05,0.000214868059563774,6.87750544519494e-06,5.59548213870515e-06,-8.81944858988151e-05,6.45205690124052e-16,-8.75492281721393e-05,0.502072116647585,-0.000368848376136412,-4.80251937738316e-15,-3.50630692706357e-15,-0.000163921787482666,-0.000110138699170546,-2.43604439584258e-15,-2.83486627916567e-16,9.65862991723464e-05,-2.60350468601038e-05,1.87128096591585e-15,3.42793821159598e-16,2.65404137173135e-05,-2.68418631324848e-16,-3.99144048053896e-06,7.52826560521964e-05,-2.70527383430146e-05,-1.16706401246926e-06,2.77049712525935e-15,-8.61224813779203e-06,1.196959198424e-15,-1.81336195071185e-06,7.93907011044589e-16,-1.70866211850979e-16,-1.73148880646103e-15,-5.01100176605109e-06,7.75695563037415e-05,6.67517274691274e-06,-2.20040056027328e-05,1.19964701717248e-15,1.10087287164019e-15,1.23505143925498e-14,-2.4788282333134e-06,-4.07083821435045e-14,7.14645758763303e-15,5.66768347493334e-12,-0.707106781186548,1.62377022043275e-06,-1.82292012073652e-15,-3.87231740887715e-15,2.29353755605709e-15,-1.0118329300334e-14,-1.20456482580786e-15,6.73912505033083e-15,2.15653492864966e-15,-6.16512784307918e-16,-1.2401902678491e-15,-4.78120206667881e-15,6.96860410873223e-13
"t247",0.0349369065972622,0.0299567713369717,-0.0590514195536226,0.00264882331727137,-0.105079954040931,0.382925088910339,-0.0193140782503134,0.187914288968259,0.00280030423889937,-0.0126695045207359,-0.00303916943621072,0.00159443434596771,-0.00416675940352605,-0.00124096818115678,-0.00250557414923547,0.00240480725451906,-0.0351880378364949,0.00169186584524528,-4.69678890405385e-05,0.00200732580698676,-0.000124765526660104,0.000282439437204899,0.000426859543801605,-6.52659422022805e-05,0.002343323370621,0.000786814776313472,4.34052219278522e-06,0.00166072214098307,-0.00013636678697568,0.00503323712167737,-0.000293558170343423,-1.01908418209122e-05,2.19748612312913e-05,0.00162833647456712,0.000719531981429735,0.00358292984318603,-1.02993307024793e-07,0.000544282076327072,-0.000395189324945044,-3.94099128899326e-05,7.07366071901127e-16,0.193504131126406,-0.00138672374923198,1.27113224108194e-05,0.000214868059563963,6.87750544620827e-06,5.59548213848892e-06,-8.81944858990989e-05,1.39460623174613e-15,-8.75492281724471e-05,0.502072116647584,-0.000368848376136766,-3.93876346745378e-15,-2.8666015565062e-16,-0.000163921787483259,-0.00011013869916967,-1.41949643892017e-15,1.05091430572375e-16,9.65862991725681e-05,-2.603504686032e-05,3.54900052313845e-16,-1.66582303519421e-16,2.65404137191663e-05,-6.29241108985638e-16,-3.99144048091399e-06,7.52826560522227e-05,-2.70527383438085e-05,-1.16706400932853e-06,-2.41285662107323e-15,-8.61224813842403e-06,2.09901540593194e-15,-1.81336195086068e-06,6.97565548792431e-18,-1.22294462527114e-16,-9.77855871637279e-16,-5.01100176605889e-06,7.75695563052751e-05,6.67517274550152e-06,-2.20040056045634e-05,9.59482916333284e-18,-1.65511845793248e-16,-1.54214913070424e-14,-2.47882823369188e-06,4.05367699393461e-14,-8.77656811101672e-15,-5.6654488743116e-12,0.707106781186547,1.62377021232394e-06,9.18938193454853e-15,5.91060229830076e-15,-2.67585160586944e-15,9.78983384995592e-15,-9.13204275946561e-15,3.92957660199236e-15,2.90092651293791e-15,-4.5140022436561e-15,-1.37111935714256e-15,-1.22848838787829e-15,6.98491050758553e-13
"t255",0.0349474404605888,0.0299719269344355,-0.059102713828059,0.00265202701570163,-0.105270582746116,0.3836715390146,-0.0193619258616592,0.188462001255236,0.00281114476370758,-0.0127276178395128,-0.00305956130536041,0.00160541714347421,-0.00419600086244309,-0.00125007438982579,-0.00252527485554829,0.0024249393126008,-0.0355091110588437,0.00170950136051309,-4.74680202928338e-05,0.00202874187052792,-0.000126224516038315,0.000285904503872193,0.000432552717867756,-6.6147340413443e-05,0.00237867407050177,0.000799486471973712,4.41043307739062e-06,0.00168898431154519,-0.000138808956911256,0.00513287168167146,-0.000299815088148201,-1.04087991540349e-05,2.24699108586033e-05,0.00166924274588576,0.000740640231922131,0.00368821909475248,-1.060461117683e-07,0.000565129374206482,-0.000410418372011167,-4.09525933483742e-05,8.94138506812083e-16,0.20191221036985,-0.00146257511617769,1.34848279544466e-05,0.000228042619963802,7.4634387948452e-06,6.0788083588634e-06,-0.000100721517954649,-5.94428748726263e-17,-0.000152054404484259,-0.497891835190115,0.000218431811853462,4.57737032562977e-15,2.30169311590546e-15,-7.61249830254972e-05,-7.64822522316246e-05,2.41414842707318e-15,7.11027993325459e-16,7.48176515893934e-05,-2.02224848616172e-05,1.58748309058303e-15,3.00222670082608e-16,2.19440670355283e-05,4.08062911996758e-16,-3.35030373510054e-06,6.35159501894311e-05,-2.32846116256534e-05,-1.02079283648002e-06,-1.29815650856914e-15,-7.64436687525361e-06,3.72618602639818e-15,-1.62055036496997e-06,-9.55799510906023e-16,-9.21187905381926e-16,-3.006666911491e-17,-4.56937596518002e-06,7.07366137777251e-05,6.10693997294686e-06,-2.01785231016475e-05,4.01260568148028e-17,-2.09462187663381e-16,-4.55585105767431e-15,-2.31746417515722e-06,-1.62291408269085e-15,6.75376668189747e-16,5.1991373513077e-15,-1.05596445858769e-14,1.52413052776309e-06,-9.43115982957444e-16,-1.81742194170934e-15,-4.33725795435889e-15,0.707106781186547,-1.65434099829806e-15,6.38157981025739e-15,1.22144999566722e-15,-3.33725733071143e-15,-2.63168108072341e-15,-4.33522341557235e-15,7.02724585903318e-13
"t256",0.0349474404605888,0.0299719269344355,-0.059102713828059,0.00265202701570161,-0.105270582746116,0.3836715390146,-0.0193619258616593,0.188462001255236,0.00281114476370764,-0.0127276178395128,-0.0030595613053604,0.00160541714347426,-0.00419600086244315,-0.00125007438982591,-0.00252527485554828,0.00242493931260078,-0.0355091110588438,0.00170950136051325,-4.74680202928525e-05,0.00202874187052792,-0.000126224516038506,0.000285904503872063,0.00043255271786767,-6.61473404134809e-05,0.00237867407050176,0.000799486471973621,4.41043307747416e-06,0.00168898431154539,-0.00013880895691128,0.00513287168167143,-0.000299815088148352,-1.04087991539167e-05,2.24699108588359e-05,0.00166924274588602,0.000740640231922267,0.0036882190947527,-1.06046111481304e-07,0.000565129374206728,-0.00041041837201134,-4.09525933483521e-05,1.01703426507317e-15,0.20191221036985,-0.00146257511617663,1.34848279547482e-05,0.000228042619963554,7.46343879469111e-06,6.07880835679991e-06,-0.000100721517954724,-9.75376870188454e-16,-0.000152054404484919,-0.497891835190114,0.000218431811853068,4.32063732826859e-15,4.09192774311353e-15,-7.61249830257116e-05,-7.64822522314298e-05,2.05679539102195e-15,-1.35155821950824e-15,7.48176515893823e-05,-2.02224848624946e-05,1.33774085628528e-15,-2.73945316481371e-16,2.19440670362738e-05,3.31735077020335e-16,-3.35030373463871e-06,6.35159501886736e-05,-2.32846116249404e-05,-1.0207928349414e-06,-1.51673166645511e-15,-7.64436687558094e-06,4.43395320459672e-15,-1.62055036514257e-06,9.24060934790183e-16,-1.57910431739866e-16,-1.67720864210683e-16,-4.56937596513731e-06,7.07366137783781e-05,6.10693996907157e-06,-2.01785231007353e-05,3.69664415037619e-16,7.61992550055975e-17,1.90608493418626e-15,-2.31746417568167e-06,7.48581280672893e-16,-2.5789659016127e-15,-7.37086383484934e-16,9.47685092924255e-15,1.52413053792246e-06,8.06893300179904e-15,5.30017651067443e-15,2.77756459820421e-15,-0.707106781186548,-8.55125061645686e-15,3.71482139475031e-15,3.21435736973396e-15,-1.81104482818777e-15,-6.38225864687826e-16,-3.48867835929568e-15,6.93870557462834e-13
