"","c1","c2","c3","c4","c5","c6","c7","c8","c9","c10","c11","c12","c13","c14","c15","c16","c17","c18","c19","c20","c21","c22","c23","c24","c25","c26","c27","c28","c29","c30","c31","c32","c33","c34","c35","c36","c37","c38","c39","c40","c41","c42","c43","c44","c45","c46","c47","c48","c49","c50","c51","c52","c53","c54","c55","c56","c57","c58","c59","c60","c61","c62","c63","c64","c65","c66","c67","c68","c69","c70","c71","c72","c73","c74","c75","c76","c77","c78","c79","c80","c81","c82","c83","c84","c85","c86","c87","c88","c89","c90","c91","c92","c93","c94","c95","c96","c97","c98","c99"
"Galium_labradoricum",-0.10694818743913,-0.0865160437183139,-0.00473463321796888,-0.123948923623316,-0.00145554917488634,-0.000362941929198853,-0.0456772318366695,-0.00419335490734305,1.08248286514807e-05,8.88561089585208e-07,0.00588664828419326,-2.17680713584261e-05,-9.40036588265515e-07,-4.73173111384554e-06,-0.00225148225850604,0.00041562709470143,-3.93603791144763e-05,-4.3057220330451e-06,3.02535709251221e-06,-0.000158497186855924,2.23059477263036e-07,-1.80208068815571e-06,2.14256698145858e-17,1.05876343441479e-06,8.80710986053968e-07,-7.9913740113046e-07,-0.0807030346461758,2.16433366300097e-06,-2.3564262748787e-05,-1.47452070382851e-06,-3.57672933667767e-05,0.000131667991737569,-0.110213850746368,-0.0243943984659641,-9.48706567767745e-05,-0.0193059342661923,-5.56664027112956e-16,-9.48354519765641e-06,4.29358136150514e-16,-2.58715526743401e-05,0.000177577897829773,0.121228726188072,6.95456399168039e-16,8.92278782763702e-16,1.03970247909716e-15,8.40299266697744e-05,-0.126858772716092,-1.23697638558346e-13,0.000322977409965094,0.202459820645881,2.01903214137508e-14,-1.04508855096584e-14,0,0,0,1.23511826372167e-14,0,-1.97503772254265e-15,-4.90716216258619e-15,3.10661797167562e-16,0.151257941934982,-1.443712575237e-07,-0.417600640691763,0,0,0.796010581542645,-0.159091773198081,-1.65355232731469e-14,-0.07425015548074,-3.80888650363652e-07,1.12274929349378e-06,-1.06974861500507e-16,-1.04882547660472e-06,0.0202648497666779,2.46802695019117e-15,0,-5.04918258596623e-15,0,0,3.63839476067782e-15,-4.97930248618799e-08,-0.00100738929208954,1.93154012026384e-15,-9.39604033783847e-16,-1.30679384948498e-15,3.04831889703101e-05,-3.1611300516925e-05,3.32166738876318e-17,-4.85680568459408e-08,-1.27003105508351e-15,1.96406751476616e-15,-4.13833783448237e-16,-8.34937844168581e-16,0.000488274007348689,0.000506180735246287,-1.92690754617726e-15,2.45559544802772e-15,1.17084512790066e-15,-1.80223704249749e-15
"Galium_ciliare",-0.106948187439129,-0.086516043718314,-0.00473463321796861,-0.123948923623315,-0.00145554917488541,-0.000362941929199444,-0.0456772318366692,-0.00419335490734227,1.08248286520792e-05,8.88561087550488e-07,0.00588664828419316,-2.17680713591834e-05,-9.40036586041364e-07,-4.73173111369564e-06,-0.00225148225850869,0.000415627094700992,-3.93603791139234e-05,-4.30572203229575e-06,3.02535709211358e-06,-0.000158497186856895,2.23059476367208e-07,-1.80208068948615e-06,-2.44498903657341e-16,1.05876343226429e-06,8.80710981497213e-07,-7.99137400181578e-07,-0.0807030346461717,2.1643336623114e-06,-2.35642627499241e-05,-1.47452070553242e-06,-3.57672933643621e-05,0.000131667991733864,-0.110213850746388,-0.0243943984659727,-9.48706567822907e-05,-0.0193059342661898,-1.72913118683848e-16,-9.48354519718356e-06,4.32433435951822e-15,-2.58715526697055e-05,0.00017757789783343,0.121228726188073,-3.63205035582862e-17,1.40676281534466e-15,-5.36166197353757e-15,8.4029926671233e-05,-0.126858772716095,-1.27420932195732e-13,0.000322977409971362,0.202459820645939,2.09361059607927e-14,-7.99624647044409e-15,-2.24085137555702e-14,4.39809340666767e-15,-3.1824947065288e-15,1.13257203720256e-14,-3.82559647128126e-15,-7.52934145515878e-15,8.43929043266704e-15,-4.35018914427269e-15,0.15125794193485,-1.44371224807785e-07,-0.180322667840385,0.127795664162695,0.257627409767202,-0.136834657603754,0.836295241665633,5.99742399494677e-13,-0.0742501554808404,-3.80888781619968e-07,1.12274928231936e-06,1.14589570722136e-14,-1.0488254967619e-06,0.0202648497667428,8.35494299568493e-15,-8.03362109124362e-15,1.33817772073553e-14,4.57121380000227e-15,2.30392087625693e-15,-4.91086283617337e-15,-4.97929539058279e-08,-0.00100738929209751,4.83076265352923e-15,-1.32332643761616e-14,1.62110906187891e-15,3.04831889862273e-05,-3.16113005084189e-05,7.75343400647816e-15,-4.85680559741934e-08,-8.7264737331056e-16,2.41315896230577e-15,1.44299447678853e-15,-3.78428629720805e-15,0.000488274007377476,0.000506180735248519,-1.49229151013307e-15,1.22411100439081e-14,2.84308222024575e-16,4.61200093919778e-15
"Galium_spurium",-0.10694818743913,-0.0865160437183136,-0.00473463321796892,-0.123948923623317,-0.00145554917488608,-0.000362941929198232,-0.0456772318366704,-0.00419335490734302,1.08248286516207e-05,8.88561090198506e-07,0.00588664828419302,-2.17680713582164e-05,-9.40036587991833e-07,-4.73173111475961e-06,-0.00225148225850504,0.000415627094701506,-3.9360379113763e-05,-4.30572203236516e-06,3.02535709201094e-06,-0.00015849718685445,2.23059477441355e-07,-1.80208068985749e-06,-1.34671357244215e-15,1.0587634369646e-06,8.80710984979557e-07,-7.99137401273636e-07,-0.0807030346461785,2.16433366200705e-06,-2.35642627523531e-05,-1.47452070611737e-06,-3.57672933614078e-05,0.000131667991733491,-0.11021385074636,-0.0243943984659607,-9.48706567759946e-05,-0.0193059342661939,7.48301902897702e-17,-9.48354520160389e-06,1.74323687198607e-15,-2.5871552675389e-05,0.000177577897827168,0.12122872618808,2.27805522768676e-15,-1.44898287310984e-15,2.58597615372258e-15,8.40299266813564e-05,-0.126858772716122,-1.27390989084526e-13,0.000322977409951126,0.202459820645889,7.0798679611365e-15,-8.42166592556878e-15,-2.12827203290611e-14,-7.40310746665577e-16,-9.71195631913545e-15,1.25756822456542e-14,1.15953673241861e-14,6.37428416308944e-15,5.14511238559209e-15,5.07257192045705e-15,0.151257941935083,-1.44371265773031e-07,0.814047137513595,0.350410416666247,-0.0460408083467241,0.212000995994029,-0.0284420954805034,-7.37752315299438e-13,-0.0742501554807901,-3.80888701369032e-07,1.12274937218259e-06,8.27148617901868e-16,-1.04882544995997e-06,0.0202648497666514,-5.73200069647708e-16,2.90527162429839e-15,1.17037503107036e-14,-7.19190542613556e-15,1.17456900777264e-14,7.19115501661903e-15,-4.97930196261097e-08,-0.00100738929209634,-8.16207973915656e-16,-5.56730464969308e-15,2.09417566443795e-15,3.04831889476404e-05,-3.16113005196967e-05,-8.62645117109782e-15,-4.85680400422642e-08,3.73716295339486e-15,2.10913586697752e-15,-2.23882160355222e-15,-1.6865365797044e-15,0.000488274007348636,0.000506180735240491,-2.02787575909761e-15,1.96732121599723e-15,6.59028376143889e-15,-2.95342363232578e-15
"Galium_binifolium",-0.10694818743913,-0.0865160437183141,-0.00473463321796883,-0.123948923623315,-0.00145554917488618,-0.000362941929198825,-0.0456772318366687,-0.00419335490734336,1.08248286515305e-05,8.88561089981831e-07,0.00588664828419212,-2.17680713589499e-05,-9.40036587927572e-07,-4.73173111365994e-06,-0.0022514822585058,0.000415627094702048,-3.93603791142527e-05,-4.30572203204506e-06,3.02535709209461e-06,-0.000158497186855326,2.23059477099189e-07,-1.8020806880091e-06,2.82137138746778e-16,1.05876343377879e-06,8.80710985525238e-07,-7.99137402851635e-07,-0.0807030346461731,2.16433366486806e-06,-2.35642627502798e-05,-1.47452070557496e-06,-3.57672933664788e-05,0.000131667991737428,-0.110213850746364,-0.0243943984659596,-9.48706567775943e-05,-0.0193059342661961,-1.51935793242032e-16,-9.48354519731966e-06,-1.698017909036e-16,-2.58715526745383e-05,0.000177577897835476,0.121228726188068,3.43784773840802e-15,-1.53665754349957e-16,7.16197061543269e-16,8.40299266685647e-05,-0.126858772716074,-1.22756125399042e-13,0.000322977409960255,0.202459820645891,1.84750941432913e-14,7.99286851457121e-15,9.90836446737373e-15,1.00861990291227e-15,4.2795865378635e-15,2.56444606213256e-14,-3.43785408964657e-15,-4.34130151550959e-16,1.3094533678637e-15,-3.45402179011233e-15,0.151257941935028,-1.44371253668389e-07,-0.236131176317848,0.175264594874847,-0.783826280639355,-0.351862308165169,-0.0930967268983131,-9.28810769102462e-14,-0.0742501554808028,-3.80888681708166e-07,1.1227492919994e-06,-9.59825459955652e-15,-1.04882548568908e-06,0.020264849766681,5.92843236467194e-15,-1.73684022597787e-15,-1.11102769882284e-14,2.50204224402581e-15,-1.16409028671933e-15,-9.05341566909864e-15,-4.97930152515195e-08,-0.00100738929208497,-7.3971846841186e-16,3.45004982012884e-15,-3.22872359865516e-16,3.04831889813102e-05,-3.16113005044262e-05,1.85157243025182e-15,-4.85680546026517e-08,-1.73890059379571e-16,4.85694980727116e-15,1.88717972051736e-16,-2.12308713933388e-15,0.000488274007342586,0.000506180735238424,3.55900257695727e-16,1.14940965499207e-14,-4.79047664475201e-15,-1.18583217524532e-15
"Galium_concinnum",-0.10694818743913,-0.0865160437183139,-0.00473463321796872,-0.123948923623316,-0.00145554917488636,-0.000362941929198811,-0.0456772318366694,-0.00419335490734297,1.08248286515904e-05,8.88561089477984e-07,0.00588664828419282,-2.17680713583712e-05,-9.40036588016174e-07,-4.73173111316038e-06,-0.00225148225850642,0.000415627094701645,-3.93603791138608e-05,-4.3057220333705e-06,3.02535709248151e-06,-0.00015849718685558,2.23059477084238e-07,-1.80208068876679e-06,1.90697325004976e-16,1.05876343492197e-06,8.80710985023389e-07,-7.9913740056231e-07,-0.0807030346461767,2.16433366264499e-06,-2.35642627488002e-05,-1.4745207044262e-06,-3.57672933658002e-05,0.000131667991737051,-0.110213850746365,-0.0243943984659628,-9.48706567729191e-05,-0.0193059342661927,-4.9927107374796e-16,-9.48354519777263e-06,3.13068553667171e-16,-2.58715526719837e-05,0.000177577897830216,0.121228726188064,-4.23572247416752e-16,2.02431176413099e-15,-1.4437597431951e-15,8.40299266649815e-05,-0.126858772716097,-1.21547849191721e-13,0.000322977409954745,0.202459820645879,2.11489026991688e-14,-1.46491282972144e-14,3.82019720605545e-14,-4.57617914830797e-15,5.19986810567911e-15,-9.15089411158333e-15,-1.20714733168478e-14,-5.24701841905575e-15,4.9672695094527e-16,6.96712361675712e-15,0.151257941935008,-1.44371249224885e-07,-0.182950490396399,0.228535392465169,0.563063514610543,-0.408062311431321,-0.513885837800183,-5.90894741325772e-13,-0.0742501554807069,-3.80888701702595e-07,1.12274929857836e-06,-1.14590090799226e-14,-1.04882547251091e-06,0.0202648497666737,1.2608532515281e-15,2.29064992856339e-15,1.40367062382213e-14,5.28590731568869e-15,-6.89858076420482e-15,2.52068014909028e-14,-4.97930140226403e-08,-0.00100738929209044,2.3200598232718e-15,1.24186377713793e-14,-1.2330547341312e-15,3.04831889659059e-05,-3.16113005116013e-05,-4.60533880417564e-15,-4.85680528025869e-08,-2.07108907097598e-15,2.50129112120885e-15,-5.88438213004358e-16,-1.524419637488e-15,0.000488274007350193,0.00050618073524298,-1.28209027278454e-15,-2.01204536651045e-15,5.54153428158421e-16,8.266419977816e-16
"Galium_propinquum",-0.10694818743913,-0.086516043718314,-0.00473463321796869,-0.123948923623316,-0.0014555491748863,-0.000362941929198931,-0.045677231836669,-0.00419335490734233,1.08248286525852e-05,8.8856108893059e-07,0.00588664828419174,-2.17680713577376e-05,-9.40036588708958e-07,-4.73173111448693e-06,-0.00225148225850618,0.000415627094701737,-3.93603791141075e-05,-4.30572203277979e-06,3.02535709204967e-06,-0.000158497186856295,2.23059477080809e-07,-1.80208068882134e-06,6.74612383717684e-16,1.05876343464617e-06,8.80710985639159e-07,-7.99137400824861e-07,-0.0807030346461759,2.16433366004117e-06,-2.35642627480595e-05,-1.47452070447263e-06,-3.57672933661332e-05,0.000131667991736323,-0.110213850746369,-0.0243943984659646,-9.48706567802381e-05,-0.0193059342661908,8.7126410682582e-17,-9.48354519512174e-06,1.31783983597832e-15,-2.58715526762587e-05,0.000177577897831059,0.121228726188077,4.51017604817833e-17,5.62452515245438e-15,2.84449014312465e-15,8.40299266688139e-05,-0.126858772716073,-1.23962817972529e-13,0.00032297740995983,0.202459820645885,2.56333314799857e-14,-1.32827320933736e-14,-1.58614604254224e-14,-3.68174181989025e-16,-5.08212904564847e-15,8.73744350235422e-15,7.25297405165263e-15,2.0820079750899e-17,-2.44848297676423e-15,4.11407462563986e-15,0.151257941934975,-1.44371266663627e-07,0.202957837732726,-0.88200606816912,0.00917616460838127,-0.111252300336444,-0.0417788082885638,8.43328242740436e-13,-0.0742501554805182,-3.8088866317277e-07,1.12274929058226e-06,-1.25784162512899e-15,-1.04882546816038e-06,0.0202648497666862,1.18739009129635e-16,-4.52026626512059e-15,-9.03260486526528e-15,4.70145591924685e-15,-7.06260173439029e-15,-4.7490603127413e-16,-4.97930172327629e-08,-0.00100738929207783,1.59958670760975e-16,-7.94461738524334e-15,-1.70436040924481e-15,3.04831889634281e-05,-3.16113005185678e-05,1.79471827961947e-15,-4.85680557102489e-08,-9.57886778456171e-16,3.11944868471857e-15,-4.33196852613455e-16,-2.93366695747224e-15,0.00048827400735259,0.000506180735254337,-3.24768189010769e-15,-1.13013722405133e-15,1.95188472266303e-15,3.58160414506132e-15
"Galium_bolanderi",-0.107811627625491,-0.0878973217244138,-0.0048572083961364,-0.131264485109796,-0.0015675443692547,-0.000394752778312635,-0.0545261635259176,-0.0051708444161356,1.40833446366774e-05,1.16284172385736e-06,0.00806366651143745,-3.10828846679633e-05,-1.35310470194413e-06,-6.91551499550881e-06,-0.00356222718183836,0.000675737478375034,-6.42620668227504e-05,-7.07620500063527e-06,5.51356980281108e-06,-0.000301515298921835,4.41952842607419e-07,-3.93155923513283e-06,-5.39465084752656e-16,2.54697045434541e-06,2.20171730441185e-06,-2.6517681086207e-06,-0.283647822810759,2.62827746648606e-05,-0.000350332923962414,2.67522529605394e-05,0.000209361057681708,-0.000524476517883087,0.402712694580096,0.0814566813489034,0.000291560277766358,0.0542257023662526,-1.13573086980326e-15,2.2961451482503e-05,7.08571340882239e-16,4.82070899077775e-05,-0.000268532174888435,-0.179097446273075,1.21660760309722e-15,-1.17840591613781e-15,-4.72804701673978e-15,8.01102164326125e-06,-0.00999386750120874,-9.78177184392372e-15,-2.88425871010271e-05,-0.0191835950333938,-6.09312858234185e-16,1.45145302104055e-15,2.30066862440647e-15,-1.11387325234256e-15,1.56933634416871e-15,-9.46966484911247e-16,-1.41719855207397e-15,1.75650487927374e-15,-9.03782197472285e-17,1.82379627924764e-15,-0.00825032975255569,7.11005337616757e-09,2.46330733588707e-15,-6.63358257213531e-15,5.17641485231479e-15,1.52655665885959e-15,-1.85962356624714e-15,-7.00597139585743e-16,-0.0248232606404674,8.12144808318577e-08,3.13112054761372e-08,1.87508661213026e-15,-6.85246769298805e-08,0.00275518610734326,-1.90222990420618e-15,-2.64851926948935e-15,-9.00711126287169e-16,4.78209012997974e-15,-1.53424478510209e-15,9.1382324558085e-15,-8.15262322240175e-09,-0.000198515649194488,-4.08385930595442e-15,2.11418161845958e-15,-1.06009460881063e-17,6.61465139681765e-06,-7.27830456900903e-06,2.779567000748e-15,-1.1806280003742e-08,2.15450327323483e-15,1.78956354948684e-14,5.2219733938366e-19,-7.63631515718975e-15,0.000147202283580227,0.406042506533315,-3.29248455264214e-13,0.707106781186525,-2.87637502783728e-14,1.13936309572663e-14
"Galium_angustifolium",-0.107811627625491,-0.0878973217244138,-0.00485720839613623,-0.131264485109797,-0.00156754436925568,-0.000394752778312283,-0.0545261635259177,-0.00517084441613596,1.40833446372241e-05,1.16284172288277e-06,0.00806366651143701,-3.10828846672261e-05,-1.35310470257275e-06,-6.91551499601013e-06,-0.00356222718183843,0.000675737478374841,-6.42620668217015e-05,-7.07620500059163e-06,5.51356980262779e-06,-0.000301515298922593,4.4195284264836e-07,-3.9315592356924e-06,-9.43268275537593e-17,2.54697045512301e-06,2.20171730465637e-06,-2.65176810929583e-06,-0.28364782281076,2.62827746643181e-05,-0.000350332923962684,2.6752252960619e-05,0.000209361057682701,-0.000524476517882068,0.402712694580097,0.0814566813489036,0.00029156027776669,0.0542257023662528,-1.59715360091554e-16,2.29614514825479e-05,4.68690471966452e-17,4.82070899109768e-05,-0.000268532174888488,-0.179097446273078,1.1253082819755e-15,1.38415294717825e-15,-3.99946208193276e-15,8.01102164238061e-06,-0.00999386750121833,-1.05471748586523e-14,-2.88425871044335e-05,-0.0191835950333948,-1.43649484816882e-16,1.33684738722802e-15,1.61011587145312e-15,4.59541691999373e-17,-4.29200279735401e-16,-3.87796428353366e-15,-1.91386614630988e-15,1.08894034543471e-15,-4.67509456664299e-16,1.6094655980317e-15,-0.0082503297525542,7.11005155969652e-09,-3.44169137633799e-15,5.55111512312578e-17,-4.71150896075301e-15,-1.98452365651747e-15,1.15740750317173e-14,-2.21827690581842e-15,-0.0248232606404731,8.12144725135072e-08,3.13112046249116e-08,1.29254604070273e-15,-6.85246703525479e-08,0.00275518610734718,3.10358626541152e-15,-4.15926196901141e-15,3.22372167555058e-15,2.6830509303934e-15,-2.31441754339537e-15,-1.29125605139727e-15,-8.15262431275837e-09,-0.000198515649182099,-1.5548657357502e-15,-1.00702720006306e-14,-3.30201897963635e-16,6.61465139316903e-06,-7.27830457154996e-06,1.24840567111171e-15,-1.18062731263482e-08,-1.4626812104703e-15,-2.49313069252333e-15,8.17468528484792e-15,6.83985513933458e-15,0.000147202283522179,0.406042506533219,3.20421084236941e-13,-0.707106781186571,1.04392033304078e-13,-1.27183879142631e-14
"Galium_boreale",-0.107801966879586,-0.0878819104542388,-0.00485584551859725,-0.131184034474905,-0.00156631962207529,-0.000394406030161905,-0.0544324109311711,-0.00516058185430806,1.40496154000676e-05,1.16000684505528e-06,0.00804141645243492,-3.09885957325699e-05,-1.34893095741067e-06,-6.8935237141979e-06,-0.00354924374798552,0.000673174577753272,-6.40169032610355e-05,-7.04896283054557e-06,5.48954607373712e-06,-0.000300143973120156,4.3986702027693e-07,-3.91154106489364e-06,-1.43987912543943e-16,2.53315080528757e-06,2.18950465756333e-06,-2.63510019987841e-06,-0.281830179969304,2.6077558273945e-05,-0.000347562544953222,2.65195457751517e-05,0.000207388559243087,-0.000519276904736704,0.398664511531842,0.0806250084758613,0.000288537202851121,0.0536532547904715,-1.01214391794426e-15,2.27109370635127e-05,9.53506394717375e-16,4.76422360936096e-05,-0.000265106309292481,-0.176775028487518,3.3341264343211e-15,3.38082043456501e-16,-2.76934567719835e-15,7.87832276995711e-06,-0.00982781292034141,-9.10976117055457e-15,-2.83257389846789e-05,-0.0188367775597314,-3.27415342732444e-15,9.67848672402034e-16,-4.39204291169271e-16,-2.96264431127029e-15,-1.02604039797221e-15,-3.47366449573559e-15,-1.19733927098864e-15,-1.21185656764918e-16,1.96861054255815e-16,2.02168438077772e-16,-0.00806388634804925,6.94728007975463e-09,-1.71043734731313e-15,-1.66706926041371e-14,6.56419363309624e-15,1.84574577843932e-15,9.95037385820297e-15,1.24864337272559e-15,-0.0241447626309352,7.89803348568034e-08,3.03804952847678e-08,-1.86559889583368e-15,-6.62518147528034e-08,0.00263055102181828,4.28253632776557e-16,2.70099417873084e-15,-7.49275543900913e-15,-8.34367145265683e-15,4.76467086693048e-15,-7.93898256123696e-15,-7.71515226147900e-09,-0.000184615582187906,9.66436549534672e-15,5.05342409966964e-15,3.00804772515638e-15,6.04534399815424e-06,-6.53997930349169e-06,-3.61914420692961e-15,-1.0365703054197e-08,-2.73380505919596e-15,-8.86829327280507e-15,-6.58773595865884e-15,7.69110677995078e-16,9.5168565477085e-05,-0.818691430916655,2.32489229458922e-15,6.01241403630255e-14,-7.32735064480002e-14,-1.34587059832986e-15
"Galium_palustre",-0.107351002947902,-0.0871586020543393,-0.00479145104457246,-0.127300568833675,-0.0015065443599669,-0.000377373866515502,-0.0495565239009764,-0.00461678379759706,1.2208761986174e-05,1.00480037440959e-06,0.00679390943420357,-2.55913099194592e-05,-1.10908189244401e-06,-5.62046274885703e-06,-0.00276972113277109,0.00051745950811613,-4.90945362897237e-05,-5.38613944486582e-06,3.96035272495037e-06,-0.000211426981498876,3.0291711928085e-07,-2.55337961794249e-06,-3.51320662112657e-16,1.56665274397413e-06,1.32577927727977e-06,-1.36950103986243e-06,-0.142114980963819,7.73369225736725e-06,-9.70300432192838e-05,3.33691786294567e-06,-9.09237190902521e-06,9.35742873679502e-05,-0.0885662525004254,-0.0219423786765797,-9.37553565009922e-05,-0.0209813253832373,-5.892566336617e-17,-1.19637212678879e-05,-1.40707842731021e-15,-4.32429604470692e-05,0.000429920683601033,0.320267534451324,-1.19344963699703e-15,-2.00024217304436e-15,6.14777960500238e-15,-0.000300503055283429,0.435607752134053,4.26749430350445e-13,-0.000516244024161615,-0.301031575119976,-2.95904661746158e-14,1.10097933382491e-14,6.62736931239744e-15,4.07670684055093e-15,3.98606718809301e-17,-1.26660055875184e-14,3.69208527557536e-15,6.4416405916345e-15,2.35869607101428e-15,5.24163315627031e-15,-0.0435088322940503,3.68717556053221e-08,2.06119843415564e-14,-3.38756800388751e-14,1.33365540833097e-14,3.62904151174348e-15,-2.53963516883005e-15,1.07046190692486e-15,-0.195669843653943,7.13756350732023e-07,-2.7828914314861e-08,2.58741975033583e-16,-1.09045913444694e-07,0.00533877487461477,-3.5117645974867e-15,-6.6383959843178e-15,-1.09918166112423e-15,-1.12322339887167e-15,1.08511903055368e-14,1.60328852127577e-14,-1.55603697614051e-08,-0.000367128892216879,-7.2854336642029e-15,0.707106781186543,-3.72744668278959e-14,1.19530442080186e-05,-1.29295394026143e-05,-3.20270917996407e-14,-2.05954639549551e-08,-8.05367598550891e-15,-1.61470346545339e-15,-9.09863844079659e-15,-3.15963451396575e-15,0.000228232637798993,0.000557784676985523,3.36244289626569e-15,-5.38528738906619e-15,5.49494181490252e-15,4.03346171016998e-15
"Galium_trifidum",-0.107351002947902,-0.0871586020543393,-0.00479145104457247,-0.127300568833675,-0.00150654435996709,-0.000377373866515796,-0.0495565239009764,-0.00461678379759852,1.22087619852091e-05,1.00480037384485e-06,0.00679390943420583,-2.55913099183286e-05,-1.10908189242036e-06,-5.62046274844047e-06,-0.00276972113277174,0.000517459508115645,-4.90945362906699e-05,-5.38613944526507e-06,3.96035272631778e-06,-0.00021142698149883,3.0291711745781e-07,-2.55337961784655e-06,-6.78677319951077e-16,1.56665274494475e-06,1.32577927781465e-06,-1.36950104004013e-06,-0.14211498096382,7.73369225662116e-06,-9.70300432192276e-05,3.33691786311651e-06,-9.09237190907941e-06,9.35742873647011e-05,-0.0885662525004254,-0.0219423786765805,-9.37553564990327e-05,-0.0209813253832351,9.25992556028269e-16,-1.19637212680125e-05,-8.40592295257309e-16,-4.32429604480461e-05,0.000429920683602147,0.320267534451321,-5.64397268415298e-16,-4.00710258414045e-16,9.51736771949841e-15,-0.000300503055279269,0.435607752134054,4.27394771608483e-13,-0.000516244024163493,-0.301031575119968,-3.33501760789789e-14,9.76638653497868e-15,3.95815276237031e-15,3.26610051897825e-15,-3.10440618059073e-16,-1.33233830777314e-14,5.24039412071953e-15,4.55131581914428e-15,4.9882255078006e-16,-1.77728037564238e-15,-0.0435088322940548,3.68717639810777e-08,1.17718335079786e-14,-2.42098008307323e-14,1.49880108324396e-14,-3.89271948009196e-15,-2.65065747129256e-14,-8.71282347683126e-15,-0.195669843653932,7.13756347842281e-07,-2.78289172372127e-08,-3.56150567261513e-15,-1.09045899591829e-07,0.00533877487456161,7.29352146770317e-15,6.97328208029003e-15,-6.61186699387533e-15,-9.34151620599615e-16,-1.50001748787159e-14,-1.87513842983695e-14,-1.55604077985535e-08,-0.000367128892251166,1.26923503713483e-14,-0.707106781186553,3.34268195942428e-14,1.19530443949613e-05,-1.29295393631446e-05,3.44858201121054e-14,-2.05954787765403e-08,6.03967377100299e-15,6.98137651221304e-15,9.59240181799623e-15,-7.25017059336703e-16,0.000228232637785531,0.000557784676974949,-3.69185955611638e-15,6.49409897442294e-15,-5.68044227607765e-15,-1.68099083830588e-15
"Galium_bifolium",-0.107158927797556,-0.0868525937840345,-0.00476443481361852,-0.125715098382002,-0.00148248759300208,-0.000370576710640765,-0.0477576347429116,-0.00442151629339717,1.15764371059141e-05,9.51744516754889e-07,0.00638311562185189,-2.38729829687281e-05,-1.03321522127837e-06,-5.22269948381204e-06,-0.00254111989671431,0.000472766866167209,-4.48257143631843e-05,-4.91291605166937e-06,3.55879548251299e-06,-0.000188883357435687,2.69174803378503e-07,-2.24197494776291e-06,-2.52404760401094e-16,1.36029200206966e-06,1.14637605385167e-06,-1.15300205254973e-06,-0.119092517047826,6.11151040792864e-06,-7.63247796519844e-05,2.52478062660765e-06,-6.61199604605749e-06,6.60598999252523e-05,-0.0619791672899844,-0.0151991482803669,-6.42607445097335e-05,-0.0141964936531021,-2.55071096406226e-16,-7.89198416906227e-06,2.46650426296152e-15,-2.67451571834937e-05,0.000240652964454565,0.175209334128408,-2.07664004531191e-16,-2.52278116060801e-15,3.40880402651675e-15,-8.06187565239017e-05,0.114674081267071,1.15571514940103e-13,-6.23346932097731e-05,-0.0304750344266568,-2.67893038278416e-15,5.78979919792137e-15,-3.68787206719221e-15,1.36453020783152e-15,1.71671870330761e-15,4.41966397557407e-16,1.73823701671682e-15,-9.08255055092756e-16,2.93190148574979e-15,-9.06500367274349e-15,0.0346072440294661,-3.29161292480696e-08,-3.05276637302399e-14,2.18328827239489e-13,-4.06064071256651e-14,1.28577704039401e-14,1.00322528062691e-13,1.63714384574228e-14,0.942411523426273,-3.74240501202464e-06,1.12731927061354e-06,7.16653759414849e-15,-8.29354538525134e-07,0.0149513405492536,-6.24607670586427e-15,3.08603530474384e-15,5.7661269995613e-16,-3.06304331012689e-15,7.91569309109351e-15,2.8431582320783e-15,-3.68836106552575e-08,-0.000754222945906458,-2.82566994911356e-15,4.93171037177666e-15,-1.05299306869354e-15,2.29983682782639e-05,-2.39744429404719e-05,-3.35250325024815e-15,-3.70175139231123e-08,3.1530743016476e-15,2.91038486924717e-16,1.24219578793235e-15,-3.08918687634662e-16,0.000378020867982769,0.000896009956838358,-1.64160316309588e-15,-1.641031959046e-15,6.40349795389587e-15,4.49673011117384e-16
"Galium_album",-0.108489689932102,-0.0889957301798908,-0.00495622959219787,-0.137493136990805,-0.0016656469831173,-0.000423094196009305,-0.0638560081185349,-0.00626838524924853,1.81654818577495e-05,1.51075274577797e-06,0.0111164803034959,-4.54778396443624e-05,-2.0040251977499e-06,-1.04891030022581e-05,-0.00621796222253737,0.00124736569948169,-0.000119700114840269,-1.33722636180268e-05,1.37212882755449e-05,-0.000873652758099381,1.52872123605152e-06,-2.67259172065439e-05,7.80868808456004e-17,-0.000220658147251767,-2.80907554412224e-05,4.02360224270244e-06,0.355148338875269,-3.76864183799988e-06,3.92363430073623e-05,1.80537029819081e-06,3.47906504282598e-05,-0.000111543936937207,0.0900034287787861,0.0191238179735073,7.14513854424269e-05,0.0138817217652056,2.80918857731532e-16,6.27033757003593e-06,-5.78381064727144e-16,1.43062627177085e-05,-7.95155856703142e-05,-0.0521269665165592,6.12372392731039e-17,7.87408172028219e-17,-1.54211910871039e-16,-1.88707418776276e-05,0.0282308738240134,2.70440789260669e-14,-5.6719896032328e-05,-0.034510862757904,-4.37754151929846e-15,2.72825853075161e-15,1.65285661106254e-15,-1.55631275849772e-15,-7.60112811562598e-16,-1.10724932837946e-15,-7.79926506267193e-16,7.12200382529335e-16,3.38070523903323e-16,-1.62132017569458e-15,-0.00852863476992938,7.27405156703913e-09,1.26461341398709e-14,4.562322741819e-15,-1.1594891713429e-14,6.67521593555875e-15,-3.00870439673417e-14,1.42374334337503e-15,-0.00231877336665779,-1.30703495830998e-08,8.28871663171353e-08,8.20594995444838e-16,-1.51112111596107e-07,0.386404165229548,4.80156448798183e-14,-9.57903770234092e-15,-1.0852400713093e-14,1.25344569916698e-14,2.02095067224616e-14,3.95013297123359e-14,1.56202860519865e-08,0.0915114617069189,1.86379024479904e-14,-2.44295774579917e-14,7.54474537822091e-15,0.0228860671783761,-5.50456578868904e-07,-1.19148211378046e-14,-1.95737884401414e-09,-2.86950761032922e-15,-3.98227727350897e-15,-5.48525243712338e-16,6.45055588417621e-14,0.386416005515569,3.17982047900601e-05,-1.30139106000342e-13,5.11912945910255e-14,0.707106781186534,6.51049616999727e-16
"Galium_mexicanum",-0.108489689932102,-0.0889957301798908,-0.00495622959219789,-0.137493136990806,-0.00166564698311731,-0.000423094196009472,-0.0638560081185349,-0.00626838524924858,1.81654818573616e-05,1.51075274625504e-06,0.0111164803034952,-4.54778396434646e-05,-2.00402519740813e-06,-1.04891030032245e-05,-0.00621796222253738,0.00124736569948181,-0.000119700114839744,-1.33722636177176e-05,1.3721288276162e-05,-0.000873652758099048,1.52872123598713e-06,-2.67259172069109e-05,1.55159710821425e-15,-0.000220658147250875,-2.80907554409281e-05,4.02360224220722e-06,0.355148338875269,-3.76864183756166e-06,3.92363430078444e-05,1.80537029796664e-06,3.47906504283692e-05,-0.000111543936937632,0.090003428778787,0.0191238179735095,7.14513854442962e-05,0.0138817217652064,2.38605531051677e-16,6.27033756962903e-06,-1.33474500691588e-16,1.43062627161046e-05,-7.95155856704199e-05,-0.0521269665165584,-6.38787686638627e-16,2.20254825150629e-16,6.85197819264217e-17,-1.88707418775288e-05,0.0282308738240118,2.72571419673091e-14,-5.67198960338765e-05,-0.0345108627579063,-3.61416144343301e-15,9.55672841464528e-16,1.63530693487274e-16,-7.71040409415432e-16,7.30546549861724e-16,-2.01181787256209e-15,-1.01215823462399e-15,-2.15928335713626e-16,4.74326628766553e-16,-1.22331498255492e-15,-0.00852863476992582,7.27405209576651e-09,2.1167095853869e-14,4.20843915271973e-15,-6.02295990859147e-15,1.14977471987743e-14,-3.06976666308856e-14,7.7701797772126e-16,-0.00231877336664995,-1.30703464270473e-08,8.28871662915355e-08,-2.52414571694342e-16,-1.51112111952676e-07,0.386404165229559,5.01677374705294e-14,-1.27894310156654e-14,-1.50244486508022e-14,1.3244580725075e-14,1.35162020781466e-14,3.36405948850768e-14,1.56202863519419e-08,0.0915114617069237,2.0578064438943e-14,-1.3341224999548e-14,5.40805246224983e-15,0.0228860671783751,-5.504565573008e-07,-3.03964036610202e-15,-1.95737325799569e-09,-9.69735426782791e-16,1.46645148189927e-14,-9.47061249841761e-15,4.92662555719655e-14,0.386416005515504,3.17982049184993e-05,1.44036550021133e-13,-7.34034843475327e-14,-0.707106781186561,3.08423185425524e-15
"Galium_verum",-0.108460507805864,-0.088948882788879,-0.00495205358755181,-0.137239930766467,-0.00166173534703039,-0.000421976935828981,-0.0635254125259167,-0.00623090656033037,1.80343166838503e-05,1.4996478828172e-06,0.0110239389482517,-4.50614169766558e-05,-1.98536420500695e-06,-1.03883913127483e-05,-0.00614947435814293,0.0012330646838044,-0.000118319624156409,-1.32166267385271e-05,1.3540368357297e-05,-0.000861624261378892,1.50687321018318e-06,-2.63135525517595e-05,4.38106843163899e-16,-0.000217027717217338,-2.76181741768001e-05,3.94678908094854e-06,0.348234564632644,-3.67901026995622e-06,3.82910535362573e-05,1.75745326217327e-06,3.3789133566536e-05,-0.000108161921723157,0.0872356990947959,0.018526326723924,6.91836392566853e-05,0.0134329827041529,-3.0682419371868e-16,6.06071454650727e-06,-2.73535871852072e-16,1.37918170183195e-05,-7.63960899842092e-05,-0.0500475236587734,-5.18838040609719e-16,7.26576648600192e-16,1.12563846925336e-15,-1.79024102428802e-05,0.0267776232574854,2.62947921321689e-14,-5.35629734347108e-05,-0.0325723833340853,-3.0251913273921e-15,1.11551365854741e-15,2.01943289587546e-15,6.33327810553297e-16,-7.26719768740475e-16,6.65498982278704e-16,-9.3146460615097e-16,1.77213631846458e-15,9.2247231675917e-16,-2.29947870631908e-15,-0.00792450797724828,6.75176420950025e-09,1.08194703196673e-14,2.99413271953597e-15,7.8687056870308e-15,4.60048665829049e-15,1.72084568816899e-15,-2.9324482959785e-15,-0.00211824350430891,-1.19323406526228e-08,7.5054766649985e-08,-2.18599781924e-15,-1.35068158969937e-07,0.329063997452565,4.3008444619579e-14,-1.36550752166618e-14,-5.90068269828e-15,1.42569815038333e-14,2.28917636244286e-14,4.07667510539031e-14,1.28221363379756e-08,0.0693634211018604,2.12540411254751e-14,-5.5222016931635e-15,-1.11258545744859e-14,0.0158324234982572,-3.43351246153324e-07,2.215307827021e-14,-1.02705423256935e-09,1.17819516880567e-15,-6.70816933325037e-16,1.66022848391437e-14,-1.25976330891586e-13,-0.836737706147111,9.33986054907712e-05,-1.48034188176509e-14,3.88234691492087e-14,4.23082376944057e-14,3.37634899862358e-15
"Galium_odoratum",-0.108281825078648,-0.0886618090646574,-0.00492643884885709,-0.135682043598418,-0.00163763086905209,-0.000415085894175036,-0.0614702878198121,-0.0059973407914467,1.72137256646853e-05,1.43014576332873e-06,0.0104429784032942,-4.24403344246594e-05,-1.86784923501205e-06,-9.75359441054113e-06,-0.00571585687498996,0.0011423913086481,-0.000109564951285458,-1.22292911787334e-05,1.23869832117146e-05,-0.000784798524181425,1.36709661815552e-06,-2.36657409163079e-05,4.82629839705368e-16,-0.000193639725430826,-2.45700675169792e-05,3.44770184740025e-06,0.303257848550561,-3.08762027874911e-06,3.20476663992184e-05,1.43839329535482e-06,2.70702102963867e-05,-8.53555555083228e-05,0.0685445369057161,0.0144846072811314,5.3817782606825e-05,0.0103863393906417,4.63306454689608e-16,4.63215325955185e-06,-1.81217407481945e-16,1.0255448359592e-05,-5.47083737516718e-05,-0.0355573058077708,5.0055012702494e-16,7.77765063575272e-16,5.06674268666227e-16,-1.08751083535515e-05,0.0162249468871813,1.670546052953e-14,-3.02858758399141e-05,-0.0182522639307152,-1.0248460318252e-15,6.28657414193561e-16,-2.77136691624938e-15,-1.64813807604217e-16,-7.90856549950007e-16,-3.54334070976516e-15,6.58916978799138e-17,3.59703901059315e-16,2.40272655498598e-16,6.49150896482091e-15,-0.00320605953662867,2.65707674242555e-09,-2.72455669136917e-14,-8.26075319260156e-15,-2.54657406273395e-15,-1.04083408558608e-14,2.56322740810333e-14,8.72846121284277e-16,-0.000450109785646559,-2.44247616363925e-09,7.65336039129614e-09,4.63807567885646e-15,1.03018224637247e-08,-0.313363509178643,-5.11206004587622e-14,4.90688523345915e-15,7.94052023287459e-15,-1.50116178892615e-14,-2.31153346717138e-14,-3.73443763654874e-14,-2.50496272736575e-08,-0.452500967929808,-9.94275327860433e-14,-7.63976470942353e-14,1.68025506942469e-13,-0.738635678659937,-8.73878566367596e-06,-1.99058455717035e-14,-1.35664056460409e-08,1.22659129398982e-15,2.4151825551354e-15,-3.26110184338141e-15,5.42567879661736e-16,0.0251008258988596,0.000147812697702487,-1.93532366602176e-16,-6.2260611405512e-16,-3.35078478142667e-15,-3.04862767258776e-15
"Galium_saxatile",-0.108264823280387,-0.0886344947562759,-0.00492400178070474,-0.135533841631395,-0.00163533796669999,-0.000414430420307025,-0.0612748718048851,-0.00597513404710665,1.71357190438622e-05,1.4235388986919e-06,0.0103877593603829,-4.2191232952332e-05,-1.85668111301799e-06,-9.69326826263738e-06,-0.00567465665304381,0.00113377645500358,-0.000108733179209556,-1.21354867336287e-05,1.22774238844622e-05,-0.000777501419565181,1.35382113221168e-06,-2.34142958567938e-05,4.94141202982927e-16,-0.000191418996048098,-2.42806574012115e-05,3.40032735827716e-06,0.29898874265217,-3.03151382834519e-06,3.14553626460064e-05,1.40813233028952e-06,2.64331079115835e-05,-8.31933416407729e-05,0.0667725508730201,0.014101457015436,5.23611877941515e-05,0.0100975515543563,-8.86149040669922e-16,4.49675584958701e-06,2.25887310382731e-15,9.92035376676521e-06,-5.26539073422333e-05,-0.0341847313306848,-5.29409825735755e-16,-5.8657153668582e-16,6.45720133816513e-16,-1.02100118519902e-05,0.0152262027952816,1.53420737058915e-14,-2.80833828148909e-05,-0.0168973227235106,-6.45918137132892e-16,2.41592945074697e-15,-3.77510688950491e-16,1.51341473902808e-15,8.08875442189429e-16,-3.38575953320953e-15,3.13810020105949e-16,2.36954376796398e-15,-1.38578644204756e-16,3.87014390725717e-15,-0.00275984987909863,2.26986387806813e-09,5.12784259498744e-15,-1.11161080340594e-14,6.24500451351651e-15,2.63677968348475e-16,6.8139938136369e-15,-4.49490215234819e-15,-0.000292355708152135,-1.54500395919728e-09,1.27738767239492e-09,3.59729068914393e-16,2.40648149985066e-08,-0.374704230529975,-3.49038145446536e-14,-4.1826922209037e-15,9.99173195470498e-15,-1.01608604843085e-14,-1.75888484200385e-14,-2.87921129874452e-14,-2.87203705394716e-08,-0.508233341147234,-5.27426700250532e-14,1.13873140490601e-13,-1.96355424987219e-13,0.673131578589352,-9.20966689750682e-06,2.53297172162826e-14,-1.44009214712438e-08,-1.42992132486397e-15,-3.79945105163384e-16,1.36563743334571e-16,3.56986245700082e-16,0.0208786846295849,0.000155895225130636,-5.32330523576264e-15,-5.06333943128574e-15,-4.69170414366225e-15,-5.64996351156694e-15
"Galium_triflorum",-0.108176591642823,-0.0884927802936538,-0.0049113613542447,-0.134765887545855,-0.00162346235177822,-0.000411036481632549,-0.0602655313483277,-0.00586052497571651,1.67336236716308e-05,1.38948738081319e-06,0.0101034412436127,-4.09097118549722e-05,-1.79923495174447e-06,-9.38305660595102e-06,-0.00546310251438252,0.00108956170160649,-0.000104464505051676,-1.16541330416474e-05,1.17161340418544e-05,-0.000740140204588115,1.28588835522245e-06,-2.21291765219013e-05,8.20235766419222e-17,-0.000180081532217221,-2.28037304650662e-05,3.15916659824387e-06,0.277265886812534,-2.7474210881959e-06,2.84573323487608e-05,1.25540318519545e-06,2.32262895144022e-05,-7.23303936021721e-05,0.0578748550597494,0.0121787156507387,4.50561573152478e-05,0.00865030734429763,-2.07048650364409e-16,3.81916762135085e-06,-8.28734536891649e-16,8.24884786249944e-06,-4.24502660331367e-05,-0.0273738391174675,-6.7540251117647e-16,3.20904021797234e-16,-7.05680374019497e-16,-6.96356496334006e-06,0.0103523852843155,1.07284614687395e-14,-1.740550204394e-05,-0.0103338515824206,-1.1417082582715e-15,6.68419630187757e-17,4.07669333635953e-15,9.23139098883369e-18,8.5070498539757e-16,-1.338406208241e-15,1.80733931911575e-15,5.72445955674103e-16,-1.71287837935631e-16,2.73382569081146e-15,-0.000653264500168727,4.45181032763393e-10,-1.51996470965088e-14,3.92394450265954e-15,1.20042864537595e-14,-5.02375918642883e-15,3.82055498349132e-14,7.43104709456187e-16,0.000428230426841657,2.5487805322762e-09,-2.72772098127907e-08,-2.94213943024171e-16,8.36896868730304e-08,-0.592883376897945,-7.78088286753189e-14,3.8910696754292e-14,1.47341499027941e-14,-2.49608111713411e-14,-2.54588155680682e-14,-6.56243305152531e-14,-3.78468991199544e-08,0.7178955340854,9.58652491994324e-14,4.00549898069592e-15,2.67812460007723e-14,0.00360487350846724,-1.49054141353622e-05,-1.54238021276002e-14,-2.17425615881529e-08,-7.24546804170043e-18,-2.10660464878942e-15,-1.61492051583641e-15,4.22573978983652e-15,0.0129395877017592,0.000206787434395568,-1.97592860352553e-15,7.21054474017444e-15,-1.51437080178501e-15,1.71148683372968e-15
"Crucianella_gilanica",-0.106421254052858,-0.0856734983338439,-0.00465990507740623,-0.119493995779153,-0.00138736126223093,-0.000343573592872321,-0.0402582617988033,-0.00359190368568514,8.79642551304559e-06,7.17551660774071e-07,0.00450904890013173,-1.57681712720959e-05,-6.72912229388013e-07,-3.30809609439855e-06,-0.00134867036360195,0.000231915293740322,-2.16985170934812e-05,-2.32729725561311e-06,9.65083994625716e-07,-2.83614352515703e-05,-1.29236858089127e-09,1.87709714756965e-06,-6.5737248613966e-16,2.82481312345854e-05,4.14408369677732e-06,-9.68389580227867e-07,-0.0886415923224075,-1.23076928796044e-06,2.31404379400004e-05,-5.49828582232435e-06,-6.59877653104619e-05,0.000198843934978452,-0.159173020674144,-0.0336023782429613,-0.000124961765992797,-0.0241764077242682,-1.33674319847758e-16,-1.08423889265326e-05,8.97788247634158e-16,-2.3810660502456e-05,0.000106492905276397,0.0627758173882379,-2.78195213237966e-15,-1.50617675622204e-15,-1.14563810890453e-15,0.000140992311008402,-0.206906218490302,-2.00624035234856e-13,0.000277584194968203,0.159240328829013,1.93604521142187e-14,-1.34473829635505e-14,-1.22312264174949e-14,-3.56546891685727e-15,3.56927812892012e-16,1.4507869339614e-14,-9.78565832462136e-16,-1.4204109751469e-14,-1.53264157486299e-14,1.9375104795034e-15,-0.920772703770719,1.34168705546349e-06,8.01008565032291e-14,2.47926679186605e-14,-6.07361383409e-14,1.20597976049908e-14,-1.34711686250455e-13,-2.04652075092466e-14,-0.0189854126401401,-2.53643192830126e-06,3.70596603068221e-06,6.31287094661835e-15,-2.84127860440015e-06,0.0132989868379936,2.69534013327051e-15,2.53775676348775e-15,-4.60811116416066e-16,3.05662891801868e-15,2.90990315773647e-15,-3.39955327614654e-18,-1.02308383353629e-07,-0.000728755850877868,-2.55648422683736e-15,2.13772761384531e-15,2.45442383015698e-15,2.25511887554533e-05,-5.75740414099862e-05,-1.06440978246895e-15,-8.69986624797877e-08,-1.82372370770354e-15,4.0241850186303e-15,9.40062122360788e-17,-5.02374162904126e-17,0.000381182534930054,0.000399720555712721,-1.26784651681089e-15,3.38076654542595e-15,-1.55728582459454e-15,-8.94826810642957e-16
"Rubia_peregrina",-0.10483844106874,-0.0831415516565508,-0.00443521918326283,-0.106076816808444,-0.00118182063667416,-0.000285162466466093,-0.0238468809771389,-0.00176805702868386,2.63363219567011e-06,1.97881241980474e-07,0.000316846151628828,2.51053600544971e-06,1.41041603183052e-07,1.0313910565623e-06,0.00140726332383366,-0.000329077266257424,3.22371610712547e-05,3.714806461807e-06,-5.32904880041431e-06,0.000369079192894086,-6.86073330616076e-07,1.30758479780978e-05,6.52054610254382e-16,0.00011054106206396,1.39875611888314e-05,-1.42143153968396e-06,-0.106105988726303,-1.22539141273342e-05,0.000174442964860264,-1.83269846533468e-05,-0.000159960510643346,0.000400123399568744,-0.30340655230346,-0.060047776711139,-0.000208367524138926,-0.0368364542867118,-7.45377099652873e-17,-1.34263812854297e-05,-2.29827903552644e-15,-9.48768844590105e-06,-0.000222585485801839,-0.204239780904841,-1.30207543534255e-14,-6.90309572721913e-15,-6.1545539866798e-15,0.00038088066106554,-0.537280388371773,-5.32103355025417e-13,-0.000780582332526742,-0.715961510034673,-5.65567124420618e-14,2.29831753118917e-14,2.58231598148338e-15,1.01718509223352e-15,7.71364118318059e-15,-3.90179623753383e-14,-5.6823556484916e-15,7.26169708689762e-15,1.98265775153248e-15,5.25507015239027e-16,0.094528756039111,4.26629895067728e-07,-1.95156391047391e-14,-1.33747179997812e-14,-2.10248485288389e-15,-1.21569421196455e-14,3.96904731303493e-14,5.83607185335144e-15,-0.00383985133107442,-5.19040587192004e-06,7.8597186126144e-06,3.49799341060722e-16,-6.20061355210748e-06,0.00594798408715387,1.66388464124206e-15,-1.67803244200427e-15,-2.63602743533229e-15,-2.49603793405884e-15,-1.87115547704107e-15,2.25580091506e-15,-2.23759973075187e-07,-0.000378260446483072,2.18375338955684e-15,-5.74186055632264e-15,2.88024901391536e-15,1.21475859097042e-05,-0.000122015452660202,9.1468208679833e-16,-1.83282374957635e-07,-4.60416140257297e-16,1.75558766483078e-15,1.92216531062356e-15,-1.36771859108082e-15,0.000225518691681619,0.000241472414772861,-2.60356228371219e-15,7.8796789137271e-15,2.52421814557618e-15,7.44325935833991e-16
"Kelloggia_galioides",-0.103002974885571,-0.0802045693463127,-0.00417449418308471,-0.0904893204833352,-0.000942890131519149,-0.000217239157208579,-0.00470637564294347,0.000361017928941451,-4.57024382712775e-06,-4.0965977140919e-07,-0.0045889815419893,2.3916790894691e-05,1.09438860691053e-06,6.11520562267213e-06,0.0046387200061222,-0.000986972178687835,9.54904886123967e-05,1.08008860261457e-05,-1.27085828146185e-05,0.000834800598291855,-1.48785145821288e-06,2.61441765725293e-05,1.83791849726929e-16,0.000205956755158397,2.53569436524256e-05,-1.8709603824935e-06,-0.117973885733283,-2.5985090879221e-05,0.000362513018272961,-3.40137740685861e-05,-0.000271451024860471,0.000626782281354195,-0.46160958796189,-0.0878491143597958,-0.000290488524656195,-0.0476711679631739,4.09153850554714e-15,-1.36304566845653e-05,-8.83281048765594e-15,2.26775932341908e-05,-0.000858007238951042,-0.722750039799126,4.08994088794946e-15,-1.4499600282514e-16,-2.12478401032155e-15,-0.000586212049493714,0.41963102839724,4.10902941930633e-13,0.000639778751707123,0.169304753099804,9.0254306603278e-15,8.5251121351789e-18,4.06948200192547e-15,-3.52121310674921e-16,-3.89253135470329e-15,9.19704944694706e-15,2.89569631762504e-15,1.7038952082416e-15,-3.04328376765142e-16,7.30874712935312e-16,0.0235712089268515,7.44676226010709e-07,2.00880978518114e-14,6.506947758389e-15,1.25247034965525e-15,1.24414367697057e-14,-1.092181900475e-14,-6.8744264578008e-18,-0.00153684453955684,-7.95435386111296e-06,1.21137818347266e-05,-2.73476266713082e-16,-9.61914225241541e-06,0.00330180781865087,1.95337432511525e-15,-3.87330201724535e-16,-5.57512972210536e-16,2.14364890143282e-15,4.48806473805888e-16,3.06092749845018e-15,-3.49893889122694e-07,-0.000229129225902486,1.72199898122601e-15,1.79304114325341e-15,-1.70300802477716e-15,7.53064165683701e-06,-0.000190233578213371,-9.63517395679528e-16,-2.85511247783177e-07,-1.35499499691379e-16,2.0296395615248e-15,-2.84226174118946e-16,-4.36541478640384e-16,0.000148591582755497,0.000161350700934347,-1.66478733742381e-15,2.02951132440096e-15,-5.57344737684784e-16,-2.01803194823229e-16
"Coprosma_propinqua",-0.0900695909262175,-0.0587236734174629,-0.00217458469185768,0.050668511995342,0.00143708566501378,0.000500529504688455,0.416672262206386,0.0709380585173292,-0.00105898913119441,-0.000138172156694461,0.355792572899919,-0.000718910533834703,-2.90432856826497e-05,-0.000131749447324176,-0.0474008767768508,0.00841038286313608,-0.000792948750153237,-8.6210919307308e-05,6.14242791571281e-05,-0.00342805861202025,5.31795919705437e-06,-7.017425787339e-05,2.75454936810093e-16,-0.000428390335438283,-4.7889123108871e-05,1.12239020635317e-06,0.0106262299699679,2.16656943147359e-05,-0.000282047569101151,1.50868259758045e-05,5.96353517335228e-05,-4.96066277246732e-05,0.0174477145304064,-0.00108023136055682,-1.97627507185295e-05,-0.00698066879134378,-4.4379666211792e-16,-5.2713459286834e-06,6.82246729921231e-16,-1.74364074803279e-05,4.63252131999327e-05,0.00954276511916359,9.20044798658054e-16,-2.17392734191256e-16,1.05996644974521e-15,-6.96896408470224e-05,0.000408479746886042,6.00004297283735e-16,0.000154823349738787,0.000841073337680898,-4.77846264498857e-16,5.39841198592156e-16,-3.38425499468761e-16,-5.65642703516394e-16,-1.68132264050499e-15,2.14925294965914e-15,-9.40728603266518e-17,-4.86304877954034e-16,1.2898318993771e-15,1.84438710306119e-15,0.000325813685953615,4.06307094252005e-07,7.65533469948565e-15,-4.65079363909382e-15,3.32373017997156e-15,7.78196951323196e-15,-3.4555691641458e-15,-2.38639218276454e-15,-3.03072293543387e-05,-4.70116928292628e-06,7.42026840627487e-06,8.93459033221263e-16,-6.14711498754644e-06,9.79556671537737e-05,-1.25853586683075e-15,-7.99664099050064e-15,3.30209972284854e-15,-1.18064457269066e-15,5.91582900143214e-15,3.14520031304054e-15,-2.43012858878078e-07,-7.11864343622652e-06,-2.87326382066972e-15,2.20523099860554e-14,2.28514526408245e-14,1.6755851447583e-07,0.817151805891546,-4.57127275981682e-14,-3.51684640606256e-07,-1.10633999953907e-14,-1.27306109667788e-14,3.32744335985527e-15,1.45804065793692e-15,7.62034411932228e-06,8.38004155632299e-06,-5.19712073405679e-15,1.68828366994978e-15,1.34989728896284e-14,-7.81540603349574e-15
"Coprosma_robusta",-0.0900789492044224,-0.0587356227886251,-0.00217529362062883,0.0507047211244298,0.00143839723166,0.000501043609803355,0.417517625663711,0.0711046656378743,-0.00106200388257349,-0.000138572743725415,0.356964185940798,-0.000721520945469516,-2.91505805157481e-05,-0.000132251754231934,-0.0476090741104915,0.0084488864999647,-0.000796601214052533,-8.6611795714561e-05,6.17493693520418e-05,-0.00344703707355664,5.34856899447323e-06,-7.06118443484307e-05,1.62975937205533e-17,-0.000431247753956212,-4.82161167084848e-05,1.13114776447625e-06,0.0107108763599567,2.18793946978621e-05,-0.000284868388973429,1.5254338149081e-05,6.03586492192422e-05,-5.02434391286898e-05,0.0176751950561602,-0.0010945631198393,-2.0029526902653e-05,-0.00707682648474225,-6.54934977930166e-16,-5.34670810878849e-06,8.95297606105928e-16,-1.77067510405719e-05,4.71172542540901e-05,0.00970903072295329,-6.61719788355001e-16,1.71048288964315e-16,-6.76607595435114e-16,-7.13126776260598e-05,0.000418028685412932,4.61665028865702e-16,0.000158793496217207,0.00086287829954293,7.77902262904864e-16,-5.56734670224044e-19,1.73904231671847e-15,1.20157524843556e-15,1.72007125661195e-15,-1.35480779531647e-15,-6.4823907584672e-16,1.41833465073505e-15,-4.05852041011178e-17,8.50151797359183e-17,0.000337039698961986,4.20548014394753e-07,3.13464532109009e-15,4.45130043935649e-15,-1.20736753927986e-15,-9.95731275210687e-16,-5.91193760612896e-15,1.28691433622375e-15,-3.16598821179463e-05,-4.91289813680011e-06,7.79380210546586e-06,6.33042407563483e-16,-6.5119436861516e-06,0.00010784404633834,1.62372308435596e-15,6.01166345458254e-15,-1.95738142750819e-15,-2.45639848328341e-15,3.02608494700579e-15,-1.98260830583493e-15,-2.78181564650592e-07,-9.37733794635368e-06,-1.5519842580797e-15,2.12475742921895e-14,-3.67485580760171e-14,3.64010553640845e-07,-0.407592143396578,0.70710678118657,-1.84394905701442e-07,-6.05217702277333e-15,1.03530932117689e-14,-1.05142026338173e-14,-8.5048710911344e-15,6.48888079829186e-06,7.43749868629433e-06,1.23793896523157e-16,3.46838727974446e-15,-1.12340676015831e-15,8.40386474590358e-15
"Coprosma_rhamnoides",-0.0900789492044224,-0.0587356227886251,-0.0021752936206288,0.0507047211244297,0.00143839723166008,0.000501043609803306,0.417517625663711,0.0711046656378745,-0.00106200388257349,-0.000138572743725383,0.356964185940799,-0.000721520945469591,-2.91505805158561e-05,-0.000132251754231811,-0.0476090741104913,0.00844888649996518,-0.000796601214051993,-8.66117957148907e-05,6.17493693518898e-05,-0.00344703707355692,5.3485689943394e-06,-7.06118443493063e-05,-3.38128231555818e-17,-0.000431247753956518,-4.82161167088488e-05,1.13114776463761e-06,0.0107108763599563,2.1879394698151e-05,-0.000284868388973301,1.5254338148081e-05,6.03586492192034e-05,-5.02434391287869e-05,0.0176751950561609,-0.00109456311983915,-2.00295269040002e-05,-0.00707682648474112,-5.79205029394539e-17,-5.34670810794323e-06,-1.04332596526562e-15,-1.77067510393461e-05,4.71172542534279e-05,0.00970903072295366,-6.79526350502098e-16,-5.35927436196841e-16,-1.63619352659916e-16,-7.13126776242032e-05,0.000418028685413317,1.89306276473e-16,0.000158793496216723,0.000862878299539925,2.28053969663233e-16,-6.82572352094025e-16,-1.32270813698302e-15,-5.75552031720342e-16,6.98546956876809e-17,-4.73480653832437e-16,6.57423216386579e-16,-1.16733217626804e-16,-6.33203990395857e-16,1.15296317276933e-15,0.000337039698962861,4.20548015049052e-07,-7.77503061932805e-15,-1.58727198051878e-15,-3.52842755013683e-15,-3.61863317088762e-15,6.80011602582908e-15,1.29283645658712e-17,-3.1659882122774e-05,-4.91289813893717e-06,7.79380210676987e-06,-5.7250794142016e-16,-6.51194368194036e-06,0.000107844046348818,-7.68563056280348e-16,7.11513627490518e-16,-1.78181456263741e-15,2.85879391397444e-15,-8.67817812560163e-15,2.83887408320975e-16,-2.78181563921248e-07,-9.37733796713233e-06,7.02185304859881e-15,-4.57682630317465e-14,1.42065113683851e-14,3.64010598480665e-07,-0.407592143396657,-0.707106781186525,-1.84394558640005e-07,1.6096800170333e-14,9.13978946051699e-15,7.95492846247157e-15,3.40127952210055e-15,6.48888076376856e-06,7.43749869290003e-06,3.53988671463854e-16,4.93943278737279e-15,-9.67212404977213e-15,-4.67537539950115e-16
"Oldenlandia_corymbosa",-0.0870738042257956,-0.0542364528000374,-0.00181408295232918,0.0624699957250226,0.00150863239737752,0.000498696853618745,0.257093221142613,0.0309963134830216,3.44382920638369e-05,1.48029352301513e-05,-0.379461669656725,0.00299331525037389,0.000172365336989675,0.00227080231089598,-0.185234832763587,0.026497825111748,-0.00243386185762733,-0.000254685029266049,0.000126043271697595,-0.00643271263033216,9.30266272240221e-06,-0.00010737266869504,3.93388442945388e-16,-0.000586293201776686,-6.29410595708434e-05,1.08727622453021e-06,0.00624334993748223,3.60615206522924e-06,-2.41626382219747e-05,-1.23123837733373e-05,-0.000153589823447037,0.000263314234803396,-0.100526343576472,0.026267644830112,0.000514814522037638,0.847209974087328,3.59704079907819e-14,-0.000117016389575795,5.14888580550393e-15,-0.000129317705197321,0.000206125934946031,0.0289770143855495,4.38358876982562e-16,-3.08185685506191e-15,9.4612918815043e-16,-0.000217192356815249,0.000846438221882125,1.13923469572179e-15,0.000451680461417482,0.00163979352883762,3.82460343094759e-16,1.24132933698707e-15,8.98682077593496e-16,-8.87520643203414e-16,-9.09374784948261e-16,-3.00175634987377e-16,-3.59816095759823e-16,2.95258337252005e-16,7.76778846882627e-17,3.69206454878411e-17,0.000574474039653194,1.04861928766568e-06,2.15452655716319e-15,2.31238639347708e-15,-3.88925003314e-15,9.64506252643105e-16,-5.06539254985228e-15,-9.695930902834e-16,-5.09393859283256e-05,-1.1509168188474e-05,1.78835978044239e-05,5.18247781259112e-16,-1.45649743381663e-05,0.000157974499588491,-1.45028477697152e-17,-5.13979431822887e-16,-8.39270558963592e-16,-4.63578048868751e-16,-1.55091285712496e-16,4.00848984489949e-16,-5.69750021563511e-07,-1.26199758813238e-05,3.94630383427857e-17,-1.78141655601939e-16,3.78678055758168e-16,4.32664113941682e-07,-0.000226947541021382,3.61477118576601e-16,-4.89809611318976e-07,-5.20817294678832e-16,3.2015107440291e-15,-2.71799258231557e-16,-1.26513272352722e-15,9.65977996770452e-06,1.08248260587956e-05,-1.50333928514908e-15,3.13163332227527e-15,1.52770052833801e-15,2.19705786386327e-16
"Spermacoce_brachystema",-0.0874132895326108,-0.0546547359321636,-0.00183677741225856,0.064253762080669,0.00156482784177615,0.000519865393067166,0.281312077171183,0.0345152436472371,3.95010939791501e-05,1.70351904537008e-05,-0.448194646698114,0.00362223364902035,0.000209572967125934,0.00278614297835569,-0.238549458469255,0.0347128533151384,-0.00319690253423731,-0.00033593296364641,0.000177878188244589,-0.00934646520158182,1.39032536972288e-05,-0.000171971638409428,7.19421122824082e-17,-0.00101085915138233,-0.00011182692045675,2.45484858265152e-06,0.014862684402803,5.23288128116132e-05,-0.000687348344146406,4.10425043581955e-05,0.000198847668629651,-0.000208300929518388,0.0696847645799539,-0.0156722885758142,-0.000263862633993092,-0.361204021668564,-1.58141721542923e-14,3.44762390987771e-05,-6.01142316970251e-16,1.13742850215275e-05,1.54350903755355e-05,0.00288078609749535,-8.29075590617708e-16,7.15396972949337e-16,2.2690122127734e-15,-7.23631645286564e-05,0.000283632295572541,1.43923893762072e-15,0.000170391889096923,0.000625809980125123,2.55281659148236e-15,1.99992729030337e-15,-4.03954217525796e-15,-4.29562196738948e-15,-2.73166089773128e-15,4.27384153799811e-17,1.97324027239981e-15,8.94524007707335e-16,1.58561229050116e-15,-7.3528026985711e-15,0.000267973520406885,4.93074495922772e-07,2.83882292673177e-13,7.60617263617647e-13,4.6372627959812e-14,5.23921184214515e-14,-5.66477420527178e-13,0.707106781186548,-2.61208427137184e-05,-5.91652738080485e-06,9.45144631616318e-06,2.19981773738661e-15,-7.95078830202978e-06,9.1849467985738e-05,1.68150560955993e-15,-1.72035393327207e-15,-8.18643882161456e-16,-7.01569973647814e-16,-2.02736779934855e-15,1.13815578697276e-15,-3.39054059817875e-07,-7.7111840577752e-06,5.00140415314939e-16,-6.96012331961143e-15,-3.42227350536882e-15,2.68327153952224e-07,-0.000142066593903122,-1.3310945114306e-15,-3.09224968374458e-07,-4.30210238993035e-16,-4.09552387090291e-16,1.1636902871151e-15,-1.41206681964192e-15,6.25496119416964e-06,7.08586117794332e-06,-1.51352966114379e-15,2.69803444998352e-15,9.33412499635359e-16,3.85290415898808e-16
"Spermacoce_leptoloba",-0.0874132895326108,-0.0546547359321636,-0.00183677741225858,0.0642537620806689,0.00156482784177618,0.000519865393067256,0.281312077171183,0.034515243647237,3.95010939790783e-05,1.70351904536451e-05,-0.448194646698115,0.00362223364902019,0.000209572967125702,0.00278614297835461,-0.238549458469256,0.0347128533151389,-0.00319690253423663,-0.000335932963646906,0.000177878188244423,-0.00934646520158173,1.39032536971316e-05,-0.000171971638408767,7.41087230502691e-17,-0.00101085915138207,-0.000111826920456241,2.45484858300783e-06,0.0148626844028019,5.23288128134719e-05,-0.000687348344147564,4.10425043576194e-05,0.000198847668629836,-0.000208300929517397,0.0696847645799536,-0.0156722885758144,-0.000263862633991025,-0.361204021668566,-1.53243480074913e-14,3.44762390997659e-05,-2.50677223709226e-15,1.13742850229352e-05,1.54350903744601e-05,0.00288078609749367,5.2885911416339e-17,1.53003722205981e-15,-2.4319322331484e-15,-7.23631645339328e-05,0.000283632295571004,-1.01175275195667e-15,0.00017039188910376,0.000625809980118495,-2.53164336490152e-15,-3.13485413976427e-15,3.27662992702888e-15,5.12100359272302e-15,3.73589935782293e-15,7.07450961816538e-16,-1.3747921139172e-15,-7.31328923777758e-16,-1.23492875979104e-15,9.32362881672264e-15,0.000267973520436629,4.93074464792665e-07,-2.82640230664377e-13,-7.62430049650042e-13,-4.36560509964323e-14,-4.8915732575594e-14,5.68087243912885e-13,-0.707106781186547,-2.61208426893256e-05,-5.91652733635148e-06,9.45144631937802e-06,-1.90371492618501e-15,-7.95078830793207e-06,9.18494679871225e-05,-1.31081315842715e-15,1.52916990093083e-15,6.5244974431557e-16,5.12867826964628e-16,8.99960873474702e-16,-8.52221072398063e-16,-3.39054064654633e-07,-7.71118405446043e-06,2.52204989693093e-15,2.53228354093368e-15,2.90047003670453e-15,2.68327149092164e-07,-0.000142066593906544,-2.20871486805166e-16,-3.09224966900958e-07,-5.99269380878446e-16,4.06687650002887e-15,-1.70115064243607e-16,-1.4213559304455e-15,6.25496119903984e-06,7.08586117477818e-06,-1.29662025183653e-15,4.57153580403845e-15,1.0262202056e-15,-1.98870944730238e-16
"Psychotria_penangensis",-0.0895692122979762,-0.055839901254323,-0.00160728647288069,0.247328125173922,0.0110498477119395,0.0130452897596896,-0.126995311034672,-0.00525073374700672,-0.000108934207034976,-1.56078203871114e-05,0.0434097050324314,0.000137801388487485,1.21436702140171e-05,0.000260507054703506,-0.0675596378564575,0.0131679603604208,-0.00127223028483202,-0.000144546949833481,4.18810326595217e-06,-0.139335321124624,-1.07121638704351e-05,3.42031001643797e-05,-3.04022904023564e-16,7.77179220687466e-05,5.62173192650311e-06,9.8225855850519e-08,0.000259501440942194,5.7575549644414e-06,-7.7044072600665e-05,5.00696038995476e-06,2.44185916391437e-05,-2.55081640890035e-05,0.00635343356796312,-0.0251047370029152,1.95808967771089e-05,0.000508044817896391,2.76063862743165e-16,-5.55302729792359e-07,2.80030859260851e-15,-4.15037184465757e-06,1.13346544897123e-05,0.000801893621305577,3.32422030205121e-15,-4.85373753937196e-15,-4.88956057576496e-15,-3.04715899211855e-05,5.20290700956163e-05,-3.17980987322075e-15,0.131852858952231,-9.71770560125092e-05,-4.2774078827946e-14,0.230100964313284,-0.0694470176313099,-0.258800907060133,-0.476636388557475,0.691524221761829,0.164339920383044,-3.27603752435302e-15,-8.21801631516622e-15,8.40781698305501e-15,3.56366397899315e-05,1.46534734601135e-07,-6.27276008913213e-15,1.48232121022218e-15,1.91981847086353e-14,-6.26582119522823e-15,-1.33990041284449e-14,-4.7274403410086e-15,-3.65821972791785e-06,-1.8171389169892e-06,2.92701666202349e-06,-6.70048169119472e-16,-2.48604464407337e-06,1.37108718783921e-05,-1.58402259433025e-16,4.18767408471181e-15,1.21753033680784e-16,-2.6115049293064e-16,1.84042405473495e-15,2.81801982662108e-16,-1.09059242359487e-07,-1.18686829797112e-06,-2.12847656034698e-15,-1.18282311243046e-15,-1.05077259545957e-15,4.17205051619609e-08,-2.22361869196107e-05,1.19101064334969e-15,-1.01918353202568e-07,-6.06830682299136e-16,2.51933119665518e-15,1.37360958947977e-16,-5.39387547173504e-16,1.00483114792336e-06,1.14868056156267e-06,-4.15094402431292e-16,1.89419144349725e-15,-4.97665174392582e-16,-1.49120575846818e-15
"Psychotria_limonensis",-0.0895692122979762,-0.055839901254323,-0.0016072864728807,0.247328125173922,0.0110498477119395,0.0130452897596896,-0.126995311034672,-0.00525073374700654,-0.000108934207035105,-1.5607820387029e-05,0.0434097050324314,0.000137801388487692,1.21436702136505e-05,0.000260507054703814,-0.0675596378564577,0.0131679603604207,-0.00127223028483205,-0.000144546949833928,4.1881032652733e-06,-0.139335321124624,-1.07121638707818e-05,3.42031001641106e-05,4.96031692693396e-16,7.7717922069066e-05,5.62173192578109e-06,9.8225856037996e-08,0.000259501440942288,5.7575549646466e-06,-7.70440726001648e-05,5.00696039165989e-06,2.44185916373821e-05,-2.550816408824e-05,0.0063534335679608,-0.0251047370029151,1.95808967786198e-05,0.000508044817897604,-2.44674249090827e-16,-5.55302730154009e-07,-9.4025623546141e-16,-4.150371839967e-06,1.13346544886773e-05,0.000801893621303367,2.32333938924137e-16,-8.10903808397352e-16,2.19133860026415e-15,-3.04715899251985e-05,5.20290701060975e-05,2.68098671302643e-15,0.131852858952206,-9.71770559787932e-05,-4.4049242315386e-15,-0.391368932664398,-0.613174557708051,-0.0986898517059171,-0.221824508979842,-0.404828722064051,0.324280871538288,2.26893574281031e-14,1.25938634227494e-14,-1.41605083463706e-14,3.56366397916558e-05,1.46534732656861e-07,-2.16632267679984e-14,1.3840491253081e-14,-9.58434720477186e-15,-1.44884104713583e-14,-2.28636554133743e-14,-4.21743163907177e-15,-3.6582197268111e-06,-1.81713890870863e-06,2.92701666266547e-06,1.43599147810317e-15,-2.48604464255808e-06,1.37108718824435e-05,1.60878753083193e-15,-2.66502300151026e-15,1.20770593341752e-15,7.89139108882561e-16,3.93720124733905e-16,2.92831382942612e-15,-1.09059241337148e-07,-1.18686829442308e-06,1.64987103081574e-15,9.4741731606904e-16,-8.88768689524252e-16,4.17205067494518e-08,-2.2236186916094e-05,1.87796113983654e-15,-1.01918352949748e-07,-1.67424328065292e-16,2.07361029301625e-15,5.06898623611226e-16,-2.04987118836597e-15,1.00483114574934e-06,1.14868056329125e-06,-1.67220421200773e-15,4.36443767328823e-15,1.7678836852332e-15,-2.30507591366869e-16
"Psychotria_chagrensis",-0.0895692122979762,-0.0558399012543229,-0.00160728647288066,0.247328125173922,0.0110498477119395,0.0130452897596896,-0.126995311034672,-0.00525073374700663,-0.000108934207034931,-1.56078203870711e-05,0.0434097050324313,0.000137801388487579,1.21436702138778e-05,0.000260507054703564,-0.0675596378564573,0.0131679603604209,-0.00127223028483194,-0.00014454694983366,4.18810326593112e-06,-0.139335321124624,-1.07121638707155e-05,3.42031001637338e-05,2.39204705139309e-16,7.77179220693744e-05,5.62173192627641e-06,9.82258560456975e-08,0.000259501440942225,5.75755496343443e-06,-7.70440726008016e-05,5.00696038991006e-06,2.44185916391241e-05,-2.55081640875358e-05,0.00635343356796133,-0.0251047370029131,1.9580896777958e-05,0.000508044817898355,-4.66730417847449e-17,-5.5530272993824e-07,3.59653166943892e-16,-4.1503718413849e-06,1.13346544891957e-05,0.000801893621303745,1.89151386200089e-16,2.64121707782783e-16,6.16847944608257e-16,-3.04715899211919e-05,5.20290701093032e-05,-8.65145328149498e-17,0.131852858952211,-9.71770559978682e-05,-1.16419156760129e-15,-0.0860823081529317,-0.414687989280444,0.276077041770864,0.53504588440296,0.355755868574597,-0.434409594136346,-3.74542297920758e-15,-2.32567353686041e-15,3.20958564875218e-15,3.56366397923184e-05,1.46534733727078e-07,3.53883589099269e-15,1.82232701151364e-15,7.73513197938058e-15,-3.29597460435593e-15,-1.90611415540332e-14,3.97046316753977e-15,-3.65821972984166e-06,-1.8171389128419e-06,2.9270166626299e-06,-2.2775144212869e-16,-2.48604464372327e-06,1.37108718794988e-05,-7.80218900129184e-17,-2.85185890287599e-15,4.75983885921715e-16,4.10161866119019e-16,-7.24021471752198e-16,1.94567021156034e-15,-1.09059241104222e-07,-1.18686829614019e-06,1.43998655883375e-15,-1.0232285526406e-15,1.06889098059327e-16,4.17205046704865e-08,-2.22361869163291e-05,-4.46568317972963e-16,-1.01918352461934e-07,-7.71636849130255e-16,2.39516609200328e-15,-1.24052772539887e-16,-1.29576732886917e-15,1.00483114786932e-06,1.14868055983513e-06,-2.1602078916547e-15,2.15786941184573e-15,1.7574753443773e-15,3.11549300236088e-16
"Psychotria_brachypoda",-0.0895692122979762,-0.0558399012543229,-0.00160728647288066,0.247328125173922,0.0110498477119396,0.0130452897596897,-0.126995311034672,-0.0052507337470068,-0.000108934207035149,-1.56078203869959e-05,0.0434097050324314,0.000137801388487621,1.21436702136153e-05,0.000260507054703464,-0.0675596378564575,0.0131679603604207,-0.00127223028483179,-0.000144546949833748,4.18810326607799e-06,-0.139335321124624,-1.07121638706595e-05,3.42031001642849e-05,-1.61071437239062e-16,7.77179220691403e-05,5.62173192628976e-06,9.82258558156504e-08,0.00025950144094155,5.75755496341032e-06,-7.70440725997055e-05,5.00696038985039e-06,2.44185916389224e-05,-2.55081640875685e-05,0.00635343356796205,-0.0251047370029146,1.9580896777936e-05,0.000508044817897214,5.66639162105177e-16,-5.55302729336542e-07,-6.35760104738981e-17,-4.15037184081735e-06,1.13346544893945e-05,0.000801893621305262,-1.48642558072431e-15,3.3510297634945e-16,1.66510077935814e-15,-3.04715899204248e-05,5.20290700916437e-05,-2.35670867275822e-15,0.13185285895223,-9.71770559643724e-05,1.61662744048282e-14,0.163079895596047,0.275146102139198,0.79005803890748,-0.104494462294197,-0.0890251870765232,0.334374260143252,2.88169073322448e-15,1.05591468537403e-15,3.33009650146562e-15,3.56366397792377e-05,1.46534735700518e-07,4.68809019382732e-15,-2.99760216648792e-15,6.81746326058885e-16,2.91260071616506e-15,1.90125692967058e-15,5.15354457815413e-15,-3.65821972604739e-06,-1.81713891215835e-06,2.92701666252393e-06,-2.20034748525353e-15,-2.48604464484014e-06,1.37108718830208e-05,-6.79466801667182e-16,7.01075147203558e-16,-8.18812905168092e-16,3.57942456230944e-15,8.49578707685044e-16,-2.44267076883485e-16,-1.09059240957757e-07,-1.1868682981226e-06,6.35139663716395e-16,-1.84895692720554e-15,2.73428200434111e-16,4.1720503203807e-08,-2.22361869159553e-05,-1.7649581597147e-15,-1.01918352701488e-07,-4.24047207388672e-16,2.17398749028781e-15,3.3808157254845e-16,-1.14196738921609e-15,1.00483114834564e-06,1.1486805592647e-06,-2.01745020555125e-15,3.49013704139589e-15,4.84188313010357e-16,4.66268458531543e-17
"Psychotria_papantlensis",-0.0895692122979762,-0.0558399012543229,-0.00160728647288066,0.247328125173922,0.0110498477119395,0.0130452897596896,-0.126995311034672,-0.0052507337470068,-0.000108934207035102,-1.56078203870916e-05,0.0434097050324313,0.000137801388487407,1.21436702141934e-05,0.000260507054704018,-0.0675596378564572,0.0131679603604206,-0.00127223028483192,-0.000144546949833981,4.18810326552762e-06,-0.139335321124624,-1.07121638706848e-05,3.42031001640366e-05,-4.36088134537252e-16,7.77179220691927e-05,5.62173192612457e-06,9.82258559935486e-08,0.000259501440941377,5.75755496318625e-06,-7.70440726009015e-05,5.00696038970194e-06,2.4418591638721e-05,-2.55081640880151e-05,0.00635343356795882,-0.0251047370029136,1.95808967780351e-05,0.000508044817895397,7.29448122675145e-16,-5.55302730190198e-07,-6.12258383491665e-17,-4.15037184187463e-06,1.13346544895953e-05,0.00080189362131074,-2.70833834190374e-15,1.43033256270902e-15,6.64709193464463e-16,-3.04715899203671e-05,5.20290700988116e-05,-4.50294229198991e-15,0.131852858952236,-9.71770559416128e-05,1.37586971428797e-14,0.576244050925314,0.0717156527504883,-0.398931850226938,0.472377936987128,-0.274224531063615,0.249911756729946,-2.88609686480312e-15,3.22262636732549e-15,2.3108551015717e-15,3.56366397812882e-05,1.46534734474377e-07,6.86690287965419e-15,-3.76781938982163e-15,2.51361431669039e-15,6.3126587290796e-15,5.62050406216485e-15,-2.6700582985024e-15,-3.65821973012052e-06,-1.8171389110963e-06,2.92701666489767e-06,2.71800246967095e-16,-2.48604464537015e-06,1.37108718825029e-05,-2.80598181957859e-16,-1.98694943478642e-15,-6.2204446152476e-17,-1.86742165455373e-15,3.50476460899873e-16,4.85000855809677e-16,-1.09059241354405e-07,-1.18686829753558e-06,2.17845544465094e-15,-1.43262329297111e-15,-3.999042577838e-17,4.17205038012232e-08,-2.22361869154175e-05,-9.04535315629822e-16,-1.01918352743806e-07,-1.71244449887393e-16,2.01436960691451e-15,1.53208702546124e-16,-8.69372796805019e-16,1.00483114549206e-06,1.14868056112413e-06,-1.7852636681427e-15,2.47705853142543e-15,3.73166010547967e-16,1.37203473415094e-16
"Psychotria_suterella",-0.0895692122979762,-0.0558399012543229,-0.00160728647288064,0.247328125173922,0.0110498477119395,0.0130452897596896,-0.126995311034672,-0.00525073374700668,-0.000108934207035177,-1.56078203869298e-05,0.0434097050324311,0.000137801388487792,1.21436702142479e-05,0.000260507054703901,-0.0675596378564575,0.0131679603604207,-0.00127223028483176,-0.000144546949833918,4.18810326599715e-06,-0.139335321124624,-1.07121638707645e-05,3.42031001648141e-05,1.15691172102602e-16,7.77179220688932e-05,5.62173192603967e-06,9.82258558860889e-08,0.000259501440941356,5.75755496321011e-06,-7.7044072599353e-05,5.00696038979611e-06,2.44185916390079e-05,-2.55081640875039e-05,0.00635343356795763,-0.0251047370029156,1.95808967776219e-05,0.000508044817894578,2.946425734177e-17,-5.55302730043222e-07,7.00951450658163e-18,-4.15037184086131e-06,1.13346544895055e-05,0.000801893621311646,-2.27867655613653e-15,1.68696326411579e-15,1.37742381359438e-15,-3.0471589922769e-05,5.20290701038284e-05,-3.35308093648972e-15,0.13185285895223,-9.71770559545886e-05,3.90581057868169e-15,0.145677840715799,0.169319224087723,-0.0660738131577224,-0.404205966222987,-0.373314710398234,-0.707205584894796,-8.17091661789138e-15,-2.27585371941024e-15,9.47705766902176e-16,3.56366397809898e-05,1.46534732905767e-07,1.35421188152129e-14,-6.25888230132432e-15,-1.27797078475211e-14,1.01984393152676e-14,7.11930514540882e-15,-1.75525940047906e-16,-3.65821972552697e-06,-1.81713891052602e-06,2.92701666274124e-06,1.91974871414357e-15,-2.48604464458427e-06,1.37108718803072e-05,-6.32256624810165e-16,1.19709451223158e-15,-8.57316987004284e-16,-1.35263434672716e-15,-2.04145702060446e-15,-5.2385655815957e-16,-1.09059241321789e-07,-1.18686829705374e-06,1.72350876293589e-15,-2.33467950047905e-15,1.42252684914418e-16,4.17205048969929e-08,-2.22361869165932e-05,-1.0918854510355e-15,-1.01918352738793e-07,-6.92043287930718e-16,2.40524130872706e-15,5.03582484294106e-16,-1.26823438125049e-15,1.00483114645206e-06,1.14868056147084e-06,-1.94802122984565e-15,4.64199342944449e-15,3.21124306268668e-16,4.68442454401194e-16
"Psychotria_tenuifolia",-0.0895692122979762,-0.0558399012543229,-0.00160728647288066,0.247328125173922,0.0110498477119395,0.0130452897596897,-0.126995311034672,-0.00525073374700668,-0.000108934207035141,-1.56078203870885e-05,0.0434097050324313,0.000137801388487611,1.21436702139981e-05,0.000260507054703501,-0.0675596378564572,0.0131679603604206,-0.00127223028483168,-0.000144546949833818,4.18810326585592e-06,-0.139335321124623,-1.07121638708374e-05,3.42031001644108e-05,4.48580401027607e-16,7.77179220693607e-05,5.62173192617846e-06,9.82258560537662e-08,0.000259501440941722,5.75755496361586e-06,-7.70440725995675e-05,5.00696038993487e-06,2.44185916391341e-05,-2.55081640871786e-05,0.00635343356795974,-0.0251047370029153,1.9580896778973e-05,0.000508044817896964,-1.89803586252178e-16,-5.55302729028102e-07,3.27834396813341e-16,-4.15037184133865e-06,1.13346544899851e-05,0.000801893621306013,1.14219628284779e-15,1.32481460550455e-16,-3.12244751592234e-16,-3.04715899207864e-05,5.20290701008048e-05,3.22466334493376e-15,0.131852858952231,-9.71770560000314e-05,1.00738340262867e-14,-0.637651510733127,0.581128585642372,-0.243638658527628,0.199737504664416,0.0941130602659954,0.06870837023661,-4.12227909890998e-15,-1.09584848672377e-15,2.93208666725646e-15,3.5636639786397e-05,1.46534734599349e-07,1.6678498859779e-14,-4.71844785465692e-15,-1.4285447824669e-14,8.83841611010183e-15,2.24611995669477e-14,4.94190831408622e-15,-3.6582197215692e-06,-1.81713891166105e-06,2.92701666329229e-06,1.66078451311578e-15,-2.48604464407473e-06,1.37108718808801e-05,-6.58100620169324e-16,-1.69863290798042e-15,-2.12463884864813e-15,-1.40157258689688e-15,-5.99957508387055e-16,-1.84712642277669e-15,-1.09059241764102e-07,-1.18686830121232e-06,1.32015824497343e-15,-1.85589582110942e-15,2.66360762046002e-16,4.17205044125307e-08,-2.2236186915909e-05,-9.80863148574139e-16,-1.0191835280851e-07,-7.78948534545878e-16,2.26321723089376e-15,6.17455258118145e-17,-1.67914560436205e-15,1.00483114763474e-06,1.14868056026279e-06,-2.0494698421713e-15,1.96358038253629e-15,9.80319227139706e-16,5.24603232419926e-16
"Psychotria_loniceroides",-0.0895029274275199,-0.0557586607109773,-0.00160352233887738,0.24603909426122,0.0109757239486311,0.0129463576442736,-0.125014191262429,-0.00515464227587504,-0.000106466293668873,-1.52469112416374e-05,0.0422500054276887,0.000133681286948489,1.17732282655115e-05,0.000252262592850453,-0.0650310644341846,0.0126498582558061,-0.00122180123513647,-0.000138751177685876,3.99110487457178e-06,-0.132398840544243,-1.01517701625899e-05,3.22181503306281e-05,1.90312752300825e-16,7.27862691757706e-05,5.25357587268836e-06,9.04865557736973e-08,0.000238440936339021,5.11188313967203e-06,-6.8209167990813e-05,4.32309903225507e-06,2.05105206349783e-05,-2.09586422907307e-05,0.00518505526347865,-0.0203236424975293,1.57176640021165e-05,0.000403495273986667,-2.17088565503954e-16,-4.31515476540127e-07,7.1683686680155e-16,-3.03401557471265e-06,7.38639956879144e-06,0.000506714880760091,4.04445808091695e-16,5.61965274181464e-16,-1.20161476770751e-15,1.44160718870912e-05,-2.72539136445633e-05,8.04337252790652e-15,-0.937150754241925,0.00143242052939495,4.99278259824008e-15,1.29110779340255e-14,2.22467030233964e-14,-5.22355926124272e-15,-1.9177935112877e-15,2.31950815884554e-15,1.94853712570991e-15,-1.41447666115568e-15,-2.19109102075634e-15,1.96212777740535e-16,6.34228381806981e-05,2.549264103953e-07,-8.83147721619792e-15,-2.88224305533546e-15,-8.70831184940357e-16,3.49026363366534e-15,9.7907792984131e-15,-4.85430697862901e-15,-5.30957240475922e-06,-2.62699983054897e-06,4.06442117405603e-06,-1.62496824905414e-17,-3.31513905223277e-06,1.71582453818348e-05,7.19917680752283e-16,-8.54316661791755e-17,2.32951757814276e-16,-1.17602874077464e-15,-2.26816263291899e-15,5.23947325575187e-16,-1.33848074071199e-07,-1.42764742227018e-06,9.51346200077172e-16,7.42880364882031e-17,1.89955455918731e-15,4.96622666338604e-08,-2.63031048710007e-05,1.63231996937809e-16,-1.19893827196455e-07,4.01835951004093e-16,2.02050746806385e-15,4.12787458563748e-16,-1.06785746184478e-15,1.16375134864712e-06,1.32202025117227e-06,-7.98385965776242e-16,5.49838247014866e-15,1.90780627887724e-15,1.65711761524839e-15
"Palicourea_faxlucens",-0.087656803233129,-0.0534698284307139,-0.00149593257342979,0.20738742120787,0.00869514764650564,0.00985548379562777,-0.0530800930027294,-0.00146737349310077,-2.33539061231405e-06,1.44881810036844e-07,-0.0116145603371646,-7.38875481376771e-05,-7.19314628211261e-06,-0.000183165572353518,0.0934862118565439,-0.0219461284463248,0.00217922367816146,0.000258324863993401,-1.36944276352587e-05,0.575425926552319,5.51675099506854e-05,-0.000305711661313311,-6.67770360018573e-16,-0.00138631905621337,-0.000144197355176046,2.45502391260557e-06,0.00520211085690784,4.74305762519441e-05,-0.000620502927505471,3.67373007065959e-05,0.000189160545525727,-0.000235976887592805,0.0645804274367329,-0.297627260603269,0.000296164088781403,0.0137149396656561,-5.96755833670314e-16,9.91504707249557e-06,4.1552352432334e-15,1.29983267774099e-06,1.67325305951292e-05,0.0012937560217964,-2.21095341356542e-16,-7.01983162422973e-17,-2.52454459641991e-16,-5.91418357002498e-05,0.000100298269816691,-1.65222552994783e-15,0.00221544841404562,0.00021676852950831,4.11829961170987e-16,1.60500136292386e-15,-6.55546134290385e-16,1.95519810977709e-15,4.4700703881293e-16,1.11820688659446e-15,1.01570457590336e-15,-1.08472613726719e-15,1.51633272710721e-15,-8.20256490180074e-17,9.40685551933766e-05,3.84864696435168e-07,-1.42420797377696e-15,2.8796409701215e-16,-4.01415012341033e-15,-3.94823063132321e-15,-1.2788381464901e-14,-2.14460389142981e-15,-9.20733640099236e-06,-4.56869065083734e-06,7.27509942095179e-06,0.707106781186548,-6.09748569459602e-06,3.27291286919148e-05,1.63202815112305e-15,-9.36188551287361e-16,1.77985567774322e-16,-9.94143899173832e-17,-2.32301301506788e-16,1.06253389617083e-15,-2.57530408930925e-07,-2.76616345059816e-06,7.13269824196839e-16,-2.88778318087397e-15,-9.52614415691558e-16,9.64803822977135e-08,-5.11618046648438e-05,-9.18771083835076e-16,-2.33389549103058e-07,-7.84836716469081e-16,2.1502222688183e-15,9.12337593804196e-16,-1.41724447596207e-15,2.26689553016871e-06,2.5738892699679e-06,-1.65031163603092e-15,2.85742211938003e-15,1.26212609385386e-16,-3.12179318585503e-16
"Palicourea_acuminata",-0.087656803233129,-0.053469828430714,-0.00149593257342979,0.20738742120787,0.00869514764650561,0.00985548379562782,-0.0530800930027293,-0.00146737349310077,-2.33539061219437e-06,1.44881810055212e-07,-0.0116145603371645,-7.38875481379327e-05,-7.19314628211229e-06,-0.00018316557235357,0.0934862118565439,-0.0219461284463245,0.00217922367816168,0.000258324863993112,-1.36944276347855e-05,0.575425926552319,5.51675099506978e-05,-0.00030571166131387,4.15604849102172e-17,-0.00138631905621352,-0.000144197355175723,2.45502391257478e-06,0.00520211085690841,4.74305762519286e-05,-0.000620502927506924,3.67373007068839e-05,0.000189160545525694,-0.000235976887592543,0.0645804274367343,-0.297627260603271,0.000296164088781461,0.0137149396656569,2.59270411281662e-17,9.91504707270982e-06,3.9488057443356e-15,1.2998326779102e-06,1.67325305953766e-05,0.00129375602179525,-5.33138243937539e-16,1.05069688256151e-16,9.26654159714735e-18,-5.91418356996374e-05,0.000100298269815446,1.34417343947878e-15,0.00221544841404646,0.000216768529507473,-2.10201872826961e-16,-8.51367079059122e-16,-5.87024556989285e-16,-1.67384340196637e-15,9.85672286682621e-18,-1.18550588950298e-15,-1.24637483677041e-15,2.02202982001823e-15,-9.08347042714183e-16,1.01371547343608e-15,9.406855518365e-05,3.84864697695098e-07,2.31238639347708e-15,-1.68615121864946e-15,1.54390389361936e-15,5.2804982608734e-15,1.01030295240889e-14,1.60239881667981e-15,-9.20733638959566e-06,-4.56869065519027e-06,7.27509942452468e-06,-0.707106781186547,-6.09748568373581e-06,3.27291286891993e-05,-1.06112893900784e-15,7.76539830937954e-19,-5.46915002757781e-16,-2.8672484367992e-16,4.22393482291629e-16,-7.50285149370087e-17,-2.57530409587147e-07,-2.7661634542409e-06,1.26996929052518e-15,1.09514191996875e-15,-3.07282645089405e-16,9.64803781883399e-08,-5.11618046638255e-05,-1.41614966597339e-16,-2.33389549008801e-07,2.27630442431739e-16,1.64116369846829e-15,-1.83183323184325e-16,-1.00379871438893e-15,2.26689553313976e-06,2.57388927394517e-06,-1.64082985853804e-15,3.71090606956064e-15,1.44200036591389e-15,-1.81158384691479e-17
"Notopleura_macrophylla",-0.0872408414378333,-0.0529696985196342,-0.00147333610426747,0.200341698463991,0.00831280970628007,0.00936395289155979,-0.0474661894988655,-0.00128339713177725,-1.9666560558517e-06,1.21489911352421e-07,-0.00941671890331734,-5.80361833750701e-05,-5.61478751731273e-06,-0.000141272852857399,0.0675844542432864,-0.0155019100661532,0.00153375949389676,0.000180777026188862,-8.72483441244494e-06,0.351728064063406,3.23743906423898e-05,-0.00016189614608298,1.01668088875465e-16,-0.000654948341716664,-6.49261131081301e-05,7.21113566162328e-07,0.001371432032176,-1.00167319331248e-05,0.000160129140015245,-2.70275879460171e-05,-0.000274133936946035,0.000530214206354447,-0.164780440113176,0.881901234950678,-0.00102706376793141,-0.0580485207096707,-9.93643459532293e-16,-6.47914288015231e-05,-1.11622192233489e-14,-0.000101849286632991,0.00015635319620772,0.0102813162729381,2.41499860397029e-16,1.08772672616862e-16,8.35441887399414e-16,-0.000186987468075097,0.000315467412263637,7.19587972862046e-16,0.0062474371758359,0.000604672134907521,6.93350014642507e-16,-7.54545146161002e-16,1.17415455252945e-16,3.33660444977972e-17,-1.98666058297115e-15,2.5998251745995e-16,6.69149244766312e-16,-4.06535497756629e-16,-1.291359471576e-16,8.46490062646465e-16,0.000216345617994409,8.78183485873798e-07,-7.97972798949331e-16,-1.78156100982818e-15,3.19536064274928e-15,1.27675647831893e-15,4.16333634234434e-15,-3.84531000913696e-16,-1.92682020859862e-05,-9.53672759566111e-06,1.47662050597618e-05,-8.86783004405237e-16,-1.19738052663093e-05,6.02169842603428e-05,-2.0440509953784e-16,9.94606247293949e-16,9.36546262650895e-16,-5.39118700834458e-17,-3.12255179795996e-16,1.52373755691295e-16,-4.624534588852e-07,-4.83114910040773e-06,6.45285125716688e-16,-1.8135285376376e-15,6.02694831011694e-16,1.65879551408722e-07,-8.70968553082578e-05,-5.19885867795548e-16,-3.93754991087941e-07,-4.53172702533174e-16,2.43570458210943e-15,7.12097174448184e-17,-1.03905313466901e-15,3.72239146811689e-06,4.1775651548717e-06,-9.23203664409527e-16,2.97696455279032e-15,2.46527881232006e-15,8.66432419152534e-18
"Faramea_luteovirens",-0.0824028545083454,-0.046963098068452,-0.00119047907963339,0.0980869284166321,0.0022579043063742,0.00113971285687248,0.148741984185179,0.00888501610465993,0.000291593844766733,4.36341273890493e-05,-0.165543577340913,-0.000677755570759999,-6.26246535583757e-05,-0.00146853207058345,0.608408809467149,-0.141821721098588,0.0141130584209118,0.00168204909787523,0.00345293826815998,-0.17371893507209,8.45934052425121e-05,-0.000732488799896755,-1.59463536439114e-16,-0.0035276438426045,-0.000368829439439869,6.08839128383386e-06,0.0127677735260024,9.69193904221064e-05,-0.00124425902355523,6.00468553951498e-05,0.000210593523037403,-0.000129651379701985,0.0217402141114629,-0.0150595255063916,-8.84462465488871e-05,-0.0113199457213139,0.707106781186546,-2.38221327254384e-05,-2.28048882748169e-16,-6.66068759177774e-05,0.000139484082434941,0.00954957296264417,5.90494473172232e-17,3.49803689182556e-16,8.28917312168017e-16,-0.000240128176207729,0.000406021748568048,7.05638583633675e-16,0.000618404330396055,0.000833625545771124,-5.37589021033547e-17,-5.23203128256401e-16,-5.12830988106552e-16,2.72612041916002e-16,-1.22733881345657e-16,-7.5889486841913e-17,-9.09428589856993e-17,9.07797649672758e-16,3.82378172852418e-16,9.18725369474587e-16,0.000322022443009684,1.3119519441175e-06,-3.07046055247895e-16,-2.22044604925031e-16,2.08166817117217e-16,7.35522753814166e-16,1.94289029309402e-16,-1.68013014234565e-16,-2.99675762063748e-05,-1.48497490428707e-05,2.3292228756421e-05,6.85383863118513e-16,-1.91752892614142e-05,9.92878647961433e-05,3.24533182427068e-16,-1.27226404854859e-16,-7.51486254861879e-18,-3.14371762977129e-16,-3.25503659983328e-16,-5.97752758468803e-17,-7.7059883740665e-07,-8.14576696166836e-06,7.42536606135674e-16,-1.24396243797585e-15,-1.88032618941784e-16,2.81513766264521e-07,-0.000148409213591141,6.03079554737757e-17,-6.73376518930625e-07,-4.05831697311898e-16,2.094202338129e-15,2.4684591800211e-16,-1.35057723812185e-15,6.4335006163362e-06,7.25196175875251e-06,-1.38154451991614e-15,3.73530147416242e-15,9.44575998559464e-16,-7.18772335653111e-17
"Coussarea_contracta",-0.0824028545083454,-0.046963098068452,-0.00119047907963338,0.0980869284166321,0.00225790430637414,0.00113971285687247,0.148741984185178,0.00888501610465978,0.000291593844766736,4.36341273892239e-05,-0.165543577340913,-0.000677755570760072,-6.26246535584123e-05,-0.00146853207058349,0.608408809467149,-0.141821721098588,0.0141130584209116,0.00168204909787572,0.00345293826815987,-0.173718935072091,8.45934052418221e-05,-0.000732488799896863,3.67936216651861e-16,-0.00352764384260391,-0.000368829439440335,6.08839128427052e-06,0.0127677735260021,9.69193904232631e-05,-0.001244259023555,6.00468553961997e-05,0.000210593523043052,-0.000129651379704935,0.021740214111451,-0.0150595255063913,-8.8446246549576e-05,-0.0113199457212552,-0.707106781186548,-2.38221327123221e-05,8.59803737135639e-16,-6.66068759147688e-05,0.000139484082431893,0.00954957296264207,2.32464690520088e-16,6.86484467471107e-17,-4.54621142999831e-16,-0.000240128176208214,0.000406021748571355,2.14360253028225e-16,0.000618404330396616,0.000833625545771542,3.76633096253428e-16,1.3599179261452e-16,7.69749937255268e-17,-1.7086778572073e-17,-1.74775585624955e-16,2.08605163218424e-16,2.1089902583425e-16,-4.21162293739281e-16,-3.56223813687997e-16,9.0403502857148e-16,0.00032202244300971,1.31195194353348e-06,5.51642065360625e-16,-3.00107161343988e-16,3.57353036051222e-16,6.21031004399697e-16,6.80011602582908e-16,-7.99452359487579e-16,-2.99675762068345e-05,-1.48497490425533e-05,2.32922287566625e-05,-9.52417010710277e-17,-1.91752892613917e-05,9.92878647967182e-05,-8.3988765670549e-17,-3.49461996585875e-16,-2.76024536113833e-16,-3.86854770452402e-16,-1.94026930105961e-16,-1.10664147005662e-16,-7.70598837370085e-07,-8.14576696160861e-06,1.30132340540967e-15,-1.77131837467279e-15,-2.27061828012792e-16,2.81513764933609e-07,-0.000148409213591161,-5.71131389781866e-16,-6.73376518801992e-07,-6.26918156292277e-16,2.30338664303529e-15,1.84217119882352e-16,-1.37592966631236e-15,6.43350061701224e-06,7.25196175924035e-06,-1.59382185149801e-15,2.88181752398181e-15,8.47431483904892e-16,6.35179483291267e-17
"Tocoyena_pittieri",-0.0344078287492453,0.199002703581391,-0.0252228206382788,-0.0260197796584387,0.0134539976090294,0.236343468123196,-0.00636360475824726,0.00866610819097671,-0.000220282411977759,-2.83382807954653e-05,0.00405794168105311,0.000830889532417823,5.52446487219677e-05,0.00089886634093033,-0.0318482267004207,-0.138396983667377,0.0279297411982249,-0.0247441719462717,-0.00138680342577784,0.000420020158995978,-0.00222518021375787,0.00834534957027762,3.04750293329258e-16,0.0907976996769235,-0.000208428025599707,-0.00105141729195697,-9.29585567279768e-07,1.63957578104452e-06,-0.000305778448259884,3.26182094427153e-05,0.000170257539208161,-7.75757948251603e-06,8.43723139845425e-05,-5.24843193027382e-05,-1.1754249186085e-05,-6.15137044810481e-05,-7.08051056860564e-16,-5.33707545788762e-05,-3.39283747175814e-16,-1.8576388867431e-05,0.435072015324908,-0.000532297760992396,-1.83697613472003e-17,1.45919205704539e-16,-5.33929981940621e-16,-0.0677252826199759,-5.60866601234853e-05,-1.33361813548092e-14,-3.31263045144718e-06,-4.76901323514731e-06,7.35715844870551e-17,3.05864537715916e-16,-2.696655214558e-16,2.32142713926643e-16,4.75808470804025e-18,-2.64145107002745e-16,2.99363279817215e-16,1.7911051127047e-16,1.1882058451887e-15,7.20990373787491e-16,-1.27943348140862e-07,0.0104807789569542,7.74293823502248e-15,1.95763544263983e-15,-4.05925293378573e-16,2.9542340795885e-15,-1.23859256184744e-15,-1.01791383460179e-15,-4.4216425476324e-08,-4.53517136947576e-07,0.0466644809756453,-2.21542865803978e-16,-3.93171225641679e-07,2.42181553485802e-07,-1.89577409920621e-15,-2.58676741235669e-15,-2.23853366483027e-15,-1.05035049451998e-15,-4.22018512259615e-16,-7.46566014359085e-16,-4.11088281495358e-08,-2.74950077910419e-08,1.03925515787474e-15,-3.70354857121834e-15,-1.1928529583244e-15,1.04925940256854e-09,-6.0786136793743e-07,-1.11767884143076e-13,-0.407042110713994,-0.707106781186535,-3.92547536441012e-15,4.5204514026395e-15,1.78634742163096e-16,2.74709569829134e-08,3.28921459227949e-08,-2.35570123609832e-15,3.28534043737296e-15,-1.48838872393791e-15,-1.74167110396322e-15
"Randia_pterocarpa",-0.0344078287492453,0.199002703581391,-0.0252228206382788,-0.0260197796584386,0.0134539976090294,0.236343468123196,-0.00636360475824719,0.00866610819097683,-0.000220282411977749,-2.83382807954424e-05,0.00405794168105275,0.000830889532417816,5.52446487219205e-05,0.000898866340930273,-0.0318482267004207,-0.138396983667377,0.0279297411982248,-0.0247441719462717,-0.00138680342577781,0.000420020158995743,-0.00222518021375768,0.00834534957027772,2.68649126353501e-16,0.0907976996769239,-0.000208428025599736,-0.00105141729195707,-9.29585566972722e-07,1.63957578096802e-06,-0.000305778448260058,3.2618209442551e-05,0.000170257539208113,-7.75757948250908e-06,8.43723139851808e-05,-5.24843193024481e-05,-1.17542491856702e-05,-6.15137044809401e-05,-1.36724597775653e-15,-5.33707545789207e-05,-4.18594091044696e-17,-1.85763888677328e-05,0.435072015324909,-0.000532297760992764,8.68604647837691e-17,-2.71781790829223e-17,-5.32196997220602e-16,-0.0677252826199772,-5.60866601237351e-05,-1.47355456951116e-14,-3.31263045031045e-06,-4.7690132356365e-06,2.49814759966467e-16,-1.9720527034802e-16,-2.01794465470955e-16,3.44032378127548e-16,6.54734063599165e-17,3.75967855679402e-16,-4.53073027881878e-16,6.52961401287276e-16,-1.54366208016863e-15,9.92455097534328e-16,-1.27943350437636e-07,0.0104807789569557,2.3861121412061e-15,-2.35055030994857e-16,1.60635393875452e-15,1.64278313175004e-15,-2.25514051876985e-15,-8.09747017411192e-16,-4.42164304619193e-08,-4.53517137891411e-07,0.0466644809756435,9.41155543983707e-16,-3.93171224749509e-07,2.42181554873148e-07,3.20663400518956e-15,-2.21811174316223e-15,-1.02702700220344e-15,-1.27998373550225e-15,-5.50434308451252e-16,2.42993489446785e-15,-4.11088306047457e-08,-2.74950076602329e-08,9.47093606533247e-16,1.03199560085782e-14,2.83495188315952e-15,1.04926293104606e-09,-6.07861349221991e-07,-8.93066845761814e-14,-0.407042110713949,0.70710678118656,1.33367835370696e-15,-1.81199262781873e-14,-1.97261712528642e-15,2.74709604895891e-08,3.28921423120832e-08,-2.02494621105871e-15,-6.14317936622917e-16,3.18325776291764e-16,-1.64162054632008e-16
"Randia_armata",-0.0344063352213187,0.198985790130053,-0.0252193870977997,-0.0260120220477648,0.0134488771240482,0.236242262015745,-0.00635823417694115,0.00865764765538864,-0.000220022026220822,-2.83041711968858e-05,0.00405239875287483,0.000829638994033709,5.51600659690647e-05,0.000897446434137237,-0.0317903425915436,-0.138134912744085,0.0278765319762552,-0.0246965882510258,-0.00138377234727033,0.000419060389269984,-0.00221989632571829,0.00832390374429176,3.27498810025033e-16,0.0905483525174618,-0.000207842288989795,-0.00104804810586374,-9.2654556909039e-07,1.63296416009194e-06,-0.000304528556172379,3.24705458380374e-05,0.000169417476679759,-7.71712947647803e-06,8.39256950890153e-05,-5.22017488120745e-05,-1.16898930178646e-05,-6.11702304347098e-05,-6.53392532053175e-16,-5.3061811829756e-05,-2.52960861370694e-16,-1.84600766583281e-05,0.432078367509487,-0.000528567950102321,2.48836201728089e-16,-3.94611245029324e-17,-7.81116355607797e-16,-0.0670988789478415,-5.5566057013819e-05,-1.38833527865426e-14,-3.27906328224155e-06,-4.72018600948445e-06,-3.13192352826838e-16,5.4253503567962e-17,-4.97155718609366e-16,5.7747043804915e-17,-5.06370062221389e-16,2.78088491895803e-16,4.15604529283356e-16,-4.7618487351669e-16,-1.52713538383751e-15,7.71678532052589e-16,-1.26233300110599e-07,0.0103384556427181,-1.00900190980191e-14,-6.80705491973299e-15,6.6266436782314e-16,1.16053000542848e-15,8.46545056276682e-16,3.75431326661457e-16,-4.34667700530827e-08,-4.45764564930584e-07,0.0457823925482332,3.88077945256405e-16,-3.84565148862341e-07,2.33850459154038e-07,-3.28882864177896e-16,5.44485642163255e-15,3.62502193411502e-15,2.07111654995073e-15,1.05500245899291e-15,-8.59731998307026e-16,-3.92316585688542e-08,-2.53645227083682e-08,1.3805611003487e-15,-9.43147670612379e-15,-1.64081821052497e-15,9.07514566720001e-10,-4.46477334763775e-07,2.00246564699234e-13,0.817698554391698,-2.60522537355041e-14,8.99780794643688e-15,1.4772653624497e-14,-1.87396726420397e-15,3.00254117698899e-08,3.49590658489783e-08,-2.73158189603567e-16,7.41735827888561e-15,4.24609537317246e-15,1.35870446566687e-15
"Gardenia_ovularis",-0.0343496722580168,0.198340166691723,-0.0250873248603379,-0.0257063101131078,0.0132445439973777,0.232174062412543,-0.00612774969272977,0.00828665046879175,-0.000208206711490648,-2.67507579647317e-05,0.00379287392602648,0.000769652308601293,5.10841321505928e-05,0.000828432035689545,-0.02885352986929,-0.124650485346485,0.0251328939554966,-0.0222348317316824,-0.0012189437490181,0.000365847406363342,-0.00192170609322067,0.00706491624048636,2.3211963377147e-16,0.0753626757595366,-0.000171681244443292,-0.00082113515590472,-7.18681222856583e-07,1.08644003004681e-06,-0.000199662878512234,1.84246980762903e-05,7.85254638199741e-05,-2.89365521043478e-06,2.91045369378777e-05,-1.63195477219407e-05,-3.2246436678586e-06,-1.39913098073328e-05,1.15481666557953e-15,-6.80301194826026e-06,3.70013252463882e-16,3.38929155978988e-06,-0.395222407470408,0.000608022729707902,-7.34149454299709e-16,-1.19237855490416e-15,-4.17680718390709e-15,-0.368847718258873,-0.000298264194841463,-8.29804598482286e-14,-1.20512833326762e-05,-1.68658542637297e-05,1.31274456321943e-16,4.42140039965371e-16,1.01074559286127e-15,4.69054411932868e-16,-4.86365222367341e-17,1.0215216267543e-15,-6.64395755357331e-17,-9.36022296193171e-16,-1.00085263667265e-15,4.51465249372766e-17,-3.37759079317192e-07,0.0276368531815985,-1.63636465488892e-14,-8.29111085343115e-15,-2.27595720048157e-15,-3.72792074987416e-15,6.17908502142939e-15,1.91286674435744e-15,-1.4338942096008e-07,-1.50351409997321e-06,0.278824706464744,1.36218734123033e-15,5.61338336121136e-07,2.24471421280217e-07,2.25955257342938e-15,1.46869322208852e-15,1.3337074584966e-15,1.04288832758039e-15,6.75848743555266e-16,-2.80163802463025e-16,-4.279717297154e-08,-3.01793866896336e-08,8.43972953546255e-16,-1.20318826426269e-14,-7.36286645837443e-16,1.15143883334596e-09,-6.42343720472134e-07,-9.93471825126979e-15,-0.000505538631923066,-1.01362853508815e-14,6.57399914324415e-15,-0.707106781186546,2.18075282191752e-16,3.3348437373038e-08,3.96081055674516e-08,-3.00529248660004e-15,-3.85392283262795e-16,5.62774103181325e-15,-1.35907133444054e-15
"Gardenia_jasminoides",-0.0343496722580168,0.198340166691723,-0.0250873248603379,-0.0257063101131078,0.0132445439973778,0.232174062412543,-0.00612774969272976,0.00828665046879167,-0.000208206711490649,-2.67507579647735e-05,0.0037928739260265,0.000769652308601436,5.10841321505661e-05,0.000828432035689543,-0.02885352986929,-0.124650485346485,0.0251328939554966,-0.0222348317316824,-0.00121894374901808,0.000365847406363234,-0.00192170609322063,0.00706491624048633,3.25589412319759e-16,0.0753626757595367,-0.000171681244443725,-0.00082113515590508,-7.18681223086e-07,1.0864400301652e-06,-0.000199662878512293,1.84246980766148e-05,7.85254638199527e-05,-2.89365521029485e-06,2.91045369368776e-05,-1.63195477217458e-05,-3.22464366789721e-06,-1.39913098066186e-05,1.14787777166742e-15,-6.80301194857783e-06,2.90966431327664e-16,3.38929155941411e-06,-0.395222407470408,0.000608022729708572,-7.87600340434626e-16,-8.34103955365902e-16,-4.04527388352533e-15,-0.368847718258872,-0.000298264194840848,-8.11300408754199e-14,-1.2051283332533e-05,-1.68658542606722e-05,6.16254166948125e-16,5.89591535414605e-16,8.609088526195e-16,3.76246705967994e-16,3.26063748571821e-16,1.32336351158874e-15,5.62921103913889e-17,-3.37846412518749e-16,-2.44186913359646e-16,8.05311969334242e-16,-3.37759078963308e-07,0.0276368531815984,-1.3536047283047e-14,-7.68395763683927e-15,-2.06258621293642e-15,-2.63504496000877e-15,3.85455556362047e-15,8.30399295375598e-16,-1.43389422617608e-07,-1.50351409962173e-06,0.278824706464742,2.50229593133579e-16,5.61338336607993e-07,2.24471416301018e-07,-1.31331345887546e-15,1.93076523012714e-15,1.14328528619e-15,1.58031007612263e-16,3.26268319371093e-16,-3.15949510646392e-16,-4.2797171838894e-08,-3.01793873587286e-08,2.12999639451309e-15,6.40475846005467e-15,8.97919337622777e-16,1.15143535959471e-09,-6.42343725723135e-07,8.89743980391415e-15,-0.00050553863194841,9.32037439101951e-15,-2.23656353066167e-15,0.707106781186549,-2.45089073429715e-15,3.33484626412759e-08,3.96080932489871e-08,-4.91834407688272e-16,7.50066063852774e-15,-3.48996555792108e-15,4.78655391731214e-16
"Genipa_americana",-0.0342805274726016,0.197557052395583,-0.0249283307360898,-0.0253470373389084,0.0130074162375562,0.227487590453557,-0.00587956284787857,0.00789614990790783,-0.000196219115428712,-2.51809231501037e-05,0.00353845746470367,0.00071241337004979,4.72148775366163e-05,0.000763550710231282,-0.0262254294133989,-0.11278021360263,0.0227237390036677,-0.0200816700273994,-0.00108315441907245,0.000323042140046815,-0.00168707494672792,0.0061228355496281,2.09263339524801e-16,0.0645336366916881,-0.000146359357211138,-0.000680394504331567,-5.92566700063826e-07,8.42294638709814e-07,-0.000154055008915182,1.36573646490053e-05,5.59029029736812e-05,-1.99940520156526e-06,1.9934514859436e-05,-1.10641596988971e-05,-2.16335898732337e-06,-9.26726564669169e-06,4.42607089088116e-16,-4.39466514974672e-06,3.82195089462659e-16,2.05651519287421e-06,-0.218182224547618,0.000328580809090874,-1.28601262502615e-16,-7.6567661996839e-16,-2.70217316918307e-16,-0.110633556437671,-8.82440099074246e-05,-2.51634237420603e-14,-2.21124826746632e-06,-2.84349765375478e-06,3.47011652776222e-16,7.69937299954091e-16,8.39767201260618e-16,-7.75954414571673e-16,1.41086451412085e-15,-4.40023645001205e-16,3.76922458069213e-16,-9.96804232339349e-17,8.90569437044415e-16,1.09928334133276e-15,1.38564029597554e-07,-0.0127883430410886,5.93214713462409e-14,2.66427505057898e-14,-3.60649010655578e-15,1.58813934225677e-14,-1.18967335982489e-14,-1.49083842720376e-15,2.47322513803085e-07,2.71332717576724e-06,-0.904411534978606,-2.10254400706075e-15,-6.47838186200577e-06,1.02842789560732e-06,-2.67533977054303e-15,-4.94230128095289e-15,-2.39982033695031e-15,-1.74521498419644e-16,-2.57368486814377e-15,1.20706710880263e-15,-1.41383959877734e-07,-7.82051389756119e-08,-5.08760010155985e-16,3.35641058823394e-16,1.99946637839359e-17,2.69235420199406e-09,-1.4201623897823e-06,-1.47434549951752e-15,-0.00106723839866876,-1.70298165512382e-15,2.2904520436977e-15,-1.20282038076884e-15,-1.28348241297426e-15,6.26138994181443e-08,7.12699213691913e-08,-8.19440179235759e-16,3.97487722567053e-15,1.05262290336954e-15,1.17644044570017e-15
"Alibertia_edulis",-0.0341245720998399,0.195787323047164,-0.0245681615738206,-0.0245268172233655,0.0124638484588491,0.21671918888638,-0.00529666896793938,0.00697218661814466,-0.000167512157771677,-2.14167202156572e-05,0.00292228395544203,0.000572544928694782,3.77438929268011e-05,0.000604225412577631,-0.0196650552485133,-0.0829858967862438,0.0166716884727876,-0.0146655770587593,-0.000734629824331632,0.000212282986018881,-0.00107537684222346,0.00362400730151948,1.10412377783691e-16,0.0353259406825809,-7.76261189895603e-05,-0.0002815167951335,-2.32273163550123e-07,5.85167742129386e-08,-6.05431646065893e-06,-3.5238493908247e-06,-3.8454958523244e-05,2.36085874128386e-06,-2.74846672694228e-05,1.83527568562199e-05,4.38538050171794e-06,2.45931413126702e-05,4.56788551272818e-16,2.37940185975612e-05,3.05549724814566e-16,9.57614857286284e-06,-0.184155076577625,0.000185730197033673,2.69324421124234e-16,5.22502547142488e-16,6.35390074164343e-15,0.542859536874609,0.000447344000712682,1.19291336866472e-13,2.81894966404035e-05,4.15393900067926e-05,-1.16520088967531e-15,-2.35117413674963e-16,-4.44042037236202e-16,5.26615427879378e-16,-9.33225112457593e-16,-1.36657585445647e-16,9.45042887901284e-16,1.4321571799839e-15,2.44701558824044e-15,9.6675983242046e-16,6.44647332887893e-06,-0.742597221102663,-2.56964588496444e-14,2.63938176869871e-15,7.6588041464376e-15,-1.17562209966948e-14,1.6753959330984e-14,1.44005018112272e-14,-6.25418880613113e-07,-6.03972269475257e-06,0.114013179839376,1.58631250645456e-16,-5.9150527038447e-06,1.6056861953589e-06,1.25977935784229e-15,-1.1715911962743e-15,-1.35104313211529e-15,-1.53187808703643e-15,-2.53105264987019e-16,1.19618231565372e-15,-2.30383600212764e-07,-1.29795364166481e-07,6.7050244383326e-16,-4.13684928712869e-15,2.81795022974904e-16,4.47522570160760e-09,-2.35735877287147e-06,5.30917872671057e-17,-0.000683702907784084,1.07986491076687e-15,2.53653833398612e-15,-3.62792754008893e-16,-1.21543500757317e-15,1.02353092531711e-07,1.15628904877445e-07,-1.40429330483785e-15,3.760591340036e-15,7.23659964455078e-16,1.57176420512039e-16
