,0,1,2,3,4,5,6,7,8,9
t19,9.154026,-1.6162251,3.5020201,8.739774,-1.5237737,2.2758803,5.6416616,3.6934252,-4.9779367,3.3307724
t30,9.049096,-1.4765708,3.4004476,8.732586,-1.533691,2.2339177,5.7150397,3.7426383,-5.115667,3.5250576
t61,9.059376,-1.5851697,3.4110744,8.694784,-1.6518769,2.166998,5.635035,3.6175885,-5.073891,3.4628448
t62,9.082872,-1.5026546,3.4479797,8.764067,-1.4497737,2.2634585,5.731879,3.803109,-5.071919,3.4424012
t44,9.120595,-1.6121659,3.583932,8.703173,-1.574164,2.2893782,5.8350163,3.758034,-4.934205,3.5378318
t25,9.034553,-1.5586052,3.524343,8.814325,-1.4116307,2.1880648,5.814794,3.8691478,-4.9893856,3.3669496
t48,9.011208,-1.4187461,3.057524,8.846937,-1.399819,2.1342669,5.3570356,3.5280957,-5.3295894,3.25811
t85,8.945619,-1.3140297,3.031644,8.816724,-1.5076852,2.2038999,5.3491526,3.6003788,-5.293626,3.3337302
t86,8.951795,-1.347339,3.095686,8.8559265,-1.4921486,2.1639383,5.408454,3.5717945,-5.250063,3.3022332
t39,8.814151,-1.1616174,2.6455226,9.038272,-1.3426645,1.9492978,5.040272,3.4218647,-5.539743,2.9957201
t40,8.735356,-1.2504493,2.754173,8.93506,-1.3649004,1.9509782,5.143495,3.4283164,-5.4423747,3.080927
t38,8.788653,-0.89795685,2.4058352,9.338775,-1.3009698,1.8805736,4.830122,3.3594973,-5.7037416,2.838598
t75,8.73023,-0.92742413,2.34071,9.246029,-1.2816749,1.9342982,4.854804,3.277046,-5.7120414,2.765514
t76,8.763818,-1.0220059,2.2790031,9.145475,-1.2087405,1.9298028,4.8355374,3.1702838,-5.6796584,2.7123682
t83,8.807937,-0.8795869,2.4207268,9.163113,-1.21006,1.7506291,4.787475,3.4645014,-5.7829547,2.8809583
t84,8.7583885,-0.94684803,2.301314,9.213529,-1.2341433,1.7989182,4.7476344,3.3379292,-5.7881417,2.7488499
t16,8.6961155,-1.0675937,2.4094417,9.046131,-1.2336442,1.9499887,5.0227423,3.3127131,-5.7278132,2.8101432
t15,8.791292,-1.0728278,2.458713,9.091993,-1.2628938,1.8627938,4.9218683,3.3787875,-5.6859756,2.8721454
t77,0.3714656,13.32719,7.9630694,4.2228484,9.029441,1.2184033,1.0727254,3.2308857,11.862407,3.0203025
t78,0.38329542,13.303015,7.9658074,4.2574463,9.051952,1.2245164,1.0261978,3.229362,11.85084,3.0172145
t53,0.4915877,13.211729,7.707851,4.355922,9.019641,1.2942599,0.9947899,3.1243198,11.701826,3.046355
t54,0.6230983,13.357814,7.8091507,4.395497,9.161958,1.3633212,1.0292768,3.2538133,11.773222,2.9723516
t17,0.562597,13.314434,7.8569145,4.353858,9.118128,1.3119665,0.97997814,3.265625,11.805612,2.9856775
t46,0.6041446,13.41809,7.7515306,4.297099,9.197806,1.234586,1.1969999,3.5074284,11.599127,2.560728
t47,0.5714223,13.314712,7.746882,4.3374004,9.127739,1.2150372,1.0426726,3.4916885,11.6906,2.70941
t45,0.45571512,13.339436,7.907421,4.2075543,9.140228,1.1422096,1.1655883,3.5460591,11.6120205,2.5692644
t20,0.36379832,13.199776,7.8715363,4.2674084,9.065294,1.1124437,0.9886497,3.4444945,11.636703,2.6701374
t21,0.29300243,13.1752,7.926848,4.211233,9.057146,1.0911272,1.0015262,3.4324381,11.614029,2.6300213
t26,0.09400628,13.09621,8.156179,4.307718,9.222825,1.2044289,0.75822246,3.5400825,11.766129,2.644818
t32,0.05075823,13.143673,8.231786,4.257922,9.275267,1.2491832,0.8073484,3.5715518,11.734607,2.6329806
t67,0.17908531,13.082834,8.033494,4.2124023,9.408119,1.3443862,0.74317884,3.5266294,11.680294,2.5091393
t68,0.2328367,12.9787445,8.000136,4.22668,9.301835,1.2167103,0.7011985,3.5550764,11.619258,2.479793
t22,0.2465102,13.063551,8.141874,4.2289963,9.189132,1.0711938,0.70541024,3.7313712,11.673992,2.5649035
t11,0.10181792,13.185714,8.231259,4.2286,9.199837,1.180065,0.86848444,3.5884953,11.7230625,2.711481
t50,-1.245016,0.5631362,6.9192147,8.927996,0.044531494,1.738181,4.8311687,7.772439,4.4194117,-1.8076372
t93,-1.2924092,0.5483094,6.7916436,8.877526,0.16618095,1.8662447,4.8189926,7.6660466,4.4538326,-1.6622424
t94,-1.3149136,0.6290065,6.8250284,8.919457,0.11027598,1.835572,4.89878,7.757499,4.36999,-1.6934909
t91,4.009608,5.6967907,1.0932095,-0.059417985,2.4992313,6.708354,1.1116363,8.301779,4.2301736,0.29759064
t92,3.889044,5.773654,1.097981,0.009637044,2.369692,6.5805945,1.1175203,8.274438,4.253694,0.24725191
t7,3.7968924,5.7980924,1.0124258,0.1548779,2.298836,6.5488944,1.1313081,8.254031,4.315806,0.15369028
t97,4.1221576,5.5461755,1.154088,-0.35111797,2.6788366,6.576206,0.93052036,8.477806,4.1569257,0.32655746
t98,4.0008883,5.6463394,1.0818553,-0.4094757,2.5764313,6.5404663,0.86551213,8.474885,4.2079225,0.24922977
t37,3.9242454,5.720359,1.1765212,-0.384173,2.6357784,6.456733,0.8265792,8.584877,4.155462,0.20407054
t89,3.974518,5.6577044,1.0468459,-0.28007913,2.6984162,6.5405517,0.75932014,8.617336,4.33509,0.122022144
t90,3.9582398,5.620951,0.89259964,-0.2919631,2.5774171,6.662275,0.69226533,8.551426,4.1496644,0.04841191
t13,4.057491,5.6565914,0.99807566,-0.08270948,2.7075956,6.7796745,1.023367,8.621862,4.150684,0.13452426
t14,3.9416504,5.745437,0.97859144,-0.15069562,2.611809,6.6443963,1.0042685,8.709461,4.3214855,0.1181384
t6,3.9492717,5.752821,0.9656322,0.09243669,2.600822,6.739018,1.0844861,8.524578,4.3103023,0.080578305
t55,4.130918,5.5434685,0.84288275,-0.2702969,2.6442864,6.7546287,1.0122346,8.534974,4.4342103,0.21797457
t56,4.096304,5.5980177,0.873555,-0.19629215,2.559676,6.779651,1.11252,8.533701,4.465798,0.22807728
t29,4.0300665,5.6649194,0.8281259,-0.06828392,2.528027,6.8510184,1.0803821,8.651181,4.3971243,0.07640498
t35,4.061817,5.6023993,1.1944817,-0.008409831,2.7058332,6.6753483,0.9724927,8.296002,3.9736605,0.29265177
t36,4.0597925,5.652477,1.2046273,0.05754887,2.6045415,6.716437,1.1020333,8.290931,4.0895195,0.30505344
t63,-1.0388883,0.80779773,7.270146,9.428503,-0.05722416,1.3381906,4.925418,8.274827,4.164025,-2.7535703
t64,-0.9058886,0.95860666,7.1032906,9.4048815,-0.1643044,1.2517715,5.108824,8.552233,4.2530823,-2.8112028
t43,-1.0010751,0.88555986,7.104476,9.437416,-0.17347659,1.302447,5.0890045,8.358775,4.1379094,-2.7815259
t57,-0.9202232,0.80823934,7.1682158,9.393651,-0.13017981,1.3868645,5.0260873,8.243097,4.3029485,-2.558331
t58,-0.9307288,0.7476735,7.191286,9.294283,-0.13115363,1.4391865,5.0057864,8.311252,4.295724,-2.7723076
t71,-1.006121,0.95535,7.071723,9.374161,-0.17436685,1.2336364,5.0019636,8.453477,4.291328,-2.6178973
t81,-0.9345262,0.87381166,6.9916353,9.191832,-0.11208508,1.3818809,5.0691543,8.480174,4.383481,-2.646882
t82,-1.0085747,1.0365838,6.9547544,9.294699,-0.13934253,1.2188752,5.0869346,8.438491,4.1849785,-2.6986644
t3,-0.94843024,0.77491987,7.1655564,9.382974,-0.120424755,1.430731,5.031612,8.154632,4.2849617,-2.4602332
t9,-1.0336915,0.70498973,7.0907836,9.333636,-0.17933226,1.4823737,4.932585,7.9767632,4.386067,-2.1364481
t10,-1.057835,0.72380733,7.0815325,9.3495455,-0.18770678,1.4581003,4.9226284,7.9762816,4.3742433,-2.1186385
t99,-1.1789606,0.5487559,7.1873713,9.305429,-0.31629014,1.5272332,4.9064875,7.676276,4.4230165,-1.631987
t100,-1.0860575,0.5063213,7.15672,9.483902,-0.19532871,1.5869299,4.9112206,7.55649,4.455619,-1.6026084
t95,-1.1461997,0.40434024,7.3328648,9.449968,-0.4553257,1.4356694,4.9970975,7.4272094,4.3126574,-1.43951
t96,-0.9442585,0.5748914,7.24916,9.646799,-0.34909946,1.3895669,4.944822,7.5231586,4.396667,-1.4849815
t27,-1.1645056,0.4336043,7.352066,9.44263,-0.47574466,1.4131492,5.035188,7.4935975,4.2954226,-1.4201237
t28,-1.0991112,0.5465165,7.280253,9.47642,-0.48454866,1.3562739,5.026335,7.5411487,4.3292856,-1.4767954
t1,-0.9516746,0.6695853,7.030248,9.43548,-0.22527707,1.6829231,4.741467,7.565712,4.645987,-1.5347112
t12,-0.8827352,0.719408,6.9706626,9.491288,-0.23721097,1.7667118,4.6128817,7.477031,4.803485,-1.374393
t59,-0.82262665,0.6179264,7.1670346,9.716032,-0.35186452,1.6675465,4.788376,7.430728,4.68111,-1.225861
t60,-0.7766133,0.7586274,7.0776367,9.616742,-0.28269345,1.8114827,4.7083845,7.491407,4.7734804,-1.1730711
t31,-0.7906488,0.7186074,7.056207,9.62421,-0.40419292,1.6843903,4.625342,7.359402,4.84926,-1.2184184
t33,-0.726998,0.56893015,6.958041,9.726902,-0.28547245,1.8748858,4.6835146,7.4456043,4.869337,-1.351843
t34,-0.736976,0.57022244,7.1120605,9.7325535,-0.3542064,1.737724,4.7136407,7.3300056,4.782854,-1.1404536
t4,-1.0385278,-0.38736317,3.0505235,6.7818584,7.6803985,3.264873,3.8493452,2.293678,3.8270493,5.792813
t5,-1.1021533,-0.46060503,2.9019554,6.633987,7.6775427,3.362011,3.749025,2.4088638,3.9624336,5.790719
t8,-1.0145161,-0.47686517,3.0396152,6.646899,7.6322613,3.3762233,3.8604803,2.3930728,3.755404,5.866409
t23,-1.0021824,-0.5188765,3.1081896,6.6996098,7.5969696,3.1528711,3.6440687,2.602424,3.7650855,5.9543304
t24,-1.119769,-0.4106126,2.9676802,6.7167206,7.685625,3.2538962,3.6718118,2.5582726,3.7295732,5.8078036
t87,-1.0883052,-0.4678822,3.0789554,6.788081,7.6672564,3.25974,3.8269262,2.5138414,3.4419699,5.9254165
t88,-1.1885058,-0.5024382,2.9889476,6.7517724,7.561289,3.2716205,3.775481,2.5361862,3.458494,5.833439
t49,-1.0541494,-0.3638252,3.0349345,6.7280726,7.6879363,3.3368976,3.827516,2.4336424,3.4181273,5.8221874
t72,-0.95306885,-0.31726804,3.1255248,6.6518927,7.471708,3.3005326,3.803987,2.4685938,3.3305051,5.7488227
t73,-0.89510816,-0.29605332,3.1219125,6.635572,7.452416,3.2620487,3.711373,2.4569805,3.4949336,5.733764
t74,-0.95822257,-0.35273796,3.1771681,6.6940475,7.5345125,3.2139204,3.7161794,2.5560882,3.353384,5.765639
t79,-1.0080825,-0.22641051,2.7114444,6.1623373,7.9804235,3.957561,3.6244068,1.5817462,4.888713,5.4760175
t80,-0.9335985,-0.22351992,2.7132006,6.1617956,7.977191,4.110046,3.6131303,1.426494,5.037209,5.497744
t18,-1.1182951,-0.2804492,2.5318415,6.0226636,8.031479,4.1697764,3.6603744,1.3718109,5.143253,5.261752
t51,-1.1915584,-0.34362042,2.4697614,6.0430856,8.0458355,4.1147094,3.6950693,1.3396603,5.0635123,5.280168
t52,-1.0565163,-0.26215976,2.6216853,6.029829,7.866828,4.050986,3.6869946,1.4722601,5.041003,5.3890924
t69,-1.0911279,-0.3279905,2.6510892,5.9726357,7.939059,4.081171,3.749417,1.4720387,5.0519385,5.5033736
t70,-1.0718532,-0.19639623,2.541215,5.960692,7.913132,4.153236,3.5980647,1.4649723,5.1299763,5.283682
t2,-0.9642239,-0.19930996,2.8329058,6.438626,7.4417562,3.554945,3.731408,1.9609343,4.423487,5.395419
t65,-1.0389798,-0.27931,2.7205486,6.4446,7.5523725,3.6123962,3.7448525,1.9239442,4.526203,5.445231
t66,-1.1494013,-0.30708465,2.6441982,6.584405,7.558443,3.5535917,3.8259401,1.8536687,4.5643363,5.4070063
t41,-1.0507752,-0.22789171,2.7526605,6.520027,7.4799323,3.548238,3.6955817,1.8573718,4.5085382,5.3791494
t42,-1.0116,-0.291546,2.892774,6.441363,7.551308,3.5098698,3.5910466,1.9872522,4.446736,5.525293
