"","c1","c2","c3","c4","c5","c6","c7","c8","c9","c10","c11","c12","c13","c14","c15","c16","c17","c18","c19","c20","c21","c22","c23","c24","c25","c26","c27","c28","c29","c30","c31","c32","c33","c34","c35","c36","c37","c38","c39","c40","c41","c42","c43","c44","c45","c46","c47","c48","c49","c50","c51","c52","c53","c54","c55","c56","c57","c58","c59","c60","c61","c62","c63","c64","c65","c66","c67","c68","c69","c70","c71","c72","c73","c74","c75","c76","c77","c78","c79","c80","c81","c82","c83","c84","c85","c86","c87","c88","c89","c90","c91","c92","c93","c94","c95","c96","c97","c98","c99"
"t145",-0.124791011890117,-0.00478353270498149,-0.188433570444898,0.491233097836737,0.432399675751224,0.00765953985553238,0.0200026130564548,-0.100207618828995,0.00479451503297844,0.00575612739015582,-0.00205122908458079,0.00193595160025171,-0.00147591467820835,0.00238603119476723,0.000953066951039104,0.707106781186546,0.00659093405153827,0.000103741450398284,0.000159611735586462,1.41359690473375e-05,-0.000123027478406802,-1.38453801734123e-05,-1.27209250974183e-05,0.000731711181596039,0.000441596863254011,2.05265461492514e-05,1.21790335580851e-06,0.000199451629420764,0.000322604220410475,1.80240871356706e-06,-1.53648986461716e-05,-5.98293822798743e-05,1.80472241418051e-16,2.41992588479433e-05,7.43803455624467e-16,4.29032160518446e-05,0.000264345242580536,1.37668695869311e-05,-1.02087125423515e-06,6.69168493524913e-05,-1.16620349274672e-06,1.34391462368054e-05,-1.68665901608549e-06,-8.79080386795841e-07,-2.50292454292406e-17,9.94735926758979e-05,-6.41182447359413e-07,-9.22310813213979e-05,1.54399257731157e-16,-3.06509990031696e-06,-0.000111924444524249,-2.06185023349578e-06,-5.395035535233e-06,1.30637304547145e-06,-1.71978043352158e-15,6.76584041006882e-07,-7.22230842987117e-07,2.44328556809163e-07,2.08315503288429e-06,8.23448432749029e-06,1.96550421417691e-07,1.06009448436395e-06,5.01843594046943e-08,-5.94902964350353e-07,9.84356202691678e-07,-3.56498776991711e-16,1.89417439426515e-16,-1.52779881643215e-16,-1.41446534964774e-16,-1.78497294366926e-15,-2.72007318975884e-06,3.41953994779425e-07,-5.26956468680474e-17,3.12118872652366e-18,2.89065034743805e-06,3.71940961428376e-16,-7.44905900629585e-17,-3.93740999723269e-06,1.46298364607036e-07,1.35009905688383e-16,-7.40975359845793e-09,5.92052663077951e-07,2.29378443007521e-16,-3.45651666394336e-16,-2.90748003831967e-06,-3.81970872431435e-07,-1.49965956360468e-16,-2.59447769119695e-07,-2.77221160465099e-16,1.58714110596236e-16,-4.39466837577098e-06,7.58552035740297e-16,5.5804772895261e-07,2.43853265304745e-16,6.18168853594482e-07,-5.5799215305853e-15,-4.5188560016382e-11,1.74125502000137e-14,-4.26842973695037e-13
"t77",-0.124791011890117,-0.00478353270498161,-0.188433570444898,0.491233097836737,0.432399675751223,0.0076595398555323,0.0200026130564544,-0.100207618828994,0.00479451503297915,0.00575612739015418,-0.00205122908457442,0.00193595160026119,-0.00147591467824501,0.00238603119475907,0.000953066950996857,-0.707106781186549,0.00659093405153433,0.000103741450395338,0.000159611735583558,1.41359690457585e-05,-0.000123027478405703,-1.38453801731852e-05,-1.27209250986648e-05,0.000731711181596236,0.000441596863247249,2.05265461482233e-05,1.21790335681414e-06,0.000199451629422888,0.000322604220411458,1.80240871309161e-06,-1.536489865696e-05,-5.9829382275869e-05,-1.29157213921786e-16,2.41992588474752e-05,-1.04940685229535e-15,4.2903216055223e-05,0.000264345242580036,1.37668695854625e-05,-1.02087125536265e-06,6.69168493525293e-05,-1.16620349436816e-06,1.34391462379094e-05,-1.6866590148429e-06,-8.79080386922717e-07,-8.17006778626538e-17,9.94735926751663e-05,-6.41182447285511e-07,-9.22310813202849e-05,1.25365426815472e-16,-3.06509990024328e-06,-0.000111924444527589,-2.06185023369887e-06,-5.39503553566857e-06,1.30637304609456e-06,3.27980437517973e-15,6.76584040804152e-07,-7.22230843565706e-07,2.44328555701792e-07,2.08315503362993e-06,8.2344843261911e-06,1.965504231709e-07,1.06009448403579e-06,5.01843582776372e-08,-5.94902965159701e-07,9.84356202889687e-07,-9.42751307989599e-17,4.38059570294733e-17,1.78743387161004e-16,-1.71930829698748e-16,4.24283879997354e-17,-2.72007319018554e-06,3.41953995515857e-07,-4.36920039268904e-17,-2.64310500426378e-16,2.89065034843427e-06,3.93269184790113e-17,1.03932920949487e-16,-3.93740999426528e-06,1.46298366802085e-07,-1.06351852690627e-16,-7.40975586953904e-09,5.92052664997051e-07,3.29944360648485e-16,-6.05287833071141e-16,-2.90748003830013e-06,-3.81970872256465e-07,-1.38181528347601e-17,-2.59447772355143e-07,-5.47469268927499e-16,6.16001764629059e-16,-4.39466837557784e-06,1.05907055798915e-15,5.58047730098802e-07,1.94433390612682e-16,6.18168852570569e-07,-5.60583437130539e-15,-4.51879266010032e-11,1.73671536561327e-14,-4.27235924840563e-13
"t53",-0.178575664261612,0.000966998314619965,-0.0308532022048693,0.0777993035699578,-0.0119422081638101,-0.00181197490080447,-0.0740306719885964,0.686645698441307,0.0182950807215643,0.0147115154406615,0.676424774266876,0.118891697075506,-0.0402218571698857,0.00413313639197533,0.00159278843844155,5.24580379135386e-15,0.00984166234545929,0.00131551918912532,0.000224733716308819,1.97709242421596e-05,-0.000169964399205597,-1.89067991941416e-05,-1.72343329534127e-05,0.00113080188682511,0.00432282520259267,2.68749772794421e-05,1.58127619622871e-06,0.0017078320644292,0.000411500843941992,2.27104346327318e-06,-0.000123033631100806,-0.000477666080955872,-6.43503865905015e-16,3.01176699702333e-05,5.76616507408433e-16,5.23873721840274e-05,0.000322013309302659,1.67504284987312e-05,-1.23287576352079e-06,8.04940551357521e-05,-1.39848131742341e-06,1.60801353463657e-05,-2.0136447503492e-06,-1.04651590568142e-06,-1.87365885434894e-17,0.000118182538049319,-7.60891607033056e-07,-0.000109316091456256,1.83617823291599e-16,-3.62915107969494e-06,-0.000132514955553541,-2.43039420200184e-06,-6.35181002080322e-06,1.53672897257862e-06,-2.15298304557973e-15,7.9357087799047e-07,-8.46571837781557e-07,2.86313284786002e-07,2.44072004528187e-06,9.643089891837e-06,2.30076339209299e-07,1.23823340071186e-06,5.85164046874123e-08,-6.92090197281446e-07,1.14456661497429e-06,-2.27754238248503e-16,3.97789418336431e-16,-1.99080203915755e-16,1.17231494695503e-16,-1.22668453033833e-15,-3.14699640860744e-06,3.9543897720186e-07,6.0369343479657e-17,-7.73090477478588e-17,3.33630669737377e-06,2.4352556466858e-16,5.22184953816326e-17,-4.53184579308308e-06,1.68281330630155e-07,3.14729405065233e-16,-8.5147298696929e-09,6.79756812207515e-07,3.69653833337874e-16,-5.65184402299428e-16,-3.32959933525966e-06,-4.37337319698826e-07,-2.15053734380923e-16,-2.96892422408827e-07,-2.50746560591265e-16,8.044476864503e-17,-5.02335741098628e-06,8.80312357477192e-16,6.37019198884898e-07,2.85843508900741e-16,7.02362086464913e-07,-5.64540025901377e-15,-5.12766027594597e-11,1.73922905397206e-14,-4.27055936959547e-13
"t104",-0.209662103267212,0.00336258769894963,0.00739474123968034,0.000970140756657481,-0.00381603833858982,-0.000684799117027289,-0.0345147845376301,0.325257128458417,0.00945352853642402,0.00841860494097729,-0.359720945760064,0.0291341562188828,0.84146947407264,0.00488739032536632,0.00108731986300085,-2.29261054585095e-14,0.00575941891255467,0.00976160563126701,0.000129508869197191,1.13880453556158e-05,-9.7862434789881e-05,-1.0891062902864e-05,-9.93830678134452e-06,0.00130218445777566,0.0173855837340479,1.51493817689674e-05,9.02828435154802e-07,0.00609181611968358,0.000235213161198429,1.30324825648147e-06,-0.000401050869157469,-0.00155118119059949,-1.45987597714558e-15,1.7316660569934e-05,9.17200896200106e-17,3.02294875011374e-05,0.000185895834810634,9.67201577985336e-06,-7.12890212029295e-07,4.65799580104613e-05,-8.0975872317247e-07,9.31493452689656e-06,-1.16698603924574e-06,-6.06847385165555e-07,-1.61227313361417e-16,6.85591723977593e-05,-4.41508583589709e-07,-6.34470427440178e-05,1.22488045078715e-17,-2.10681062896981e-06,-7.69289190789037e-05,-1.41223704580791e-06,-3.69180774308856e-06,8.93345043640161e-07,2.40244425957707e-15,4.61618176941524e-07,-4.9251736704213e-07,1.66581094418316e-07,1.42009623144914e-06,5.61130318805692e-06,1.33893540704566e-07,7.20939858676626e-07,3.40833322200694e-08,-4.03321986743643e-07,6.67086569695759e-07,-1.57416216114872e-16,3.73488044372934e-16,-9.30183567072222e-17,-1.42117010776977e-16,-6.58368548883827e-16,-1.83628190572445e-06,2.30765185283693e-07,-2.61389772513102e-17,-1.91517809894519e-16,1.94784688890002e-06,4.60683158767161e-17,-6.33464547336925e-17,-2.64759156688292e-06,9.83277518781767e-08,1.52671003042605e-16,-4.97639141407666e-09,3.97363134079538e-07,3.82109356596792e-16,-6.1717240067977e-16,-1.94759471605481e-06,-2.55826174914242e-07,-1.60461679395443e-17,-1.73694414145627e-07,-3.9425459960281e-16,3.84706845563211e-16,-2.93967677689926e-06,9.79322505102523e-16,3.729097013266e-07,1.69682077173599e-16,4.1164468131295e-07,-5.55661299579722e-15,-3.00066903890001e-11,1.74761696336535e-14,-4.2698568046821e-13
"t171",-0.247130690475589,0.00624873366781597,0.053459670420692,-0.0915570320427109,0.00597452567209676,0.00067438121713558,0.0136944873421888,-0.11750376370436,-0.0022308324518512,-0.00174394614188559,0.0775449567626669,-0.133211773259092,0.011554206550486,2.7186650157479e-05,-4.22067339574899e-07,-3.31679128606766e-15,-0.000110504812253227,-0.571403521242304,1.25161288519189e-05,1.11418061949719e-06,-1.03585877599863e-05,-1.32821999811383e-06,-1.41293425924557e-06,0.00985072519596868,0.223877020713478,-3.04307268361656e-06,-1.46253449510888e-08,0.0546359636168005,8.86712175291102e-07,5.19324449121597e-08,-0.00315840653693972,-0.000889959144776645,6.80005476781148e-15,9.7418086560741e-07,4.41729366910543e-16,2.26173046795072e-06,1.42778078447853e-05,7.52206034937855e-07,-5.96557877045975e-08,4.03833133238352e-06,-7.20774805240699e-08,8.44382715253011e-07,-1.07674436422975e-07,-5.72440531126537e-08,2.12709807732656e-15,6.56597387180873e-06,-4.26499260007381e-08,-6.18459280535281e-06,-3.01579826334922e-15,-2.0690158179354e-07,-7.55745718264451e-06,-1.43142157302968e-07,-3.77274999521423e-07,9.18305545679149e-08,-0.707106781186546,4.83911864007479e-08,-5.18482910063907e-08,1.75683776415468e-08,1.49932239194011e-07,5.9438135397882e-07,1.42217649037258e-08,7.76592522589476e-08,3.71216064660842e-09,-4.45654085971803e-08,7.39522080759072e-08,-3.30840238400998e-15,1.65279871558785e-15,1.01782816261004e-16,-3.95749211787033e-15,1.28164838409424e-14,-2.0991341025608e-07,2.6454540477945e-08,-2.29857321978266e-15,3.08584175463853e-15,2.25902287845617e-07,-1.19190776175121e-16,-1.09897760044947e-15,-3.12129517894302e-07,1.16339335416423e-08,5.92236478085104e-16,-5.9219515192045e-10,4.75227230662232e-08,1.06248643415119e-15,-1.83284490651855e-16,-2.363881953414e-07,-3.10869868786943e-08,-1.06091258792977e-15,-2.11722554788163e-08,-1.73378934460331e-16,2.49120035436207e-15,-3.60582186302362e-07,2.91366749642678e-15,4.6090213823714e-08,6.64272375839248e-16,5.22112047881457e-08,-6.41302596817323e-15,-3.72052121447615e-12,1.77963033543158e-14,-4.28398338270664e-13
"t172",-0.24713069047559,0.00624873366781577,0.0534596704206914,-0.0915570320427121,0.00597452567209612,0.000674381217136424,0.0136944873421883,-0.11750376370436,-0.00223083245184875,-0.00174394614188469,0.0775449567626712,-0.133211773259093,0.011554206550484,2.71866501568898e-05,-4.22067340537779e-07,1.98452365651747e-15,-0.000110504812254624,-0.571403521242302,1.2516128852068e-05,1.11418062102937e-06,-1.03585877597504e-05,-1.32821999790436e-06,-1.41293425860452e-06,0.00985072519596999,0.223877020713477,-3.04307268304343e-06,-1.46253456287432e-08,0.0546359636167981,8.86712175155523e-07,5.19324451442143e-08,-0.00315840653694988,-0.000889959144768412,-6.90956327493062e-15,9.74180866034444e-07,-8.55389776869844e-16,2.26173046589064e-06,1.42778078438352e-05,7.52206039149187e-07,-5.96557883610624e-08,4.03833134107443e-06,-7.20774792475244e-08,8.443827085138e-07,-1.0767443538912e-07,-5.72440749253456e-08,-1.54154343154971e-15,6.5659738627549e-06,-4.26499191416588e-08,-6.18459280216508e-06,3.0277582511177e-15,-2.06901620396079e-07,-7.5574571556793e-06,-1.43142135261615e-07,-3.77275010797617e-07,9.18305241692712e-08,0.707106781186548,4.83910102890322e-08,-5.18484280339995e-08,1.75686711307617e-08,1.49932079997703e-07,5.94381297890658e-07,1.42217138195194e-08,7.76592681782606e-08,3.7121565288863e-09,-4.45654136555104e-08,7.39522039170471e-08,2.73708110931201e-15,-1.09855057867975e-15,1.94188308295833e-16,3.41644717692202e-15,-1.68031305528198e-14,-2.09913399736782e-07,2.64545356796553e-08,2.09276097820712e-15,-3.43997273863095e-15,2.25902269184064e-07,3.71875650544003e-16,1.22090663834609e-15,-3.12129517716701e-07,1.1633936529153e-08,-1.31224271659302e-15,-5.92193374056499e-10,4.75227286129535e-08,-6.08490260620691e-16,9.11821129806617e-17,-2.36388196344041e-07,-3.10869887932027e-08,3.04819385238359e-16,-2.11722634345003e-08,-6.41670540654864e-16,-2.84245106918392e-15,-3.60582190929456e-07,-1.58005539375336e-16,4.60902112740115e-08,-6.71752289556645e-16,5.2211198797923e-08,-4.24008837851747e-15,-3.71510814908452e-12,1.68951891957124e-14,-4.25272093358556e-13
"t203",-0.248776101782866,0.00637521704923721,0.0554744828840986,-0.0956019400686718,0.00640219708086073,0.000733798124451958,0.0158353084030508,-0.137269855186015,-0.00278863219653279,-0.00227364918651287,0.107384397664685,-0.199064234719847,0.0199909906391283,4.92933783312049e-05,-9.20614245541086e-07,-5.10702591327572e-15,0.000300134199303067,0.38874288517276,4.54171860345022e-06,5.27985751377429e-07,-6.88133220039267e-06,-1.12702014465422e-06,-1.40421024531667e-06,0.0183723991183787,0.41924392164544,-7.98331937601687e-06,-1.95111287454293e-07,-0.124085368024804,-8.11867435436581e-07,-7.04128263228453e-09,-0.0502536536074898,0.000234898504424255,9.480927757457e-16,6.83314694327026e-08,-2.86355435623975e-15,7.42034988333892e-07,4.98271477369361e-06,2.69887822053154e-07,-2.47105699355611e-08,1.77563026340336e-06,-3.30175853870173e-08,3.97299795335e-07,-5.19392315231286e-08,-2.84426120588631e-08,4.9839852157507e-16,3.32630512626921e-06,-2.18393868847469e-08,-3.20191473361181e-06,1.06792647718108e-15,-1.08076801732798e-07,-3.94929190551172e-06,-7.75193062978205e-08,-2.06150098745961e-07,5.0495154767003e-08,-1.58167231474511e-14,2.71589585835674e-08,-2.92242089238189e-08,9.92079646395344e-09,8.47571126101208e-08,3.37110587506504e-07,8.0880636682938e-09,4.47755694543167e-08,2.1628485754955e-09,-2.63135626956084e-08,4.37948141340611e-08,3.25314077636413e-15,3.43934058542751e-15,2.858887331298e-14,3.66987462901369e-14,-0.707106781186548,-1.27692171063354e-07,1.61309923666915e-08,-4.1558427776675e-16,2.17680092929417e-16,1.39079962168391e-07,6.950609149805e-15,-4.64502115930941e-16,-1.94724756661516e-07,7.27864411838401e-09,2.65291925720875e-15,-3.7218157116022e-10,2.99816977956721e-08,-3.29546355436045e-15,-3.05809414135079e-15,-1.50815117898919e-07,-1.98506829342023e-08,2.35168239532783e-15,-1.35508093894051e-08,1.58483712834832e-17,5.02776686704331e-15,-2.31849820155831e-07,-6.68429163789471e-17,2.97993122546828e-08,1.12476822679549e-17,3.43753397314948e-08,-8.70663763778027e-15,-2.41719810305611e-12,1.8194094683444e-14,-4.26630333483706e-13
"t204",-0.248776101782866,0.00637521704923712,0.0554744828840993,-0.0956019400686719,0.00640219708086061,0.000733798124451382,0.0158353084030504,-0.137269855186014,-0.00278863219653359,-0.00227364918651416,0.107384397664685,-0.199064234719848,0.0199909906391272,4.92933783308063e-05,-9.20614245717052e-07,-3.23352455922077e-15,0.000300134199303655,0.388742885172757,4.54171860402897e-06,5.27985750836712e-07,-6.88133219907055e-06,-1.12702014469004e-06,-1.40421024561777e-06,0.0183723991183791,0.419243921645441,-7.9833193765448e-06,-1.95111287258073e-07,-0.124085368024805,-8.11867437034858e-07,-7.04128501239079e-09,-0.0502536536074922,0.0002348985044244,5.97131352476185e-15,6.83314698700952e-08,-6.15468210256871e-16,7.42034989373316e-07,4.98271477167266e-06,2.69887820386668e-07,-2.47105714909328e-08,1.77563026317014e-06,-3.30175836438775e-08,3.97299791458518e-07,-5.19392211329096e-08,-2.8442607586586e-08,-5.18916728923335e-16,3.32630512175463e-06,-2.18393851490187e-08,-3.2019147316126e-06,-6.10720494954259e-16,-1.08076801799774e-07,-3.94929191081528e-06,-7.75193023502368e-08,-2.06150105148692e-07,5.0495153469844e-08,1.38297010569925e-14,2.71589536831298e-08,-2.9224208505374e-08,9.92079117400891e-09,8.4757102964163e-08,3.37110560106561e-07,8.08807528612079e-09,4.47755893344597e-08,2.1628200987641e-09,-2.63135487433439e-08,4.37947294011399e-08,-3.7681289031526e-15,-2.87271045000984e-15,-2.85110748730986e-14,-3.72346743808276e-14,0.707106781186546,-1.27692181741757e-07,1.6130975378561e-08,8.46454576417292e-17,-1.09175418142511e-15,1.39079907759753e-07,-6.89069376615214e-15,2.6443991157631e-17,-1.94724804158004e-07,7.27865986998285e-09,-2.17992706162841e-15,-3.72163954128891e-10,2.99816894088392e-08,3.54001416982353e-15,2.32411475646664e-15,-1.50815104598763e-07,-1.98507023516642e-08,-2.97812764788708e-15,-1.35508242355835e-08,-3.46411980624058e-16,-3.82437979294647e-15,-2.31849818408849e-07,1.83877984457203e-15,2.97993162272557e-08,-3.72023225093462e-16,3.43753441980137e-08,-2.94169064167418e-15,-2.41396924320971e-12,1.64036314847874e-14,-4.27012784559404e-13
"t127",-0.246855848191491,0.00622879415159723,0.0531658200102179,-0.0909845570318036,0.00592159918184704,0.000667644425977066,0.0135377287366642,-0.11618631086448,-0.00221707924158269,-0.0017439692162037,0.0785447393248772,-0.137978486383544,0.012710435514946,3.06150413252521e-05,-5.2953762407952e-07,-6.20337115009306e-15,0.000117058596874498,0.126689063966787,7.17814702021167e-07,6.13522149263863e-08,-1.67331879024184e-07,9.74469941763247e-08,2.54842531875835e-07,-0.0115204491210972,-0.263995819734708,6.58893409002513e-06,2.4453859538965e-07,0.248663112165136,2.3717724201494e-06,5.55933931487519e-08,0.855035656261425,-0.00526713199034494,-2.14674675272027e-14,2.17223230849961e-06,2.82007453813952e-14,3.49747421253282e-06,2.15983969468608e-05,1.12641832347325e-06,-8.4553382249213e-08,5.5873283350885e-06,-9.80448719989474e-08,1.13569869736454e-06,-1.43294812722655e-07,-7.52146914486128e-08,-8.12794833670725e-16,8.55463162462732e-06,-5.53068321327292e-08,-7.98124011887857e-06,-5.10369518249159e-16,-2.65958984072549e-07,-9.71290565690961e-06,-1.81070844317492e-07,-4.75336108919302e-07,1.15372491142311e-07,6.08640922022729e-15,6.02396676371136e-08,-6.44188272845154e-08,2.18097316943096e-08,1.86036225350916e-07,7.36416760951454e-07,1.75984949500221e-08,9.55036452820659e-08,4.54349317949911e-09,-5.42168649962696e-08,8.98465664722832e-08,-2.33911097482142e-16,3.19798150582353e-16,-4.90455963199448e-16,-5.2773001308344e-16,1.03433124812035e-15,-2.51935529457758e-07,3.1715947997104e-08,6.87807665433409e-16,3.57950334823617e-17,2.69646340735248e-07,3.24887465253765e-16,-2.39321167059404e-17,-3.7033671205116e-07,1.37856038363487e-08,-2.11243992934668e-16,-7.00284872720375e-10,5.60984605364568e-08,2.98651652665959e-16,-1.1049744143499e-15,-2.7763096131041e-07,-3.64963465310315e-08,-1.47442105706107e-16,-2.48304207242824e-08,-5.40859493444341e-16,7.51343097790129e-16,-4.22000731464793e-07,6.05167257288621e-16,5.3806371832117e-08,6.26483105595217e-16,6.04546062368863e-08,-4.80026879069038e-15,-4.31435337724126e-12,1.74245656841395e-14,-4.27441746573033e-13
"t121",-0.246728273258217,0.00621897958564075,0.053009395522806,-0.0906704997508544,0.0058884070129855,0.000663036360532829,0.0133726980388332,-0.114664801148882,-0.00217466043001103,-0.00170406177346676,0.076330392604145,-0.133193095387935,0.0121229718307003,2.90965469494028e-05,-4.97000197327213e-07,3.91353616180368e-15,0.000100392500360033,0.102106742638463,3.30785616086689e-07,1.32448819547044e-08,5.52913150713021e-07,2.35087756262277e-07,4.48778016520564e-07,-0.0156762903188405,-0.359076494683218,8.7673760773368e-06,3.20831378840484e-07,0.331108284832297,3.29937430298371e-06,1.42136796589993e-07,-0.36294872502231,-0.000336690532425821,-0.707106781186541,1.60516521803033e-06,-1.65412967098773e-14,3.3766017746903e-06,2.10155253676689e-05,1.09968511489871e-06,-8.38349159781556e-08,5.57028346509228e-06,-9.80798651836815e-08,1.13845988459069e-06,-1.43903144799561e-07,-7.56854402724456e-08,1.44022869248293e-16,8.61870727764358e-06,-5.57570742438242e-08,-8.05135405439658e-06,4.08161206192412e-16,-2.68429619197535e-07,-9.80335205880274e-06,-1.8309406398757e-07,-4.80850057663674e-07,1.16744374255743e-07,-9.47314974300437e-15,6.1009446747913e-08,-6.52532735320428e-08,2.20938652669091e-08,1.88467898632901e-07,7.46137732415621e-07,1.78326638837841e-08,9.68229491107064e-08,4.60789945947182e-09,-5.50084416141139e-08,9.11663863352978e-08,1.9742747706997e-16,-4.83145836220927e-17,5.37701817287511e-16,6.98452273583915e-16,1.28609606500727e-15,-2.55818108717637e-07,3.2206512575332e-08,-4.40344382992147e-16,4.99454785480416e-16,2.73875076327016e-07,3.39821181616121e-16,-2.26355375697175e-16,-3.7624134047053e-07,1.40061052962954e-08,6.60188023931911e-16,-7.11539479931242e-10,5.70035967700533e-08,-2.28914897968076e-16,-5.97012751565289e-16,-2.82155521960712e-07,-3.70915463171423e-08,3.01566705786436e-16,-2.52360965334357e-08,-7.50560377262564e-16,4.23403072712531e-16,-4.28918614949428e-07,6.26596768198489e-16,5.46916276294288e-08,5.34134514241486e-16,6.14581294921025e-08,-5.85822936013625e-15,-4.38867366346542e-12,1.74398355220095e-14,-4.26967320689074e-13
"t123",-0.246728273258217,0.00621897958564072,0.053009395522806,-0.0906704997508544,0.00588840701298555,0.000663036360532985,0.0133726980388329,-0.114664801148881,-0.0021746604300099,-0.00170406177346625,0.0763303926041465,-0.133193095387936,0.0121229718307037,2.90965469497974e-05,-4.97000197221178e-07,3.59434704222394e-15,0.000100392500359779,0.102106742638461,3.30785614736749e-07,1.32448811593777e-08,5.52913152628617e-07,2.35087756875197e-07,4.48778016522062e-07,-0.0156762903188419,-0.359076494683223,8.76737607556827e-06,3.20831382642108e-07,0.331108284832303,3.29937430336548e-06,1.42136788662361e-07,-0.362948725022277,-0.000336690532300086,0.707106781186553,1.60516522871688e-06,-8.47662333497253e-15,3.37660176941243e-06,2.10155253580502e-05,1.09968511442023e-06,-8.38349164125531e-08,5.5702834643916e-06,-9.80798660056623e-08,1.13845988282076e-06,-1.43903141576198e-07,-7.5685439286668e-08,6.38701973593148e-17,8.6187072781368e-06,-5.57570719797445e-08,-8.05135404989634e-06,5.25885998084287e-16,-2.68429618994596e-07,-9.80335205843205e-06,-1.83094063685954e-07,-4.8085005859994e-07,1.16744375213391e-07,4.34218801967492e-15,6.10094471122842e-08,-6.52532736168847e-08,2.20938662719674e-08,1.88467898282349e-07,7.46137733097994e-07,1.7832664314586e-08,9.68229485449443e-08,4.60789917910347e-09,-5.50084409634971e-08,9.11663863651683e-08,-6.25103860038834e-16,-6.98573901322603e-16,-2.42344943967356e-16,1.8200881851529e-16,-3.52255741040047e-15,-2.55818109342158e-07,3.22065138607719e-08,6.68329942897426e-17,2.68084782892063e-16,2.73875074901565e-07,4.86922450224647e-16,-7.71986034325676e-17,-3.76241340132007e-07,1.40061062317152e-08,3.3190175659103e-16,-7.11539014548965e-10,5.70035972917024e-08,6.14370438644664e-16,-4.33026104825711e-16,-2.82155520849998e-07,-3.7091545984744e-08,5.18105131324069e-16,-2.52360947009378e-08,-1.00091363132508e-16,3.98871928631038e-16,-4.28918614134264e-07,5.1520380052279e-16,5.46916285190358e-08,7.92441130170478e-16,6.14581279986054e-08,-5.80469664467671e-15,-4.38795587197027e-12,1.76032715792551e-14,-4.27146799105649e-13
"t107",-0.245017695722361,0.00608910615440834,0.0509726113233739,-0.086604785427804,0.00546856186536754,0.000605507271027993,0.0114085942815923,-0.0966905908218828,-0.00169563154185935,-0.00126440603045186,0.052695409221409,-0.0838417274818597,0.0063726476158309,1.44335053826224e-05,-1.95993382753952e-07,6.24500451351651e-16,-2.72626811471151e-05,-0.0708243346261685,-2.14284784443104e-06,-2.76408326196386e-07,4.39013397769048e-06,8.63422858038938e-07,1.21261624585617e-06,-0.0202318027386876,-0.461682038154741,8.30898368156489e-06,5.83560232927368e-08,-0.825533247193014,0.000142899574962093,4.37919361859507e-07,-0.0189683420868544,-0.00539912615743065,2.43502168901983e-15,4.6420480456551e-06,5.22673525407384e-16,6.97138175104079e-06,4.23862691321078e-05,2.1939186318814e-06,-1.57384616833869e-07,1.01720590260514e-05,-1.75582144660845e-07,2.010919805278e-06,-2.50960553809058e-07,-1.29950832316987e-07,-2.55112067619758e-16,1.464427417637e-05,-9.41839894819068e-08,-1.35177802119567e-05,2.71860229891528e-16,-4.48442126729152e-07,-1.63739128047326e-05,-2.99642177807845e-07,-7.82837380118214e-07,1.89359843240881e-07,-1.81511101769619e-15,9.77579105179025e-08,-1.04287978045391e-07,3.52709542657461e-08,3.00675278222712e-07,1.18798984868197e-06,2.83457252970259e-08,1.52611912024134e-07,7.2157600016262e-09,-8.5420952711766e-08,1.41302770423335e-07,-4.43224926511056e-16,2.41867215431697e-16,-2.4421981972886e-16,-8.75813057562814e-16,-1.94343629406718e-15,-3.89700213476873e-07,4.89851382081474e-08,-2.77058288778221e-16,-4.71941479319956e-16,4.13920534232343e-07,1.9561529084957e-16,7.93392347076026e-16,-5.63640827178637e-07,2.09421449542015e-08,-4.14736228589973e-16,-1.06067709329536e-09,8.47522212870752e-08,6.97290207343257e-16,-5.33154988871681e-16,-4.16307933109297e-07,-5.46942006781371e-08,-4.06302519135505e-16,-3.71534490732033e-08,-1.70270440516343e-16,2.93087213470632e-16,-6.29458313774033e-07,4.21873646849984e-16,7.99556643661973e-08,5.2038466536955e-16,8.87078432820339e-08,-5.97747041498242e-15,-6.36880162087814e-12,1.74277108622941e-14,-4.27452394458322e-13
"t120",-0.240619609097853,0.00574004191503069,0.0451814552801761,-0.0748025793534014,0.0041397362192271,0.000413831968366781,0.00336205642793803,-0.0204092786914536,0.000885406251697588,0.00149967132225786,-0.13487379143056,0.457466279518152,-0.137335342779629,-0.000529356051945784,-2.19352261880375e-05,8.04911692853238e-15,0.000486294368864939,0.029087167420817,1.53846982472617e-05,1.40428549591042e-06,-1.28898281375491e-05,-1.52778119512122e-06,-1.46337185216829e-06,0.00173780705991883,0.0378641528449706,1.56457839276629e-06,1.20573777607017e-07,0.0113918084291694,2.91357436029478e-05,6.10859636652941e-08,0.0025811519298047,0.821728187988486,-7.21465098176157e-14,5.44450236722639e-06,3.8788882881105e-15,7.04835560433777e-06,4.31404442963753e-05,2.24087739731713e-06,-1.64664887877237e-07,1.07801134617542e-05,-1.87904649489433e-07,2.16671955508481e-06,-2.72191633498084e-07,-1.42101390401201e-07,1.14816507470243e-15,1.61025296028647e-05,-1.03886860544459e-07,-1.49588668287503e-05,8.27652701528348e-17,-4.97570924801842e-07,-1.81699422063641e-05,-3.36154980420512e-07,-8.80680966624686e-07,2.13448530424571e-07,-3.79286831024739e-15,1.10909503467725e-07,-1.18479734030675e-07,4.00943823738373e-08,3.41911964050991e-07,1.35233843173384e-06,3.22953336130889e-08,1.74644348003507e-07,8.28543890828663e-09,-9.85071181458206e-08,1.63106391146239e-07,-1.91655247751679e-16,8.32003912157348e-16,-3.1527956752872e-17,4.11574476624576e-16,-8.90890888823418e-16,-4.53747999960876e-07,5.70797500177409e-08,5.50534184394197e-17,2.99362963524584e-16,4.83813229339222e-07,-5.45695936668484e-17,3.5556957758651e-16,-6.61599629159291e-07,2.46040559142345e-08,1.06716269895945e-15,-1.24792153721201e-09,9.98350324487912e-08,-2.14510738325488e-16,-5.24020739331878e-16,-4.92116210868639e-07,-6.46713098276009e-08,-4.3980355610455e-16,-4.39622473124756e-08,-3.07792908677594e-16,6.63790206757682e-16,-7.45875267608572e-07,1.41922848843019e-15,9.49035359285669e-08,-2.61197240942524e-16,1.05868229303934e-07,-5.31787182483178e-15,-7.64207807822121e-12,1.73684807296122e-14,-4.27377279175318e-13
"t130",-0.240761670757711,0.0057501402155624,0.0453257366139574,-0.0750799766981674,0.00416365731030397,0.000416707893324043,0.00339985648309771,-0.0206523822602682,0.000899549053863888,0.00152697247042573,-0.137714059196929,0.468514572117087,-0.141293726405315,-0.000545253442432157,-2.26770496895378e-05,5.64825963778048e-15,0.000510345362503986,0.0306872177064987,1.64598159469448e-05,1.50773971079506e-06,-1.39481170760398e-05,-1.66907774712975e-06,-1.6120265176062e-06,0.00199293218867356,0.0434336015666084,1.82806054759e-06,1.46919028540839e-07,0.015036251082666,4.29647209563195e-05,3.14288669612805e-07,-0.00254747167683144,-0.40292718775376,4.09624129272297e-14,2.15374525757523e-06,-0.707106781186549,5.56539081019078e-06,3.47685297567095e-05,1.82218196213639e-06,-1.39836036194576e-07,9.30827869726255e-06,-1.64036548412154e-07,1.90469452364094e-06,-2.40789579248863e-07,-1.26631516633639e-07,4.63889432927532e-16,1.44169828593632e-05,-9.32505387317709e-08,-1.34621969134151e-05,8.92020718793649e-17,-4.48720726649821e-07,-1.63875997957294e-05,-3.05661513362789e-07,-8.02392325124659e-07,1.94745580119141e-07,2.66494149389756e-15,1.01644551894816e-07,-1.08682722208798e-07,3.67936283286741e-08,3.13837103764345e-07,1.24216883262021e-06,2.96816408952442e-08,1.60976447089847e-07,7.65372265487085e-09,-9.12466019447501e-08,1.51176163105709e-07,-8.16597586056181e-17,-5.60602427221898e-16,7.94132496632832e-18,1.72575200970937e-17,4.69234877467797e-16,-4.22830498160009e-07,5.32155160699768e-08,-8.53372228719878e-17,-6.83857021503535e-16,4.51912070705346e-07,8.45881396724679e-17,-3.13263604020523e-16,-6.19558203193552e-07,2.30531732427968e-08,5.16699751780038e-17,-1.17026520289456e-09,9.36909864723861e-08,2.24591030953479e-16,-3.03829135198318e-16,-4.62804163743628e-07,-6.08291574723945e-08,3.02252099991769e-16,-4.1368194762069e-08,-7.90444735261507e-16,1.30882617319284e-16,-7.02465025912829e-07,1.00534406371424e-15,8.94710335436081e-08,3.15463057775862e-17,1.00137836745691e-07,-5.37048254715252e-15,-7.22901737891657e-12,1.72915789934329e-14,-4.26432734001668e-13
"t134",-0.240761670757711,0.00575014021556238,0.0453257366139574,-0.0750799766981672,0.00416365731030398,0.000416707893324239,0.00339985648309774,-0.0206523822602691,0.000899549053863205,0.00152697247042526,-0.137714059196929,0.468514572117087,-0.141293726405315,-0.000545253442431842,-2.2677049689306e-05,3.85802501057242e-15,0.000510345362503269,0.030687217706499,1.64598159463592e-05,1.5077397100593e-06,-1.39481170757758e-05,-1.66907774732354e-06,-1.61202651701031e-06,0.00199293218867887,0.0434336015666091,1.82806054840638e-06,1.46919028622826e-07,0.0150362510826681,4.29647209609255e-05,3.14288675031904e-07,-0.00254747167687864,-0.402927187753767,3.25385957278925e-14,2.15374519006182e-06,0.707106781186545,5.56539080487764e-06,3.47685297636218e-05,1.8221819549171e-06,-1.39836035269762e-07,9.30827869717705e-06,-1.64036551301716e-07,1.90469452523611e-06,-2.40789582191149e-07,-1.26631519705971e-07,-1.78773316103382e-15,1.44169828571871e-05,-9.325053767354e-08,-1.34621969151552e-05,2.19630278557703e-16,-4.48720727673897e-07,-1.63875997976352e-05,-3.05661515679858e-07,-8.02392324756261e-07,1.9474558015125e-07,4.0011122512687e-15,1.01644554117613e-07,-1.08682721344113e-07,3.67936283639566e-08,3.13837102696416e-07,1.24216883275877e-06,2.96816401962069e-08,1.60976441414696e-07,7.65372289385239e-09,-9.12466019382098e-08,1.51176162837101e-07,-4.15108011543617e-16,9.77460003721304e-17,-4.58763255822261e-17,-3.42912949074765e-16,-1.80672232301395e-15,-4.22830499869652e-07,5.3215516142452e-08,3.96970542533425e-17,-3.21152343781393e-16,4.51912071098436e-07,4.72486609744089e-16,-3.19889392854297e-17,-6.19558201348994e-07,2.30531735066239e-08,-7.31723818385086e-16,-1.17026444719531e-09,9.36909878468868e-08,8.8704365723456e-16,-4.01355383432685e-16,-4.62804163776524e-07,-6.08291556241627e-08,-3.17969226915967e-16,-4.1368193784286e-08,-2.54407018833204e-16,2.02358840270185e-16,-7.02465025161307e-07,4.93841933719822e-16,8.94710337204348e-08,5.09337981107591e-16,1.00137835705728e-07,-5.86640614873741e-15,-7.22843747421529e-12,1.75070755512879e-14,-4.27021164639514e-13
"t141",-0.195995983085051,0.00230161851301866,-0.0097162211078354,0.035476286125568,-0.00753106271306795,-0.00120619357211298,-0.0539266282382924,0.505140462368325,0.0145083636411453,0.0129700674270168,-0.548834581548845,-0.400524077352075,-0.47951914451169,0.00151016742450303,0.00100280044470345,7.57727214306669e-15,0.00686849461707696,0.00306086576440986,0.000160124807685221,1.41161743364096e-05,-0.000121805350250307,-1.3597106435712e-05,-1.24252305618381e-05,0.00103963322122568,0.00816221621431206,1.94060286239995e-05,1.14830281445881e-06,0.00306995487749047,0.000300013536605787,1.66172461709614e-06,-0.000213368797422384,-0.000827124956807702,1.67909341965878e-15,2.21003941960476e-05,7.83817816879051e-17,3.86129960285534e-05,0.000237472793248706,1.2356085500699e-05,-9.1095725702967e-07,5.9528313049059e-05,-1.03493609722707e-06,1.1905808278433e-05,-1.49163839098038e-06,-7.75707774279783e-07,-8.78820236050251e-17,8.7638817737498e-05,-5.64386113163096e-07,-8.11062717607576e-05,1.70814784919112e-16,-2.69322670712436e-06,-9.83415908948399e-05,-1.80537752262748e-06,-4.71955820894604e-06,1.14204286821395e-06,4.36740332156149e-16,5.90128354012169e-07,-6.29628926884929e-07,2.12955359575305e-07,1.8154340098147e-06,7.17341284109352e-06,1.71167426351428e-07,9.2162891602373e-07,4.35706416886869e-08,-5.15578458752427e-07,8.52751780363433e-07,-3.61889333353404e-16,8.04424730822316e-17,2.5495275687317e-17,-5.00934489764515e-16,-1.89188388880898e-15,-2.34719937026976e-06,2.94969765134936e-07,-2.96969819763463e-17,-7.60392426672418e-17,2.48969890101584e-06,2.180238864576e-16,4.35313319727611e-17,-3.38390441374404e-06,1.25671607294749e-07,-5.7990378993052e-17,-6.36012323630249e-09,5.07842982261464e-07,1.34013627609753e-16,-5.92729970540299e-16,-2.4889207580174e-06,-3.26930159391262e-07,7.5272918675615e-18,-2.21967386262297e-07,-3.9458425587912e-16,3.68455746395424e-16,-3.75654745154237e-06,8.97040721841023e-16,4.76513379397581e-07,2.76744688154521e-16,5.25927061844812e-07,-5.73020586174058e-15,-3.83743125515886e-11,1.73973193761952e-14,-4.27075533818514e-13
"t57",0.028337427924527,-0.00961961979890846,-0.0588122383376397,-0.00981285119869572,-0.00996861731823193,-0.0723320948778078,-0.0645373392913901,0.00065345389177085,-0.0840634291392526,-0.108696142072029,0.000121181291955338,-0.000422268623529417,0.000885573072510014,-0.0903924382583736,-0.0448802926713409,3.19536064274928e-15,-0.820153196538869,0.000457737476951159,0.517680762855213,0.0105221812142558,-0.0372638481387584,-0.00265359367375442,-0.00193561269111334,0.0658841798681548,-0.00252304807139933,0.00171051306143943,8.77056502011339e-05,0.000124488530726168,0.0186638227052786,9.08494672836808e-05,-8.24516683920127e-06,-3.19456952028075e-05,8.7799498468256e-16,0.00107931834093096,-4.9790849575938e-16,0.00161228871669117,0.00973708165606756,0.000502151102233098,-3.50430213237396e-05,0.00222630772273709,-3.78773822821561e-05,0.000429130824814805,-5.29600324817215e-05,-2.70190143880197e-05,2.22565320045225e-16,0.00301222138577202,-1.92507793168529e-05,-0.00274429630542517,6.87755881806359e-17,-9.05202170845825e-05,-0.00330428200971274,-5.89629417246584e-05,-0.000152982012639186,3.68186939445242e-05,-4.11466755581792e-16,1.86816857183491e-05,-1.9853683238155e-05,6.70345887998766e-06,5.70889973469935e-05,0.000224884959247611,5.35223448210164e-06,2.84386785651228e-05,1.33044700756536e-06,-1.55280589352868e-05,2.56024025487231e-05,-3.56782996926934e-16,8.57699128289412e-17,-6.53363931882523e-17,-1.79168491979037e-16,-1.08195994946776e-15,-6.84129559643619e-05,8.57377102739506e-06,-7.84485844748058e-17,-1.8107759364737e-17,7.15544816859224e-05,2.2439854691253e-16,-4.04022183451437e-17,-9.57069568631313e-05,3.54180646511959e-06,2.29013250213371e-16,-1.78236706230538e-07,1.41621790116585e-05,1.97696900602932e-16,-6.1324453480524e-16,-6.84037700475993e-05,-8.97475980584547e-06,-7.82420160836066e-17,-6.07467257588259e-06,-4.36134622759073e-16,2.41283707726525e-16,-0.000102169982514157,7.2719785571732e-16,1.28627146917838e-05,4.17125836693897e-16,1.38351178453446e-05,-5.47812740515393e-15,-1.00388896808356e-09,1.74845161943192e-14,-4.2703193022603e-13
"t154",0.0461595356502536,0.0764293826158298,0.021406682733125,0.00313221836481116,-0.000952032506586441,-0.0191818196743041,-0.0218863645955599,-0.00112038532974585,-0.183728692180775,0.0925367905508185,1.34163395271087e-05,-1.19024311897974e-05,0.000212193554050633,-0.0457536665487441,-0.444942304864211,1.32671651442706e-14,0.0619836526619208,-2.15491127355376e-05,0.0177954124743804,-0.0374380750250006,-0.00198309198139153,-0.000185988665526629,-0.00988083202704265,0.0141990074108389,-0.000609163729061664,9.73282460556392e-05,1.06194844255874e-05,1.12083030560672e-05,0.0695130892746341,-8.90463575746399e-07,-4.47133512003105e-08,-2.15827892846565e-07,-3.81115951758199e-16,0.00203275926429785,-2.2553879634897e-16,-0.00334734014687198,-0.000724655259120186,-0.00240202892578228,0.00071521246985581,-0.852922590753899,-0.00157751393352512,0.0108284092032477,-0.000997074677717347,-0.000395408494864462,2.01454655954558e-15,0.00114442341815494,-0.000234709520752663,-0.00157552309025878,-1.40153536110786e-15,-0.000759296300305505,-0.00109226322702453,-0.000570599143594635,-0.00143083375697472,0.000336611677443065,5.52884808739644e-15,8.58271019450989e-06,-0.000167294050011831,5.61645597132995e-05,0.000476725883254404,6.17044819433812e-05,4.39152777744511e-05,7.61636507337111e-06,3.51462292565809e-07,-0.000115087538623816,6.63787782785297e-06,-1.05707554925523e-15,2.46323094695322e-16,-1.23014727905556e-15,-1.7523745523337e-16,-1.08690607188917e-15,-1.73091877661337e-05,3.49182526916931e-06,-1.31228073065178e-16,-8.87453085387417e-16,1.79485669054197e-05,1.56921701863579e-15,9.42276203956898e-17,-2.38166803530029e-05,8.8004604500044e-07,2.10626071423005e-15,-4.41876964036314e-08,3.50474887662173e-06,-5.22933763258626e-16,1.82878178425121e-16,-1.68520114309312e-05,-2.21035025790345e-06,-3.02433234088184e-16,-1.49492799939912e-06,-8.63732664066368e-16,9.16175778891913e-16,-2.51069066629142e-05,5.47509337929722e-16,3.15607436303317e-06,8.89666091251568e-16,3.38336118263168e-06,-5.74665317584672e-15,-2.45251494215165e-10,1.71870714621545e-14,-4.2598231057442e-13
"t198",0.0463028716548551,0.0771335909717085,0.0217628545058758,0.00319262625782899,-0.000980431201622743,-0.0198671055270687,-0.0231323637983438,-0.00118780301039917,-0.198347099745017,0.100864154780127,1.47994672592012e-05,-1.32951079976231e-05,0.000241368418174866,-0.0522822432878526,-0.515559717144647,1.54667945118092e-14,0.0756761547004253,-2.67545618702092e-05,0.0230206581210363,-0.048900830492417,-0.00264377708015087,-0.000253814194070721,-0.0137429159261888,0.0213590763379516,-0.00091672769142816,0.000150883031825551,1.74309083784897e-05,1.99388351185546e-05,0.133257968756793,-2.09944458019046e-06,-1.19825862756209e-07,-5.98862910135416e-07,-5.43083505370894e-17,0.00742646443482608,-2.80112183823818e-17,0.0125198075812681,0.00180140837560298,0.00499712365759859,-0.000545137425201686,0.36761111922767,0.000387385698044363,-0.00150360265603318,4.83626695669303e-05,-1.95322678826109e-05,-8.52280840719902e-16,0.000124173281135945,-3.27718415719705e-05,-0.000268539876409373,6.63586722442412e-16,-0.000147789075497163,-0.000213774628185891,-0.00016323294087698,-0.000439574904898832,0.000108315695357016,1.62834090559135e-15,3.15191206408946e-06,-6.29722364377384e-05,2.13618803961803e-05,0.000182411507781525,2.4035904624731e-05,1.73560263953601e-05,3.22260661891211e-06,1.55944944711162e-07,-5.39778849666508e-05,3.14987843543961e-06,-2.11145607165707e-15,-7.04425561115953e-15,1.05603377004539e-13,-0.707106781186548,-3.70622031718534e-14,-9.04159509707333e-06,1.83824902798932e-06,-4.09632138692674e-15,-1.61802673508085e-15,9.74000910751039e-06,-2.22898299527655e-15,-1.26436820906738e-15,-1.3438450782307e-05,5.00568046181387e-07,-8.20356968520235e-16,-2.54484427496147e-08,2.03958319137333e-06,9.84902022600866e-16,-1.27077635611094e-15,-1.0096241492511e-05,-1.32714757107338e-06,4.81507805489383e-16,-9.02765598034167e-07,3.46579700482704e-16,9.14686529825719e-16,-1.53340675619476e-05,9.30575869213909e-16,1.95312193185553e-06,1.3821022057631e-17,2.18117203188669e-06,-5.05216692046541e-15,-1.60137122334276e-10,1.75081944385677e-14,-4.27645787693615e-13
"t199",0.0463028716548551,0.0771335909717085,0.0217628545058758,0.00319262625782897,-0.000980431201622729,-0.0198671055270687,-0.0231323637983439,-0.00118780301039925,-0.198347099745017,0.100864154780127,1.47994672587536e-05,-1.32951079979696e-05,0.000241368418174755,-0.0522822432878517,-0.515559717144648,1.54321000422897e-14,0.0756761547004254,-2.67545618703474e-05,0.0230206581210367,-0.0489008304924175,-0.00264377708015141,-0.000253814194070864,-0.0137429159261889,0.0213590763379514,-0.000916727691427773,0.000150883031825253,1.74309083787545e-05,1.99388351170943e-05,0.133257968756794,-2.09944458003981e-06,-1.19825861716861e-07,-5.98862910624627e-07,6.25703252045189e-16,0.00742646443482606,-1.76028779705346e-17,0.0125198075812682,0.00180140837560303,0.00499712365759855,-0.000545137425201967,0.367611119227671,0.000387385698040668,-0.00150360265603643,4.83626695661403e-05,-1.9532267883864e-05,-1.13753958435763e-15,0.000124173281132953,-3.27718415701991e-05,-0.000268539876409723,8.30284536315957e-16,-0.000147789075499879,-0.000213774628186722,-0.000163232940879072,-0.000439574904900224,0.000108315695353909,-5.51871981543309e-15,3.15191206267155e-06,-6.29722364362986e-05,2.13618803933572e-05,0.000182411507776347,2.40359046292403e-05,1.73560263969573e-05,3.22260661949422e-06,1.55944943506015e-07,-5.39778849709364e-05,3.14987842381183e-06,2.22146051514354e-15,7.38113646600214e-15,-1.04474027831943e-13,0.707106781186547,3.51022934287817e-14,-9.04159507928672e-06,1.83824902375252e-06,3.91419646826104e-15,1.99904599784692e-15,9.74000910235522e-06,1.3476162209732e-15,1.1860886293676e-15,-1.34384507851951e-05,5.00568047990485e-07,-3.21117974876127e-16,-2.54484394430254e-08,2.03958319300971e-06,4.61832528801889e-16,-1.35402980043503e-16,-1.00962414939547e-05,-1.32714757457102e-06,-8.18182883111183e-16,-9.02765596887471e-07,-5.99273835299896e-16,-7.26177424221686e-16,-1.53340675580498e-05,8.07658861256281e-16,1.95312192978198e-06,-3.80284428948231e-16,2.18117203096858e-06,-6.09997546853963e-15,-1.60137456043599e-10,1.74149505531682e-14,-4.27190035261338e-13
"t122",0.0468168027965748,0.0816038408877317,0.0273860487729587,0.00477271761630119,-0.000181303117371544,-0.00928494213509602,-0.0138851402203208,-0.000715659261241671,-0.121409009545291,0.0650226213782639,1.37732888181469e-05,1.89650633999057e-06,4.44023881190808e-05,-0.00975995946638374,-0.085250565489485,1.88044024795886e-15,-0.00262002913427733,3.10597468141864e-06,-0.00837340221695386,0.0372616393528777,0.00128594214427171,0.000165869028753144,0.0181728293097654,-0.030876630249293,0.00132897433808712,-0.000265355303937589,-4.32185806761057e-05,-7.82781839759973e-05,-0.81507757017538,0.000114393525605603,-3.78756527888254e-06,-1.43124247937071e-05,-3.41018009865065e-15,0.528736879373334,2.81849109199086e-14,0.0730328213221702,0.00389172356980982,0.0227753997388881,-0.00109925429267408,0.0329504326592482,-0.00105416386758725,0.0110910471510367,-0.00128957690059595,-0.000612227796062756,-2.7617282845116e-16,0.0010523802677178,-0.000409991279280381,-0.00157609043862176,-3.76459806960358e-16,-0.00139850986696208,-0.00112130775603007,-0.00113376316711968,-0.00287920159841107,0.000682731455108433,1.05971079567061e-16,1.02823931404502e-05,-0.000347552480049329,0.000116842736305559,0.000992540308162498,7.48963601473237e-05,9.18007941492005e-05,9.41156554903763e-06,4.38374467716906e-07,-0.000243982269274985,8.37747226234771e-06,-1.08793814067888e-16,-4.37753900091768e-17,-4.4265875739227e-17,4.58091588134749e-16,-2.1218593329457e-15,-2.21346835630566e-05,4.46897788296568e-06,-1.37101266766468e-16,-6.63124480360777e-16,2.30360426233432e-05,6.01182745486198e-16,4.37641148501724e-18,-3.06461450050748e-05,1.1328174876424e-06,-3.02588817407322e-17,-5.69052740847138e-08,4.51464045760832e-06,4.02738896985616e-16,-4.87710742793001e-16,-2.17111868539345e-05,-2.84761836374516e-06,-1.68926299473347e-17,-1.92575246653069e-06,-5.20827908604332e-16,3.57167167121493e-16,-3.23329276980551e-05,6.03678299296868e-16,4.06223297820444e-06,9.09679000754802e-16,4.34114645781456e-06,-5.63395298633357e-15,-3.14243920496812e-10,1.76951435602554e-14,-4.27249644065089e-13
"t147",0.0482204305569639,0.090991425357921,0.0364106713044639,0.00709800575443619,0.000677689600471681,0.000394525316596469,-0.00907466709862021,-0.000491865569710268,-0.105217130332867,0.06498842278759,1.86899142218258e-05,1.00266866849679e-05,-4.88280973517746e-06,-0.000553570047720559,-0.0250834581510128,9.71445146547012e-16,-0.00136113561182374,1.70986379953276e-06,-0.00577276215361999,0.0489074890753897,0.000627868661745093,9.10774582542854e-05,0.020580011500929,-0.0178563604120466,0.000768663341606774,-0.000154557217655186,-2.52984041946202e-05,-4.55890541148999e-05,-0.467736663668813,5.90876042179985e-05,-1.65020486403155e-06,-5.74586168122068e-06,7.32570960425235e-15,-0.834035833522103,-3.73218526235326e-14,0.196352159296385,0.00221932119561588,0.0693868244725074,-0.00250542111967484,0.0228077881223579,-0.00188799860810169,0.0223842485720408,-0.00251780251846404,-0.00115396628686121,-3.01059270240535e-16,0.000734092949304761,-0.000747704177567862,-0.00110370942668814,-1.13523226911518e-16,-0.00249064345815751,-0.00077453941353759,-0.001954618927004,-0.00431842214405258,0.00116149215221339,7.03788239087547e-16,7.25635890530569e-06,-0.000509289915109104,0.000193891257405815,0.00164541340787146,5.28603754548144e-05,0.000151365240152588,6.66011110684231e-06,3.10612148948389e-07,-0.000389363420219911,5.9470615464921e-06,-1.6917831676819e-16,-3.47657183357788e-16,5.53738198472518e-18,2.38123803914546e-16,-1.28406994230987e-15,-1.57654997064984e-05,3.18400553988033e-06,4.87673574005022e-17,6.72304401672547e-17,1.64328012257876e-05,-6.65618468161592e-16,4.05988840794883e-16,-2.18999916393462e-05,8.098360682638e-07,-2.01698809451042e-16,-4.07061542190693e-08,3.23121417219654e-06,-6.8307284848248e-17,-7.19498246344378e-16,-1.55642121158879e-05,-2.04164879300969e-06,-1.47377715320375e-16,-1.38117303157669e-06,-1.73786400106182e-16,6.68204225327228e-16,-2.3205639978149e-05,8.02722807038983e-16,2.91796408293539e-06,2.73441394222285e-16,3.12740676945241e-06,-5.39665144531221e-15,-2.26580137165464e-10,1.73848469346449e-14,-4.27189762365593e-13
"t158",0.0518733691244578,0.116046603648732,0.0613652407037223,0.013619276106657,0.00325160073600201,0.0307594777637814,0.0104826435960546,0.000476126156736681,0.0448498093259452,-0.0190124604700703,-3.36425552860749e-06,-9.63933714239706e-07,3.12590383555716e-08,-7.03265157945738e-06,-0.00166911324287396,-9.71445146547012e-16,-0.00038107799164252,6.70049552542815e-07,-0.00905485718696896,0.226569573370505,-0.000828841205486336,-3.08523966103216e-05,0.127270412432475,0.0035590467187129,-0.000152541906907755,2.31968540563309e-05,2.44236215516281e-06,2.60233100758074e-06,0.0169963690207837,-5.56400625245678e-07,3.91255722053373e-09,6.28818522627709e-09,-2.29850615809109e-16,-0.003108226559241,-7.52317069390779e-16,-0.0165679933128068,-0.000583447648440795,-0.124115461631984,0.00922359564206178,-0.00432795086342759,0.00131659110908241,-0.7873446736833,-0.258805283319648,-0.0228774627965132,8.66623180673915e-15,0.000366275466517331,-0.00940618303641738,-0.000623180644960216,-2.12391215767644e-14,-0.439307055742732,0.00299042511125522,-0.010184945636567,-0.00114613518057109,0.00578439535888944,-1.05462324628722e-14,1.99523543515812e-06,-0.000152517115660214,0.00114772558725274,0.0457375084203688,1.15141780776097e-05,0.000596491567275746,1.64262292117862e-06,7.68327239390413e-08,-0.00142045054733999,1.46704022387057e-06,-5.29617234277074e-16,4.97092771179388e-16,1.86259721746219e-16,-2.58449434470263e-15,-7.6304111704717e-16,-3.88871483680396e-06,7.85484221182422e-07,-5.04930074547763e-16,-1.03493539613645e-15,4.0583412848387e-06,-7.7100129366593e-16,-2.56785573421755e-16,-5.42377322474178e-06,2.00727081417376e-07,-1.03351650737882e-16,-1.01038681620374e-08,8.03129503022425e-07,-3.00433617009926e-16,-5.38113298872336e-16,-3.88677654804113e-06,-5.10061043940914e-07,-3.62119017353806e-16,-3.45443030997351e-07,-1.26659355704362e-15,1.77375494923235e-16,-5.81777937266131e-06,-1.35168541817817e-16,7.33812815214858e-07,2.25004407190374e-16,7.95971613104962e-07,-5.62234854620729e-15,-5.78338916452631e-11,1.70345254993502e-14,-4.26990272345193e-13
"t167",0.0519861431650466,0.116798106497057,0.062086249946412,0.0138050717889839,0.00332067230295122,0.0315449815814152,0.0109150391824231,0.000496927697620134,0.047473101687972,-0.0202786630400311,-3.62310891546484e-06,-1.0488717383924e-06,3.45389591976651e-08,-7.80105972901046e-06,-0.001874095492439,-4.16333634234434e-16,-0.000448949877892237,8.02367973640355e-07,-0.0113067285567863,0.285834580799942,-0.00106921956764678,-4.08667409958543e-05,0.172385494974181,0.00532987274907083,-0.000228571706212706,3.62507848543546e-05,4.16823049508975e-06,5.12582675077441e-06,0.0392717720067052,-2.57189531674316e-06,5.06166810565341e-08,1.60912746618891e-07,-1.13473633047585e-16,0.0116735196315357,1.20862703607304e-15,0.000597792547322715,-3.06771026646488e-05,-0.0112213737121825,0.00243046801567633,-0.00138261971052841,0.000457103753278298,-0.280531998794693,-0.0911251575267724,-0.00706098683364809,-9.89440117507349e-15,7.71841594158997e-05,-0.000712315598874462,0.000188833914866386,3.56508868085272e-14,0.855497756330212,-0.00652812633542414,-0.0103523475650935,-0.00108831450300329,0.00535293073914352,4.23698412817325e-14,2.02152061534416e-06,-0.000192223576362026,0.00206044894655715,0.182520803142182,2.70905736286543e-06,0.000303750651309569,1.15226746318293e-06,5.58130108284796e-08,-0.00105267284485126,1.09064053397827e-06,7.86662187041617e-16,1.28686814030887e-15,-9.42265801533347e-16,1.39423803745006e-15,2.60120641001843e-16,-2.95574198535913e-06,5.9807237733728e-07,2.37606851502352e-16,-7.0122799081477e-16,3.11149511430039e-06,2.62674518528838e-15,2.95089903728747e-16,-4.19750750643772e-06,1.55657663919313e-07,1.40039364435886e-15,-7.86019421723714e-09,6.26490417310035e-07,2.35350165467458e-16,-9.01882565401688e-16,-3.05601525081855e-06,-4.01287123474855e-07,-3.10879946992943e-16,-2.72218231030907e-07,-2.21882490752365e-16,-2.12503667981303e-16,-4.59954137108222e-06,1.82635526105602e-15,5.82417955273474e-07,-5.17965911485804e-16,6.39889600875381e-07,-5.81380823058126e-15,-4.6668117154849e-11,1.75345301163297e-14,-4.2652404161873e-13
"t193",0.05210311616184,0.117577402964,0.0628337051631202,0.0139976620024127,0.00339223963837239,0.0323586752792653,0.0113625688492985,0.000518454473545418,0.0501857187249206,-0.0215874271723207,-3.89052143438511e-06,-1.13656906420096e-06,3.79226525242097e-08,-8.59361562046602e-06,-0.00208538537626509,-7.91033905045424e-16,-0.000518742605852033,9.38326155823681e-07,-0.0136161877425788,0.346588411774864,-0.00131540768114916,-5.11123143068369e-05,0.218503013192234,0.00713385098146319,-0.000306023495566601,4.95321245021941e-05,5.92003079688261e-06,7.67915614913056e-06,0.0617482956082391,-4.59181696698211e-06,9.72547564025891e-08,3.1517861006672e-07,-6.54722441401216e-17,0.0263298719202743,1.0808113380223e-15,0.0169769903977992,0.000491939540116634,0.0949563842825844,-0.00364342862300348,0.00112321703411408,-0.000229079130516326,0.0962020943014269,0.0201535343507217,0.000734176015841942,-8.01813566037492e-16,-3.33231393301439e-06,1.10287176142058e-05,1.47376150364011e-06,2.13582627521449e-15,0.0189605501632773,-0.000148202148437481,-6.44394793696703e-05,4.20260778343963e-05,-0.000511064113278362,-9.72128778671029e-14,-1.90686106583777e-06,0.000381674550191795,-0.00664243446815715,-0.879284199508623,4.29544059792584e-05,0.00121804606633717,1.36274941425668e-06,5.16182319694819e-08,-0.000844149630504378,8.57965753574329e-07,-2.75064099228717e-15,-2.37844445211053e-15,4.31698344083474e-17,-2.97851513358283e-15,-6.57865528775484e-15,-2.14565274828884e-06,4.3312216486564e-07,8.92142247612314e-17,-1.50872602829212e-15,2.24120163863553e-06,-2.2932886103889e-16,1.10703329535309e-15,-3.02500113621144e-06,1.12284822447849e-07,2.75747933968661e-15,-5.68125321795295e-09,4.53767586442422e-07,8.30233663655892e-16,-5.51766699300909e-16,-2.23054335757021e-06,-2.930926753145e-07,-8.54936129936755e-16,-1.99190087605643e-07,-4.00805626222212e-16,1.80420481423583e-15,-3.37868627909858e-06,1.62959943454773e-16,4.29929600053174e-07,1.0444454623744e-15,4.80721169547659e-07,-5.69174564497484e-15,-3.52441062518268e-11,1.82011052505597e-14,-4.26620719971305e-13
"t222",0.0521968511855894,0.118200529205048,0.0634298289625543,0.0141511207260311,0.00344906404817793,0.0330035013656292,0.0117148644844789,0.000535383701149684,0.0523068788696577,-0.0226078305419625,-4.09827176129656e-06,-1.20445179062214e-06,4.05284008186747e-08,-9.203185848875e-06,-0.00224727926030437,-2.15105711021124e-16,-0.000571510884486023,1.04070916858299e-06,-0.015339212514243,0.391820630829226,-0.00149791124836488,-5.86716633647864e-05,0.252403175736283,0.00844135717748292,-0.000362155856982208,5.91108095382604e-05,7.17244464086226e-06,9.48452002569976e-06,0.0774960917145453,-5.97807274190138e-06,1.28939302544073e-07,4.19724009311508e-07,4.60431421767934e-16,0.0361038639654864,2.72690911107949e-15,0.0270645429401079,0.000808825188968397,0.158793631800105,-0.0070489157022078,0.00245403642124703,-0.00057351092396699,0.275775408010394,0.0698414244092698,0.00383610379978041,1.13270753767937e-15,-3.18759602676753e-05,0.000245872987682445,-5.25248812634717e-05,-7.74850800944147e-15,-0.192721209284939,0.00145516208889379,0.000113058118881967,-5.42407584215093e-05,0.000532196158517474,3.02962872674262e-14,9.30598918989397e-07,-0.000154365356632134,0.00246292762877951,0.309259075888084,-1.27380911379601e-05,-0.000308802377907318,-9.43113902212806e-08,2.25081649658957e-09,-0.000136541169281196,1.58700567766106e-07,-1.26702439841418e-15,-1.1824260151733e-15,-9.33256372669529e-16,1.04443349290567e-15,4.10379165418084e-15,-7.65506268261551e-07,1.59982553511017e-07,6.46664016016007e-17,-4.7433644434212e-15,9.33997804138128e-07,-5.67458167917334e-15,-1.29941815207772e-14,-1.43352142098273e-06,5.44779154184666e-08,0.707106781186546,-2.85366869808596e-09,2.34330288758369e-07,7.01242367556509e-15,-2.46199963682201e-15,-1.23653496572655e-06,-1.63295116647142e-07,-6.98025022307914e-15,-1.12422944239532e-07,1.26636095137937e-16,-2.26963705372159e-15,-1.95443655324771e-06,-1.19712297785083e-15,2.55592339616954e-07,-3.54224842512673e-16,3.0867087253845e-07,-6.26306822238781e-15,-2.30946419284061e-11,1.6790033072283e-14,-4.26756717048757e-13
"t223",0.0521968511855894,0.118200529205048,0.0634298289625543,0.014151120726031,0.0034490640481779,0.0330035013656292,0.0117148644844789,0.000535383701149938,0.0523068788696577,-0.0226078305419625,-4.09827176105369e-06,-1.20445179039187e-06,4.05284009392447e-08,-9.20318584869237e-06,-0.0022472792603054,2.77555756156289e-17,-0.000571510884486104,1.04070916953891e-06,-0.0153392125142423,0.391820630829226,-0.00149791124836445,-5.86716633645181e-05,0.252403175736283,0.00844135717748303,-0.00036215585698237,5.91108095384341e-05,7.17244464105812e-06,9.48452002623129e-06,0.0774960917145452,-5.97807274153981e-06,1.28939301683718e-07,4.19724011258198e-07,2.24509029034704e-16,0.0361038639654864,1.90118073620257e-15,0.0270645429401059,0.000808825188969839,0.158793631800106,-0.00704891570220694,0.00245403642124389,-0.000573510923966875,0.275775408010394,0.0698414244092677,0.00383610379977891,1.73736748152766e-15,-3.18759602677541e-05,0.000245872987683134,-5.25248812635709e-05,-8.17205666000919e-15,-0.192721209284936,0.00145516208889208,0.000113058118881446,-5.42407584259552e-05,0.000532196158516347,2.87280972451431e-14,9.30598918753196e-07,-0.000154365356632256,0.00246292762877508,0.309259075888079,-1.2738091140775e-05,-0.000308802377910155,-9.43113858130497e-08,2.25081331307205e-09,-0.000136541169283654,1.58700568775363e-07,2.0162729550828e-15,2.26920263662551e-15,1.2385118035876e-15,1.64811727115597e-15,-5.9383951876433e-16,-7.65506270416532e-07,1.59982556656952e-07,-2.50552984932353e-17,5.94958337264371e-15,9.33997783837381e-07,4.96407426375488e-15,1.15715013745084e-14,-1.43352144871331e-06,5.44778631964844e-08,-0.707106781186549,-2.8540587891873e-09,2.34330290041738e-07,-5.89060314199269e-15,1.30286981856659e-15,-1.23653496343546e-06,-1.63295112236622e-07,7.75143158666298e-15,-1.1242294782965e-07,-6.35384733360091e-16,2.05106596470962e-15,-1.9544365536936e-06,3.40655388880194e-15,2.55592347799326e-07,7.78719530579432e-16,3.08670873013487e-07,-4.977251448763e-15,-2.30936855764749e-11,1.70691169596825e-14,-4.27864751107183e-13
"t155",0.0521717551273177,0.118146040382483,0.0635235590115219,0.0141898193712032,0.00348758485137596,0.033619471420045,0.0125222429748143,0.000578737484422227,0.0624690881437716,-0.0294694736963839,-6.33142518433431e-06,-2.57888446109012e-06,8.63964880127706e-07,8.92661783461263e-05,0.00302502892011792,9.43689570931383e-16,2.1484930048686e-05,2.76977105153479e-08,-0.00141074989688888,0.0389242827818751,-0.000173070419040627,-1.19246213342513e-05,-0.0193167594588391,-4.95524670365434e-05,2.21967694586829e-06,-1.55690350437299e-06,-5.06400514114854e-07,-1.29216466441845e-06,-0.0152354339927917,2.09798386182681e-06,-5.61512978011754e-08,-1.91817388864551e-07,-2.00076126428804e-15,-0.021925549581736,-2.02983730495294e-15,-0.0497486064031759,-0.00187641816756698,-0.4241762914557,0.0228598360462957,0.00349986805832531,-3.02618595235664e-05,-0.138358889808608,0.837886935603363,-0.229890460350947,3.51208003175401e-15,0.000221444369606034,-0.0366408229902623,-0.000304236663079517,7.75860960966782e-15,-0.0150872983006929,-9.69266933313197e-05,-0.0376038931057441,-0.000990834451413356,0.0191519264292121,-2.59367261774654e-15,1.6444812172105e-06,-0.000117126798460871,0.00240725754825436,0.00622944923473764,1.15602996761203e-05,0.00188238392958568,1.47491159533585e-06,6.86939667298587e-08,-0.00373058331436648,1.30619711334036e-06,3.2586764799062e-16,1.41931865675431e-15,2.21635755654766e-17,-3.36650797878067e-16,-7.08702241831959e-15,-3.47556772290605e-06,7.02158714727685e-07,3.34387119512284e-16,1.99757838034367e-15,3.63028627221249e-06,8.25225383517793e-17,3.67099868226894e-16,-4.8555182671525e-06,1.79722935909464e-07,-9.15279618951364e-16,-9.04852872968502e-09,7.19363045813272e-07,5.49691049970013e-16,9.36553940201055e-16,-3.48277342112765e-06,-4.57055624037266e-07,-7.1523816406879e-16,-3.09564883956469e-07,-3.54459154817706e-16,-1.74324799598495e-16,-5.21414440199014e-06,4.2239552849586e-15,6.57750547233181e-07,-1.22569133755223e-15,7.13625035780135e-07,-5.46281880592062e-15,-5.18381267172763e-11,1.73694322611237e-14,-4.27492733221546e-13
"t162",0.0523687649244358,0.119500674415196,0.0648774203093212,0.0145440965848047,0.00362826404658678,0.03528552556456,0.01361387561557,0.000632936623164891,0.0710565899241849,-0.0343452468814978,-7.63846197611362e-06,-3.24757477905038e-06,1.17774351886299e-06,0.00012467266566686,0.00462213033052794,2.70616862252382e-16,0.000119461576994111,-1.09823047769163e-07,-0.000311700492016696,0.0151637933436814,-0.000117431273825111,-1.3013191747867e-05,-0.0405187222663855,-9.13375407388546e-06,4.15614557347882e-07,-5.19844477725377e-07,-2.37573118873336e-07,-7.22927422479983e-07,-0.00924761190133709,1.41926456373004e-06,-3.93484278507988e-08,-1.35439358211337e-07,-4.37948831871841e-16,-0.0161585079821901,-1.17118964862814e-15,-0.0427173813936564,-0.00166038512438854,-0.381890258046995,0.0175467352309514,0.00539469218647342,-0.000499942235970629,0.0854923703563113,0.00433914534402124,0.885894291868997,6.0365424161727e-15,0.000167563522974163,-0.115103833471984,-0.000192673310617334,-2.75810797945388e-15,-0.00983824322112184,-6.3271138523971e-05,-0.0652685890742204,-0.000636122638709112,0.02888465225609,1.69742811358918e-14,1.12228094428285e-06,-8.07459475735039e-05,0.00334448371074632,0.00429736556337703,8.04089960464721e-06,0.00260709565864547,1.04951276763952e-06,4.95007543099998e-08,-0.00507146274179126,9.53219256432204e-07,-8.21967325455809e-16,-5.79132173803066e-16,5.33902470510958e-16,1.0002847971627e-15,-3.69078523314499e-15,-2.6051308065711e-06,5.27343610376173e-07,-4.56478952660098e-16,-8.50166064360936e-16,2.74751451372688e-06,4.207624781644e-16,6.37359617711574e-16,-3.71179412055463e-06,1.37676131251236e-07,-1.05076557187961e-15,-6.95417669899857e-09,5.54380411508469e-07,-1.32626633124486e-15,-9.03827867985714e-16,-2.70495088157215e-06,-3.55189719156267e-07,3.72356537360661e-17,-2.40946749875156e-07,-5.37878189381841e-16,8.07504542741643e-16,-4.07095126892127e-06,2.14993742738312e-16,5.15414658490218e-07,1.59037132029145e-15,5.6574628348899e-07,-4.00510836954321e-15,-4.12251541984891e-11,1.74031486821173e-14,-4.26432582962377e-13
"t168",0.0527380280952133,0.122035615137971,0.0674051420961892,0.0152049528544891,0.00388961575480375,0.0383725556531013,0.015612735848061,0.000731963664041165,0.0865078361990966,-0.0430296311146723,-9.93189165077849e-06,-4.39872129156706e-06,1.69897847057783e-06,0.000182855628106398,0.00714615997036966,1.38777878078145e-17,0.000232973241947841,-2.3418294436957e-07,-0.000865279634710698,0.0453470705481221,-0.000420368831883266,-6.02641769389289e-05,-0.247119465145075,0.000171192167136812,-7.62231112940693e-06,3.76927537540699e-06,7.92991299015942e-07,1.36653145887479e-06,0.0124477792600915,-1.06722518909036e-06,2.33755857106206e-08,7.62018799427499e-08,-3.21639565162852e-16,0.00650501060151462,2.00914904940391e-15,0.00344163999145361,8.7897167865399e-05,0.0153237681603531,-0.0178271403124529,0.000231503030471902,-2.67210277693172e-05,0.00463102998926018,0.000204011631063781,0.0169317079035274,-6.50798250449386e-16,-3.92451045660103e-06,0.00736000053962051,2.49176626614051e-05,2.9984940309379e-15,0.00211135499070154,1.38893592796789e-05,0.942124920595891,-0.0016823797349156,0.0462452303866121,-1.3639619703055e-14,9.63252896335587e-07,-6.49929060596264e-05,0.00262756120671729,0.0033315044036903,6.00777044902971e-06,0.00189579143514118,6.91502962369622e-07,3.13169571085616e-08,-0.0491611842021875,4.97077631698817e-07,-7.77529345717418e-16,2.65771671956461e-15,1.80265609795641e-15,1.15123307707289e-15,-2.92752438996293e-15,-1.45912916995212e-06,2.95208690595207e-07,9.39602066453035e-16,6.05119671046144e-16,1.53672605574199e-06,3.57115697347318e-16,2.74285190380059e-16,-2.08075591568976e-06,7.72539372913997e-08,-2.74562301413818e-16,-3.90947786482308e-09,3.12251591055493e-07,6.5418939370229e-16,-4.9614167992665e-16,-1.53409989759588e-06,-2.015681861034e-07,1.5565027256906e-16,-1.36966074450749e-07,-2.71687130641255e-16,3.02393179483563e-17,-2.32242528493386e-06,1.15485518696517e-15,2.95399159395838e-07,6.63652003197641e-16,3.29958213937156e-07,-6.00415150502297e-15,-2.41437525379584e-11,1.72426814246242e-14,-4.26641521971403e-13
"t247",0.0529212615679492,0.123290459285538,0.068652819417632,0.0155308200939509,0.0040179788979524,0.0398854746227452,0.0165850224939121,0.000780078867758853,0.0939668986731569,-0.0472079949162402,-1.10308426015239e-05,-4.94800985353356e-06,1.94622416383237e-06,0.00021041424082975,0.0083364437709046,-5.48172618408671e-16,0.000285674821170303,-2.91648961717921e-07,-0.00111827701122414,0.059107166473035,-0.000557764563945533,-8.15732600470464e-05,-0.339876269690578,0.000250782229101206,-1.11696890028135e-05,5.65098544083853e-06,1.24030842989191e-06,2.26123642394541e-06,0.021633976677102,-2.09363618040743e-06,4.89494600283385e-08,1.62234245535919e-07,3.12077571192477e-16,0.0155415982835666,9.20541274829025e-16,0.0205364178430394,0.000734199030004497,0.162693985405928,0.537953880264807,-0.000561210679271751,4.76815294063468e-05,-0.00639052322609405,-0.000217249558206224,-0.0128107597618293,-1.03396270745744e-16,2.30230876175877e-06,-0.00369284878467994,-1.0481808183141e-05,1.16117510175818e-16,-0.000757970935811227,-4.94865412041439e-06,-0.132695268156254,0.000157364051513892,-0.00284800449300961,3.91059457736589e-16,3.36199002318812e-08,-3.49746377021899e-06,0.000162518780389195,0.000221617190473516,4.83785028189446e-07,0.000174394844902114,1.01900645826147e-07,5.87241357389342e-09,-0.0138270436106911,1.18141758167992e-07,1.39836911495238e-18,6.39626350214073e-16,-3.36382319154851e-16,-2.27730993205905e-16,1.12095508127162e-15,-4.80672971939806e-07,9.93711873406079e-08,9.66209520568924e-16,-6.80423734167425e-16,5.60613817539502e-07,-1.03934927718746e-15,4.95330373738088e-16,-8.35536483178401e-07,3.1612042449139e-08,-1.71195667235902e-15,-1.64618548444926e-09,1.34602603750992e-07,1.27378248550488e-15,-3.98258981209919e-16,-7.0442345029499e-07,-9.29845216858614e-08,3.19783101761036e-16,-6.39504376603216e-08,1.95565272836647e-15,-1.964435783175e-15,-1.11002366303058e-06,-0.707106781186547,1.4500883037247e-07,-1.25018685492973e-15,1.75362228682798e-07,-6.13747377365334e-15,-1.30847672581129e-11,1.79685527040623e-14,-4.27745116888584e-13
"t248",0.0529212615679492,0.123290459285538,0.0686528194176321,0.0155308200939509,0.00401797889795241,0.0398854746227451,0.0165850224939121,0.000780078867758791,0.0939668986731569,-0.0472079949162402,-1.10308426013886e-05,-4.94800985375171e-06,1.94622416377252e-06,0.0002104142408297,0.00833644377090434,-2.56739074444567e-16,0.000285674821170368,-2.91648960626563e-07,-0.00111827701122363,0.0591071664730347,-0.000557764563944953,-8.15732600469327e-05,-0.339876269690578,0.000250782229101007,-1.11696890037939e-05,5.65098544117804e-06,1.24030842984122e-06,2.26123642447309e-06,0.0216339766771015,-2.0936361803946e-06,4.89494598362102e-08,1.62234244599872e-07,3.74527616328952e-16,0.0155415982835669,1.50340836387034e-15,0.0205364178430404,0.000734199030004466,0.16269398540593,0.537953880264807,-0.000561210679272186,4.76815294063872e-05,-0.00639052322609391,-0.000217249558210264,-0.0128107597618279,1.8057948025519e-16,2.30230876286213e-06,-0.00369284878468097,-1.04818081839088e-05,-4.20065414893514e-16,-0.000757970935812781,-4.94865411975777e-06,-0.132695268156254,0.000157364051513045,-0.00284800449300963,3.33315047299325e-15,3.36199000720143e-08,-3.49746377094849e-06,0.000162518780385126,0.000221617190472196,4.83785026544063e-07,0.000174394844901933,1.01900646951707e-07,5.87241398217107e-09,-0.0138270436106915,1.18141758139372e-07,-2.43012097346762e-16,2.0236424934656e-16,-6.37846744785359e-16,-2.65894950001726e-16,-7.17851803263728e-16,-4.80672970726012e-07,9.93711875851895e-08,-1.17950437625535e-15,-1.37666902409071e-17,5.60613816241294e-07,1.17054619878806e-15,-4.90728713658474e-16,-8.35536487773968e-07,3.1612044530064e-08,2.85383755707974e-15,-1.64618583340333e-09,1.34602605026779e-07,-9.47965251912474e-16,-2.32660234211478e-17,-7.04423455950353e-07,-9.298452081911e-08,-9.93001876446029e-16,-6.39504360161457e-08,-2.60438176587266e-15,3.01442182957047e-15,-1.11002362572399e-06,0.707106781186548,1.45008853765853e-07,1.72937362429902e-15,1.75362233349089e-07,-5.09327688981062e-15,-1.30814800801104e-11,1.69911659327209e-14,-4.26528359044934e-13
"t190",0.0528809413964868,0.123014276402581,0.0683781377257999,0.0154590713851223,0.00398970331643977,0.0395521193689498,0.0163705499385293,0.000769463360945573,0.0923192678309942,-0.0462844003839405,-1.07877069640936e-05,-4.82636008410966e-06,1.89138108549302e-06,0.000204298777796318,0.00807196737221796,-1.80411241501588e-16,0.000273901576947403,-2.78787315417765e-07,-0.00106137872687507,0.0560089109613633,-0.000526749254763816,-7.67486159616408e-05,-0.318822757130933,0.00023252442569272,-1.03558802984996e-05,5.21750888688954e-06,1.1364275453483e-06,2.05105851043052e-06,0.0194529215440073,-1.84288651743324e-06,4.25976925583924e-08,1.40774181070105e-07,-5.04732488604458e-16,0.0132162469673825,1.59307545015837e-15,0.0147479512138602,0.000493552343988588,0.10433109936861,-0.328363898123643,-0.000967798866210843,5.83933484191537e-05,-0.00704124219336872,-0.000222929373735986,-0.01224737361112,-1.04257689199456e-17,2.10462709590161e-06,-0.00328942339115251,-9.07513558061817e-06,-6.70852541097187e-16,-0.000639966553991078,-4.17324525509369e-06,-0.0971675875350772,0.000109021439366427,-0.00187957483431627,4.09637675398909e-15,1.69397097571405e-08,-1.59169621275207e-06,7.00930313334459e-05,9.22944426322585e-05,1.77456382998517e-07,5.56657523597794e-05,-8.03150775582704e-09,-5.35058163192841e-09,0.848914206545842,1.33949935002891e-06,2.77092972763901e-15,-1.2449144458722e-14,-2.92117668463519e-15,2.18986716998755e-15,-9.32817403680404e-15,-9.08285882751361e-07,1.81024429025071e-07,9.20036177918644e-16,-1.52687663662304e-15,9.11902450589975e-07,2.17834325615679e-15,-1.46212455921415e-15,-1.2280626577015e-06,4.56886965076715e-08,-1.56645883201885e-15,-2.32293836462193e-09,1.86484875469015e-07,3.78204839046611e-16,-8.49484581498424e-16,-9.33485567858035e-07,-1.22851094678124e-07,-7.11478614228432e-16,-8.3843273324158e-08,-2.4051019802594e-16,4.72371747800786e-17,-1.43457903057831e-06,1.11085329044571e-15,1.84521188232987e-07,3.77695883776185e-16,2.1407398196289e-07,-5.82069265064373e-15,-1.58184331221708e-11,1.73951913632757e-14,-4.26859199113669e-13
"t210",0.0529187660085644,0.123272655086273,0.0686342647150678,0.0155258953281565,0.00401591698860627,0.0398603798266187,0.0165671048060671,0.00077917890453134,0.0938153000480089,-0.0471195212717053,-1.10064203386291e-05,-4.93520358093093e-06,1.94007288221557e-06,0.000209717866995129,0.0083049592415256,4.44089209850063e-16,0.000284051814955301,-2.8980086272545e-07,-0.00110931098107699,0.0586090788520248,-0.000552572367081027,-8.07297251531851e-05,-0.336070628339897,0.000247056891970648,-1.1003541470271e-05,5.5588635968282e-06,1.21663064476623e-06,2.20906649575686e-06,0.0210545189474072,-2.01645666005195e-06,4.68542414268959e-08,1.55036771203066e-07,2.07430280919046e-16,0.0146742807257125,1.18815182894089e-15,0.0170078138767083,0.000573180156681339,0.121618293133213,-0.394213743929805,-0.00118678738823179,7.31014176941873e-05,-0.00897282827487358,-0.000290105599728866,-0.0164787485167847,-2.51964130758369e-16,2.91620568974926e-06,-0.00464979869876524,-1.31418343016628e-05,-4.9395861030766e-16,-0.000948355702107702,-6.19124809430486e-06,-0.16714791605898,0.000199577988114572,-0.00363613266879381,3.87437818356227e-15,4.45904734890958e-08,-4.69925028988473e-06,0.000219766670572184,0.000300887014843002,6.65751064110667e-07,0.000243127105556496,1.58008024319482e-07,1.10932419040244e-08,-0.371791964294754,-3.76086277258812e-07,-2.00952066636514e-16,5.37542885416289e-15,2.56659026575418e-15,-3.33724785863191e-15,3.41075506355081e-15,-3.4189770210358e-07,7.3376930460962e-08,-2.83470149393584e-15,0.707106781186548,4.5709180867644e-07,-8.67295500575546e-15,3.9072183925148e-15,-7.31410991423055e-07,2.79613557547097e-08,5.84876861154529e-15,-1.47682486140409e-09,1.22009154350509e-07,1.81609528148066e-15,-2.3919673351135e-15,-6.5354326342003e-07,-8.63960749429731e-08,1.65275308610458e-16,-5.96417241917855e-08,-4.61021314175713e-16,3.65601941804588e-16,-1.04225814006513e-06,3.03363596315389e-16,1.37113697813224e-07,2.03968778723412e-17,1.68679229144041e-07,-5.86005841887036e-15,-1.26343867699574e-11,1.72587484125488e-14,-4.27174908110415e-13
"t211",0.0529187660085644,0.123272655086273,0.0686342647150678,0.0155258953281565,0.00401591698860627,0.0398603798266187,0.016567104806067,0.000779178904531393,0.0938153000480091,-0.0471195212717053,-1.10064203385147e-05,-4.93520358116247e-06,1.94007288218432e-06,0.000209717866995054,0.00830495924152567,7.21644966006352e-16,0.000284051814955086,-2.89800862618343e-07,-0.00110931098107709,0.0586090788520247,-0.000552572367081471,-8.07297251529878e-05,-0.336070628339896,0.000247056891970546,-1.10035414710553e-05,5.55886359654996e-06,1.21663064470752e-06,2.20906649685067e-06,0.0210545189474078,-2.01645666000696e-06,4.68542411644722e-08,1.55036772230477e-07,3.39579333213677e-17,0.0146742807257118,1.5212187363233e-15,0.0170078138767084,0.000573180156682054,0.121618293133211,-0.394213743929805,-0.00118678738823058,7.3101417693626e-05,-0.00897282827487225,-0.000290105599726045,-0.0164787485167862,8.61082030104254e-17,2.91620568961536e-06,-0.00464979869876548,-1.3141834301599e-05,-2.74163989949342e-16,-0.000948355702108074,-6.19124809612125e-06,-0.167147916058979,0.000199577988113953,-0.00363613266879287,-2.48164863241675e-15,4.45904739601243e-08,-4.69925028871056e-06,0.000219766670569083,0.000300887014845476,6.65751066162989e-07,0.000243127105557093,1.58008023662353e-07,1.1093241055063e-08,-0.371791964294757,-3.76086278321489e-07,-3.62260228229806e-15,5.04814818293522e-15,-1.7876525149554e-16,2.11996373356089e-16,2.14093747913585e-15,-3.41897703164635e-07,7.33769191071083e-08,1.40262115709841e-15,-0.707106781186547,4.57092213885994e-07,6.94927844793324e-15,-2.93373179968998e-15,-7.31410993678468e-07,2.79613558831978e-08,-4.96896699142531e-15,-1.47682218901356e-09,1.22009155505677e-07,-1.26902775284537e-15,1.21596843811516e-15,-6.53543262762239e-07,-8.63960738563095e-08,8.62377421691305e-17,-5.96417232926724e-08,-5.29151651917486e-16,4.10578168295563e-16,-1.04225813959192e-06,1.12215309650126e-15,1.37113697727489e-07,-1.23776063998222e-16,1.68679227947317e-07,-5.08729580378026e-15,-1.26347734348842e-11,1.73874297453628e-14,-4.27144558644915e-13
"t170",0.0529292692195863,0.123382418130084,0.0687914354559213,0.0155715892136748,0.00404158012332239,0.0402167170184573,0.0169355144777827,0.000798581270298285,0.0980295565959373,-0.0498998222774149,-1.18945974686659e-05,-5.47607614585072e-06,2.26306126145218e-06,0.000248383728936378,0.010390939945237,-4.92661467177413e-16,0.000540098126487854,-7.5129294847661e-07,0.00692422628193239,-0.165308319061879,0.000607016662360562,4.11828141810733e-05,0.0955461405389895,1.43065989815026e-05,-6.46428393496688e-07,5.94265713208989e-07,1.93801754505112e-07,4.20945758003948e-07,0.00420994140440023,-3.87522173952828e-07,8.41394349627847e-09,2.72724552921334e-08,-4.53028400112349e-16,0.00216469902523646,-3.83527165593276e-16,-0.00109810706694401,-6.84495267417227e-05,-0.0185278218962768,0.00157988847369024,0.000558186354390844,-5.64413184774319e-05,0.0105504558614402,-0.00424941107528719,0.0259974953472093,5.93167848598375e-17,-1.6241606841109e-05,0.36976189541863,-5.37525779024665e-05,-1.58393850898832e-15,-0.00154951819544113,-9.73517245685965e-06,0.0221688126197494,0.000825846680452907,-0.841765418634956,-6.61250329022888e-14,1.06209445975105e-06,-8.36731395637706e-05,0.243013879879495,0.00133469393024282,5.07512774746093e-06,0.101693365327522,5.55985513756995e-07,2.51140390190329e-08,-0.00236393134389716,4.62335859342255e-07,1.15861268241128e-16,5.98825349885017e-16,-1.9515908787448e-17,-2.14692657287141e-15,-2.26312869064761e-15,-1.22643917008613e-06,2.48066475617839e-07,4.53659047345689e-17,-1.5530924512725e-15,1.29118955129372e-06,4.26767574725896e-16,-5.24948623997749e-16,-1.75032958257574e-06,6.50091336268516e-08,-3.15121123786461e-17,-3.29184425116622e-09,2.63069971351065e-07,1.77355739454855e-16,-7.66309197676693e-17,-1.29480309175678e-06,-1.70151753581235e-07,8.00938041279758e-17,-1.1566448017896e-07,-1.7057994518394e-16,5.38616695544457e-16,-1.96282926947334e-06,1.33280999791064e-15,2.49911406114439e-07,1.20391978041838e-16,2.8012998304603e-07,-5.61091277019559e-15,-2.0502366200642e-11,1.75037354205803e-14,-4.2704286671706e-13
"t178",0.0530394759768973,0.124143965057787,0.0695572868860605,0.0157724504751809,0.00412208324948148,0.0411752588133648,0.0175766784551109,0.000830521694904711,0.103198983395018,-0.0528714098365114,-1.27045224574098e-05,-5.89843209111581e-06,2.46756391102663e-06,0.000271660498587948,0.0114716112986061,-5.41233724504764e-16,0.000617618180847121,-8.68884867613325e-07,0.00823267078241565,-0.197828727928419,0.000736510549207155,5.07614961055442e-05,0.119288258633009,1.88311272089545e-05,-8.51104664475168e-07,7.98251745484061e-07,2.70550226097158e-07,6.20372591422645e-07,0.00652418779220045,-6.89507992184266e-07,1.62892174761008e-08,5.40126349824382e-08,1.03212948689893e-16,0.00511154450715077,-2.53361134906101e-16,0.00488089019405666,0.000154893085143619,0.0317869520070039,-0.000440554908170579,1.50132655279043e-05,-1.11535068992492e-05,0.00317258077735778,-0.00168604842205628,0.0136972103757545,7.52027686909749e-17,-1.04733614615645e-05,0.274201474723777,-4.84254329991925e-05,3.22261868376791e-15,-0.00178199813908434,-1.13579028132883e-05,-0.00726240757796902,-5.52608989686192e-05,-0.0190366905321678,9.09023025831489e-14,-5.30848247909732e-08,4.064847708679e-05,-0.564658825176916,0.00451620620871161,3.79349523598762e-07,-0.708437566755321,3.88700288060857e-07,1.5980957704285e-08,-0.00147908646946472,2.89732787961628e-07,-3.31391844179672e-15,-1.5617347136327e-15,-3.18252036905676e-16,-7.79714251258578e-16,2.38404562807074e-15,-7.99638927023822e-07,1.62445792170345e-07,8.83953298585751e-16,8.48490382947444e-16,8.60689286495709e-07,-7.85749966280556e-17,4.49676154782796e-17,-1.19526249023179e-06,4.46203945532433e-08,3.50899643354072e-15,-2.27748785562835e-09,1.83234118091823e-07,-5.91935812935622e-17,-4.70332765371671e-16,-9.19108349170061e-07,-1.20954736495085e-07,-6.83536384527437e-16,-8.25328836937344e-08,1.53574296913e-16,8.467394432586e-17,-1.41105697717449e-06,-2.25526607167148e-16,1.81229441942979e-07,5.08993553391072e-16,2.08741436675393e-07,-5.86062496555095e-15,-1.53767108050022e-11,1.73324932063672e-14,-4.26836761464365e-13
"t192",0.0530940822523888,0.12452058332432,0.0699351703001144,0.0158714790081759,0.00416164804053628,0.0416455397245869,0.0178893618505854,0.00084608452336379,0.105704695885291,-0.0543079039388366,-1.3094755112345e-05,-6.10123628446225e-06,2.56528715177445e-06,0.000282770225848921,0.011985551121504,-4.16333634234434e-17,0.000654012365343998,-9.2387469174391e-07,0.00883888657758547,-0.212864028189681,0.000796118547510669,5.51493370212748e-05,0.130122412272517,2.08652813774016e-05,-9.43116828538618e-07,8.89472695812917e-07,3.04544221270805e-07,7.07616087075198e-07,0.00752605019191192,-8.17063905915779e-07,1.9574232784605e-08,6.5132233590105e-08,-9.03664533945282e-16,0.00631182030731668,6.49280360734855e-17,0.00704543426228065,0.000233609213763695,0.0492528852597409,-0.00104661138619959,-0.000125290602305598,-1.69693710465e-06,0.00201957194072639,-0.00148980770521799,0.0152121881706114,-7.00543198628098e-16,-1.32717773472815e-05,0.375975744187073,-7.28332879217627e-05,-7.92596711997686e-16,-0.00293202000924471,-1.87720496602888e-05,-0.028440431004355,-0.000562774603748635,0.374319816067617,-6.11287831645931e-14,4.83033643573394e-08,-2.60346202447145e-05,0.318582120530462,-0.00242350898090646,-7.76994914123975e-07,0.035625479127849,5.87020005815865e-08,4.67468471065547e-09,-0.000620072887522468,1.28032840837126e-07,0.707106781186547,6.46659289407035e-14,5.33652504736996e-15,-2.25258713072581e-15,3.3891722460188e-15,-4.72939433082338e-07,9.76840585110381e-08,-1.22544048899848e-15,-2.4205823203764e-15,5.48631430119712e-07,-2.91157196885893e-16,-3.81028877548477e-16,-8.11465945747703e-07,3.06473214941976e-08,5.91865503272193e-16,-1.59145708912444e-09,1.29811697483807e-07,-3.98716107903926e-16,-2.34000336758308e-15,-6.74613389506484e-07,-8.90019874649331e-08,9.02551562564425e-17,-6.11253956828247e-08,-4.43432275971286e-16,2.79666330053783e-16,-1.05805322451295e-06,2.0338236159628e-15,1.37775624229368e-07,-5.72505305615767e-17,1.65000044642831e-07,-5.89620843325772e-15,-1.22647356637383e-11,1.75967667617106e-14,-4.26749555538059e-13
"t188",0.0530940822523887,0.12452058332432,0.0699351703001145,0.015871479008176,0.00416164804053632,0.0416455397245869,0.0178893618505854,0.000846084523363796,0.105704695885291,-0.0543079039388365,-1.30947551122965e-05,-6.10123628434601e-06,2.56528715196439e-06,0.000282770225848958,0.011985551121504,-2.98372437868011e-16,0.000654012365344054,-9.23874691617736e-07,0.00883888657758537,-0.212864028189681,0.000796118547510717,5.51493370212646e-05,0.130122412272517,2.08652813773124e-05,-9.43116828557236e-07,8.89472695868122e-07,3.0454422123754e-07,7.07616087381284e-07,0.00752605019191171,-8.17063906080227e-07,1.95742327858543e-08,6.51322336244247e-08,-1.60102337128627e-15,0.00631182030731651,-8.07887347385822e-17,0.00704543426228057,0.000233609213763511,0.0492528852597392,-0.00104661138619892,-0.000125290602304316,-1.69693710449997e-06,0.00201957194072678,-0.00148980770521821,0.0152121881706097,-5.60064046991022e-17,-1.32717773491612e-05,0.375975744187072,-7.28332879211061e-05,-2.19376766099422e-15,-0.00293202000924381,-1.87720496610116e-05,-0.0284404310043554,-0.000562774603750645,0.374319816067617,-5.5078067680386e-14,4.83033638711498e-08,-2.60346202461771e-05,0.318582120530462,-0.00242350898090254,-7.76994909207019e-07,0.0356254791278542,5.87019993854966e-08,4.67468556474755e-09,-0.000620072887516987,1.28032981628577e-07,-0.707106781186548,-6.482407613054e-14,-5.20842189691701e-15,3.79118944181209e-15,-3.77176626281348e-15,-4.72939429473342e-07,9.76840598681118e-08,1.04428696016311e-15,9.51720147359311e-16,5.48631430921735e-07,8.54826343579935e-16,7.19993551558134e-16,-8.11465946782127e-07,3.06473214782342e-08,-2.8567641603504e-15,-1.59145650481854e-09,1.29811699530469e-07,4.61702458093107e-16,7.55367490989523e-16,-6.74613388418065e-07,-8.90019872088116e-08,3.96583292118748e-16,-6.11253961719403e-08,-4.95845831967829e-16,9.0280627132249e-16,-1.05805322414852e-06,1.6313690750321e-15,1.37775624218887e-07,1.20894322603347e-16,1.65000044073647e-07,-6.33455281280015e-15,-1.2264826616795e-11,1.74267152099608e-14,-4.27717557524267e-13
"t185",0.0531479037251155,0.124893689035878,0.070311816017825,0.0159703947858638,0.0042015001537851,0.0421214103237806,0.0182108286358827,0.000862122205333327,0.10832238682946,-0.0558192441666511,-1.35088795850031e-05,-6.31837423725578e-06,2.67123623823552e-06,0.000294852312628532,0.0125496800958022,7.63278329429795e-16,0.000695300773337505,-9.8688726868545e-07,0.00955001386703717,-0.230594924690739,0.000867187417988024,6.04445482593047e-05,0.143322311237121,2.34360634202154e-05,-1.05942408813418e-06,1.00626721088374e-06,3.49089929460302e-07,8.25387559703163e-07,0.00891252514160708,-1.00402809544985e-06,2.45298612924308e-08,8.20258819602135e-08,-2.36940494284539e-16,0.00822273287621417,1.37272574965801e-15,0.0114754365218147,0.000403632388268627,0.0881288657567989,-0.00281847636786253,-0.000653964196276459,4.77582081517949e-05,-0.00699722171736783,0.00216522788236245,-0.00886681071122763,-7.73736883058112e-16,3.79317981218376e-06,-0.0632622813719098,5.27369303837353e-06,7.22961848499284e-16,2.91887496209292e-05,1.39399658671978e-07,-0.0033187840618445,-5.99760012719473e-05,0.0299854042224572,9.84519847056728e-14,-1.89796875916246e-08,2.20499955998369e-05,-0.396006464407288,0.00390098463004065,4.18519440664547e-06,0.453325284943048,7.69281345353131e-08,4.79693625302601e-09,-0.000561907475875947,1.14232503124836e-07,5.78522520525726e-14,-0.707106781186547,-2.21827163743343e-16,5.36674881017358e-15,-9.06693507262754e-15,-3.97269480214398e-07,8.19270480211459e-08,2.38153520551626e-16,1.29615212341389e-15,4.58658137076892e-07,2.61164922240812e-16,-5.80030836693233e-16,-6.79115031587694e-07,2.56688536708399e-08,-1.26754478225803e-15,-1.3349738625481e-09,1.0905982128421e-07,-1.4573955442881e-16,-3.44014807740369e-16,-5.69850826772474e-07,-7.52156664221318e-08,-4.32698582723894e-16,-5.17222010506232e-08,-6.51307864820866e-16,-2.14400797312237e-16,-8.97630109084661e-07,-5.88239416875822e-16,1.1726665133511e-07,1.91098025870293e-16,1.42031341285659e-07,-5.24871466428163e-15,-1.05803698924505e-11,1.73688921802755e-14,-4.27341953507216e-13
"t186",0.0531479037251155,0.124893689035878,0.070311816017825,0.0159703947858638,0.0042015001537852,0.0421214103237806,0.0182108286358828,0.000862122205333011,0.10832238682946,-0.0558192441666512,-1.35088795851696e-05,-6.31837423730522e-06,2.67123623793541e-06,0.000294852312628658,0.0125496800958022,6.24500451351651e-16,0.000695300773337391,-9.86887268478314e-07,0.0095500138670372,-0.230594924690738,0.000867187417988087,6.04445482598942e-05,0.143322311237121,2.34360634201343e-05,-1.05942408865644e-06,1.00626721053513e-06,3.49089929443416e-07,8.25387560278441e-07,0.00891252514160661,-1.00402809564379e-06,2.45298605143421e-08,8.20258805448451e-08,5.47154516857867e-16,0.00822273287621382,6.85775253788768e-16,0.0114754365218153,0.000403632388267712,0.0881288657567985,-0.00281847636786337,-0.000653964196276345,4.77582081513596e-05,-0.00699722171736633,0.00216522788236112,-0.00886681071122654,-3.32222888908005e-16,3.79317981277241e-06,-0.0632622813719089,5.27369304085851e-06,4.86858596631719e-16,2.9188749620456e-05,1.39399659719019e-07,-0.003318784061848,-5.99760012727088e-05,0.0299854042224576,1.01546731386815e-13,-1.89796903716073e-08,2.2049995602283e-05,-0.396006464407289,0.00390098463003686,4.18519440097173e-06,0.453325284943045,7.69281322207469e-08,4.79693633110073e-09,-0.000561907475855491,1.14232420829045e-07,-5.51407027507497e-14,0.707106781186549,4.48519598529e-17,-8.07041924426247e-15,-2.89131949815011e-15,-3.97269479424161e-07,8.19270484991566e-08,-1.19549498164868e-15,5.50221045525631e-16,4.58658132929184e-07,1.11076261978652e-15,8.4403826047429e-17,-6.79115029644561e-07,2.56688528667581e-08,2.00067457643965e-15,-1.33497558625416e-09,1.09059821594363e-07,1.05564923785212e-15,-6.37743946840081e-17,-5.69850825704927e-07,-7.52156653062775e-08,4.47031484794235e-16,-5.17222000244885e-08,-5.88838239227528e-16,1.08754023914997e-15,-8.97630110903898e-07,2.23839026608286e-17,1.17266651983462e-07,8.39366816916457e-17,1.42031342539385e-07,-5.87787108524053e-15,-1.05799741240594e-11,1.71666517992155e-14,-4.2707958320175e-13
"t236",0.0532428094342784,0.125550449714609,0.070973427434176,0.0161440220540873,0.00427125355752795,0.0429530367653252,0.0187696193809455,0.000889977773753927,0.112848319043096,-0.0584261958914623,-1.42211807612971e-05,-6.69076869615868e-06,2.8521987901614e-06,0.000315468023798367,0.0135093701317957,-5.82867087928207e-16,0.000764803281218803,-1.0926244259579e-06,0.0107346098875801,-0.260082710636183,0.000984982192761886,6.91887906058718e-05,0.16505688062042,2.7622877344386e-05,-1.2488334759463e-06,1.19575299154828e-06,4.20873374419637e-07,1.01356263251964e-06,0.0111123854517819,-1.29604253544817e-06,3.22108195389947e-08,1.08161430307197e-07,7.67302697804511e-16,0.0111435067730944,1.41823538149014e-15,0.0178613733353538,0.000645982940454582,0.143206891851099,-0.00520818217509939,-0.00134096469826077,0.000109645433791138,-0.0179067234369396,0.00640814208974924,-0.0349328930062903,1.33983535763835e-16,2.10857329490752e-05,-0.487664140311411,7.62838420588693e-05,4.615159970509e-16,0.00255974917349905,1.62499794919234e-05,0.00925563426346264,0.000117477729709583,-0.0465697947007829,-5.42174119943723e-14,1.40187296658073e-08,-1.37770642179834e-05,0.229531464052711,-0.0021617887123794,-2.01380800788869e-06,-0.19261525409889,-1.46170519233999e-08,-2.44756433628786e-10,-5.10341808886315e-05,1.35104073701779e-08,-2.33376354806753e-15,2.12745080531773e-16,-1.83631099936464e-16,1.39291888882591e-15,4.78851397592672e-15,-1.25952402669378e-07,2.71451625587603e-08,5.81784718409516e-16,-2.42542074543429e-15,1.76447831941644e-07,6.0268143538782e-16,3.50873322951293e-15,-3.04501032890838e-07,1.18297527814644e-08,-1.9304272767455e-15,-6.40489346873944e-10,5.40118734360449e-08,-5.42195813521384e-16,-0.707106781186548,-3.05857557558843e-07,-4.05982660286319e-08,6.32596006942481e-15,-2.83254239680554e-08,4.47492420942272e-15,7.7767589470989e-15,-5.05272303666262e-07,1.19310788843471e-15,6.80423275332192e-08,-1.11354759742376e-15,8.96729248480876e-08,-4.74498813566373e-15,-6.79398047762815e-12,1.80592939797694e-14,-4.27327981360738e-13
"t237",0.0532428094342784,0.125550449714609,0.070973427434176,0.0161440220540873,0.00427125355752795,0.0429530367653252,0.0187696193809455,0.00088997777375425,0.112848319043096,-0.0584261958914623,-1.42211807613769e-05,-6.69076869627621e-06,2.85219879028457e-06,0.000315468023798527,0.0135093701317956,-8.32667268468867e-16,0.000764803281218542,-1.09262442532869e-06,0.0107346098875801,-0.260082710636182,0.000984982192762106,6.91887906061454e-05,0.16505688062042,2.76228773444068e-05,-1.24883347665261e-06,1.19575299187673e-06,4.20873374369013e-07,1.01356263266659e-06,0.0111123854517818,-1.29604253564424e-06,3.22108204351081e-08,1.08161430572213e-07,5.52196986782592e-16,0.0111435067730943,1.32109086619535e-15,0.0178613733353538,0.000645982940454485,0.143206891851099,-0.0052081821751,-0.00134096469825972,0.00010964543379191,-0.0179067234369395,0.0064081420897471,-0.0349328930062895,2.19788315542636e-16,2.10857329492985e-05,-0.48766414031141,7.62838420585785e-05,5.99760276054973e-17,0.00255974917349946,1.62499794919774e-05,0.00925563426346273,0.000117477729709161,-0.0465697947007821,-5.4467212174913e-14,1.40187294996259e-08,-1.37770642171995e-05,0.229531464052711,-0.00216178871237936,-2.01380800817998e-06,-0.19261525409889,-1.46170517167799e-08,-2.44756857233734e-10,-5.10341808882006e-05,1.3510406369466e-08,1.05241826042911e-15,1.6070081015338e-16,-2.67236901748524e-16,2.02898605057331e-16,-8.38928980142109e-16,-1.25952401730565e-07,2.71451617089841e-08,-6.78911360612035e-16,1.14810961433376e-15,1.76447833659163e-07,-9.59281121073665e-16,-3.05893137288746e-15,-3.04501031589057e-07,1.18297516068492e-08,1.10186825484471e-15,-6.40487001567309e-10,5.40118726633775e-08,1.31532294815123e-15,0.707106781186547,-3.05857683715278e-07,-4.05982783360456e-08,-7.04442393949557e-15,-2.83254305715771e-08,-4.99247646654706e-15,-7.24609690129318e-15,-5.05272309038539e-07,9.22484112263352e-16,6.80423415644796e-08,1.69986616293486e-15,8.96729253427626e-08,-5.93651019460799e-15,-6.7933822560078e-12,1.69733126632299e-14,-4.26677988311843e-13
"t160",0.0523995861222587,0.119710295777765,0.0650841732136103,0.0145979465408438,0.00364925476683487,0.0355315821366467,0.0137693865097646,0.000640616210766515,0.0722358921992258,-0.035004165441227,-7.81173383245645e-06,-3.33455285857409e-06,1.21756465111828e-06,0.000129141520847443,0.00482082259510453,2.84494650060196e-16,0.000131653013457111,-1.27533231295646e-07,-0.000127061431202123,0.0105770070834852,-9.85875790670698e-05,-1.14445539635789e-05,-0.0357549206436339,-1.13573099863345e-05,5.14680124791345e-07,-5.73318521129284e-07,-2.52705110630219e-07,-7.63941543844816e-07,-0.00978644112527806,1.51643969743799e-06,-4.22985437030373e-08,-1.45821433059052e-07,1.34419121187665e-15,-0.0175870016982552,-4.78802913653057e-15,-0.0498297737347304,-0.001970409285927,-0.457732294058157,0.0238708622252586,0.00813284564368625,-0.000934011332039743,0.236035012497289,-0.325846543271158,-0.279735476645887,-3.39208900076906e-15,3.81324386101789e-05,-0.0588226920539394,-8.9540193630644e-05,-0.707106781186549,-0.00524763236632694,-3.39173338043726e-05,-0.0425239330051699,-0.000469306220544948,0.0249910287833029,2.65243780936347e-15,8.77096843444454e-07,-6.37491700886891e-05,0.0029972576192577,0.00341005957077545,6.42816258653786e-06,0.00236003922064467,8.63763199617734e-07,4.13767414750431e-08,-0.00411970681464327,8.1367455122451e-07,1.47511483890989e-15,-2.74400132930824e-16,-7.73973896969309e-16,6.12810940922983e-17,1.81782659816466e-15,-2.28376101864601e-06,4.63244698315614e-07,-4.55836489273058e-16,-1.03165718975956e-16,2.43263318465262e-06,-2.1919256967618e-16,-2.38401008990632e-16,-3.31864667142554e-06,1.23335596242222e-07,7.29386874996679e-16,-6.24858360955727e-09,4.99372985977662e-07,6.5916837399177e-16,-8.06467974450553e-16,-2.45320264433116e-06,-3.22294945619995e-07,2.019796206243e-16,-2.18921045503187e-07,8.61863730897731e-17,-4.39148996651778e-17,-3.70834564663013e-06,2.28129323138667e-16,4.70898456425854e-07,1.93373050861901e-16,5.21533755510285e-07,-5.6249247873515e-15,-3.80985781231425e-11,1.74446503384449e-14,-4.27165116075862e-13
"t164",0.0523995861222587,0.119710295777765,0.0650841732136103,0.0145979465408438,0.00364925476683483,0.0355315821366466,0.0137693865097646,0.000640616210766488,0.0722358921992259,-0.035004165441227,-7.81173383255012e-06,-3.33455285853245e-06,1.21756465129522e-06,0.000129141520847532,0.00482082259510445,2.42861286636753e-16,0.000131653013457128,-1.27533231642591e-07,-0.000127061431202231,0.0105770070834853,-9.85875790667454e-05,-1.14445539634961e-05,-0.0357549206436337,-1.13573099866589e-05,5.14680124534606e-07,-5.73318521298169e-07,-2.52705110884957e-07,-7.63941543719916e-07,-0.00978644112527843,1.51643969779241e-06,-4.22985426954883e-08,-1.45821433002023e-07,8.4806029774836e-16,-0.0175870016982549,-4.86782641583946e-15,-0.0498297737347297,-0.00197040928592621,-0.457732294058156,0.0238708622252583,0.00813284564368392,-0.000934011332040405,0.236035012497289,-0.32584654327117,-0.279735476645882,-5.41184866843502e-15,3.8132438608202e-05,-0.0588226920539385,-8.9540193703645e-05,0.707106781186546,-0.00524763236638762,-3.39173338109996e-05,-0.0425239330051743,-0.000469306220548038,0.0249910287833024,-3.4676666138827e-15,8.77096843886287e-07,-6.37491700862808e-05,0.00299725761926276,0.00341005957077707,6.42816258723629e-06,0.00236003922064759,8.63763200367762e-07,4.1376740612449e-08,-0.00411970681464265,8.1367455198768e-07,8.21318903341964e-17,-3.43789063882675e-16,4.92376700024915e-16,-9.13745740162326e-17,3.43458887777506e-15,-2.28376101853298e-06,4.63244698844896e-07,-7.54088205396765e-17,2.29901188381127e-16,2.43263318348487e-06,4.00767243024006e-16,7.49907751215816e-17,-3.31864667087425e-06,1.23335596239866e-07,4.17136648966996e-16,-6.24858380854143e-09,4.99372985432893e-07,5.21678143185843e-16,-4.80339965666908e-16,-2.45320264368711e-06,-3.22294945796267e-07,7.3092217160495e-17,-2.18921046205717e-07,-3.61607958565408e-16,3.78131224135658e-16,-3.70834564652427e-06,8.59568664912211e-16,4.70898456321915e-07,2.22248400104135e-16,5.21533755882474e-07,-5.80970663882229e-15,-3.80987621922234e-11,1.7470914382413e-14,-4.26840786962748e-13
"t151",0.0487986564309762,0.094190986839095,0.0385605373736053,0.00755459770725578,0.000671437031693471,-0.00111502978330623,-0.0145192206506127,-0.000806041877845744,-0.211452754047562,0.152366695508493,5.6790077141859e-05,4.64188730015693e-05,-0.00016043989653977,0.0269374471383401,0.132985425870163,-5.37070388162419e-15,0.00130930556383689,-1.20597792185862e-06,0.00208589722425061,-0.0141650918094568,-0.000158241922658083,-1.59326585599566e-05,-0.00240253903816751,0.000246105844759639,-1.02700444000716e-05,-2.02374699668824e-06,-1.25232008347571e-06,-3.67443277779384e-06,-0.0453459166897159,6.51631580919109e-06,-1.75217562959275e-07,-5.98206966869414e-07,-2.32566920274725e-15,-0.0659577216200973,-6.63552581017744e-15,-0.691177295192317,0.00695461424033521,0.100403514275258,-0.00162790490015644,0.0161816299146062,-0.628073997503346,0.0102301433853756,-0.00119367739753856,-0.000549448540006039,8.18690045858173e-16,0.00040401299700215,-0.000355861113880158,-0.000605060853588692,8.22198084367887e-17,-0.0011879671450485,-0.000425775747936757,-0.000973444101141583,-0.0362097523097819,0.000504745266863518,-5.19244308127417e-16,3.83483215766256e-06,-0.0036552886316925,9.02642994833627e-05,0.000767519552554195,2.80389438652289e-05,7.09651577191243e-05,3.55562490211148e-06,1.66368111223945e-07,-0.000185951495462329,3.20156570858026e-06,-6.26170700334381e-16,5.41714033143365e-16,-4.3514356780646e-16,-1.75657535385512e-15,1.99330726375723e-16,-8.56808544808293e-06,1.73203800365208e-06,1.55845621867685e-16,6.02480346511458e-17,8.97462578744602e-06,2.55145132613542e-16,8.42375363867913e-18,-1.20314715097632e-05,4.45510841791591e-07,9.81561331946617e-16,-2.24424965306091e-08,1.78490062523473e-06,5.14431860093709e-16,-1.89640216688591e-16,-8.64827530465256e-06,-1.13498355512544e-06,-2.3581104602782e-17,-7.68790895653176e-07,-4.05651603448352e-16,1.6642619540114e-16,-1.29503492905309e-05,1.30189663114645e-15,1.63364287561751e-06,3.48844885762113e-16,1.7707491990302e-06,-5.76024316953896e-15,-1.28754012977131e-10,1.743906285399e-14,-4.27065086810678e-13
"t152",0.0488690197921931,0.0945989399593549,0.0388667003297702,0.00762450232849979,0.000681258852804054,-0.00113480842776219,-0.0149488637219779,-0.000831434131491658,-0.220656156777474,0.160052269249945,6.01764908669221e-05,4.96704117011919e-05,-0.000174360932310839,0.0293968379225527,0.147093798436795,-6.97358837342676e-15,0.00154292006770334,-1.45865697223282e-06,0.00273794056537933,-0.0190488989972927,-0.000225998220688858,-2.48708448179019e-05,-0.00412881671262549,0.00165791970881839,-7.10002755976725e-05,9.60715361921673e-06,5.01907403439782e-07,-8.12628030260552e-07,-0.0183513899099806,3.78988587865408e-06,-1.09488653426326e-07,-3.78844847900723e-07,-1.02840843811439e-15,-0.0445317126431917,-1.90875098760871e-15,-0.517948261443016,0.00523975265207257,0.0757837851597202,-0.00121021401981914,0.0109436454721623,0.774572017805757,0.0109310762586156,-0.00113201536049003,-0.000499625285304142,-1.69295854712257e-15,0.000363257017284777,-0.000318860817089728,-0.000541096055160627,4.40298855948684e-16,-0.00106191233091723,-0.000380599051963184,-0.000895582720550817,-0.0554394370356865,0.000416033410049949,-1.92105934034472e-15,3.34567895876849e-06,-0.00521561399917632,7.87578501847516e-05,0.0006705725145773,2.454899530773e-05,6.2207336482874e-05,3.13033760865976e-06,1.46845140035206e-07,-0.000164611547202886,2.83592696543254e-06,6.12757598071762e-18,2.06953722545871e-16,2.13369240753657e-16,1.83202994196637e-15,-1.56612355677184e-15,-7.63155776279364e-06,1.5434726882253e-06,-4.23758150716406e-17,-3.92339945992875e-16,8.01340278326286e-06,4.54907932266699e-16,-1.38536604949363e-16,-1.07723534040811e-05,3.99125176926331e-07,1.00002149440863e-15,-2.01248599574447e-08,1.60187817367002e-06,4.21202447274769e-16,-8.27985279601318e-16,-7.7800350558599e-06,-1.02122809671198e-06,-1.31060311370548e-16,-6.92080787064005e-07,-3.35318674070109e-16,3.21656558060358e-16,-1.16697882543344e-05,1.15280003029044e-15,1.4738699195706e-06,-4.13659222747491e-17,1.60397254149496e-06,-5.48711178821724e-15,-1.16774208462854e-10,1.74928119018891e-14,-4.26986252015318e-13
