"","c1","c2","c3","c4","c5","c6","c7","c8","c9","c10","c11","c12","c13","c14","c15","c16","c17","c18","c19","c20","c21","c22","c23","c24","c25","c26","c27","c28","c29","c30","c31","c32","c33","c34","c35","c36","c37","c38","c39","c40","c41","c42","c43","c44","c45","c46","c47","c48","c49","c50","c51","c52","c53","c54","c55","c56","c57","c58","c59","c60","c61","c62","c63","c64","c65","c66","c67","c68","c69","c70","c71","c72","c73","c74","c75","c76","c77","c78","c79","c80","c81","c82","c83","c84","c85","c86","c87","c88","c89","c90","c91","c92","c93","c94","c95","c96","c97","c98","c99","c100","c101","c102","c103","c104","c105","c106","c107","c108","c109","c110","c111","c112","c113","c114","c115","c116","c117","c118","c119","c120","c121","c122","c123","c124","c125","c126","c127","c128","c129","c130","c131","c132","c133","c134","c135","c136","c137","c138","c139","c140","c141","c142","c143","c144","c145","c146"
"t13",-0.0423436841823263,-0.0284296450463598,-0.0033518525597696,-0.000604882308003862,-0.137900448898978,-0.0157589366371344,-0.111290139695909,0.031394686314851,-0.00235704864256175,-0.00110294402070625,-0.00258194388425415,0.00104031621133698,0.000265258425529085,0.000572322903848814,-0.000804636696075109,-0.000631005057769453,-0.0104748477573918,0.00669840430517217,0.000248143287150585,0.05036739550276,0.000272006474571459,-0.00505893282913139,0.076827390546364,-0.00408758020040975,0.00922769126818654,0.0032044537506187,-0.00524982142588793,0.0105987174848579,-0.00372360419450367,-0.00574627905448741,0.00106375803281482,0.00745147233845089,-0.00411553114228583,0.00153768578740353,0.0104399703392905,-0.0267970216055004,0.0302231384086603,0.00192055741407939,0.0221998099301193,0.0331345089700703,0.00179680170378594,-6.42034103194448e-05,0.434271427533797,0.00126056828397585,4.62613124816403e-05,-0.00198632784930475,-0.000144353301405756,-6.74985604031119e-05,1.75209686213663e-14,0.122065487737133,-5.31740326095517e-05,0.00116815077533777,0.0111513893959835,4.0945838594397e-08,-4.07092992789897e-08,-0.000456557633284221,0.00427398690683407,-0.000457944259570383,-0.0136682522670779,-0.183970749402172,0.0125759088514869,0.171087475382092,0.014655337303928,0.00670941168414406,1.29704436339809e-15,-0.0100258174333439,-0.000226304360008488,-9.23470729480793e-06,0.00323104804325873,-0.000405595204693992,0.0165163722866656,-0.000180300423140804,-0.00705301408265406,2.67963765538526e-06,0.000111486656515807,-5.0141296962794e-05,0.023660240725055,-3.8378660918348e-05,-9.57276310064735e-08,-1.95131654854839e-08,4.31388751616999e-05,-1.59248412044907e-10,0.0084485979712118,6.45579567181309e-05,5.10478674488473e-14,0.000114970080915398,1.53569070434261e-09,-0.000882058880015045,-0.0020603981154809,-0.259809716999438,-1.69717526311241e-15,0.00629936640836471,0.00607011435845239,-0.00255812859171361,-0.00513143742037946,0.000268315388583962,-1.9733217509356e-07,0.026146970189979,0.0246392308738773,5.30241853820555e-16,4.14194611171383e-06,-0.0218176826229753,-0.00114481680847477,2.31831469796522e-05,-2.29102186646115e-15,-4.68136319561089e-06,2.81883969973242e-15,0.00015952023723291,3.6402620932596e-15,5.24681577194824e-15,0.00042088172677801,2.05824170408595e-14,-0.00132371912213081,-0.118829040246063,-7.45707660802283e-14,1.95552865456247e-14,3.39158849072103e-15,-0.00991607938719923,0.770433520541362,7.29577666325239e-15,0.000257460925282489,5.78202987178825e-14,-0.000331509024912052,3.62797444566623e-05,-1.59399103769521e-05,-2.64091360710569e-15,-4.97636140591268e-15,-3.48832032641975e-16,-3.50912134237893e-15,0.000133775497546242,-3.29748277240535e-15,-1.87424068370626e-15,5.38394373169532e-16,5.87570643150202e-15,5.14849476460834e-07,-6.27323818589322e-05,1.07046469436394e-15,2.74632306528144e-15,-2.79552268882103e-16,-7.1576782630493e-18,-5.67308157257108e-07,-2.86650809168484e-16,-3.17375460600777e-15,3.04583233989227e-15,2.62395193610045e-15,-3.00643901140384e-15
"t22",-0.0442802300860977,-0.0315882258531391,-0.00376819366507439,-0.000728588548235386,-0.17195110075708,-0.021844207571868,-0.156599726607331,0.0444182953415972,-0.00511163249867607,-0.00262685183202986,-0.0104276049349432,-0.00292839146297322,-0.000269459198789289,-0.000442205835560307,0.000504749470157035,0.000289069630271858,0.00225207314516637,-0.000673854803618805,8.45252462537269e-05,0.023579119224262,0.000183049968082481,-0.00426586634271568,0.102091147497793,-0.00101756557213969,0.0025105522286663,0.000976473145270223,-0.00286194817104952,0.00584238727127439,-0.00216561716717583,-0.00363011341740237,0.000728918235702744,0.00548853138923999,-0.00303451316425136,0.00117481454898675,0.00814860602500507,-0.021100050130965,0.0240267053699512,0.00153792935000966,0.0188315587931139,0.0295791853154547,0.00169377860048394,-6.37232301312382e-05,0.457247678937782,0.00134454655954171,5.22197923462242e-05,-0.00237535975944446,-0.000175625694991815,-0.00011780471740075,3.43081638823145e-14,0.218076356545996,-0.000119332688583862,0.00283875181135479,0.0146725287915596,1.81643230510585e-07,-1.86606865199575e-07,0.000849503744500406,-0.0037591804389408,-0.000306759363324133,-0.0109206769204812,-0.171597469112253,0.0132977926129415,0.182454028563833,0.0238817375745629,0.0128334125102029,-7.85573903370188e-16,-0.0203380534545537,-0.000469751302752807,-2.04326912803893e-05,0.00726009112599321,-0.00110209601031709,0.0454086300273802,-0.000549003846324901,-0.0237140350802207,1.55901870214689e-05,0.000689756112585408,-0.000321212881610561,0.169526098543644,-0.000359863508467662,-1.39957006699406e-06,-8.26684622258265e-07,0.0157639481878519,3.79866199996053e-08,-0.110439472553775,-0.000766337532062658,-1.57240436935536e-14,-0.000603989400831872,-7.29953846440041e-09,0.00394464309012845,0.00726477733046746,0.698743020742498,8.2875199607067e-16,-0.0126443052062134,-0.0115593294036759,0.00472379066008675,0.00805583816175518,-0.000406020414501978,2.88842487474297e-07,-0.0370600858824372,-0.0343315958755876,-8.49635619654261e-15,-4.99258373548522e-06,0.0240584390476856,0.000979422121403478,-1.95887393514846e-05,-2.33310723041591e-15,3.50484073001789e-06,-7.97308999129309e-15,-0.000112506027452824,-2.51049724798058e-15,-4.43969060046555e-15,-0.000194251276269516,-4.82394960633256e-15,0.000645692805360169,0.150100305971349,9.75655445389886e-14,-8.07654384891017e-15,-2.12790476688338e-15,0.00263018574865619,-0.202021634597123,-1.18625615934341e-15,-6.52635120498429e-05,-2.16279064238325e-14,7.49207346133399e-05,-6.89613514044968e-06,2.99412341219837e-06,2.78980702791329e-15,2.59520329924544e-15,1.54540772572833e-15,7.60823288718e-16,-1.74397457167828e-05,1.69178730230983e-15,3.00238011882166e-15,3.41111664890857e-16,3.83858572454789e-15,-5.1501703926171e-08,6.26180194899776e-06,3.20805546524919e-16,1.88127286863506e-15,1.24258696257354e-15,-5.31069821928116e-15,1.68252323882833e-08,-8.49872815647528e-16,-1.13153615981578e-16,-3.71950513200479e-15,1.03178078234642e-15,-2.92864839622947e-15
"t61",-0.0464076649218785,-0.0350961093209932,-0.00423144895955745,-0.000867595947823826,-0.210376115340783,-0.0287851050043532,-0.208346588577637,0.0592989736369441,-0.00832899008679159,-0.00441147749767268,-0.0196963124797387,-0.00768475944985982,-0.000913091509704484,-0.0016642912647347,0.00208251305318657,0.00139773503338643,0.017557171704765,-0.00951182488004717,-8.66585555094006e-05,0.00366184065826462,0.000291041652926593,-0.0107477520710851,0.416461685180859,0.0105960540722549,-0.0226031119339521,-0.0072175615064064,0.00578461704760491,-0.0114751342005608,0.00370605906912348,0.00505408139984892,-0.000840690916729729,-0.00545028507115513,0.00300734187150855,-0.00108967727380353,-0.00728103358643097,0.0185768072515187,-0.0208228532251595,-0.00131736087290489,-0.014820924860268,-0.0218611197871743,-0.00118552093630185,4.28722539223137e-05,-0.298168521667298,-0.000872509781966885,-3.3442257134206e-05,0.0015206898888469,0.00011269665942978,9.4409787274673e-05,-2.70063664793194e-14,-0.178252675447312,0.000116977015971495,-0.00292872893468466,-0.00847538595379432,-2.52663939904054e-07,2.62299492783772e-07,-0.00259809619147116,0.0166271657746957,-0.000543380036853239,-0.0135651554696967,-0.148232378146978,0.00815782241739637,0.109160278867007,0.00280306594306319,0.000601051125820829,-5.3910353733038e-15,-0.000602689212018098,-1.12003585033144e-05,-2.05613974277053e-07,5.21235992096552e-05,2.00225408550659e-05,-0.000874728957320863,1.49514381576928e-05,0.000779570190331037,-7.2294467136137e-07,-3.24067293502425e-05,1.51898840466881e-05,-0.00815609717820779,1.77662390017977e-05,7.0380432548401e-08,4.19561719443756e-08,-0.000800509132886409,-1.92845908530077e-09,0.00552557426367743,3.82391397579267e-05,-0.70710678118657,2.85432298794188e-05,3.40379205955246e-10,-0.000182181275399584,-0.000319867396641291,-0.028276791222747,-2.00116049913536e-14,0.00043989318871864,0.000387393772848756,-0.000154589878639735,-0.000225664346676028,1.08817804617734e-05,-7.41031244272029e-09,0.000907893520044153,0.000819281678387669,9.24656835594198e-15,8.92068279605476e-08,-0.000326116245392199,2.41235672093795e-06,-6.73587732700022e-08,5.92216408041875e-16,5.01676072016508e-08,-3.99636584642699e-15,-2.34830775957495e-06,-5.12267160687969e-15,-3.46355932907618e-15,-6.54044525029385e-05,2.74938178516527e-15,0.000331966671661218,0.250554575348618,1.66222054204436e-13,-1.05497531490187e-15,-9.8991767160231e-16,-0.000632472943931422,0.0440785495103526,-6.69211573306128e-16,1.16116861977062e-05,-4.12915109021923e-15,-8.82051858383196e-06,5.50428901817089e-07,-2.33729864880733e-07,3.76900101594625e-15,8.23810906738049e-16,2.25284403725524e-15,-1.01978593912795e-15,7.71948654973874e-07,8.11682122741734e-15,5.2252146263888e-15,2.42711889177032e-15,1.89083212057796e-15,1.60813405135164e-09,-1.94985923075325e-07,7.21235234004608e-17,-1.76339739106945e-14,-3.16436221940214e-16,3.06425765320698e-14,-9.76968978051222e-11,-3.27296015973315e-15,6.00809482888635e-17,-2.6287128405769e-15,1.0253279537929e-15,-2.4081737085247e-15
"t62",-0.0464076649218787,-0.0350961093209932,-0.00423144895955732,-0.000867595947824281,-0.210376115340783,-0.0287851050043525,-0.208346588577636,0.0592989736369443,-0.00832899008679236,-0.00441147749767294,-0.0196963124797386,-0.00768475944985943,-0.000913091509704925,-0.00166429126473463,0.00208251305318628,0.00139773503338552,0.0175571717047635,-0.00951182488004699,-8.66585555091675e-05,0.00366184065826658,0.000291041652927782,-0.0107477520710857,0.416461685180862,0.0105960540722557,-0.0226031119339528,-0.00721756150640716,0.00578461704760538,-0.0114751342005599,0.00370605906912238,0.00505408139984977,-0.000840690916728124,-0.00545028507115415,0.0030073418715097,-0.00108967727380443,-0.00728103358643212,0.0185768072515231,-0.0208228532251628,-0.00131736087290505,-0.0148209248602705,-0.0218611197871745,-0.00118552093629589,4.2872253921828e-05,-0.298168521667324,-0.000872509781966747,-3.34422571373667e-05,0.0015206898888471,0.000112696659427306,9.44097872762739e-05,-2.73150943276989e-14,-0.178252675447329,0.000116977015970359,-0.00292872893468385,-0.00847538595377999,-2.52663948887145e-07,2.62299494084958e-07,-0.0025980961914666,0.0166271657746912,-0.000543380036850688,-0.0135651554696985,-0.148232378146958,0.00815782241739629,0.109160278866973,0.00280306594306976,0.000601051125820209,1.3356018205525e-15,-0.000602689212013349,-1.12003585039438e-05,-2.05614000950783e-07,5.21235992169758e-05,2.00225408510241e-05,-0.00087472895733557,1.49514381495436e-05,0.000779570190328663,-7.22944668646707e-07,-3.24067293368066e-05,1.518988404528e-05,-0.00815609717821674,1.77662389901215e-05,7.03804776311331e-08,4.1956152794621e-08,-0.000800509132902944,-1.92848705255698e-09,0.00552557426375412,3.82391397866335e-05,0.707106781186525,2.85432296486719e-05,3.40274961814992e-10,-0.00018218127539496,-0.000319867396610179,-0.0282767912226951,1.96059585271662e-14,0.000439893188715434,0.000387393772877806,-0.000154589878626366,-0.000225664346671885,1.08817804352566e-05,-7.41028840769047e-09,0.000907893520090929,0.000819281678361758,-9.47560335695371e-15,8.92068377999631e-08,-0.000326116245394882,2.41235671876846e-06,-6.73587802942221e-08,1.00089870643207e-15,5.01675525526193e-08,1.13478227548753e-15,-2.34830775660098e-06,-5.09400953747385e-15,-2.85074571456898e-15,-6.54044524937085e-05,1.25077820734428e-15,0.000331966671663502,0.250554575348729,1.61861584716421e-13,-3.58475136098618e-15,3.21095393303531e-15,-0.000632472943928862,0.0440785495103221,2.97653841737201e-15,1.16116861917181e-05,1.95715664817334e-15,-8.82051858202575e-06,5.50428900713905e-07,-2.33729863369079e-07,5.10752318276671e-15,4.23496764287858e-16,3.50926963462471e-16,-4.29838928798043e-15,7.71948655526064e-07,-6.30214884053192e-15,3.80377400257408e-15,1.05432809443151e-15,-5.17547591967893e-15,1.60812823467747e-09,-1.94985922919352e-07,2.09930355379996e-16,2.47870678762957e-15,8.68527564513226e-16,-1.38039728698658e-15,-9.76940427227722e-11,-3.36430485305417e-15,-2.23954226812661e-15,-1.39336554917586e-15,2.23632209369611e-15,-9.62258608903348e-16
"t50",-0.0459319745657462,-0.0343156728907149,-0.00412847909901866,-0.000836857885051035,-0.201900003628904,-0.0272643769817192,-0.197019081661091,0.0560425956517826,-0.00763812362632781,-0.00402937989203284,-0.0177343269644643,-0.00670882097674688,-0.000783918726742626,-0.00142106137080456,0.00177064982534792,0.0011809905511413,0.0146428736909839,-0.00786399481521175,-6.67754627152636e-05,0.00272066070892315,0.000205955200971977,-0.00745626670213939,0.283409454702698,0.00672445222665263,-0.0142864986509574,-0.0045315269791575,0.00320553287732259,-0.00632078617727955,0.00197548415557348,0.00252573910419694,-0.000386920434488967,-0.00229102587785286,0.00126233830206019,-0.000434605723333981,-0.00281022298057659,0.0070707559742571,-0.00780371003567393,-0.000487824070726352,-0.00495736864065689,-0.00661418880313298,-0.00031871416131867,1.01914155106563e-05,-0.0606730560835999,-0.000171219880759514,-5.54272969991743e-06,0.000208330029775167,1.45275763265292e-05,1.35515417577663e-06,-7.21876184864553e-16,-0.00180063899199656,-2.15194950048047e-06,6.6089900331641e-05,0.000208736288797871,1.28035408497436e-08,-1.34627097653018e-08,0.000207871063333086,-0.00143501680323179,6.78706693979063e-05,0.0018180341891636,0.0216260395531879,-0.00130202121526999,-0.0175425782491124,-0.000704609907099576,-0.000180354323611513,2.09177567954501e-16,0.000191887959454425,3.64608483780262e-06,7.09789297852133e-08,-1.82381655006466e-05,-8.11283471241033e-06,0.000357249127363279,-6.51048309150221e-06,-0.000358476626194731,4.0758238798014e-07,1.85549313998583e-05,-8.76944783470708e-06,0.0048251773162912,-1.1020621518e-05,-4.60349201817484e-08,-2.91238341509393e-08,0.000570750227591373,1.38707505088573e-09,-0.00433969287735614,-3.03055257426785e-05,6.23667784083182e-14,-2.54464446938926e-05,-3.09839907113631e-10,0.00016813655905152,0.000313462082210077,0.0301075359534635,2.70282078892765e-15,-0.000522515947540947,-0.00047040556401517,0.000190214873559307,0.000299005186541252,-1.46771340991589e-05,1.01602626955034e-08,-0.00126512745956215,-0.00115163704869622,2.5477852545478e-15,-1.35471705734059e-07,0.000520903980039482,-4.50816223025935e-06,1.26914680010231e-07,-2.95732381259705e-15,-1.02636211714725e-07,3.20720348378747e-15,5.01271363541593e-06,1.68791136579495e-14,1.09243302934559e-14,0.000214518757945858,-6.99383310621073e-15,-0.00112281009689062,-0.88509643142286,-5.77682697448421e-13,7.58453809702721e-15,-3.39079332547595e-15,0.00267396774838375,-0.189674854771778,-5.16475869806616e-15,-5.22085576647558e-05,3.60453867790809e-15,4.49437362046314e-05,-3.34211723302371e-06,1.43621613858052e-06,-1.81572371466254e-14,-4.06705955239986e-16,-1.73119436406898e-15,8.06967614960495e-15,-6.88609711122935e-06,-3.50462897234808e-15,-1.74140492153093e-14,-4.77276162198956e-15,2.01636340292514e-14,-1.90245052090678e-08,2.31213414176847e-06,1.04084863617639e-16,1.78685023792382e-14,-1.81176698886647e-15,-2.25848503498927e-14,5.63298734637391e-09,1.06714823649384e-14,-2.21467425442498e-15,3.87287337598987e-15,2.37068755650769e-15,-1.22518798198084e-14
"t37",-0.0459233752206734,-0.0342968268234547,-0.00412588205241103,-0.000835906369616057,-0.201616067047058,-0.027203327229788,-0.196555003386801,0.0559082305833519,-0.00759899295857247,-0.00400695011655288,-0.0176046295278299,-0.00662858542366716,-0.000772161719010247,-0.00139821990026978,0.001740663159322,0.00115942780185722,0.0143327270240624,-0.007680921957037,-6.38053520935469e-05,0.00256104739000267,0.000189193576713014,-0.00677071992471687,0.254230670958756,0.00571858569175599,-0.0121060904019416,-0.00381677546810591,0.00232708584616386,-0.00454641711812831,0.00134520998614892,0.0015048608273113,-0.000180512871184685,-0.000674411615619696,0.000367845693010266,-7.77063478437982e-05,-0.000281727102366577,0.000462028341143479,-0.000198214704092924,3.06024933892596e-06,0.00151419641671859,0.00435313167506548,0.000368656288174554,-1.81869281600544e-05,0.167511170255318,0.000517320440199208,2.44944198035362e-05,-0.00133573331186715,-0.000103941295036166,-0.000163739534602242,4.95148906842975e-14,0.316155912193596,-0.000241098347769294,0.00617093282340756,0.0180540441216985,6.18499341760693e-07,-6.44344940411885e-07,0.00746675763968086,-0.0494972493165481,0.00202393510366043,0.0534138384252183,0.628674411245791,-0.0378144250183056,-0.509702033623701,-0.0273130215827925,-0.0111171393387131,5.03376043896045e-15,0.0161275954484728,0.000360532113917666,1.43993897421748e-05,-0.00501768521213154,0.000618560514188676,-0.025203817154189,0.000278571478087419,0.0111503951357694,-5.50144397132015e-06,-0.0002380720583631,0.000109558703091958,-0.0558205735584489,0.000110597632587544,3.97703090570469e-07,2.14738945804301e-07,-0.00392954959443528,-9.34116131276588e-09,0.0236077672737667,0.000161401284391413,-2.82551759767102e-14,0.000103966755089295,1.20966097606551e-09,-0.000637480206217624,-0.00104702873955435,-0.0848255499206503,-1.66702510324657e-15,0.00118429909765375,0.00102123068554955,-0.000402444238046941,-0.000548265506299175,2.60089750681029e-05,-1.74474371872469e-08,0.00210627876396444,0.00188569062106833,1.3460070361536e-15,1.9144641141244e-07,-0.000668681291631402,4.28355262011537e-06,-1.18689958924942e-07,3.30153942878345e-15,8.16827312330321e-08,1.87307995494047e-15,-3.66539966997684e-06,-3.15723856636029e-15,-1.34856569683211e-15,-5.85470773669653e-05,-1.0680326473089e-16,0.000280798984694751,0.194243975935096,1.2780540688396e-13,-3.51918644788522e-15,-2.57040175989698e-16,-0.000296258551140951,0.0192481491396266,1.16515620896542e-16,4.13773179199603e-06,-1.72090593291838e-15,-1.01237282310452e-06,-1.44040324012826e-07,6.75924163385113e-08,3.85595374062023e-15,-2.4228096497897e-16,-2.27444842245281e-16,-1.14548884993732e-15,-1.0042579553172e-06,1.14812157871265e-15,4.29077276366386e-15,7.02341757958084e-16,-4.66681717400664e-15,-3.73907496735286e-09,4.55250989917696e-07,2.65048156393745e-16,4.71447478096327e-15,9.14125592146174e-17,4.24027365963284e-15,1.75446782607177e-09,-9.50296654506772e-16,-5.77462024490035e-16,1.09156185471759e-15,2.87226437695351e-15,-8.71675582082569e-16
"t130",-0.047024282808573,-0.0361682742785513,-0.00437439279962655,-0.000912752731583831,-0.223151264426277,-0.0312397191828861,-0.226789507341901,0.0646172671421526,-0.00966627966644288,-0.00516910810779258,-0.0239502357749473,-0.0103046683545846,-0.00130838875147191,-0.0024434928080924,0.00311882591001821,0.00215959673380347,0.0291664723664488,-0.016706017385714,-0.000392917077222143,-0.0767780975517574,-0.000510133720256994,0.0123859774156954,-0.339212516426479,-0.00279786551830087,0.00557279122384814,0.00158393637010135,0.000317945673560572,-0.000712615230851915,0.000355711383551338,0.000728338701264383,-0.000154076690596806,-0.00114233083627092,0.000631262014221346,-0.000239441834080784,-0.00163602170022394,0.00420823959395936,-0.00475597862758661,-0.000302637541670126,-0.00352169800055669,-0.00526739704345055,-0.000285873738917429,1.02243717326352e-05,-0.0693161868378113,-0.000201351079179078,-7.41921556266101e-06,0.000320131160571461,2.32976744996156e-05,7.3002237365444e-06,-1.0640379223989e-14,-0.0111047945115233,-5.50010048556482e-05,0.00518330907721951,-0.504578477988185,-6.75444243649166e-08,6.90054921436986e-08,-0.00040510202812951,0.00233873694966189,-3.08218363317534e-05,-0.000493337667648968,-0.00124777771119142,-0.000217648360960226,-0.00323731331574813,-0.00126712711691186,-0.000698941060154694,4.70635854161317e-16,0.00110367503743399,2.54252073012669e-05,1.0949887971699e-06,-0.000387951432844265,5.63532252295826e-05,-0.00231487639089546,2.72516735658227e-05,0.00114714345364875,-6.67483156354601e-07,-2.92092479495154e-05,1.35214295101744e-05,-0.00700835155998846,1.43378019747248e-05,5.33425291975506e-08,2.9856686760914e-08,-0.00055486458969182,-1.32556380747309e-09,0.00351200663748682,2.41214401308321e-05,-6.78623823802127e-15,1.64224396591755e-05,1.92809178980025e-10,-0.0001021934516658,-0.000171920149319564,-0.0143490542598959,1.32287781165035e-15,0.000207091537769772,0.000179619321737725,-7.1021718324084e-05,-9.8390895567674e-05,4.68391527568942e-06,-3.15167196777048e-09,0.000381551695458322,0.000342087163149342,9.21114278499985e-16,3.50967299384437e-08,-0.000123126977874794,7.88095378049348e-07,-2.18205332556664e-08,-3.24809376981409e-15,1.48345637207104e-08,6.14997338477538e-15,-6.5895691834814e-07,3.37598901344886e-16,1.82684074645664e-15,-6.45041520872555e-06,3.18693724629407e-15,2.75371731616683e-05,0.0150463491500537,9.99867741804258e-15,4.31098175579357e-15,8.73242530189586e-16,2.83816438399598e-05,-0.00247566850971281,8.48383091324726e-16,-9.87746105751483e-07,4.33282726969018e-16,1.53811112425274e-06,-1.7568772612183e-07,7.71244470289447e-08,2.32013986776879e-15,8.0653296278196e-17,1.76322397761247e-16,-1.11054929659294e-14,-5.70699142517695e-07,1.0151451876913e-14,1.9837691067557e-14,1.69956281388745e-15,1.90380642588089e-15,-1.87696087174126e-09,2.28378700500711e-07,5.43434680105147e-14,0.707106781186545,1.48891934382707e-14,-5.69909994375934e-15,7.71153088233207e-10,4.02442441360154e-15,-1.73797880314742e-14,1.99610560482426e-14,-5.30347262892843e-15,-1.14248409488151e-15
"t131",-0.0470242828085731,-0.0361682742785513,-0.00437439279962627,-0.000912752731583973,-0.223151264426277,-0.0312397191828862,-0.226789507341901,0.0646172671421528,-0.0096662796664428,-0.00516910810779246,-0.0239502357749473,-0.0103046683545851,-0.00130838875147148,-0.0024434928080916,0.00311882591001783,0.00215959673380351,0.029166472366449,-0.0167060173857143,-0.000392917077221929,-0.0767780975517568,-0.000510133720257166,0.0123859774156956,-0.339212516426473,-0.00279786551830061,0.00557279122384769,0.00158393637010215,0.000317945673560283,-0.000712615230850765,0.000355711383551292,0.000728338701263976,-0.000154076690599142,-0.00114233083627108,0.000631262014220772,-0.000239441834080116,-0.00163602170022214,0.00420823959395836,-0.004755978627585,-0.000302637541667826,-0.00352169800055531,-0.00526739704345053,-0.000285873738917327,1.02243717322683e-05,-0.0693161868378118,-0.000201351079177819,-7.4192155637333e-06,0.000320131160567479,2.32976744979692e-05,7.3002237366947e-06,-1.03042728591021e-14,-0.0111047945115149,-5.50010048559315e-05,0.00518330907721913,-0.504578477988184,-6.7544423554282e-08,6.90054923181443e-08,-0.000405102028129595,0.00233873694966195,-3.08218363267677e-05,-0.000493337667647864,-0.00124777771118073,-0.000217648360959808,-0.00323731331575636,-0.00126712711691655,-0.00069894106015519,-9.13719636934248e-16,0.00110367503743452,2.54252073007779e-05,1.09498879654177e-06,-0.000387951432843441,5.6353225229403e-05,-0.00231487639089886,2.72516735671758e-05,0.00114714345365046,-6.67483157329893e-07,-2.92092479506144e-05,1.35214295086984e-05,-0.007008351559994,1.43378019753479e-05,5.33425293036152e-08,2.9856688801098e-08,-0.000554864589693887,-1.32556579602912e-09,0.0035120066374836,2.41214401313026e-05,1.31977762052315e-14,1.64224396564289e-05,1.92809695661088e-10,-0.000102193451664121,-0.000171920149323095,-0.0143490542598774,1.9710214130518e-16,0.000207091537769321,0.000179619321740302,-7.10217183255401e-05,-9.83908955647565e-05,4.68391527566992e-06,-3.15167137403294e-09,0.000381551695469532,0.000342087163137317,-8.98125483380512e-17,3.50967289979631e-08,-0.000123126977883618,7.88095399404452e-07,-2.18205330561234e-08,2.50009525404098e-15,1.48345678040516e-08,-2.89990375312492e-15,-6.58956915775383e-07,-3.56185304344512e-16,-2.4197528714976e-15,-6.45041520751847e-06,-3.00980413367409e-15,2.75371731773659e-05,0.0150463491500236,1.15145870074197e-14,-3.98676805987862e-15,1.87754170361117e-16,2.83816438508342e-05,-0.00247566850970134,2.57224270432022e-16,-9.87746107829805e-07,-1.11816286700477e-15,1.53811113441666e-06,-1.75687722123729e-07,7.71244373780446e-08,-2.44897434778455e-15,1.41356186614673e-15,3.52040292462438e-16,1.01467650545025e-14,-5.70699142335125e-07,-9.06477130872268e-15,-1.86969173548635e-14,-1.98453934125144e-15,3.89691020995621e-15,-1.87699333570668e-09,2.28378792718514e-07,-5.35521594697495e-14,-0.707106781186551,-1.49199188706743e-14,1.81347702243014e-14,7.71193288350128e-10,-4.3078362428496e-15,1.59892154991767e-14,-2.19766142678071e-14,9.1883807163759e-15,-6.24518560579494e-15
"t136",-0.0470462250079852,-0.0362053350691736,-0.00437930842153695,-0.000914263201377619,-0.223573340669334,-0.0313182222553217,-0.22737695829587,0.0647864231496691,-0.00970566831872941,-0.00519119088182671,-0.0240696027061465,-0.0103721963862604,-0.00131810055552803,-0.00246233254250259,0.00314357045445144,0.00217745038428235,0.0294279506934449,-0.0168636987801193,-0.000398186431001423,-0.0779742825349532,-0.000519624396560876,0.01263219018358,-0.346383421140889,-0.00287039189474234,0.00571884921017292,0.00162620621989731,0.000329459688907283,-0.000738770567468466,0.000369735762708742,0.000761146762584885,-0.000162206048049491,-0.0012131804884955,0.000670510138063453,-0.000255671623147351,-0.00175305456047961,0.00451614269341412,-0.00511271846075895,-0.000325774585651372,-0.00383660846112373,-0.00581287864459738,-0.000320783292941388,1.16955842211357e-05,-0.0814803885044999,-0.000238315740412605,-9.09108978292845e-06,0.000410268474843384,3.03303065218467e-05,2.80657676155868e-05,2.46190532508486e-16,-0.0546830334640918,9.2618559138037e-05,-0.00604924943169099,0.494303761883827,-2.72924582444652e-09,3.60980931544937e-09,-0.000154400312395729,0.00099075279793293,-1.81694394075222e-05,-0.000303203454534491,-0.000801732591445429,-0.000145732761057053,-0.00217401405708551,-0.000981095229092589,-0.000561741126334891,-7.83842520677007e-16,0.000896667510345773,2.07362283557928e-05,9.01773353574542e-07,-0.000320182316093441,4.75085775634251e-05,-0.001953607616947,2.31869152168159e-05,0.000982389687988727,-5.83768584469384e-07,-2.55819382869063e-05,1.18511194612363e-05,-0.00615590198462953,1.26447276115107e-05,4.72449792423182e-08,2.65632450980952e-08,-0.000494615677859136,-1.18236444217987e-09,0.00315124365809256,2.16561645578866e-05,8.34055047249649e-15,1.48482618764668e-05,1.7452850605983e-10,-9.25743514834565e-05,-0.000156229255683971,-0.013092227572792,-6.42818161006628e-16,0.000189864940553144,0.000164827111444039,-6.52076424319776e-05,-9.05945593590642e-05,4.31559019073526e-06,-2.90556016457816e-09,0.00035195856309679,0.000315651249831032,-1.00296483272431e-15,3.24685540365915e-08,-0.000114087437394329,7.33478823062478e-07,-2.03126385493754e-08,1.26301900244976e-15,1.38375808882774e-08,-8.52022377408258e-16,-6.15276009487291e-07,-4.34031216048765e-15,-2.77877469873408e-15,-6.07054089745938e-06,-1.01925312340311e-15,2.5926961789827e-05,0.0141750807952474,9.10079769629233e-15,1.51693721577783e-15,-8.15622842282264e-15,2.67979079154014e-05,-0.0023379859191093,-4.21914520297626e-15,-9.33258857219399e-07,-1.67808897357982e-15,1.45508200420695e-06,-1.6645448436828e-07,7.30779889722011e-08,3.29843911537689e-15,6.41549974876948e-15,-1.83767092715902e-15,1.65060188464379e-16,-5.42062397058221e-07,3.08126783123059e-15,8.36387513814063e-16,5.16107103184427e-15,-8.8157933434518e-15,-1.78513003450856e-09,2.17205643919393e-07,2.27908918504156e-15,8.86105310219327e-15,4.18365619249036e-15,0.707106781186549,7.36436334015909e-10,-8.86644904753195e-15,6.46434051439022e-15,-3.43169413108485e-15,1.89656281020441e-15,1.81180620566601e-14
"t137",-0.0470462250079852,-0.0362053350691736,-0.004379308421537,-0.00091426320137782,-0.223573340669334,-0.0313182222553217,-0.22737695829587,0.0647864231496691,-0.00970566831872907,-0.00519119088182645,-0.0240696027061458,-0.0103721963862607,-0.00131810055552799,-0.00246233254250258,0.00314357045445189,0.00217745038428274,0.029427950693446,-0.0168636987801197,-0.000398186431001373,-0.0779742825349531,-0.000519624396561119,0.0126321901835795,-0.346383421140886,-0.00287039189474179,0.00571884921017352,0.00162620621989762,0.000329459688907833,-0.000738770567468475,0.000369735762709186,0.000761146762584421,-0.000162206048049741,-0.00121318048849481,0.000670510138063973,-0.000255671623147553,-0.00175305456047922,0.00451614269341354,-0.00511271846075807,-0.000325774585651933,-0.00383660846112343,-0.0058128786445983,-0.00032078329294099,1.16955842226567e-05,-0.0814803885045037,-0.000238315740413164,-9.09108978245745e-06,0.000410268474843624,3.03303065223262e-05,2.80657676165153e-05,3.82185956354474e-16,-0.0546830334640998,9.2618559136786e-05,-0.00604924943169083,0.49430376188382,-2.72924798874108e-09,3.60980896876066e-09,-0.000154400312395792,0.000990752797932351,-1.81694394069208e-05,-0.000303203454533958,-0.000801732591452055,-0.000145732761059569,-0.00217401405708119,-0.000981095229092566,-0.000561741126333594,-1.65720887274205e-16,0.000896667510346716,2.07362283540248e-05,9.01773351558808e-07,-0.000320182316092529,4.75085775636018e-05,-0.00195360761694764,2.31869152158475e-05,0.000982389687988865,-5.83768586720394e-07,-2.55819382868837e-05,1.18511194647808e-05,-0.00615590198463506,1.26447276116738e-05,4.72449789147613e-08,2.65632435906864e-08,-0.000494615677857999,-1.18236508288362e-09,0.00315124365809629,2.16561645609402e-05,-2.36477504245158e-14,1.48482618770165e-05,1.74528949616748e-10,-9.25743514840677e-05,-0.000156229255684216,-0.0130922275728158,-8.49932952426354e-16,0.000189864940551689,0.000164827111439693,-6.52076424317264e-05,-9.05945593556889e-05,4.31559018920696e-06,-2.90555589442156e-09,0.000351958563100507,0.000315651249833759,7.26834938834171e-16,3.24685504496035e-08,-0.0001140874373966,7.33478822342568e-07,-2.03126404459195e-08,-3.99002776057397e-16,1.38375763248024e-08,-1.33685198330298e-15,-6.15276003236137e-07,3.75252602981102e-15,3.58085580680923e-15,-6.07054089792498e-06,-6.52045031414007e-17,2.59269617905118e-05,0.01417508079529,9.70253568244741e-15,-2.90941634413353e-15,6.33822720393884e-15,2.67979079193816e-05,-0.00233798591911594,1.99563113811879e-15,-9.33258855918553e-07,1.37741302238146e-15,1.45508200807722e-06,-1.66454477908422e-07,7.30779938936618e-08,-3.14621224349051e-15,-5.94407079198537e-15,3.01223473154129e-15,-6.2292482832015e-17,-5.42062405349039e-07,-3.50677997955383e-15,-1.06643137687952e-15,-4.68710933498009e-15,1.19375614575572e-14,-1.78513436394455e-09,2.17205638753657e-07,-1.13153781265565e-15,-1.4980986351632e-14,-4.90364770460552e-15,-0.707106781186546,7.3511840081581e-10,8.76548177154471e-15,-9.91191867784243e-15,3.72030021422243e-15,2.07002593665697e-15,-2.46271186067171e-14
"t9",-0.0400721183210357,-0.0247374556420523,-0.00286547082199417,-0.000460830045740309,-0.0983055563292378,-0.00870870096531224,-0.0588192577431723,0.0163150728097924,0.000806223514050174,0.000645166915244999,0.00638344726171622,0.00553863411872497,0.000868715207218344,0.001715667506034,-0.00227868166745468,-0.0016651305145314,-0.0247324990706249,0.0149393586098444,0.000427974658491724,0.0795722624709553,0.000368152976946638,-0.00591925676652412,0.0501760132970569,-0.00731272734133338,0.0162790136806265,0.00554038824879358,-0.0076973921179596,0.0154689321538254,-0.00531013636896957,-0.00787936814338706,0.00139735820708413,0.00938599772221781,-0.00518073842954001,0.00189345758890483,0.0126803609859437,-0.032361501702198,0.0362691009929848,0.00229361875929976,0.025474164072794,0.0366132924817548,0.00190192499796577,-6.50631237161989e-05,0.417007584697057,0.00119550224242351,4.14230894175898e-05,-0.00166771614250477,-0.000118734381993914,-2.73523519709872e-05,4.77151597417409e-15,0.0455520365465844,-9.38168536065578e-07,-0.000149656176194373,0.00845595243220547,-6.89819401425236e-08,7.32597751363127e-08,-0.00146970036432038,0.0104997137209561,-0.000576607783640707,-0.0158697261819452,-0.195088904497026,0.0121720512382758,0.164455450964076,0.00833078591264197,0.00260214375748429,4.04995018676274e-16,-0.00317368129500362,-6.5146540611479e-05,-1.89986834129031e-06,0.000598773415558543,3.5227959853613e-05,-0.00173473501154414,4.88217939108615e-05,0.00314433652347696,-4.69498869419337e-06,-0.000216799768836022,0.000103232027536446,-0.0580368817188552,0.000137966154432255,6.01639517987139e-07,3.99019649126168e-07,-0.00798699278650847,-1.95456481453487e-08,0.0656202927946877,0.000461656806018049,1.04777297948999e-14,0.000428744832426705,5.32106578473178e-09,-0.00292442834856718,-0.00577963235921849,-0.607175027400438,-7.08104014309381e-16,0.0121475811776117,0.0113072119152717,-0.00466935520333091,-0.00840026508757815,0.000428281831725201,-3.07785897622594e-07,0.0398694935427649,0.0371173000756973,6.80271173492148e-15,5.60497484912342e-06,-0.0275020315780495,-0.00113627051907928,2.2695412202449e-05,2.90093919561719e-15,-3.94562892865805e-06,5.0479631597621e-15,0.000123169509606316,-2.65768809504762e-15,-1.47238704357066e-15,-3.86505690254279e-05,-1.3693148003638e-14,0.000266447204111998,0.125424436503417,8.09194420655179e-14,-1.29297772641574e-14,-2.22474953024512e-15,0.00674447664138721,-0.56942465653689,-6.32197148556083e-15,-0.000229261641979427,-4.27986242425965e-14,0.00045577934239569,-8.14857474752154e-05,3.69200880317416e-05,3.52634500277155e-15,5.0105666203255e-15,2.25546368040719e-16,2.06791565445762e-15,-0.000772831958709319,3.71367202032914e-15,2.37641098800928e-15,2.73217893509765e-16,-4.88250414836048e-15,-6.51044439847862e-06,0.000799315213791147,-2.77881351071284e-16,-1.77821433115278e-14,-8.01971213137676e-16,2.0580178821111e-14,-6.98587617492141e-06,-9.8378137320006e-16,6.94912320414856e-16,-2.82578100103357e-15,1.85970536954352e-15,-3.86340783853241e-15
"t54",-0.0451964422936461,-0.033073662613004,-0.00402910509040255,-0.000744249792268062,-0.170331687758654,-0.00113834019752935,0.195726743236793,-0.122285626450996,-0.00886868908552319,-0.00463998216382415,-0.0202496573263542,-0.00843247256570953,-0.00146320398071976,-0.239140933282022,2.02507941610711e-05,0.000776660231296007,0.0134355812008192,-0.00782440499621626,-0.000140059545524544,-0.0219214886711238,-0.000165811729461479,-0.000115130267416641,-0.000435620307554471,0.000634451784566675,-0.00138197145769866,-0.000453706623224633,0.00029373614819366,-0.000564699213223941,0.000148879908350798,0.000108529387956423,1.17971696841853e-06,0.00012648827508239,-7.0721185531114e-05,3.69223169032897e-05,0.000289815255904613,-0.000782945963726825,0.000929379161279908,6.12151901662709e-05,0.000876935510149631,0.00146539573831092,8.43904498162424e-05,-3.02852712676858e-06,0.0192000121138032,5.42848659117232e-05,1.6501685876244e-06,-4.70150552046095e-05,-2.755577211938e-06,1.72230579677629e-05,-3.84900401021903e-15,-0.0356499779934714,5.09395194562857e-05,-0.00155980159878386,-0.000929284893461621,6.32289388570632e-08,-5.87645862230911e-08,-0.00051983560800331,0.00422561724163127,-0.000335240056053774,-0.010847283484335,-0.20122474010431,-0.0293102259476238,-0.26233192518652,0.00313175769688635,0.00132927107286757,3.03192091059889e-16,-0.0018710408939997,-4.10271675957839e-05,-1.51307769364125e-06,0.000520993584323563,-2.98539611999481e-05,0.00110335307603491,1.75923004758097e-06,0.000782593022821514,-5.38594269662097e-06,-0.000287236165029996,0.000148956439672662,-0.113140425883065,0.000825984582222214,-2.65157305209315e-06,-5.76490730638072e-07,0.00886763367821954,1.97474338336358e-08,-0.0365780554017612,-0.000247402400326256,-3.28487237410968e-14,-0.000126009649607713,-1.42354551567081e-09,0.000735950604324198,0.00111094539594971,0.0735174868648324,3.32757353212219e-15,-0.000283814532571398,-0.0545096829136617,-0.000104122272254109,-0.0020928612113163,0.000194405683921494,-2.95323722887053e-07,0.81760624243416,-0.0879479601245324,-1.4050943244727e-14,-1.54892220147369e-06,0.0051352722237457,-0.196104803260403,-4.76320243993088e-06,-5.76436548398237e-15,3.20065971557786e-07,-2.34043520436569e-15,-8.38204731248313e-06,2.24865626225726e-15,-2.68813219306001e-15,2.03261784998349e-06,1.66932966864018e-15,-7.05962548992117e-06,-0.000174598945539028,-3.45383537274485e-15,1.89001441231907e-15,-4.29077707564891e-15,-2.32750856149268e-05,0.00105726993145453,4.2876717339471e-15,-3.80301004103446e-07,7.18086317948587e-16,4.36638679345765e-06,-1.4551265319798e-06,6.87015408621542e-07,2.63091188019149e-15,-1.65701990330662e-16,-2.36752833908889e-15,-8.6864997112763e-16,-2.36065819783881e-05,2.91761639016924e-16,3.03930727816449e-16,7.67570313871376e-18,7.39844854057347e-17,-2.35145178480856e-07,2.89034746969117e-05,3.01193260527463e-15,4.23057316233111e-15,9.58558166580446e-16,4.84976555056397e-15,-3.4873206013264e-07,1.09981760680621e-15,-1.30926594502456e-15,-2.34279615127866e-15,9.41553200032364e-16,-3.48430483768148e-15
"t87",-0.0459485159673813,-0.034295494722827,-0.00419265829067701,-0.000789211145055838,-0.182148509387401,-0.00124458349127113,0.214586244415499,-0.134200468983962,-0.0102547656236804,-0.00540340590779958,-0.0241955512193815,-0.0106677513896404,-0.00191112329402393,-0.315676530623506,2.69539506315581e-05,0.00104658050287068,0.0185813951483852,-0.0110145892221502,-0.000229554029690035,-0.0391626703875337,-0.000335620807126956,-0.000246095624430933,-0.000984084113867287,0.00179275887970495,-0.00396119641241147,-0.00133207277944906,0.00152578269249007,-0.00304108297854001,0.000999521431143413,0.00137096004825777,-0.000222335431192736,-0.00136810101604023,0.000754159583908791,-0.000263333249972648,-0.00171442726671444,0.00432413584895245,-0.0047837908085998,-0.000299530250137152,-0.0030642823325969,-0.00406779911839391,-0.00019200001683761,5.89646832275933e-06,-0.0322182538034667,-8.84897427581895e-05,-2.40032779640915e-06,6.20662921025555e-05,3.54543879399188e-06,-1.63621650850496e-05,3.73338072050231e-15,0.0335527561026927,-4.5174827493768e-05,0.00137193629109291,0.000814072641643346,-5.2773422056432e-08,4.89908962104184e-08,0.0004132041001006,-0.00332653265058608,0.000250419274275135,0.00801753945405277,0.146865820412394,0.0211190741365224,0.188840533953641,-0.00220785303661112,-0.00100027451385219,1.10657441615951e-15,0.0014812360019116,3.33194622631317e-05,1.34815388955625e-06,-0.000477513808827281,5.87957537035543e-05,-0.00241154660830877,2.6126922874745e-05,0.0010363847514896,-4.80374018727104e-07,-2.07225950164553e-05,9.5280193681277e-06,-0.00487204279562705,1.09980388141293e-05,2.16441842349102e-08,1.29052086225252e-08,-0.000233385322177016,-5.39759170177913e-10,0.00115297615518982,7.77668660472288e-06,2.25514051876985e-16,2.99321680092834e-06,3.03216133967866e-11,-1.43828381489334e-05,-1.15952895947561e-05,0.000430263275437858,-1.67387453542443e-15,-9.8969844103073e-06,-0.00229215588547885,-4.85553359616744e-06,-0.000161427072982105,1.67300383538258e-05,-2.80640285522598e-08,0.085592284511178,-0.00969765065049167,-5.30935098047211e-15,-2.74822877019397e-07,0.001305438834964,0.850099616024957,1.10673480155657e-05,2.49815803619429e-14,-1.29341896425372e-07,-3.1193327352587e-15,2.32459063240315e-06,-1.19534604110907e-15,2.03079523423092e-15,-3.83805781590181e-08,2.86751460726203e-15,8.88064044304357e-08,7.6059185154416e-07,5.41792033792513e-15,-1.13704556308673e-15,-6.07159909862953e-15,-5.44333443118859e-07,2.7170774981343e-05,-2.35510208686699e-15,-1.18631666290371e-08,-3.81285876736123e-16,1.97137523415537e-07,-8.92801223995229e-08,4.28300831869724e-08,-2.93887278451815e-15,1.05895157009161e-15,-5.86598607636644e-16,1.03832883733793e-15,-2.06472214140328e-06,-2.65755314536057e-15,1.03023542045259e-15,1.03901137082686e-15,6.51891395219448e-15,-2.37348821572967e-08,2.92022412859631e-06,2.85929575366819e-16,1.24118988279055e-14,-1.31862640781678e-15,2.89499568853209e-15,-4.66462903852595e-08,7.28793038965803e-16,-2.75613332040039e-15,-1.18498151876462e-15,2.49186458269619e-15,-3.17557629682616e-15
"t125",-0.0460433642957472,-0.0344499904986414,-0.00421334845794542,-0.000794912885952118,-0.18364866989044,-0.00125810910855237,0.21698804044701,-0.135718035182688,-0.0104324390948056,-0.00550134794788065,-0.0247033164584366,-0.0109572638309343,-0.00196934061003954,-0.325635410838211,2.78269404094675e-05,0.00108177960513279,0.0192542513825931,-0.0114324856830495,-0.00024144764445006,-0.0414709246610022,-0.000358577181353162,-0.000263870335615561,-0.00105880449180907,0.00195271424842464,-0.00431764833047224,-0.00145361949826716,0.00170030595631085,-0.00339225711783946,0.00112087227042395,0.0015531426621849,-0.00025505545618792,-0.00159024003728433,0.000876789279295128,-0.000308342270236745,-0.00201644296248276,0.00509540572088261,-0.00564868933337684,-0.000354244229852533,-0.00367132405923442,-0.00493244588962905,-0.000235889707047261,7.33606576381243e-06,-0.0406643966841263,-0.000112036432620186,-3.08010288343986e-06,8.06946636006658e-05,4.62698590973765e-06,-2.26258260842222e-05,5.23097039679336e-15,0.0465050609034402,-6.36180312888804e-05,0.00193665413022961,0.00115052261542104,-7.57298694877206e-08,7.03292710387783e-08,0.000603635642209223,-0.00487877841059538,0.000376549590529228,0.0121296678714814,0.223995568232113,0.0325185114105685,0.290996001909577,-0.00364429849826832,-0.00172111717061087,-3.2744676482628e-17,0.00259135982884778,5.86788944028351e-05,2.41911311415293e-06,-0.00086077648083986,0.00011222385907868,-0.00461925693675633,5.1601669697701e-05,0.0021075878059133,-1.12930087554651e-06,-4.94070202410385e-05,2.28938971513852e-05,-0.0119900336891245,2.84854915124235e-05,5.98835516698911e-08,3.89938563709395e-08,-0.000738245860222704,-1.73486778621266e-09,0.00450337125108329,3.11306657251516e-05,1.13173359572727e-14,1.89741782047654e-05,2.18386727279924e-10,-0.000114118340073312,-0.000178664946436378,-0.0121944118482288,1.29741716747459e-15,4.82990799939618e-05,0.00932428262832487,1.7870436132171e-05,0.000368447705966312,-3.45285712623309e-05,5.29553734030531e-08,-0.148225840719159,0.0160507980733252,4.44327747616544e-15,3.1031247118361e-07,-0.00115907585014877,-0.344639174355586,-4.28662910567365e-06,-9.08326781856124e-15,2.98124428585918e-08,6.55397989868892e-16,-3.8135234446159e-07,-2.45718857628156e-15,-4.43008648367238e-15,-8.51523122399732e-09,-6.35516161914038e-16,2.11378567574107e-08,1.97243010010076e-07,-9.53164958312125e-16,2.92469670383681e-15,4.55841577716588e-15,-1.80610723430937e-07,9.17830500070187e-06,-3.67753203357832e-15,-4.17570678154551e-09,3.10211953596481e-15,7.63750525334183e-08,-3.81313228692764e-08,1.83934766095804e-08,9.47569241684287e-15,-3.13556844570528e-14,2.42770981097974e-14,-8.08774075543436e-15,-1.00488009405881e-06,-1.81559025981064e-14,-5.03264876694914e-14,1.76150261640008e-13,0.707106781186549,-1.22255505350499e-08,1.50475336797678e-06,2.44304352310049e-14,-6.55386285135889e-15,-2.35689594687144e-15,1.30755055401057e-14,-2.69322134162541e-08,2.37499917422189e-15,-6.9568848164138e-15,3.25679665564453e-15,2.31880431550292e-15,1.05789751842055e-15
"t126",-0.0460433642957472,-0.0344499904986414,-0.00421334845794542,-0.000794912885952154,-0.18364866989044,-0.00125810910855255,0.21698804044701,-0.135718035182687,-0.0104324390948056,-0.00550134794788046,-0.0247033164584364,-0.0109572638309339,-0.00196934061003929,-0.325635410838211,2.78269404095871e-05,0.00108177960513278,0.019254251382593,-0.0114324856830496,-0.000241447644449897,-0.0414709246610024,-0.000358577181353148,-0.00026387033561625,-0.00105880449180903,0.00195271424842496,-0.00431764833047244,-0.00145361949826691,0.00170030595631077,-0.00339225711783911,0.00112087227042416,0.00155314266218482,-0.000255055456188947,-0.00159024003728441,0.000876789279295006,-0.000308342270236437,-0.00201644296248247,0.00509540572088349,-0.00564868933337568,-0.000354244229852108,-0.00367132405923488,-0.00493244588962899,-0.000235889707046439,7.33606576461451e-06,-0.0406643966841261,-0.000112036432620784,-3.08010288323893e-06,8.06946636006304e-05,4.62698591050797e-06,-2.26258260820829e-05,5.60019328056834e-15,0.046505060903437,-6.36180312863885e-05,0.00193665413023024,0.00115052261541901,-7.57298712430151e-08,7.03292733310503e-08,0.000603635642208942,-0.00487877841059438,0.000376549590530676,0.0121296678714798,0.223995568232111,0.032518511410568,0.29099600190958,-0.0036442984982684,-0.00172111717061059,-5.01513540610395e-16,0.00259135982884783,5.86788944031871e-05,2.41911311561623e-06,-0.000860776480837486,0.000112223859080908,-0.00461925693675461,5.1601669697932e-05,0.00210758780591282,-1.12930087389075e-06,-4.94070202418686e-05,2.28938971524158e-05,-0.0119900336891239,2.84854915131456e-05,5.98835562803706e-08,3.89938558480286e-08,-0.000738245860222317,-1.73486558863592e-09,0.00450337125108498,3.1130665722088e-05,4.40619762898109e-15,1.89741782047528e-05,2.18385765448677e-10,-0.000114118340072211,-0.000178664946435483,-0.0121944118482199,-6.41687154927988e-16,4.82990799947566e-05,0.00932428262832457,1.7870436131803e-05,0.000368447705965018,-3.45285712588868e-05,5.29553732657431e-08,-0.148225840719163,0.0160507980733238,3.65501799225203e-15,3.10312466446203e-07,-0.0011590758501476,-0.34463917435558,-4.28662911891245e-06,-1.10755133346263e-14,2.98124457567484e-08,1.40751253283985e-15,-3.81352337818315e-07,2.46655141539148e-15,3.78030901087421e-15,-8.51523842274484e-09,-1.92908758952571e-15,2.11378601905538e-08,1.972429813802e-07,-1.58050894416579e-15,-2.47307090318911e-15,3.83804987443924e-15,-1.80610730685905e-07,9.17830500456705e-06,4.54892693455213e-15,-4.17569707786905e-09,-2.48344976664052e-15,7.63750642075464e-08,-3.81313312326611e-08,1.83934657957158e-08,-8.30483130995535e-15,3.16231179586936e-14,-2.30875041020136e-14,6.77103965674959e-15,-1.00488012563412e-06,1.94956008808545e-14,4.74579356183041e-14,-1.76472642497283e-13,-0.707106781186546,-1.22256309880762e-08,1.50475332516616e-06,-2.4875778367908e-14,-8.58262195651376e-15,2.39965252041073e-15,-7.61627608134565e-15,-2.69321992094419e-08,-3.34033188788747e-15,5.17684202024889e-15,-2.96937524633276e-15,1.24438259055717e-15,-9.89159287216333e-15
"t57",-0.0456452156100315,-0.0337995345990148,-0.00412619356757326,-0.000770828180729555,-0.177304069664911,-0.00120072260947392,0.206793680012851,-0.129275862695843,-0.0096726788129036,-0.00508212555463794,-0.0225223731133488,-0.00970444323097688,-0.00171639692679349,-0.282308900970828,2.40250909092532e-05,0.00092825691819732,0.0163103640184391,-0.00960026390396053,-0.000188416874263187,-0.0310896210596445,-0.000254140220906512,-0.000182630382607594,-0.00071575510647709,0.00120639845221764,-0.00265298301055209,-0.000885115329023746,0.000860753928888373,-0.00170067071729954,0.000532101512389703,0.000656801598420679,-9.12496945006526e-05,-0.000457345403323533,0.00025120715908815,-7.63917732032267e-05,-0.000450036114181225,0.00108443055396951,-0.00113740444904506,-6.82053938077889e-05,-0.000437276023565018,-0.000243652645513966,6.84719342669041e-06,-7.79678832601589e-07,0.00802083370600548,2.43542797224556e-05,9.41710100956724e-07,-3.18618707321535e-05,-1.94807934196633e-06,1.9362329611243e-05,-2.90702266125133e-15,-0.040675104885806,6.40870640177393e-05,-0.00199041017448746,-0.00119416868805429,8.87733069688326e-08,-8.268889020156e-08,-0.000807404315116775,0.00670936259047319,-0.000611897608635101,-0.0204906551488985,-0.397902112885799,-0.0612023946366679,-0.550219461070784,0.0101042292056226,0.00590835121461029,-5.12748618347842e-16,-0.00966977778680852,-0.000226339726945276,-1.02426786341269e-05,0.00372840257298486,-0.000646914814515477,0.027110141614394,-0.000354602060676662,-0.0169305898546595,2.40655596724068e-05,0.00120177208447137,-0.000602418004325053,0.415780579725632,-0.00256178117261336,6.93616003956389e-06,1.26887565925426e-06,-0.0181478413352353,-3.94848232855588e-08,0.05868366513996,0.000388474046645847,7.25114412958305e-15,0.00015182893723293,1.63998329863272e-09,-0.000823713965593719,-0.0010978781758075,-0.0614884712554045,-1.67408450668056e-15,0.000191679644096453,0.0352817396777621,6.56994377202739e-05,0.00114589546575325,-0.000102889717280634,1.51489374399741e-07,-0.406685662736565,0.0430286454754525,8.4329871971289e-15,6.55343029352157e-07,-0.00198326866419459,0.00847795479759616,6.73123405103091e-07,2.71047572914217e-16,-6.17750498250235e-08,3.18836284412876e-15,1.48789285602741e-06,2.31568794451482e-16,1.94168072094953e-15,-5.28264818378092e-08,-1.43979967515198e-15,1.24153553570037e-07,1.08401934349051e-06,2.46180323350656e-15,-1.32508648591825e-15,-2.36590680338413e-15,-8.19740067965151e-07,4.10762377592562e-05,-3.10060041806361e-15,-1.80916136089481e-08,-5.59814830983092e-16,3.06490217007776e-07,-1.41237201463289e-07,6.78157603914595e-08,-1.83306020330249e-15,4.11838770914084e-16,3.06557467475472e-15,8.37778160085812e-16,-3.32479132644412e-06,5.22858127808235e-16,1.13825464622335e-15,-5.64885066887762e-16,3.13440973021008e-15,-3.84065731296737e-08,4.72547827491798e-06,-4.64400801400193e-16,-7.33203690672667e-15,-2.73002505543455e-16,1.94629110567129e-15,-7.5648448516229e-08,-2.89014440717008e-16,-2.70908164548646e-16,1.49961602607137e-15,2.74254702659147e-15,-3.00096875484346e-15
"t101",-0.0456624180716991,-0.0338040867256157,-0.00412618781107868,-0.000769820305901433,-0.176905134804503,-0.00119343178194742,0.205406237228206,-0.128377930146083,-0.00938309179531513,-0.00490235278521132,-0.0210953243058258,-0.00722617988868165,-0.000139487255442091,0.367413066118666,0.00553046009441698,0.0025784807982632,0.0276132139768898,-0.0147231301075018,-0.000249379251664096,-0.0412077651219842,-0.000343030505614726,-0.000249111510787116,-0.000987564180743217,0.00175004110342888,-0.00386108963278501,-0.00129526002920267,0.00142222485741887,-0.00282918280772696,0.000920165096413727,0.00123675503376267,-0.000195522283423218,-0.00117018939922192,0.000644782217017079,-0.000221671491678787,-0.00142891901731623,0.00358887438585787,-0.0039518291481079,-0.000246545957368698,-0.00244641797476715,-0.00315229377141687,-0.000143733444616681,4.26127713613899e-06,-0.0222994140074077,-6.06482993677227e-05,-1.57379722346164e-06,3.88323027506932e-05,2.18695352081699e-06,-7.68731091672301e-06,3.07754934606754e-15,0.0155489962563007,-1.88991035532927e-05,0.000564453439760155,0.000332116549625144,-1.91196646644953e-08,1.76908684632786e-08,0.000126441332481176,-0.000975256132473103,5.20841064645707e-05,0.00149164049945951,0.0229578920296941,0.00253905573369254,0.0221400531545144,0.000406451146674729,0.000409766261928657,1.21192158175355e-16,-0.000757830859602236,-1.84763112448851e-05,-9.20840229944542e-07,0.000342011728182984,-7.07871387200189e-05,0.00298895131895156,-4.12757528657538e-05,-0.00204490217731969,3.09177695737362e-06,0.000154280273394983,-7.72780020956641e-05,0.0531348997102678,-0.00032270002875767,8.48827207717348e-07,1.47339505385945e-07,-0.00204019583605487,-4.38598196794768e-09,0.00548968397697827,3.54539647702645e-05,-1.00301711380979e-14,7.68840143700848e-06,6.66736099682779e-11,-2.76477316255094e-05,5.18483290626731e-06,0.0056438106886188,-2.94906615189833e-15,-0.000154872027848435,0.50514377371831,6.86569124555926e-05,3.55532087974127e-05,2.21399330952237e-06,-9.6279704635837e-09,0.0413729163424,-0.00522811355521297,2.48731733270083e-15,-1.94043919789561e-07,0.000845897249393299,-0.00206749049454992,-6.43467729910199e-07,-5.17204690169383e-15,1.04858360937753e-07,2.41696220888438e-15,-3.25166727865815e-06,-1.63400876352324e-16,-4.31944080731269e-15,-2.22491928922266e-06,1.12325737058031e-14,5.82584559171709e-06,0.000104686213266212,2.36757208205464e-14,1.25933049306144e-16,-0.707106781186549,5.46755448187569e-06,-0.00022946945902304,2.83710977056289e-14,6.79355035698491e-08,1.60500054301589e-14,-4.38879601410686e-07,4.76017110247145e-08,-2.00212457321682e-08,-1.81499166693857e-15,-3.16257785250716e-15,-1.94413170312779e-15,6.04326762611319e-15,-1.11883894674652e-06,4.77659529049849e-15,-1.67966370243238e-14,1.16695682894862e-15,2.36407066842068e-15,-1.88795546666651e-08,2.32701364079765e-06,-1.21110916628002e-15,4.92176405747616e-16,5.45360957917892e-16,-5.88312159649689e-15,-5.11228287569172e-08,-1.79780906803206e-15,-2.44251093396706e-15,-6.54880541082855e-16,1.04557271365583e-15,-1.41889873003423e-15
"t102",-0.0456624180716991,-0.0338040867256157,-0.00412618781107867,-0.000769820305901442,-0.176905134804503,-0.00119343178194744,0.205406237228206,-0.128377930146083,-0.00938309179531516,-0.00490235278521126,-0.0210953243058259,-0.00722617988868165,-0.000139487255441717,0.367413066118666,0.00553046009441729,0.00257848079826335,0.02761321397689,-0.0147231301075016,-0.000249379251663902,-0.0412077651219841,-0.000343030505614828,-0.000249111510788006,-0.000987564180743521,0.00175004110342885,-0.00386108963278485,-0.00129526002920251,0.00142222485741829,-0.00282918280772716,0.000920165096413679,0.00123675503376129,-0.000195522283422692,-0.00117018939922135,0.000644782217017462,-0.000221671491678546,-0.00142891901731576,0.00358887438585628,-0.00395182914810815,-0.000246545957369178,-0.00244641797476647,-0.00315229377141709,-0.000143733444616832,4.26127713595855e-06,-0.022299414007407,-6.0648299369197e-05,-1.57379722638228e-06,3.88323027508836e-05,2.1869535219729e-06,-7.68731091559792e-06,2.01756095103257e-15,0.0155489962563006,-1.88991035526358e-05,0.000564453439759041,0.000332116549626977,-1.91196676265293e-08,1.76908700461924e-08,0.000126441332480971,-0.000975256132473283,5.20841064658846e-05,0.00149164049946041,0.0229578920296932,0.00253905573369229,0.0221400531545112,0.000406451146673296,0.000409766261930785,5.65036707781295e-16,-0.000757830859603088,-1.84763112425351e-05,-9.20840229883788e-07,0.000342011728181208,-7.07871387211742e-05,0.00298895131895009,-4.12757528669139e-05,-0.0020449021773183,3.09177696227964e-06,0.000154280273393661,-7.72780020952696e-05,0.0531348997102784,-0.000322700028757478,8.48827204743569e-07,1.47339512358867e-07,-0.00204019583605619,-4.38597884224491e-09,0.00548968397698165,3.54539647701959e-05,-1.46410661372443e-14,7.68840143664903e-06,6.66742822478282e-11,-2.7647731626373e-05,5.18483291241986e-06,0.00564381068861975,-1.91748313531691e-15,-0.000154872027850716,0.50514377371831,6.86569124553734e-05,3.55532088014641e-05,2.21399330966185e-06,-9.62796849620418e-09,0.0413729163424093,-0.00522811355521447,-1.26838321499723e-15,-1.94043923702841e-07,0.00084589724939426,-0.00206749049454008,-6.43467715383513e-07,1.02794599538614e-16,1.04858349495697e-07,3.67897338068353e-16,-3.25166728165751e-06,4.79569851305729e-15,5.65798733291074e-15,-2.22491927956407e-06,-1.04300485320952e-14,5.82584560819797e-06,0.000104686213262621,-2.46370157985186e-14,-3.75926083963155e-16,0.707106781186547,5.46755449036435e-06,-0.000229469459030082,-2.9120872182481e-14,6.79355054031052e-08,-1.81147524598519e-14,-4.38879571986807e-07,4.76016901864588e-08,-2.00212530147268e-08,4.43851290760825e-16,3.3604686561752e-15,5.59118644401941e-18,-7.1313465554622e-15,-1.11883894655201e-06,-3.04524041882295e-15,1.62963424040973e-14,8.31817530217585e-16,1.99283984456165e-15,-1.88795575965941e-08,2.32701364274203e-06,9.93258943247895e-16,3.94135785176632e-17,-1.24663814078766e-15,8.58447219314968e-15,-5.1122827960121e-08,1.97705569821225e-15,1.94116427119986e-16,-8.09511777133559e-16,1.67806976538736e-15,-4.30460554502432e-15
"t121",-0.0457135245951616,-0.03388666959704,-0.0041372306111208,-0.000772837034604563,-0.177695484256059,-0.00120046875235739,0.206653660570053,-0.129165617475023,-0.00947134186028548,-0.00495059255670395,-0.021335710201101,-0.00733271812293248,-0.000141796193341352,0.373712095047377,0.0056278081056242,0.00262561583375296,0.028156800596693,-0.0150268453682684,-0.000256411964217471,-0.0425304745968488,-0.000355817854209127,-0.00025892029189914,-0.00102845443498559,0.00183527693675811,-0.00405076340794359,-0.00135978646936326,0.00151120184062992,-0.00300788961934678,0.000981301988643254,0.00132677567115321,-0.000211300659051209,-0.00127450297001545,0.000702343620314271,-0.00024248630824186,-0.00156726462297065,0.00394074873444754,-0.004344651638568,-0.000271310160197008,-0.00271323619865605,-0.00352160656807166,-0.000161865848442869,4.83613079542373e-06,-0.0255341230537347,-6.95808613363864e-05,-1.82082793354282e-06,4.53007741450697e-05,2.55735568378883e-06,-9.33131750244978e-06,2.58785783253523e-15,0.0189030816466835,-2.3218314654934e-05,0.000694549916525621,0.000408984568501221,-2.37854154392326e-08,2.20136822271566e-08,0.000159199145663984,-0.00123119699015089,6.68820759165066e-05,0.00192351451497229,0.0297707639603986,0.00331439036136237,0.0289163939620899,0.000557402876188267,0.000579298502803949,-7.32893767799651e-17,-0.00108467473346265,-2.65764597546871e-05,-1.34335664674655e-06,0.000500673424301375,-0.000108294308565338,0.00458536692431016,-6.48726906044082e-05,-0.00329026175021665,5.62011703545251e-06,0.000283931138620748,-0.000143197430502618,0.100579489769599,-0.000639865280098856,1.79046405495784e-06,3.387335800229e-07,-0.00491341531198902,-1.07383115925429e-08,0.0166444472676047,0.000110633623739962,1.00683350545694e-14,4.55922411844481e-05,4.97647725953557e-10,-0.000251777268940895,-0.000349129770033729,-0.0218165908039306,1.95449714380039e-15,0.000184490414389899,-0.491900351602444,-5.92494661251281e-05,-1.49034748155641e-05,-7.58931826344294e-07,2.69010170090917e-09,-0.00921070939351931,0.00101512999055437,-3.55491244819914e-16,-1.73743024681466e-09,9.04630018367104e-05,-0.000646711869572204,-2.06416692530635e-07,1.18906384659435e-15,4.09888417813739e-08,-1.07043472684943e-15,-1.36917998074314e-06,-7.82473266296185e-16,-7.09729201439825e-16,-1.3396383036685e-06,-3.57969359488822e-19,3.55323743744518e-06,6.49291208712505e-05,7.17484664632601e-16,1.23315386576178e-15,1.58252995363803e-14,3.58431168839034e-06,-0.000151106096051532,1.13521938636214e-15,4.52090143802874e-08,-8.67159160984814e-16,-2.99725570295243e-07,3.3444902821558e-08,-1.40903466069818e-08,8.54603055659223e-15,-3.40649234094188e-15,2.7248431136503e-14,-6.5668819073073e-15,-8.1938518548686e-07,7.80258601851209e-14,-0.707106781186547,4.40010902602514e-14,-4.55881498122667e-14,-1.40959707360943e-08,1.73763928468597e-06,8.38691984769473e-15,1.69123036900796e-14,-1.84857353965228e-15,5.47475944656077e-15,-3.97806536016332e-08,8.09656335814808e-16,-2.74102487285661e-15,3.35736908033448e-16,4.2386068328366e-15,-5.10541954236591e-15
"t122",-0.0457135245951616,-0.03388666959704,-0.00413723061112081,-0.00077283703460457,-0.177695484256059,-0.00120046875235738,0.206653660570053,-0.129165617475023,-0.0094713418602854,-0.00495059255670401,-0.0213357102011009,-0.00733271812293227,-0.000141796193341537,0.373712095047377,0.00562780810562447,0.00262561583375304,0.0281568005966929,-0.0150268453682685,-0.000256411964217556,-0.0425304745968491,-0.000355817854208909,-0.000258920291899214,-0.00102845443498539,0.00183527693675799,-0.00405076340794418,-0.00135978646936343,0.00151120184063021,-0.00300788961934756,0.0009813019886437,0.00132677567115353,-0.000211300659051346,-0.00127450297001592,0.000702343620314602,-0.0002424863082417,-0.00156726462297103,0.00394074873444795,-0.0043446516385696,-0.000271310160197424,-0.00271323619865653,-0.00352160656807237,-0.000161865848442619,4.83613079608502e-06,-0.0255341230537347,-6.95808613365483e-05,-1.82082793537518e-06,4.53007741447537e-05,2.55735568378886e-06,-9.33131750198401e-06,2.34001565148355e-15,0.0189030816466818,-2.32183146554401e-05,0.000694549916525815,0.000408984568502051,-2.37854153245543e-08,2.20136819368285e-08,0.000159199145663577,-0.0012311969901512,6.68820759164369e-05,0.00192351451497087,0.0297707639604,0.00331439036136244,0.0289163939620922,0.000557402876189316,0.000579298502802865,9.4873432496861e-17,-0.00108467473346236,-2.65764597546514e-05,-1.34335664775095e-06,0.000500673424299151,-0.000108294308562969,0.00458536692431076,-6.48726906055863e-05,-0.00329026175021663,5.62011703496741e-06,0.000283931138620808,-0.000143197430503773,0.100579489769599,-0.000639865280098973,1.7904640573996e-06,3.38733578832262e-07,-0.00491341531198724,-1.07383087156094e-08,0.0166444472676045,0.000110633623741005,1.14110110249754e-14,4.55922411859765e-05,4.97647394318645e-10,-0.000251777268941162,-0.000349129770030957,-0.0218165908039305,2.90236361391218e-15,0.000184490414389413,-0.491900351602444,-5.92494661250003e-05,-1.49034748140978e-05,-7.58931826012528e-07,2.69010545896948e-09,-0.00921070939351988,0.00101512999055316,-1.42592984061059e-15,-1.73743012030277e-09,9.04630018393004e-05,-0.000646711869574712,-2.06416693836283e-07,3.14990815018713e-15,4.09888382186732e-08,-1.56553882256445e-15,-1.3691799829025e-06,-3.30257338264322e-15,2.799077090379e-16,-1.33963830263894e-06,-6.43636667744997e-16,3.55323743391439e-06,6.49291208437638e-05,2.2484832320538e-15,-1.12906846819878e-15,-1.77641511289587e-14,3.58431169334957e-06,-0.000151106096051997,-9.64534192515206e-16,4.52090157031563e-08,3.19839171319031e-15,-2.99725568186983e-07,3.34448978256536e-08,-1.40903487846058e-08,-8.33398021952484e-15,4.53950821225811e-15,-2.40015707301606e-14,7.32036941921001e-15,-8.19385026264822e-07,-8.0927669797305e-14,0.707106781186548,-4.57798720160975e-14,5.07271670209176e-14,-1.40959497818115e-08,1.73763930481573e-06,-6.58241389772999e-15,-2.17486110572776e-14,1.96105229605479e-15,3.61860532726559e-15,-3.97806491843566e-08,-4.70879080489715e-16,1.75315899020328e-16,-1.33405894370693e-16,8.6816547078995e-16,-3.53967111361587e-15
"t16",-0.0428799801231797,-0.0293257529082115,-0.00352777203102492,-0.000606945903322941,-0.134303312479768,-0.000815720370934769,0.138485261355373,-0.0861283892892697,-0.00469466737531952,-0.0023427756221077,-0.00839786729026698,-0.00165248798620418,-1.93112728556877e-05,0.0401077080437308,0.000478667469278346,0.000137112880165727,-0.000431186989578758,0.000904778508507058,0.000105040582648341,0.0247557665749656,0.000285990017304776,0.00023075310296495,0.00100235809671944,-0.00232138602432355,0.00518942092232345,0.00177833804160272,-0.00268538269967145,0.00540883255291995,-0.00187617220641772,-0.00281976155079707,0.000502689012113548,0.00335945135387377,-0.00185400680481187,0.000672806573082353,0.00447877605161725,-0.0113973951694892,0.0127298477174323,0.000802759070103019,0.00865597030148803,0.0119618552422929,0.000585095362316757,-1.84538360448305e-05,0.103076482811234,0.000284137501599663,7.79322699334735e-06,-0.000202259832883843,-1.15508862410138e-05,4.89526767528075e-05,-1.38326890076344e-14,-0.099673390272328,0.000126582434136628,-0.00380468998350488,-0.00224565836556813,1.34459661758852e-07,-1.24532990697113e-07,-0.000928811114567895,0.00723076301790337,-0.000408527665680028,-0.0118550570880116,-0.185608055832762,-0.0209353894896155,-0.182840332283446,-0.00381797008491383,-0.0041241110983157,-2.29352502605863e-15,0.00782882835643868,0.000192829072892687,9.88532930184519e-06,-0.00369645075866278,0.00082934376369737,-0.0351865497821094,0.000505992011937197,0.026021033694927,-4.66787965330085e-05,-0.00236610994003397,0.00119540856933731,-0.843844588116183,0.00541624665789129,-1.5281814976791e-05,-2.90983462602943e-06,0.0422761374937933,9.24243761547322e-08,-0.142656484685599,-0.000946902054098062,8.89219253785711e-15,-0.000373096986023347,-4.00951761386435e-09,0.0020044741320858,0.0025775940039599,0.129526140674361,-3.54447092792203e-16,-0.000281800182804998,-0.0321237168892589,-7.21471163379702e-05,-0.000189149077117197,-1.35860374319879e-05,6.58786515525741e-08,-0.310364827531886,0.0410048987076991,3.36641766162371e-15,2.0537012652981e-06,-0.0103191881375463,0.035148589323606,1.11035853441172e-05,1.28337241967674e-15,-2.08789465842085e-06,8.47117390023342e-17,6.94845328318091e-05,-2.49818310510538e-16,3.26414807653008e-16,9.80878144061822e-05,-1.45993456054834e-15,-0.00027228882374538,-0.00532939283753647,-1.99980713896744e-15,-1.13033823024244e-15,7.73994034209866e-15,-0.000416451331166471,0.0182908879070021,-2.03963179138939e-15,-6.10097862156516e-06,6.40823163713393e-16,5.92470064076291e-05,-1.68101345745634e-05,7.86667803704453e-06,-8.4459210867844e-16,4.59397742448937e-16,1.192962075728e-15,2.77088114022311e-18,-0.000221935810961592,4.17059625040076e-15,3.72070026875653e-17,1.66693812363157e-16,4.08609648581228e-15,-2.02518849472333e-06,0.000248784183974343,-5.92658591825586e-16,1.44649582352771e-15,-7.78793492860419e-17,3.61012490575626e-15,-2.51737953608635e-06,7.37062137226198e-17,-1.04308550806258e-15,-1.01500790211348e-16,2.24241425343242e-15,-3.29677192012454e-15
"t11",-0.039006490229182,-0.0226356936962383,-0.00262255475477599,-0.000343437462036599,-0.0632773895257299,-0.000133906152822686,0.016474233922289,-0.00882442900488993,0.005723286703607,0.00350492640247478,0.0238516054106385,0.0181684569415838,0.00288647687219904,0.00691593394486339,-0.00775068015207316,-0.00581715486460932,-0.0905160560653408,0.0569497697305668,0.00272663793048758,0.820680835069361,0.0269194287772518,0.215170245544974,-0.114404582553555,0.0493432693237555,-0.105199458557881,-0.0334812828863804,0.021771157671731,-0.0427129461734587,0.0130013167768332,0.0158762236458307,-0.00231724717584078,-0.0131371691447528,0.00723399196820783,-0.00243800632823727,-0.0155631038994824,0.0389509412467209,-0.0427397213175676,-0.00265994036269763,-0.0260687305388139,-0.0335686016308709,-0.00154592718982589,4.67336633808481e-05,-0.253074322692871,-0.000694640643625981,-1.8897153365148e-05,0.000494877366082414,2.8431590429435e-05,-0.000178612773477874,5.96114729443177e-14,0.377245110466125,-0.000688237391227654,0.0224103730021902,0.0138182951973555,-2.52489472119431e-06,2.48906185829706e-06,-0.007368112378871,0.0408900225429851,-0.000553088452495627,-0.0112260680337129,-0.0906945785510139,0.000848689245991423,0.0159769790326588,-0.00406579535595723,-0.00215231153093129,-1.64497135357407e-16,0.00329635787048114,7.49578899556642e-05,3.10849002125009e-06,-0.00110644144206364,0.000141572292115534,-0.0058150040537614,6.36227713235891e-05,0.0025406106946699,-1.24288449312752e-06,-5.44011250583282e-05,2.52603105283262e-05,-0.0134752463281264,3.95215299412647e-05,7.50085594799859e-09,2.05838754822522e-08,-0.000395929781196174,-9.2705456984155e-10,0.00207825127321762,1.40425958658397e-05,-5.33427468862868e-17,5.67384811521626e-06,5.90931661379767e-11,-2.8768983427141e-05,-3.0800500893823e-05,-0.000882178073945299,-7.67612423472696e-16,-1.08079356426243e-06,5.39988298671118e-06,-5.98143771827317e-07,-1.25730269900187e-05,8.92835173114476e-07,-8.01347247504254e-10,0.000226804000463242,0.000113354021336639,2.333599540362e-16,3.79248274973926e-08,-0.000263313801662722,-3.85106839474316e-05,4.93514996567052e-07,5.57685850428145e-16,-1.17952760257108e-07,-7.30830393371357e-17,4.29378712134224e-06,4.62403022975341e-16,3.90200165620625e-16,1.09816239991247e-05,-1.88940462258992e-16,-3.13809996550973e-05,-0.000638569708686437,-8.38928014400669e-17,5.60828869644358e-17,1.65446808078901e-16,-5.73252020482207e-05,0.00254808137632999,-2.16991334180343e-16,-8.74596654154254e-07,6.59390767828139e-16,9.14126155753304e-06,-2.82687338232884e-06,1.32985437959124e-06,-1.9685069067253e-16,2.18652633805349e-16,5.15405207368221e-16,1.66441032522657e-16,-4.28370774781755e-05,4.46218617855074e-16,4.62107164586482e-16,-1.03512556821648e-16,1.72986098784017e-15,-4.19132051574623e-07,5.15137563478055e-05,1.89164410568689e-16,1.1041259487748e-16,2.1209856717201e-16,1.88669177133443e-15,-6.13682384796627e-07,-6.54240172555376e-17,-1.20127797858633e-15,4.28078414540187e-16,1.88363860973614e-15,-3.41853414043473e-15
"t12",-0.0383411430867772,-0.0217933504894764,-0.00251565157865378,-0.00032294828604126,-0.0589744397550091,-0.000121894823694433,0.0149523600833674,-0.00800083551957048,0.00490550669575292,0.00298104907104427,0.0197255654261501,0.0141072507437576,0.00216256183717631,0.00511990156090797,-0.00568447003303039,-0.00420707402669937,-0.0635508959434398,0.0391780768896099,0.00156675124645201,0.423904382055973,0.0118342062356403,0.0879082912081612,-0.0433059401004609,0.0133704418139196,-0.0278574769767722,-0.00852531740059196,0.00148908516090385,-0.00254651894104785,0.000156788974338202,-0.00126623283810557,0.000448615727716294,0.00413002238454298,-0.00228762532013651,0.000931530625278139,0.00659126189431383,-0.0171740515014729,0.0196656422637391,0.00126311016123968,0.0155467576274767,0.0238250929020055,0.0012908386024364,-4.46779949439153e-05,0.277253592062043,0.000782161561306845,2.37691838639235e-05,-0.000686779152055825,-4.05263933022697e-05,0.000359796426246661,-1.21141826009689e-13,-0.76901294994556,0.00151736026589142,-0.0499690475911699,-0.0309830288840699,6.06824864250227e-06,-5.99240948950465e-06,0.019115192065583,-0.107813579930684,0.00160822234794216,0.0333946856255758,0.277873512616649,-0.00268984068389577,-0.050774966638929,0.0160960839546193,0.00957147843973948,5.804497838883e-16,-0.0153133958033322,-0.000354203276592338,-1.53944280253915e-05,0.00554132749403755,-0.000809595984324496,0.033513792023431,-0.000391530990773737,-0.0165972331321275,1.05647557750431e-05,0.000473230147278465,-0.000222520130660193,0.123313636372632,-0.000391045304360832,-8.16035046301204e-08,-2.51876095228048e-07,0.00513154328838571,1.22520890870259e-08,-0.0341688534139833,-0.000236772042529199,-9.54271384134842e-15,-0.000142231601857991,-1.61943624855962e-09,0.000839120874110669,0.00124734375745796,0.0753140071766882,1.57660141113611e-15,-0.000222828517347375,0.000666203798293862,-5.95398424858057e-05,-0.000606841848357891,3.84281020108556e-05,-3.13796434246322e-08,0.00816060125761179,0.00390883663846501,-1.15836733339184e-15,9.60168497447081e-07,-0.0057054961645291,-0.000585662203901841,7.39521060658942e-06,-1.79618809859289e-15,-1.54558773551648e-06,-5.80708973048325e-16,5.29578966448347e-05,-3.26673731628334e-16,9.47789777027209e-18,8.95458493936256e-05,9.98759011881678e-16,-0.000250711831402246,-0.00496364657329119,-2.33407570190321e-15,-3.97442557416433e-16,-1.15301689259114e-15,-0.000403994231424828,0.0178060259880928,-4.15299863397734e-16,-5.98918165903203e-06,3.82135208348463e-16,5.9423424772324e-05,-1.72882464267958e-05,8.10276477189901e-06,-3.23459453878635e-16,2.37770651991701e-16,4.21870330941413e-16,-2.87984288709316e-16,-0.00023755612579684,-1.1711944596439e-15,-1.09973315253208e-15,5.78879580980059e-16,4.22312727681863e-15,-2.211842360816e-06,0.000271752474026688,5.37126893923642e-16,-2.75168143103152e-15,-6.81383778700735e-16,3.31764100591654e-15,-2.88182722463189e-06,6.0210635578835e-16,-1.50506599698037e-15,-1.65064607774754e-15,2.27224195527686e-15,-4.09528725653943e-15
"t56",-0.060728922676051,-0.150051305759136,-0.0480584085224769,0.000650412696941969,0.0751547010046507,5.13589498786849e-05,-0.00417341198177942,0.00165592461259986,-0.00133218148311434,-0.000706439624001972,-0.00260955411291737,0.0766336511558257,-0.000349250510346526,-0.000307649959606673,-0.000239532155222447,-0.30456932789913,0.0145781815301876,-0.00661280174840954,-7.59080080366647e-05,-0.0106200256825651,0.0128195965585498,0.000324370996410005,-0.000411415255443911,0.000367537931730673,-0.000792220578340475,-0.000255773491955906,0.000110637922119289,-0.000204898685370416,3.98032231877503e-05,-1.72406434530744e-05,1.71191265683239e-05,0.00019898465837365,-0.000110485375314323,4.84682990934854e-05,0.000356265630693506,-0.000941828263082187,0.00109489757035448,7.11043373630182e-05,0.000944363788223462,0.00152720205863312,8.66597087832101e-05,-3.10498397235321e-06,0.0198456424545526,5.62708109520861e-05,1.73795002729462e-06,-5.05302882221387e-05,-2.98109402349936e-06,2.03537193936635e-05,-7.15173377085095e-15,-0.0419580731836113,5.0444143574248e-05,-0.00141642284635623,-0.000795169954757556,-2.14791618259329e-07,2.28139217005861e-07,-0.0118577606578847,0.584889440740652,7.17512924845138e-05,-0.679698867755339,0.107517100660468,-0.00236532152498163,-0.0293510022301976,0.0041603720754396,0.00270738843150216,9.65594773548397e-16,-0.00465265104585636,-0.000111826968225105,-6.23468188438269e-06,0.0323415185969817,-0.00146876064068157,0.129352383742675,6.67378881975254e-05,-0.000463886090816913,2.10008632298773e-06,9.66195545349612e-05,-4.59397929850817e-05,0.0258007004475402,-6.32692644576564e-05,-2.73737468733736e-07,-2.26995820213757e-07,0.0345131224274553,6.08085852944877e-09,-0.14046527523227,-0.00180103520903399,8.95811202994423e-15,9.11862169942702e-05,8.47477509276442e-10,-0.000391096589113301,-0.0373089841545733,-0.0134106911458778,-3.3450428464967e-16,0.00507990724793616,-1.43828718822455e-06,-0.000809478184916741,3.98809820343536e-05,-1.27821834727569e-05,1.70461685258869e-09,-0.000235283801220369,-0.000216287506488004,7.44536274159526e-18,-3.23989769599594e-08,0.000141069497848263,1.43627329235876e-06,-2.22599680512159e-08,4.49372567083889e-16,-7.57330987614627e-09,-2.53400094761864e-16,4.47457155540202e-07,9.21048710780789e-16,4.1575569686291e-16,2.8712371573156e-06,-5.59580957774448e-16,-8.32206081240013e-06,-0.000172262769784843,1.69429925436804e-15,2.15671127587645e-16,7.50388307916922e-16,-1.61805520475726e-05,0.000721317048307174,-6.46351690208028e-16,-2.49174750252842e-07,6.60207439968856e-16,2.63885784171475e-06,-8.24562580793869e-07,3.2370402375595e-05,-9.92067248548907e-16,1.50254913435947e-16,5.21526423405608e-17,1.72012118472447e-15,-0.00191913970424971,1.15334711908636e-15,-6.09247756893964e-16,-2.52708282201148e-16,3.83029663871132e-15,-1.21730250867126e-07,1.49615354036674e-05,4.27231234141858e-16,-1.15933701333428e-15,4.36150180323823e-16,1.86548919780019e-15,-1.76534293951523e-07,2.94895869902997e-16,-5.85361998237624e-16,1.3217475822708e-16,2.13204218942675e-15,-3.35535012765984e-15
"t142",-0.0616296858505506,-0.155002466459587,-0.0498014842622179,0.000685590457201463,0.0798267878066855,5.56646456796551e-05,-0.00453474006773781,0.00180091232674127,-0.00152040154669714,-0.000811603135006418,-0.00307106910793072,0.095204996412866,-0.000447411901165579,-0.00039818350024424,-0.000312519029781385,-0.402178534334416,0.0197462775770398,-0.00911499628178143,-0.000122064402695291,-0.0187003090050605,0.0258707175953188,0.00069609469071709,-0.000940867932896976,0.00110378060151042,-0.00242314169828782,-0.000806997512962843,0.000848652054326101,-0.00168782113771123,0.000548951005951073,0.00074094474463505,-0.000118344427993139,-0.000718947778937708,0.000396246601502391,-0.000137535898030656,-0.000892321970287261,0.00224747105791643,-0.00248263139354724,-0.000155270767412921,-0.00157494772476257,-0.00207638908995444,-9.73667012232846e-05,2.97423282773355e-06,-0.0161687647626089,-4.43659539170087e-05,-1.19911881890052e-06,3.09196707122298e-05,1.76498410887724e-06,-7.73955914006167e-06,2.11757341924247e-15,0.0157024999008115,-1.69704729559745e-05,0.000469148242714118,0.000261354461726688,6.40376478436176e-08,-6.78508884506329e-08,0.00316472496091833,-0.152405866152959,-1.61067111489325e-05,0.14719538246582,-0.0222090114112085,0.000462262782821173,0.00571048782963148,-0.000543369586233435,-0.000275139627704414,1.06144662018114e-15,0.00042564003384973,9.79918072494035e-06,4.81871394935711e-07,-0.00242161332995097,7.03870881434673e-05,-0.0060049799350566,-2.27796608884469e-06,1.08612404659067e-05,4.12335541302399e-08,2.2388931026919e-06,-1.15254316188394e-06,0.00079581174755659,-2.68882991711184e-06,-1.54780446406583e-08,-1.68323293013893e-08,0.00286499280581544,5.23411877772131e-10,-0.0173979339189751,-0.000232044633297499,1.05401798400351e-14,2.31616021793488e-05,2.63883506648728e-10,-0.000144136004276513,-0.487699347588331,0.00189703782783873,-3.60785333540853e-15,2.54112055034165e-05,-2.61162388577618e-08,-2.0316462397144e-05,2.211139249167e-06,-7.83264091855125e-07,1.13052377477732e-10,-1.67066689215048e-05,-1.58814934512104e-05,-2.08831060451771e-15,-2.99547709606772e-09,1.45462332704905e-05,1.87819889468277e-07,-2.93934097516154e-09,1.85003722388037e-15,-1.09195867112285e-09,-1.89652119970206e-15,6.71222101727894e-08,-2.61136657934568e-16,-3.36448099330546e-16,5.65866369259102e-07,-8.42811739225888e-16,-1.66274744397884e-06,-3.50591201511881e-05,-2.42584953887115e-15,8.63921850816601e-16,1.74971661674616e-15,-3.51920238471962e-06,0.000157791864022123,-6.99889247815042e-16,-5.52678578673093e-08,-9.95538200607269e-16,6.0661251986587e-07,-1.97727763269674e-07,7.78243635925753e-06,2.09231130944335e-15,1.74428523055626e-15,1.51703385320803e-15,1.02232130071048e-15,-0.000492847218502809,6.25730172895208e-15,1.40543987226962e-15,-2.7846539354015e-15,-1.16594262064364e-15,-3.23787312850371e-08,3.98057935160923e-06,2.59298744953256e-15,-2.08093871372611e-14,-5.39137926550533e-15,7.07369765305298e-15,-5.10558165418604e-08,-2.78697296873926e-13,3.16510465561568e-13,0.707106781186547,-1.48126837824923e-14,-3.66400455376149e-15
"t143",-0.0616296858505506,-0.155002466459587,-0.0498014842622179,0.000685590457201444,0.0798267878066856,5.56646456796178e-05,-0.00453474006773778,0.00180091232674129,-0.00152040154669708,-0.000811603135006375,-0.00307106910793076,0.095204996412866,-0.00044741190116533,-0.000398183500244138,-0.00031251902978125,-0.402178534334416,0.0197462775770397,-0.00911499628178135,-0.000122064402695542,-0.0187003090050605,0.0258707175953193,0.00069609469071654,-0.000940867932896924,0.00110378060151071,-0.00242314169828873,-0.000806997512963156,0.000848652054325797,-0.00168782113771042,0.000548951005951096,0.000740944744634281,-0.000118344427993875,-0.000718947778935978,0.000396246601502335,-0.00013753589803061,-0.000892321970286779,0.00224747105791641,-0.00248263139354741,-0.000155270767412925,-0.00157494772476237,-0.00207638908995512,-9.73667012244955e-05,2.97423282867654e-06,-0.0161687647626099,-4.43659539174702e-05,-1.19911881945637e-06,3.09196707106886e-05,1.76498410953818e-06,-7.73955913815982e-06,2.31991133216659e-15,0.0157024999008141,-1.69704729552477e-05,0.000469148242714927,0.000261354461728496,6.40376476060359e-08,-6.78508884872527e-08,0.00316472496091749,-0.152405866152958,-1.6106711148717e-05,0.147195382465821,-0.0222090114112068,0.000462262782820308,0.00571048782962879,-0.000543369586233494,-0.000275139627704521,1.13578192451316e-15,0.000425640033850982,9.79918072538426e-06,4.81871393686873e-07,-0.00242161332995094,7.03870881442683e-05,-0.00600497993505575,-2.27796608920122e-06,1.08612404666567e-05,4.12335564144179e-08,2.23889310203313e-06,-1.15254316311784e-06,0.000795811747557058,-2.68882991746877e-06,-1.54780453671541e-08,-1.68323292372768e-08,0.00286499280582097,5.23414671733663e-10,-0.0173979339189737,-0.000232044633298447,1.18655085756814e-14,2.31616021796334e-05,2.63886028441908e-10,-0.000144136004278437,-0.48769934758833,0.00189703782783609,-6.30391673438899e-15,2.5411205500755e-05,-2.61162395734707e-08,-2.0316462394008e-05,2.21113925012378e-06,-7.83264089626099e-07,1.13053064310216e-10,-1.67066689247964e-05,-1.58814934482446e-05,-1.78431643617403e-15,-2.99547667442408e-09,1.45462332687781e-05,1.87819888470272e-07,-2.93934137469601e-09,2.87235155351009e-15,-1.09195741886697e-09,-2.82767165000278e-15,6.71222118127334e-08,5.7974899657427e-16,-7.09009539844548e-16,5.65866364495171e-07,1.694066664945e-15,-1.66274744122562e-06,-3.50591201592788e-05,1.15595735457475e-15,-2.49801650780277e-15,1.87461670701635e-15,-3.51920238265667e-06,0.000157791864027388,1.21904005195288e-16,-5.52678667067944e-08,1.73979533286868e-15,6.06612518426172e-07,-1.97727764260015e-07,7.78243636183922e-06,-1.64846744207503e-15,-1.49141107709899e-15,-6.15686125891824e-16,6.44591823275318e-16,-0.000492847218483433,-1.06441801090687e-14,8.88492276429147e-16,1.26146144465802e-15,5.14151193800787e-15,-3.23787437187982e-08,3.9805793484549e-06,-2.41186238185401e-15,2.10781132754128e-14,4.2426237263454e-15,-5.53881470817022e-16,-5.10558392364009e-08,2.80521027570965e-13,-3.20214465713356e-13,-0.707106781186548,1.80370623340779e-14,-6.0385040640973e-15
"t119",-0.0615697212811504,-0.154673467644343,-0.0496856964110588,0.000683257722101483,0.0795172051669023,5.53799080873158e-05,-0.00451085116098483,0.00179132742289147,-0.00150801536751615,-0.000804686867981907,-0.00304078293613817,0.093992017376474,-0.000441016921742322,-0.000392290395202456,-0.000307771174198356,-0.395835081964457,0.0194110822729281,-0.00895292519007032,-0.000119107039462231,-0.0181854914945635,0.0250454362662137,0.000672660941648226,-0.000907590121216634,0.00105800199933433,-0.00232179638016997,-0.000772779797575206,0.000803708848359624,-0.00159759769459708,0.000518127902994326,0.000695490506205408,-0.00011032240628119,-0.000665306537467266,0.000366640801873475,-0.000126748341501257,-0.000820246239073522,0.00206372899941165,-0.00227697253369738,-0.000142279164707665,-0.00143237871618925,-0.00187516513253917,-8.72443389103875e-05,2.64478427237258e-06,-0.0142510316967487,-3.90279661817995e-05,-1.04597360358486e-06,2.67454969211022e-05,1.5229896857968e-06,-6.42358941807336e-06,2.69589646625939e-15,0.0130114707185178,-1.39049490082458e-05,0.000383748118548691,0.000213598386601751,5.1761935033897e-08,-5.48286136883552e-08,0.00252447896672694,-0.121214629689334,-1.25682034245784e-05,0.114311258889279,-0.0171378753747566,0.000354011492459967,0.00437050685732668,-0.000392471350073651,-0.000191360076123789,-1.30780204890852e-15,0.000291408842648621,6.66611132063023e-06,3.2182843114282e-07,-0.00160994650080108,4.40743854541717e-05,-0.00374557344195321,-1.37266341923478e-06,6.32251720467233e-06,1.96575309362078e-08,1.0437184515247e-06,-5.30547342516498e-07,0.000351908450875934,-1.08348945749331e-06,-5.43742469406138e-09,-4.7246631205935e-09,0.000697046883533543,1.20472423585163e-10,-0.00115269402120785,-1.04865006850678e-05,-1.84990911478167e-14,-8.20830848474904e-06,-1.22483228836675e-10,7.86561518436417e-05,0.51106860777446,-0.00515973782607793,6.32922960701193e-15,0.00132380964054061,-3.63624507172317e-07,-0.000201672721455803,9.46046862828263e-06,-3.01410859950744e-06,4.00291215992644e-10,-5.50899780092498e-05,-5.05822755443239e-05,1.9375300170382e-15,-7.56870849749435e-09,3.31405632783084e-05,3.48631079899892e-07,-5.41430105567311e-09,-2.91825813532358e-15,-1.88180905471787e-09,-3.0026777661193e-16,1.12449118890379e-07,-2.95303201776272e-15,1.67134859283075e-15,8.03182791424002e-07,5.06547804646854e-15,-2.34357710591564e-06,-4.89587613149295e-05,-2.66618814963489e-15,1.69696797544897e-15,-6.32717393800882e-15,-4.76147622175824e-06,0.000212932506484907,-3.56801412520388e-16,-7.41193618214857e-08,-2.94434694302906e-15,8.00974211302256e-07,-2.56560826514227e-07,1.00875887706714e-05,-9.94308586960658e-15,4.24526819740895e-15,-1.99283617027556e-14,6.82176261105053e-14,-0.00062286536713266,-0.707106781186545,-8.17429679373601e-14,-3.24305764001522e-15,-1.58675959889813e-14,-4.04080096030249e-08,4.96724811654786e-06,1.31565260470233e-14,7.07045498197708e-15,-1.14355395318227e-15,6.64011150562358e-15,-6.19719198200986e-08,-9.14072679562383e-15,-2.91333704840024e-15,8.29047665181817e-15,1.81092746181254e-15,5.97369587817129e-16
"t120",-0.0615697212811504,-0.154673467644344,-0.0496856964110588,0.000683257722101472,0.0795172051669023,5.53799080873158e-05,-0.00451085116098485,0.00179132742289151,-0.00150801536751613,-0.000804686867981933,-0.00304078293613823,0.093992017376474,-0.000441016921742371,-0.000392290395202266,-0.000307771174198287,-0.395835081964457,0.0194110822729282,-0.00895292519007036,-0.000119107039461815,-0.0181854914945636,0.0250454362662134,0.000672660941648724,-0.000907590121216498,0.00105800199933413,-0.00232179638016953,-0.000772779797575561,0.00080370884836079,-0.00159759769459747,0.000518127902993395,0.00069549050620572,-0.000110322406281748,-0.000665306537466915,0.000366640801873519,-0.000126748341500956,-0.000820246239073784,0.00206372899941191,-0.00227697253369752,-0.00014227916470799,-0.0014323787161891,-0.00187516513253871,-8.72443389100868e-05,2.64478427200567e-06,-0.0142510316967497,-3.90279661809272e-05,-1.04597360390468e-06,2.67454969201925e-05,1.52298968617507e-06,-6.42358941815564e-06,2.07335605345882e-15,0.0130114707185168,-1.39049490061386e-05,0.000383748118546865,0.00021359838660281,5.17619365861721e-08,-5.48286130206647e-08,0.00252447896672765,-0.121214629689333,-1.25682034244199e-05,0.114311258889282,-0.0171378753747545,0.00035401149246008,0.00437050685732844,-0.000392471350074298,-0.000191360076123358,-1.42054320615664e-15,0.000291408842648406,6.66611131982496e-06,3.21828435496777e-07,-0.00160994650080124,4.40743854554161e-05,-0.00374557344195249,-1.37266341798992e-06,6.32251720430208e-06,1.96575305281815e-08,1.04371845046224e-06,-5.30547344099201e-07,0.000351908450881473,-1.08348945885288e-06,-5.4374226653679e-09,-4.72466059944056e-09,0.000697046883533875,1.2047399229768e-10,-0.00115269402120803,-1.04865006862061e-05,-4.23966417528732e-15,-8.20830848271237e-06,-1.22479903108348e-10,7.86561518457872e-05,0.511068607774454,-0.00515973782607817,4.03687814291566e-15,0.00132380964054185,-3.63624510523966e-07,-0.000201672721461346,9.46046862668812e-06,-3.01410859331625e-06,4.00295354110601e-10,-5.50899780066196e-05,-5.05822755431202e-05,2.05031085554113e-15,-7.56870959397908e-09,3.3140563280882e-05,3.48631083730453e-07,-5.41430880470776e-09,-2.50119843010194e-15,-1.88181491436997e-09,5.75865314083722e-15,1.12449121216338e-07,2.69558912308007e-15,5.12689840412893e-18,8.03182789292487e-07,-5.66043296085426e-15,-2.34357709936415e-06,-4.895876132191e-05,4.70822837821901e-15,-9.64402122700143e-16,1.31254825019299e-15,-4.76147622666607e-06,0.000212932506490502,6.24480715881916e-17,-7.41193551718268e-08,1.79366192388058e-15,8.00974216354742e-07,-2.56560818773732e-07,1.00875887458059e-05,8.69772743361447e-15,-2.98838665517811e-15,2.06752098942385e-14,-7.14104718007787e-14,-0.000622865366704078,0.70710678118655,8.01032629243243e-14,5.36350501220485e-15,2.13318142298653e-14,-4.04080327270462e-08,4.96724810232644e-06,-1.20843230627568e-14,-1.21585210683568e-14,1.21960400188771e-15,-2.67557375716073e-16,-6.19719223044136e-08,8.25054882845565e-15,1.28876828524463e-15,-8.47389102002249e-15,2.84988856461206e-15,-5.9437116922158e-15
"t53",-0.062684152310761,-0.161932221319662,-0.0523219874255395,0.000746547581920301,0.0886378490872466,6.59727496876575e-05,-0.00542767363244291,0.00216332809200896,-0.00252284811651528,-0.0014567382669474,-0.00883664268352693,-0.155932913298364,0.000225126131682315,0.000140471876279648,8.24992330683708e-05,0.0652213820354746,-0.000406357817533173,-0.000391758864411423,-3.07363413514062e-05,-0.00601011360466118,0.0820528478608324,-0.00017307768502115,4.18865589491765e-05,3.68249420251917e-05,-7.89275776693365e-05,-2.48774905710799e-05,-4.25354645224147e-05,9.31540764457055e-05,-4.60012006086765e-05,-0.000106308812520572,2.64844230544767e-05,0.000226573904307851,-0.000125449599342528,5.07245171444315e-05,0.000359128625587432,-0.000936698839915561,0.00107425851003921,6.90985105710212e-05,0.000865272255553511,0.00135264162835852,7.49277764039643e-05,-2.64489112142559e-06,0.0167290518852533,4.73605455908765e-05,1.45651650608444e-06,-4.23092263105457e-05,-2.49677858418684e-06,1.76838640808753e-05,-5.57598353190728e-15,-0.0365702437215035,4.52197460899125e-05,-0.00127662028129979,-0.00071872262390286,-2.03758507372026e-07,2.16768674007654e-07,-0.0125711651975972,0.646565435179733,0.000760809845294635,0.629453191682428,0.0111622924748623,-0.000903494692239062,-0.0115865181588015,0.00286775109057277,0.00201993748035601,-9.56180931404719e-16,-0.00363583943546515,-9.00348471971874e-05,-7.06606661496053e-06,0.100560980883498,-0.0010320654470644,0.0913699448331908,4.87373626699611e-05,-0.000346550835031495,1.73432340399652e-06,8.07467469978563e-05,-3.86588574537866e-05,0.0222195172795462,-5.79936932190142e-05,-2.85551434057179e-07,-3.82134885806627e-07,0.264078347883594,-3.7217658113793e-08,-0.0555744546584922,-0.000766289318599877,8.17401701880272e-15,5.41177545028065e-05,5.13553217916541e-10,-0.000239433147360124,0.00101553392478722,-0.00982320978145119,1.03246784321751e-15,0.00525196287572373,-2.41297074288002e-06,0.0913766012758039,2.03327737000464e-05,-0.0178176525567005,8.54949217878467e-10,-0.000126174687309242,-0.000118445540235625,-3.62609833962275e-16,-1.93866239431106e-08,8.67272869213719e-05,9.22562556989897e-07,-1.43194809628339e-08,-4.38509117207278e-16,-4.93354391506141e-09,9.74824971173214e-16,2.93021883643809e-07,-1.88590993741266e-16,2.23932054002911e-16,1.93986560656284e-06,-1.15331032352809e-16,-5.63074627878379e-06,-0.000116784041779797,4.64833118251322e-16,-1.52100029805432e-17,3.95727768419201e-18,-1.1051524620593e-05,0.000493013749176982,-2.29455006809129e-17,-1.70605038756368e-07,5.82312951558801e-16,1.81605178384986e-06,-5.72563163056402e-07,2.2495000544749e-05,-3.21654947945029e-16,6.99566145725139e-16,1.25740350489226e-15,2.43472677051454e-17,-0.00954246559719224,1.34359149174313e-15,1.61756889059442e-15,-4.38524865715208e-16,2.77530045320482e-15,-8.14116592341435e-08,1.00084405733784e-05,8.24479899665102e-16,-1.53364606903852e-15,-1.32549437823528e-15,3.5155405707889e-15,-1.21309022305086e-07,3.71402596215151e-16,-8.40337329436199e-16,1.73186189172528e-15,1.81847288339311e-15,-6.17439490718842e-15
"t63",-0.0633765051604555,-0.165939065901198,-0.0537468752294279,0.000777072781083942,0.0928165369191893,7.02018776278235e-05,-0.00578737079549801,0.00230836804430915,-0.00280140630628298,-0.00162669433158211,-0.0100744576218037,-0.186609429839651,0.000277244968058043,0.000174690686851984,0.000103390184566618,0.0826957530902576,-0.00052834527386695,-0.000518422912332902,-4.81813257919858e-05,-0.0105475335900006,0.174500812003145,-0.000405688076760151,0.000109506889983353,0.000178510513004684,-0.000404233401195293,-0.000140726834092859,0.00019018465158122,-0.00037877887205226,0.000123306511569219,0.000162734005077749,-2.45107170345407e-05,-0.000135968772576801,7.4818451843842e-05,-2.4426084321247e-05,-0.00015183242675396,0.000375217546887775,-0.000405572758132059,-2.49331598773191e-05,-0.000215207191309598,-0.00023471678978017,-8.3608296558864e-06,1.74717397719411e-07,-0.000429950244155406,-8.63470332881374e-07,1.41800727524862e-08,-1.33976334311839e-06,-9.27929170665139e-08,1.60262813619382e-06,-9.48777857662887e-16,-0.00336038194265408,4.48785410499235e-06,-0.000127875732475782,-7.23101938763329e-05,-2.14779373083687e-08,2.28714132514013e-08,-0.00137218395796828,0.0709518258682487,8.49559973921689e-05,0.0703188529954078,0.00124512691080414,-0.000100316233725647,-0.00128581199102702,0.00028224595656709,0.000171077126455336,-2.84107709803768e-15,-0.000283876540333122,-6.7760731227078e-06,-4.71859493015015e-07,0.00649489821971555,-3.43162287401797e-05,0.00283832670243149,5.30574757906126e-07,3.67632201846185e-06,-2.78861209042562e-07,-1.45995280537249e-05,7.43901374127192e-06,-0.00513615518640452,1.92926961869052e-05,1.4980134094556e-07,3.99825301620635e-07,-0.449073038959577,7.86660718572401e-08,-0.0889833071233454,-0.00103340964389724,1.12410081243297e-14,1.67432270879283e-05,1.16281312465102e-10,-4.18941990634082e-05,-5.46924596257172e-05,0.00491064819119169,-4.78607864278122e-15,-0.0144796970531566,1.18933434728975e-05,-0.775351091212731,5.98441909277169e-05,0.238028159827794,3.2794237898822e-09,-0.000365425291768518,-0.000312154869717936,-4.49864084302134e-15,-3.26015874639076e-08,0.000124335995784884,9.97890136962013e-07,-1.53366430884053e-08,-1.93061399810065e-15,-4.85934971072175e-09,-1.73807306555985e-16,2.78809724266075e-07,9.68197020323095e-16,4.98054001195368e-16,1.52933541662494e-06,1.61705018601927e-16,-4.40708072409838e-06,-9.05458392928965e-05,4.72813890852388e-16,-4.56664045305911e-16,-6.45335303329136e-16,-8.30674035804539e-06,0.000369648379199177,-4.27039102447214e-16,-1.27173257464614e-07,-1.72570142345184e-16,1.33472645435615e-06,-4.1451050435624e-07,1.62712673181661e-05,-2.2940634038433e-16,-3.3832883529691e-16,8.16202309299474e-16,8.06309028120189e-16,-0.00676584750840585,-1.62055598761084e-15,1.35023334064316e-15,3.69175712905879e-16,3.1614471286926e-15,-5.72063637983451e-08,7.03231101056342e-06,-6.17219407934208e-16,6.34467119280719e-16,8.59801017092058e-16,2.15888678372039e-15,-8.38082101221963e-08,-3.51637627221271e-16,-1.07816692327178e-15,-3.49630004219727e-15,2.22629461227619e-15,-2.53349830010762e-15
"t105",-0.064000500698869,-0.169537098490207,-0.0550255579509862,0.000804371785158304,0.0965479062315005,7.39633776223403e-05,-0.00610713876036927,0.00243728503133383,-0.00304676754633782,-0.00177621578356978,-0.0111587629085972,-0.213233373741226,0.000322252202041195,0.000204191948060404,0.000121378168111523,0.097713654339582,-0.000632776341772795,-0.00062657430315811,-6.27667203178524e-05,-0.0143002916609558,0.249867332182151,-0.000594214465528259,0.000164002590557287,0.000290391969841527,-0.000660808835746001,-0.000231922704647638,0.000366948991288148,-0.000736631074491134,0.000250509018918417,0.000361281051934091,-6.13100744272649e-05,-0.000391376854274279,0.000215853117071371,-7.66541781624432e-05,-0.000503982224256795,0.00127619977434071,-0.00141792120840965,-8.90676177631705e-05,-0.000934051301454765,-0.00126626488664858,-6.10806656397595e-05,1.91402140414093e-06,-0.0106995554236243,-2.95335701689279e-05,-8.18657622036276e-07,2.16340988348536e-05,1.24373733789608e-06,-6.16105257566886e-06,2.09070232061559e-15,0.0125754339989188,-1.42407446758713e-05,0.000396873993763049,0.000222009818307774,5.80197374294327e-08,-6.15978132838043e-08,0.00326030946950674,-0.164302869044678,-0.000170048201404381,-0.136344734778364,-0.00231939336537001,0.000178724376582692,0.00228281206440831,-0.000388214369203813,-0.000209734045978743,2.753873573555e-15,0.000334372068204604,7.86134957126866e-06,5.25732716048385e-07,-0.00716879906619572,3.41666596942964e-05,-0.00281016053642818,-5.02082467075504e-07,-3.34864601653174e-06,2.2232819167215e-07,1.15368106736264e-05,-5.8512179613315e-06,0.00398696094340459,-1.46373069119528e-05,-1.11414289989088e-07,-2.93921588108659e-07,0.330130879385194,-5.78839301496547e-08,0.0686099086726267,0.000805095966694116,9.08995101411847e-15,-1.92100625839272e-05,-1.61524439014236e-10,6.98889547254139e-05,-0.000216819042464835,0.00124181592395885,-3.17150595405841e-15,0.000757226351170229,-1.00804299832277e-06,0.0816754770456229,-3.83303213153327e-05,0.404772136813254,1.0867903365014e-09,-6.03636494082168e-05,-3.87567880381538e-05,-7.72889437939048e-16,-5.46885271959791e-10,2.94477008936061e-07,2.64136713324211e-09,-5.22030276930288e-11,-4.33803602069396e-15,-6.17206316860974e-11,5.05249515091204e-16,5.10368741855557e-09,1.05629991361851e-16,-2.62008746263791e-16,1.22388466985827e-07,-1.60746291605389e-15,-3.7087319848066e-07,-8.1365436273087e-06,-4.90529121600002e-15,1.38401642132914e-15,-1.72771833373307e-14,-9.28654357308036e-07,4.20674216952276e-05,-3.2621627241278e-15,-1.50933547443443e-08,-0.707106781186547,1.75797395768757e-07,-6.12951399516713e-08,2.42262530737281e-06,2.35395852808308e-15,3.27473065457959e-16,1.56464165386224e-15,-5.214894957716e-15,-0.00118947900337493,1.68167953371301e-15,1.26221490341149e-15,-1.35753830525282e-16,6.62958724962e-15,-1.09218797377644e-08,1.34338432354964e-06,-7.74157065518626e-16,-1.15682350597133e-15,5.67246924073244e-16,1.7914248525015e-15,-1.91933401895727e-08,8.70806441428268e-16,-1.0039688091855e-15,4.45166859990877e-16,1.95038899519193e-15,-4.10014624647563e-15
"t106",-0.064000500698869,-0.169537098490207,-0.0550255579509862,0.000804371785158301,0.0965479062315005,7.39633776223134e-05,-0.00610713876036931,0.00243728503133386,-0.00304676754633783,-0.00177621578356982,-0.0111587629085971,-0.213233373741226,0.000322252202041053,0.000204191948060205,0.000121378168111272,0.0977136543395819,-0.000632776341772798,-0.000626574303157993,-6.2766720318058e-05,-0.0143002916609557,0.249867332182151,-0.000594214465527888,0.00016400259055728,0.000290391969841141,-0.000660808835746173,-0.000231922704647648,0.000366948991288103,-0.000736631074490956,0.000250509018918101,0.000361281051933599,-6.13100744271693e-05,-0.00039137685427415,0.000215853117071347,-7.66541781623896e-05,-0.000503982224256695,0.0012761997743404,-0.00141792120840922,-8.90676177631551e-05,-0.000934051301454443,-0.00126626488664844,-6.10806656396551e-05,1.91402140400117e-06,-0.0106995554236209,-2.95335701686243e-05,-8.18657622181651e-07,2.16340988347992e-05,1.2437373375599e-06,-6.16105257573857e-06,2.62907451527869e-15,0.0125754339989187,-1.42407446759289e-05,0.000396873993763437,0.000222009818307698,5.80197371093875e-08,-6.15978131967329e-08,0.00326030946950685,-0.164302869044679,-0.00017004820140465,-0.136344734778364,-0.00231939336537127,0.00017872437658246,0.00228281206440885,-0.000388214369203594,-0.000209734045979132,1.63058578088173e-15,0.000334372068204512,7.86134957116044e-06,5.25732715564247e-07,-0.00716879906619531,3.41666596939312e-05,-0.00281016053642768,-5.02082467265201e-07,-3.34864601638998e-06,2.22328191224971e-07,1.15368106730635e-05,-5.85121796203327e-06,0.00398696094340506,-1.46373069116346e-05,-1.1141428960462e-07,-2.93921588024805e-07,0.330130879385191,-5.78839299030883e-08,0.0686099086726264,0.000805095966693526,3.12250225675825e-15,-1.92100625840855e-05,-1.61524562774431e-10,6.98889547258749e-05,-0.000216819042463428,0.00124181592396417,-2.08516192609279e-15,0.000757226351171231,-1.00804299538429e-06,0.0816754770456235,-3.83303213159656e-05,0.404772136813252,1.08679017266776e-09,-6.03636494093979e-05,-3.87567880362483e-05,-1.31428431805312e-15,-5.46885573202354e-10,2.94477009264954e-07,2.64136815786144e-09,-5.22013366718074e-11,-4.37511543390273e-15,-6.17210767451062e-11,-2.16561348371915e-15,5.10368982289628e-09,9.08667294081457e-16,1.11772525868825e-16,1.22388469161888e-07,5.85034731684635e-16,-3.70873197706644e-07,-8.13654359963986e-06,4.79955807803525e-15,-4.08949399248077e-16,1.70772803809141e-14,-9.28654363357142e-07,4.2067421592574e-05,3.53072589637668e-15,-1.50933680680969e-08,0.707106781186549,1.75797383874568e-07,-6.12951321581665e-08,2.42262530416065e-06,-2.89417915563538e-15,5.20130051456843e-16,2.50741338775229e-16,5.56056179811623e-15,-0.00118947900338102,-2.81472371604649e-15,-2.37376550223646e-15,9.00394401298221e-16,1.09928880820616e-15,-1.09218780530688e-08,1.34338432591654e-06,2.07307400605986e-15,-2.61889724062234e-15,-2.53989974876727e-16,4.47504206983761e-15,-1.91933398979571e-08,-4.43992299548265e-16,-6.9845959572968e-16,3.16521327032481e-15,2.13534772604618e-15,-2.78565804316089e-15
