,0,1,2,3,4,5,6,7,8,9
Galium_labradoricum,9.712634,1.7864983,4.1140537,3.4322724,12.597202,-1.5035206,7.3026443,12.687415,1.9570032,4.625368
Galium_ciliare,9.611171,1.7322528,4.1992135,3.4473457,12.699101,-1.5207306,7.336012,12.875353,1.8533579,4.5787587
Galium_tenuissimum,9.511901,1.6460799,4.4225936,3.5253217,12.581554,-1.6375126,7.37301,12.686302,2.103473,4.5644536
Galium_concinnum,9.605238,1.8063364,4.3656883,3.456203,12.583864,-1.5266706,7.3542943,12.673981,1.9179866,4.4212027
Galium_eriocarpum,9.750748,1.7918441,4.1812387,3.5170228,12.485115,-1.7271,7.314378,12.788099,1.9513224,4.6206512
Galium_sterneri,9.76932,1.8218467,4.323742,3.532123,12.422016,-1.6464027,7.2822456,12.825105,1.9639616,4.4948173
Galium_nuttallii,9.734724,1.8364357,4.366006,3.563122,12.677782,-1.6799769,7.2832403,12.65383,1.787217,4.5916066
Galium_circaezans,10.003486,1.9572043,4.179623,3.3018584,12.488188,-1.1165998,7.3294053,12.518018,1.8283527,4.7326927
Galium_angustifolium,10.001459,1.8573662,4.1826344,3.3396215,12.419731,-1.1719487,7.369831,12.538078,1.7695951,4.731582
Galium_trifidum,9.957741,1.9508048,4.28664,3.4318156,12.329113,-1.2603594,7.220426,12.553453,1.9517561,4.6515555
Galium_bifolium,9.997861,1.8381605,4.2584476,3.4950342,12.382817,-1.2200704,7.2503004,12.535475,1.790837,4.5174956
Galium_lucidum,9.880044,2.037946,3.8296382,2.7950134,12.519248,-0.41849208,7.6168756,12.205472,1.3915546,4.4569016
Galium_verum,9.886945,2.1025233,3.797091,3.0270638,12.400883,-0.5070071,7.677191,12.307206,1.6204635,4.5128884
Galium_odoratum,10.005428,2.0160048,3.8749855,3.0011036,12.442941,-0.50050145,7.568718,12.220549,1.55569,4.5677977
Galium_aparine,9.941393,2.1228516,3.7460713,2.9286964,12.411121,-0.37620798,7.711102,12.202015,1.5281067,4.526474
Galium_parisiense,9.984989,2.0450501,3.8094754,2.8933873,12.47741,-0.3908677,7.6320114,12.162329,1.4619225,4.549139
Asperula_glomerata,9.910629,1.8054242,4.0829945,3.4915757,12.39043,-1.1913788,7.2452865,12.475795,1.864469,4.3036847
Asperula_molluginoides,10.013924,1.747926,4.1026616,3.4393482,12.427391,-1.1272836,7.2862306,12.546031,1.7312282,4.467378
Rubia_peregrina,9.603592,1.695782,4.268643,3.5679824,12.675284,-1.6949841,7.1993866,12.780232,2.0713472,4.571996
Kelloggia_galioides,9.838177,1.7082103,4.3302193,3.608024,12.44738,-1.3707595,7.122808,12.774879,2.098291,4.4754925
Coprosma_propinqua,12.994112,0.46982318,4.156992,5.9951477,0.7830061,1.9058808,1.6751012,10.018946,3.131575,6.1526237
Coprosma_repens,13.002994,0.45338053,4.0301943,5.9559054,0.90291375,1.7957544,1.5496185,9.927946,3.1384072,6.159806
Coprosma_robusta,12.969361,0.47312242,4.080532,6.013606,0.83791924,1.8804778,1.6140405,10.001785,3.1109738,6.148721
Coprosma_rhamnoides,13.011922,0.51283616,4.0246596,5.930336,0.95835257,1.7655994,1.619284,9.891853,3.1505651,6.0995293
Coprosma_foetidissima,13.069212,0.51801723,4.1553974,6.0298395,0.83713835,1.8317347,1.7012436,9.951038,3.2121663,6.1004834
Nertera_dichondrifolia,12.949336,0.38759062,3.9876359,5.9491878,0.85857964,1.9086844,1.512325,10.050291,3.0946689,6.2337127
Nertera_granadensis,12.947444,0.38466117,3.999666,5.9463525,0.8476516,1.9073794,1.5005859,10.047792,3.091371,6.236317
Richardia_stellaris,12.497675,2.5863364,8.020871,10.900585,2.316974,-0.08347092,5.364835,6.336456,3.3710332,1.1063036
Psychotria_marginata,12.782864,2.9673011,7.7472367,11.176212,2.9704704,-0.6938175,5.135449,6.6107817,3.3615203,0.6137495
Psychotria_penangensis,12.751082,2.9568262,7.8834534,11.066106,2.9190543,-0.74145424,5.268359,6.6185427,3.2947645,0.68163276
Psychotria_limonensis,12.708997,2.8631132,7.626821,11.145679,2.945452,-0.6374405,5.021581,6.638312,3.4360178,0.7136298
Psychotria_brachypoda,12.938674,3.0323946,7.822352,11.272942,2.9296362,-0.640583,5.1962423,6.5578737,3.305091,0.51600903
Psychotria_papantlensis,12.749319,2.8853314,7.8967137,11.1058445,2.9350703,-0.66658807,5.2886863,6.5738506,3.32529,0.63817954
Psychotria_suterella,12.753738,3.0050955,7.752057,11.125554,2.7662816,-0.67998725,5.11627,6.447616,3.442298,0.7957467
Psychotria_flava,12.798714,3.0106668,8.032216,11.118273,2.8534293,-0.4955742,5.387036,6.27306,3.501485,0.63007474
Psychotria_tenuifolia,12.769535,2.895204,8.073452,11.1669445,2.8230264,-0.4040451,5.4267316,6.325587,3.5009358,0.6426738
Psychotria_loniceroides,12.6929865,2.8871737,8.002246,11.053339,2.7694564,-0.57439655,5.368258,6.3333635,3.4808664,0.8072854
Psychotria_serpens,12.650483,3.0082147,7.9410334,11.095726,2.8083131,-0.432726,5.302644,6.429292,3.3921235,0.67990214
Rudgea_jasminoides,12.708744,2.8031077,8.025031,11.168811,2.5295568,-0.39340395,5.375986,6.376153,3.2333279,0.8250036
Palicourea_faxlucens,12.622165,2.7079158,7.99591,11.122621,2.4718497,-0.2964225,5.309204,6.315324,3.220656,0.90461546
Palicourea_acuminata,12.658236,2.714526,7.9911118,11.185026,2.48487,-0.31381905,5.305924,6.262268,3.234564,0.8769549
Coussarea_suaveolens,12.544721,2.6742055,8.016378,10.956515,2.3876584,-0.19930649,5.3716717,6.379546,3.3437128,1.0168686
Tocoyena_pittieri,5.2805386,12.808725,1.8648674,8.260957,0.41081744,5.3097944,2.7811356,-0.86372167,1.9932337,1.9851259
Gardenia_ovularis,5.2269006,12.945804,1.8101901,8.296787,0.4263029,5.3529515,2.8288465,-0.98525554,2.1220534,1.9803681
Genipa_americana,5.3366475,12.885909,1.791393,8.328187,0.32487193,5.2450943,2.7452068,-0.9327842,2.0813153,2.053845
Coffea_canephora,5.252566,12.974442,1.8509539,8.255456,0.39306322,5.3527117,2.7106683,-1.0811491,2.1947107,2.1670578
Coffea_racemosa,5.439789,12.814478,1.7457005,8.393791,0.4134369,5.2945127,2.7584794,-0.93161505,2.024659,2.1677074
Coffea_arabica,5.3696394,12.876941,1.7774355,8.343083,0.4812349,5.4059644,2.7540364,-1.0576953,2.1002123,2.1540692
Ixora_congesta,5.3772583,12.829977,1.696441,8.450358,0.5433388,5.415343,2.9760826,-0.9065624,2.017317,2.0224326
Ixora_peruviana,5.309044,12.884536,1.7471364,8.391601,0.5589808,5.4504676,2.9251046,-0.92609537,2.0604641,1.9819434
Calycophyllum_candidissimum,5.3708925,12.730169,1.7095063,8.432286,0.60674924,5.488622,3.0331802,-0.7119581,1.8337879,1.6999232
Pentagonia_macrophylla,5.3451223,12.76138,1.6530994,8.487231,0.5937759,5.438942,3.1024094,-0.73368,1.8554596,1.727792
Nauclea_officinalis,5.316303,12.516263,1.6999838,8.444142,0.7300202,5.52019,3.2866793,-0.32189795,1.6898764,1.2363473
Neolamarckia_cadamba,5.375303,12.554868,1.6475961,8.503488,0.71659315,5.5588326,3.2731967,-0.35297832,1.6088095,1.2448733
Arachnothryx_galeottii,5.4970675,12.603756,1.840106,8.352154,0.9488799,5.6535234,3.218815,-0.39341244,1.4348748,1.2093545
Guettarda_elliptica,5.3995633,12.432947,1.8088812,8.366845,0.8877636,5.7922454,3.314575,-0.3064559,1.489288,1.0392437
Guettarda_tikalana,5.418983,12.508138,1.8305256,8.348952,0.97410345,5.6804376,3.353727,-0.25717896,1.467627,1.0702279
Guettarda_aromatica,5.5311713,12.359922,1.7321539,8.460685,0.9327303,5.7530994,3.2794838,-0.21360861,1.3757076,1.1250948
Guettarda_divaricata,5.5331707,12.495021,1.7408056,8.441905,0.853221,5.761354,3.1744678,-0.3896623,1.4292138,1.1709621
Hamelia_axillaris,5.4772143,12.591119,1.6722432,8.504301,0.77117455,5.6439075,3.191897,-0.48229465,1.513917,1.3555499
Asclepias_ovalifolia,-0.27424031,4.0146384,2.9341226,3.3023446,8.999147,-0.1624767,-2.925914,12.551168,10.148427,2.2672086
Asclepias_cordifolia,-0.22874022,4.031943,2.920726,3.4261878,8.827824,0.019289793,-2.9279659,12.754658,10.002407,2.4348097
Asclepias_syriaca,-0.14112419,4.013714,3.05414,3.386516,8.97444,0.050793048,-2.7836597,12.688031,10.022882,2.4676416
Asclepias_verticillata,-0.17491871,4.1097074,2.8416724,3.217808,9.057249,-0.091857925,-2.9694629,12.5822315,10.189841,2.3435986
Asclepias_fascicularis,-0.12427711,4.1650844,2.846635,3.3263378,8.963151,-0.047596462,-2.8898199,12.666149,10.108287,2.385308
Asclepias_incarnata,-0.04231621,4.2235003,2.7953541,3.2752206,8.988061,-0.08301811,-2.9668918,12.768381,10.110638,2.3368306
Calotropis_gigantea,-0.19204837,3.99378,3.0929554,3.2662704,9.11138,-0.103672534,-2.6689043,12.747466,10.072202,2.314663
Calotropis_procera,-0.24129273,4.0082703,3.0607688,3.349618,8.973021,-0.11969192,-2.7318516,12.695472,10.073255,2.29464
Cynanchum_acutum,-0.2126752,4.0245495,3.1486204,3.373377,8.960033,-0.1383462,-2.587795,12.541561,10.125437,2.3029077
Hoya_australis,-0.2500766,3.948885,3.201583,3.3607364,9.048882,-0.18733022,-2.5225487,12.575027,10.091864,2.2512708
Nerium_oleander,-0.15352428,3.986482,3.3068492,3.4820917,8.980045,-0.122373484,-2.317932,12.562812,10.012309,2.325035
Tabernaemontana_cymosa,1.2339654,2.1959198,8.685046,7.061248,6.5524673,2.3955486,7.8373804,10.535806,5.3253026,4.451121
Tabernaemontana_alba,1.3936106,2.1932652,8.776993,7.007331,6.7926507,2.265344,7.7245827,10.417679,5.424204,4.437702
Lacmellea_panamensis,1.3781422,2.4176948,8.81582,7.15655,6.72289,2.2663443,7.6141515,10.453339,5.3875175,4.538775
Catharanthus_roseus,1.3316593,2.3417852,8.765761,7.012165,6.511619,2.4051194,7.819576,10.42373,5.3917966,4.4893165
Vinca_major,1.3405817,2.2781453,8.85358,6.9206457,6.5680156,2.2508562,7.709896,10.370479,5.5244884,4.349791
Plumeria_rubra,1.3776008,2.33298,8.801959,6.891555,6.676844,2.292708,7.7412667,10.315857,5.470777,4.42865
Alyxia_ruscifolia,1.3704469,2.310922,8.724678,7.0780964,6.744752,2.2037117,7.6382475,10.465181,5.3514404,4.431615
Aspidosperma_megalocarpon,1.4652022,2.3152251,8.554846,6.9078608,6.6892653,2.3477383,7.8145313,10.433806,5.2209206,4.3859468
Aspidosperma_cylindrocarpon,1.3354764,2.2503421,8.719493,6.798997,6.5176616,2.4745798,7.9405527,10.376177,5.4105287,4.3823447
Alstonia_angustiloba,1.1976608,2.0694394,8.581046,6.6391706,6.114388,2.8282137,8.325298,10.509366,5.418233,4.3570256
Alstonia_spectabilis,1.1384923,2.0476818,8.514576,6.7350345,6.123297,2.740694,8.243526,10.489873,5.330894,4.4147496
Alstonia_actinophylla,1.2194097,2.0860357,8.5573435,6.6502748,6.0870504,2.8471785,8.338816,10.46236,5.3994446,4.3454795
Alstonia_muelleriana,1.1450889,2.0202186,8.5670595,6.6966286,6.100024,2.768567,8.269488,10.475854,5.364723,4.409811
Alstonia_scholaris,1.2319255,2.071714,8.667926,6.563009,6.141198,2.8474329,8.36183,10.405423,5.4851055,4.322247
Eustoma_exaltatum,-2.1416554,1.359542,0.7743209,4.9803696,5.70325,7.76646,9.868662,3.65543,1.564422,8.417677
Gentianella_parviflora,-2.0868146,1.2635864,0.8498288,5.1380863,5.9640026,7.7106767,9.966753,3.7517204,1.4788884,8.458978
Gentianella_insubrica,-2.0051522,1.2145499,0.92186445,5.08299,5.956853,7.7543383,9.928721,3.7221148,1.6144273,8.346318
Swertia_pseudochinensis,-1.8725435,1.2361917,0.9161919,5.0087614,5.8491287,7.871023,9.916358,3.7594655,1.6378396,8.330496
Gentiana_clusii,-2.1051455,1.2367145,1.1583009,5.225303,6.390207,7.5471835,10.096856,3.615227,1.5663723,8.330514
Gentiana_andrewsii,-1.979058,1.1285617,1.0920686,5.235241,6.208562,7.679361,10.033257,3.7960765,1.6540142,8.198245
Gentiana_affinis,-2.0895908,1.1116604,1.0987735,5.152331,6.2472844,7.62628,9.972611,3.702438,1.6729598,8.259156
Gentiana_utriculosa,-2.061826,1.2167255,1.0582232,5.3031745,6.2562175,7.768446,9.8530245,3.694094,1.5999566,8.146554
Gentiana_nivalis,-2.0816174,1.2937859,1.2077713,5.306953,6.3295774,7.5863953,10.0002985,3.67932,1.4711542,8.390022
Gentiana_pneumonanthe,-1.8974122,1.2240225,1.213453,5.230921,6.1821337,7.655907,9.982228,3.8101997,1.5613991,8.357951
Centaurium_littorale,-2.2136755,1.4847909,0.8842432,5.1424394,5.754011,7.8008766,9.791122,3.5441184,1.4066759,8.336934
Centaurium_pulchellum,-2.3271532,1.3503404,0.8214905,5.092053,5.9162235,7.727269,9.798037,3.57649,1.4504353,8.468089
Cicendia_quadrangularis,-2.2783248,1.3112133,0.7087854,4.964956,5.799798,7.667907,9.882662,3.5460603,1.570799,8.384752
Blackstonia_perfoliata,-2.1654472,1.4945264,0.7914766,5.070104,5.6677175,7.7973433,9.914648,3.5016377,1.502517,8.274415
Geniostoma_rupestre,-1.9878905,1.5407044,0.8300144,4.9373174,5.364129,7.8478317,9.80801,3.7666714,1.5521303,8.407767
