,0,1,2,3,4,5,6,7,8,9
t173,5.6106877,-0.6727182,4.2180424,3.1284153,4.077097,6.3734126,7.512648,11.026281,4.6541095,4.6121225
t184,13.835344,6.927429,4.800069,-3.3685627,6.369931,-0.66136765,6.0932674,0.3391136,0.03182988,0.70386225
t190,0.9557266,9.846784,-1.0105588,6.721861,11.64547,7.6010475,10.579669,15.088067,1.0447842,-3.2599535
t191,-3.5278625,3.3321202,0.66491425,7.874347,1.2604302,3.3536704,4.6855907,1.1128678,3.824659,2.5044632
t195,-3.4103143,3.254958,0.4864454,8.463521,1.188549,3.8325357,5.094835,0.50007737,4.3846807,3.073989
t200,-1.9626559,9.423462,7.600004,3.469939,4.7469673,2.6971743,4.331011,6.2255325,4.5635133,2.8718834
t201,-2.0133054,9.381404,7.546041,3.6075714,4.6246834,2.6130054,4.4637666,6.118698,4.6088543,2.9095662
t203,-2.0383556,9.59504,7.6274176,3.6849916,4.4856954,2.516441,4.7675333,5.94034,4.696966,2.5515144
t205,-2.0325847,9.709781,7.6733046,3.4154623,4.5824313,2.9012413,4.672704,6.221097,5.2929134,2.560366
t206,5.8729343,-1.033662,4.3058057,3.1297395,4.1287904,5.956057,7.542741,11.288207,4.428291,4.740231
t207,5.76146,-1.0804456,4.1087112,3.2525358,4.2076664,6.028669,7.5649786,11.28807,4.398254,4.92236
t208,5.948555,-1.162056,4.4465327,3.0309398,4.1347795,5.998666,7.2859693,11.282861,4.493756,4.6973395
t214,13.662912,7.012957,4.4070125,-3.022753,6.764694,-0.5366379,6.3259573,0.2863198,0.17295565,0.79885966
t216,-1.9214712,9.5340185,7.638758,3.6451006,4.4990187,2.7104766,4.629935,6.045284,4.987462,2.640968
t217,-2.053246,9.414513,7.561956,3.7532609,4.611921,2.611399,4.7165384,6.114573,4.8136277,2.4905457
t220,-3.3949714,3.2211523,0.68480396,7.9056587,1.3433403,3.465626,4.647849,1.0450319,3.842022,2.5759804
t223,-2.0563447,9.628603,7.590824,3.5675585,4.504873,2.7455766,4.697471,6.141077,5.164013,2.4550283
t224,-2.0924532,9.5307255,7.6172304,3.6485388,4.4421144,2.708446,4.747958,6.173548,5.1251335,2.3486176
t226,13.809346,6.967802,4.872901,-3.4257905,6.4429817,-0.76987404,6.1569867,0.30695945,-0.073790684,0.5127598
t227,13.672066,7.147658,4.736951,-3.2959754,6.4628,-0.5465064,6.252414,0.47889096,-0.24008508,0.71621585
t228,-1.9388663,9.290623,7.3901496,3.5137532,4.6610622,2.5591614,4.4123697,6.131337,4.4812937,3.059573
t230,-2.4728765,-3.6121516,4.715628,14.259994,7.1113434,2.4727192,-0.2795304,0.3942986,10.34676,2.8158174
t231,13.85513,6.8585315,4.9406166,-3.4456713,6.5051136,-0.80764055,6.1676455,0.23710527,-0.07918835,0.5566401
t232,-2.0144718,9.835496,7.834954,3.4438076,4.3255396,2.8403437,4.8233066,6.154474,5.3951,2.3044121
t233,-2.255253,9.274089,8.233835,3.0573804,5.020785,2.685655,3.8745487,6.5261426,4.619322,3.7988513
t235,-2.1910055,9.200403,8.103735,3.107113,4.9064136,2.6124191,3.9230137,6.468482,4.5050025,3.6861281
t236,13.731561,6.8177867,4.84614,-3.3653212,6.4895034,-0.69129205,6.0656934,0.20981778,-0.1968957,0.43650696
t238,5.686469,-1.234607,4.3790765,3.129402,3.9743307,6.1831746,7.6591296,11.328448,4.5128684,4.765674
t239,5.709404,-1.180513,4.389341,2.976449,4.1482873,6.0507936,7.591674,11.089972,4.5184193,4.7179046
t241,-1.9414083,9.617992,7.5728693,3.7101264,4.380079,2.5129259,4.7085238,5.8654814,4.798277,2.5560238
t244,5.879315,-1.132772,4.289235,3.074597,3.929217,6.0195365,7.745081,11.157586,4.117799,4.8252797
t245,1.282915,9.729036,-1.2058272,6.890635,11.688873,7.6489625,10.47443,15.1893,1.2967819,-3.4283252
t246,-2.6030154,-3.4951203,4.642263,14.392987,7.24491,2.5655787,-0.17933519,0.4534643,10.461878,2.8720305
t249,13.777073,6.8260856,4.824695,-3.2559643,6.4152145,-0.6599218,6.0961876,0.33316645,-0.025681317,0.56117153
t250,-1.9173028,9.78,7.69516,3.6497078,4.2673397,2.518426,4.746821,5.792915,4.961102,2.4955497
t251,-2.064892,9.509246,7.42039,3.7274916,4.383586,2.3973484,4.6435237,5.874656,4.7078075,2.6147456
t252,5.919611,-1.2175907,4.238961,3.0107794,4.1957836,5.9727907,7.733033,11.276205,4.247256,4.811087
t256,-2.052447,9.096611,8.009167,3.181767,4.864897,2.5628917,4.001963,6.5146933,4.541395,3.5257156
t257,-2.21933,9.23084,8.053284,3.2127206,4.9278297,2.674315,4.0404825,6.417852,4.555697,3.602428
t258,-1.9209946,9.790662,7.7544847,3.5644312,4.3018503,2.7994032,4.803736,6.093236,5.446063,2.1248224
t259,6.0472794,-1.063813,4.4478765,3.018706,4.297289,5.8672557,7.2973175,11.358684,4.439347,4.7891326
t261,-2.677376,-3.4650645,4.575772,14.408957,7.067416,2.7309818,0.093240656,0.61583674,10.112482,2.7186136
t262,-3.4420958,3.35769,0.38190305,8.498091,1.0829726,3.7966833,5.0781875,0.446762,4.328723,3.1191292
t263,-1.9475939,9.695934,7.674103,3.4787433,4.5757437,2.9593418,4.877264,6.158902,5.2564588,2.3434489
t264,-1.8427703,9.845978,7.723105,3.3962917,4.5630255,2.8455138,4.771057,6.2479434,5.202695,2.3628876
t265,1.3148612,9.573982,-1.1374891,6.911323,11.699122,7.6392508,10.737313,15.098709,1.3776095,-3.2924073
t266,-2.4458752,-3.5515952,4.4873695,14.400511,7.1303873,2.7517297,0.13992779,0.48094064,10.20633,2.8822484
t267,1.3883433,9.634418,-1.1182028,6.7893877,11.652851,7.6486773,10.426234,15.077515,1.3955296,-3.521738
t269,-3.5496485,3.223504,0.72779197,7.8052707,1.1919696,3.5132294,4.666881,1.1631271,3.8360868,2.6546378
t270,-3.3365338,3.1386178,0.70876986,7.997815,1.3499404,3.5141327,4.728916,0.98490494,3.8680007,2.6552603
t271,-2.567209,-3.5069451,4.588843,14.322708,7.239256,2.5093489,-0.17777824,0.420063,10.309961,2.9666805
t272,-2.525213,-3.5553038,4.687325,14.306467,7.177459,2.4773285,-0.25545174,0.37156662,10.369774,2.8835251
t274,-3.5093913,3.1854026,0.75834817,7.8871446,1.3659203,3.2959058,4.787856,1.1530561,3.7900834,2.48391
t275,-3.43622,3.2580035,0.76280725,7.896225,1.2302451,3.351992,4.6962843,1.0941694,3.7548501,2.4989383
t276,-3.3466566,3.2773044,0.41203216,8.460749,1.1267292,3.8933198,5.1795855,0.45480388,4.3109403,3.1747074
t277,-3.4989512,3.2585711,0.49380222,8.53303,1.1900234,3.7620401,4.998853,0.46276125,4.440992,3.004243
t278,5.943368,-1.2916865,4.088143,3.035233,4.07492,6.0575805,7.870889,11.228028,4.1295247,4.900991
t279,5.9536877,-1.1868454,4.150983,2.8786948,4.1762094,6.032846,7.9443784,11.142863,4.216621,4.668119
t280,5.6363,-0.9288491,4.222836,3.1411982,4.264901,5.951327,7.691431,11.144996,4.4417715,4.8684416
t281,5.4786086,-0.95976114,4.3567305,3.175431,4.233304,5.904302,7.674572,11.281315,4.4912934,4.9820733
t282,-2.496418,-3.5566065,4.348951,14.266075,7.0428834,2.641231,0.038887274,0.32897827,10.231926,2.9474833
t283,6.224558,-1.1368709,4.545013,3.0610168,4.3058586,5.8186007,7.0779386,11.59043,4.379996,4.7057533
t284,5.669252,-1.1302361,4.3367195,3.0773256,3.832933,5.943013,7.546854,11.214382,4.188594,5.0125885
t285,5.610068,-1.0303928,4.238138,3.1626067,3.9447126,6.018499,7.669938,11.230008,4.190673,5.0199833
t286,-3.4462554,3.301901,0.4428682,8.479842,1.1439699,3.8003156,5.065505,0.48265812,4.380145,3.069879
t288,1.2967583,9.5171,-1.2847044,6.716909,11.632306,7.710021,10.526745,15.121104,1.3364632,-3.3222442
t289,1.2822242,9.640822,-1.05017,6.7759523,11.632956,7.66974,10.492012,14.970954,1.2379265,-3.391982
t290,13.867895,6.968613,4.9006615,-3.4430237,6.490261,-0.7949682,6.25931,0.3201346,0.0039853314,0.6990985
t291,13.764844,6.9409876,4.893469,-3.2702668,6.416994,-0.70473135,6.285939,0.42347547,-0.13965233,0.56951374
t292,-2.5490131,-3.534904,4.5639443,14.371347,6.994306,2.6804633,0.057190817,0.4517673,10.285407,2.7579439
t293,-2.6454768,-3.4177659,4.598226,14.475879,7.0467777,2.609619,0.08676793,0.36628985,10.298618,2.8346465
t294,1.1162907,9.538069,-1.0695673,6.8065615,11.712402,7.5614996,10.696734,15.137376,1.36373,-3.209727
t295,1.0873826,9.70562,-1.0726393,6.732852,11.742736,7.4723635,10.583522,15.223052,1.4230363,-3.329697
t296,-2.0293267,9.254684,7.3056073,3.6673477,4.6029086,2.486454,4.4213247,6.0332847,4.5551267,2.9938462
t297,-1.9911474,9.207992,7.279012,3.5679777,4.680396,2.5020852,4.3542585,6.100677,4.534974,3.0750403
t298,0.931577,9.823668,-1.0195465,6.688178,11.667837,7.589546,10.64239,14.998257,0.97279185,-3.251644
t299,13.6333275,7.0535016,4.793828,-3.2571056,6.5462756,-0.60535383,6.321547,0.40359512,-0.21694294,0.6851047
t300,13.711287,7.166398,4.7548804,-3.3240237,6.43871,-0.5718269,6.2108855,0.48112056,-0.27677223,0.64713717
t301,6.257303,-1.0958623,4.4391713,2.9864109,4.20402,5.7842913,6.99786,11.480193,4.2800336,4.846393
t302,-2.4548938,-3.554974,4.528422,14.3703,7.16897,2.6632633,0.08370207,0.42364162,10.167657,2.8955922
t303,-2.5873787,-3.4864943,4.454944,14.384762,7.0236115,2.682192,0.17905806,0.35588935,10.251688,2.8237662
t304,5.6883492,-0.8935564,4.27194,3.1394887,3.9353476,6.1101847,7.850484,11.157728,4.450764,4.730051
t305,5.5823402,-0.84171927,4.17435,3.2032955,4.0696588,6.1455965,7.8114076,11.107817,4.4384737,4.854788
t306,1.1728963,9.625846,-1.1075082,6.664726,11.598638,7.6756935,10.667497,15.128925,1.2872652,-3.3431828
t307,1.1791127,9.61554,-1.0740302,6.579292,11.566839,7.68205,10.723588,15.118596,1.3519019,-3.441124
t308,5.7252336,-0.7062881,4.273738,3.0967202,3.9625044,6.2727838,7.579368,11.121241,4.5673676,4.5371394
t309,5.6158295,-0.69997436,4.2070284,3.162253,4.0470185,6.3145156,7.5655875,11.055762,4.6149645,4.666187
t310,0.8896085,9.875856,-1.0522251,6.8231297,11.767103,7.4792542,10.4458,15.052502,1.0029742,-3.1834705
t311,1.0020341,9.774401,-1.0442575,6.8117013,11.794409,7.4897842,10.559736,15.0549345,1.0505463,-3.2088857
t312,-2.187665,9.244332,8.245853,3.15785,5.036269,2.7172093,3.9801426,6.456279,4.647782,3.7472363
t313,-2.0911057,9.086648,8.248843,3.1889791,4.990184,2.6150987,4.0144267,6.4864984,4.538187,3.7391422
t314,-1.970048,9.888166,7.7454314,3.3968349,4.252272,2.7430959,4.7437167,6.2487397,5.4531927,2.2005045
t315,-1.9607854,9.826432,7.8034472,3.4641337,4.3946767,2.8739622,4.838843,6.1567593,5.366557,2.253375
t316,6.1971283,-1.193001,4.519668,2.9936302,4.300066,5.83741,7.0454445,11.557613,4.3512645,4.7380314
t317,6.222955,-1.1898662,4.478729,2.9886224,4.3246984,5.7670884,7.030832,11.561159,4.2986827,4.812763
t318,13.730828,7.0700507,4.497983,-3.1040845,6.725051,-0.6310718,6.349163,0.2921669,0.047015868,0.72190255
t319,-3.4901617,3.3003755,0.65136284,7.9410334,1.1235486,3.603828,4.6673107,0.9997877,3.932839,2.733544
t320,-3.5012236,3.1978924,0.7287131,7.925813,1.0873357,3.6493442,4.7037125,1.0296898,3.9303732,2.789655
t321,13.582121,6.868974,4.3548565,-2.9410892,6.797749,-0.70683074,6.4166613,0.15717445,0.0045580165,0.8055904
t322,13.688544,6.9923615,4.447131,-3.062976,6.8099008,-0.6756439,6.3848696,0.2141402,0.021642774,0.73530704
